-1.045136675238609314e-01
3.249146044254302979e-01
-9.532480686902999878e-02
1.774724125862121582e-01
-5.009547472000122070e-01
-7.884468883275985718e-02
1.576804518699645996e-01
-6.634334474802017212e-02
3.350449800491333008e-01
-1.452981531620025635e-01
-3.026250600814819336e-01
2.189896702766418457e-01
3.410198092460632324e-01
2.154088020324707031e-01
-1.618309617042541504e-01
5.846825838088989258e-01
-8.565136194229125977e-01
-7.660815119743347168e-01
5.839665532112121582e-01
5.636793971061706543e-01
3.103017210960388184e-01
-1.146911829710006714e-01
3.978448212146759033e-01
-8.137850463390350342e-02
3.073821067810058594e-01
6.514791399240493774e-02
2.214608788490295410e-01
-1.210044696927070618e-01
6.701707839965820312e-02
3.562897145748138428e-01
2.312916666269302368e-01
1.010640338063240051e-01
-8.688722252845764160e-01
-7.876910385675728321e-04
3.899876773357391357e-01
1.871843636035919189e-01
4.039825499057769775e-01
-4.430654346942901611e-01
-4.542450606822967529e-01
5.768787860870361328e-01
2.198949903249740601e-01
5.799237489700317383e-01
9.275994449853897095e-02
2.974659800529479980e-01
4.237485527992248535e-01
-8.765017986297607422e-02
-1.476206332445144653e-01
3.418608605861663818e-01
3.156099021434783936e-01
-3.095898926258087158e-01
2.753883898258209229e-01
1.330517083406448364e-01
1.423469632863998413e-01
-2.801374197006225586e-01
-9.884718656539916992e-01
5.353240966796875000e-01
-1.938192546367645264e-01
4.304865598678588867e-01
1.078467220067977905e-01
-1.152221202850341797e+00
-2.340323776006698608e-01
1.230461299419403076e-01
3.987178802490234375e-01
7.054204940795898438e-01
-3.670679032802581787e-01
-4.081589877605438232e-01
-5.321686714887619019e-02
5.074766278266906738e-01
2.264724969863891602e-01
2.996948361396789551e-01
-1.790869049727916718e-02
2.400107979774475098e-01
6.929007917642593384e-02
-2.425268590450286865e-01
-5.626418069005012512e-02
1.101568117737770081e-01
4.367668628692626953e-01
3.592278063297271729e-01
-5.259796380996704102e-01
4.139354526996612549e-01
-1.970363967120647430e-02
3.267331719398498535e-01
-1.482851505279541016e-01
6.282165646553039551e-01
-1.154525671154260635e-02
4.403264522552490234e-01
4.200426936149597168e-01
5.397754907608032227e-02
3.235679492354393005e-02
-1.953878849744796753e-01
-1.221394389867782593e-01
1.658045947551727295e-01
4.641548395156860352e-01
-1.301266551017761230e-01
-1.290773302316665649e-01
4.590034782886505127e-01
1.547059118747711182e-01
2.391737997531890869e-01
2.033126503229141235e-01
3.032009005546569824e-01
