-4.097926244139671326e-02 1.051218900829553604e-02 7.403605431318283081e-02 -1.039237808436155319e-02 -1.526206615380942822e-03 6.289354711771011353e-02 2.153446525335311890e-02 5.241423472762107849e-02 -1.067158877849578857e-01 1.147404760122299194e-01 2.310538291931152344e-02 -2.548388019204139709e-02 7.699436973780393600e-03 -1.000776663422584534e-01 -1.857397705316543579e-02 -5.416880361735820770e-03 -1.746309734880924225e-02 -5.314367823302745819e-03 1.445075031369924545e-02 3.833079244941473007e-04 6.900859624147415161e-02 -4.010707139968872070e-02 -1.765298843383789062e-02 -1.115096956491470337e-01 1.784690469503402710e-02 3.952027484774589539e-02 4.828849341720342636e-03 -7.195466011762619019e-02 -7.889000698924064636e-03 1.973038725554943085e-02 -1.125891432166099548e-01 5.639771465212106705e-03 1.734330435283482075e-03 4.848612844944000244e-02 -3.202192485332489014e-02 8.603639900684356689e-02 1.318767368793487549e-01 4.801994655281305313e-03 -5.810777097940444946e-02 -2.411922032479196787e-04 5.358732305467128754e-03 2.883398905396461487e-03 1.124312169849872589e-02 5.524332448840141296e-02 -2.787418104708194733e-02 -1.399416103959083557e-02 9.511319547891616821e-02 6.221300573088228703e-04 2.460070326924324036e-02 9.419614798389375210e-04 -1.525762863457202911e-02 -1.015912834554910660e-02 1.091251298785209656e-01 1.829769928008317947e-03 -9.599564597010612488e-03 -2.105211839079856873e-02 4.901191964745521545e-02 -3.525065258145332336e-02 -1.007220614701509476e-02 -1.652432605624198914e-02 1.098863333463668823e-01 9.496668726205825806e-02 3.656353428959846497e-02 -6.811377126723527908e-03 -3.553397255018353462e-03 -3.809834015555679798e-05 -6.821947544813156128e-02 -3.527478547766804695e-03 9.750893805176019669e-04 5.435717478394508362e-02 1.685479097068309784e-02 -1.267286688089370728e-01 1.316080894321203232e-02 -1.317632105201482773e-02 -3.357441350817680359e-02 1.169482842087745667e-01 3.183310106396675110e-02 1.725814118981361389e-02 1.247062906622886658e-01 -2.448877133429050446e-02 5.707035958766937256e-02 5.264637526124715805e-03 -8.781650662422180176e-02 -1.205279305577278137e-02 -1.946449466049671173e-02 -2.032580040395259857e-02 -2.697858586907386780e-02 -3.632360696792602539e-02 -3.804831579327583313e-02 -2.749356813728809357e-02 9.843712300062179565e-02 1.499383710324764252e-02 9.515451639890670776e-02 5.615872796624898911e-03 -1.055192872881889343e-01 8.816571533679962158e-02 6.350411474704742432e-02 2.510121837258338928e-02 -3.986753057688474655e-03 -1.603585779666900635e-01
-6.311284005641937256e-02 2.768331952393054962e-02 5.639708042144775391e-02 -1.729526929557323456e-02 2.381608821451663971e-02 4.851562529802322388e-02 1.707043498754501343e-02 -1.517512276768684387e-02 1.256157364696264267e-02 -4.547402635216712952e-02 -3.159612789750099182e-02 -7.022370118647813797e-03 -1.177180744707584381e-02 -2.446752274408936501e-03 1.500186230987310410e-02 2.191390143707394600e-03 1.231924816966056824e-02 2.077732235193252563e-02 3.064913861453533173e-02 3.265244595240801573e-05 -1.462641544640064240e-02 6.256595253944396973e-02 3.255054727196693420e-02 4.025608301162719727e-02 1.695526577532291412e-02 1.063495874404907227e-02 2.954092994332313538e-02 -1.647702604532241821e-02 1.658658497035503387e-02 -2.818551287055015564e-02 -4.323798231780529022e-03 -2.087567234411835670e-03 -2.099462412297725677e-02 1.136458711698651314e-03 4.268787428736686707e-02 -1.852117665112018585e-02 1.738319545984268188e-02 4.297714680433273315e-03 2.343354374170303345e-02 2.395342016825452447e-05 -3.304717689752578735e-02 -5.858190357685089111e-03 3.562171384692192078e-02 2.261217497289180756e-02 -2.882118895649909973e-02 -2.957543171942234039e-02 7.135905325412750244e-04 -5.686149932444095612e-03 -5.135345738381147385e-03 -2.664817729964852333e-03 3.636652603745460510e-03 2.188065834343433380e-02 -6.452276720665395260e-04 2.469879016280174255e-02 3.278123214840888977e-02 -2.817676402628421783e-02 7.007197127677500248e-04 3.719922527670860291e-02 3.310392610728740692e-03 3.326746821403503418e-02 7.358280941843986511e-03 -1.148452796041965485e-02 -3.526746854186058044e-02 -6.265515112318098545e-04 4.029977135360240936e-03 -1.747100381180644035e-03 1.333741005510091782e-02 2.844052016735076904e-02 -3.341738367453217506e-03 -3.128030337393283844e-03 -2.684952877461910248e-02 -8.974557742476463318e-03 3.295093029737472534e-02 2.172672748565673828e-02 4.146306961774826050e-02 1.542773749679327011e-02 -3.827413544058799744e-02 -5.543984938412904739e-03 1.129973959177732468e-02 -2.872307598590850830e-02 -1.866582036018371582e-02 2.116383053362369537e-02 9.971255436539649963e-03 -8.327812701463699341e-02 -6.516670808196067810e-03 -9.338293224573135376e-03 -2.437392808496952057e-02 1.188244670629501343e-02 -5.053363274782896042e-03 -2.001874090638011694e-04 -4.779197741299867630e-03 -2.657668851315975189e-02 -7.183985318988561630e-03 -6.025041639804840088e-02 6.271678954362869263e-02 -2.274269796907901764e-02 -2.625791588798165321e-03 -1.903069019317626953e-02 3.634838387370109558e-02 -1.485456153750419617e-02
4.832923412322998047e-02 -2.569429762661457062e-02 6.929705291986465454e-02 -2.072031050920486450e-02 -5.830799043178558350e-02 -7.766267657279968262e-02 -6.692066043615341187e-02 7.208768278360366821e-02 -2.732315100729465485e-02 -1.442653965204954147e-02 -5.034220963716506958e-02 1.907992735505104065e-02 -2.625950612127780914e-02 -6.851056125015020370e-03 1.038614660501480103e-02 3.116361564025282860e-03 -3.495316579937934875e-02 -4.001395031809806824e-02 -1.947767101228237152e-02 3.059030859731137753e-04 2.297550067305564880e-02 -3.061455208808183670e-03 -3.751750802621245384e-03 2.934522926807403564e-04 4.512683302164077759e-02 1.484774332493543625e-02 -7.715592533349990845e-02 1.076744403690099716e-02 -4.248489812016487122e-02 1.151365339756011963e-01 -1.330592017620801926e-02 6.339500844478607178e-02 -4.671931266784667969e-03 -1.914500072598457336e-02 3.360533341765403748e-02 3.196865320205688477e-02 4.160467162728309631e-02 7.369241211563348770e-05 4.521462321281433105e-02 -8.162590092979371548e-04 5.945276096463203430e-02 -1.230515073984861374e-02 5.485121160745620728e-03 -4.530086740851402283e-02 -8.267801254987716675e-03 -5.014920979738235474e-02 2.679306268692016602e-02 -1.549012609757483006e-03 5.448868125677108765e-02 -5.616436246782541275e-03 -5.618117377161979675e-02 -2.275235578417778015e-02 -1.557283196598291397e-02 6.476701796054840088e-02 5.456508696079254150e-02 -1.151154935359954834e-01 2.713849954307079315e-02 -2.324075810611248016e-02 3.721697721630334854e-04 5.937122181057929993e-02 -2.330929273739457130e-03 2.126268483698368073e-02 1.805600151419639587e-02 -8.105608634650707245e-03 -4.761424381285905838e-03 6.208389531821012497e-03 3.833153471350669861e-02 4.081539437174797058e-02 -5.557548254728317261e-03 -4.609939083456993103e-02 -3.929368034005165100e-02 -3.677969053387641907e-02 3.714127000421285629e-03 4.379448667168617249e-02 -5.962526798248291016e-02 -1.020323764532804489e-02 1.213687285780906677e-02 -7.242971658706665039e-02 7.444030139595270157e-03 -2.738194912672042847e-02 -1.247303932905197144e-01 -4.272851347923278809e-02 1.393529959022998810e-02 1.484641525894403458e-02 1.336835324764251709e-02 5.347509682178497314e-02 -1.694437675178050995e-02 6.746216240571811795e-05 5.902988463640213013e-02 -6.129119172692298889e-02 3.632732108235359192e-02 1.044509187340736389e-02 1.159617584198713303e-02 -9.291332680732011795e-04 6.803737580776214600e-02 4.113025497645139694e-03 -6.419410929083824158e-03 3.201173618435859680e-02 8.034126949496567249e-04 6.637754850089550018e-03
-4.116475954651832581e-02 -2.204676158726215363e-02 2.799887023866176605e-02 2.693525515496730804e-03 -5.791441351175308228e-02 -2.883108332753181458e-02 4.283066093921661377e-02 -1.017299816012382507e-01 6.132334843277931213e-02 -2.348260022699832916e-02 3.386588022112846375e-02 8.971173316240310669e-02 -4.865916818380355835e-02 -1.932795718312263489e-02 -2.656312100589275360e-02 -1.955461129546165466e-02 -5.837386846542358398e-02 -4.465881362557411194e-02 -6.183107569813728333e-02 9.173370199277997017e-04 2.495694346725940704e-02 -7.204644498415291309e-04 -7.271049171686172485e-02 5.271125212311744690e-02 -5.920521914958953857e-02 2.230424992740154266e-02 4.828260466456413269e-02 -4.299209639430046082e-02 3.676043823361396790e-02 2.042928710579872131e-02 3.441169392317533493e-03 3.660981729626655579e-02 -5.481498688459396362e-02 7.424985617399215698e-02 -5.637699365615844727e-02 9.456565603613853455e-03 -5.263218656182289124e-03 -1.526546478271484375e-02 5.777044966816902161e-02 7.291871588677167892e-04 -7.095020264387130737e-02 -1.170792244374752045e-02 -2.927903644740581512e-02 5.320033989846706390e-03 -5.894688144326210022e-02 2.824718691408634186e-02 -3.723896341398358345e-03 5.677231587469577789e-03 5.781120806932449341e-02 -5.284046637825667858e-04 5.044787377119064331e-02 -4.380100592970848083e-02 -9.864991530776023865e-03 5.641918629407882690e-02 -6.841814517974853516e-02 7.021951675415039062e-02 -4.582159221172332764e-02 -4.318936541676521301e-02 -4.076495394110679626e-02 -7.216295599937438965e-02 -1.022291742265224457e-02 2.133566187694668770e-03 -1.326248347759246826e-01 -6.858439650386571884e-03 -4.226792603731155396e-03 6.080222781747579575e-03 -7.346253842115402222e-02 -6.098273023962974548e-02 6.911124568432569504e-03 5.399092286825180054e-02 -7.501937448978424072e-02 8.258938789367675781e-03 -3.186396509408950806e-02 5.793889611959457397e-02 -1.281896326690912247e-02 7.108541578054428101e-02 3.614589944481849670e-02 7.883288711309432983e-02 -2.002314850687980652e-02 -6.552420556545257568e-02 -5.048399418592453003e-02 -5.193878337740898132e-02 2.016454190015792847e-02 -1.633314043283462524e-02 -1.902788877487182617e-02 1.152321249246597290e-01 2.291080169379711151e-02 -1.110081211663782597e-03 -2.409320557489991188e-03 -4.262147098779678345e-02 -2.036750875413417816e-02 9.879441931843757629e-03 -2.384872734546661377e-02 -1.150072552263736725e-02 -4.603395983576774597e-02 4.871635511517524719e-02 5.313049070537090302e-03 1.012009941041469574e-02 -3.596442565321922302e-02 -1.403095666319131851e-02
1.136932000517845154e-01 1.482034176588058472e-01 8.225197345018386841e-02 -2.424802184104919434e-01 -2.694443427026271820e-02 -2.756330370903015137e-02 1.118167042732238770e-01 -3.313789144158363342e-02 7.593434303998947144e-03 7.193210721015930176e-02 -4.942513536661863327e-03 -3.209615945816040039e-01 -9.008336812257766724e-03 -7.322854828089475632e-03 2.978693544864654541e-01 -2.917353808879852295e-02 -2.321077883243560791e-02 -1.279582269489765167e-03 1.452247961424291134e-03 -3.641680814325809479e-03 9.179891087114810944e-03 9.362977743148803711e-02 -4.208346083760261536e-02 -9.991495311260223389e-02 2.410637401044368744e-02 -3.107857108116149902e-01 -1.677581458352506161e-03 4.221234936267137527e-03 -4.082283005118370056e-02 1.704966723918914795e-01 -1.512877456843852997e-02 6.803919374942779541e-02 6.404831539839506149e-03 -1.729425042867660522e-02 9.032058878801763058e-04 1.736992783844470978e-02 1.830836944282054901e-02 6.448154803365468979e-03 2.101795375347137451e-02 -2.703922102227807045e-03 -3.572560846805572510e-02 1.882670968770980835e-01 -3.139755222946405411e-03 -3.762827441096305847e-02 4.954094067215919495e-03 3.697871789336204529e-02 1.767973415553569794e-02 -3.393201828002929688e-01 8.479804731905460358e-03 4.642446041107177734e-01 -2.837909758090972900e-02 1.613747328519821167e-02 1.560444012284278870e-02 1.905917562544345856e-02 -3.104925388470292091e-03 -6.912580225616693497e-03 5.142681766301393509e-05 1.543313264846801758e-02 -6.934439297765493393e-03 -2.106216363608837128e-02 -3.188326489180326462e-03 4.848080221563577652e-03 3.414655849337577820e-02 -3.558669984340667725e-01 -3.268457651138305664e-01 2.132363617420196533e-01 -7.057926803827285767e-02 -2.195335738360881805e-02 3.077315986156463623e-01 1.813364028930664062e-01 -2.571636252105236053e-02 -1.800460927188396454e-02 6.039345636963844299e-03 1.138296350836753845e-01 -3.793646395206451416e-02 1.266393344849348068e-03 1.133500505238771439e-02 1.668373122811317444e-02 -9.787184186279773712e-03 -1.486069858074188232e-01 2.658997103571891785e-02 -4.139336571097373962e-02 4.403518978506326675e-03 4.698942974209785461e-02 4.930666387081146240e-01 9.501722455024719238e-02 -1.177071128040552139e-02 -5.041755437850952148e-01 1.479554362595081329e-02 -5.179575085639953613e-02 2.351584844291210175e-04 -2.371670119464397430e-02 -1.162145193666219711e-02 -3.007723018527030945e-02 5.597127135843038559e-03 3.208993002772331238e-02 -1.327723741531372070e+00 8.378950506448745728e-02 -1.283415872603654861e-02 3.419498726725578308e-02
6.943884491920471191e-02 2.078475058078765869e-01 -8.070292323827743530e-02 3.754757344722747803e-01 1.223572995513677597e-03 -8.470235764980316162e-02 1.413959078490734100e-02 7.705514784902334213e-03 -5.095005780458450317e-02 -1.920560142025351524e-03 -1.195632293820381165e-02 -1.419724524021148682e-01 -3.742758929729461670e-02 3.343169577419757843e-03 -2.463307045400142670e-02 2.637953758239746094e-01 -2.774928137660026550e-02 2.226190455257892609e-02 -2.505930606275796890e-03 5.758163169957697392e-04 -3.195676254108548164e-03 1.601719558238983154e-01 -5.120658315718173981e-04 3.041958203539252281e-03 -1.396743301302194595e-02 -2.291865497827529907e-01 9.955593384802341461e-03 5.692068487405776978e-02 -4.834734275937080383e-02 8.443816751241683960e-02 -2.582885138690471649e-02 9.317044913768768311e-02 4.558682069182395935e-02 2.781312214210629463e-03 1.479359120130538940e-01 -5.272554699331521988e-03 6.596887018531560898e-03 -2.791392207145690918e-01 -5.232479050755500793e-02 -3.768798708915710449e-01 -7.745503634214401245e-02 -3.529680073261260986e-01 -3.293052315711975098e-02 4.258712008595466614e-02 8.388733863830566406e-02 2.116414904594421387e-02 3.452265518717467785e-04 -2.699931561946868896e-01 2.618906274437904358e-02 3.823910951614379883e-01 -6.211503595113754272e-02 -6.737381219863891602e-02 1.870801113545894623e-02 1.583877205848693848e-02 -1.801598444581031799e-02 2.558838762342929840e-02 2.267428860068321228e-02 1.338068954646587372e-02 -1.328562945127487183e-01 3.810614719986915588e-02 -5.466665327548980713e-02 -1.740770600736141205e-02 1.942544989287853241e-02 -2.572433650493621826e-01 3.287153840065002441e-01 2.714172005653381348e-01 1.323864329606294632e-02 -6.319531239569187164e-03 -3.859478533267974854e-01 -5.963575094938278198e-02 3.699059784412384033e-02 1.595834153704345226e-03 1.147008128464221954e-02 -5.349342152476310730e-02 -2.529665268957614899e-02 -2.245084196329116821e-02 -6.208629347383975983e-03 2.759602479636669159e-02 8.775776252150535583e-03 1.085377205163240433e-02 -4.793227463960647583e-02 -4.917357116937637329e-02 -1.142666442319750786e-03 7.790786772966384888e-02 4.050432145595550537e-01 -7.446236908435821533e-02 -3.147491440176963806e-02 -1.479779183864593506e-01 -9.424154460430145264e-02 1.194599270820617676e-02 1.618160679936408997e-02 -1.751544512808322906e-02 -1.248999964445829391e-02 -1.605025492608547211e-02 -7.006086409091949463e-03 -3.265092149376869202e-02 2.832022309303283691e-01 -1.517672538757324219e-01 4.469726234674453735e-02 1.744858920574188232e-02
4.316721484065055847e-02 -1.447209343314170837e-02 -5.170066142454743385e-04 -3.006652556359767914e-02 -2.370918355882167816e-02 -1.391161605715751648e-02 1.924088597297668457e-02 5.252325162291526794e-02 -3.769577294588088989e-02 6.898395717144012451e-02 2.363715879619121552e-02 -2.113063484430313110e-01 3.958789259195327759e-02 -9.127427823841571808e-03 -3.283581510186195374e-02 2.102716825902462006e-03 -1.873674429953098297e-02 -9.440129622817039490e-03 9.879035875201225281e-03 -1.724541187286376953e+00 -2.366273477673530579e-02 -4.066893830895423889e-02 2.214363217353820801e-02 1.055032610893249512e-01 -1.089646946638822556e-02 1.310525387525558472e-01 1.604522392153739929e-02 -1.862968131899833679e-02 3.293084353208541870e-02 1.743196975439786911e-03 -1.164726633578538895e-02 8.302583545446395874e-02 -2.873398549854755402e-02 -2.152829803526401520e-02 -3.894741833209991455e-02 -1.478435564786195755e-02 1.646011020056903362e-03 -2.818380855023860931e-02 -3.449931740760803223e-02 1.155915297567844391e-02 8.124552667140960693e-03 2.421843819320201874e-02 -2.575503103435039520e-02 -2.523301169276237488e-02 -3.793093608692288399e-03 4.842350631952285767e-02 8.539851987734436989e-04 -1.190128363668918610e-02 8.654739707708358765e-03 1.120808627456426620e-02 -5.855790898203849792e-02 1.168882357887923717e-03 -5.592676997184753418e-02 1.934231631457805634e-02 -8.487893501296639442e-04 -3.024497255682945251e-02 2.203540690243244171e-02 2.013886906206607819e-02 7.423344068229198456e-03 -9.852943941950798035e-03 8.074468933045864105e-03 -1.454004831612110138e-02 -3.442364186048507690e-02 3.794529661536216736e-02 1.261957362294197083e-02 4.547852650284767151e-02 -5.813890695571899414e-02 6.457604467868804932e-03 -3.675566986203193665e-02 3.531214967370033264e-02 6.703206803649663925e-03 1.326852105557918549e-02 -9.145896765403449535e-04 -7.767291390337049961e-04 -1.020625382661819458e-01 1.475465670228004456e-02 1.137484051287174225e-02 1.023883465677499771e-03 -5.021945107728242874e-03 1.640831679105758667e-02 5.358909815549850464e-02 -6.371796596795320511e-03 1.570257917046546936e-02 4.947173409163951874e-03 -9.866815805435180664e-02 4.740643501281738281e-02 1.125722564756870270e-02 2.142340540885925293e-01 2.365955710411071777e-02 9.640635922551155090e-03 -4.330518189817667007e-03 4.220389947295188904e-02 1.229349523782730103e-02 -5.073485150933265686e-02 -1.019729450345039368e-01 -7.088328711688518524e-04 -1.986574754118919373e-02 -7.749363034963607788e-02 -8.528521284461021423e-03 -2.593041211366653442e-02
