-3.549140319228172302e-02 1.426565498113632202e-01 3.167122900485992432e-01 -1.408716291189193726e-01 3.526746332645416260e-01 -4.399171448312699795e-04 4.313617050647735596e-01 -7.847109436988830566e-02 -4.307520575821399689e-03 2.096950635313987732e-02 1.702703908085823059e-02 2.197168394923210144e-02 -2.402927540242671967e-02 3.627272322773933411e-02 -2.775153517723083496e-02 -2.984369732439517975e-02 3.297657072544097900e-01 1.110357642173767090e-01 3.394455909729003906e-01 5.373623594641685486e-02 3.332489728927612305e-01 1.923699527978897095e-01 -1.008371785283088684e-01 -1.094012241810560226e-02 -7.031328231096267700e-02 -1.841552183032035828e-02 -3.031544014811515808e-02 -2.295349165797233582e-02 6.817314308136701584e-03 1.002996265888214111e-01 3.975294530391693115e-01 -3.388418257236480713e-02 2.475596070289611816e-01 4.239031672477722168e-02 4.764022529125213623e-01 -4.922987520694732666e-02 -4.676575958728790283e-02 -6.048326566815376282e-02 -3.475387394428253174e-02 1.386924274265766144e-02 3.692784532904624939e-02 -2.417307347059249878e-02 2.661610953509807587e-03 -2.917808890342712402e-01 2.785154879093170166e-01 1.608261615037918091e-01 3.940671384334564209e-01 -6.153286993503570557e-02 4.669696092605590820e-01 -2.360812872648239136e-01 -8.417540043592453003e-02 4.058474674820899963e-02 -2.264951169490814209e-02 8.936809748411178589e-02 5.254628136754035950e-03 2.627718448638916016e-02 6.200903654098510742e-02 -2.747407741844654083e-02 3.634567856788635254e-01 6.151487585157155991e-03 3.804430365562438965e-01 1.265977174043655396e-01 4.019980728626251221e-01 1.986483037471771240e-01 4.102995619177818298e-02 1.376615604385733604e-03 -4.034831747412681580e-02 -1.210699006915092468e-01 2.033967338502407074e-02 2.358433604240417480e-02 -8.700092136859893799e-02 -7.910223305225372314e-02 4.098738729953765869e-01 -3.086041659116744995e-02 3.800665140151977539e-01 -7.204993814229965210e-02 4.664933979511260986e-01 -2.264652587473392487e-02 -8.769234642386436462e-03 1.393931210041046143e-01 -4.231261089444160461e-02 -3.935395181179046631e-02 8.092834800481796265e-02 -1.170554663985967636e-02 -7.080668210983276367e-02 -3.661998212337493896e-01 2.766465842723846436e-01 1.228705942630767822e-01 3.157267570495605469e-01 1.120945364236831665e-01 4.671089053153991699e-01 1.242078021168708801e-01 4.251996800303459167e-02 -1.293382495641708374e-01 -6.118129938840866089e-02 2.709546498954296112e-02 7.244221121072769165e-02 4.599496349692344666e-02 4.122138768434524536e-02 2.641851007938385010e-01 2.506139576435089111e-01 -2.960857152938842773e-01 3.645584881305694580e-01 1.519852504134178162e-02 4.317829906940460205e-01 2.646870017051696777e-01 2.005516551434993744e-02 2.245262451469898224e-02 3.770769981201738119e-04 -9.544156491756439209e-03 -5.122553184628486633e-02 -1.184590682387351990e-01 -3.637735545635223389e-02 2.568282885476946831e-03 3.198276162147521973e-01 8.521115779876708984e-02 3.941688835620880127e-01 -7.701601833105087280e-02 4.179629087448120117e-01 -3.228809833526611328e-01 -6.636133790016174316e-02 -1.329061016440391541e-02 -3.919440880417823792e-02 5.807863548398017883e-02 -6.975836306810379028e-02 1.971038430929183960e-02 -6.010307744145393372e-02 2.714568674564361572e-01 2.702243328094482422e-01 -9.966721758246421814e-03 3.915478289127349854e-01 -3.495470806956291199e-02 4.611989557743072510e-01 -6.235382333397865295e-02 4.711227118968963623e-02 2.411178313195705414e-03 9.158323705196380615e-02 6.354288011789321899e-02 -7.048054249025881290e-04 6.195335835218429565e-02
3.960425034165382385e-02 1.797354370355606079e-01 2.676688134670257568e-01 2.174998819828033447e-01 -2.325454801321029663e-01 -1.728039002045989037e-03 5.658236145973205566e-02 1.099865883588790894e-01 1.731348806060850620e-03 1.155094057321548462e-02 1.394327357411384583e-02 1.448704488575458527e-02 -4.449454718269407749e-04 3.524606302380561829e-02 1.854458451271057129e-02 1.767551526427268982e-02 3.990665674209594727e-01 -4.744952172040939331e-02 -3.294495344161987305e-01 2.037400454282760620e-01 -5.707256495952606201e-02 -1.275207698345184326e-01 1.662703230977058411e-03 -2.422098629176616669e-02 3.797141090035438538e-02 2.871553041040897369e-02 7.842306792736053467e-02 -1.422418560832738876e-02 -1.452732132747769356e-03 -9.765061736106872559e-02 4.093578457832336426e-01 1.138849109411239624e-01 -3.232726454734802246e-01 1.827718131244182587e-02 8.845399320125579834e-02 -1.144033595919609070e-01 -1.590047776699066162e-02 1.233617961406707764e-02 9.685837477445602417e-02 1.134901400655508041e-02 6.022535264492034912e-03 -4.352401196956634521e-02 4.955887794494628906e-02 1.382371485233306885e-01 3.386727273464202881e-01 -1.028126701712608337e-01 -2.544379234313964844e-01 -7.611222565174102783e-03 5.407929047942161560e-02 2.176776677370071411e-01 -3.663160651922225952e-02 -8.421058952808380127e-02 9.284887462854385376e-02 6.100408360362052917e-02 7.723943889141082764e-02 -1.386467460542917252e-02 -1.121837198734283447e-01 -1.619399040937423706e-01 3.456813097000122070e-01 -1.473372280597686768e-01 -2.306113690137863159e-01 8.996414393186569214e-02 4.338151589035987854e-02 5.263183265924453735e-02 -2.939973585307598114e-02 7.193042337894439697e-02 1.129027977585792542e-01 -1.402797698974609375e-01 7.636507600545883179e-02 6.603039801120758057e-02 -8.256283402442932129e-02 1.557175070047378540e-01 4.614336192607879639e-01 -3.059408068656921387e-02 -1.895847767591476440e-01 -2.962422966957092285e-01 -3.217405080795288086e-02 9.309638291597366333e-02 4.147857427597045898e-02 4.595617949962615967e-02 -7.263312581926584244e-03 2.494462765753269196e-02 6.986870616674423218e-02 -5.389311350882053375e-03 5.122688412666320801e-02 1.302809864282608032e-01 4.555697739124298096e-01 -4.564929381012916565e-02 -2.573796212673187256e-01 -1.596405804157257080e-01 1.022198330610990524e-02 -1.785831600427627563e-01 1.210414618253707886e-02 -7.167408615350723267e-02 -1.047292631119489670e-02 1.670508533716201782e-01 1.961115049198269844e-03 1.624377258121967316e-02 -8.136930875480175018e-03 -6.654349565505981445e-01 4.410700798034667969e-01 -4.627739191055297852e-01 -2.689235210418701172e-01 3.747796267271041870e-02 -1.437381189316511154e-02 -1.305540353059768677e-01 9.040891192853450775e-03 1.514429301023483276e-01 -3.158140182495117188e-02 -2.022301405668258667e-01 2.122064121067523956e-02 4.373300075531005859e-02 -1.928766258060932159e-03 1.162221357226371765e-01 3.786800801753997803e-01 1.993444710969924927e-01 -2.550346851348876953e-01 -3.211557567119598389e-01 -8.332577347755432129e-02 1.416199803352355957e-01 7.772157341241836548e-02 -8.836478739976882935e-02 7.975473254919052124e-02 1.096826121211051941e-01 -3.042653668671846390e-03 -1.221489310264587402e-01 -5.989214777946472168e-02 1.714064180850982666e-01 4.509898424148559570e-01 3.517370223999023438e-01 -3.329921066761016846e-01 3.547278344631195068e-01 6.172147020697593689e-02 -1.174430027604103088e-01 -9.625495225191116333e-02 -4.617683589458465576e-02 -3.472685813903808594e-02 -1.004552021622657776e-01 -2.552666701376438141e-02 9.196677058935165405e-02
-3.151827305555343628e-02 4.172564670443534851e-02 2.423712313175201416e-01 8.067325688898563385e-03 2.287391573190689087e-01 -1.686684340238571167e-01 7.020746916532516479e-02 -6.883770972490310669e-02 5.357072502374649048e-02 1.774037815630435944e-02 1.413314193487167358e-01 1.249995827674865723e-02 4.330292344093322754e-02 3.007436171174049377e-02 3.656800463795661926e-02 2.317323349416255951e-02 2.847990989685058594e-01 1.240402758121490479e-01 3.272325694561004639e-01 -1.118207932449877262e-03 1.796828657388687134e-01 -8.865586668252944946e-02 5.496301874518394470e-02 -1.129054464399814606e-02 6.248348206281661987e-02 6.510521750897169113e-03 5.150448158383369446e-02 -4.479634016752243042e-02 -5.471222102642059326e-02 -1.104598119854927063e-01 3.055932521820068359e-01 -4.917481914162635803e-02 2.429988980293273926e-01 -3.533840179443359375e-02 2.173585742712020874e-01 1.818196028470993042e-01 6.831292808055877686e-02 -6.074730679392814636e-02 6.375458557158708572e-03 -5.199801921844482422e-02 7.139238715171813965e-02 -5.162509903311729431e-02 4.989003390073776245e-02 -1.465513110160827637e-01 2.718628942966461182e-01 2.279886007308959961e-01 3.330208957195281982e-01 -1.124059781432151794e-01 2.133597731590270996e-01 -1.742665171623229980e-01 3.169055283069610596e-02 -5.142597854137420654e-02 1.663267016410827637e-01 -4.558514803647994995e-02 1.459553372114896774e-02 5.820799991488456726e-02 4.663718864321708679e-02 -3.944349661469459534e-02 3.101500570774078369e-01 -1.332346349954605103e-01 3.126881122589111328e-01 3.127728998661041260e-01 2.056588530540466309e-01 2.338197976350784302e-01 -4.917494207620620728e-02 2.189004793763160706e-02 1.528731882572174072e-01 1.011687666177749634e-01 8.089442551136016846e-02 2.124214172363281250e-02 3.904312849044799805e-02 -8.764426410198211670e-02 2.663904428482055664e-01 -1.365731563419103622e-02 2.430922389030456543e-01 1.497699972242116928e-02 1.551303416490554810e-01 2.477932870388031006e-01 -6.868392974138259888e-02 -4.515752941370010376e-02 1.278869956731796265e-01 -8.629123866558074951e-02 -1.388075202703475952e-02 -1.819484494626522064e-02 1.698186621069908142e-02 -6.387806683778762817e-02 3.322997689247131348e-01 -3.133643791079521179e-02 3.718146383762359619e-01 9.461480379104614258e-02 1.246495395898818970e-01 2.001950331032276154e-02 -3.842716338112950325e-03 6.772065907716751099e-02 1.088999435305595398e-01 2.400599978864192963e-02 -1.432440243661403656e-02 4.823806136846542358e-02 -7.042620331048965454e-02 3.006666004657745361e-01 3.153302371501922607e-01 -8.671213388442993164e-01 2.921504080295562744e-01 1.484581679105758667e-01 5.650140345096588135e-02 6.443899869918823242e-02 -3.169256448745727539e-02 -5.897543579339981079e-02 8.980207145214080811e-02 -1.102684587240219116e-01 7.477460056543350220e-02 -6.872124224901199341e-02 -6.793951988220214844e-02 1.365007460117340088e-01 2.898237407207489014e-01 1.103542685508728027e+00 2.318336367607116699e-01 1.182089224457740784e-01 1.262725442647933960e-01 -5.602036789059638977e-02 8.383688330650329590e-02 2.881895564496517181e-02 1.340018808841705322e-01 9.272598475217819214e-02 -5.248801410198211670e-02 4.404265061020851135e-02 8.821094781160354614e-02 -7.136181741952896118e-02 2.847750186920166016e-01 -3.764027655124664307e-01 3.633961379528045654e-01 -3.537973463535308838e-01 1.455412209033966064e-01 -2.804847061634063721e-01 6.793814152479171753e-02 7.884751260280609131e-02 1.469061151146888733e-02 3.980511799454689026e-02 8.537513762712478638e-02 -2.053588628768920898e-02
-3.996305633336305618e-03 2.392895072698593140e-01 7.875691354274749756e-02 -2.438876479864120483e-01 8.001770079135894775e-02 2.240413725376129150e-01 3.226578980684280396e-02 1.437682379037141800e-02 -3.521738573908805847e-02 1.944860070943832397e-02 4.309723898768424988e-02 -1.566632464528083801e-02 -3.242520615458488464e-02 -6.837891880422830582e-03 -6.250882148742675781e-02 -1.475415676832199097e-01 5.262194573879241943e-02 1.033753752708435059e-01 4.771127551794052124e-02 -1.073897704482078552e-01 6.956110894680023193e-02 -1.520046591758728027e-01 2.832808904349803925e-02 -4.979307577013969421e-02 -8.500656485557556152e-02 1.511552184820175171e-01 7.204610854387283325e-02 -1.497085206210613251e-02 1.527556777000427246e-02 8.840805850923061371e-03 7.226582616567611694e-02 2.631598114967346191e-01 1.139794886112213135e-01 -1.816686838865280151e-01 -2.522522956132888794e-02 -1.076064333319664001e-01 5.589981749653816223e-02 -6.783046573400497437e-02 2.240239456295967102e-02 -4.453521221876144409e-02 4.378304630517959595e-02 4.140880703926086426e-02 1.113254949450492859e-01 -4.877864941954612732e-02 1.193850636482238770e-01 3.003970980644226074e-01 8.985084295272827148e-02 5.414526909589767456e-03 1.197696104645729065e-01 1.224062368273735046e-01 8.618613332509994507e-02 9.097271598875522614e-03 -1.071369554847478867e-02 -2.403590455651283264e-02 4.651574417948722839e-02 3.355282591655850410e-03 3.620791807770729065e-02 -4.206887483596801758e-01 6.097299605607986450e-02 4.491818845272064209e-01 1.450527757406234741e-01 -3.218374848365783691e-01 1.041135787963867188e-01 -2.473826408386230469e-01 8.874846994876861572e-02 5.524412170052528381e-02 -5.717170238494873047e-02 -2.193879336118698120e-02 3.625181689858436584e-02 -2.214807458221912384e-02 1.415051147341728210e-02 -1.359610408544540405e-01 1.000092327594757080e-01 4.957919418811798096e-01 1.301562190055847168e-01 -3.507230579853057861e-01 -4.041889309883117676e-02 4.587261006236076355e-02 8.714461326599121094e-02 -6.061642616987228394e-02 -1.156309247016906738e-01 -1.501272469758987427e-01 8.362440019845962524e-02 -7.684160768985748291e-02 8.547592908143997192e-03 -6.372970342636108398e-02 1.596006006002426147e-01 -3.176075965166091919e-02 1.114691644906997681e-01 1.410457491874694824e-01 1.164984330534934998e-01 4.065266624093055725e-02 -6.042467802762985229e-02 -1.773806288838386536e-04 -6.141480803489685059e-02 1.380301117897033691e-01 -2.293982543051242828e-03 1.039331778883934021e-01 6.110604107379913330e-02 -3.767062127590179443e-01 1.628631353378295898e-01 -2.531645596027374268e-01 7.813753932714462280e-02 -1.156929135322570801e-02 8.971264958381652832e-02 1.151265949010848999e-01 -6.528186798095703125e-02 2.704400010406970978e-02 -5.118698254227638245e-02 3.269850462675094604e-02 2.047454379498958588e-02 -9.262587875127792358e-03 -7.886806875467300415e-02 5.147548317909240723e-01 7.548966258764266968e-02 1.753090322017669678e-01 1.330275535583496094e-01 1.116302907466888428e-01 3.000076673924922943e-02 3.140651583671569824e-01 4.347109422087669373e-02 -8.136720396578311920e-03 -4.544920753687620163e-03 -9.272513538599014282e-02 -5.757242441177368164e-02 -7.569190859794616699e-02 -7.779280096292495728e-02 7.034696340560913086e-01 1.867438107728958130e-01 -1.156102418899536133e+00 1.013571768999099731e-01 7.884313464164733887e-01 -3.101270645856857300e-02 -2.398795634508132935e-01 -3.940122202038764954e-02 6.926932185888290405e-02 2.041160129010677338e-03 5.091790482401847839e-02 7.412804663181304932e-02 7.542319595813751221e-02
1.085300836712121964e-02 3.375370800495147705e-01 4.491507634520530701e-02 4.867010712623596191e-01 4.522878676652908325e-02 4.415253102779388428e-01 -3.464728593826293945e-02 -1.889833360910415649e-01 -2.524806745350360870e-02 5.034237727522850037e-02 -8.703040331602096558e-02 -2.111850120127201080e-02 1.051919534802436829e-02 -1.342575848102569580e-01 -1.322241779416799545e-02 3.322430253028869629e-01 2.777226082980632782e-02 1.543253064155578613e-01 -5.727097392082214355e-02 9.091145545244216919e-02 -6.040256470441818237e-02 -6.167331710457801819e-03 -7.250235229730606079e-02 -5.139718577265739441e-02 1.382993627339601517e-02 1.232548654079437256e-01 -6.166491657495498657e-02 1.788308098912239075e-02 3.636202961206436157e-02 -3.476090356707572937e-02 -4.110756330192089081e-03 4.138933867216110229e-02 -9.015354444272816181e-04 1.546838134527206421e-01 3.852039575576782227e-03 -1.101772710680961609e-01 -2.317970385774970055e-03 3.956934809684753418e-02 -1.679320447146892548e-02 -1.397438645362854004e-01 -6.124241277575492859e-02 9.639666974544525146e-02 -2.831931412220001221e-02 5.444378778338432312e-02 2.764768525958061218e-02 1.190688181668519974e-02 -5.842904001474380493e-02 -9.074352681636810303e-02 -7.439903914928436279e-02 1.499983370304107666e-01 -1.621485874056816101e-02 2.423741482198238373e-02 6.957826763391494751e-02 1.660501509904861450e-01 -1.105564236640930176e-01 -1.361344009637832642e-01 1.211050450801849365e-01 7.404559850692749023e-02 -5.452086031436920166e-02 -3.227560520172119141e-01 7.607276737689971924e-02 -5.934412479400634766e-01 -7.307534664869308472e-02 3.559727668762207031e-01 -3.623536974191665649e-02 2.233989723026752472e-02 -4.652783647179603577e-02 -9.663989394903182983e-02 3.099186345934867859e-02 9.436558932065963745e-02 -4.358249157667160034e-02 -1.560403406620025635e-01 1.026613712310791016e-01 -8.127140253782272339e-02 -2.833073958754539490e-02 -5.582907199859619141e-01 -4.111241921782493591e-02 2.590728998184204102e-01 8.542206883430480957e-02 -9.955918043851852417e-02 -4.918928444385528564e-02 -1.263069957494735718e-01 -7.985885255038738251e-03 1.062804646790027618e-02 -4.829086735844612122e-02 -4.362596273422241211e-01 5.941215530037879944e-02 -3.719213008880615234e-01 -5.568670853972434998e-02 -7.543672323226928711e-01 4.004481248557567596e-03 1.328728348016738892e-01 -5.904516950249671936e-02 -3.623243048787117004e-02 -8.483117818832397461e-02 1.693532615900039673e-01 -7.962558418512344360e-02 -1.147096529603004456e-01 4.242238774895668030e-02 -5.997059941291809082e-01 2.027654461562633514e-02 -5.958179831504821777e-01 -8.738677203655242920e-02 -2.600635290145874023e-01 -6.464818120002746582e-02 3.427464365959167480e-01 -6.189804989844560623e-04 -6.050250679254531860e-02 5.339100584387779236e-02 -1.723866313695907593e-01 -1.058920994400978088e-01 -2.269791997969150543e-02 -5.593958776444196701e-03 -3.717041015625000000e-01 1.044277176260948181e-01 -3.616926670074462891e-01 -7.264667749404907227e-02 4.015941321849822998e-01 -7.416545599699020386e-02 -3.668021559715270996e-01 -2.475414425134658813e-02 -2.208625525236129761e-02 4.195189103484153748e-02 2.781304121017456055e-01 -2.588114142417907715e-02 7.155595719814300537e-02 -1.051913276314735413e-01 8.262242674827575684e-01 5.690597742795944214e-02 9.348773956298828125e-01 -7.084363698959350586e-02 1.204854607582092285e+00 3.337319940328598022e-02 -6.263363957405090332e-01 1.493310648947954178e-02 9.787868708372116089e-02 4.353177174925804138e-02 -1.200606375932693481e-01 -1.118390858173370361e-01 -6.246974691748619080e-02
8.156808093190193176e-03 2.024722099304199219e-01 2.710999548435211182e-01 -3.138628005981445312e-01 2.705491483211517334e-01 -8.290707319974899292e-02 3.159047961235046387e-01 -5.064748525619506836e-01 5.491802096366882324e-02 -5.296320095658302307e-02 2.282532863318920135e-03 -3.187913075089454651e-02 8.546859025955200195e-02 -7.047561556100845337e-02 6.184917315840721130e-02 1.372261941432952881e-01 2.794180214405059814e-01 -4.336679354310035706e-02 1.682819724082946777e-01 -1.178502514958381653e-01 3.802288174629211426e-01 -2.916065752506256104e-01 1.155389547348022461e-01 1.267953496426343918e-02 -3.373314440250396729e-02 1.918642222881317139e-02 -5.177629180252552032e-03 4.580159671604633331e-03 4.329914972186088562e-02 5.759423971176147461e-02 1.893270313739776611e-01 -1.970604807138442993e-01 2.704782783985137939e-01 2.627654373645782471e-01 2.676624655723571777e-01 1.776616722345352173e-01 -5.539852660149335861e-03 1.067797094583511353e-02 1.034322679042816162e-01 -4.827434197068214417e-02 3.666558861732482910e-02 1.082611978054046631e-01 3.079877793788909912e-02 -2.616653591394424438e-02 2.889854609966278076e-01 8.678970485925674438e-02 2.890229821205139160e-01 1.380538195371627808e-01 3.313620686531066895e-01 3.698252141475677490e-01 5.060683935880661011e-02 -8.830407634377479553e-03 -3.196360776200890541e-04 1.121618598699569702e-01 1.273521874099969864e-02 -7.751261442899703979e-02 -2.889049425721168518e-02 -2.095555961132049561e-01 2.089572250843048096e-01 3.758664429187774658e-01 1.316213011741638184e-01 1.771948486566543579e-01 3.004539906978607178e-01 5.906146764755249023e-01 -3.400461282581090927e-03 5.593566223978996277e-02 1.712260581552982330e-02 7.648098282516002655e-03 -8.835574612021446228e-03 -6.652975082397460938e-02 5.047411471605300903e-02 -5.218703150749206543e-01 2.697850167751312256e-01 5.670113563537597656e-01 1.752700358629226685e-01 5.811955407261848450e-02 2.989840209484100342e-01 7.090061306953430176e-01 3.308312501758337021e-03 6.632993370294570923e-02 1.010354980826377869e-01 -1.129743531346321106e-01 1.955963857471942902e-02 3.322410956025123596e-02 1.405814941972494125e-02 -4.372453093528747559e-01 2.550519108772277832e-01 1.632460057735443115e-01 2.625988423824310303e-01 2.231771498918533325e-02 3.972193896770477295e-01 2.896048128604888916e-01 1.712342351675033569e-02 -3.569278866052627563e-02 7.488630712032318115e-03 6.975232809782028198e-02 -1.472932053729891777e-03 3.478402271866798401e-02 -1.474124938249588013e-02 -3.112417459487915039e-01 2.776513993740081787e-01 1.734471619129180908e-01 1.162678301334381104e-01 -1.515408456325531006e-01 4.261562228202819824e-01 2.378089167177677155e-02 1.072533950209617615e-01 1.601748019456863403e-01 2.504103817045688629e-03 -1.682443544268608093e-02 1.918271067552268505e-03 6.104704365134239197e-02 -9.862154722213745117e-02 -5.627046152949333191e-02 1.907389909029006958e-01 7.686067372560501099e-03 2.029670774936676025e-01 -8.056295104324817657e-03 3.407804071903228760e-01 -1.961492598056793213e-01 1.182616651058197021e-01 1.292958483099937439e-02 1.028335690498352051e-01 2.291425131261348724e-03 -1.412032358348369598e-02 4.866164550185203552e-02 -8.467282354831695557e-02 1.147017121315002441e+00 3.424958288669586182e-01 -7.914613485336303711e-01 2.786506712436676025e-01 -3.220253288745880127e-01 3.610784113407135010e-01 -1.098440051078796387e+00 1.033837497234344482e-01 -2.292188555002212524e-01 7.821084558963775635e-02 -3.004341013729572296e-02 2.013587020337581635e-02 -1.900058388710021973e-01
5.716470628976821899e-02 1.341545134782791138e-01 -1.539832055568695068e-01 7.458114624023437500e-02 -2.652701139450073242e-01 9.002786874771118164e-02 -2.571847736835479736e-01 -4.251713678240776062e-02 -6.351639330387115479e-02 7.257972657680511475e-02 -2.516690455377101898e-02 1.893082261085510254e-02 1.807022094726562500e-02 -5.935465916991233826e-03 -9.924726188182830811e-02 -1.218354851007461548e-01 -1.475951224565505981e-01 5.201718211174011230e-02 -1.334452927112579346e-01 -6.655783858150243759e-03 -1.633872836828231812e-01 3.563082218170166016e-02 7.025442272424697876e-02 -5.307282507419586182e-02 -3.923586010932922363e-02 1.025103405117988586e-02 -7.838726043701171875e-02 3.404895588755607605e-02 1.605523750185966492e-02 2.541825473308563232e-01 -2.061792276799678802e-02 -5.333910509943962097e-02 -2.189961820840835571e-01 -9.059446305036544800e-02 -3.041950464248657227e-01 -5.235804244875907898e-02 6.193407997488975525e-02 -1.264431793242692947e-02 9.457416832447052002e-02 -2.497072517871856689e-02 1.358864177018404007e-02 -6.216902285814285278e-02 2.048932015895843506e-02 1.433521509170532227e-01 -3.932806476950645447e-02 -2.800120711326599121e-01 -2.617309391498565674e-01 2.014682739973068237e-01 -2.073917835950851440e-01 8.362152613699436188e-03 5.411330610513687134e-02 3.957368806004524231e-02 -5.389223620295524597e-02 -1.034548208117485046e-01 7.616067770868539810e-03 1.320377085357904434e-02 -8.701676130294799805e-02 -1.227812096476554871e-01 -1.188715845346450806e-01 -1.836425215005874634e-01 -2.049841284751892090e-01 -1.079592406749725342e-01 -2.232972532510757446e-01 9.612540155649185181e-02 -4.888584464788436890e-02 -4.229443520307540894e-02 6.714949011802673340e-02 6.948363035917282104e-02 2.873383834958076477e-02 4.690018668770790100e-02 6.054836884140968323e-02 2.648219168186187744e-01 -4.612158611416816711e-02 -3.001879155635833740e-01 -1.532646715641021729e-01 -5.847018584609031677e-02 -1.656259000301361084e-01 4.834306240081787109e-02 1.687116734683513641e-02 -1.564016379415988922e-02 3.332277014851570129e-02 -6.190517451614141464e-03 2.983704768121242523e-02 -4.421326145529747009e-02 4.549787938594818115e-02 -1.678386628627777100e-01 -9.634700417518615723e-02 4.207164421677589417e-02 -2.145562916994094849e-01 3.970771655440330505e-02 -2.985455095767974854e-01 2.968815527856349945e-02 -2.968467399477958679e-02 7.216772437095642090e-02 9.698766469955444336e-02 1.029683183878660202e-02 -2.922731265425682068e-02 1.810402609407901764e-02 -2.612567134201526642e-02 -2.693865001201629639e-01 -1.306724995374679565e-01 2.092623114585876465e-01 -2.470318973064422607e-01 -4.059678316116333008e-01 -3.142306506633758545e-01 1.608427986502647400e-02 -5.556171759963035583e-02 -1.629208922386169434e-01 5.176996812224388123e-02 2.029872685670852661e-02 -4.580159857869148254e-02 -1.701597683131694794e-02 -3.220845013856887817e-02 2.281799614429473877e-01 -1.175337955355644226e-01 -3.012942075729370117e-01 -2.341177463531494141e-01 4.265728294849395752e-01 -2.981127798557281494e-01 1.279772166162729263e-02 -5.078466981649398804e-02 6.684203445911407471e-02 -4.675166308879852295e-02 3.745726868510246277e-02 1.641658693552017212e-02 4.002321511507034302e-02 -1.180581003427505493e-02 -3.172471225261688232e-01 -1.506573706865310669e-01 7.015076875686645508e-01 -2.071001231670379639e-01 -7.466653734445571899e-02 -3.205544650554656982e-01 -1.552642434835433960e-01 -2.164155617356300354e-02 9.225710295140743256e-03 -4.850104451179504395e-02 8.262732997536659241e-03 -5.284926667809486389e-02 -6.009103526594117284e-05
1.235245820134878159e-02 3.605497628450393677e-02 1.126791089773178101e-01 -6.807562708854675293e-02 1.138642057776451111e-02 4.192614182829856873e-02 -2.198849916458129883e-01 7.272101007401943207e-03 2.012273371219635010e-01 2.112126722931861877e-02 -3.192844986915588379e-01 -1.211658492684364319e-02 -4.117354750633239746e-02 3.966489061713218689e-02 3.310481086373329163e-02 9.688453748822212219e-03 1.182514131069183350e-01 3.069795481860637665e-02 1.526424884796142578e-01 5.484043061733245850e-02 -1.929814070463180542e-01 2.422190308570861816e-01 1.310127526521682739e-01 -1.852755900472402573e-03 -3.168677985668182373e-01 4.480606317520141602e-02 6.187823135405778885e-03 -5.066511407494544983e-02 -4.414030909538269043e-02 3.327920660376548767e-02 1.333226263523101807e-01 -1.699482053518295288e-01 9.236473590135574341e-02 1.478658337146043777e-02 -9.599950164556503296e-02 -6.680023670196533203e-02 1.647059023380279541e-01 7.618540897965431213e-03 -2.356805652379989624e-01 -2.012745477259159088e-02 -1.503175403922796249e-02 2.737504802644252777e-02 5.917152017354965210e-02 -1.220742519944906235e-02 1.609678715467453003e-01 1.830369830131530762e-01 9.380720555782318115e-02 6.638523936271667480e-02 -2.360684275627136230e-01 -2.999103963375091553e-01 1.846052855253219604e-01 1.044438313692808151e-02 -2.226479500532150269e-01 -1.896688789129257202e-01 9.328150190412998199e-03 1.223373971879482269e-02 3.066792152822017670e-02 -2.372337430715560913e-01 1.909805387258529663e-01 8.314194530248641968e-02 -3.500261344015598297e-03 -1.920879483222961426e-01 -2.391969561576843262e-01 7.021290063858032227e-02 1.645060777664184570e-01 3.575637936592102051e-02 -2.772484123706817627e-01 2.024053335189819336e-01 4.622326418757438660e-02 -5.004997830837965012e-03 4.694451019167900085e-02 7.510368525981903076e-02 1.661247313022613525e-01 -1.115714851766824722e-02 9.896476566791534424e-02 -9.003952890634536743e-02 -1.418932676315307617e-01 -2.479024976491928101e-01 1.915348321199417114e-01 1.159950569272041321e-01 -2.845094501972198486e-01 -6.928332149982452393e-02 8.015999197959899902e-02 1.013737171888351440e-02 9.890882298350334167e-03 -1.577617973089218140e-01 1.189576685428619385e-01 1.891754567623138428e-02 1.045555435121059418e-02 -1.506114900112152100e-01 -2.135552018880844116e-01 3.024161607027053833e-02 1.266185492277145386e-01 -4.387253150343894958e-02 -2.096888720989227295e-01 -2.599641382694244385e-01 8.875905722379684448e-02 -3.363189054653048515e-03 -7.817918062210083008e-02 -2.010109424591064453e-01 5.467099696397781372e-02 -1.469097882509231567e-01 2.771485596895217896e-02 -2.638240456581115723e-01 -1.026943400502204895e-01 -1.263497769832611084e-01 1.961671411991119385e-01 7.958550751209259033e-02 -2.719658911228179932e-01 3.636683225631713867e-01 -6.122411042451858521e-02 -7.366284728050231934e-02 -8.142046630382537842e-02 2.269497364759445190e-01 1.435489803552627563e-01 3.342349827289581299e-01 1.059965640306472778e-01 4.165766239166259766e-01 -2.298683077096939087e-01 8.881381154060363770e-02 1.423847228288650513e-01 -1.224156841635704041e-01 -2.474876493215560913e-01 -4.147953987121582031e-01 -1.973543129861354828e-02 2.423537895083427429e-02 7.527995854616165161e-03 1.928164958953857422e-01 1.555244028568267822e-01 -2.337900251150131226e-01 1.250844635069370270e-02 8.352565765380859375e-02 -1.914822757244110107e-01 2.791725397109985352e-01 2.339777052402496338e-01 -6.923618167638778687e-02 -3.241201639175415039e-01 2.715669870376586914e-01 9.194305166602134705e-03 4.317055642604827881e-02
-4.966122657060623169e-02 -7.442153990268707275e-02 -2.220731228590011597e-01 2.790527977049350739e-02 -2.946949303150177002e-01 4.812582582235336304e-02 -1.593044996261596680e-01 -5.494325608015060425e-02 -3.063775971531867981e-02 -1.663884893059730530e-02 3.135966882109642029e-02 1.146790906786918640e-01 2.238160930573940277e-02 1.283762138336896896e-02 6.211980432271957397e-02 8.590821921825408936e-02 -2.377064377069473267e-01 1.841526478528976440e-02 -2.006865590810775757e-01 9.893371909856796265e-02 -9.484723210334777832e-02 -1.616296619176864624e-01 -1.161849573254585266e-01 5.221049115061759949e-02 2.958412514999508858e-03 3.352503105998039246e-02 3.019722737371921539e-02 -1.696367189288139343e-02 -7.311397045850753784e-02 6.378704681992530823e-03 -2.291543930768966675e-01 4.105110187083482742e-03 -2.100587934255599976e-01 -1.366337984800338745e-01 -5.353894084692001343e-02 -5.883501842617988586e-02 -2.571645751595497131e-02 3.531880676746368408e-02 -5.514404177665710449e-02 -1.826701462268829346e-01 6.059479340910911560e-02 -4.422804713249206543e-02 -5.664004129357635975e-04 -1.593516021966934204e-01 -3.323802947998046875e-01 3.989949822425842285e-02 -3.005038499832153320e-01 -1.598977893590927124e-01 -6.068331003189086914e-02 9.497754275798797607e-02 -7.563305646181106567e-02 -7.830654829740524292e-02 -2.062395215034484863e-02 1.310434490442276001e-01 -4.482722282409667969e-02 3.401503339409828186e-02 8.565106987953186035e-02 2.202700525522232056e-01 -3.238225579261779785e-01 1.078143417835235596e-01 -1.762768477201461792e-01 -8.168891817331314087e-02 -1.016212776303291321e-01 3.485095500946044922e-02 -9.519238770008087158e-02 -9.485895745456218719e-03 -2.959747798740863800e-02 -2.763407246675342321e-04 -2.531513012945652008e-02 7.824373431503772736e-03 -6.946131587028503418e-02 -2.068309336900711060e-01 -3.470613360404968262e-01 -9.503456205129623413e-02 -1.729612201452255249e-01 -8.683530986309051514e-02 -3.764719888567924500e-02 2.119633406400680542e-01 4.284307360649108887e-02 3.080533817410469055e-02 -6.728854030370712280e-03 -1.246234104037284851e-01 6.328085809946060181e-02 1.999101229012012482e-02 -5.688674002885818481e-02 -7.861194200813770294e-03 -3.325267732143402100e-01 2.522260248661041260e-01 -3.321192264556884766e-01 -6.037870794534683228e-02 -3.271387889981269836e-02 -5.792217701673507690e-02 4.313790425658226013e-02 -7.421883195638656616e-02 -5.506646260619163513e-02 1.215922534465789795e-01 -2.665169164538383484e-02 2.725717239081859589e-02 2.549046836793422699e-02 4.715411067008972168e-01 -2.538836598396301270e-01 -4.581789076328277588e-01 -3.030615150928497314e-01 -2.887077629566192627e-03 -3.549413383007049561e-02 7.995472848415374756e-02 5.018212273716926575e-02 8.621460944414138794e-02 -3.883283212780952454e-02 -2.356538772583007812e-01 -3.733218461275100708e-02 -5.223331972956657410e-02 -6.275708228349685669e-02 -4.946790635585784912e-01 -3.957565128803253174e-01 4.953479468822479248e-01 -3.359620273113250732e-01 3.432882130146026611e-01 -6.702072173357009888e-02 -3.270099684596061707e-02 -1.049365028738975525e-01 -1.681294664740562439e-02 8.572478592395782471e-02 2.109762132167816162e-01 7.855437695980072021e-02 1.425625174306333065e-03 -4.994733724743127823e-03 1.087420657277107239e-01 -3.443377614021301270e-01 -4.800998866558074951e-01 -3.501402437686920166e-01 4.781989380717277527e-02 8.456599316559731960e-04 -5.883308500051498413e-02 -2.258892403915524483e-03 -1.055088080465793610e-02 6.537080556154251099e-02 -4.188303276896476746e-02 4.568708688020706177e-02 1.705345511436462402e-02
4.826068878173828125e-02 -6.363704055547714233e-02 -1.239244043827056885e-01 2.901062369346618652e-02 1.309267431497573853e-01 8.343959599733352661e-02 7.759424299001693726e-02 -4.168274998664855957e-02 2.584000527858734131e-01 6.672602146863937378e-02 -3.023632466793060303e-01 -5.800622329115867615e-02 3.903295472264289856e-02 -1.635582745075225830e-02 -7.112295180559158325e-02 2.746254801750183105e-01 -2.215678244829177856e-01 9.560826420783996582e-02 8.200345560908317566e-03 -3.987995535135269165e-02 1.691765338182449341e-01 4.805888980627059937e-02 2.361988872289657593e-01 -6.132750213146209717e-02 -1.936370283365249634e-01 7.138376682996749878e-02 -1.757908239960670471e-02 2.382974512875080109e-02 1.613845000974833965e-03 -9.001463651657104492e-02 -2.283782213926315308e-01 -1.544670760631561279e-01 5.313852801918983459e-03 1.252462863922119141e-01 1.340579986572265625e-01 1.017047986388206482e-01 2.719097435474395752e-01 -5.270739272236824036e-02 -2.098383009433746338e-01 -3.870690241456031799e-02 -9.483737871050834656e-03 8.938831277191638947e-03 7.658757269382476807e-02 -7.447314262390136719e-02 -8.950795978307723999e-02 -7.515427470207214355e-02 1.123639494180679321e-01 -1.296718120574951172e-01 1.316434741020202637e-01 5.923223868012428284e-02 2.584710717201232910e-01 7.470936328172683716e-02 -3.007380962371826172e-01 -5.133748520165681839e-03 -6.618490815162658691e-02 -5.072624608874320984e-02 -6.678218021988868713e-03 -3.653303161263465881e-02 -1.244031637907028198e-01 -1.188881397247314453e-01 8.593239635229110718e-02 4.575794562697410583e-02 1.092490330338478088e-01 4.446813091635704041e-02 1.688908040523529053e-01 4.396697971969842911e-03 -2.753677666187286377e-01 9.170051664113998413e-02 1.320135965943336487e-02 2.292608469724655151e-02 -5.057978630065917969e-02 -2.298383116722106934e-01 -2.192959785461425781e-01 -2.236067503690719604e-01 1.132243424654006958e-01 7.410260289907455444e-02 6.968151777982711792e-02 1.531817167997360229e-01 1.565431058406829834e-01 2.496270090341567993e-02 -3.152187466621398926e-01 -1.437410414218902588e-01 8.444297313690185547e-02 9.934693574905395508e-03 -5.167471617460250854e-02 4.893941432237625122e-02 -2.181847840547561646e-01 -1.838980168104171753e-01 1.044431924819946289e-01 -2.685412764549255371e-01 1.153850108385086060e-01 2.577705681324005127e-02 2.934152185916900635e-01 3.457465767860412598e-02 -3.092869222164154053e-01 1.691966205835342407e-01 5.797858908772468567e-02 -2.244750037789344788e-02 3.043258376419544220e-02 -7.556331902742385864e-02 -1.345655024051666260e-01 2.571994066238403320e-01 6.539300829172134399e-02 -2.094605471938848495e-03 2.219106107950210571e-01 -1.015694141387939453e-01 2.718872427940368652e-01 9.582788497209548950e-02 -3.596194982528686523e-01 -2.993222475051879883e-01 4.906077310442924500e-02 3.639311715960502625e-02 1.078293286263942719e-02 4.468970873858779669e-04 -2.252748012542724609e-01 -5.993637256324291229e-03 1.271521002054214478e-01 8.659070357680320740e-03 6.824279576539993286e-02 -1.455740928649902344e-01 1.764196157455444336e-01 -1.285661458969116211e-01 -3.298900723457336426e-01 1.200887039303779602e-01 -5.213797837495803833e-02 -3.667247667908668518e-02 -6.168243475258350372e-03 2.385811805725097656e-01 -1.524940878152847290e-01 3.707615137100219727e-01 4.867212101817131042e-02 8.425483852624893188e-02 1.436721980571746826e-01 -1.244726404547691345e-01 1.927526891231536865e-01 -3.617568314075469971e-02 -2.319552302360534668e-01 9.385530836880207062e-03 3.174845874309539795e-02 3.387343883514404297e-02
4.474660754203796387e-02 -5.392480641603469849e-02 -2.402643412351608276e-01 -7.949125021696090698e-03 1.294465959072113037e-01 -2.362877875566482544e-02 5.375818535685539246e-02 -1.336092948913574219e-01 -1.030543912202119827e-02 -1.514330133795738220e-02 -7.800238579511642456e-02 -2.330363914370536804e-02 -1.749211922287940979e-02 -2.347758412361145020e-02 -1.527913846075534821e-02 -9.416850656270980835e-02 -2.213072776794433594e-01 1.837428659200668335e-02 8.158589154481887817e-02 -1.208709776401519775e-01 -4.312996566295623779e-02 1.245854571461677551e-01 -8.385334163904190063e-03 1.374140148982405663e-03 8.293395489454269409e-02 1.686930283904075623e-02 5.119040608406066895e-02 2.744415961205959320e-02 4.731016233563423157e-03 4.199181869626045227e-02 -2.112564295530319214e-01 8.597233146429061890e-02 2.487233839929103851e-02 9.118046611547470093e-02 7.444819808006286621e-02 5.953975766897201538e-02 -4.756390675902366638e-02 -3.034819848835468292e-02 -3.350592777132987976e-02 1.022500619292259216e-01 1.101947948336601257e-01 -1.900056190788745880e-02 4.461043700575828552e-02 3.014734983444213867e-01 -1.288038790225982666e-01 -9.254686534404754639e-02 5.041342973709106445e-02 6.628265231847763062e-02 9.043632447719573975e-02 1.242526620626449585e-01 -3.802866488695144653e-02 5.080340430140495300e-02 -4.412418231368064880e-02 -1.809442043304443359e-01 3.177767992019653320e-02 -1.046057231724262238e-02 -6.345009803771972656e-02 -1.038312464952468872e-01 -1.674679815769195557e-01 1.267880052328109741e-01 1.402404457330703735e-01 -1.288314014673233032e-01 -1.675488241016864777e-02 2.109864652156829834e-01 -5.927085876464843750e-02 -6.903064996004104614e-02 6.549888104200363159e-02 1.560973376035690308e-01 8.872418105602264404e-02 3.548467159271240234e-02 -6.985219568014144897e-02 5.400505661964416504e-01 -2.852634489536285400e-01 1.654668897390365601e-01 7.688105851411819458e-02 2.558271884918212891e-01 6.671382486820220947e-02 6.471401453018188477e-02 1.292058918625116348e-02 -1.403495483100414276e-02 -5.892662331461906433e-02 -7.832201570272445679e-02 2.625401504337787628e-02 -2.700620703399181366e-02 -4.872771352529525757e-02 1.517471820116043091e-01 -3.095414042472839355e-01 -8.175309747457504272e-02 9.457249939441680908e-02 2.195316366851329803e-02 -4.238818585872650146e-02 1.159024462103843689e-01 1.405063550919294357e-02 5.104718729853630066e-02 5.330016370862722397e-03 -2.038561254739761353e-01 1.042148470878601074e-01 -3.686625137925148010e-02 -7.661349326372146606e-02 -5.185883045196533203e-01 -2.648253440856933594e-01 1.252263784408569336e-01 6.980374455451965332e-02 -4.136159271001815796e-02 -2.592152170836925507e-02 -3.955885022878646851e-02 -1.464099250733852386e-02 -1.653347164392471313e-01 -4.129689186811447144e-02 3.118708729743957520e-01 1.458488986827433109e-03 -1.415125560015439987e-02 -5.207780003547668457e-02 6.982660293579101562e-01 -2.825600504875183105e-01 4.427041411399841309e-01 4.526994377374649048e-02 2.901386469602584839e-02 -4.836517572402954102e-02 -2.556146085262298584e-01 3.935495764017105103e-02 1.312261074781417847e-01 -4.523469135165214539e-02 -1.279249191284179688e-01 8.207171410322189331e-02 -1.685000024735927582e-02 2.950192894786596298e-03 -9.302741885185241699e-01 -3.211254775524139404e-01 -7.213559150695800781e-01 6.261055916547775269e-02 -1.479761749505996704e-01 1.098450720310211182e-01 -2.733482122421264648e-01 -2.590834163129329681e-02 7.474779337644577026e-02 5.027373880147933960e-02 8.527877071173861623e-06 1.301577538251876831e-01 6.164656206965446472e-02
9.161105379462242126e-03 1.189687103033065796e-01 1.404612064361572266e-01 1.336637735366821289e-01 6.507792323827743530e-02 1.113860756158828735e-01 -1.861446201801300049e-01 -4.398632049560546875e-02 1.735982671380043030e-02 1.799517124891281128e-02 9.496778249740600586e-02 -1.406741421669721603e-02 9.589748457074165344e-03 1.269823405891656876e-02 5.954006221145391464e-03 3.386171162128448486e-02 6.464734673500061035e-02 1.560759395360946655e-01 6.343199312686920166e-02 -4.421580955386161804e-02 -3.205407857894897461e-01 1.101808026432991028e-01 1.307229101657867432e-01 3.919063135981559753e-02 1.760059036314487457e-02 -8.894616365432739258e-02 3.246004926040768623e-03 1.062975451350212097e-02 -9.985289536416530609e-03 2.496335506439208984e-01 1.807442605495452881e-01 -9.534880518913269043e-02 -3.510605171322822571e-02 1.918918639421463013e-01 -2.617780268192291260e-01 -8.451910316944122314e-02 2.180256135761737823e-02 -2.695434354245662689e-02 3.344228491187095642e-02 7.283382862806320190e-02 -3.798391204327344894e-03 1.225679647177457809e-02 -6.801148504018783569e-02 1.621922552585601807e-01 1.334263235330581665e-01 -3.897687792778015137e-01 9.307391941547393799e-02 1.142519712448120117e-01 -2.428633570671081543e-01 8.416234701871871948e-02 5.680879577994346619e-02 -7.002337835729122162e-03 1.286492645740509033e-01 2.741825580596923828e-02 -5.026578903198242188e-02 1.743233762681484222e-02 4.176792502403259277e-02 1.216067150235176086e-01 1.550351381301879883e-01 -3.648248016834259033e-01 1.085574701428413391e-01 1.529493927955627441e-01 -2.823643088340759277e-01 -2.126625366508960724e-02 1.704553142189979553e-02 3.770690411329269409e-02 7.057788223028182983e-02 4.389534890651702881e-02 7.041028141975402832e-02 -3.410786762833595276e-02 -2.550251595675945282e-02 1.308263391256332397e-01 5.149799957871437073e-02 -3.066827356815338135e-01 2.458389662206172943e-02 1.314970254898071289e-01 -1.749233901500701904e-01 1.183018088340759277e-02 5.397172272205352783e-02 -4.262252710759639740e-03 1.096426472067832947e-01 -4.617940634489059448e-02 -5.919520184397697449e-02 -9.693119674921035767e-02 2.795475535094738007e-02 -1.410712897777557373e-01 9.453108906745910645e-02 -3.074373006820678711e-01 8.435685187578201294e-02 -3.969182074069976807e-02 -2.071310132741928101e-01 8.757369359955191612e-04 -4.429383948445320129e-02 -2.998596802353858948e-02 4.457821696996688843e-02 -8.790571987628936768e-02 5.817700177431106567e-02 2.484123595058917999e-02 6.493854522705078125e-02 -4.421508610248565674e-01 1.627481579780578613e-01 2.074904292821884155e-01 1.211178675293922424e-01 -2.551850378513336182e-01 -3.098628222942352295e-01 2.738354168832302094e-02 6.694628298282623291e-02 -3.783453255891799927e-02 1.343185603618621826e-01 8.356664329767227173e-02 -1.436956663383170962e-04 1.362921483814716339e-02 5.407201126217842102e-02 -2.291774898767471313e-01 5.614989250898361206e-02 1.772731170058250427e-02 8.193626999855041504e-02 -3.681892156600952148e-01 -3.127691149711608887e-01 1.037481427192687988e-01 4.858740419149398804e-02 -7.572776079177856445e-02 9.920227341353893280e-03 -2.722644992172718048e-02 -4.138007387518882751e-02 1.724642701447010040e-02 7.060579955577850342e-02 5.530778691172599792e-02 6.674218922853469849e-02 9.550646543502807617e-01 1.122720167040824890e-01 4.936166107654571533e-03 -1.680400222539901733e-01 -3.022345006465911865e-01 2.049990184605121613e-02 1.109710261225700378e-01 8.326406031847000122e-02 3.332651033997535706e-02 1.185353659093379974e-02 -5.458310991525650024e-02
4.501283168792724609e-02 -2.502810908481478691e-03 -9.405570477247238159e-02 -4.861073791980743408e-01 -8.666351437568664551e-02 -1.884806156158447266e-01 -1.096459571272134781e-02 -2.393780089914798737e-02 -6.913306564092636108e-02 5.773130431771278381e-02 3.216604003682732582e-03 -7.007552683353424072e-02 1.287206858396530151e-01 1.719880476593971252e-02 6.051400303840637207e-02 -1.895858943462371826e-01 -6.153563410043716431e-02 -1.108257323503494263e-01 -1.113062724471092224e-01 -1.093869060277938843e-01 1.097817271947860718e-01 3.611459732055664062e-01 1.653686724603176117e-02 -5.684772878885269165e-02 -3.249533474445343018e-02 -2.229539677500724792e-02 8.093417435884475708e-02 1.454854011535644531e-01 -6.793753802776336670e-02 4.330910742282867432e-02 -1.269703637808561325e-02 8.569224923849105835e-02 -5.381102487444877625e-02 -3.652996942400932312e-02 1.340371221303939819e-01 -3.127103298902511597e-02 -6.044146046042442322e-02 3.638514131307601929e-02 -2.549160830676555634e-02 -1.273949258029460907e-02 2.064355909824371338e-01 -9.452923387289047241e-02 1.050366321578621864e-03 1.337607353925704956e-01 -6.773003190755844116e-02 6.840052604675292969e-01 -1.590682417154312134e-01 -1.593417376279830933e-01 7.370977103710174561e-02 -1.823686510324478149e-01 6.120387092232704163e-02 9.192639030516147614e-03 -6.951000541448593140e-02 2.594510652124881744e-02 2.232815921306610107e-01 4.973254352807998657e-02 4.268722981214523315e-02 1.552594751119613647e-01 4.388221539556980133e-03 5.608616471290588379e-01 -1.543185263872146606e-01 8.042904734611511230e-02 1.721100136637687683e-02 -3.431266248226165771e-01 -3.794728592038154602e-02 -3.449327126145362854e-02 -1.172204781323671341e-02 1.390179842710494995e-01 1.239180341362953186e-01 -2.526417747139930725e-02 -8.932827413082122803e-02 2.288160324096679688e-01 2.182454429566860199e-02 4.505115747451782227e-01 -5.170534551143646240e-02 4.242114350199699402e-02 5.004993081092834473e-02 -1.701182872056961060e-01 5.223784246481955051e-04 1.063315197825431824e-02 -7.527918554842472076e-03 -5.502669885754585266e-02 1.169213354587554932e-01 -5.068395659327507019e-02 2.213014103472232819e-02 1.076201535761356354e-02 -2.293378859758377075e-02 6.728823781013488770e-01 -1.528218835592269897e-01 2.190750688314437866e-01 9.994751214981079102e-02 -7.664257287979125977e-02 -7.417110353708267212e-02 -3.215702250599861145e-02 -1.079638823866844177e-01 -6.051431596279144287e-02 1.246057152748107910e-01 5.838925950229167938e-03 -6.493473798036575317e-02 4.400580227375030518e-01 2.503789961338043213e-03 1.624982655048370361e-01 -8.428753167390823364e-02 8.532607555389404297e-02 8.484237641096115112e-02 -1.063936739228665829e-03 -5.062258988618850708e-02 -6.678386777639389038e-02 1.753798872232437134e-02 -3.040428832173347473e-02 1.225087270140647888e-01 1.024840623140335083e-01 -7.034597545862197876e-02 -2.735684514045715332e-01 -1.543096825480461121e-02 -5.515271425247192383e-01 -8.232525736093521118e-02 1.806258261203765869e-01 1.007739827036857605e-01 7.437363266944885254e-02 -2.244622260332107544e-02 6.348072737455368042e-02 -4.870883654803037643e-03 3.585761878639459610e-03 1.034537628293037415e-01 -1.190943643450737000e-01 2.104473114013671875e-02 -6.526833772659301758e-01 5.224961042404174805e-02 -1.267359495162963867e+00 -8.236418664455413818e-02 -2.016397714614868164e-01 -1.626541279256343842e-02 4.756404459476470947e-01 4.852549731731414795e-02 3.498926386237144470e-02 -5.846227984875440598e-03 1.243308838456869125e-02 1.875221878290176392e-01 1.667927801609039307e-01
-7.442301139235496521e-03 7.770333439111709595e-02 -1.494387835264205933e-01 -1.694957613945007324e-01 3.538207709789276123e-01 8.801336586475372314e-02 -1.209330931305885315e-02 1.284691542387008667e-01 -1.633677445352077484e-02 2.165053505450487137e-03 -7.670445740222930908e-02 -4.451897740364074707e-02 -3.114428184926509857e-02 -6.402886006981134415e-03 6.121291220188140869e-02 -3.129369392991065979e-02 -5.136305466294288635e-02 -1.623160392045974731e-01 2.833196520805358887e-01 -1.588586717844009399e-02 1.294179558753967285e-01 -4.762240685522556305e-03 -8.552546799182891846e-02 9.758595377206802368e-02 -3.061041235923767090e-02 1.499698590487241745e-02 2.005891315639019012e-02 4.919248446822166443e-02 1.042192131280899048e-01 2.902144379913806915e-02 -8.419442921876907349e-02 -9.207342565059661865e-02 2.884409129619598389e-01 -1.329927705228328705e-02 1.115351244807243347e-01 8.950568735599517822e-02 -9.141268581151962280e-02 -1.055773999541997910e-02 1.195577345788478851e-02 4.136809706687927246e-02 -1.191236451268196106e-01 -3.543068841099739075e-02 -3.229176159948110580e-03 8.026211708784103394e-02 -9.206005930900573730e-02 1.206424981355667114e-01 2.944644391536712646e-01 2.103421837091445923e-01 -4.488850827328860760e-04 -3.960733860731124878e-02 -8.544057607650756836e-02 -6.122681871056556702e-02 -6.880657374858856201e-02 -3.345080837607383728e-02 -5.029588937759399414e-03 3.887258470058441162e-02 -1.811138726770877838e-02 -1.559771746397018433e-01 -2.864767983555793762e-02 -1.958844996988773346e-02 3.402611613273620605e-01 -1.152541786432266235e-01 9.318865090608596802e-02 -6.362988054752349854e-02 -2.350743860006332397e-03 3.401452209800481796e-03 -9.489422518527135253e-05 -4.874586686491966248e-02 -1.106406450271606445e-01 -3.132190182805061340e-02 8.092656731605529785e-03 6.300261616706848145e-02 -1.784725934267044067e-01 3.521651625633239746e-01 3.762384355068206787e-01 6.560906022787094116e-02 1.655685529112815857e-02 -2.066244371235370636e-02 4.777915403246879578e-02 -8.717631548643112183e-02 2.638918161392211914e-02 1.322292685508728027e-01 -6.075760349631309509e-02 -1.311419438570737839e-02 1.604889333248138428e-02 -2.827099561691284180e-01 -1.232881695032119751e-01 1.972164213657379150e-01 3.196989893913269043e-01 1.086657792329788208e-01 7.802625745534896851e-02 3.154457663185894489e-04 -7.219576090574264526e-02 6.444845348596572876e-02 1.639372855424880981e-02 -3.351822495460510254e-02 -2.332969568669795990e-02 1.456757355481386185e-02 6.097134947776794434e-02 -2.208618819713592529e-01 -2.174034416675567627e-01 1.870801746845245361e-01 3.782775104045867920e-01 -7.261698842048645020e-01 7.168501615524291992e-02 -1.877622306346893311e-01 -4.017128609120845795e-03 -4.639196023344993591e-02 -6.602762732654809952e-03 8.739397674798965454e-02 1.095241494476795197e-02 5.950651690363883972e-02 2.819839492440223694e-02 2.396640479564666748e-01 -1.701227724552154541e-01 2.240168005228042603e-01 3.589709401130676270e-01 5.261996388435363770e-01 1.665408350527286530e-02 1.574000120162963867e-01 1.334624271839857101e-02 -1.409154385328292847e-02 -3.507696092128753662e-02 -8.079314231872558594e-02 -1.071366816759109497e-01 -1.310940831899642944e-02 2.031393721699714661e-02 2.340141534805297852e-01 -1.656143069267272949e-01 -6.515409350395202637e-01 3.973751664161682129e-01 -6.537323445081710815e-02 3.932273015379905701e-02 -8.429171144962310791e-02 -5.284132063388824463e-02 5.197101831436157227e-02 4.856153950095176697e-02 -9.761882573366165161e-02 3.208303824067115784e-02 -7.268486917018890381e-02
-4.348539188504219055e-02 -5.213557183742523193e-02 7.538766413927078247e-02 -1.053667217493057251e-01 -8.016062527894973755e-02 7.353724539279937744e-02 -2.151864916086196899e-01 -8.726835995912551880e-02 -6.419701874256134033e-02 2.374299168586730957e-01 1.280528604984283447e-01 -3.322267904877662659e-02 3.607156127691268921e-02 3.882713988423347473e-02 6.022205948829650879e-02 4.122662171721458435e-02 5.699758231639862061e-02 1.904842793010175228e-03 5.019794031977653503e-02 -1.152297249063849449e-03 -2.634347379207611084e-01 -4.154833033680915833e-02 -5.069689080119132996e-02 9.111865609884262085e-02 1.136340200901031494e-01 -2.236766368150711060e-02 -3.636126592755317688e-02 -1.109059527516365051e-02 -4.741037264466285706e-02 -6.092222407460212708e-02 -6.970041990280151367e-02 -4.740783199667930603e-02 -7.068673521280288696e-02 2.316517755389213562e-02 -2.992866039276123047e-01 3.256299719214439392e-02 -2.840330824255943298e-02 9.943817555904388428e-02 8.976227790117263794e-02 3.423465043306350708e-02 5.406178161501884460e-02 7.329516578465700150e-03 -3.236729651689529419e-02 1.394575741142034531e-02 4.882558248937129974e-03 8.642540872097015381e-02 4.958439990878105164e-02 1.060766982845962048e-03 -3.246932923793792725e-01 9.500351548194885254e-02 3.514907136559486389e-02 -1.396245136857032776e-02 1.338720321655273438e-01 3.110526874661445618e-02 3.877443075180053711e-02 3.105595894157886505e-02 3.947292640805244446e-02 1.389994174242019653e-01 1.151395812630653381e-01 5.062232911586761475e-02 -7.235345244407653809e-02 -5.700193718075752258e-02 -2.959156930446624756e-01 1.047336384654045105e-01 -4.340896010398864746e-02 -7.961910218000411987e-02 1.047052256762981415e-02 2.551887184381484985e-02 4.913527518510818481e-02 -3.931320458650588989e-02 -6.557978689670562744e-02 -8.206955343484878540e-02 -1.699502207338809967e-02 -2.783734165132045746e-02 -3.154001757502555847e-02 -6.739978492259979248e-02 -3.087560534477233887e-01 1.528143584728240967e-01 7.276808470487594604e-02 -8.936506509780883789e-02 1.383549869060516357e-01 5.766159668564796448e-02 -6.360146403312683105e-02 6.015804130584001541e-03 5.191427096724510193e-02 7.319768518209457397e-02 3.717758506536483765e-02 2.287970036268234253e-01 -1.366173662245273590e-02 -6.977288424968719482e-02 -3.492684662342071533e-01 9.691352397203445435e-02 -4.343887045979499817e-02 -9.908103197813034058e-02 8.347844332456588745e-02 5.256466567516326904e-02 -7.544638961553573608e-02 7.309441454708576202e-03 7.554565370082855225e-02 8.322506397962570190e-02 5.740969628095626831e-02 -3.177935779094696045e-01 -2.770129404962062836e-02 1.274205744266510010e-02 -2.529675960540771484e-01 2.185286581516265869e-01 4.336688667535781860e-03 -4.484365507960319519e-02 7.658686488866806030e-02 -2.095904201269149780e-01 -1.374096982181072235e-02 -1.964249089360237122e-02 -5.888991430401802063e-02 -1.485047340393066406e-01 4.214559216052293777e-03 2.268600314855575562e-01 2.577242441475391388e-02 2.094469964504241943e-02 -3.174910247325897217e-01 -1.759796738624572754e-01 1.938063465058803558e-02 1.960118412971496582e-01 1.380368024110794067e-01 3.066205792129039764e-02 -5.056277289986610413e-02 3.666532784700393677e-02 -2.648757072165608406e-03 -2.683869376778602600e-02 8.315763622522354126e-02 -1.885256469249725342e-01 8.582113310694694519e-03 7.254078239202499390e-02 -3.894073367118835449e-01 -4.401183128356933594e-01 -7.124399393796920776e-02 4.116557836532592773e-01 -5.038775037974119186e-03 -5.223307386040687561e-02 -6.459262967109680176e-02 -5.409645289182662964e-02
-9.091334789991378784e-02 8.769552223384380341e-03 1.277090311050415039e-01 -2.070943452417850494e-02 1.398286968469619751e-01 4.948089644312858582e-02 -1.469346228986978531e-02 -3.283427283167839050e-02 1.882561147212982178e-01 7.893983274698257446e-02 -8.644676953554153442e-02 8.810205012559890747e-02 -9.874159097671508789e-02 -3.514177352190017700e-02 -8.530899137258529663e-02 8.201620541512966156e-03 1.405191123485565186e-01 2.675292640924453735e-02 1.845807284116744995e-01 1.099708080291748047e-01 -2.338241599500179291e-02 -3.100850582122802734e-01 1.014443933963775635e-01 -6.342444568872451782e-02 2.767725673038512468e-04 -2.091165333986282349e-01 6.456958595663309097e-03 8.145022392272949219e-02 -5.739849060773849487e-02 -4.251287505030632019e-02 7.329376786947250366e-02 -2.966297790408134460e-02 5.866795405745506287e-02 -1.448083966970443726e-01 -1.136687472462654114e-01 1.955249011516571045e-01 8.169265091419219971e-02 -8.997492492198944092e-02 -8.471070975065231323e-02 2.824968695640563965e-01 -2.302465029060840607e-02 -5.356353148818016052e-02 5.571335926651954651e-02 2.437206059694290161e-01 1.653025671839714050e-02 2.734569907188415527e-01 1.283082067966461182e-01 3.719230592250823975e-01 -4.900773614645004272e-02 -2.138254465535283089e-03 1.396515220403671265e-01 1.740348488092422485e-01 2.016728371381759644e-02 -9.510616213083267212e-02 -7.636965252459049225e-03 -4.966377839446067810e-02 -6.765670143067836761e-03 -6.139296293258666992e-02 9.496308118104934692e-02 -2.069802433252334595e-01 1.693702191114425659e-01 -4.245569705963134766e-01 -4.802069067955017090e-02 1.244187206029891968e-01 1.622487306594848633e-01 -6.419005990028381348e-02 -3.572427108883857727e-02 1.925648897886276245e-01 -3.628435730934143066e-02 1.025501936674118042e-01 2.286301366984844208e-02 3.396512269973754883e-01 4.860066622495651245e-02 5.397698283195495605e-01 1.813515275716781616e-01 2.269897907972335815e-01 1.598406583070755005e-02 -8.730607479810714722e-02 1.946710050106048584e-01 4.713264107704162598e-02 8.958355523645877838e-03 8.395373821258544922e-02 -1.012474894523620605e-01 -1.366985123604536057e-02 9.146606922149658203e-02 -8.731617778539657593e-02 1.512296348810195923e-01 -2.098403871059417725e-01 6.172852590680122375e-02 1.047403663396835327e-01 -1.544651016592979431e-02 1.726034283638000488e-01 1.620618551969528198e-01 1.306619942188262939e-01 -9.573996812105178833e-02 -3.847256004810333252e-01 -8.256413042545318604e-02 -5.178312212228775024e-02 -6.592090427875518799e-02 -1.952810287475585938e-01 2.016728185117244720e-02 -1.473463028669357300e-01 1.988447904586791992e-01 -8.169264197349548340e-01 -7.580495625734329224e-02 1.882216334342956543e-01 8.745751529932022095e-02 -1.942861080169677734e-01 -2.157360874116420746e-02 4.059274196624755859e-01 -9.009684622287750244e-02 8.397931233048439026e-03 -6.632839329540729523e-03 2.473106533288955688e-01 1.445192247629165649e-01 6.930443048477172852e-01 1.707986295223236084e-01 7.475286126136779785e-01 -9.028209000825881958e-02 -3.134168088436126709e-01 1.048552170395851135e-01 8.517116308212280273e-02 1.723976572975516319e-03 -4.140742719173431396e-01 -1.093267649412155151e-02 5.093083716928958893e-03 6.705103814601898193e-02 -4.187681674957275391e-01 4.883351176977157593e-02 -9.550710320472717285e-01 1.993475556373596191e-01 -2.454176247119903564e-01 -9.842281788587570190e-02 7.317819446325302124e-02 1.804042309522628784e-01 -8.407590538263320923e-02 -9.587724506855010986e-02 7.759274542331695557e-02 -1.251802891492843628e-01 -7.305434439331293106e-03
-1.359116584062576294e-01 1.621588021516799927e-01 -1.146315634250640869e-01 -3.228280544281005859e-01 1.697846651077270508e-01 -1.773351579904556274e-01 2.098002433776855469e-01 3.435210883617401123e-01 6.564486026763916016e-02 4.722236469388008118e-02 -1.757211796939373016e-02 -1.019000560045242310e-01 -2.311409451067447662e-02 -3.853263705968856812e-02 -9.998673945665359497e-02 1.794884204864501953e-01 -1.418073326349258423e-01 -5.864064022898674011e-02 1.275776922702789307e-01 -1.717146635055541992e-01 1.037784293293952942e-01 9.150793403387069702e-02 5.161843076348304749e-02 -2.436209656298160553e-02 1.673893444240093231e-02 1.094649825245141983e-02 9.477935731410980225e-02 6.279635429382324219e-02 -1.641967333853244781e-02 -2.247602939605712891e-01 -2.884582877159118652e-01 -5.804220587015151978e-02 1.170991361141204834e-01 9.137151390314102173e-02 1.848801374435424805e-01 -2.266452610492706299e-01 7.528263330459594727e-02 -8.188986033201217651e-02 6.167519837617874146e-02 -6.283620744943618774e-02 8.074352145195007324e-02 -5.397913232445716858e-02 -8.703885227441787720e-02 -2.841081023216247559e-01 -1.556063145399093628e-01 2.020573019981384277e-01 1.528944671154022217e-01 -1.920479387044906616e-01 5.413472279906272888e-02 -1.749017238616943359e-01 1.412010788917541504e-01 -5.020136479288339615e-03 -4.883812740445137024e-02 2.283068560063838959e-02 4.265338927507400513e-02 -6.478830426931381226e-02 1.145862042903900146e-02 -1.734958738088607788e-01 -2.683254182338714600e-01 -1.615370213985443115e-01 6.605239212512969971e-02 4.553487598896026611e-01 8.099711686372756958e-02 -1.425905376672744751e-01 1.563474386930465698e-01 -7.081445306539535522e-02 5.609610583633184433e-03 -2.299377135932445526e-02 -5.002981796860694885e-02 9.780002385377883911e-02 1.796730980277061462e-02 -6.198771595954895020e-01 -1.358739733695983887e-01 4.138864576816558838e-01 4.406121000647544861e-02 1.594597250223159790e-01 1.928160339593887329e-01 -3.419208526611328125e-01 9.854966774582862854e-03 -3.341725841164588928e-02 6.574620958417654037e-03 -7.695692474953830242e-04 -2.208656631410121918e-02 -5.247351154685020447e-02 -1.040375698357820511e-02 -1.761252433061599731e-01 -2.011337131261825562e-01 1.542047262191772461e-01 6.313083320856094360e-02 1.428740620613098145e-01 7.025414705276489258e-02 -3.456217646598815918e-01 1.409860849380493164e-01 -6.290850043296813965e-02 8.361866325139999390e-02 7.073979824781417847e-02 -6.339684128761291504e-02 7.893738150596618652e-02 -1.380518078804016113e-01 2.656387686729431152e-01 -1.264181435108184814e-01 5.557664632797241211e-01 1.945062279701232910e-01 2.999324798583984375e-01 2.568748034536838531e-02 -1.711306124925613403e-01 1.333273947238922119e-01 -4.891850799322128296e-02 8.634898811578750610e-02 -2.225085347890853882e-01 2.849714644253253937e-02 -9.153465740382671356e-03 -7.347081601619720459e-02 5.743636190891265869e-02 -1.175581216812133789e-01 1.040649935603141785e-01 9.442318975925445557e-02 -4.954778552055358887e-01 1.358308047056198120e-01 2.990247309207916260e-01 7.487220317125320435e-02 -1.927984878420829773e-02 1.130673438310623169e-01 3.701054751873016357e-01 -2.420690283179283142e-02 -2.095156349241733551e-03 1.040798518806695938e-02 8.999732732772827148e-01 -1.267767548561096191e-01 -9.892146587371826172e-01 1.849735379219055176e-01 9.006476402282714844e-02 1.761358976364135742e-01 7.037925124168395996e-01 -1.224538590759038925e-02 2.829217314720153809e-01 -2.627290412783622742e-02 -7.942231744527816772e-02 6.290299445390701294e-02 -4.843501374125480652e-02
-5.404500756412744522e-03 3.575558066368103027e-01 -1.466781552881002426e-02 2.616364657878875732e-01 -8.386749029159545898e-02 -3.638900816440582275e-02 3.024065867066383362e-03 -7.725937664508819580e-02 -3.539500385522842407e-02 -3.237481042742729187e-02 7.553090155124664307e-02 -7.678293436765670776e-02 -1.806390285491943359e-02 6.183662265539169312e-02 -1.395316794514656067e-02 1.207611039280891418e-01 -1.261722147464752197e-01 3.429463207721710205e-01 -9.288822859525680542e-02 4.873295500874519348e-02 6.140366569161415100e-02 -2.943510375916957855e-02 -1.710291020572185516e-02 -5.819756072014570236e-03 -4.811056703329086304e-02 -4.933604970574378967e-02 3.701383620500564575e-02 -3.591064596548676491e-03 7.376891095191240311e-03 -2.527411468327045441e-02 -1.326467245817184448e-01 -1.952247023582458496e-01 -8.404836803674697876e-02 -2.266617864370346069e-02 1.123150438070297241e-01 -1.175265833735466003e-01 -1.613602042198181152e-02 -1.353789586573839188e-02 1.384521927684545517e-02 1.652073562145233154e-01 -3.453304618597030640e-02 -8.616972714662551880e-02 -7.819952815771102905e-02 -5.227962136268615723e-01 1.109962351620197296e-02 -4.357198178768157959e-01 1.681394875049591064e-02 -1.981000751256942749e-01 -2.113507315516471863e-02 3.215312659740447998e-01 -6.936822086572647095e-02 2.963596396148204803e-02 -1.983331516385078430e-02 -1.050074398517608643e-01 -2.179611660540103912e-02 4.175796359777450562e-02 2.864462696015834808e-02 -2.500851750373840332e-01 -2.571029029786586761e-02 -4.181669950485229492e-01 5.574276670813560486e-03 2.259580343961715698e-01 7.782266288995742798e-02 1.826373785734176636e-01 3.627897426486015320e-02 4.173008259385824203e-03 7.689876481890678406e-03 1.003001928329467773e-01 -4.154710844159126282e-02 -6.030583754181861877e-02 6.761094927787780762e-02 -5.678433179855346680e-01 -4.823014885187149048e-02 -8.096161484718322754e-01 -9.586658328771591187e-02 1.784037202596664429e-01 3.557867556810379028e-02 1.031176894903182983e-01 4.808969423174858093e-02 6.983426958322525024e-02 5.381137132644653320e-02 -1.414305716753005981e-01 -2.043938823044300079e-02 7.802150398492813110e-02 5.280960351228713989e-02 -5.847103595733642578e-01 -1.211654320359230042e-01 -3.649289608001708984e-01 8.194028586149215698e-02 -8.859979361295700073e-02 7.517701946198940277e-03 3.821617662906646729e-01 -2.430794760584831238e-02 -5.694638937711715698e-02 2.266572043299674988e-02 -1.119216829538345337e-01 7.671415805816650391e-02 -5.154791101813316345e-02 2.960713766515254974e-02 -2.346123568713665009e-02 -1.211525574326515198e-01 -1.743819564580917358e-01 -5.269949510693550110e-02 1.140180453658103943e-01 8.205080032348632812e-02 3.695642575621604919e-02 4.878778755664825439e-02 -2.712600864470005035e-02 5.176268890500068665e-02 1.879718005657196045e-01 -3.763107210397720337e-02 8.590948581695556641e-02 -7.396116387099027634e-03 3.924422264099121094e-01 -1.910124570131301880e-01 4.267591238021850586e-01 6.860351562500000000e-02 -2.760594189167022705e-01 4.657143354415893555e-02 -4.454242065548896790e-02 -2.085986174643039703e-02 7.792147248983383179e-02 -3.045307286083698273e-02 -6.409393250942230225e-02 -1.033155154436826706e-02 -2.564962580800056458e-02 -3.828929737210273743e-02 1.355322480201721191e+00 -9.496130794286727905e-02 1.123158574104309082e+00 8.060095459222793579e-02 3.433683514595031738e-02 4.993605613708496094e-02 -6.907101869583129883e-01 5.555903539061546326e-03 -4.206627234816551208e-02 9.538730978965759277e-02 3.690573200583457947e-02 -1.999256666749715805e-03 -5.041543021798133850e-02
7.415417581796646118e-02 -2.131725102663040161e-01 -6.741182878613471985e-03 3.017207980155944824e-01 -1.185304149985313416e-01 7.038289308547973633e-02 -1.562969982624053955e-01 -2.227287739515304565e-01 -6.273007392883300781e-02 3.567659994587302208e-03 1.859830915927886963e-01 2.361960522830486298e-02 -4.942785575985908508e-02 2.434962429106235504e-02 4.223273694515228271e-02 1.901707053184509277e-01 6.878850609064102173e-02 2.724086046218872070e-01 -2.368941158056259155e-01 1.530333161354064941e-01 -1.425405740737915039e-01 -5.326114222407341003e-02 6.006361171603202820e-02 -4.874198930338025093e-04 7.548291981220245361e-02 4.386607557535171509e-02 -1.859823055565357208e-02 6.938013248145580292e-03 -8.761364221572875977e-02 2.136519551277160645e-02 2.749386243522167206e-02 -9.056000411510467529e-02 -1.891581565141677856e-01 8.166401833295822144e-02 -1.684881001710891724e-01 -1.151331439614295959e-01 2.468672394752502441e-02 5.370355024933815002e-02 1.462293118238449097e-01 -1.539212018251419067e-01 8.780523389577865601e-02 -6.769412755966186523e-02 3.031503781676292419e-02 3.305694460868835449e-01 -6.116421520709991455e-02 2.795598208904266357e-01 -2.324372977018356323e-01 -7.942049764096736908e-03 -1.394165009260177612e-01 -3.600195422768592834e-02 -4.247204214334487915e-02 -8.085553348064422607e-02 1.834771484136581421e-01 1.513414978981018066e-01 -4.438916221261024475e-02 1.691493578255176544e-02 -8.170280605554580688e-02 1.668556630611419678e-01 3.996424376964569092e-02 -3.480272889137268066e-01 -1.635503470897674561e-01 2.318908227607607841e-03 -6.032975018024444580e-02 8.729006350040435791e-02 4.697311297059059143e-02 -1.084799226373434067e-02 1.196851581335067749e-01 -3.836845606565475464e-02 -1.878003403544425964e-02 2.395647019147872925e-02 -4.369094967842102051e-02 4.220423847436904907e-02 4.695962369441986084e-02 -2.200704813003540039e-01 -2.014979124069213867e-01 -1.313587091863155365e-02 -1.863475590944290161e-01 1.733646839857101440e-01 -3.217589855194091797e-02 6.529278308153152466e-02 1.023506447672843933e-01 -5.230462551116943359e-02 -8.612072095274925232e-03 -1.282711420208215714e-02 -3.207262977957725525e-02 3.300990760326385498e-01 -6.753624975681304932e-02 -1.150206476449966431e-01 -1.699304878711700439e-01 -2.254923284053802490e-01 -1.841727197170257568e-01 1.475881934165954590e-01 -6.410126388072967529e-02 -1.312484294176101685e-01 5.903686955571174622e-02 1.541572511196136475e-01 1.613223738968372345e-02 -3.389809653162956238e-02 1.777665689587593079e-02 -5.027381777763366699e-01 6.727477069944143295e-03 -1.270093798637390137e+00 -1.035778895020484924e-01 -2.088913917541503906e-01 -1.294408142566680908e-01 4.812730550765991211e-01 -4.139976948499679565e-02 1.925557106733322144e-01 8.079879730939865112e-02 -2.610104382038116455e-01 7.747876644134521484e-02 -1.634431682759895921e-04 1.246072426438331604e-01 -4.106006622314453125e-01 3.558301180601119995e-02 9.601363539695739746e-01 -1.844048947095870972e-01 1.305644866079092026e-02 -1.978548616170883179e-01 -3.101730346679687500e-01 -7.238075882196426392e-02 -1.239694207906723022e-01 1.815869361162185669e-01 7.016895711421966553e-02 -5.498729273676872253e-02 3.379631042480468750e-02 7.930938899517059326e-02 4.055767878890037537e-02 2.351108938455581665e-02 2.223414629697799683e-01 -1.397185474634170532e-01 1.004210785031318665e-01 -1.379908472299575806e-01 -1.155174225568771362e-01 -4.754654690623283386e-02 5.712866783142089844e-02 1.093875169754028320e-01 1.046713367104530334e-01 -5.170507729053497314e-02 -2.773851156234741211e-02
-1.997285522520542145e-02 -1.895989328622817993e-01 -3.676377534866333008e-01 -8.015486411750316620e-03 7.661160547286272049e-03 -2.403556369245052338e-02 -1.430171132087707520e-01 -7.813118398189544678e-02 -4.731866717338562012e-02 -9.735490195453166962e-03 -2.729592472314834595e-02 -4.497836157679557800e-02 -4.055340588092803955e-02 -4.271673969924449921e-03 1.082703918218612671e-01 -7.544009387493133545e-02 -3.523581326007843018e-01 -2.030270546674728394e-01 -6.099066883325576782e-02 -1.692494750022888184e-01 -9.931868314743041992e-02 8.793608844280242920e-02 2.565962634980678558e-02 -1.177396439015865326e-02 7.327166944742202759e-02 -8.881436288356781006e-02 -1.042933687567710876e-01 1.045496109873056412e-02 -2.155528031289577484e-02 1.106457337737083435e-01 -2.290578633546829224e-01 -5.015987902879714966e-03 -6.439416110515594482e-02 1.708422042429447174e-02 -1.474233120679855347e-01 -7.215571403503417969e-02 -4.867309704422950745e-02 -3.159978613257408142e-02 5.308606103062629700e-02 1.508496701717376709e-01 -7.084492128342390060e-03 -5.481098778545856476e-03 2.326411940157413483e-02 2.460175454616546631e-01 -2.525838017463684082e-01 -6.839216500520706177e-02 2.924158982932567596e-02 1.654086709022521973e-01 -1.113152429461479187e-01 -7.487219572067260742e-02 7.811646908521652222e-02 3.445825353264808655e-02 9.972798079252243042e-02 -8.334714174270629883e-02 -3.663508966565132141e-02 -1.414117589592933655e-02 1.399992313235998154e-02 6.482906639575958252e-02 -3.766785264015197754e-01 2.334054261445999146e-01 2.858826657757163048e-03 1.483495696447789669e-03 -8.187771588563919067e-02 -2.023800462484359741e-01 5.536890029907226562e-02 7.174341008067131042e-03 1.105768233537673950e-01 1.967900842428207397e-01 -9.977732785046100616e-03 -6.766501069068908691e-02 3.732446208596229553e-02 2.706734836101531982e-01 -3.227645754814147949e-01 -1.108608618378639221e-01 6.397512555122375488e-02 1.514364480972290039e-01 -4.763807728886604309e-02 -8.768693357706069946e-02 2.294814214110374451e-02 -2.205395884811878204e-02 -1.547045446932315826e-02 -8.917800337076187134e-02 2.642861008644104004e-02 4.062920436263084412e-02 4.665474221110343933e-02 2.054829150438308716e-01 -3.654528260231018066e-01 1.240383014082908630e-01 -1.509013026952743530e-02 1.093147471547126770e-01 -9.260693192481994629e-02 -1.162072345614433289e-01 6.646961718797683716e-02 7.776568084955215454e-02 9.356694668531417847e-02 -1.868178397417068481e-01 -1.159133762121200562e-01 2.356687001883983612e-02 4.872040078043937683e-02 -3.940050005912780762e-01 -4.554325044155120850e-01 2.566697001457214355e-01 4.590854048728942871e-02 -2.015187032520771027e-02 -6.950891017913818359e-02 -1.754453182220458984e-01 -1.344035752117633820e-02 -8.579036593437194824e-02 -2.867256850004196167e-02 2.712740898132324219e-01 -5.622628331184387207e-02 2.674005553126335144e-02 -9.737021289765834808e-03 1.171904206275939941e-01 -5.081216692924499512e-01 -8.581536263227462769e-02 1.468647643923759460e-02 -1.478488296270370483e-01 -1.689399331808090210e-01 2.915421426296234131e-01 1.437473483383655548e-02 -3.905396535992622375e-02 7.775218226015567780e-03 -1.803300678730010986e-01 -7.915518432855606079e-02 -2.802432514727115631e-02 -2.019177190959453583e-02 -3.428181409835815430e-01 -4.663670063018798828e-01 -6.170586496591567993e-02 -6.904911249876022339e-02 -1.592626869678497314e-01 -6.504842638969421387e-02 3.418324887752532959e-01 1.329500377178192139e-01 8.066795766353607178e-02 8.790476620197296143e-02 7.112003117799758911e-02 -1.025585383176803589e-01 -4.415682330727577209e-02
-5.916731432080268860e-02 6.709907203912734985e-02 -1.183652728796005249e-01 -2.203621268272399902e-01 -3.869095817208290100e-02 -5.644394084811210632e-02 -3.082745969295501709e-01 -1.087171584367752075e-01 -5.612639337778091431e-02 -1.308908909559249878e-01 -1.217478439211845398e-01 -1.113171409815549850e-02 -7.209008187055587769e-02 6.095160543918609619e-02 -1.788720861077308655e-02 3.343680128455162048e-02 -1.265885233879089355e-01 -2.445087209343910217e-02 -5.567718669772148132e-02 -1.372587680816650391e-02 -3.030277788639068604e-01 -4.891473054885864258e-02 5.158050730824470520e-02 -5.270357429981231689e-02 -9.033481590449810028e-03 2.656202018260955811e-02 -5.651702173054218292e-03 -4.852956160902976990e-02 9.061244130134582520e-02 -2.017633467912673950e-01 -1.226280704140663147e-01 -7.485915720462799072e-02 -3.229098767042160034e-02 -8.008638024330139160e-02 -2.697832882404327393e-01 1.431592926383018494e-02 5.979572422802448273e-03 1.595570705831050873e-02 -6.938896607607603073e-03 5.668451264500617981e-02 -5.463147908449172974e-02 2.321459539234638214e-02 -9.506794624030590057e-03 -1.081102117896080017e-01 -1.830399334430694580e-01 1.598984003067016602e-01 3.686556592583656311e-02 2.916865237057209015e-02 -3.429740965366363525e-01 2.271117568016052246e-01 -4.896320030093193054e-02 -3.052985761314630508e-03 -6.915525346994400024e-02 -8.563727885484695435e-02 -1.009751707315444946e-01 1.688067615032196045e-02 -3.946041315793991089e-02 -6.863757967948913574e-02 -1.448502689599990845e-01 2.203480601310729980e-01 2.126730047166347504e-02 3.790505602955818176e-02 -3.043506145477294922e-01 2.126764059066772461e-01 5.581081658601760864e-02 5.762850120663642883e-02 -7.058563828468322754e-02 8.816925436258316040e-02 -6.702668219804763794e-02 -4.710859805345535278e-02 3.333424031734466553e-02 -8.171195536851882935e-02 -1.751468777656555176e-01 -1.204141601920127869e-01 5.989072099328041077e-02 -6.504752673208713531e-03 -2.935298979282379150e-01 4.068182110786437988e-01 3.418154641985893250e-02 7.971626706421375275e-03 3.674377512652426958e-05 6.087147817015647888e-02 -2.361755259335041046e-02 3.431024774909019470e-02 -5.288493260741233826e-02 -7.188701070845127106e-03 -1.111087575554847717e-01 5.324926376342773438e-01 4.591296613216400146e-02 1.053753048181533813e-01 -2.761884033679962158e-01 1.758258193731307983e-01 -7.184523344039916992e-02 1.334339976310729980e-01 -5.381570011377334595e-02 1.824649050831794739e-02 4.046986252069473267e-02 1.338411308825016022e-02 8.691620081663131714e-03 7.424212247133255005e-02 -1.288889199495315552e-01 -6.293471455574035645e-01 -6.503894180059432983e-02 1.651747524738311768e-01 -2.061889022588729858e-01 1.136913895606994629e-01 -4.810281097888946533e-02 1.895847730338573456e-02 -2.401180379092693329e-02 -1.388404518365859985e-01 1.883986406028270721e-02 -1.931751333177089691e-02 -1.245082262903451920e-02 5.136237740516662598e-01 -1.850676685571670532e-01 4.350797235965728760e-01 4.473881050944328308e-02 -7.222191989421844482e-02 -2.497829347848892212e-01 -7.951031625270843506e-02 -1.301735546439886093e-02 -1.117471382021903992e-01 -2.796402666717767715e-03 4.938126727938652039e-02 -1.097790747880935669e-01 3.492430970072746277e-02 -3.300074115395545959e-02 -2.337522357702255249e-01 -2.740626335144042969e-01 -3.917928338050842285e-01 1.433029072359204292e-03 -8.213046938180923462e-02 -2.828965187072753906e-01 -8.853423595428466797e-01 6.422073394060134888e-02 -2.443062961101531982e-01 -1.707364432513713837e-02 -5.592875182628631592e-02 3.290258347988128662e-02 -4.021460935473442078e-02
7.915179245173931122e-03 1.252111494541168213e-01 1.274105906486511230e-01 2.507610321044921875e-01 1.447989046573638916e-02 4.550908133387565613e-02 -1.081998348236083984e-01 -4.165565222501754761e-02 -4.110765084624290466e-02 1.404685974121093750e-01 -1.255611777305603027e-01 7.657372951507568359e-02 -1.023614779114723206e-02 -2.641866542398929596e-02 2.369036898016929626e-02 7.797959726303815842e-03 1.305960863828659058e-01 -1.802534610033035278e-01 -1.093982439488172531e-02 -4.917963594198226929e-02 -4.014054313302040100e-02 6.568025797605514526e-03 6.229352205991744995e-02 3.654521331191062927e-02 -8.552331477403640747e-02 4.717400670051574707e-02 -3.601232916116714478e-02 1.658109016716480255e-02 -8.393952250480651855e-02 -3.089419379830360413e-02 6.433501839637756348e-02 5.083144083619117737e-02 9.255507029592990875e-03 -2.503702603280544281e-02 -8.474809676408767700e-02 -6.056423857808113098e-02 9.899359941482543945e-02 -1.890121959149837494e-02 -5.116995051503181458e-02 4.714033752679824829e-02 -3.256447380408644676e-03 -4.819321632385253906e-02 -4.637006670236587524e-02 1.182364076375961304e-01 1.324158012866973877e-01 5.684025213122367859e-02 -1.000128686428070068e-01 7.966347783803939819e-02 -1.371158957481384277e-01 -1.677756756544113159e-01 -5.567022785544395447e-02 -1.716358214616775513e-02 -1.011032909154891968e-01 -8.595526963472366333e-02 1.729599386453628540e-02 7.967138662934303284e-03 -7.330510020256042480e-02 -8.536362648010253906e-02 7.392802834510803223e-02 8.552416414022445679e-02 -4.491446167230606079e-02 -1.348426379263401031e-02 -1.246361956000328064e-01 1.415151655673980713e-01 -2.967334352433681488e-02 -7.843440771102905273e-02 -7.548298686742782593e-02 9.735963493585586548e-02 -1.493015885353088379e-02 -2.498222142457962036e-02 -5.638419464230537415e-02 1.212664246559143066e-01 8.926506340503692627e-02 2.243879884481430054e-01 -7.864785939455032349e-02 4.236540198326110840e-02 -1.280066967010498047e-01 -4.703803062438964844e-01 6.565918028354644775e-02 -3.578526526689529419e-02 -1.763185486197471619e-02 9.323874861001968384e-02 1.390071772038936615e-02 -2.243154216557741165e-03 2.770941890776157379e-02 -1.364660449326038361e-02 1.518523693084716797e-01 -5.462566018104553223e-01 -2.691333554685115814e-02 4.683821648359298706e-02 -1.631432324647903442e-01 -6.796631217002868652e-02 8.376336097717285156e-02 -2.879899460822343826e-03 -2.896687574684619904e-02 -2.179144471883773804e-01 -4.043498635292053223e-02 3.653186932206153870e-02 -2.912240475416183472e-02 -3.157618343830108643e-01 4.412016272544860840e-02 4.662875831127166748e-01 -1.247535124421119690e-01 -1.011436283588409424e-01 -6.154907867312431335e-02 -2.802029997110366821e-02 -2.372127771377563477e-02 -1.238393932580947876e-01 -7.584228366613388062e-02 4.344726204872131348e-01 -4.284736886620521545e-02 1.468831393867731094e-02 -1.174013689160346985e-01 5.597243905067443848e-01 8.207422494888305664e-02 -6.366997212171554565e-02 -6.912780553102493286e-02 -1.143561117351055145e-02 -8.215624839067459106e-02 8.250107616186141968e-02 -9.328776970505714417e-03 7.524002343416213989e-02 -2.211531065404415131e-02 -3.857690393924713135e-01 -4.603952914476394653e-02 8.597270352765917778e-04 -5.905741825699806213e-02 -4.970623254776000977e-01 1.671219915151596069e-01 -4.791030883789062500e-01 -8.750441670417785645e-02 -8.104299008846282959e-02 -4.558366164565086365e-02 5.246009230613708496e-01 -5.832713842391967773e-02 9.069111943244934082e-02 -1.604372709989547729e-01 1.955903470516204834e-01 -7.894610613584518433e-02 -5.491230264306068420e-02
-3.450430929660797119e-02 -1.908328682184219360e-01 7.075934857130050659e-02 6.517624258995056152e-01 2.006604569032788277e-03 -1.097789034247398376e-01 -1.763313263654708862e-02 -1.110438704490661621e-01 -4.853598773479461670e-02 -1.644501578994095325e-03 7.497446984052658081e-02 3.772398456931114197e-02 -7.034789025783538818e-02 5.265353992581367493e-02 -1.691567362286150455e-03 -9.667119383811950684e-02 -2.182414568960666656e-02 4.448667764663696289e-01 -3.515148162841796875e-02 -8.760249614715576172e-02 3.035927005112171173e-02 -1.835915595293045044e-01 2.094279229640960693e-02 -1.738349720835685730e-02 -7.515956461429595947e-02 -9.452489763498306274e-02 2.672020532190799713e-02 -3.502001240849494934e-02 4.599821567535400391e-02 -8.345589786767959595e-02 1.628530956804752350e-02 -8.045057952404022217e-02 6.139606237411499023e-02 -7.319812476634979248e-02 4.133479669690132141e-03 1.486215926706790924e-02 4.058112576603889465e-02 -1.834632270038127899e-02 -3.805221244692802429e-02 4.434596374630928040e-02 -4.619865491986274719e-02 -2.033265307545661926e-02 4.744320735335350037e-02 1.710689961910247803e-01 5.137499049305915833e-02 -5.287841558456420898e-01 6.722258031368255615e-02 1.537568867206573486e-02 -5.426777526736259460e-02 1.764031350612640381e-01 5.736853554844856262e-02 2.758146263659000397e-03 -5.583291873335838318e-02 -9.343077242374420166e-02 -1.944000087678432465e-02 -2.510918118059635162e-02 1.116530317813158035e-02 2.368798553943634033e-01 1.217064037919044495e-01 -9.788553118705749512e-01 8.495947346091270447e-03 1.897880733013153076e-01 -3.062718920409679413e-02 2.024709433317184448e-01 5.050187557935714722e-02 2.088782936334609985e-02 -5.531631410121917725e-02 4.724754393100738525e-02 -5.048437975347042084e-03 8.903621137142181396e-02 1.148091536015272141e-02 3.406246602535247803e-01 5.502159474417567253e-04 -7.072247862815856934e-01 -1.027363073080778122e-02 2.483107298612594604e-01 7.275594025850296021e-02 2.348285019397735596e-01 -8.709982037544250488e-02 6.082748994231224060e-03 7.016523182392120361e-02 1.433101147413253784e-01 3.383111953735351562e-02 -7.516849040985107422e-02 -5.310301855206489563e-02 4.443986117839813232e-01 -2.788592875003814697e-02 -9.482995867729187012e-01 -8.326130919158458710e-03 1.122532710433006287e-01 4.446259886026382446e-02 2.345199584960937500e-01 2.367226220667362213e-02 9.011704474687576294e-03 6.532680988311767578e-02 -1.922850459814071655e-01 5.664145201444625854e-02 -5.558920558542013168e-03 -3.951111808419227600e-02 -8.585114032030105591e-02 -2.327131805941462517e-03 -1.851061284542083740e-01 1.734300144016742706e-02 6.497780978679656982e-02 2.328261174261569977e-02 9.481888264417648315e-02 5.783718824386596680e-02 4.105916712433099747e-03 -3.579766675829887390e-02 5.177561193704605103e-02 -3.929096739739179611e-03 4.068023711442947388e-02 4.671633616089820862e-02 7.944129407405853271e-02 -1.181975677609443665e-01 6.121665835380554199e-01 -4.310584068298339844e-02 1.123813781305216253e-04 -2.953009866178035736e-02 -1.057044137269258499e-02 -5.011044070124626160e-02 -7.238423079252243042e-02 7.415161235257983208e-04 1.497181951999664307e-01 1.922025548992678523e-04 -5.877001583576202393e-02 -3.661560639739036560e-02 -7.663403749465942383e-01 -1.393945962190628052e-01 1.861861228942871094e+00 -4.777529090642929077e-02 -3.544189035892486572e-01 -4.436377435922622681e-02 -5.663782954216003418e-01 -7.189615070819854736e-02 7.116168737411499023e-02 4.170327633619308472e-02 -9.782456606626510620e-02 2.586688473820686340e-02 5.698520317673683167e-02
-3.972798213362693787e-02 -1.980444649234414101e-03 -2.520159184932708740e-01 1.863490641117095947e-01 3.078784942626953125e-01 -7.361420989036560059e-02 1.116588860750198364e-01 -1.396731883287429810e-01 -3.139485791325569153e-02 7.710983045399188995e-03 6.020861864089965820e-02 -4.622306209057569504e-03 1.005471870303153992e-01 8.499406278133392334e-02 -3.630605712532997131e-02 1.577209830284118652e-01 -2.433696240186691284e-01 1.107183843851089478e-01 2.692465484142303467e-01 3.453971445560455322e-02 1.678964197635650635e-01 6.375733297318220139e-03 5.324945226311683655e-02 -3.229832276701927185e-02 3.217571973800659180e-02 5.456525832414627075e-02 4.844530671834945679e-02 -8.908461034297943115e-02 -6.032301485538482666e-02 -3.961635753512382507e-03 -2.069365382194519043e-01 5.463579669594764709e-02 2.300515472888946533e-01 8.534472435712814331e-02 9.189287573099136353e-02 -4.515742184594273567e-04 2.940051816403865814e-02 3.041191585361957550e-02 -1.755538396537303925e-02 -4.030793160200119019e-02 -2.474281191825866699e-02 3.451108559966087341e-02 -5.912700295448303223e-02 9.454490989446640015e-02 -1.748766899108886719e-01 -3.606134057044982910e-01 3.460969328880310059e-01 2.438414096832275391e-02 9.619209915399551392e-02 2.379397302865982056e-02 3.915773332118988037e-02 4.539912194013595581e-02 -8.346352726221084595e-02 3.186428174376487732e-02 5.799334868788719177e-02 2.827835641801357269e-02 7.588966749608516693e-03 -8.593753725290298462e-02 -2.434878349304199219e-01 -1.618216037750244141e-01 2.882840633392333984e-01 -4.597324412316083908e-03 1.792440563440322876e-01 -5.184303969144821167e-02 6.489661987870931625e-03 -2.828122302889823914e-02 3.506837785243988037e-02 -7.096960395574569702e-02 -4.209763556718826294e-02 -6.156146526336669922e-02 -7.239682972431182861e-02 1.613793522119522095e-02 -1.964403688907623291e-01 -2.925590872764587402e-01 3.380952477455139160e-01 2.135729640722274780e-01 1.079441756010055542e-01 8.960869908332824707e-02 -4.057909548282623291e-02 2.321581542491912842e-02 6.089495122432708740e-02 -4.887678101658821106e-02 5.021454393863677979e-02 9.423074312508106232e-03 -4.253046214580535889e-02 -7.807482779026031494e-02 -2.346363663673400879e-01 -1.252716332674026489e-01 2.685244083404541016e-01 3.426754148676991463e-03 1.809646785259246826e-01 -5.958538129925727844e-02 3.852996975183486938e-02 7.512995041906833649e-03 -4.772951826453208923e-02 2.370670437812805176e-02 1.111537516117095947e-01 -3.175997361540794373e-02 4.558763280510902405e-02 -1.903010308742523193e-01 -2.877359390258789062e-01 2.300134748220443726e-01 3.278967440128326416e-01 3.715023025870323181e-02 1.930532753467559814e-01 2.097545890137553215e-03 8.424383588135242462e-03 -5.014652758836746216e-02 5.431151762604713440e-02 5.795537680387496948e-02 1.058650389313697815e-01 -4.491970688104629517e-02 -4.239917732775211334e-03 2.011726796627044678e-01 -2.582401037216186523e-01 -5.087697505950927734e-01 3.506330847740173340e-01 4.317902028560638428e-02 1.978913247585296631e-01 2.721648216247558594e-01 3.060696460306644440e-02 2.571466751396656036e-02 -7.634940557181835175e-03 -3.138847276568412781e-02 -9.574665687978267670e-03 6.259091198444366455e-02 9.388107806444168091e-02 -8.109110593795776367e-02 -2.101810872554779053e-01 8.305966854095458984e-01 2.907157242298126221e-01 -3.408438861370086670e-01 3.473981097340583801e-02 -1.202152222394943237e-01 1.169342398643493652e-01 -2.511652186512947083e-02 7.914156466722488403e-02 5.570973828434944153e-02 9.894135408103466034e-03 5.194170773029327393e-02
2.146521769464015961e-02 -2.663082480430603027e-01 -2.034794241189956665e-01 4.603350535035133362e-02 -1.138729229569435120e-01 1.273395121097564697e-01 4.309653118252754211e-02 7.634093612432479858e-02 3.994621336460113525e-02 -5.563793331384658813e-02 1.319562643766403198e-01 -5.597118288278579712e-02 -2.619844488799571991e-02 -1.169499196112155914e-02 4.740784689784049988e-02 9.984418004751205444e-02 -1.943380534648895264e-01 -1.043832823634147644e-01 -3.410157933831214905e-02 -8.196999877691268921e-02 7.689110189676284790e-02 -8.776146918535232544e-02 -6.720444560050964355e-02 3.054293245077133179e-02 2.029436528682708740e-01 -4.583933390676975250e-03 1.260188780725002289e-02 3.573450818657875061e-02 -8.882537484169006348e-02 1.777272224426269531e-01 -9.502717852592468262e-02 1.827067881822586060e-02 -2.919948287308216095e-02 -8.439532667398452759e-02 1.070757806301116943e-01 2.457009069621562958e-02 6.440430134534835815e-02 -2.266982384026050568e-02 1.861314028501510620e-01 5.230373144149780273e-02 -5.272643268108367920e-02 -1.274138689041137695e-02 4.440304636955261230e-02 -7.368063926696777344e-02 -8.977902680635452271e-02 -2.144323736429214478e-01 -9.484402090311050415e-02 -2.315255254507064819e-01 1.049562767148017883e-01 1.557036638259887695e-01 -3.500591032207012177e-03 -4.982816986739635468e-03 2.233303785324096680e-01 1.079983636736869812e-01 6.652788817882537842e-02 -1.085588112473487854e-01 -7.958541624248027802e-03 2.720361053943634033e-01 -1.410267204046249390e-01 -2.628789097070693970e-02 -1.436212956905364990e-01 -2.803974151611328125e-01 5.855543911457061768e-02 8.154523372650146484e-02 4.771961271762847900e-02 4.610536247491836548e-02 1.848229169845581055e-01 -1.392041891813278198e-01 3.524956107139587402e-02 9.463037550449371338e-02 -4.319909960031509399e-02 -1.334518045186996460e-01 -1.657440364360809326e-01 -2.006068527698516846e-01 -1.825904250144958496e-01 -3.750611543655395508e-01 -8.107034489512443542e-03 -5.401940271258354187e-02 -7.692305743694305420e-02 4.226063564419746399e-02 2.099571526050567627e-01 -3.048933111131191254e-02 -2.529322728514671326e-02 -2.754054963588714600e-03 -4.223850369453430176e-02 -1.159967333078384399e-01 -2.654832601547241211e-01 1.223355606198310852e-01 -1.262383610010147095e-01 1.377678960561752319e-01 1.389980465173721313e-01 6.641568243503570557e-02 -1.681815460324287415e-02 -1.635680645704269409e-01 1.236442029476165771e-01 6.488335877656936646e-02 3.468429669737815857e-02 -9.569130092859268188e-02 -9.456422179937362671e-02 5.330404639244079590e-01 -2.308389693498611450e-01 3.354505300521850586e-01 -2.064605057239532471e-01 9.675087779760360718e-02 1.325440853834152222e-01 -1.650187820196151733e-01 1.085277413949370384e-03 1.144275534898042679e-02 2.018464952707290649e-01 -1.092532128095626831e-01 -3.365345671772956848e-02 1.091468855738639832e-01 -7.311029732227325439e-02 -7.627681493759155273e-01 -3.016960024833679199e-01 -3.812804818153381348e-01 -1.885020136833190918e-01 4.467689692974090576e-01 -1.610583998262882233e-02 1.626481302082538605e-02 -3.933264315128326416e-02 6.816708948463201523e-03 1.278394460678100586e-01 3.628103062510490417e-02 -7.812841795384883881e-03 5.656444281339645386e-02 -3.656427562236785889e-02 3.220064342021942139e-01 -2.761487960815429688e-01 5.298864245414733887e-01 -1.264535933732986450e-01 1.416260898113250732e-01 2.176922932267189026e-02 -8.252523094415664673e-02 -6.983473151922225952e-02 8.829417824745178223e-02 2.561833858489990234e-01 4.538258071988821030e-03 7.687313854694366455e-02 -1.162047237157821655e-01
-2.411019802093505859e-02 -1.404319237917661667e-02 -3.151177987456321716e-02 -5.920304059982299805e-01 -6.138027459383010864e-02 4.405573904514312744e-01 2.489410154521465302e-02 3.639622926712036133e-01 -3.287928923964500427e-02 -2.654902823269367218e-02 1.835041097365319729e-03 1.071344092488288879e-01 4.476039856672286987e-02 1.638727635145187378e-02 -4.419588297605514526e-02 1.437802761793136597e-01 -8.793884888291358948e-03 -3.551759719848632812e-01 3.527951985597610474e-02 3.315312787890434265e-02 -8.075864613056182861e-02 2.500535845756530762e-01 3.724417835474014282e-02 -8.741948753595352173e-02 -1.872343942523002625e-02 -1.850422658026218414e-02 2.154363319277763367e-02 1.731959171593189240e-03 1.092571951448917389e-02 5.018805339932441711e-02 -8.781006187200546265e-02 1.856708526611328125e-01 -7.120657712221145630e-02 1.180639863014221191e-01 -2.097275666892528534e-02 -7.491580396890640259e-02 1.209043804556131363e-02 4.744504019618034363e-02 -5.120098590850830078e-02 4.990653251297771931e-04 -4.298517853021621704e-02 3.844428062438964844e-02 8.748382329940795898e-02 -1.817284077405929565e-01 -1.325254291296005249e-01 4.566887766122817993e-02 5.264820903539657593e-02 -3.328253030776977539e-01 -5.338922888040542603e-02 -4.699499905109405518e-02 4.641458019614219666e-02 -1.028154511004686356e-02 -6.517544388771057129e-02 -2.510625496506690979e-02 -4.432611912488937378e-02 -9.431559592485427856e-02 -3.515955992043018341e-03 7.256145030260086060e-02 -2.511905040591955185e-03 3.929283320903778076e-01 -1.043549627065658569e-01 -3.138995468616485596e-01 -8.359904587268829346e-02 -2.034367322921752930e-01 -2.422447316348552704e-02 -1.270155981183052063e-02 1.408672612160444260e-02 8.335249871015548706e-02 -3.848321363329887390e-02 -4.185577481985092163e-02 -6.497409939765930176e-02 -1.755613684654235840e-01 4.689650610089302063e-02 3.637416958808898926e-01 -9.837625920772552490e-02 -3.735566139221191406e-01 -1.319314092397689819e-01 -3.184026479721069336e-01 -5.339887365698814392e-02 -9.976470028050243855e-05 1.111557707190513611e-02 -5.129463598132133484e-02 -7.704608887434005737e-02 7.168146222829818726e-02 8.133165538311004639e-02 -2.342907041311264038e-01 1.003494486212730408e-01 5.741297006607055664e-01 1.180729130282998085e-03 -5.325753688812255859e-01 -1.365607529878616333e-01 -1.566715091466903687e-01 -4.211580380797386169e-02 2.659531868994235992e-02 6.263810396194458008e-02 -4.073164239525794983e-02 4.149067029356956482e-02 -5.839425697922706604e-02 7.315031439065933228e-02 3.786574117839336395e-03 1.202317401766777039e-01 5.043267607688903809e-01 -7.866724394261837006e-03 8.325231261551380157e-03 -9.589216113090515137e-02 -2.798308730125427246e-01 5.752371251583099365e-02 5.662244930863380432e-02 -3.135244175791740417e-02 6.047728657722473145e-02 -7.165660709142684937e-02 2.486461587250232697e-02 1.843410730361938477e-02 -4.783790409564971924e-01 1.784054934978485107e-02 3.936226963996887207e-01 -3.519515693187713623e-02 2.272617220878601074e-01 -8.724795281887054443e-02 -2.262490391731262207e-01 1.047068182379007339e-02 -9.622668474912643433e-02 1.477842964231967926e-02 -4.974389821290969849e-02 -9.795865416526794434e-02 3.455601260066032410e-02 -4.967702552676200867e-02 7.959924340248107910e-01 1.018783524632453918e-01 -1.365748643875122070e+00 -4.893425107002258301e-02 9.229261279106140137e-01 -8.364360779523849487e-02 5.196948051452636719e-01 -3.924348577857017517e-02 2.336855791509151459e-02 5.139966309070587158e-02 -2.837698534131050110e-02 -1.793202944099903107e-02 -5.381938442587852478e-02
-6.018204987049102783e-02 -3.299876749515533447e-01 1.032096333801746368e-02 -3.376277685165405273e-01 -1.252269893884658813e-01 -2.788400650024414062e-01 2.362804673612117767e-02 4.507657606154680252e-03 6.131509318947792053e-02 -1.589108705520629883e-01 6.054751202464103699e-02 -9.236966073513031006e-02 3.341906517744064331e-02 -5.005801562219858170e-03 -7.794601470232009888e-02 -5.463929101824760437e-02 -9.121340513229370117e-02 -1.087023019790649414e-01 -1.043363660573959351e-01 -1.035754457116127014e-01 6.176469102501869202e-02 4.653591290116310120e-02 -3.679838776588439941e-02 8.743724972009658813e-02 6.121944636106491089e-02 -2.927987836301326752e-02 1.874431036412715912e-02 -8.275571279227733612e-03 5.651004612445831299e-02 1.414586603641510010e-01 -1.018737629055976868e-01 2.423819601535797119e-01 -1.334950774908065796e-01 -1.068980395793914795e-01 -2.942268550395965576e-02 4.931655898690223694e-02 4.937599971890449524e-02 -3.815161064267158508e-02 -4.367010295391082764e-02 7.472733408212661743e-02 -5.484205484390258789e-02 8.184309303760528564e-02 -2.182644419372081757e-02 4.588849246501922607e-01 -1.146852374076843262e-01 -6.606031954288482666e-02 -2.456615567207336426e-01 1.570194810628890991e-01 -4.598406329751014709e-02 -1.900570839643478394e-01 2.899084053933620453e-02 4.729158431291580200e-02 -3.741366416215896606e-02 -6.403394788503646851e-02 -5.120728537440299988e-02 -1.787197962403297424e-02 -9.782429039478302002e-02 -4.939747159369289875e-04 -2.316369302570819855e-02 1.452706847339868546e-02 -2.301171422004699707e-01 1.799430847167968750e-01 7.775808125734329224e-02 -3.373013436794281006e-02 -2.296759560704231262e-02 2.553779259324073792e-02 -8.228823542594909668e-03 1.122508849948644638e-02 5.193968303501605988e-03 -1.205930337309837341e-01 -9.572158753871917725e-02 2.170994579792022705e-01 1.348750200122594833e-02 -4.355831816792488098e-02 -2.368567287921905518e-01 2.627337276935577393e-01 4.437690228223800659e-02 -2.617897093296051025e-01 -1.433640834875404835e-03 -3.396479412913322449e-02 1.285429811105132103e-03 1.520996075123548508e-02 -5.175133049488067627e-02 1.720982491970062256e-01 -5.682253465056419373e-02 2.080655843019485474e-01 9.052761644124984741e-02 1.423302888870239258e-01 -1.346045881509780884e-01 -1.750941015779972076e-02 6.029636412858963013e-02 1.340654641389846802e-01 -8.256381005048751831e-02 -4.087090864777565002e-02 -3.309965133666992188e-02 1.365670859813690186e-01 -5.546870455145835876e-02 -7.163459062576293945e-02 -4.877817258238792419e-02 -2.116966396570205688e-01 1.308983564376831055e-01 1.661049425601959229e-01 -1.604202985763549805e-01 6.013486161828041077e-02 -1.463369000703096390e-03 1.285442560911178589e-01 -2.864032238721847534e-02 -1.041070558130741119e-02 3.549547493457794189e-02 -4.551934543997049332e-03 -6.992552429437637329e-02 4.437049478292465210e-02 -5.900309979915618896e-02 5.186618566513061523e-01 7.343997806310653687e-02 3.081928938627243042e-02 -9.042096138000488281e-02 4.219309091567993164e-01 -1.719588786363601685e-02 -1.870435178279876709e-01 -6.775724142789840698e-02 8.502850681543350220e-02 8.450537174940109253e-02 -9.977933019399642944e-02 -4.112043231725692749e-02 -4.217500984668731689e-02 -2.318668179214000702e-02 -5.459854006767272949e-01 1.007293686270713806e-01 -7.270307838916778564e-02 -1.709654629230499268e-01 -1.729521602392196655e-01 1.166487205773591995e-02 2.011581808328628540e-01 6.593103706836700439e-02 1.196467690169811249e-02 3.924218006432056427e-03 -3.286171332001686096e-02 7.465647161006927490e-02 -1.816973648965358734e-02
-3.199245408177375793e-02 5.853158235549926758e-01 -4.002965986728668213e-02 -9.940817207098007202e-02 4.863199964165687561e-02 3.129916489124298096e-01 1.104915440082550049e-01 -3.904259949922561646e-02 1.945299468934535980e-02 -2.622033469378948212e-02 6.247853487730026245e-02 2.870601601898670197e-02 3.012426197528839111e-02 2.545228227972984314e-02 -4.472040012478828430e-02 2.145240902900695801e-01 -5.305707082152366638e-02 1.929552480578422546e-02 -3.621754050254821777e-02 -2.216058969497680664e-02 3.217011690139770508e-02 4.987033456563949585e-02 1.773771271109580994e-02 8.092135190963745117e-02 4.043274372816085815e-02 -7.102871686220169067e-02 -8.354720473289489746e-02 1.909578131744638085e-04 4.219269379973411560e-02 1.073644682765007019e-01 -4.625368118286132812e-02 -6.503316015005111694e-02 -1.063569076359272003e-02 1.397380679845809937e-01 9.242115169763565063e-02 -2.979669021442532539e-03 6.911789625883102417e-02 3.934833407402038574e-02 -3.532528132200241089e-02 1.361874584108591080e-02 -9.242548048496246338e-02 -1.809480600059032440e-03 5.976598709821701050e-02 -2.132918536663055420e-01 -2.454087696969509125e-02 3.252442926168441772e-02 7.028128206729888916e-02 -2.638922259211540222e-02 4.330832883715629578e-02 3.881240263581275940e-02 -2.373322658240795135e-02 -6.479077786207199097e-02 -1.056624762713909149e-02 -2.198575437068939209e-02 4.439800605177879333e-02 -7.579570170491933823e-03 6.457260251045227051e-02 -4.040406942367553711e-01 -4.093587771058082581e-02 6.564230471849441528e-02 2.960875071585178375e-02 -1.058546677231788635e-01 1.059338003396987915e-01 -5.041876342147588730e-03 1.997053809463977814e-02 3.287826851010322571e-02 -6.123775243759155273e-02 -1.611631177365779877e-02 5.746262520551681519e-02 -2.431923151016235352e-02 6.837320327758789062e-02 -3.140054047107696533e-01 -3.669423982501029968e-02 6.073451414704322815e-02 -6.180487945675849915e-02 -2.379363626241683960e-01 1.091713458299636841e-02 2.180828154087066650e-02 -7.101076096296310425e-02 -1.453584711998701096e-02 -6.514891982078552246e-02 -2.012522658333182335e-03 -3.138679778203368187e-03 1.820780523121356964e-02 1.363357878290116787e-03 -9.490318298339843750e-01 -1.368843764066696167e-01 3.258454799652099609e-02 -7.632959634065628052e-02 -5.059695243835449219e-01 4.821943491697311401e-02 1.743644475936889648e-02 -5.250822007656097412e-02 -7.174337655305862427e-02 1.392498146742582321e-02 3.730044141411781311e-02 -9.243798442184925079e-03 3.198418766260147095e-03 -8.678719401359558105e-02 -4.287718832492828369e-01 -1.103708986192941666e-03 -2.212250232696533203e-01 -3.032792173326015472e-02 1.515697315335273743e-02 4.202273115515708923e-02 7.384894788265228271e-02 1.543061714619398117e-02 3.678346797823905945e-02 4.814366996288299561e-02 -5.778963863849639893e-02 5.313974618911743164e-02 5.241570621728897095e-02 5.572972819209098816e-03 -5.806164741516113281e-01 -7.742135226726531982e-02 2.381628304719924927e-01 -6.422654539346694946e-02 -5.731451511383056641e-01 2.473830617964267731e-02 -2.552486211061477661e-02 -5.029971152544021606e-02 -1.502641141414642334e-01 -7.109978049993515015e-02 -6.412532180547714233e-02 -5.783095210790634155e-02 -3.776194527745246887e-02 -6.178558990359306335e-02 2.019455432891845703e+00 -9.325083345174789429e-02 -7.757652550935745239e-02 -2.266466617584228516e-03 9.628900885581970215e-01 9.223686903715133667e-02 -3.599593788385391235e-02 -1.069283336400985718e-01 1.461719274520874023e-01 -3.640904324129223824e-03 4.449458047747612000e-02 2.195863984525203705e-02 -2.772361971437931061e-02
