1.552535966038703918e-02 1.053924709558486938e-01 2.491853386163711548e-02 -4.660880565643310547e-01 2.188681662082672119e-01 -2.674631774425506592e-01 7.370628416538238525e-02 -1.786277592182159424e-01 1.002256870269775391e-01 3.995224833488464355e-03 1.668519154191017151e-02 6.375019997358322144e-02 7.632691413164138794e-02 6.990679353475570679e-02 -3.449726849794387817e-02 2.031854689121246338e-01 1.876449584960937500e-02 -2.866916954517364502e-01 1.897550523281097412e-01 -2.049055993556976318e-01 6.549199670553207397e-02 -5.471159219741821289e-01 9.492670744657516479e-02 2.470274083316326141e-02 -5.740296095609664917e-02 5.112866312265396118e-02 -2.556911855936050415e-02 -3.441926464438438416e-02 -7.934026420116424561e-03 5.508626997470855713e-02 8.047408610582351685e-02 1.323100030422210693e-01 2.136039286851882935e-01 -1.081641241908073425e-01 2.598056755959987640e-02 4.271732568740844727e-01 -3.861437737941741943e-02 -1.051864027976989746e-01 9.450471960008144379e-03 -2.035247087478637695e-01 4.194214195013046265e-02 -2.032680809497833252e-02 1.945590227842330933e-02 -1.345793008804321289e-01 1.086188666522502899e-02 4.177018105983734131e-01 1.502190530300140381e-01 7.316310703754425049e-02 1.136767771095037460e-02 2.384013682603836060e-01 2.134143561124801636e-02 5.224840249866247177e-03 3.963418304920196533e-02 3.238329291343688965e-01 3.679208084940910339e-02 5.645286664366722107e-02 7.519024610519409180e-02 -2.735529243946075439e-01 3.236181661486625671e-02 6.788032650947570801e-01 1.229804009199142456e-01 4.183539748191833496e-01 -5.115272942930459976e-03 2.450654208660125732e-01 3.001851588487625122e-02 1.568556129932403564e-01 -4.746941104531288147e-02 -2.190228551626205444e-02 2.615680545568466187e-02 -5.578519403934478760e-02 -4.567904025316238403e-02 -6.060619950294494629e-01 3.963283449411392212e-02 1.090648531913757324e+00 1.624549180269241333e-01 -8.341009914875030518e-02 -3.964409977197647095e-02 7.921043038368225098e-01 1.343275513499975204e-02 4.521681368350982666e-02 6.372466683387756348e-02 -1.412330120801925659e-01 9.033080190420150757e-02 -5.343510210514068604e-02 -8.010888099670410156e-02 -7.429081201553344727e-02 1.751344949007034302e-01 3.168530464172363281e-01 2.048681229352951050e-01 6.662885546684265137e-01 6.979081034660339355e-02 8.617059886455535889e-02 5.033959075808525085e-02 6.201304495334625244e-02 -7.538678497076034546e-02 4.862676262855529785e-01 3.313860297203063965e-02 1.796364635229110718e-01 3.487804159522056580e-02 -2.133902162313461304e-01 1.832890063524246216e-01 -2.424350753426551819e-02 1.926894336938858032e-01 3.998160064220428467e-01 2.529089897871017456e-02 5.767880007624626160e-02 -4.565677046775817871e-02 5.895530804991722107e-02 3.638509660959243774e-02 -4.863796532154083252e-01 -1.097766589373350143e-02 -5.648936610668897629e-03 -6.468516588211059570e-02 -6.469390541315078735e-02 8.672805875539779663e-02 2.880839705467224121e-01 1.038784757256507874e-01 -2.820072174072265625e-01 8.654266130179166794e-04 9.137326478958129883e-02 8.931978046894073486e-02 -5.721984431147575378e-02 -1.328777708113193512e-02 9.130350500345230103e-02 2.988745830953121185e-02 7.594431936740875244e-02 2.109194174408912659e-02 1.238184213638305664e+00 1.665857136249542236e-01 -1.813544034957885742e+00 1.925455480813980103e-01 -3.762039840221405029e-01 1.309237480163574219e-01 -1.550089716911315918e+00 4.487320780754089355e-02 -1.594887524843215942e-01 3.880127146840095520e-02 9.336823970079421997e-02 5.303984135389328003e-02 -1.027495265007019043e-01
-4.705057945102453232e-03 2.672306494787335396e-03 -4.622187018394470215e-01 3.135928884148597717e-02 7.548502832651138306e-02 -8.287935517728328705e-03 -2.938849329948425293e-01 7.928850501775741577e-02 -9.721142798662185669e-02 1.129335071891546249e-02 5.061623826622962952e-02 5.057425424456596375e-02 5.314151570200920105e-02 4.256508871912956238e-02 -1.739486306905746460e-02 1.101445406675338745e-01 -4.383144676685333252e-01 -1.791797950863838196e-02 1.724616438150405884e-02 4.961349070072174072e-02 -3.612493276596069336e-01 4.433555528521537781e-02 3.976249694824218750e-02 -4.217511042952537537e-02 -3.940813988447189331e-02 -9.768444579094648361e-04 -4.469338804483413696e-02 -2.781579270958900452e-03 -7.211609277874231339e-03 5.475290119647979736e-02 -3.855355083942413330e-01 -3.995618224143981934e-02 3.738839551806449890e-02 1.093106269836425781e-01 -3.158127069473266602e-01 7.141878455877304077e-02 1.687380671501159668e-02 7.410912960767745972e-02 4.047081347380299121e-06 5.539461597800254822e-02 -6.977750360965728760e-02 -2.097970992326736450e-02 5.582639947533607483e-02 4.776236042380332947e-02 -3.502222895622253418e-01 -1.904219388961791992e-01 7.414057850837707520e-02 2.384080737829208374e-02 -2.741923034191131592e-01 1.536959111690521240e-01 -5.614526942372322083e-02 -3.671634569764137268e-02 5.886814091354608536e-03 -1.397210210561752319e-01 -9.313714504241943359e-02 -7.656641304492950439e-03 -4.722177982330322266e-02 1.362717449665069580e-01 -3.507986068725585938e-01 1.203668415546417236e-01 -3.365451237186789513e-03 -1.080028060823678970e-02 -2.931624948978424072e-01 -2.136368453502655029e-01 -8.397669345140457153e-02 6.749926507472991943e-02 5.954638123512268066e-02 7.323618978261947632e-02 5.267003178596496582e-02 -2.336536068469285965e-03 7.105852663516998291e-02 -5.206961557269096375e-02 -5.314032435417175293e-01 -1.531261056661605835e-01 8.976872265338897705e-02 -2.234786897897720337e-01 -2.473102957010269165e-01 3.020673058927059174e-02 -8.369478397071361542e-03 -5.725126340985298157e-02 6.012704595923423767e-02 -4.770993068814277649e-02 4.714103415608406067e-02 -9.650956839323043823e-02 -5.104109644889831543e-02 -1.065001413226127625e-01 -5.472869277000427246e-01 1.932038217782974243e-01 1.001644730567932129e-01 -1.329346001148223877e-01 -3.580687344074249268e-01 -1.921919286251068115e-01 -5.640826374292373657e-02 -6.613940745592117310e-02 4.667302221059799194e-02 -9.334374219179153442e-02 9.612499736249446869e-03 1.176509484648704529e-01 -4.561134427785873413e-02 -3.399635478854179382e-02 -5.012099146842956543e-01 5.708381161093711853e-02 9.427486360073089600e-02 1.517701148986816406e-01 -3.358735144138336182e-01 -2.119152098894119263e-01 -4.303620080463588238e-04 4.265511035919189453e-02 2.630495838820934296e-02 -4.793182387948036194e-02 3.781897202134132385e-02 4.769852757453918457e-02 4.991672933101654053e-02 -5.889253020286560059e-01 -5.726788640022277832e-01 4.466521739959716797e-02 9.169922769069671631e-02 -2.043381333351135254e-01 -3.208670616149902344e-01 1.031642034649848938e-01 -2.030868269503116608e-02 1.070533134043216705e-02 -5.753521248698234558e-02 1.170897483825683594e-01 -3.377100219950079918e-03 -6.224508956074714661e-02 8.490870147943496704e-02 4.843553304672241211e-01 -5.354605317115783691e-01 -1.158727481961250305e-01 2.781522460281848907e-02 2.514640986919403076e-01 -2.181276679039001465e-01 1.682471483945846558e-01 2.030032128095626831e-02 -8.937314152717590332e-03 -4.925063624978065491e-02 2.815923653542995453e-03 3.572051227092742920e-02 -1.911322027444839478e-02
9.848935157060623169e-02 -2.451409026980400085e-02 2.120824605226516724e-01 3.048852682113647461e-01 -2.083060592412948608e-01 -4.954981803894042969e-02 2.309174388647079468e-01 1.642366521991789341e-03 -3.175234422087669373e-02 6.361114978790283203e-02 6.884618103504180908e-02 -9.522788971662521362e-02 -1.008828803896903992e-01 7.774107903242111206e-02 1.074974909424781799e-01 -3.802793473005294800e-02 2.973799705505371094e-01 -2.905440628528594971e-01 -3.049063682556152344e-01 2.671138942241668701e-01 1.252134144306182861e-01 2.526881545782089233e-02 6.961527466773986816e-02 -1.994290016591548920e-02 -2.340600825846195221e-02 3.056662976741790771e-01 -7.884658873081207275e-02 -6.415909528732299805e-02 -6.483887881040573120e-02 -5.513116251677274704e-03 2.922471165657043457e-01 2.990687787532806396e-01 -3.065045773983001709e-01 7.570972293615341187e-02 9.399800002574920654e-02 -6.864642351865768433e-02 2.737941406667232513e-02 -2.704191766679286957e-02 8.859419077634811401e-02 -2.699207961559295654e-01 -7.442104816436767578e-02 -7.026258111000061035e-02 -1.008165404200553894e-01 5.556113123893737793e-01 2.901387810707092285e-01 8.560203760862350464e-02 -3.311721384525299072e-01 -1.389003247022628784e-01 1.470237970352172852e-01 -2.094761468470096588e-02 4.921473562717437744e-02 -4.711585864424705505e-02 1.031077057123184204e-01 2.454166859388351440e-01 -7.431493699550628662e-02 1.235976517200469971e-01 -8.373582363128662109e-02 1.707979589700698853e-01 3.250792026519775391e-01 8.022988587617874146e-02 -3.181661665439605713e-01 -1.633485257625579834e-01 2.392848730087280273e-01 9.905510395765304565e-02 -3.744031116366386414e-02 -1.242863945662975311e-02 1.260917037725448608e-01 -1.533554643392562866e-01 -5.696991831064224243e-02 -9.248577989637851715e-03 -1.077891141176223755e-02 2.232349365949630737e-01 2.133290022611618042e-01 -5.215817093849182129e-01 -3.044787943363189697e-01 6.682072579860687256e-02 1.430322974920272827e-01 -9.708259254693984985e-03 8.314932137727737427e-02 2.389390021562576294e-02 8.171263337135314941e-02 -1.740186959505081177e-01 -2.388111129403114319e-02 -9.227320551872253418e-02 -3.713344410061836243e-02 2.964541018009185791e-01 2.386254817247390747e-01 4.588243067264556885e-01 -3.411805629730224609e-01 -1.276516169309616089e-01 1.734846234321594238e-01 3.002370009198784828e-03 -3.171215578913688660e-02 -6.155337393283843994e-02 6.986759603023529053e-02 5.672418475151062012e-01 -1.242557913064956665e-02 1.201665401458740234e-01 -2.953937835991382599e-02 -6.195141673088073730e-01 3.966782391071319580e-01 -1.433439850807189941e+00 -2.998392283916473389e-01 -7.393604516983032227e-02 2.255634516477584839e-01 2.412871122360229492e-01 -2.047263784334063530e-03 6.168376654386520386e-02 1.316147297620773315e-01 -8.489452004432678223e-01 -2.845653519034385681e-02 -7.190123945474624634e-02 1.040898337960243225e-01 -2.167580276727676392e-01 3.669604957103729248e-01 1.215456843376159668e+00 -2.219142913818359375e-01 -3.365068137645721436e-01 2.567083537578582764e-01 -2.238055914640426636e-01 8.438349515199661255e-02 -1.486344635486602783e-01 1.085931658744812012e-01 6.807651519775390625e-01 4.497911781072616577e-02 6.810113042593002319e-02 -7.086741924285888672e-02 -3.776280283927917480e-01 4.068630635738372803e-01 -1.784612834453582764e-01 -2.575595974922180176e-01 4.474301934242248535e-01 1.994034051895141602e-01 -4.035786166787147522e-02 1.114888861775398254e-01 1.224798932671546936e-01 4.170097410678863525e-02 -2.681269347667694092e-01 -7.123388815671205521e-03 -8.504809439182281494e-02
2.193359471857547760e-02 3.098578453063964844e-01 -9.334257245063781738e-02 1.302092671394348145e+00 -9.756808169186115265e-03 1.609097123146057129e-01 -2.623541094362735748e-02 -4.514645040035247803e-01 2.429044805467128754e-02 -3.295101597905158997e-02 -6.939718127250671387e-02 4.476206004619598389e-02 1.647854410111904144e-02 1.220065802335739136e-01 4.704483970999717712e-02 2.923141606152057648e-02 4.946783930063247681e-02 4.461999237537384033e-01 -1.980314590036869049e-02 2.291874028742313385e-03 3.372962772846221924e-02 -3.874242305755615234e-02 3.443858027458190918e-02 1.966206170618534088e-02 3.512948751449584961e-02 -1.143960878252983093e-01 -2.738871844485402107e-03 -3.945934399962425232e-02 9.251757711172103882e-02 7.870978116989135742e-02 8.507469296455383301e-02 -7.399991899728775024e-02 -2.142324298620223999e-02 5.964225158095359802e-02 1.992751657962799072e-02 -9.291670471429824829e-02 -2.957576327025890350e-02 1.447572465986013412e-02 9.072940796613693237e-02 1.425050795078277588e-01 6.069705262780189514e-02 -9.212356060743331909e-02 1.317721903324127197e-01 3.350920975208282471e-02 9.644024819135665894e-02 -8.226012587547302246e-01 9.289330989122390747e-02 -1.076623704284429550e-02 -3.761978819966316223e-02 8.694165199995040894e-02 2.063942886888980865e-02 5.490010604262351990e-02 3.783984109759330750e-02 -1.528688520193099976e-01 -1.919416338205337524e-02 -3.421861678361892700e-02 4.906383901834487915e-02 -1.702010035514831543e-01 1.914785802364349365e-01 -1.011672496795654297e+00 1.474018096923828125e-01 -1.809786111116409302e-01 3.892965614795684814e-02 2.535561025142669678e-01 -2.182477712631225586e-02 -3.487138077616691589e-02 4.161040112376213074e-02 -3.336071968078613281e-02 -4.789310693740844727e-02 -5.575295537710189819e-03 -2.638002857565879822e-02 -2.881100475788116455e-01 8.560670167207717896e-02 -1.238527655601501465e+00 1.585197634994983673e-03 -1.714402586221694946e-01 -9.832038730382919312e-02 7.752699255943298340e-01 -5.960490088909864426e-03 3.508667275309562683e-02 -5.521595105528831482e-02 1.170527637004852295e-01 2.793003059923648834e-02 1.361827254295349121e-01 -3.793919086456298828e-02 -5.298917293548583984e-01 4.090128093957901001e-02 -1.220643401145935059e+00 9.068954735994338989e-03 -2.534630894660949707e-01 -7.519115507602691650e-02 3.775465786457061768e-01 3.724095225334167480e-02 -7.642006874084472656e-02 -3.905171994119882584e-03 -1.490348875522613525e-01 -9.250684082508087158e-02 -6.902496516704559326e-02 -1.123855635523796082e-01 -1.754106134176254272e-01 -2.284867223352193832e-03 -9.055657386779785156e-01 -6.027150433510541916e-03 -1.909847110509872437e-01 6.060352921485900879e-02 4.893970191478729248e-01 1.961480639874935150e-02 -3.942995518445968628e-02 -4.813124239444732666e-02 1.135181412100791931e-01 3.313005715608596802e-02 -8.744413033127784729e-03 -1.016252040863037109e-01 -1.523424983024597168e-01 -2.404115200042724609e-01 6.657234579324722290e-02 -4.297050833702087402e-02 5.406762659549713135e-02 1.265532616525888443e-02 -6.214582920074462891e-02 -7.466995716094970703e-02 -1.602492667734622955e-02 7.031562924385070801e-02 -2.947734296321868896e-02 5.143454298377037048e-02 8.724964223802089691e-03 -9.479399770498275757e-02 8.873645663261413574e-01 -3.831007182598114014e-01 3.500519514083862305e+00 -1.418595314025878906e-01 5.444453358650207520e-01 1.071865484118461609e-01 -1.394286990165710449e+00 -7.190168369561433792e-03 8.054671436548233032e-02 -3.407798707485198975e-02 7.737975567579269409e-02 -4.975399374961853027e-02 -2.453249134123325348e-02
-1.913403719663619995e-02 -1.191741228103637695e-02 -2.015642672777175903e-01 -1.033963263034820557e-02 -3.078789915889501572e-03 5.815780162811279297e-02 6.980068981647491455e-02 6.153987720608711243e-02 2.326049804687500000e-01 1.172397062182426453e-01 -2.631425261497497559e-01 -5.047409236431121826e-02 -4.099927842617034912e-03 -6.407721340656280518e-02 3.183032572269439697e-02 4.041921347379684448e-02 -2.618178427219390869e-01 2.019169777631759644e-01 4.555202648043632507e-02 -3.432382270693778992e-02 1.369040906429290771e-01 -6.642597913742065430e-02 1.279925853013992310e-01 -1.376796364784240723e-01 -2.360046058893203735e-01 8.162759989500045776e-02 -6.827852129936218262e-02 3.622649237513542175e-02 -2.003001049160957336e-02 -7.357036322355270386e-02 -1.242190897464752197e-01 -1.248062700033187866e-01 -5.793865770101547241e-02 -7.446430157870054245e-03 -7.428741548210382462e-03 -5.843759048730134964e-03 1.885605007410049438e-01 -7.633709162473678589e-02 -1.953064054250717163e-01 4.326480627059936523e-02 2.747823111712932587e-02 4.020566493272781372e-02 1.018977724015712738e-02 -1.267533153295516968e-01 -1.824321150779724121e-01 -2.835370367392897606e-03 -8.914235979318618774e-02 -6.265144795179367065e-02 1.034947410225868225e-01 -4.031136631965637207e-02 1.535096317529678345e-01 1.055265516042709351e-01 -2.590584754943847656e-01 -7.760615646839141846e-02 -4.008540511131286621e-02 -6.496796756982803345e-02 -5.047964677214622498e-02 2.309420518577098846e-02 -1.851129680871963501e-01 6.161165982484817505e-02 -5.442492663860321045e-02 -2.597964406013488770e-01 6.127763167023658752e-02 3.312556771561503410e-03 2.204191386699676514e-01 -2.465354278683662415e-02 -2.636061906814575195e-01 1.136636659502983093e-01 -2.329928427934646606e-02 7.666768878698348999e-02 7.178923487663269043e-02 9.072904288768768311e-02 -2.450768798589706421e-01 -2.367279380559921265e-01 -6.413794308900833130e-02 4.247356578707695007e-02 1.355782598257064819e-01 -6.182891502976417542e-02 1.870958358049392700e-01 -1.247048154473304749e-01 -2.530463337898254395e-01 -6.557230651378631592e-02 -4.751852154731750488e-02 -9.113989025354385376e-02 -8.213908295147120953e-04 -1.382663100957870483e-01 -1.563684940338134766e-01 2.518361806869506836e-01 -1.573452539741992950e-02 -7.329928129911422729e-02 -1.021586172282695770e-02 3.895868733525276184e-02 2.309026569128036499e-01 6.275672465562820435e-02 -1.396895498037338257e-01 -1.189723983407020569e-01 -1.304334728047251701e-03 1.218017470091581345e-02 -1.038587186485528946e-02 1.236096695065498352e-01 -2.277820706367492676e-01 -3.213416337966918945e-01 -9.651543200016021729e-02 -8.231133967638015747e-02 1.754494151100516319e-03 4.623255506157875061e-02 2.189823687076568604e-01 -1.964307203888893127e-02 -1.114212349057197571e-01 1.514419019222259521e-01 7.900125533342361450e-02 5.053016915917396545e-02 3.090735990554094315e-03 6.002308130264282227e-01 -1.865458488464355469e-01 1.913362555205821991e-02 -1.157925203442573547e-01 5.250700712203979492e-01 1.003011688590049744e-01 -2.343250624835491180e-02 1.640719026327133179e-01 1.198424994945526123e-01 -2.541633248329162598e-01 -1.752186417579650879e-01 5.012447759509086609e-02 -1.793038286268711090e-02 -4.113237187266349792e-02 -5.133794546127319336e-01 -2.751573622226715088e-01 1.712772846221923828e-01 -2.141335979104042053e-02 -9.388774633407592773e-02 1.012356579303741455e-01 9.447535872459411621e-02 3.172115981578826904e-01 -2.021749503910541534e-03 -2.795203030109405518e-01 1.001943722367286682e-01 2.237947471439838409e-02 -2.427919302135705948e-03
-2.068110974505543709e-03 -1.118866950273513794e-01 5.823437124490737915e-02 3.777366578578948975e-01 -8.737124502658843994e-02 -2.552295029163360596e-01 -8.325605839490890503e-02 1.419970672577619553e-02 7.209498435258865356e-02 -3.002805635333061218e-02 -6.405278295278549194e-02 -2.098154723644256592e-01 7.593055814504623413e-02 -3.366749733686447144e-02 1.976564154028892517e-02 -6.281823734752833843e-04 1.322167217731475830e-01 -3.280761837959289551e-01 2.280837856233119965e-02 -1.179161220788955688e-01 -2.840282581746578217e-02 -2.209416404366493225e-02 8.348533883690834045e-03 -3.083592653274536133e-02 4.158795252442359924e-02 2.249148860573768616e-02 -8.768814057111740112e-02 7.166792638599872589e-03 -3.617331758141517639e-02 -8.669720590114593506e-02 3.782714158296585083e-02 -4.207698106765747070e-01 -6.464094854891300201e-03 -3.333986699581146240e-01 -1.028038263320922852e-01 -6.113568320870399475e-02 -9.142848663032054901e-03 -5.515854805707931519e-02 -5.978663638234138489e-02 -1.104912832379341125e-01 -5.653383582830429077e-02 2.541825175285339355e-02 -6.814356148242950439e-02 1.835096776485443115e-01 1.551937311887741089e-01 -5.560178309679031372e-02 1.416968181729316711e-02 2.425188869237899780e-01 -1.486190855503082275e-01 -1.138790845870971680e-01 2.732519060373306274e-02 1.613606065511703491e-01 4.651889950037002563e-02 2.216282337903976440e-01 6.697898358106613159e-02 2.695133350789546967e-02 -6.979429721832275391e-02 -3.037801384925842285e-01 8.444820344448089600e-02 4.235976040363311768e-01 -1.205044165253639221e-01 1.977659948170185089e-02 -7.387189567089080811e-02 1.465406715869903564e-01 -8.778383024036884308e-03 -1.690887063741683960e-01 4.698312841355800629e-03 -1.319545805454254150e-01 4.111187905073165894e-02 8.748365193605422974e-02 -4.608140140771865845e-02 -3.635330200195312500e-01 -2.589683607220649719e-02 1.677765101194381714e-01 -7.186982780694961548e-02 -2.039887607097625732e-01 -9.809189289808273315e-02 1.502895914018154144e-02 -5.356422066688537598e-02 2.228617854416370392e-02 3.964901342988014221e-02 1.415163427591323853e-01 -6.053269654512405396e-02 -5.011670663952827454e-02 1.739853434264659882e-02 1.105198040604591370e-01 1.651267893612384796e-02 9.008483886718750000e-01 4.285366833209991455e-02 4.337118566036224365e-01 -1.396943330764770508e-01 8.599312603473663330e-02 -3.425931558012962341e-02 1.460265219211578369e-01 -4.516789317131042480e-02 -1.796867847442626953e-01 -5.856557399965822697e-04 1.384988613426685333e-02 -4.894587025046348572e-02 -2.619832456111907959e-01 -6.407093256711959839e-02 2.254788279533386230e-01 5.032845959067344666e-02 -9.812028147280216217e-03 -2.652309462428092957e-02 3.684288859367370605e-01 1.336860377341508865e-02 -5.231099948287010193e-02 -3.394323587417602539e-02 -2.509563863277435303e-01 1.562594436109066010e-02 1.755607128143310547e-02 6.793749332427978516e-02 1.135065078735351562e+00 -1.622755974531173706e-01 -6.090601682662963867e-01 -6.563123315572738647e-02 3.224179893732070923e-02 -6.288272887468338013e-02 1.598885506391525269e-01 -4.300269857048988342e-02 6.152863427996635437e-02 7.953954860568046570e-03 3.005207479000091553e-01 1.431492250412702560e-02 -2.502451278269290924e-02 1.437361389398574829e-01 -4.791746139526367188e-01 -1.842394471168518066e-01 -1.257347941398620605e+00 -6.035714969038963318e-02 -2.750245034694671631e-01 -1.600970700383186340e-02 -6.505053043365478516e-01 -1.363844126462936401e-01 -8.139929920434951782e-02 -7.029090076684951782e-02 8.924757689237594604e-02 -6.732030957937240601e-02 -1.771792471408843994e-01
7.757744938135147095e-02 -3.434815257787704468e-02 9.630630165338516235e-02 4.425657168030738831e-02 -2.841345965862274170e-01 -9.048020094633102417e-02 -5.138430371880531311e-02 9.980988502502441406e-02 -1.746501624584197998e-01 3.379522636532783508e-02 2.144799530506134033e-01 -2.305997461080551147e-01 -1.087035015225410461e-01 -3.758008778095245361e-02 -9.379694610834121704e-02 -8.876740001142024994e-03 1.203619390726089478e-01 1.456923969089984894e-02 -2.636809349060058594e-01 -1.946737915277481079e-01 -6.270734220743179321e-02 -3.228675574064254761e-02 -1.321654468774795532e-01 -2.176027558743953705e-02 1.207311302423477173e-01 2.807885408401489258e-01 4.666190966963768005e-02 7.148309797048568726e-02 -2.383255213499069214e-02 -5.753535777330398560e-02 5.151862651109695435e-02 -2.520604059100151062e-02 -2.148905247449874878e-01 2.785720862448215485e-02 -7.375022023916244507e-02 -1.983552426099777222e-01 -1.391548961400985718e-01 1.227882131934165955e-02 1.462630629539489746e-01 1.987029910087585449e-01 5.666569992899894714e-02 -1.201155483722686768e-01 -7.631562184542417526e-04 -2.729755938053131104e-01 9.234686940908432007e-02 3.379398882389068604e-01 -2.643787562847137451e-01 -2.263039164245128632e-02 -7.631810754537582397e-02 -1.783040910959243774e-01 -2.285076677799224854e-01 -1.016255542635917664e-01 2.177801877260208130e-01 -4.388461410999298096e-01 -7.646194845438003540e-02 3.648736700415611267e-02 -1.507662702351808548e-02 2.191296666860580444e-01 7.743327319622039795e-02 -3.195566236972808838e-01 -3.041709959506988525e-01 2.131457775831222534e-01 -7.613855600357055664e-02 -1.933595724403858185e-02 -1.319753825664520264e-01 7.144122570753097534e-02 2.211241275072097778e-01 5.029948353767395020e-01 -6.602108478546142578e-02 1.194482203572988510e-02 -7.357800751924514771e-02 1.063190773129463196e-01 7.950060814619064331e-02 3.761226534843444824e-01 -3.027791678905487061e-01 -8.110396564006805420e-02 -6.110562011599540710e-02 -1.495478451251983643e-01 -2.270442098379135132e-01 -1.155354455113410950e-01 2.424925565719604492e-01 -2.998963184654712677e-02 -3.764898329973220825e-02 5.311017483472824097e-02 -1.016575656831264496e-02 1.152819246053695679e-01 3.185671940445899963e-02 1.393512487411499023e-01 -1.720620244741439819e-01 1.738298684358596802e-01 -1.450638622045516968e-01 5.047355294227600098e-01 -2.365848869085311890e-01 9.885969571769237518e-03 1.060793921351432800e-01 -4.271478354930877686e-01 2.771874144673347473e-02 7.100658118724822998e-02 -1.687416061758995056e-02 6.246569156646728516e-01 1.792339533567428589e-01 -2.549829781055450439e-01 -2.692228257656097412e-01 5.955203771591186523e-01 -1.133020874112844467e-02 3.910396993160247803e-01 -1.975810229778289795e-01 1.301162987947463989e-01 1.157718747854232788e-01 6.614058017730712891e-01 4.022085294127464294e-02 -7.247240841388702393e-02 -3.491625934839248657e-02 -2.574912011623382568e-01 2.000507712364196777e-01 1.133796572685241699e+00 -3.011637330055236816e-01 -4.743122160434722900e-01 -3.025478869676589966e-02 -6.476570963859558105e-01 -2.110479176044464111e-01 2.131015621125698090e-02 1.864152103662490845e-01 -5.580108761787414551e-01 -4.197376221418380737e-02 -8.584026247262954712e-02 9.003393352031707764e-02 -3.884808123111724854e-01 9.349976480007171631e-02 -1.473803639411926270e+00 -1.648616790771484375e-01 -2.037494927644729614e-01 -1.423171311616897583e-01 2.233964651823043823e-01 -1.210473701357841492e-01 -3.672068566083908081e-02 1.815007328987121582e-01 9.541451185941696167e-02 -4.248931258916854858e-02 6.963692605495452881e-02
1.347180735319852829e-02 -3.139855563640594482e-01 3.752899542450904846e-02 -3.534034490585327148e-01 -2.918812334537506104e-01 -2.649047411978244781e-02 5.886109545826911926e-02 3.260534107685089111e-01 -8.373358100652694702e-02 7.539826910942792892e-03 3.242571279406547546e-02 -9.193263947963714600e-02 -8.413517475128173828e-02 -3.658750280737876892e-02 -1.116857305169105530e-02 1.270906031131744385e-01 -4.992873966693878174e-02 2.473177164793014526e-01 -2.626426815986633301e-01 1.321718841791152954e-01 -1.921848580241203308e-02 -2.875375747680664062e-01 -1.131780296564102173e-01 -6.022904440760612488e-02 2.573654241859912872e-02 1.589435786008834839e-01 6.559561472386121750e-03 -5.305990949273109436e-02 3.218394517898559570e-02 1.619830727577209473e-01 -2.754082344472408295e-02 -2.165939658880233765e-01 -2.995062470436096191e-01 -1.458611786365509033e-01 -2.665897831320762634e-02 5.528563633561134338e-02 -2.403345890343189240e-02 9.924788773059844971e-02 5.378712341189384460e-02 -7.825681567192077637e-02 9.982273913919925690e-03 1.173867210745811462e-01 4.029181599617004395e-02 -2.695204913616180420e-01 -2.571034617722034454e-02 4.045394062995910645e-01 -2.805491387844085693e-01 -1.047782674431800842e-01 -5.391921103000640869e-02 -2.326809614896774292e-01 3.784939646720886230e-02 -1.124020293354988098e-01 3.729338757693767548e-03 -5.018983408808708191e-02 -3.074761852622032166e-02 -5.465883761644363403e-02 2.146581560373306274e-02 2.368868440389633179e-01 -3.154661133885383606e-02 -4.597259685397148132e-02 -2.844682633876800537e-01 -6.112899258732795715e-02 -4.293167963624000549e-03 -1.649304181337356567e-01 -1.537070330232381821e-02 -2.081574313342571259e-02 -2.041608653962612152e-02 8.075746148824691772e-02 -3.189582750201225281e-02 -1.917865499854087830e-02 5.280300509184598923e-03 -6.765639781951904297e-02 2.112179435789585114e-02 2.396936155855655670e-02 -1.543445736169815063e-01 -2.583733201026916504e-01 -5.024156719446182251e-02 -2.884917557239532471e-01 -6.680897623300552368e-02 -8.775996416807174683e-02 1.876174099743366241e-02 -2.129792571067810059e-01 1.078718225471675396e-03 8.276806212961673737e-03 -9.170380234718322754e-02 -4.674182459712028503e-02 2.796347998082637787e-02 2.907120287418365479e-01 -2.228437066078186035e-01 9.463754296302795410e-02 -1.276507228612899780e-02 -1.448194682598114014e-01 -3.098961152136325836e-02 -1.575422435998916626e-01 9.957331418991088867e-02 1.677383184432983398e-01 -2.576888725161552429e-02 -5.905590485781431198e-03 3.955139219760894775e-02 9.006968140602111816e-01 5.595667660236358643e-02 -6.189860105514526367e-01 -2.278871387243270874e-01 -2.568438351154327393e-01 -7.179706543684005737e-02 5.056228041648864746e-01 -9.375042282044887543e-03 1.519355922937393188e-01 5.106401070952415466e-02 -3.082836568355560303e-01 2.430159971117973328e-02 3.906246647238731384e-02 5.337664857506752014e-03 -8.580978512763977051e-01 -2.820176072418689728e-02 6.781914830207824707e-01 -3.188676238059997559e-01 6.236806511878967285e-01 -4.492880403995513916e-02 -5.131565332412719727e-01 -8.245109347626566887e-04 1.547559077152982354e-04 2.998116053640842438e-02 1.905186027288436890e-01 -6.589536368846893311e-02 -1.624131202697753906e-02 -1.013228371739387512e-01 8.298194408416748047e-02 1.874396018683910370e-02 -3.887268304824829102e-01 -3.310712873935699463e-01 8.363759517669677734e-02 6.217691581696271896e-03 7.715470790863037109e-01 -3.556653857231140137e-03 1.468955576419830322e-01 -2.037062682211399078e-02 2.158280611038208008e-01 -3.378686681389808655e-02 8.796328678727149963e-03
-1.596369594335556030e-02 -6.902999430894851685e-02 2.426261007785797119e-01 2.134659290313720703e-01 2.684221267700195312e-01 1.844555884599685669e-01 -2.878639101982116699e-01 -7.297752052545547485e-02 -4.113451391458511353e-02 6.418772786855697632e-02 -4.144078120589256287e-02 8.542381972074508667e-02 -1.130747050046920776e-02 9.732449427247047424e-03 7.661838829517364502e-02 -6.375199556350708008e-02 3.260000944137573242e-01 -3.040339611470699310e-02 1.858601421117782593e-01 -8.786047250032424927e-02 -3.429110646247863770e-01 -1.115482300519943237e-02 -1.397384610027074814e-02 -7.496337406337261200e-03 2.715766802430152893e-02 -1.252266913652420044e-01 -1.567403972148895264e-02 -2.732569724321365356e-02 2.844093553721904755e-02 3.364391624927520752e-02 2.793517112731933594e-01 1.136263832449913025e-01 2.951741218566894531e-01 -1.051910519599914551e-01 -2.983017265796661377e-01 1.119907200336456299e-01 -6.001502275466918945e-02 -8.967445045709609985e-02 2.624359913170337677e-04 1.089078709483146667e-01 -9.152750670909881592e-02 -1.970576494932174683e-02 7.206763327121734619e-02 6.624162942171096802e-02 3.055130541324615479e-01 -2.406010031700134277e-01 2.447339892387390137e-01 -3.534011915326118469e-02 -3.457176089286804199e-01 6.312879920005798340e-02 -7.526884227991104126e-02 2.952672727406024933e-02 -1.764566637575626373e-02 -5.267680808901786804e-02 -5.994408950209617615e-02 3.128654509782791138e-02 9.465329349040985107e-02 -8.915955573320388794e-02 2.645166218280792236e-01 -1.505634933710098267e-01 3.469400107860565186e-01 -2.706544399261474609e-01 -2.609471380710601807e-01 -2.816674709320068359e-01 3.634719178080558777e-02 8.309006225317716599e-04 -8.951338380575180054e-02 6.272027641534805298e-02 1.890113763511180878e-02 -6.804895401000976562e-02 -4.253678396344184875e-02 2.565896511077880859e-01 3.639090359210968018e-01 1.782730817794799805e-01 2.700939774513244629e-01 -1.295902281999588013e-01 -3.064427673816680908e-01 1.587267778813838959e-02 1.231307163834571838e-02 -1.429380327463150024e-01 -9.826145321130752563e-02 -1.065202802419662476e-01 2.543522231280803680e-02 2.013148367404937744e-02 -5.865970742888748646e-04 1.535280793905258179e-01 2.835326492786407471e-01 -6.459760665893554688e-01 3.140634000301361084e-01 5.584751069545745850e-02 -2.977412045001983643e-01 -1.032658144831657410e-01 -1.250037178397178650e-02 1.513829976320266724e-01 -3.141413629055023193e-02 1.736451499164104462e-02 -3.141441196203231812e-02 6.563648581504821777e-02 -6.602468341588973999e-02 -2.788574993610382080e-02 2.499674856662750244e-01 7.188731431961059570e-01 2.274009585380554199e-01 -2.293290942907333374e-01 -2.321916222572326660e-01 1.256310492753982544e-01 -4.727398976683616638e-02 -2.676044404506683350e-01 -9.462139010429382324e-02 4.345380235463380814e-03 -2.369310148060321808e-02 2.555330749601125717e-03 -4.503239318728446960e-02 2.502843141555786133e-01 2.424260228872299194e-01 1.375431865453720093e-01 2.344767600297927856e-01 5.556689500808715820e-01 -3.015939593315124512e-01 2.553280889987945557e-01 -1.496329009532928467e-01 1.412083208560943604e-01 -8.439969271421432495e-02 -7.922474178485572338e-04 -9.674350917339324951e-02 4.848347604274749756e-02 -7.192568480968475342e-02 -5.369673967361450195e-01 2.778381705284118652e-01 -2.673455178737640381e-01 3.161194920539855957e-01 5.833854153752326965e-02 -2.342386245727539062e-01 -7.736365497112274170e-02 -1.534630060195922852e-01 1.254688054323196411e-01 -5.465594306588172913e-02 8.602183312177658081e-02 -9.258036315441131592e-02 -7.303399592638015747e-02
-8.824171964079141617e-04 -3.615944981575012207e-01 -4.367785751819610596e-01 2.823621034622192383e-01 -3.294183909893035889e-01 -1.085630506277084351e-01 -1.956472545862197876e-01 1.942657679319381714e-01 4.795602709054946899e-02 3.337080776691436768e-02 2.386960200965404510e-02 -2.688921429216861725e-02 3.564986167475581169e-03 6.911244243383407593e-02 -2.383295446634292603e-02 3.545991377905011177e-03 -4.760767817497253418e-01 3.479602281004190445e-03 -3.452010154724121094e-01 6.659347563982009888e-02 -1.970466822385787964e-01 3.551398962736129761e-02 4.438681900501251221e-02 1.353352237492799759e-02 -8.943814784288406372e-03 -3.844017907977104187e-02 -2.890889532864093781e-03 -2.025319635868072510e-02 -3.339105471968650818e-02 3.885646909475326538e-02 -5.312344431877136230e-01 -1.569384485483169556e-01 -4.360429942607879639e-01 -2.585759460926055908e-01 -2.089326977729797363e-01 4.861080273985862732e-02 4.653431102633476257e-02 -1.544562876224517822e-01 -2.651372179388999939e-02 2.215648591518402100e-01 -2.367588318884372711e-02 -1.002749353647232056e-01 -8.280240744352340698e-02 3.645886480808258057e-01 -4.451006054878234863e-01 7.673693448305130005e-02 -3.502241373062133789e-01 7.131590694189071655e-02 -1.312322467565536499e-01 -4.316109418869018555e-01 -5.218352749943733215e-02 1.121961772441864014e-01 -1.019411161541938782e-02 -1.221582442522048950e-01 -4.060580581426620483e-02 1.085613369941711426e-01 -3.875401988625526428e-02 4.097715318202972412e-01 -4.583108723163604736e-01 -5.531380176544189453e-01 -4.681563973426818848e-01 -2.705751359462738037e-01 -6.225473806262016296e-02 -2.516731321811676025e-01 4.466512799263000488e-02 -4.495624825358390808e-02 2.376744709908962250e-02 2.945279888808727264e-02 5.309516936540603638e-02 -5.480373650789260864e-02 8.284588903188705444e-02 3.517919182777404785e-01 -5.613791346549987793e-01 3.140527307987213135e-01 -3.447640836238861084e-01 2.356794029474258423e-01 -1.160307973623275757e-01 -3.100784718990325928e-01 -2.740958891808986664e-02 1.879519037902355194e-02 -5.356742441654205322e-02 9.087670594453811646e-02 -5.021099466830492020e-03 -1.387809496372938156e-02 -3.266022726893424988e-02 3.217882513999938965e-01 -5.392474532127380371e-01 -4.024212956428527832e-01 -3.851498961448669434e-01 2.012074142694473267e-01 -1.694680601358413696e-01 -3.899522721767425537e-01 4.300631582736968994e-02 4.480948671698570251e-02 -5.178312584757804871e-02 -3.257907554507255554e-02 7.035338878631591797e-02 2.834587916731834412e-02 -1.869565993547439575e-02 1.715001463890075684e-01 -4.720525443553924561e-01 4.387080073356628418e-01 -4.367744922637939453e-01 -2.405042946338653564e-01 -7.333987206220626831e-02 1.405788064002990723e-01 3.378906473517417908e-02 -8.570978790521621704e-02 -9.769734740257263184e-02 1.419063750654459000e-02 -8.190286159515380859e-02 1.107034552842378616e-02 7.059074193239212036e-02 -4.142141938209533691e-01 -4.651153683662414551e-01 1.393381655216217041e-01 -3.912369012832641602e-01 6.259121298789978027e-01 -8.191959559917449951e-02 3.343551158905029297e-01 3.769095242023468018e-02 2.779356203973293304e-02 8.573072031140327454e-03 4.939656332135200500e-02 -3.470066934823989868e-02 3.582200035452842712e-02 3.348218277096748352e-02 -8.683454394340515137e-01 -5.314575433731079102e-01 -2.415921241044998169e-01 -3.265921771526336670e-01 -3.810692429542541504e-01 -6.829950213432312012e-02 6.265757083892822266e-01 -4.142145439982414246e-02 5.617777258157730103e-02 -9.785645455121994019e-02 -1.358422935009002686e-01 6.053798273205757141e-02 -9.713459014892578125e-02
5.434022843837738037e-02 6.063920259475708008e-01 2.288342416286468506e-01 3.478229641914367676e-01 -6.527145206928253174e-02 2.014214992523193359e-01 -1.015371736139059067e-02 8.100800216197967529e-02 -6.632228940725326538e-02 1.079273223876953125e-01 3.723426198121160269e-04 8.950175717473030090e-03 -2.261910773813724518e-02 8.249426260590553284e-03 2.987694181501865387e-02 1.819684207439422607e-01 1.268227547407150269e-01 9.132488816976547241e-02 6.147336587309837341e-02 9.731150418519973755e-02 -3.248510137200355530e-02 2.171024121344089508e-02 -6.018193904310464859e-03 -3.489291295409202576e-02 3.013778105378150940e-02 1.587400399148464203e-02 -1.174226924777030945e-01 -3.366962447762489319e-02 1.070894952863454819e-02 3.418479859828948975e-01 1.825054436922073364e-01 -1.386824995279312134e-01 1.725073903799057007e-02 2.282278090715408325e-01 -1.252190917730331421e-01 3.034595400094985962e-02 4.550382867455482483e-02 4.717795178294181824e-02 2.332352660596370697e-02 3.156019747257232666e-02 -7.665964215993881226e-02 -2.304777875542640686e-02 -3.058369085192680359e-02 -4.153626784682273865e-02 1.466778665781021118e-01 1.021161302924156189e-01 -2.881869673728942871e-02 2.872532904148101807e-01 -1.446513831615447998e-02 -5.364431813359260559e-02 6.772278249263763428e-02 5.824407190084457397e-02 1.275093853473663330e-01 -2.534378506243228912e-02 -7.836481556296348572e-03 5.301833525300025940e-02 7.378063350915908813e-02 -2.016461044549942017e-01 1.276427209377288818e-01 -4.976178705692291260e-02 -2.931541763246059418e-03 -2.623060904443264008e-02 1.967019587755203247e-02 -1.466170251369476318e-01 -9.044015407562255859e-02 -1.276572328060865402e-02 1.356499195098876953e-01 -7.792566716670989990e-02 4.104021470993757248e-03 -2.615595236420631409e-02 3.385307267308235168e-02 -1.838368028402328491e-01 1.911983191967010498e-01 2.259121537208557129e-01 -7.733232527971267700e-02 1.317920386791229248e-01 -9.552309289574623108e-03 -5.036714300513267517e-02 -3.932200372219085693e-02 5.610776599496603012e-03 1.532126814126968384e-01 1.094144955277442932e-01 -1.171046942472457886e-01 -4.921916406601667404e-03 1.960556581616401672e-02 -7.200977206230163574e-01 2.672821581363677979e-01 -5.700635313987731934e-01 2.100825123488903046e-02 -2.679150998592376709e-01 -1.296753883361816406e-01 1.135893389582633972e-01 -6.378773599863052368e-02 1.072403416037559509e-02 -7.667300291359424591e-03 -8.376658707857131958e-02 -6.505614519119262695e-02 9.422951936721801758e-02 1.215342059731483459e-01 -3.393202126026153564e-01 3.178624212741851807e-01 -3.786894381046295166e-01 -6.283721327781677246e-02 -5.534754395484924316e-01 -3.587315976619720459e-02 6.076211854815483093e-02 3.025716729462146759e-02 -2.134995162487030029e-02 1.360201686620712280e-01 -1.552152931690216064e-01 3.044858574867248535e-02 -5.840878188610076904e-02 -3.854381665587425232e-02 -2.890418469905853271e-01 2.666319310665130615e-01 3.372235894203186035e-01 -1.157446503639221191e-01 -1.406975537538528442e-01 -7.918231934309005737e-02 -1.768149584531784058e-01 -3.643322736024856567e-02 5.808976292610168457e-02 2.264837734401226044e-02 2.270167768001556396e-01 -7.659707963466644287e-02 9.328210144303739071e-04 -2.122860401868820190e-02 6.647536754608154297e-01 3.670278787612915039e-01 -5.507305264472961426e-02 -1.369873732328414917e-01 -2.747940719127655029e-01 -7.184277474880218506e-02 9.547844529151916504e-02 1.189140509814023972e-02 -8.332411944866180420e-02 1.111405491828918457e-01 4.389257729053497314e-02 -1.079474836587905884e-01 -7.650353759527206421e-02
-1.266520190984010696e-02 -1.477113217115402222e-01 3.223465681076049805e-01 2.734293937683105469e-01 -9.854276478290557861e-02 -1.002846807241439819e-01 -3.059652149677276611e-01 2.021633833646774292e-01 -1.137293428182601929e-01 -6.482580676674842834e-03 3.815506352111697197e-03 -1.796078123152256012e-02 2.781996270641684532e-03 -8.217215538024902344e-02 -1.926152780652046204e-02 -2.781754173338413239e-02 3.897416591644287109e-01 8.394481241703033447e-02 -8.985666185617446899e-02 -1.943971961736679077e-03 -3.569599986076354980e-01 -8.337630331516265869e-02 -1.317046955227851868e-02 -8.030164986848831177e-02 7.971494644880294800e-02 -5.574156995862722397e-03 -3.489294555038213730e-03 -2.553443610668182373e-02 2.362910471856594086e-02 -1.977148838341236115e-02 3.563512861728668213e-01 2.536660619080066681e-02 -3.069587051868438721e-03 1.283166930079460144e-02 -3.131570816040039062e-01 6.487042456865310669e-02 1.569484546780586243e-02 3.007165715098381042e-02 -2.010734565556049347e-02 -4.003509506583213806e-02 1.028806418180465698e-01 -9.540456812828779221e-04 -7.004311680793762207e-02 -3.442849963903427124e-02 3.359244465827941895e-01 -2.916252613067626953e-01 -9.496010094881057739e-02 4.422032088041305542e-02 -3.559393584728240967e-01 -2.309312969446182251e-01 -3.028915449976921082e-02 1.874717138707637787e-02 -4.956457414664328098e-04 -4.317326843738555908e-02 7.414180785417556763e-02 3.374793380498886108e-02 -4.664998874068260193e-02 1.409881263971328735e-01 3.815727829933166504e-01 -3.033750057220458984e-01 -1.396382302045822144e-01 9.062370657920837402e-02 -3.332597017288208008e-01 -2.377081513404846191e-01 -9.365702420473098755e-02 8.870366960763931274e-02 6.099667772650718689e-02 5.856821313500404358e-02 -3.778425604104995728e-02 1.407398935407400131e-02 -4.585075750946998596e-02 -1.944295465946197510e-01 4.505698978900909424e-01 -8.217717707157135010e-02 -7.313508540391921997e-02 1.328124701976776123e-01 -2.647128105163574219e-01 -3.263882100582122803e-01 -6.845539808273315430e-02 1.778920926153659821e-02 9.552675485610961914e-02 -2.861831150949001312e-02 -1.412033196538686752e-02 3.340126201510429382e-02 6.773339211940765381e-02 1.259917169809341431e-01 4.833673238754272461e-01 -4.746048152446746826e-01 -6.901033967733383179e-02 6.402459740638732910e-02 -3.562158644199371338e-01 -2.337037473917007446e-01 7.689084392040967941e-03 3.280386328697204590e-02 3.935828804969787598e-02 -2.564277499914169312e-02 1.196742989122867584e-02 -8.758548647165298462e-02 -3.225000947713851929e-02 1.465755701065063477e-01 5.162953138351440430e-01 8.404305577278137207e-02 -1.481356378644704819e-02 -2.593516707420349121e-01 -3.153673708438873291e-01 -1.281904801726341248e-02 -9.266820549964904785e-02 7.106789201498031616e-02 4.526994377374649048e-02 1.228199824690818787e-01 4.846205562353134155e-02 2.440840005874633789e-02 -1.662698388099670410e-02 -7.533977180719375610e-02 6.769363284111022949e-01 3.634884059429168701e-01 1.468387339264154434e-02 2.695444524288177490e-01 -2.429721504449844360e-01 1.489879190921783447e-01 3.276883217040449381e-04 -7.507415860891342163e-02 7.112456113100051880e-02 -1.022016331553459167e-01 -3.093223273754119873e-02 -2.861590124666690826e-03 4.948378354310989380e-02 9.252693504095077515e-02 6.775690317153930664e-01 2.744279801845550537e-01 -6.956630200147628784e-02 -1.858595609664916992e-01 -3.090762197971343994e-01 5.600435137748718262e-01 2.271240018308162689e-02 -9.035936743021011353e-02 2.843016199767589569e-02 3.251592442393302917e-02 1.102776080369949341e-01 -1.406197994947433472e-01
-1.611181050539016724e-01 2.236131345853209496e-03 -1.057439669966697693e-01 2.076444402337074280e-02 4.641781374812126160e-02 -6.431945413351058960e-02 -2.533394843339920044e-02 3.668469563126564026e-02 -1.003047153353691101e-01 -7.740974426269531250e-01 5.844580009579658508e-02 1.347710564732551575e-02 -3.077854029834270477e-02 2.318955026566982269e-02 -3.689902275800704956e-02 1.641083136200904846e-02 -8.056025952100753784e-03 5.749434931203722954e-04 -2.032049931585788727e-02 4.048995673656463623e-02 6.999916583299636841e-02 9.301736019551753998e-03 3.223232179880142212e-02 -5.332641601562500000e-01 -8.899872004985809326e-02 -4.604014393407851458e-04 6.102870032191276550e-02 2.455605380237102509e-02 -1.103520467877388000e-01 7.180346176028251648e-03 2.262927405536174774e-02 -4.710327833890914917e-03 4.905950278043746948e-03 -2.451267279684543610e-02 6.051621958613395691e-02 1.733566750772297382e-03 -8.980274200439453125e-02 -3.603979945182800293e-01 -6.343019008636474609e-02 -1.509111281484365463e-02 3.306487575173377991e-02 -4.652853310108184814e-02 -9.696773439645767212e-02 -3.060221439227461815e-03 1.452930364757776260e-02 1.022658590227365494e-02 -2.267306484282016754e-02 1.323509402573108673e-02 1.103547774255275726e-02 -5.963507294654846191e-02 -5.946294963359832764e-02 -2.815069854259490967e-01 6.802000850439071655e-02 3.070823289453983307e-02 4.030969366431236267e-02 -1.250419765710830688e-02 2.350394427776336670e-02 -1.001828699372708797e-03 2.001751214265823364e-02 4.631138406693935394e-03 -7.294431328773498535e-02 3.107390657532960176e-04 5.850225687026977539e-02 1.595216244459152222e-02 -2.272254228591918945e-02 -2.300325334072113037e-01 -4.101941734552383423e-02 -4.097532108426094055e-02 6.668950896710157394e-03 3.630924271419644356e-03 1.175114437937736511e-01 1.243711449205875397e-02 5.145281180739402771e-02 -6.691806018352508545e-02 5.197163671255111694e-02 1.014284975826740265e-02 3.225671127438545227e-02 2.959689870476722717e-02 7.340097427368164062e-02 -1.989175826311111450e-01 -1.971603371202945709e-02 3.930531069636344910e-02 -5.154133774340152740e-03 9.972808882594108582e-03 1.164844445884227753e-02 -8.425102382898330688e-02 -7.004789263010025024e-02 3.211718052625656128e-02 5.876399204134941101e-02 -3.027460351586341858e-02 -7.017091661691665649e-02 -2.945104241371154785e-02 1.011996790766716003e-01 -2.146899104118347168e-01 7.860060036182403564e-02 1.657247357070446014e-02 1.521090883761644363e-02 -2.506862394511699677e-03 4.413831979036331177e-02 -4.702429473400115967e-02 5.138508230447769165e-02 2.318417653441429138e-02 -3.218600898981094360e-02 3.925890196114778519e-03 -2.856612950563430786e-02 7.129587978124618530e-02 -4.409648478031158447e-02 -2.926152050495147705e-01 -5.256852507591247559e-02 -1.400961447507143021e-02 2.876072935760021210e-02 -7.315075490623712540e-03 1.119204387068748474e-01 7.417389005422592163e-02 7.718688994646072388e-02 -2.435874007642269135e-02 -3.330560633912682533e-03 4.917705059051513672e-02 -8.564473688602447510e-02 -6.511878967285156250e-02 5.076977238059043884e-02 -5.420365333557128906e-01 8.408813923597335815e-02 2.731126919388771057e-02 2.092726062983274460e-03 -2.278252271935343742e-03 1.085043027997016907e-01 1.310071442276239395e-02 -5.874773487448692322e-02 1.206305902451276779e-02 -6.359032820910215378e-03 -4.495367407798767090e-03 -6.285097450017929077e-03 2.446813881397247314e-02 -5.034242570400238037e-02 -6.638090014457702637e-01 -2.492391876876354218e-02 -2.471536211669445038e-02 -1.288803219795227051e-01 1.405734289437532425e-02
-4.485383164137601852e-03 1.654921472072601318e-01 -9.814007580280303955e-02 9.672644734382629395e-02 4.905983060598373413e-02 -2.034212462604045868e-02 -7.107382267713546753e-02 2.379480563104152679e-02 1.648084260523319244e-02 -1.297038048505783081e-02 9.694132953882217407e-02 -5.758805200457572937e-02 3.656633943319320679e-02 -5.250198245048522949e-01 4.680849239230155945e-02 -1.442941725254058838e-01 -9.427350014448165894e-02 1.282144151628017426e-02 -3.881972806993871927e-04 -9.860971570014953613e-02 5.044670775532722473e-03 1.134493038989603519e-03 -4.542336985468864441e-02 -1.506529049947857857e-03 -2.548813447356224060e-02 -4.002841655164957047e-03 -5.415814742445945740e-02 -6.191098690032958984e-02 5.469042435288429260e-02 6.210588291287422180e-02 -6.353925168514251709e-02 -1.009858027100563049e-01 4.793584719300270081e-02 5.452749319374561310e-03 4.524778574705123901e-02 4.052541404962539673e-02 -1.363477855920791626e-01 -1.069128606468439102e-02 3.604121971875429153e-03 1.627338379621505737e-01 3.369529917836189270e-02 1.485101040452718735e-02 1.160974726080894470e-01 -4.759443551301956177e-02 -8.611602336168289185e-02 -3.694537580013275146e-01 -6.332205608487129211e-03 -3.896191343665122986e-02 -5.105101689696311951e-02 -5.204557627439498901e-02 -1.188234984874725342e-02 4.124445840716362000e-02 7.738123089075088501e-02 -2.393854409456253052e-02 -4.266171529889106750e-02 1.107629612088203430e-01 -4.213979933410882950e-03 -2.440623193979263306e-01 3.282107785344123840e-02 2.419589273631572723e-02 1.158170849084854126e-01 -1.645966023206710815e-01 -1.168556325137615204e-02 6.557554006576538086e-04 -9.864192456007003784e-02 -1.986097171902656555e-02 2.612824179232120514e-02 -5.170631781220436096e-02 3.291679546236991882e-02 5.574877187609672546e-02 -6.358230859041213989e-02 1.261581182479858398e-01 -2.731172367930412292e-02 -1.968640536069869995e-01 4.677430167794227600e-02 -6.842073053121566772e-02 -1.801383309066295624e-02 -3.992267698049545288e-02 -8.804146200418472290e-02 -3.671004995703697205e-02 9.932113438844680786e-02 -2.027207054197788239e-03 -7.173047401010990143e-03 9.904359281063079834e-02 -4.260020703077316284e-02 -2.231577038764953613e-01 -1.586604863405227661e-01 -1.543680429458618164e-01 7.599125802516937256e-02 1.110130175948143005e-02 4.728092253208160400e-02 -9.775511175394058228e-02 -4.528535902500152588e-02 2.835511043667793274e-02 -1.304572448134422302e-02 -8.741022646427154541e-02 -2.486458234488964081e-02 9.675165265798568726e-02 -4.576658457517623901e-02 -8.965286426246166229e-03 -1.659056991338729858e-01 4.204898774623870850e-01 -5.195001885294914246e-02 5.442027002573013306e-02 6.928441673517227173e-02 -2.118269950151443481e-01 -1.123440861701965332e-01 -4.522415995597839355e-02 -4.781260713934898376e-02 -6.356804817914962769e-02 7.927185855805873871e-03 -3.054879046976566315e-02 -1.647625863552093506e-01 5.376837849617004395e-01 -1.055633127689361572e-01 -2.273612022399902344e-01 -6.704992800951004028e-02 4.913750663399696350e-02 -5.229182168841362000e-02 1.051401495933532715e-01 -3.033702448010444641e-02 7.914298772811889648e-02 -2.238137647509574890e-02 1.295383460819721222e-02 -5.313171818852424622e-02 -1.939400881528854370e-01 -8.129029721021652222e-02 -1.585601568222045898e-01 -7.190814614295959473e-02 4.235894978046417236e-01 6.302481051534414291e-04 1.955541670322418213e-01 2.373278886079788208e-02 2.335597276687622070e-01 -8.551228791475296021e-03 -1.462125778198242188e-02 -6.044527515769004822e-03 1.559631079435348511e-01 -7.698984444141387939e-02 -6.439281105995178223e-01
1.077097356319427490e-01 -3.922640383243560791e-01 -4.584915041923522949e-01 4.471611380577087402e-01 1.200718209147453308e-01 -2.520461939275264740e-02 1.017772629857063293e-01 -1.407195180654525757e-01 -6.459067761898040771e-02 -3.666880726814270020e-02 -1.131518855690956116e-01 1.244897618889808655e-01 2.614283934235572815e-02 -5.333945527672767639e-02 7.900989800691604614e-02 -7.508202642202377319e-02 -3.454581797122955322e-01 -7.765340805053710938e-02 1.308546811342239380e-01 1.505672931671142578e-01 1.864298880100250244e-01 2.094813138246536255e-01 6.755600124597549438e-02 -4.385802894830703735e-03 7.455793675035238266e-04 -9.785226732492446899e-02 1.675613224506378174e-02 -4.202752187848091125e-02 -7.222729921340942383e-02 -1.154095903038978577e-01 -3.013601005077362061e-01 -2.678808271884918213e-01 2.423711270093917847e-01 5.773572996258735657e-02 1.921837590634822845e-02 1.064069196581840515e-01 2.590974047780036926e-02 -1.151188835501670837e-01 -2.013695240020751953e-02 -1.516664959490299225e-02 1.811653003096580505e-02 1.108578965067863464e-01 1.416891347616910934e-02 7.565808892250061035e-01 -3.263717591762542725e-01 1.185103803873062134e-01 2.145875543355941772e-01 -1.746681332588195801e-01 3.689211234450340271e-02 3.771390020847320557e-02 1.046964451670646667e-01 1.840798556804656982e-01 -1.364537328481674194e-01 -1.429426521062850952e-01 -1.909920759499073029e-02 -5.884575098752975464e-02 -7.389493286609649658e-02 3.596432209014892578e-01 -3.731815218925476074e-01 -5.801738500595092773e-01 1.556625813245773315e-01 -2.718066871166229248e-01 7.912743091583251953e-02 3.760400693863630295e-03 6.451217830181121826e-02 -2.527330070734024048e-03 -1.017555147409439087e-01 1.420238465070724487e-01 -6.518740952014923096e-02 6.932149082422256470e-02 3.500303626060485840e-02 8.737531900405883789e-01 -4.301833808422088623e-01 -3.828198909759521484e-01 2.312341779470443726e-01 4.414245784282684326e-01 1.846781075000762939e-01 2.673605680465698242e-01 7.865078747272491455e-02 1.969932951033115387e-02 -4.467901960015296936e-02 -1.056429818272590637e-01 2.035511098802089691e-02 4.368707537651062012e-02 6.187610328197479248e-02 4.438610970973968506e-01 -4.139893054962158203e-01 5.231542587280273438e-01 1.859962195158004761e-01 -2.808853685855865479e-01 7.797687500715255737e-02 1.540061831474304199e-02 1.160703748464584351e-01 8.158351480960845947e-02 -1.457161903381347656e-01 -1.718306541442871094e-01 -8.004210144281387329e-02 -9.587725251913070679e-02 1.344438642263412476e-01 -2.684265375137329102e-01 -3.877667188644409180e-01 -6.419289112091064453e-01 2.654796242713928223e-01 -2.178248167037963867e-01 1.403787881135940552e-01 -5.744720250368118286e-02 9.092793799936771393e-03 -3.205035254359245300e-02 -1.454413384199142456e-01 2.905696630477905273e-01 -4.116420820355415344e-02 -4.597742855548858643e-02 1.553413569927215576e-01 -3.249532356858253479e-02 -4.119645655155181885e-01 9.282304644584655762e-01 1.802470088005065918e-01 4.952052235603332520e-01 7.228053361177444458e-02 -4.218137264251708984e-02 3.398318588733673096e-02 -4.376966133713722229e-02 -1.326386332511901855e-01 -4.339846968650817871e-02 -4.842876642942428589e-02 2.064934223890304565e-01 9.791586548089981079e-02 -1.541031956672668457e+00 -5.353332757949829102e-01 -2.218113690614700317e-01 3.206590414047241211e-01 -8.992678672075271606e-02 1.852077990770339966e-01 -3.229126930236816406e-01 8.740738779306411743e-02 -1.995922997593879700e-02 -5.863965675234794617e-02 -1.625146344304084778e-02 -1.144165769219398499e-01 -1.805578768253326416e-01
-9.476535767316818237e-02 2.072536796331405640e-01 2.946294248104095459e-01 6.556794047355651855e-01 -6.641393154859542847e-02 3.420287370681762695e-02 -8.213168382644653320e-02 -2.944612205028533936e-01 1.146312579512596130e-01 -3.653524070978164673e-02 7.887459546327590942e-02 8.467877656221389771e-02 -9.480699896812438965e-03 6.944913417100906372e-02 -1.293431967496871948e-02 -1.122095286846160889e-01 2.698603570461273193e-01 3.322989447042346001e-03 -1.337496191263198853e-01 9.601462632417678833e-02 -5.808376893401145935e-02 3.211015835404396057e-02 4.986982420086860657e-02 -2.878748998045921326e-02 3.914414439350366592e-03 1.189412269741296768e-02 1.219097822904586792e-01 -3.694348782300949097e-02 5.790944024920463562e-02 -1.645220667123794556e-01 2.592190504074096680e-01 1.673397123813629150e-01 -1.593215949833393097e-02 -1.448671370744705200e-01 -1.226558983325958252e-01 -9.766726940870285034e-02 -5.078235268592834473e-02 4.668635502457618713e-02 -5.996023118495941162e-02 8.602236956357955933e-02 5.474878475069999695e-02 -9.469842910766601562e-02 4.915976524353027344e-02 -1.614593863487243652e-01 2.449189722537994385e-01 2.571369409561157227e-01 -1.627691984176635742e-01 -3.470437228679656982e-01 -1.111166924238204956e-01 -1.336206309497356415e-02 4.451816156506538391e-02 -1.285962313413619995e-01 6.558527052402496338e-02 -1.709316223859786987e-01 1.073252707719802856e-01 -3.652795404195785522e-02 -1.093420013785362244e-02 -1.649616509675979614e-01 3.656196594238281250e-01 -3.304239809513092041e-01 -3.009500540792942047e-02 6.171165406703948975e-02 -1.560801267623901367e-01 4.344600141048431396e-01 -2.788382768630981445e-02 -5.099425464868545532e-02 3.607461974024772644e-02 1.957557946443557739e-01 2.926389314234256744e-02 1.092955768108367920e-01 2.709743566811084747e-02 3.411330282688140869e-02 3.773777484893798828e-01 5.675351023674011230e-01 -5.867091193795204163e-02 -8.977315574884414673e-02 -7.219675928354263306e-02 2.278943061828613281e-01 6.527184695005416870e-02 3.665496036410331726e-02 -2.548033557832241058e-02 5.135349556803703308e-02 -4.611580073833465576e-02 -5.861472710967063904e-02 -4.309054464101791382e-02 2.991795539855957031e-01 3.661204576492309570e-01 -8.302296400070190430e-01 -1.723214052617549896e-02 -1.598470658063888550e-01 -3.953341767191886902e-02 2.815598845481872559e-01 -1.591882295906543732e-02 -2.272546291351318359e-02 1.650662533938884735e-02 -1.947536766529083252e-01 -4.363505914807319641e-02 5.349461920559406281e-03 6.882409006357192993e-02 -3.268654048442840576e-01 3.930491805076599121e-01 2.278242260217666626e-02 -1.480203717947006226e-01 3.090071678161621094e-01 -1.582959294319152832e-01 1.401601731777191162e-01 -4.473371431231498718e-02 -2.918156329542398453e-03 6.723645329475402832e-02 8.049163967370986938e-02 -2.946114167571067810e-03 5.461453925818204880e-03 4.899302963167428970e-03 5.582568645477294922e-01 4.863863885402679443e-01 4.098216444253921509e-02 -1.029246449470520020e-01 -5.915582552552223206e-02 -1.718012690544128418e-01 -2.755844034254550934e-02 1.107156183570623398e-02 -9.419385343790054321e-03 -6.896268110722303391e-03 -3.916529938578605652e-02 1.533372607082128525e-02 1.669354364275932312e-02 1.480511277914047241e-01 -1.412433236837387085e-01 4.208739697933197021e-01 -8.576627969741821289e-01 -5.293095856904983521e-02 2.350791394710540771e-01 -1.779285371303558350e-01 -6.294460296630859375e-01 1.163091138005256653e-01 6.380856782197952271e-02 -4.847466014325618744e-03 -1.564186960458755493e-01 3.035346046090126038e-02 1.838314533233642578e-02
-6.604025140404701233e-03 1.014897450804710388e-01 -8.294487372040748596e-03 -4.574328958988189697e-01 2.821865677833557129e-01 3.135501220822334290e-02 -3.898604214191436768e-02 -1.439026277512311935e-02 -1.338062733411788940e-01 7.021227478981018066e-02 -9.497334063053131104e-02 3.044293448328971863e-02 -7.474682480096817017e-02 -1.512622088193893433e-01 1.174448803067207336e-02 2.037092149257659912e-01 -1.000495553016662598e-01 -2.162926495075225830e-01 3.061031699180603027e-01 6.328804790973663330e-02 -1.223765090107917786e-01 4.005181044340133667e-02 -1.262535452842712402e-01 5.971020087599754333e-02 -1.899411380290985107e-01 4.116091877222061157e-03 -3.636318445205688477e-02 1.486897319555282593e-01 -9.074889123439788818e-02 -1.835091412067413330e-01 -2.639978006482124329e-02 9.737880527973175049e-02 3.248054087162017822e-01 1.110492348670959473e-01 -3.579661250114440918e-02 -1.116032004356384277e-01 -8.823862671852111816e-02 -1.791780441999435425e-01 -1.951894164085388184e-01 -2.737599970714654773e-05 -6.218095310032367706e-03 3.820637613534927368e-02 5.284442007541656494e-02 3.068968653678894043e-01 -6.226902455091476440e-02 3.201275467872619629e-01 2.991245090961456299e-01 -1.508693695068359375e-01 -1.604751944541931152e-01 -1.311696507036685944e-02 -9.069185703992843628e-02 2.454353310167789459e-02 -1.704945713281631470e-01 -1.620281934738159180e-01 -7.926436513662338257e-02 -8.474947512149810791e-02 5.299368873238563538e-03 -1.441051661968231201e-01 -1.219409182667732239e-01 4.865599274635314941e-01 2.684325873851776123e-01 -1.394173651933670044e-01 -1.030741780996322632e-01 -5.496917665004730225e-02 -6.935728341341018677e-02 8.269311487674713135e-02 -2.317213565111160278e-01 1.386804133653640747e-01 -2.508727461099624634e-02 6.334079802036285400e-02 8.781573921442031860e-02 -3.166042566299438477e-01 -1.432083547115325928e-01 4.565900862216949463e-01 3.500539958477020264e-01 2.027040161192417145e-02 -1.195708140730857849e-01 4.223788157105445862e-02 2.384981326758861542e-02 -1.301379203796386719e-01 -1.188737824559211731e-01 -1.293811053037643433e-01 1.755684241652488708e-02 -7.953593134880065918e-02 5.876049399375915527e-02 -3.959798067808151245e-02 -1.348041743040084839e-01 9.829172492027282715e-01 3.584507107734680176e-01 -4.223650097846984863e-01 -8.802102506160736084e-02 -1.428077071905136108e-01 -1.274859607219696045e-01 -9.047733992338180542e-02 -1.400918066501617432e-01 1.093916967511177063e-01 -1.090539991855621338e-02 9.777741879224777222e-02 -3.444381803274154663e-02 -1.000557303428649902e+00 -1.417095214128494263e-01 -8.769363909959793091e-02 3.372915685176849365e-01 1.179559156298637390e-01 -5.673425644636154175e-02 1.548130363225936890e-01 2.945487387478351593e-02 -3.096200153231620789e-02 -2.239515483379364014e-01 -3.393546342849731445e-01 -6.941904127597808838e-02 -7.737100124359130859e-02 -3.112236410379409790e-02 2.718038856983184814e-01 -1.425636708736419678e-01 9.412983059883117676e-02 3.203897476196289062e-01 2.226388780400156975e-03 -9.778248518705368042e-02 -4.088165163993835449e-01 -1.518656965345144272e-02 1.473286468535661697e-02 -1.292211413383483887e-01 2.906017005443572998e-01 -7.486020773649215698e-02 3.434636816382408142e-02 -1.998403482139110565e-02 8.190819025039672852e-01 2.281104400753974915e-02 -1.630280017852783203e+00 2.572280466556549072e-01 3.628779649734497070e-01 -1.395781934261322021e-01 4.755447506904602051e-01 -1.284315288066864014e-01 1.258000880479812622e-01 -2.036152034997940063e-01 4.686935245990753174e-02 -5.674505978822708130e-02 -5.314867943525314331e-02
1.913489960134029388e-02 -9.823767095804214478e-02 2.464603185653686523e-01 -1.236010417342185974e-01 -9.790184348821640015e-02 5.315526947379112244e-02 -2.043592035770416260e-01 -1.404421776533126831e-01 1.442001666873693466e-02 -1.761002466082572937e-02 2.433886937797069550e-02 1.477127056568861008e-02 -4.712207242846488953e-02 2.316101826727390289e-02 3.684187680482864380e-02 -4.160953685641288757e-02 2.113370597362518311e-01 2.952799201011657715e-02 -5.176474153995513916e-02 1.708627492189407349e-01 -2.628840804100036621e-01 -9.849873930215835571e-02 -7.099213451147079468e-02 -7.131824735552072525e-03 -2.401160821318626404e-02 -1.298258081078529358e-02 -2.753856591880321503e-02 3.537221252918243408e-02 -1.129288971424102783e-01 -3.806148841977119446e-02 1.118966192007064819e-01 -1.595745533704757690e-01 -1.424871683120727539e-01 -2.158722579479217529e-01 -1.817098408937454224e-01 6.551987677812576294e-02 -1.110681667923927307e-01 1.081150211393833160e-02 4.349770769476890564e-02 -1.434810757637023926e-01 7.745260745286941528e-02 3.769787400960922241e-02 -6.603150069713592529e-02 9.482468366622924805e-01 2.142120748758316040e-01 -2.232679873704910278e-01 -5.422368273138999939e-02 3.580309748649597168e-01 -2.284134328365325928e-01 4.948437213897705078e-02 2.195284236222505569e-03 2.366412803530693054e-02 1.100446358323097229e-01 8.706448972225189209e-02 -1.220116671174764633e-02 7.801008969545364380e-02 -2.634610794484615326e-02 3.599505722522735596e-01 2.134567499160766602e-01 -2.230923855677247047e-03 -1.279520988464355469e-01 -2.776047214865684509e-02 -1.646041423082351685e-01 8.515834063291549683e-02 -1.847290061414241791e-02 -1.892074756324291229e-02 8.851193636655807495e-02 2.664288692176342010e-02 8.391675353050231934e-02 -1.360459625720977783e-01 5.976814404129981995e-02 5.233287215232849121e-01 2.570556104183197021e-01 -2.092270646244287491e-03 -4.113192483782768250e-02 2.032618075609207153e-01 -2.651615142822265625e-01 -3.012561984360218048e-02 -3.619050607085227966e-02 -1.294776648283004761e-01 5.504196509718894958e-02 -6.967683881521224976e-02 8.494008332490921021e-02 -5.277255550026893616e-02 2.832559496164321899e-02 4.127943515777587891e-01 1.656949222087860107e-01 2.472994923591613770e-01 -4.212219500914216042e-04 1.455538719892501831e-01 -1.314980685710906982e-01 -3.213697969913482666e-01 4.989850893616676331e-02 -4.738258942961692810e-02 2.420156821608543396e-02 1.361064612865447998e-01 8.879803866147994995e-02 8.253616094589233398e-02 -1.520127616822719574e-02 -1.204434514045715332e+00 1.865183562040328979e-01 2.503235936164855957e-01 6.621636450290679932e-02 -9.861530065536499023e-01 -2.478213757276535034e-01 1.096190065145492554e-01 -1.097858231514692307e-02 -6.966926623135805130e-03 -1.839141733944416046e-02 -4.635890945792198181e-02 6.307545304298400879e-02 -9.037253260612487793e-02 -5.614396650344133377e-03 -2.996447682380676270e-01 3.042853474617004395e-01 -1.506322771310806274e-01 -4.744630306959152222e-02 6.435109376907348633e-01 -1.315024793148040771e-01 1.355012655258178711e-01 6.132504716515541077e-02 1.023997962474822998e-01 1.030482128262519836e-01 -5.489613115787506104e-02 -2.811735868453979492e-02 -6.451987475156784058e-02 -7.826565206050872803e-02 -7.397184967994689941e-01 3.193056583404541016e-01 2.898015081882476807e-01 -1.003683581948280334e-01 -5.190480351448059082e-01 -2.256896942853927612e-01 -1.190689504146575928e-01 -8.682134747505187988e-02 5.143016949295997620e-02 -1.024361234158277512e-03 1.394988000392913818e-01 -5.981656908988952637e-02 1.529157906770706177e-01
1.356828026473522186e-02 -2.157964371144771576e-02 4.253565520048141479e-02 -9.338489174842834473e-02 5.998930335044860840e-02 -1.056462526321411133e-01 -3.329161182045936584e-02 2.377523332834243774e-01 1.038843467831611633e-01 3.583862259984016418e-02 7.179903239011764526e-02 3.720144182443618774e-02 -5.270295217633247375e-02 1.087560802698135376e-01 5.781607702374458313e-02 -6.455721706151962280e-02 1.133674979209899902e-01 -1.166564077138900757e-01 -3.419372066855430603e-02 -2.803785353899002075e-02 4.575220122933387756e-02 5.399318411946296692e-02 -2.262869663536548615e-02 5.411503952927887440e-04 -7.205171044915914536e-03 -5.358349904417991638e-02 -7.230177521705627441e-02 -1.185336057096719742e-02 3.152830898761749268e-02 -3.740080296993255615e-01 1.484931856393814087e-01 3.913942873477935791e-01 -2.980801090598106384e-02 -8.303671330213546753e-02 3.903444111347198486e-02 8.205124177038669586e-03 2.577921748161315918e-02 -8.271187543869018555e-02 1.917220838367938995e-02 -5.548274889588356018e-02 -2.487392397597432137e-03 -2.148818224668502808e-02 3.938416391611099243e-02 -1.409377343952655792e-02 1.118688881397247314e-01 2.093348801136016846e-01 5.408330261707305908e-02 -2.414069771766662598e-01 -1.669248007237911224e-02 -3.910860419273376465e-01 -3.654233366250991821e-02 -2.854042686522006989e-03 4.331939294934272766e-02 1.063805744051933289e-01 -6.925335526466369629e-02 -5.332771688699722290e-02 8.050490915775299072e-02 -5.759774893522262573e-02 3.171289339661598206e-02 1.998864710330963135e-01 4.330392181873321533e-02 2.156187593936920166e-01 1.386544257402420044e-01 -3.763054311275482178e-01 8.002404123544692993e-02 -4.809221997857093811e-02 7.491772621870040894e-02 -4.739021509885787964e-02 -9.872738271951675415e-02 -5.249325186014175415e-02 -4.958081617951393127e-02 -7.038204371929168701e-02 8.031342178583145142e-02 3.344621658325195312e-01 2.817891724407672882e-02 -2.058912813663482666e-02 1.014214605093002319e-01 -4.998634159564971924e-01 7.234181463718414307e-02 -7.818896323442459106e-03 -2.870447374880313873e-02 1.318196803331375122e-01 1.179207302629947662e-02 1.163629442453384399e-02 -4.001238942146301270e-02 5.241744518280029297e-01 1.926431208848953247e-01 3.372670114040374756e-01 -8.519154787063598633e-02 2.479432225227355957e-01 4.981496930122375488e-02 -3.179310858249664307e-01 3.991237655282020569e-02 1.844841614365577698e-02 5.621612071990966797e-02 4.426277428865432739e-02 -6.545700132846832275e-02 1.094107702374458313e-01 4.170858860015869141e-02 8.972454071044921875e-02 2.747294306755065918e-01 -4.384579062461853027e-01 -9.774263948202133179e-03 4.823244512081146240e-01 1.101405099034309387e-01 -1.617302745580673218e-01 7.342416793107986450e-03 5.325683858245611191e-03 1.096495613455772400e-01 8.499414473772048950e-02 -2.732811495661735535e-02 -8.979234844446182251e-02 2.420624531805515289e-02 8.123505711555480957e-01 2.152137458324432373e-01 3.702642321586608887e-01 -2.579147927463054657e-02 6.171424314379692078e-02 1.977296732366085052e-02 3.495086431503295898e-01 -9.070243686437606812e-02 1.208756044507026672e-01 1.155574172735214233e-01 -1.432844847440719604e-01 -2.818354591727256775e-02 3.537805005908012390e-02 5.789181590080261230e-02 -9.046398997306823730e-01 2.994338870048522949e-01 -1.091989874839782715e+00 -6.607282906770706177e-02 -7.798269987106323242e-01 5.680409818887710571e-02 8.914625644683837891e-01 -6.088741589337587357e-03 -5.141456797719001770e-02 -3.390442579984664917e-02 -3.104121237993240356e-02 -2.875572629272937775e-02 9.568671137094497681e-02
8.859327994287014008e-03 -5.005873441696166992e-01 4.054963961243629456e-02 3.423117101192474365e-02 -2.886247821152210236e-02 -5.263767838478088379e-01 5.708113778382539749e-03 5.486578494310379028e-02 -6.743879057466983795e-04 -4.055562242865562439e-02 1.414496824145317078e-02 5.994936078786849976e-02 6.465935707092285156e-02 -5.430872738361358643e-02 -8.975145220756530762e-02 -1.331710964441299438e-01 7.329846732318401337e-03 9.181711077690124512e-02 -5.961839109659194946e-02 2.475561015307903290e-02 -2.778506092727184296e-02 -5.991745740175247192e-02 5.750945210456848145e-02 -1.391247007995843887e-02 4.932301864027976990e-02 -3.332454338669776917e-02 4.297682270407676697e-02 -9.660459123551845551e-03 -8.847329020500183105e-02 -4.009582474827766418e-02 -1.263584475964307785e-02 -5.324465781450271606e-02 -1.346014253795146942e-02 -2.289517968893051147e-01 -4.596522822976112366e-02 3.198299184441566467e-02 -6.045189872384071350e-02 -4.769841209053993225e-02 9.724044054746627808e-02 9.929553419351577759e-02 7.077441364526748657e-02 6.820730119943618774e-02 -1.309707909822463989e-01 1.811017841100692749e-01 6.434292346239089966e-02 2.124037742614746094e-01 -8.718505501747131348e-02 1.170300766825675964e-01 -7.867749780416488647e-03 -2.759355679154396057e-02 1.908305101096630096e-02 1.152926459908485413e-01 1.222642604261636734e-02 -4.208849743008613586e-02 -2.716335467994213104e-02 -5.260736122727394104e-02 -7.771632075309753418e-02 1.088610887527465820e-01 8.355247229337692261e-02 1.422735303640365601e-01 -5.671395338140428066e-04 4.187462031841278076e-01 -8.458676747977733612e-03 3.638908639550209045e-02 -5.547010153532028198e-02 -1.072815582156181335e-01 8.587644994258880615e-02 1.425438653677701950e-02 -4.278102517127990723e-02 3.233350068330764771e-02 -3.652675077319145203e-02 3.184113204479217529e-01 -9.060295298695564270e-03 4.125695303082466125e-02 1.825929852202534676e-03 2.685764729976654053e-01 -7.820185273885726929e-03 7.559247314929962158e-02 -7.849065959453582764e-02 -1.221957802772521973e-02 -8.653971366584300995e-03 -1.141625270247459412e-01 -7.759097963571548462e-02 5.941757932305335999e-03 -1.161411404609680176e-01 1.232937932014465332e+00 8.828764408826828003e-02 1.170378178358078003e-01 3.486438095569610596e-02 8.027755022048950195e-01 1.054672524333000183e-01 1.024546027183532715e-01 6.296083331108093262e-02 1.013064682483673096e-01 -2.523643895983695984e-03 1.854039728641510010e-01 3.361005103215575218e-03 6.026614457368850708e-02 1.158695742487907410e-01 5.057892799377441406e-01 -3.817027807235717773e-02 -8.788974285125732422e-01 1.543108075857162476e-01 4.222251474857330322e-01 5.704272538423538208e-02 1.834760010242462158e-01 5.529676750302314758e-02 -1.631232909858226776e-02 -1.346581336110830307e-02 1.898462884128093719e-03 -1.040533930063247681e-02 2.293543703854084015e-02 1.746775209903717041e-01 1.336205005645751953e+00 -6.684952229261398315e-02 3.737898468971252441e-01 7.552370429039001465e-02 -8.278580754995346069e-02 -4.273886233568191528e-02 -6.931358575820922852e-02 1.717664487659931183e-02 1.587739437818527222e-01 1.177365034818649292e-01 -1.548124291002750397e-02 -5.333633720874786377e-02 -1.348872203379869461e-02 5.636365339159965515e-02 -3.016681909561157227e+00 7.091288454830646515e-03 2.589215524494647980e-02 5.674970522522926331e-02 -1.514168739318847656e+00 9.910776466131210327e-02 -1.824198514223098755e-01 -2.919379621744155884e-02 -1.378498226404190063e-01 2.539794892072677612e-02 -5.959485471248626709e-02 -5.132778733968734741e-02 -4.742269217967987061e-02
-1.778122782707214355e-02 7.417373824864625931e-03 1.469778828322887421e-02 1.927714049816131592e-02 8.766827732324600220e-02 2.221257612109184265e-02 4.239066317677497864e-02 -3.586637973785400391e-02 -1.012511458247900009e-02 -3.310518339276313782e-03 -1.793190254829823971e-03 -1.456096954643726349e-02 -1.826839894056320190e-02 -1.253214359283447266e+00 3.949749469757080078e-02 7.815076969563961029e-03 2.295823954045772552e-02 -3.565868362784385681e-03 8.744999766349792480e-03 9.036592207849025726e-03 1.688586780801415443e-03 1.264408510178327560e-02 8.127821236848831177e-02 6.829707417637109756e-03 3.961682692170143127e-02 5.934456828981637955e-03 -2.097288891673088074e-02 -2.523010373115539551e-01 2.888971194624900818e-02 -2.980530261993408203e-02 5.999235436320304871e-02 5.247500259429216385e-03 -4.299869015812873840e-02 -1.101684477180242538e-02 -4.725694656372070312e-02 1.310777384787797928e-02 -5.490459874272346497e-02 -3.869809675961732864e-03 5.258018895983695984e-02 3.017395921051502228e-02 -4.908823408186435699e-03 3.388738632202148438e-02 -9.456018358469009399e-02 1.352900080382823944e-02 -4.856963828206062317e-02 -1.087761297821998596e-02 3.954181447625160217e-02 -2.540474943816661835e-02 4.081444814801216125e-02 3.299482166767120361e-03 -5.697199609130620956e-03 1.797509263269603252e-03 7.666643708944320679e-03 -3.607614710927009583e-02 1.199835352599620819e-02 2.253158241510391235e-01 -6.443431973457336426e-02 -1.491207443177700043e-02 -5.273681879043579102e-02 -1.794651150703430176e-02 -8.240238763391971588e-03 2.910839207470417023e-02 -1.067040767520666122e-02 2.813175320625305176e-02 -5.808814987540245056e-02 3.767082467675209045e-03 -5.739111825823783875e-02 4.304951988160610199e-03 -7.887473702430725098e-02 2.347740978002548218e-01 2.749233273789286613e-03 -2.594287972897291183e-03 3.013408929109573364e-02 -6.437627016566693783e-04 -6.930099427700042725e-02 -4.974570497870445251e-02 -1.030656546354293823e-01 -3.225854039192199707e-02 -1.019571255892515182e-02 -9.942526929080486298e-03 -4.668776690959930420e-02 3.321267291903495789e-02 6.403730809688568115e-02 1.797582656145095825e-01 3.152373060584068298e-02 3.080326691269874573e-02 -2.981802076101303101e-02 2.474469691514968872e-02 -1.269864756613969803e-02 3.752474859356880188e-02 1.264145318418741226e-02 2.381796762347221375e-02 5.858280509710311890e-02 -1.666311523877084255e-03 3.858592361211776733e-02 -2.631683461368083954e-02 -7.027427852153778076e-02 1.665835827589035034e-01 4.826997965574264526e-02 -4.120420292019844055e-02 -6.005335971713066101e-02 -8.922431617975234985e-03 -3.550170222297310829e-03 2.121793478727340698e-02 -3.502109646797180176e-02 -3.866854682564735413e-02 -5.429485812783241272e-02 -8.603221736848354340e-03 -1.118483673781156540e-02 -3.891979577019810677e-03 -5.324089154601097107e-02 -2.590692974627017975e-02 -1.694427244365215302e-02 1.495916396379470825e-01 3.036841377615928650e-02 -1.422271411865949631e-02 -6.920829415321350098e-03 -1.985070109367370605e-02 4.743280261754989624e-02 1.722022145986557007e-02 1.192399021238088608e-02 3.031801432371139526e-02 -1.159023027867078781e-03 5.976236425340175629e-03 -1.486136950552463531e-02 -5.084617733955383301e-01 3.417676314711570740e-02 -1.246937140822410583e-01 5.454521253705024719e-02 1.692350953817367554e-03 1.388657558709383011e-02 -7.657655514776706696e-03 3.081275522708892822e-02 4.188717342913150787e-03 3.490340337157249451e-02 -1.715076155960559845e-02 -3.951842430979013443e-03 2.218268578872084618e-03 -2.151220804080367088e-03 -1.447733402252197266e+00
-9.401471912860870361e-02 2.156042158603668213e-01 1.727034747600555420e-01 2.749623060226440430e-01 1.457030475139617920e-01 4.069904237985610962e-02 -1.001163572072982788e-01 -2.105266600847244263e-01 4.125669598579406738e-02 -3.066692687571048737e-02 -1.881220564246177673e-02 -1.259518712759017944e-01 4.906003922224044800e-02 -3.709534415975213051e-03 -1.125609874725341797e-02 1.387187987565994263e-01 1.469465345144271851e-01 2.197681814432144165e-01 9.060615301132202148e-02 -1.877538561820983887e-01 -1.580599248409271240e-01 -1.931771337985992432e-01 9.462349861860275269e-02 5.502848327159881592e-02 -7.001051306724548340e-02 9.593225270509719849e-02 -4.190473631024360657e-02 7.711996883153915405e-02 1.518844217061996460e-01 -3.339871764183044434e-01 2.055556476116180420e-01 -1.758667379617691040e-01 2.066597193479537964e-01 -8.485428243875503540e-02 -2.213240563869476318e-01 1.382802128791809082e-01 4.966894164681434631e-03 -6.308222562074661255e-02 4.640447348356246948e-02 1.197321619838476181e-02 6.148678809404373169e-02 -1.180517151951789856e-01 2.066437155008316040e-01 -1.698019802570343018e-01 1.019739210605621338e-01 -3.618821501731872559e-02 1.608798652887344360e-01 -2.593787610530853271e-01 -1.406990289688110352e-01 1.607889682054519653e-01 9.731938689947128296e-02 6.529273092746734619e-02 5.670655053108930588e-03 -7.813078910112380981e-02 -2.342940866947174072e-02 -1.508089993149042130e-02 1.360118985176086426e-01 7.965203374624252319e-02 1.403789520263671875e-01 -4.279593825340270996e-01 2.438887208700180054e-01 1.533191502094268799e-01 -9.461677074432373047e-02 -4.097783192992210388e-02 -3.657453134655952454e-02 8.088141679763793945e-02 -2.273750118911266327e-02 8.488893508911132812e-02 -7.226793467998504639e-02 1.073281466960906982e-01 6.864295899868011475e-02 -5.574128627777099609e-01 1.859169900417327881e-01 2.105024755001068115e-01 1.719940155744552612e-01 -2.658328115940093994e-01 -8.609782904386520386e-02 2.844038009643554688e-01 2.165494859218597412e-02 -9.032027423381805420e-02 2.970138564705848694e-02 -1.632872521877288818e-01 1.745593175292015076e-02 -1.231032907962799072e-01 -6.193619593977928162e-02 -2.487302422523498535e-01 2.262477278709411621e-01 -1.029700115323066711e-01 1.019306778907775879e-01 1.134130135178565979e-01 -1.142888665199279785e-01 5.134250596165657043e-02 -9.489757940173149109e-04 -1.017973646521568298e-01 -2.644722117111086845e-03 1.152773201465606689e-01 2.185450494289398193e-02 1.242622509598731995e-01 -1.481955051422119141e-01 1.449824720621109009e-01 2.535381317138671875e-01 -4.182252585887908936e-01 1.885666102170944214e-01 6.964753270149230957e-01 -1.594503223896026611e-01 2.250570952892303467e-01 -1.033386401832103729e-02 2.204171419143676758e-01 1.779029890894889832e-02 -1.579699516296386719e-01 3.602074086666107178e-02 -9.000321477651596069e-02 -1.455107480287551880e-01 -6.965535283088684082e-01 2.950264811515808105e-01 1.267563462257385254e+00 8.430313318967819214e-02 -8.215104341506958008e-01 -1.149955168366432190e-01 1.371479034423828125e-01 1.631616614758968353e-03 -1.143963113427162170e-01 -3.020354732871055603e-02 1.141461804509162903e-01 2.652134932577610016e-02 -1.956631988286972046e-02 -6.616210192441940308e-02 1.048407912254333496e+00 2.587690949440002441e-01 -1.025737643241882324e+00 5.581047013401985168e-02 2.073911279439926147e-01 -1.708625108003616333e-01 -3.301801979541778564e-01 -3.419657796621322632e-02 -2.093797363340854645e-02 1.385472156107425690e-02 1.248598005622625351e-02 1.163554284721612930e-02 5.070276558399200439e-02
2.753621339797973633e-02 -2.062954753637313843e-02 -1.119898259639739990e-02 -1.620213268324732780e-03 -4.921518638730049133e-02 -6.922084838151931763e-03 1.286243554204702377e-02 -1.400337088853120804e-02 2.336285309866070747e-03 1.328276470303535461e-02 -6.795287877321243286e-02 -1.071276068687438965e+00 4.535990301519632339e-03 7.118092384189367294e-03 -6.465039332397282124e-04 3.371899202466011047e-02 -8.135956525802612305e-02 2.033067494630813599e-02 -3.580040857195854187e-02 1.074907369911670685e-02 -2.407388947904109955e-02 1.831862493418157101e-03 -1.448655128479003906e-02 -1.132968626916408539e-02 2.840184979140758514e-02 -1.225541114807128906e+00 7.313904911279678345e-02 -6.418875418603420258e-03 2.907359786331653595e-02 -2.759147994220256805e-02 -3.874150663614273071e-02 -3.953881096094846725e-03 -6.025983020663261414e-02 3.682875307276844978e-03 -1.460191048681735992e-02 -3.860169323161244392e-03 4.118357971310615540e-02 6.153964437544345856e-03 1.390587165951728821e-02 -1.078854322433471680e+00 3.012086637318134308e-02 -4.170922562479972839e-03 -5.778275802731513977e-02 2.579770423471927643e-02 -1.554798334836959839e-03 -6.217272486537694931e-03 1.821489259600639343e-02 -1.550417859107255936e-02 -2.428426593542098999e-02 9.245713241398334503e-03 -5.431701987981796265e-02 -9.334469214081764221e-03 9.782863780856132507e-03 -8.482885956764221191e-01 -3.131336718797683716e-02 1.532659307122230530e-02 2.656354568898677826e-02 -3.343269694596529007e-03 1.669918186962604523e-02 -8.955559693276882172e-03 9.050562977790832520e-02 1.701587066054344177e-02 -4.205359518527984619e-02 -1.062882598489522934e-02 -7.207677513360977173e-02 1.053684018552303314e-02 4.371085390448570251e-02 -1.069051146507263184e+00 -3.758884966373443604e-02 -1.011960860341787338e-02 -6.484334915876388550e-02 -2.351447753608226776e-02 -3.715677559375762939e-02 5.639952141791582108e-03 9.528417140245437622e-03 -1.240017637610435486e-02 -1.891920110210776329e-03 2.440433204174041748e-02 4.961546510457992554e-02 -1.197119709104299545e-02 -7.576305419206619263e-03 -1.157996058464050293e+00 -1.162309548817574978e-03 6.702952086925506592e-03 -3.927110508084297180e-02 3.430896252393722534e-02 1.983896456658840179e-02 1.699594594538211823e-02 4.411830753087997437e-02 -1.891074329614639282e-02 1.242210566997528076e-01 -2.009669691324234009e-02 -2.209414727985858917e-02 1.654239022172987461e-03 5.717566609382629395e-02 -6.085438728332519531e-01 5.210705846548080444e-02 9.126164950430393219e-03 2.669201046228408813e-02 -2.335407026112079620e-02 3.983053192496299744e-02 -2.027613110840320587e-02 -4.224898666143417358e-02 1.775213330984115601e-02 -1.908311434090137482e-02 1.665402390062808990e-02 6.276162713766098022e-02 4.686322994530200958e-03 -1.099370941519737244e-01 -1.063469290733337402e+00 -7.226204127073287964e-02 -9.448782540857791901e-03 -2.005125582218170166e-02 1.952954940497875214e-02 3.821198642253875732e-02 1.052295975387096405e-02 3.606355935335159302e-02 -1.672956533730030060e-02 -4.091039765626192093e-03 6.157210096716880798e-03 -5.005135387182235718e-02 -5.752888042479753494e-03 -7.578897476196289062e-02 -6.819046139717102051e-01 -2.151788771152496338e-02 4.668521694839000702e-03 7.422320544719696045e-02 -1.600156165659427643e-02 5.342652276158332825e-02 -1.149174757301807404e-02 -1.031543593853712082e-02 2.083109878003597260e-02 -1.332288887351751328e-02 -5.060529801994562149e-03 5.606772750616073608e-02 6.825951859354972839e-03 5.151851475238800049e-02 1.727586239576339722e-01 8.945736102759838104e-03 -7.965100929141044617e-03
-8.315285295248031616e-02 2.913321601226925850e-03 -3.498117625713348389e-01 -2.213658243417739868e-01 1.055026054382324219e-01 -2.761010080575942993e-02 -1.567954123020172119e-01 -2.859742194414138794e-02 1.258731186389923096e-01 -6.930007785558700562e-02 9.621398895978927612e-02 -1.118269339203834534e-01 8.259370923042297363e-02 -4.938837606459856033e-03 -4.549290984869003296e-02 7.881601154804229736e-02 -3.327448666095733643e-01 1.231122463941574097e-01 1.547864824533462524e-01 5.632855743169784546e-02 -1.630069166421890259e-01 3.619131743907928467e-01 1.099294200539588928e-01 5.149009823799133301e-02 3.898639604449272156e-02 8.214972168207168579e-02 7.674398273229598999e-02 1.282501518726348877e-01 -6.075685471296310425e-02 -4.483614265918731689e-01 -3.931040167808532715e-01 1.555245220661163330e-01 1.413653492927551270e-01 7.823004573583602905e-02 -1.492846608161926270e-01 -8.461977541446685791e-02 1.261400133371353149e-01 6.637256592512130737e-02 1.018491536378860474e-01 2.603742480278015137e-02 2.790213003754615784e-02 -1.315819621086120605e-01 -5.931994691491127014e-02 5.366862192749977112e-02 -3.320744931697845459e-01 -3.017395734786987305e-01 7.768978923559188843e-02 -4.893583953380584717e-01 -9.421084076166152954e-02 -3.427191637456417084e-03 1.225485280156135559e-01 -6.257269531488418579e-02 1.651493087410926819e-02 1.270130127668380737e-01 8.590873330831527710e-03 6.009383499622344971e-02 -1.322888433933258057e-01 1.694643497467041016e-01 -4.634065032005310059e-01 2.644004821777343750e-01 1.249108016490936279e-01 2.096688151359558105e-01 -2.044067382812500000e-01 -1.716054379940032959e-01 3.759536892175674438e-02 1.017720177769660950e-01 7.795210927724838257e-02 -1.434420794248580933e-01 1.583561599254608154e-01 -1.113289967179298401e-02 3.544692695140838623e-02 9.221171587705612183e-02 -4.846292138099670410e-01 -6.855465769767761230e-01 1.944775283336639404e-01 -2.826178967952728271e-01 -7.124409079551696777e-02 -1.645766198635101318e-01 1.221942802658304572e-04 -3.254324197769165039e-02 2.333393692970275879e-02 -1.626946777105331421e-01 1.654553115367889404e-01 -7.204733323305845261e-03 7.749194744974374771e-03 3.966036736965179443e-01 -3.416756093502044678e-01 2.522304058074951172e-01 1.589458286762237549e-01 -6.983704566955566406e-01 -8.889639377593994141e-02 -1.544362455606460571e-01 -1.920539699494838715e-02 -2.766838669776916504e-02 1.582373306155204773e-02 3.183833360671997070e-01 7.072095572948455811e-02 6.018067896366119385e-02 5.603210255503654480e-02 3.597618639469146729e-02 -4.632219970226287842e-01 4.722593724727630615e-01 1.500950455665588379e-01 1.573534131050109863e+00 -1.250841915607452393e-01 3.059962950646877289e-02 -2.367444150149822235e-02 6.467506289482116699e-02 8.904255926609039307e-03 -2.661888599395751953e-01 7.278700917959213257e-02 -4.364303871989250183e-02 1.298087835311889648e-01 -5.616998076438903809e-01 -4.770163595676422119e-01 -8.852463364601135254e-01 3.186078071594238281e-01 -1.405743479728698730e+00 -8.972168713808059692e-02 3.029689490795135498e-01 1.092192754149436951e-01 -4.151387140154838562e-02 -1.665401272475719452e-02 1.155381575226783752e-01 5.392738804221153259e-02 2.166254818439483643e-02 5.938352644443511963e-02 3.086945712566375732e-01 -4.883878529071807861e-01 6.773404479026794434e-01 2.486036568880081177e-01 9.610603451728820801e-01 -1.538919806480407715e-01 6.015174463391304016e-02 5.867610871791839600e-02 -3.364914655685424805e-02 2.884713187813758850e-02 -1.070475503802299500e-01 3.075015544891357422e-02 -2.524073235690593719e-03
6.244637817144393921e-02 -7.508121780119836330e-04 2.036305814981460571e-01 1.006240919232368469e-01 5.716849565505981445e-01 -3.558566048741340637e-02 2.724934220314025879e-01 1.578487306833267212e-01 7.431815844029188156e-03 6.227323412895202637e-02 -1.325006932020187378e-01 1.298564374446868896e-01 7.576607167720794678e-02 -1.412252783775329590e-01 -2.212573587894439697e-02 9.383302181959152222e-02 2.084501385688781738e-01 1.764245778322219849e-01 4.585613608360290527e-01 -1.889287680387496948e-02 3.079385459423065186e-01 3.804743587970733643e-01 7.869788259267807007e-02 -3.834025934338569641e-02 -5.767761543393135071e-02 -1.246851086616516113e-01 5.965652689337730408e-02 2.371473312377929688e-01 8.765921741724014282e-02 -7.503204047679901123e-02 2.053679972887039185e-01 -1.446596831083297729e-01 5.570682287216186523e-01 1.939476430416107178e-01 2.180854380130767822e-01 -1.106227636337280273e-01 1.126283556222915649e-01 -5.745180416852235794e-03 -1.783535629510879517e-01 -9.622821956872940063e-02 2.413904666900634766e-02 -1.364320218563079834e-01 4.482069984078407288e-03 -1.247956678271293640e-01 2.714806199073791504e-01 1.088147684931755066e-01 5.511952042579650879e-01 -3.058768212795257568e-01 2.505787909030914307e-01 -4.160423278808593750e-01 1.073034405708312988e-01 -4.053831845521926880e-02 -1.343677639961242676e-01 1.603128910064697266e-01 1.275568902492523193e-01 8.066933602094650269e-02 2.901826985180377960e-02 -1.530228257179260254e-01 2.028452455997467041e-01 -5.543817281723022461e-01 5.404644012451171875e-01 2.352001070976257324e-01 2.814171910285949707e-01 1.459603547118604183e-03 1.347812861204147339e-01 9.852680563926696777e-02 -9.370446950197219849e-02 -1.418306976556777954e-01 3.660465031862258911e-02 -3.978337720036506653e-02 1.051999256014823914e-01 -2.252292037010192871e-01 1.969289481639862061e-01 2.002657204866409302e-01 4.811517298221588135e-01 -4.031104445457458496e-01 3.148537576198577881e-01 -4.063470065593719482e-01 8.125942200422286987e-02 -6.688085943460464478e-02 -1.714457273483276367e-01 -1.361001431941986084e-01 -1.468712836503982544e-02 1.438677217811346054e-02 3.034348413348197937e-02 -2.520372532308101654e-02 3.366527259349822998e-01 -5.016946196556091309e-01 5.965870022773742676e-01 1.913237422704696655e-01 2.345412522554397583e-01 -2.191567569971084595e-01 -3.942593932151794434e-02 3.997718542814254761e-02 -6.537885963916778564e-02 2.026604712009429932e-01 9.215059876441955566e-02 6.166198849678039551e-02 -6.594857573509216309e-02 4.146317765116691589e-02 3.161755800247192383e-01 3.077611327171325684e-01 6.153661012649536133e-01 6.658349633216857910e-01 3.299010694026947021e-01 1.128892302513122559e-01 8.874904364347457886e-02 -1.633652858436107635e-02 -1.540626734495162964e-01 -3.190703392028808594e-01 1.609411649405956268e-02 -1.838389411568641663e-02 -6.693618744611740112e-02 2.813563868403434753e-02 3.326107263565063477e-01 7.460314035415649414e-02 4.743446707725524902e-01 -6.507344841957092285e-01 2.491119354963302612e-01 -4.950006306171417236e-01 9.241325408220291138e-02 7.837908342480659485e-03 -1.550411880016326904e-01 2.259493470191955566e-01 3.372498601675033569e-02 -1.588890515267848969e-02 -1.447978466749191284e-01 4.359717965126037598e-01 2.891480624675750732e-01 2.876176834106445312e-01 5.550701022148132324e-01 1.759433150291442871e-01 2.884171307086944580e-01 1.044037103652954102e+00 2.148118428885936737e-02 -8.038382977247238159e-03 -2.090907543897628784e-01 2.273504622280597687e-02 8.023577928543090820e-02 -4.732073098421096802e-02
7.399158924818038940e-02 -1.222124025225639343e-01 -5.950863957405090332e-01 -5.970041155815124512e-01 9.930690377950668335e-02 -1.262441575527191162e-01 2.293531149625778198e-01 -3.783350586891174316e-01 -1.974328309297561646e-01 -2.360728532075881958e-01 2.360100448131561279e-01 -1.963454298675060272e-03 4.377633705735206604e-02 -3.593407571315765381e-02 -3.553888574242591858e-02 -4.579883515834808350e-01 -6.898863911628723145e-01 -7.068365067243576050e-02 4.744724556803703308e-02 1.377799548208713531e-02 3.245559930801391602e-01 3.319966793060302734e-01 -1.284394264221191406e-01 -3.256369009613990784e-02 2.317133843898773193e-01 -1.096930801868438721e-01 -1.397255808115005493e-02 2.396921254694461823e-02 1.528692245483398438e-02 4.110082611441612244e-02 -5.568453669548034668e-01 4.509467184543609619e-01 -5.020717158913612366e-02 2.566839158535003662e-01 2.880353331565856934e-01 8.837762475013732910e-02 -2.614398896694183350e-01 2.008326649665832520e-01 2.143193930387496948e-01 2.939930185675621033e-02 4.927156493067741394e-02 -7.645567506551742554e-02 -3.895418718457221985e-02 4.040353298187255859e-01 -5.576295852661132812e-01 8.458592742681503296e-02 8.155371993780136108e-03 -9.392524510622024536e-02 1.870896518230438232e-01 1.187679097056388855e-01 -1.158905774354934692e-01 9.553970396518707275e-02 2.092748582363128662e-01 -6.461902707815170288e-02 -3.748929500579833984e-02 -9.910718351602554321e-02 -3.295753896236419678e-02 2.161843925714492798e-01 -6.195561885833740234e-01 5.375329256057739258e-01 3.153761848807334900e-02 2.204531878232955933e-01 3.291918039321899414e-01 -2.826985120773315430e-01 -1.779063791036605835e-01 -1.532663702964782715e-01 2.079885005950927734e-01 -3.430126607418060303e-02 -3.168861940503120422e-02 1.775122135877609253e-01 3.424159949645400047e-04 2.519031465053558350e-01 -6.437681913375854492e-01 3.421875238418579102e-01 2.676176652312278748e-02 7.472571730613708496e-02 2.461780905723571777e-01 -3.320193886756896973e-01 -1.449780315160751343e-01 -5.181057844310998917e-03 1.347515732049942017e-01 -1.881103217601776123e-01 -7.161864638328552246e-02 1.348110102117061615e-02 1.212474517524242401e-02 3.008888475596904755e-02 -5.060638189315795898e-01 1.790107637643814087e-01 8.165238797664642334e-02 2.407314479351043701e-01 2.957349717617034912e-01 9.436082094907760620e-03 -2.506498098373413086e-01 -5.229141935706138611e-02 1.519083976745605469e-01 1.948774009943008423e-01 -1.049285288900136948e-02 3.678141534328460693e-02 8.543498814105987549e-03 4.419549405574798584e-01 -5.315309762954711914e-01 3.319957554340362549e-01 4.012611508369445801e-02 -4.724209904670715332e-01 3.325581848621368408e-01 -4.876004531979560852e-02 -1.965857297182083130e-01 -4.467903636395931244e-03 1.361700445413589478e-01 -1.874293386936187744e-01 -6.514549255371093750e-02 -9.889487922191619873e-02 6.157556548714637756e-02 1.024305745959281921e-01 -4.213044047355651855e-01 1.314897239208221436e-01 1.171560864895582199e-02 -8.488444238901138306e-02 3.092733025550842285e-01 2.143207937479019165e-02 -1.466576457023620605e-01 1.087279394268989563e-01 1.947861462831497192e-01 3.945631086826324463e-01 8.714436739683151245e-02 9.370022267103195190e-02 -2.116445079445838928e-02 -8.810546994209289551e-01 -4.667939245700836182e-01 -1.449849128723144531e+00 9.266059845685958862e-02 -2.699123136699199677e-02 3.225855827331542969e-01 4.508568346500396729e-01 -2.099018245935440063e-01 2.288988418877124786e-02 2.154528051614761353e-01 -1.299409568309783936e-01 3.760190680623054504e-02 -1.093528643250465393e-01
-1.220961585640907288e-01 3.620865941047668457e-01 -5.644694343209266663e-02 -3.007161319255828857e-01 -2.271759659051895142e-01 2.684344351291656494e-01 5.114642158150672913e-02 4.226085543632507324e-01 -1.308220438659191132e-02 -9.631941467523574829e-02 3.399358829483389854e-03 -7.007845677435398102e-03 -1.440973281860351562e-01 -3.586840257048606873e-02 -5.102629587054252625e-02 3.308373391628265381e-01 -8.355219662189483643e-02 -4.692404270172119141e-01 -8.420266211032867432e-02 -3.935030102729797363e-02 -2.085275202989578247e-02 1.380031257867813110e-01 1.204039156436920166e-01 3.559199348092079163e-02 -3.752785921096801758e-02 -9.146022610366344452e-03 -1.490507870912551880e-01 -1.200848370790481567e-01 -3.155614063143730164e-02 -1.091759428381919861e-01 3.516090335324406624e-03 9.882870316505432129e-02 -2.061009705066680908e-01 4.268098175525665283e-01 4.301208257675170898e-02 4.884424433112144470e-02 7.993831485509872437e-02 1.318332850933074951e-01 -1.012677233666181564e-02 4.863987118005752563e-02 -1.566126495599746704e-01 9.827224165201187134e-02 3.882787376642227173e-02 -3.035364151000976562e-01 -3.976955078542232513e-03 2.807469666004180908e-01 -1.475331783294677734e-01 -2.365567088127136230e-01 6.233273074030876160e-03 -2.447588741779327393e-01 2.698239684104919434e-02 4.282692447304725647e-02 5.556036531925201416e-02 -4.596744850277900696e-02 -1.261748522520065308e-01 9.702901355922222137e-03 6.423987448215484619e-02 -3.579876422882080078e-01 -9.932119399309158325e-02 7.395210117101669312e-02 -6.332115083932876587e-02 9.722027182579040527e-02 -1.822748035192489624e-02 -3.183253109455108643e-01 1.490170601755380630e-03 -6.684464216232299805e-02 -3.196164220571517944e-02 -1.802531816065311432e-02 -1.470546871423721313e-01 -3.139506652951240540e-02 5.586367100477218628e-02 -7.842753529548645020e-01 3.440255671739578247e-02 6.113419532775878906e-01 -8.300355821847915649e-02 -2.339742332696914673e-01 5.111303925514221191e-02 -5.216645598411560059e-01 9.382730722427368164e-02 -1.147127524018287659e-01 -4.562640096992254257e-03 6.227506697177886963e-02 -7.521026581525802612e-02 1.042784657329320908e-02 9.188266843557357788e-02 -3.246883451938629150e-01 -1.221988573670387268e-01 3.220448791980743408e-01 -1.188401803374290466e-01 -3.114821016788482666e-01 -4.403900355100631714e-03 -4.396643340587615967e-01 1.245470345020294189e-01 -5.962517857551574707e-02 6.137388944625854492e-02 5.059205368161201477e-02 -1.778402365744113922e-02 2.886251732707023621e-02 -5.971953645348548889e-02 -1.566159129142761230e-01 -1.314449161291122437e-01 8.948149681091308594e-01 -9.211885184049606323e-02 6.251092553138732910e-01 6.401495635509490967e-02 1.794899106025695801e-01 1.427353471517562866e-01 1.473325788974761963e-01 -2.367521263659000397e-02 -1.858246922492980957e-01 -9.938625991344451904e-02 2.322177169844508171e-03 -1.269960105419158936e-01 -1.110571324825286865e-01 7.870140485465526581e-03 -6.613972783088684082e-01 -1.401025056838989258e-01 -8.287295699119567871e-01 2.479718998074531555e-02 -3.875118494033813477e-01 3.408684954047203064e-02 -1.418975293636322021e-01 3.041525587832438760e-06 -9.411451220512390137e-02 -1.093821227550506592e-01 9.642577171325683594e-02 -8.513399213552474976e-02 1.425543904304504395e+00 -9.313149750232696533e-02 -1.086694240570068359e+00 -9.746935963630676270e-02 2.579553723335266113e-01 5.547004193067550659e-02 9.372157454490661621e-01 8.988376706838607788e-03 1.172506958246231079e-01 -7.573051378130912781e-03 3.455399572849273682e-01 -1.208148375153541565e-01 -2.089873403310775757e-01
1.258086704183369875e-04 8.797220140695571899e-02 7.865914702415466309e-02 -1.692587286233901978e-01 1.091366782784461975e-01 -3.311718627810478210e-02 1.304297298192977905e-01 -1.172581538558006287e-01 -7.048144191503524780e-02 1.473405212163925171e-01 2.465294860303401947e-02 -4.777849093079566956e-02 2.124892026185989380e-01 1.640140563249588013e-01 -1.024929457344114780e-03 2.256728559732437134e-01 8.078905194997787476e-02 -1.535493135452270508e-01 1.421829015016555786e-01 -7.258908450603485107e-02 1.055061072111129761e-01 4.633286967873573303e-02 -1.548347622156143188e-01 -1.137482225894927979e-01 7.600053399801254272e-02 1.181667074561119080e-01 5.979323387145996094e-02 -5.148952081799507141e-02 -1.375840511173009872e-02 4.318142235279083252e-01 6.265796720981597900e-02 -1.757141016423702240e-02 1.144193485379219055e-01 2.150758653879165649e-01 1.475499570369720459e-01 1.799614578485488892e-01 -9.236120432615280151e-02 -6.405226141214370728e-02 1.011858284473419189e-01 -2.014121264219284058e-01 2.018959820270538330e-01 1.785818021744489670e-04 5.456575751304626465e-02 2.661872655153274536e-02 6.803923845291137695e-02 -2.632871866226196289e-01 1.912667155265808105e-01 1.295833140611648560e-01 2.186407595872879028e-01 -8.041811175644397736e-03 -2.127637714147567749e-02 1.619952768087387085e-01 7.375311851501464844e-02 1.423180699348449707e-01 3.161344677209854126e-02 -2.501129638403654099e-03 -3.060257993638515472e-03 -1.517366915941238403e-01 -2.002691663801670074e-02 7.135341763496398926e-01 1.656427085399627686e-01 -4.728595912456512451e-02 1.637017279863357544e-01 -3.153459131717681885e-01 3.794169519096612930e-03 -2.075477093458175659e-01 1.260681599378585815e-01 9.057427756488323212e-03 1.680240780115127563e-01 5.525766313076019287e-02 -6.786478310823440552e-02 -3.192183077335357666e-01 1.204677075147628784e-01 1.281579434871673584e-01 2.321852743625640869e-01 1.590103209018707275e-01 1.134750843048095703e-01 -8.838153630495071411e-02 -1.499208360910415649e-01 1.327462377957999706e-03 3.116522170603275299e-02 -1.707139760255813599e-01 2.687822096049785614e-02 3.457295522093772888e-02 -5.307746678590774536e-02 -5.188086032867431641e-01 1.244742795825004578e-01 7.817365527153015137e-01 9.271779656410217285e-02 -3.171326220035552979e-01 2.249511778354644775e-01 -3.026537597179412842e-01 -4.480670392513275146e-02 2.077412307262420654e-01 1.006198227405548096e-01 1.002538017928600311e-02 1.479491591453552246e-01 -1.317870318889617920e-01 -1.385537534952163696e-01 -4.163617789745330811e-01 5.629423260688781738e-02 4.529314935207366943e-01 1.155416145920753479e-01 -6.203910112380981445e-01 9.758434444665908813e-02 3.243848383426666260e-01 -1.862242072820663452e-01 -1.227251216769218445e-01 2.074200101196765900e-02 2.943212091922760010e-01 1.362763941287994385e-01 5.463903024792671204e-02 -2.236744016408920288e-02 -2.984760105609893799e-01 4.882744327187538147e-02 -6.411560177803039551e-01 8.480361849069595337e-02 7.163800001144409180e-01 1.367412358522415161e-01 4.018072783946990967e-01 -8.498042076826095581e-02 -4.231270030140876770e-02 1.277676671743392944e-01 -2.380175143480300903e-01 1.405221819877624512e-01 -6.621981412172317505e-02 -8.890052139759063721e-02 9.666548967361450195e-01 1.986055076122283936e-01 -7.686641216278076172e-01 2.337350100278854370e-01 -2.576691284775733948e-02 1.873020231723785400e-01 -1.667196601629257202e-01 -2.189482897520065308e-01 -6.211413536220788956e-03 5.842492729425430298e-02 1.757187694311141968e-01 1.640909910202026367e-01 1.795834302902221680e-01
