2.024018019437789917e-02 -7.588657736778259277e-02 -9.457755088806152344e-02 -3.430784493684768677e-02 -8.849023282527923584e-02 -2.846825681626796722e-02 -6.352975964546203613e-02 -1.138137839734554291e-02 7.974319905042648315e-02 -4.173642024397850037e-02 -8.369127660989761353e-02 -4.473691433668136597e-02 -6.132731586694717407e-02 2.275697700679302216e-02 5.651561170816421509e-02 3.062728606164455414e-02 1.012549549341201782e-02 -1.013140473514795303e-02 5.159195140004158020e-02 6.053715199232101440e-02 -6.356300413608551025e-02 5.120218917727470398e-02 3.395360708236694336e-02 -2.692032977938652039e-02 -2.886174991726875305e-02 -7.743867486715316772e-02 -2.584035135805606842e-02 7.657121121883392334e-02 -1.144463419914245605e-01 -2.945297583937644958e-02 -1.104537323117256165e-01 -3.653569379821419716e-03 -3.257379680871963501e-02 1.052880194038152695e-02 -5.730282515287399292e-02 7.985820621252059937e-02 -6.381852924823760986e-02 -9.575989842414855957e-02 5.735607817769050598e-02 -8.968786150217056274e-02 1.535769365727901459e-02 6.754422932863235474e-02 -6.191786751151084900e-02 5.220158398151397705e-02 -5.127567425370216370e-02 3.144715726375579834e-02 1.488988380879163742e-02 1.076866872608661652e-02 5.780347436666488647e-02 7.698106020689010620e-02 1.906672120094299316e-02 3.626247122883796692e-02 3.226578608155250549e-02 -1.005712524056434631e-01 -3.954762965440750122e-02 -3.148952126502990723e-02 -1.136614009737968445e-01 -5.948311462998390198e-02 -6.587973982095718384e-02 -3.437636792659759521e-02 6.612175703048706055e-02 -8.145783096551895142e-02 -9.987622499465942383e-02 -8.260106295347213745e-02 -2.042438648641109467e-02 4.186794534325599670e-02 -2.316777594387531281e-02 2.336963824927806854e-02 1.457394566386938095e-02 -1.788697391748428345e-02 -7.598274201154708862e-02 -1.000412181019783020e-01 -3.046506457030773163e-02 -9.279901534318923950e-02 -5.381133779883384705e-02 -4.773670434951782227e-02 -1.165772974491119385e-01 -6.855445355176925659e-02 3.084284812211990356e-02 -6.752728484570980072e-03 -8.197733759880065918e-02 7.272290438413619995e-02 -2.059248834848403931e-02 -6.576166022568941116e-03 2.507032826542854309e-02 2.402366884052753448e-02 -9.456320852041244507e-02 3.398763015866279602e-02 -7.421886175870895386e-02 -8.727505803108215332e-02 -3.138298168778419495e-02 6.933743506669998169e-02 -4.479615017771720886e-02 -8.014480024576187134e-02 -8.220276236534118652e-02 -6.866537034511566162e-02 -1.932345144450664520e-02 -8.727294206619262695e-02 -1.532748714089393616e-02 -7.837349176406860352e-02
7.033576071262359619e-02 -1.084322705864906311e-01 3.148039057850837708e-02 9.570510126650333405e-03 -3.508664965629577637e-01 3.502329066395759583e-02 7.589350640773773193e-02 -1.570685654878616333e-01 3.985515981912612915e-02 -3.401551162824034691e-03 8.640279620885848999e-02 6.804540008306503296e-02 -2.475273795425891876e-04 -2.357767224311828613e-01 -2.028577774763107300e-01 1.548038609325885773e-02 2.682403624057769775e-01 7.057949155569076538e-02 -2.099246531724929810e-01 2.323649525642395020e-01 1.259720772504806519e-01 -3.320163860917091370e-02 -4.025744795799255371e-01 -6.489308923482894897e-02 1.453702002763748169e-01 -2.132641896605491638e-02 -3.518053516745567322e-02 3.777256608009338379e-02 1.863323152065277100e-01 3.414809703826904297e-02 -1.623157411813735962e-01 -1.379368305206298828e-01 -7.938416674733161926e-04 -1.796662062406539917e-02 4.101084545254707336e-02 -3.236139938235282898e-02 1.952313035726547241e-01 3.369903266429901123e-01 3.114370405673980713e-01 1.072525978088378906e-03 2.934283614158630371e-01 2.298024445772171021e-01 -3.062299191951751709e-01 -1.655268520116806030e-01 2.889141999185085297e-02 2.679454684257507324e-01 -6.083325296640396118e-02 -1.038539260625839233e-01 -8.596606552600860596e-02 3.518846278893761337e-05 -2.986751869320869446e-02 5.697136372327804565e-02 -8.688721060752868652e-02 2.110975421965122223e-02 -1.533124595880508423e-01 -1.754903793334960938e-01 1.633615642786026001e-01 -2.023789100348949432e-02 1.079260557889938354e-02 -3.157232999801635742e-01 1.093905419111251831e-01 2.261059172451496124e-02 1.878765672445297241e-01 1.161450520157814026e-02 2.227823883295059204e-01 -5.145085230469703674e-02 -3.573200106620788574e-02 1.451492905616760254e-01 -1.614886336028575897e-02 2.662061750888824463e-01 1.677489280700683594e-01 9.809471666812896729e-03 3.437051922082901001e-02 -4.444448277354240417e-03 1.438547074794769287e-01 -1.926707848906517029e-02 -3.790754452347755432e-02 -1.936812400817871094e-01 1.021677181124687195e-01 1.617181152105331421e-01 -2.818664908409118652e-01 -1.913973987102508545e-01 -1.502054035663604736e-01 6.714081764221191406e-02 -7.798600476235151291e-03 4.953914508223533630e-02 -1.046632900834083557e-01 -3.063625693321228027e-01 2.117323130369186401e-01 -3.082194030284881592e-01 -6.460247039794921875e-01 -2.474457025527954102e-01 2.341209799051284790e-01 4.765326529741287231e-02 3.883017972111701965e-02 1.035936549305915833e-01 -3.090446256101131439e-02 -9.050061926245689392e-03 -1.391452550888061523e-01 -9.415209293365478516e-02
6.112593412399291992e-02 -3.605716302990913391e-02 -3.435589745640754700e-02 -8.693757653236389160e-02 -7.689124345779418945e-02 -5.723755434155464172e-02 -9.972192347049713135e-03 1.777665503323078156e-02 -7.778679020702838898e-03 -5.914018303155899048e-02 -9.826118499040603638e-02 -8.919133991003036499e-02 -1.370256068184971809e-03 4.357493296265602112e-02 -2.157996967434883118e-02 -8.967297524213790894e-02 -2.546980790793895721e-02 -6.427448242902755737e-02 5.106230452656745911e-02 4.632009193301200867e-02 5.079719051718711853e-02 -8.142467588186264038e-02 -5.640824139118194580e-02 2.683013491332530975e-02 1.157280430197715759e-02 -1.236619427800178528e-02 -5.084991455078125000e-02 8.085173368453979492e-02 -7.326276600360870361e-02 -6.580581516027450562e-02 -2.134720049798488617e-02 -4.089780524373054504e-02 4.382273647934198380e-03 6.821662187576293945e-02 -2.910388819873332977e-02 -7.518649846315383911e-02 2.681289240717887878e-02 6.436021625995635986e-02 -6.683179736137390137e-02 -9.066700190305709839e-02 4.986597597599029541e-02 -8.726034313440322876e-02 3.579790517687797546e-02 3.772451356053352356e-02 4.665209446102380753e-03 2.029205858707427979e-02 -4.891118779778480530e-02 1.752951741218566895e-02 7.262584567070007324e-02 -5.430045351386070251e-02 -7.904230058193206787e-02 1.558924838900566101e-02 -3.611060604453086853e-02 4.173696041107177734e-02 -6.610495597124099731e-02 1.910083927214145660e-02 -7.716334611177444458e-02 -6.715300679206848145e-02 -4.521250352263450623e-02 -7.449401170015335083e-02 4.223747923970222473e-02 -9.029500931501388550e-02 -6.625236570835113525e-02 -4.208296537399291992e-03 6.479702889919281006e-02 6.589458137750625610e-02 2.635718695819377899e-02 -6.621844321489334106e-02 5.219509452581405640e-02 -7.374078780412673950e-02 4.959795996546745300e-02 -4.688114672899246216e-02 -2.377038449048995972e-02 -2.103813737630844116e-02 -2.015330083668231964e-02 -1.067141294479370117e-01 -1.036703884601593018e-01 -8.981329202651977539e-02 2.812145836651325226e-02 1.571209635585546494e-03 7.912574335932731628e-03 1.819490268826484680e-02 7.056461274623870850e-02 -7.161726243793964386e-03 -9.140121936798095703e-02 2.645188570022583008e-02 -3.279833495616912842e-02 8.681882172822952271e-02 -1.021459549665451050e-01 -7.896324992179870605e-02 8.894651383161544800e-02 -1.608749106526374817e-02 -6.688332650810480118e-03 -4.943535849452018738e-02 6.281568855047225952e-02 -3.768609836697578430e-02 2.689700201153755188e-02 -8.772427588701248169e-02 -3.072301857173442841e-02 -5.940461158752441406e-02
1.607804298400878906e-01 8.365429937839508057e-02 2.331279516220092773e-01 -9.969019144773483276e-02 2.265633046627044678e-01 -1.675368249416351318e-01 -3.840545415878295898e-01 1.016363352537155151e-01 -3.682594001293182373e-02 -1.991542812902480364e-04 1.302337497472763062e-01 1.064169332385063171e-01 1.191269308328628540e-01 -1.095548123121261597e-01 -8.993706852197647095e-02 3.083374500274658203e-01 -4.092985391616821289e-01 -8.723810315132141113e-02 8.123526722192764282e-02 -1.759099215269088745e-01 1.670776158571243286e-01 -3.044569864869117737e-02 -4.681013524532318115e-02 -4.935554787516593933e-02 4.745176807045936584e-02 -1.568435728549957275e-01 -2.740817368030548096e-01 1.347742080688476562e-01 -2.282342463731765747e-01 -6.307256966829299927e-02 -1.423923373222351074e-01 1.790724098682403564e-01 -5.917769856750965118e-03 1.926187239587306976e-02 -5.225749686360359192e-02 5.805211067199707031e-01 -2.728031203150749207e-02 6.225937511771917343e-03 9.296863526105880737e-02 -7.879483746364712715e-04 -1.451564878225326538e-01 -8.889078348875045776e-02 -4.002414643764495850e-02 2.077188193798065186e-01 -3.391558229923248291e-01 -2.083958536386489868e-01 6.986217200756072998e-02 1.610442996025085449e-01 -6.249095499515533447e-02 -3.093804121017456055e-01 3.218999877572059631e-02 -1.798629760742187500e-01 3.447784110903739929e-02 -4.882657527923583984e-02 2.774371020495891571e-02 -7.276558130979537964e-02 3.539912402629852295e-03 1.340716034173965454e-01 4.466075822710990906e-02 -7.757140696048736572e-02 1.321231871843338013e-01 -1.253560464829206467e-02 -2.092818468809127808e-01 3.110116161406040192e-02 5.821537971496582031e-02 -1.529801040887832642e-01 9.066703170537948608e-02 -2.739803679287433624e-02 3.582572564482688904e-02 1.870585381984710693e-01 -1.495265215635299683e-01 -2.543915510177612305e-01 -9.728619828820228577e-03 8.912531659007072449e-03 -1.829058527946472168e-01 2.686442993581295013e-02 2.108184099197387695e-01 -7.011101394891738892e-02 4.867734760046005249e-02 2.468375116586685181e-02 4.179411530494689941e-01 9.189667552709579468e-02 -4.878360927104949951e-01 3.213152289390563965e-02 -9.663059562444686890e-02 2.924903295934200287e-02 3.060362637042999268e-01 -1.844459325075149536e-01 -1.300600469112396240e-01 1.114689707756042480e-01 -1.751134693622589111e-01 -5.603819712996482849e-02 3.303087651729583740e-01 -3.371156379580497742e-02 -4.058056697249412537e-02 9.176863729953765869e-02 -7.279781997203826904e-02 -5.732033401727676392e-02 -1.241593658924102783e-01 -8.539115637540817261e-02
1.467654258012771606e-01 7.962065190076828003e-02 -1.529941800981760025e-02 5.164119228720664978e-02 -1.394129097461700439e-01 -3.507978618144989014e-01 5.155457928776741028e-02 -1.910592988133430481e-02 3.416189923882484436e-02 2.274640053510665894e-01 -1.299394108355045319e-02 -7.198955863714218140e-02 -7.158150523900985718e-02 -3.111867308616638184e-01 -1.295016258955001831e-01 -2.239445596933364868e-01 5.687906220555305481e-02 -9.946978837251663208e-02 -3.671625256538391113e-02 1.083080396056175232e-01 2.038053274154663086e-01 3.951809108257293701e-01 1.820639222860336304e-01 2.289312426000833511e-03 -4.637014865875244141e-02 2.310755103826522827e-02 9.353772550821304321e-02 9.146177023649215698e-02 -4.473967105150222778e-02 -1.266174167394638062e-01 2.596970088779926300e-02 5.130596924573183060e-03 2.935582870122743770e-06 -4.703809041529893875e-03 -4.508388228714466095e-03 -1.567420065402984619e-01 -4.349487423896789551e-01 1.124292239546775818e-01 -1.768839508295059204e-01 -2.173304790630936623e-03 1.128729209303855896e-01 -3.393804654479026794e-02 -3.092099726200103760e-01 1.893290579319000244e-01 1.847259849309921265e-01 -9.088608622550964355e-02 1.425709873437881470e-01 2.506740689277648926e-01 2.119484543800354004e-02 -1.767926216125488281e-01 -1.060009449720382690e-01 -4.388594999909400940e-02 5.197753384709358215e-02 -1.025354936718940735e-01 -2.418250776827335358e-02 6.731904298067092896e-02 1.565258949995040894e-02 1.554736401885747910e-02 -1.764875277876853943e-02 -3.641195893287658691e-01 8.124492317438125610e-02 2.140473574399948120e-01 7.270051538944244385e-02 1.477041989564895630e-01 9.955323487520217896e-02 7.895264774560928345e-02 -5.103447288274765015e-02 -5.496608465909957886e-02 2.048415504395961761e-02 1.433624029159545898e-01 -4.605100303888320923e-02 -2.022954970598220825e-01 -1.871605776250362396e-02 -1.569542735815048218e-01 6.660079088760539889e-05 1.141978800296783447e-01 -2.664992511272430420e-01 -1.373436301946640015e-01 1.430226266384124756e-01 -5.107890069484710693e-02 5.850879848003387451e-02 3.967477753758430481e-02 5.908984318375587463e-02 4.581141099333763123e-02 -2.300636917352676392e-01 -4.254448786377906799e-02 4.982750117778778076e-02 9.330211579799652100e-02 -3.525509685277938843e-02 1.366161555051803589e-01 4.004782736301422119e-01 -7.092726975679397583e-02 -2.258863449096679688e-01 -5.860631540417671204e-02 3.701256588101387024e-02 -1.975250095129013062e-01 -1.869168579578399658e-01 -3.686101362109184265e-02 -5.368162319064140320e-02 1.329012513160705566e-01
-2.345344983041286469e-02 -2.912499941885471344e-02 2.552098967134952545e-02 1.452839281409978867e-02 7.192543894052505493e-02 -6.699456274509429932e-02 8.464576303958892822e-02 -2.731423079967498779e-02 -1.092353910207748413e-01 -1.054866015911102295e-01 7.988888770341873169e-02 2.980792336165904999e-02 -4.409264400601387024e-02 -1.097417846322059631e-01 -1.720163784921169281e-02 -8.721422404050827026e-02 -1.235793926753103733e-03 -7.081098109483718872e-02 -8.730903267860412598e-02 -2.050239406526088715e-02 -4.094848036766052246e-02 -1.081694588065147400e-01 9.196640551090240479e-02 -5.845272913575172424e-02 -4.843733459711074829e-02 -8.275105804204940796e-02 -1.002391651272773743e-01 -5.216426402330398560e-02 -1.066126674413681030e-02 -1.286496408283710480e-02 -7.787480950355529785e-02 -6.925871968269348145e-02 5.785255227237939835e-03 6.775549799203872681e-02 5.080830678343772888e-02 6.851205602288246155e-03 2.329739928245544434e-02 -4.333135858178138733e-02 -2.767079044133424759e-03 -4.822538420557975769e-02 -6.263012439012527466e-02 -2.523298747837543488e-02 -4.222061857581138611e-02 -1.791262999176979065e-02 6.022347137331962585e-02 5.415711924433708191e-02 7.226693630218505859e-02 -6.765671819448471069e-02 -9.968856722116470337e-02 1.834568567574024200e-02 -6.150825694203376770e-02 -6.721293181180953979e-02 6.894806772470474243e-02 7.130903191864490509e-03 -9.730484336614608765e-02 -9.216992557048797607e-02 -7.695582509040832520e-02 3.929325565695762634e-02 6.251537799835205078e-02 -5.885283276438713074e-02 -1.337471418082714081e-02 2.567273005843162537e-02 -9.686001576483249664e-03 3.542928723618388176e-03 -1.040807068347930908e-01 -4.973107203841209412e-02 5.403107404708862305e-02 -3.206127509474754333e-02 -1.262676343321800232e-02 8.550605922937393188e-02 -7.623646408319473267e-02 -9.382977336645126343e-02 3.658714517951011658e-02 6.598890572786331177e-02 -7.129919528961181641e-02 -2.118022413924336433e-03 -8.448809385299682617e-03 -1.011250093579292297e-01 -7.176977396011352539e-02 -5.532534420490264893e-02 -3.352120518684387207e-02 -3.679284080862998962e-02 -5.976454913616180420e-02 -3.154617547988891602e-02 -6.785971671342849731e-02 -1.071426272392272949e-01 -1.278700307011604309e-02 4.154088441282510757e-03 -5.030189175158739090e-03 1.977071538567543030e-02 -4.424758255481719971e-03 -2.641143649816513062e-02 7.584697008132934570e-02 8.206690102815628052e-02 -7.623725384473800659e-02 -6.702370941638946533e-02 -2.829926647245883942e-02 -5.766239762306213379e-02 1.566526480019092560e-02 -7.120276987552642822e-02
-6.732977032661437988e-01 7.546158879995346069e-02 5.062850937247276306e-02 -1.950151845812797546e-02 -1.752543076872825623e-02 -6.014661192893981934e-01 9.060105681419372559e-02 5.524813383817672729e-02 2.337206900119781494e-02 -1.607936993241310120e-02 -2.747600972652435303e-01 8.643604815006256104e-02 -1.266308221966028214e-02 -1.093944758176803589e-01 -3.310272395610809326e-01 -1.171699911355972290e-01 -1.338084787130355835e-01 3.570845350623130798e-03 -3.509988486766815186e-01 -1.494292467832565308e-01 4.481096565723419189e-02 1.242407038807868958e-02 -5.870964378118515015e-03 8.514676988124847412e-02 9.996300563216209412e-03 -1.436568349599838257e-01 3.148654848337173462e-02 -1.640293896198272705e-01 1.247619241476058960e-01 2.503749215975403786e-03 -8.788266219198703766e-03 -1.897889189422130585e-02 -4.550802987068891525e-03 8.625281043350696564e-03 1.410696096718311310e-02 1.218937411904335022e-01 3.493244051933288574e-01 -1.062838733196258545e-02 1.817035228013992310e-01 2.486344892531633377e-03 2.439601533114910126e-02 8.515591919422149658e-02 -3.564771115779876709e-01 -1.357450243085622787e-02 -2.142527699470520020e-01 3.151709437370300293e-01 1.357493400573730469e-01 6.976971775293350220e-02 1.301981061697006226e-01 1.238186750560998917e-02 3.007634729146957397e-02 -1.399194002151489258e-01 5.657187476754188538e-02 -5.843248590826988220e-02 1.997419148683547974e-01 -5.509753152728080750e-02 -2.173340693116188049e-02 -1.913304626941680908e-01 1.356292665004730225e-01 3.511488810181617737e-02 -2.315982580184936523e-01 -9.339312463998794556e-02 -8.965399861335754395e-02 -4.151936620473861694e-02 -1.211271211504936218e-01 -1.102429777383804321e-01 3.267149999737739563e-02 -1.773655265569686890e-01 -2.322876453399658203e-02 2.404345721006393433e-01 3.575731441378593445e-02 4.470680952072143555e-01 9.302417747676372528e-03 1.339779701083898544e-02 2.117454074323177338e-02 -7.794253528118133545e-02 -1.676420271396636963e-01 2.971338399220257998e-04 1.371238529682159424e-01 2.816470572724938393e-03 -1.513270437717437744e-01 -3.257324099540710449e-01 -7.698953151702880859e-03 1.395357698202133179e-01 1.729939281940460205e-01 2.369953133165836334e-02 3.696321323513984680e-02 1.628396213054656982e-01 -1.141769066452980042e-01 -4.303566180169582367e-03 -3.081879317760467529e-01 -2.893181890249252319e-02 7.128848135471343994e-02 6.831824779510498047e-02 6.211753189563751221e-02 -4.386795684695243835e-03 -3.345596045255661011e-02 7.361877709627151489e-02 5.735902488231658936e-02 -7.726080249994993210e-03
8.684234693646430969e-03 -9.303211420774459839e-02 -9.849584102630615234e-02 2.001651003956794739e-02 -8.265940099954605103e-02 -1.714938133955001831e-02 -9.229137748479843140e-02 -5.377857387065887451e-02 3.841139376163482666e-02 -1.322036832571029663e-01 2.987006120383739471e-02 3.148302808403968811e-02 -1.095749810338020325e-01 -2.548469044268131256e-02 7.445929944515228271e-02 -1.166727542877197266e-01 8.507713675498962402e-02 -9.947782009840011597e-02 -9.258893132209777832e-02 -6.160631310194730759e-03 4.472339153289794922e-02 1.006906107068061829e-02 -9.362722188234329224e-02 -2.271947450935840607e-02 -3.770615160465240479e-02 -8.110338449478149414e-02 2.394952438771724701e-02 4.424798116087913513e-02 -1.538871321827173233e-02 4.403600469231605530e-02 -3.828883171081542969e-02 -2.094982005655765533e-02 -1.981419697403907776e-02 4.768387600779533386e-02 -9.931745380163192749e-02 -1.346175968647003174e-01 8.003358729183673859e-03 2.506840787827968597e-02 -6.999611109495162964e-02 -1.031863614916801453e-01 -1.160537227988243103e-01 -1.232762336730957031e-01 1.261835638433694839e-02 1.029647327959537506e-02 3.889730200171470642e-02 6.840240955352783203e-02 -1.098800636827945709e-02 -8.338704705238342285e-02 -1.026577278971672058e-01 -6.779654324054718018e-02 -8.708953112363815308e-02 5.808680504560470581e-02 -5.755797773599624634e-02 -1.151511911302804947e-02 -6.778341531753540039e-02 -8.742365241050720215e-02 3.085511736571788788e-02 -6.521456688642501831e-02 -1.085131391882896423e-01 -2.843337692320346832e-02 -1.063843220472335815e-01 -2.836683019995689392e-02 3.589874878525733948e-02 -5.563308671116828918e-02 -1.118863001465797424e-01 9.669128805398941040e-03 -4.774829745292663574e-02 -8.486994355916976929e-02 -1.034985184669494629e-01 -1.820749952457845211e-03 4.431631416082382202e-02 -7.767308503389358521e-02 -1.190163791179656982e-01 -4.356450587511062622e-02 -2.974211797118186951e-02 -2.737909927964210510e-02 2.705160062760114670e-03 -5.308572947978973389e-02 -2.075665444135665894e-02 4.202359914779663086e-02 2.933005057275295258e-02 -2.724282070994377136e-02 3.113676793873310089e-03 -7.566882669925689697e-02 -3.675953950732946396e-03 -1.071859672665596008e-01 5.309540033340454102e-02 -8.706519752740859985e-02 4.586495086550712585e-02 1.840595714747905731e-02 -7.711016386747360229e-02 2.167818322777748108e-02 7.808971218764781952e-03 4.940379038453102112e-02 -4.714643291663378477e-04 -1.024729907512664795e-01 -1.902337372303009033e-02 -8.507583290338516235e-02 -9.462916851043701172e-02 -3.713592514395713806e-02
1.175962910056114197e-01 4.432455599308013916e-01 -2.218398451805114746e-01 -1.324913948774337769e-01 -4.988908767700195312e-01 4.659279063344001770e-02 -1.434108167886734009e-01 -1.343011409044265747e-01 -1.040605902671813965e-01 -1.781646162271499634e-01 -7.867760211229324341e-02 -8.641924709081649780e-02 1.622537523508071899e-01 9.534044563770294189e-02 -1.730312556028366089e-01 -2.602094598114490509e-02 -1.002723053097724915e-01 -2.802363932132720947e-01 3.560614958405494690e-02 -1.320946663618087769e-01 -1.900225728750228882e-01 8.843682706356048584e-02 -2.401754446327686310e-02 2.269095927476882935e-01 5.621228814125061035e-01 -8.717299252748489380e-02 -4.991580173373222351e-02 -1.102456450462341309e-01 -2.995371818542480469e-01 -3.132617175579071045e-01 -1.604776531457901001e-01 -5.319335311651229858e-02 3.412673482671380043e-03 -8.873871713876724243e-02 -2.558722198009490967e-01 5.441778153181076050e-02 2.894643843173980713e-01 2.338833510875701904e-01 1.222070753574371338e-01 2.669036621227860451e-04 1.578954905271530151e-01 2.006625384092330933e-01 1.795422434806823730e-01 -2.869877405464649200e-02 1.167693212628364563e-01 2.605725228786468506e-01 -4.961536033079028130e-04 2.050738036632537842e-01 -4.233588278293609619e-02 2.763020098209381104e-01 2.211067825555801392e-01 -5.794621258974075317e-02 -5.428526923060417175e-02 -3.095447272062301636e-02 1.087054610252380371e-01 -4.837378859519958496e-03 2.189600020647048950e-01 -6.926421821117401123e-02 1.405125111341476440e-01 3.386199474334716797e-01 -6.641957163810729980e-02 -3.247746527194976807e-01 -7.797063887119293213e-02 -7.115206122398376465e-02 -7.694334536790847778e-02 -1.728363335132598877e-01 3.397908806800842285e-01 -3.369612693786621094e-01 2.331384569406509399e-01 1.210138946771621704e-01 -1.216445565223693848e-01 5.387295782566070557e-02 -8.558329194784164429e-02 2.498346716165542603e-01 3.039399906992912292e-02 3.407454583793878555e-03 -1.308977454900741577e-01 -2.760613895952701569e-02 4.120137542486190796e-02 4.317080602049827576e-02 -9.359908103942871094e-02 -6.490774452686309814e-02 2.851209975779056549e-02 6.995359808206558228e-02 -2.563723623752593994e-01 -1.060811430215835571e-01 1.398804187774658203e-01 2.284436253830790520e-03 4.357634484767913818e-02 5.207409337162971497e-02 -2.466810494661331177e-01 9.034550935029983521e-02 -1.371307671070098877e-02 4.161065735388547182e-04 -3.016926944255828857e-01 -6.143836304545402527e-03 9.698899090290069580e-02 -2.207013666629791260e-01 -7.168448567390441895e-01 5.590284708887338638e-03
-9.707660973072052002e-02 -4.380370676517486572e-02 -1.096841916441917419e-01 -1.176975890994071960e-01 -1.320850104093551636e-01 5.180850625038146973e-02 -1.504312455654144287e-01 -2.060409635305404663e-02 6.925670802593231201e-02 1.182621810585260391e-02 -1.008917093276977539e-01 -6.863899528980255127e-02 -7.138667255640029907e-02 -9.937776625156402588e-02 8.376441150903701782e-02 -6.335379183292388916e-02 5.412661284208297729e-02 -5.013426393270492554e-02 -1.516942214220762253e-02 1.001257216557860374e-03 -1.035788729786872864e-01 9.226320311427116394e-03 -7.070133835077285767e-02 -8.748710900545120239e-02 2.966063842177391052e-02 -1.624122709035873413e-01 -6.923824548721313477e-02 1.845640502870082855e-02 -3.943771123886108398e-02 -1.065411716699600220e-01 -9.923383593559265137e-02 7.007978856563568115e-02 -1.155640855431556702e-01 -2.527526393532752991e-02 -1.229158714413642883e-01 -8.623895049095153809e-02 -2.737148106098175049e-02 -7.268629223108291626e-02 -8.482323586940765381e-02 2.652020752429962158e-02 1.964696310460567474e-02 -8.678422123193740845e-02 1.559025142341852188e-02 6.233474984765052795e-02 -9.983456879854202271e-02 -9.401201270520687103e-03 -4.226212203502655029e-02 -5.532477796077728271e-02 5.614171922206878662e-02 -8.275634795427322388e-02 -1.402921676635742188e-01 -3.121949918568134308e-02 -1.063731908798217773e-01 2.680285647511482239e-02 -4.846588149666786194e-02 6.375174969434738159e-02 -5.951196700334548950e-02 -6.633545737713575363e-03 1.644725166261196136e-02 -1.154386922717094421e-01 1.373545918613672256e-02 -9.271558374166488647e-02 3.964007645845413208e-02 -1.214373670518398285e-02 -9.801529347896575928e-02 2.472712285816669464e-02 -2.109085582196712494e-02 -7.515629380941390991e-02 5.684822797775268555e-02 -7.520145177841186523e-02 -7.662365585565567017e-02 -6.762710213661193848e-02 -6.002160161733627319e-02 -1.356980353593826294e-01 1.195366960018873215e-02 -4.648295044898986816e-02 1.811558264307677746e-03 -1.281238719820976257e-02 -5.140368267893791199e-02 3.860636055469512939e-02 -1.715658046305179596e-02 -5.604208260774612427e-02 -1.188794225454330444e-01 -2.283938974142074585e-02 -3.415620326995849609e-02 -1.341323852539062500e-01 -3.519010916352272034e-02 3.770085796713829041e-02 -4.088312759995460510e-02 -2.648961730301380157e-02 -6.998773664236068726e-02 -6.003373861312866211e-02 4.084001109004020691e-02 -5.729610845446586609e-02 2.914564101956784725e-04 -9.377578645944595337e-02 -2.985762618482112885e-02 -3.235465660691261292e-02 -3.460120782256126404e-02 -6.303828954696655273e-02
2.684713006019592285e-01 7.004205137491226196e-02 3.495737612247467041e-01 1.020734831690788269e-01 -1.462725162506103516e+00 3.533610329031944275e-02 2.847547829151153564e-01 -3.828972578048706055e-01 -1.289953757077455521e-02 2.632230054587125778e-03 -5.373507738113403320e-01 3.438055142760276794e-02 -1.704638302326202393e-01 -1.696824580430984497e-01 4.903458058834075928e-01 1.490778326988220215e-01 -1.852720022201538086e+00 9.856054931879043579e-02 5.090512633323669434e-01 1.370239555835723877e-01 5.927938818931579590e-01 -4.541488289833068848e-01 3.508086502552032471e-01 1.432468146085739136e-01 -1.204725503921508789e+00 2.647479772567749023e-01 4.202732145786285400e-01 1.177497431635856628e-01 4.011068940162658691e-01 -5.107014253735542297e-02 -5.710319280624389648e-01 -5.380304530262947083e-02 1.554982038214802742e-03 -4.732246324419975281e-02 -3.404348790645599365e-01 -3.362179100513458252e-01 3.225641548633575439e-01 5.335175618529319763e-02 -2.430330365896224976e-01 -3.788173897191882133e-03 -2.495570182800292969e-01 -3.009000420570373535e-01 -3.319654166698455811e-01 1.901205331087112427e-01 -5.801374837756156921e-02 1.003296822309494019e-01 7.004438899457454681e-03 -2.020901143550872803e-01 -1.156900376081466675e-01 5.727588534355163574e-01 2.422062009572982788e-01 -4.337102919816970825e-02 -2.928366363048553467e-01 -1.898734271526336670e-02 -1.381786167621612549e-02 2.424076646566390991e-01 -8.164954185485839844e-02 -6.614845991134643555e-02 3.522275388240814209e-02 3.243815302848815918e-01 3.072843849658966064e-01 -3.673479259014129639e-01 -8.946309983730316162e-02 2.351985499262809753e-02 3.147698640823364258e-01 6.191205382347106934e-01 -8.370481431484222412e-02 -4.930483698844909668e-01 -1.704752445220947266e-01 1.848154962062835693e-01 1.617944985628128052e-01 1.806130558252334595e-01 -5.056492984294891357e-02 1.329660862684249878e-01 2.688992768526077271e-02 -2.432577908039093018e-01 -3.046905696392059326e-01 6.739514321088790894e-02 3.883213102817535400e-01 -7.169905185699462891e+00 2.234355360269546509e-01 -8.877813071012496948e-02 2.521939575672149658e-01 -1.001391634345054626e-01 -1.983918696641921997e-01 -2.202142328023910522e-01 1.104359254240989685e-01 -1.249813213944435120e-01 2.749774754047393799e-01 1.377175301313400269e-01 -9.441773593425750732e-02 -3.723089098930358887e-01 -5.538929253816604614e-02 2.250411659479141235e-01 -8.561769723892211914e-01 -2.005191147327423096e-01 2.680866420269012451e-02 1.554333716630935669e-01 8.286882191896438599e-02 1.248729825019836426e-01
-3.521923720836639404e-01 2.033395692706108093e-02 -1.887261867523193359e-01 7.124815136194229126e-02 -2.777781486511230469e-01 1.619511097669601440e-01 -5.157111212611198425e-02 -1.661776006221771240e-01 -8.654823154211044312e-02 4.638838768005371094e-02 -3.081399202346801758e-01 7.820654660463333130e-03 -6.832992285490036011e-02 3.408082993701100349e-03 -4.779109358787536621e-02 2.279804646968841553e-02 1.638759970664978027e-01 1.376475300639867783e-02 1.275841332972049713e-02 2.553275227546691895e-01 -3.868124634027481079e-02 -5.254956707358360291e-02 2.306257039308547974e-01 -6.818622350692749023e-02 3.203076496720314026e-02 -6.927788257598876953e-02 -9.145615249872207642e-02 2.038965821266174316e-01 2.066980600357055664e-01 1.028806343674659729e-01 -3.475764095783233643e-01 2.667821943759918213e-01 -1.166533445939421654e-03 -7.319941371679306030e-02 2.817355692386627197e-01 3.670711815357208252e-01 2.612037025392055511e-02 2.552914991974830627e-02 -3.353046476840972900e-01 1.952240359969437122e-03 -3.680368065834045410e-01 -3.641336411237716675e-02 -2.774565815925598145e-01 7.571879029273986816e-02 -5.006881058216094971e-02 1.597424298524856567e-01 2.158591598272323608e-01 1.303995400667190552e-01 -2.273334264755249023e-01 -1.079777255654335022e-01 -7.546410709619522095e-02 -2.330089658498764038e-01 -6.136406958103179932e-02 3.840449824929237366e-02 -2.138453572988510132e-01 7.571485638618469238e-02 -1.076595261693000793e-01 8.503766357898712158e-02 -1.093382686376571655e-01 -2.913240194320678711e-01 9.681659936904907227e-02 2.623249292373657227e-01 9.275889396667480469e-02 4.558269307017326355e-02 1.676137894392013550e-01 2.052795141935348511e-02 -2.978422492742538452e-02 1.290575116872787476e-01 -1.899285614490509033e-01 1.583759039640426636e-01 -1.074607968330383301e-01 2.174909263849258423e-01 -1.156551018357276917e-01 -3.379946947097778320e-02 -2.743282914161682129e-01 4.767121747136116028e-02 6.779325660318136215e-03 -3.247106671333312988e-01 2.416072338819503784e-01 1.714060306549072266e-01 6.961084902286529541e-02 3.552173450589179993e-02 2.775180041790008545e-01 -2.832994796335697174e-03 -2.500065267086029053e-01 -1.394827216863632202e-01 4.444459080696105957e-02 -8.642642199993133545e-02 2.774693444371223450e-02 3.082233369350433350e-01 -3.993975222110748291e-01 5.369445681571960449e-02 -1.561982091516256332e-02 1.859630197286605835e-01 1.711316406726837158e-01 9.907714277505874634e-02 2.947495877742767334e-01 2.396549582481384277e-01 2.316356152296066284e-01 -6.849757581949234009e-02
2.259795926511287689e-02 -9.242900647222995758e-03 5.781845003366470337e-02 -1.150611937046051025e-01 -1.651928015053272247e-02 4.895369708538055420e-01 -1.090119630098342896e-01 2.932966649532318115e-01 3.586206957697868347e-02 8.579505980014801025e-02 -9.387329965829849243e-02 -1.417168825864791870e-01 1.473993510007858276e-01 -1.630470901727676392e-01 2.101711779832839966e-01 1.677300184965133667e-01 -6.477850079536437988e-01 2.416617572307586670e-01 6.368116289377212524e-02 -1.705766767263412476e-01 -6.389509141445159912e-02 -1.147018224000930786e-01 6.172895431518554688e-01 3.754622861742973328e-02 -4.002679288387298584e-01 1.266473531723022461e-01 -2.245475053787231445e-01 5.067028999328613281e-01 1.798711270093917847e-01 -1.191747561097145081e-01 2.401879131793975830e-01 -2.633905597031116486e-02 -9.238317608833312988e-03 7.589311152696609497e-02 1.452343631535768509e-02 -6.042313575744628906e-02 -2.492823600769042969e-01 1.976092010736465454e-01 -3.183380141854286194e-02 -1.663645030930638313e-03 1.341181248426437378e-01 -1.939242631196975708e-01 -3.092214465141296387e-01 -1.263594180345535278e-01 2.622501850128173828e-01 1.731366813182830811e-01 2.662032246589660645e-01 2.009150087833404541e-01 -7.561117410659790039e-02 -8.945674449205398560e-02 2.350398600101470947e-01 -8.198726922273635864e-02 7.534694671630859375e-02 1.839642375707626343e-01 -1.118917912244796753e-01 -1.325052976608276367e-01 3.248291909694671631e-01 -1.167730521410703659e-02 -4.424479976296424866e-02 2.547775208950042725e-01 -1.447811424732208252e-01 -1.675896197557449341e-01 -1.586248129606246948e-01 7.912307046353816986e-03 -3.306232094764709473e-01 -1.280293166637420654e-01 1.017822846770286560e-01 1.116675138473510742e-01 2.349796146154403687e-01 3.466090261936187744e-01 1.963866502046585083e-02 -1.576165407896041870e-01 1.054035276174545288e-01 1.206224560737609863e-01 5.344070959836244583e-03 1.399495899677276611e-01 6.281015276908874512e-02 -1.834803819656372070e-01 7.530691474676132202e-02 -4.793128073215484619e-01 -2.289176732301712036e-02 -1.435832977294921875e-01 7.475966215133666992e-02 -1.242896243929862976e-01 -1.419201791286468506e-01 1.351014077663421631e-01 9.595868736505508423e-02 -1.242059096693992615e-01 -6.834733486175537109e-02 2.246952243149280548e-02 8.569058775901794434e-01 1.024323552846908569e-01 5.479052662849426270e-01 -8.483437448740005493e-02 5.115330219268798828e-01 1.017667055130004883e-01 1.210801899433135986e-01 -6.388976424932479858e-02 4.503279179334640503e-02 -8.037361502647399902e-02
5.332689881324768066e-01 -1.503935098648071289e+00 -2.862827479839324951e-01 8.493771776556968689e-03 3.381450474262237549e-02 5.527004003524780273e-01 2.222846150398254395e-01 -3.137401640415191650e-01 -2.907242178916931152e-01 -7.665548920631408691e-01 -5.276633054018020630e-02 3.956455290317535400e-01 2.776524238288402557e-02 -1.111634448170661926e-01 6.357278823852539062e-01 -8.777093887329101562e-02 1.628127247095108032e-01 -4.273882806301116943e-01 5.745085477828979492e-01 5.693494156002998352e-02 -1.858526170253753662e-01 -3.338363766670227051e-02 -5.902320742607116699e-01 -5.187878012657165527e-01 2.048567123711109161e-02 1.005183383822441101e-01 -5.030340552330017090e-01 2.418827861547470093e-01 -6.506814956665039062e-01 -3.348208367824554443e-01 -1.412901878356933594e-01 1.754030585289001465e-02 7.339003030210733414e-03 2.294344305992126465e-01 5.712736845016479492e-01 4.364570602774620056e-03 -4.942686855792999268e-02 -5.274654626846313477e-01 -1.183142289519309998e-01 -2.481743460521101952e-03 -5.468908231705427170e-03 3.230702579021453857e-01 2.455389946699142456e-01 4.084776341915130615e-01 -4.543873667716979980e-02 -3.559894561767578125e-01 -6.987939029932022095e-02 -5.500526726245880127e-02 -4.010456055402755737e-02 -5.642417073249816895e-01 1.135408654808998108e-01 3.892342746257781982e-01 -3.001721203327178955e-01 2.925559580326080322e-01 5.345274806022644043e-01 3.565395250916481018e-02 -3.565052896738052368e-02 4.295403063297271729e-01 -3.065276145935058594e-01 -3.160893023014068604e-01 -5.033161044120788574e-01 2.594783902168273926e-01 8.153919875621795654e-02 5.272400006651878357e-02 -1.425573080778121948e-01 2.688319087028503418e-01 -2.441460192203521729e-01 3.878581225872039795e-01 -6.508616209030151367e-01 9.282801300287246704e-02 4.905569925904273987e-02 -1.328534483909606934e-01 1.036746948957443237e-01 6.901789903640747070e-01 -4.335986450314521790e-02 -6.448796987533569336e-01 -1.653907895088195801e-01 4.586983472108840942e-02 6.940892934799194336e-01 5.430618673563003540e-02 1.292638331651687622e-01 5.945191979408264160e-01 -4.577591642737388611e-02 -2.832977101206779480e-02 -2.080529481172561646e-01 7.292043417692184448e-02 -2.478391528129577637e-01 4.499392583966255188e-03 1.744440197944641113e-01 -1.041657403111457825e-01 -4.242048040032386780e-02 2.923824191093444824e-01 6.364313364028930664e-01 -7.720961570739746094e-01 3.177327215671539307e-01 -2.894563078880310059e-01 -8.982782065868377686e-02 1.022804856300354004e+00 1.318952441215515137e-01 3.167743980884552002e-01
-2.972416579723358154e-01 -2.815117314457893372e-02 2.562041580677032471e-01 2.379661984741687775e-02 1.207320094108581543e-01 -5.545629262924194336e-01 1.061669707298278809e+00 -5.639413595199584961e-01 -4.752305522561073303e-02 -5.812765099108219147e-03 4.322171583771705627e-02 -1.442998051643371582e-01 2.178512141108512878e-02 9.621743857860565186e-02 -3.697792887687683105e-01 2.668716609477996826e-01 -4.369266629219055176e-01 -4.601328969001770020e-01 2.129749804735183716e-01 -3.855358362197875977e-01 2.047162130475044250e-02 1.234053969383239746e-01 -2.772909998893737793e-01 6.495490670204162598e-02 1.463929414749145508e-01 2.527563273906707764e-01 2.406158745288848877e-01 5.038231611251831055e-02 -3.323930501937866211e-01 -5.029491148889064789e-03 -1.995785906910896301e-02 -3.980680182576179504e-02 -2.999138960149139166e-04 4.705514386296272278e-02 -3.413959592580795288e-02 -3.581905066967010498e-01 -2.257098406553268433e-01 2.616018354892730713e-01 -2.822158634662628174e-01 -4.107286222279071808e-03 2.507430911064147949e-01 5.479745194315910339e-02 5.654152482748031616e-02 -1.673701554536819458e-01 -3.888803720474243164e-01 -2.541005313396453857e-01 4.602817296981811523e-01 2.761595249176025391e-01 -1.370456981658935547e+01 5.073025822639465332e-02 -4.773048684000968933e-03 2.453676611185073853e-01 -4.960447922348976135e-02 -1.586040295660495758e-02 3.356033563613891602e-02 2.665528655052185059e-01 2.811559438705444336e-01 -4.326139390468597412e-02 1.853586174547672272e-02 9.123004227876663208e-02 1.270995885133743286e-01 9.869035333395004272e-02 4.812653064727783203e-01 2.643072046339511871e-02 6.956742703914642334e-02 3.517227247357368469e-02 1.020855754613876343e-01 -6.956451386213302612e-02 1.749236881732940674e-02 1.043892800807952881e-01 -1.836266368627548218e-01 3.809980154037475586e-01 1.281072851270437241e-02 5.464487150311470032e-02 2.008471451699733734e-02 -2.015706598758697510e-01 -9.963917732238769531e-02 -3.086478821933269501e-02 -3.990517929196357727e-02 2.236665785312652588e-01 -1.407786905765533447e-01 6.931813806295394897e-02 -2.526265084743499756e-01 -7.443955540657043457e-02 2.556079998612403870e-02 1.685450412333011627e-02 -2.598538398742675781e-01 -8.824151039123535156e+00 5.098795145750045776e-02 2.503196895122528076e-01 3.761358559131622314e-01 -3.151477575302124023e-01 2.725235819816589355e-01 -6.400457769632339478e-02 3.334620967507362366e-02 -1.083174869418144226e-01 -5.962606668472290039e-01 -1.640003873035311699e-03 -2.686479687690734863e-01 1.072424724698066711e-01
9.572681039571762085e-02 1.493656784296035767e-01 -2.563613653182983398e-01 5.399966612458229065e-03 2.181066274642944336e-01 1.942417323589324951e-01 -3.081648945808410645e-01 -2.535338699817657471e-01 -9.430925548076629639e-02 -2.537471801042556763e-02 -2.707901224493980408e-02 6.419460475444793701e-02 -1.359335146844387054e-02 -1.785548180341720581e-01 -1.354677379131317139e-01 2.584064900875091553e-01 -2.777310609817504883e-01 -1.381347477436065674e-01 -1.104501187801361084e-01 2.139015197753906250e-01 -2.365929484367370605e-01 2.597838342189788818e-01 -1.022152379155158997e-01 -5.794942378997802734e-02 3.971172869205474854e-01 -1.982301324605941772e-01 2.985049784183502197e-01 1.484042266383767128e-03 -2.890013456344604492e-01 1.405731588602066040e-01 3.509647250175476074e-01 -8.984508924186229706e-03 1.717982697300612926e-03 2.322697453200817108e-02 -7.733197510242462158e-02 -4.030736745335161686e-04 8.977679163217544556e-02 2.283443696796894073e-03 1.363447587937116623e-02 2.773150568827986717e-03 1.285178661346435547e-01 1.029891893267631531e-01 1.200690567493438721e-01 -1.669539362192153931e-01 -4.190117493271827698e-02 -1.992590576410293579e-01 -3.148541450500488281e-01 -2.110299468040466309e-01 -1.500480808317661285e-02 1.086102873086929321e-01 -2.925496362149715424e-02 9.304893016815185547e-02 1.769707724452018738e-02 -1.213914602994918823e-01 7.878054678440093994e-02 1.831666678190231323e-01 -3.917955979704856873e-02 2.841721475124359131e-02 -9.834808856248855591e-02 -1.050415169447660446e-02 -6.153104454278945923e-02 -5.086614564061164856e-02 2.778527736663818359e-01 -3.812945634126663208e-02 -7.127171009778976440e-02 8.820735663175582886e-02 -8.516111224889755249e-02 -4.256259500980377197e-01 7.135270535945892334e-02 -8.547802269458770752e-02 4.793798327445983887e-01 4.528052806854248047e-01 1.276001334190368652e-01 5.482946336269378662e-02 -2.562048612162470818e-03 5.410605669021606445e-02 1.946012079715728760e-01 2.876976728439331055e-01 2.869561910629272461e-01 -1.146080568432807922e-01 -3.918994367122650146e-01 1.709043383598327637e-01 -6.206658482551574707e-01 6.699092686176300049e-02 1.514542698860168457e-01 1.270187646150588989e-01 -2.060363888740539551e-01 8.333288878202438354e-02 4.599336534738540649e-02 -3.050968348979949951e-01 7.188483476638793945e-01 -6.113077327609062195e-02 -6.636530160903930664e-01 -2.209873311221599579e-02 -1.619463860988616943e-01 2.843851223587989807e-02 1.213287655264139175e-02 -3.082523867487907410e-02 -1.051951721310615540e-01 -1.255170628428459167e-02
-2.179645895957946777e-01 1.000798419117927551e-01 -1.157294064760208130e-01 -1.092769056558609009e-01 -2.291426360607147217e-01 -2.866905629634857178e-01 1.537127234041690826e-02 4.178746417164802551e-02 9.908016026020050049e-02 1.648757904767990112e-01 3.312516212463378906e-01 -5.036759972572326660e-01 1.411368250846862793e-01 1.654300540685653687e-01 -4.342440888285636902e-02 -5.159590840339660645e-01 1.170886084437370300e-01 4.102024435997009277e-02 2.557134628295898438e-01 2.958078086376190186e-01 -7.976505905389785767e-02 1.824944019317626953e-01 -2.479212284088134766e-01 -3.064500093460083008e-01 7.544031832367181778e-03 -3.243781253695487976e-02 -1.388440933078527451e-02 -5.896465182304382324e-01 2.013403922319412231e-01 1.366485506296157837e-01 1.164101362228393555e-01 -2.759026130661368370e-03 2.302247565239667892e-03 1.979063265025615692e-02 1.453493684530258179e-01 6.835066527128219604e-02 -6.104191541671752930e-01 -6.281279325485229492e-01 1.096467003226280212e-01 1.904037431813776493e-03 1.412140280008316040e-01 -1.573984473943710327e-01 -3.543995618820190430e-01 8.077199570834636688e-03 3.266949057579040527e-01 6.710696220397949219e-02 1.086108461022377014e-01 1.103900074958801270e-01 2.669693529605865479e-02 1.047915369272232056e-01 -2.681941688060760498e-01 1.617719978094100952e-01 -1.241006050258874893e-02 1.133392229676246643e-01 8.261355757713317871e-02 2.011895179748535156e-02 -1.045625563710927963e-02 -4.688432440161705017e-03 4.865163564682006836e-02 2.270324528217315674e-01 -2.726600877940654755e-02 9.231118857860565186e-02 -2.035599015653133392e-02 -6.426365673542022705e-02 4.838915914297103882e-02 6.619940698146820068e-02 2.720581553876399994e-02 -2.707197666168212891e-01 -8.286840468645095825e-02 5.653562024235725403e-02 2.026144415140151978e-01 1.030506268143653870e-01 -1.960249245166778564e-01 -9.334456920623779297e-02 1.546742673963308334e-02 4.223971366882324219e-01 3.249584734439849854e-01 7.651263475418090820e-02 3.215187191963195801e-01 1.066612303256988525e-01 -1.738508343696594238e-01 -1.423811465501785278e-01 -8.008687198162078857e-02 -4.478818923234939575e-02 3.237179666757583618e-02 -9.349539130926132202e-02 1.960468590259552002e-01 -2.549282610416412354e-01 -2.750832736492156982e-01 -5.556010082364082336e-02 3.472310304641723633e-01 1.438679546117782593e-01 2.560610473155975342e-01 2.605336718261241913e-02 9.434089995920658112e-03 -1.829513348639011383e-02 -3.227394074201583862e-02 2.211650274693965912e-02 -5.078018307685852051e-01 1.398200448602437973e-02
-5.400560423731803894e-02 4.084365367889404297e-01 1.426461189985275269e-01 -7.853507995605468750e-02 -4.478038474917411804e-02 1.438144892454147339e-01 -2.662187255918979645e-02 5.225953832268714905e-02 4.591500852257013321e-03 4.049992561340332031e-02 -1.723564863204956055e-01 6.185780093073844910e-02 5.551278591156005859e-02 -6.431493163108825684e-01 -5.912466719746589661e-02 1.851756423711776733e-01 4.684202671051025391e-01 1.294088214635848999e-01 2.030616104602813721e-01 -7.998472452163696289e-02 1.203598082065582275e-01 1.915875524282455444e-01 -1.279426932334899902e+00 2.293089777231216431e-01 -4.018641710281372070e-01 -1.951280087232589722e-01 1.438845396041870117e-01 8.940373361110687256e-02 2.929473817348480225e-01 -3.260160684585571289e-01 1.873907595872879028e-01 -9.234564006328582764e-02 -7.208890281617641449e-03 -2.233566343784332275e-02 9.579441696405410767e-02 -1.620073616504669189e-01 -1.484352231025695801e+00 4.537823498249053955e-01 1.233874037861824036e-01 -2.278989413753151894e-03 -3.345385491847991943e-01 -1.835393011569976807e-01 -2.859338819980621338e-01 -3.291146159172058105e-01 5.996796861290931702e-02 -1.226168251037597656e+01 -2.168098650872707367e-02 1.528610140085220337e-01 -5.152872800827026367e-01 5.411621183156967163e-03 1.436458826065063477e-01 3.517220616340637207e-01 -6.581071019172668457e-02 1.856958866119384766e-01 -1.741220802068710327e-01 -5.828110128641128540e-02 -3.667648732662200928e-01 7.621699944138526917e-03 1.481004655361175537e-01 2.442137748003005981e-01 -2.365152835845947266e-01 -1.722862757742404938e-02 -2.245318889617919922e-01 1.375779211521148682e-01 4.445382952690124512e-01 7.719857245683670044e-02 -1.410075873136520386e-01 3.130402863025665283e-01 -1.677957028150558472e-01 1.883875280618667603e-01 -2.900927364826202393e-01 -2.073177695274353027e-02 2.952683269977569580e-01 -1.201479360461235046e-01 1.233962997794151306e-01 -1.076250746846199036e-01 7.986408472061157227e-01 2.369892746210098267e-01 -1.649232804775238037e-01 -4.672004878520965576e-01 6.003231555223464966e-02 -5.473592504858970642e-02 -6.767094135284423828e-02 -1.162602379918098450e-01 5.804428458213806152e-02 2.572801411151885986e-01 1.657565869390964508e-02 4.984367191791534424e-01 -2.854041056707501411e-03 -1.785480231046676636e-01 1.628244817256927490e-01 -3.667041361331939697e-01 2.404357433319091797e+00 3.085852973163127899e-02 -3.923123478889465332e-01 -2.204814404249191284e-01 4.349350929260253906e-01 -8.308210968971252441e-02 2.354068756103515625e-01 2.231835573911666870e-01
-3.201122581958770752e-01 2.099928855895996094e-01 -1.187858656048774719e-01 -3.536630049347877502e-02 -5.869826301932334900e-02 -3.494833409786224365e-02 1.870165579020977020e-02 -3.276734054088592529e-01 -1.370646618306636810e-02 2.746837213635444641e-03 -1.119173038750886917e-02 -6.743779778480529785e-02 3.991116583347320557e-02 -4.595323801040649414e-01 -1.424444466829299927e-01 -7.587487995624542236e-02 9.901192784309387207e-02 -2.514460384845733643e-01 -5.662660673260688782e-02 1.500808913260698318e-02 3.997815307229757309e-03 -2.522713243961334229e-01 3.373235836625099182e-02 1.786141991615295410e-01 -2.693732380867004395e-01 2.165047526359558105e-01 2.476210473105311394e-03 8.517333865165710449e-02 1.467020362615585327e-01 -1.552080661058425903e-01 2.999779284000396729e-01 5.265547335147857666e-02 -3.099669236689805984e-03 8.985381573438644409e-03 -1.219865605235099792e-01 2.958845198154449463e-01 2.813269495964050293e-01 2.372507899999618530e-01 1.466880589723587036e-01 -1.610018545761704445e-03 1.248897537589073181e-01 3.203840553760528564e-02 -1.480180583894252777e-02 4.779308289289474487e-02 -8.039817214012145996e-03 2.842782735824584961e-01 4.262660816311836243e-02 -8.862894028425216675e-02 1.588859856128692627e-01 1.483736634254455566e-01 3.084851056337356567e-02 3.565650060772895813e-02 2.372867241501808167e-02 4.206900298595428467e-02 -1.924522519111633301e-01 -3.344523012638092041e-01 -8.857021480798721313e-02 -9.483905509114265442e-03 -2.144065946340560913e-01 6.666684150695800781e-02 -6.565201282501220703e-02 1.650803908705711365e-02 -8.485047519207000732e-02 3.072177618741989136e-02 2.262330353260040283e-01 2.729022502899169922e-02 2.838363647460937500e-01 3.457865864038467407e-02 5.352628976106643677e-02 4.319465532898902893e-02 6.447836011648178101e-02 4.208558052778244019e-02 -2.588494122028350830e-02 -1.961304992437362671e-02 -5.674371495842933655e-02 -2.866102196276187897e-02 -8.979137986898422241e-03 -1.917723380029201508e-02 6.148438900709152222e-02 -1.336289048194885254e-01 7.238395512104034424e-02 8.575563132762908936e-02 7.959326356649398804e-02 3.096645511686801910e-02 1.957249827682971954e-02 -5.083071812987327576e-02 -1.914871186017990112e-01 -1.279786825180053711e-01 -1.515962481498718262e-01 9.595783799886703491e-02 -1.109156534075737000e-01 7.370241452008485794e-03 1.104261949658393860e-01 -1.424021124839782715e-01 2.405194006860256195e-02 -2.868369966745376587e-02 -1.737421751022338867e-02 -1.064593717455863953e-02 3.347029089927673340e-01 1.694270037114620209e-02
2.422038279473781586e-02 8.906891569495201111e-03 1.805443316698074341e-02 -7.820525206625461578e-03 3.601149655878543854e-03 4.641373828053474426e-02 4.236766695976257324e-02 2.293181046843528748e-02 -1.462632883340120316e-02 1.733790896832942963e-02 -3.120886627584695816e-03 -8.779969997704029083e-03 6.529812701046466827e-03 1.874746382236480713e-02 4.693087935447692871e-02 -3.054836764931678772e-02 1.584959961473941803e-02 -3.575023636221885681e-02 -1.729000732302665710e-02 -2.170532755553722382e-02 -1.377502270042896271e-02 1.353358924388885498e-01 2.383289858698844910e-02 -1.798900589346885681e-02 -2.284452691674232483e-02 2.250718325376510620e-02 -1.323589938692748547e-03 -7.200931757688522339e-02 -5.582579877227544785e-03 -1.191445998847484589e-02 3.794639185070991516e-02 1.262330636382102966e-02 2.679207536857575178e-04 7.805426605045795441e-03 -8.235040120780467987e-03 1.268790569156408310e-02 2.103043645620346069e-01 -1.529511343687772751e-02 -3.483714535832405090e-02 -2.883004760742187500e+01 3.150836378335952759e-02 -2.390038035809993744e-02 -5.020730197429656982e-02 -1.740250922739505768e-02 4.655092582106590271e-02 -1.784761622548103333e-02 -4.128852859139442444e-02 -3.086717426776885986e-02 -1.047695148736238480e-02 -4.075712710618972778e-02 -9.842463769018650055e-03 -1.075127813965082169e-02 1.914127846248447895e-03 1.282310951501131058e-02 -7.254552561789751053e-03 -1.628411263227462769e-01 -6.247921288013458252e-02 9.242785163223743439e-03 -1.703196763992309570e-02 3.011366538703441620e-02 -4.323746263980865479e-02 -2.162649296224117279e-02 -2.996439347043633461e-03 2.371471375226974487e-03 -2.255361340939998627e-02 3.813901683315634727e-03 -2.040554024279117584e-02 1.539202034473419189e-02 -4.858865286223590374e-04 -2.322547137737274170e-02 3.127056872472167015e-03 9.785648435354232788e-03 1.508733723312616348e-02 -3.047002945095300674e-03 -1.235704962164163589e-02 -1.352999970549717546e-04 6.133379414677619934e-03 -2.513884752988815308e-02 2.406398067250847816e-03 -8.897769264876842499e-03 5.925401113927364349e-03 -3.386004827916622162e-03 3.708055615425109863e-02 1.496345922350883484e-02 -1.225476711988449097e-01 -1.908676116727292538e-03 -2.876850031316280365e-02 1.381397992372512817e-02 3.755495324730873108e-02 4.071434959769248962e-02 -2.943294867873191833e-02 1.598979905247688293e-02 4.897482320666313171e-02 -9.071978740394115448e-03 4.437631927430629730e-03 -6.131967995315790176e-03 -3.563840687274932861e-02 -9.417504072189331055e-03 -4.734492860734462738e-03 7.763912901282310486e-03
-5.991253376007080078e+00 -2.234812527894973755e-01 1.746201217174530029e-01 -2.527420595288276672e-02 -2.900312244892120361e-01 -1.077489256858825684e-01 -7.530138492584228516e-01 -3.880615159869194031e-02 6.444367021322250366e-02 1.475138589739799500e-02 1.300777196884155273e-01 1.651755571365356445e-01 5.725496634840965271e-02 -4.295699670910835266e-02 -4.235483705997467041e-01 1.540574580430984497e-01 -2.288864254951477051e-01 -5.356432497501373291e-02 2.633753418922424316e-01 1.534085273742675781e-01 2.594500482082366943e-01 1.208694726228713989e-01 -2.326493710279464722e-01 6.233392283320426941e-02 1.121841818094253540e-01 4.820429161190986633e-02 -2.980834543704986572e-01 -4.278838634490966797e-02 2.541466236114501953e+00 3.287354409694671631e-01 3.016655743122100830e-01 -3.031773306429386139e-02 -4.391573369503021240e-03 -8.051670342683792114e-02 -1.063864529132843018e-01 1.433833539485931396e-01 6.355723738670349121e-02 -2.290253937244415283e-01 1.798030585050582886e-01 2.183336328016594052e-04 2.634865045547485352e-01 -8.069905042648315430e-01 -1.378878206014633179e-01 -2.298012256622314453e+00 -2.144411057233810425e-01 -1.997115164995193481e-01 2.575899064540863037e-01 1.508621871471405029e-02 -5.934567004442214966e-02 4.546491801738739014e-02 -4.036895632743835449e-01 1.987807154655456543e-01 4.815876483917236328e-01 1.260552853345870972e-01 6.187308579683303833e-02 -2.311289757490158081e-01 9.565477073192596436e-02 -5.646819472312927246e-01 -6.346463412046432495e-02 1.528366953134536743e-01 1.181700527667999268e-01 1.092085242271423340e-01 -1.395723968744277954e-01 -3.533390462398529053e-01 -1.951394975185394287e-02 2.708151340484619141e-01 6.695209145545959473e-01 -1.128294244408607483e-01 6.934119462966918945e-01 1.109365224838256836e-01 -2.044298797845840454e-01 6.005840376019477844e-02 -1.589034646749496460e-01 -1.828788369894027710e-01 -4.422893398441374302e-04 -1.936537027359008789e-01 7.193832844495773315e-02 2.569184303283691406e-01 -3.109200000762939453e-01 7.681303471326828003e-02 2.823507487773895264e-01 2.712963521480560303e-01 -4.072046279907226562e-02 -3.656662404537200928e-01 1.529426896013319492e-03 -3.071087971329689026e-02 -2.504823207855224609e-01 -1.480449289083480835e-01 -7.813549786806106567e-02 1.277522891759872437e-01 -1.730421036481857300e-01 -2.133564502000808716e-01 -7.775195688009262085e-02 -5.816763639450073242e-01 -2.648779153823852539e-01 1.958379596471786499e-01 2.037257403135299683e-01 -8.353556692600250244e-02 2.437432706356048584e-01 -2.451778352260589600e-01
-2.578517198562622070e-01 1.783623546361923218e-02 -1.195653453469276428e-01 6.339490413665771484e-02 -4.711498692631721497e-02 -1.008089706301689148e-01 9.340359270572662354e-02 1.721245236694812775e-02 4.881967604160308838e-02 -1.004721447825431824e-01 9.111793339252471924e-02 -3.859149217605590820e-01 -7.188732177019119263e-02 5.219696834683418274e-02 -7.053969055414199829e-02 -3.059852169826626778e-03 1.995461285114288330e-01 7.568750530481338501e-02 1.733915805816650391e-01 -1.621770113706588745e-01 3.053057566285133362e-02 6.224633753299713135e-02 -5.595842748880386353e-02 -8.195990324020385742e-02 6.983840465545654297e-02 1.689967066049575806e-01 6.060038879513740540e-02 1.552867293357849121e-01 1.132680177688598633e-01 1.302283164113759995e-02 -4.385655224323272705e-01 -2.444046735763549805e-02 6.063564214855432510e-04 -4.947947803884744644e-03 4.555250331759452820e-02 1.711511611938476562e-01 3.512580394744873047e-01 1.045555174350738525e-01 2.222876846790313721e-01 2.383509185165166855e-03 1.723534762859344482e-01 1.506196856498718262e-01 -2.684061229228973389e-01 -1.348307728767395020e-01 9.485314786434173584e-02 -1.365616321563720703e-01 -9.459250420331954956e-02 1.061214804649353027e-01 -7.779730856418609619e-02 -4.594495519995689392e-02 -1.540872007608413696e-01 -1.212972924113273621e-01 -3.371125552803277969e-03 -1.175873652100563049e-01 -1.594439707696437836e-02 -8.709102869033813477e-02 9.671257436275482178e-02 -1.187960430979728699e-01 -2.164062708616256714e-01 2.151628434658050537e-01 2.047523669898509979e-02 -8.564256876707077026e-02 -7.330701500177383423e-02 3.905379027128219604e-02 1.193823218345642090e-01 -9.652091562747955322e-02 3.971666097640991211e-02 -5.344164371490478516e-02 -1.969185285270214081e-02 -3.130749464035034180e-01 -1.496595051139593124e-02 -9.447529911994934082e-02 1.229246240109205246e-02 1.264536976814270020e-01 2.050581574440002441e-02 6.656489521265029907e-02 1.368405371904373169e-01 -2.405384480953216553e-01 9.238551557064056396e-02 2.597657218575477600e-02 -6.550639122724533081e-02 -2.544310390949249268e-01 3.249629586935043335e-02 5.158204585313796997e-02 1.472721844911575317e-01 4.966799635440111160e-03 1.167910248041152954e-01 -3.589214757084846497e-02 2.806050181388854980e-01 -1.382506638765335083e-01 9.613896906375885010e-02 -7.399222999811172485e-02 1.130740717053413391e-01 -1.007808223366737366e-01 -1.073699165135622025e-02 -4.711587727069854736e-02 2.232261374592781067e-02 4.753795638680458069e-02 2.853983938694000244e-01 5.311040207743644714e-02
-6.163613498210906982e-02 1.962817311286926270e-01 -4.973024874925613403e-02 -3.899173438549041748e-02 -4.351963698863983154e-01 -1.416835635900497437e-01 1.355475187301635742e-01 -1.111211404204368591e-01 -9.917494654655456543e-02 -8.350034803152084351e-02 2.388731203973293304e-02 9.084481000900268555e-02 3.350520133972167969e-02 -2.308615483343601227e-02 -3.374966979026794434e-02 1.525091826915740967e-01 -2.818513661623001099e-02 -6.410198658704757690e-02 -6.122678518295288086e-02 -2.201317250728607178e-02 2.596152201294898987e-02 1.568082161247730255e-02 -7.020555902272462845e-03 1.608911603689193726e-01 1.652382686734199524e-02 -7.474450394511222839e-03 3.045507371425628662e-01 -1.575711518526077271e-01 2.037072032690048218e-01 -1.174548733979463577e-02 -1.884146481752395630e-01 2.787761203944683075e-02 2.009917749091982841e-03 -2.047943472862243652e-01 -5.744076147675514221e-02 1.870004683732986450e-01 3.460234701633453369e-01 1.455471366643905640e-01 1.380797028541564941e-01 -6.433660746552050114e-04 -7.503690570592880249e-02 -1.648340187966823578e-02 3.108477964997291565e-02 -8.377983421087265015e-02 -9.894499927759170532e-02 9.136285632848739624e-03 3.925270959734916687e-02 -1.543320268392562866e-01 2.047573029994964600e-01 9.492184966802597046e-02 -8.071827143430709839e-02 1.935289055109024048e-02 -3.541770204901695251e-02 -1.782028526067733765e-01 1.183733195066452026e-01 -6.706678867340087891e-02 1.482286751270294189e-01 -1.826744973659515381e-01 -8.074054121971130371e-02 -1.343383044004440308e-01 2.051250040531158447e-01 2.424141578376293182e-02 1.216262727975845337e-01 7.188919186592102051e-02 -2.266021072864532471e-02 -9.064669720828533173e-03 2.160284370183944702e-01 -2.448802739381790161e-01 7.745263725519180298e-02 -2.519921362400054932e-01 -2.148663438856601715e-02 7.203255780041217804e-03 -9.648853540420532227e-02 -2.701038680970668793e-02 -1.184865366667509079e-02 8.208400569856166840e-03 1.017805635929107666e-01 1.325543224811553955e-01 8.409846574068069458e-02 1.287847906351089478e-01 7.321425527334213257e-02 -3.590280935168266296e-02 -1.776930876076221466e-02 3.104698099195957184e-02 1.708379685878753662e-01 -1.071503385901451111e-01 -1.143364161252975464e-01 6.978339701890945435e-02 -7.427278906106948853e-02 -2.171685993671417236e-01 -2.973125874996185303e-01 9.455832093954086304e-02 -6.337210536003112793e-02 4.569752514362335205e-02 2.956556081771850586e-01 1.300724893808364868e-01 5.687017459422349930e-03 -8.946169912815093994e-02 -2.826110720634460449e-01 -8.430324494838714600e-02
-3.079335987567901611e-01 -4.032548964023590088e-01 3.231259807944297791e-02 6.058984994888305664e-02 3.411123901605606079e-02 5.943903326988220215e-02 7.691826671361923218e-02 8.861285448074340820e-02 -2.122315950691699982e-02 1.242842152714729309e-01 -2.235302925109863281e-01 -3.324961662292480469e-01 -5.910656228661537170e-02 2.423020601272583008e-01 8.969460427761077881e-02 -9.538707137107849121e-02 9.773969650268554688e-02 -7.074552029371261597e-02 1.059834733605384827e-01 -9.351687878370285034e-02 3.971856459975242615e-02 4.964288696646690369e-02 -1.102091744542121887e-01 -1.329035311937332153e-01 3.393783792853355408e-02 -5.137389898300170898e-02 1.264666765928268433e-01 1.054089982062578201e-02 -9.585100412368774414e-02 1.549794673919677734e-01 -3.581916093826293945e-01 6.156675145030021667e-02 6.902766181156039238e-04 -7.032615691423416138e-02 2.639749944210052490e-01 1.710424721240997314e-01 6.204133853316307068e-02 -1.600588113069534302e-01 3.163157030940055847e-03 -2.098134718835353851e-03 -3.357489109039306641e-01 -9.904929995536804199e-02 -8.534371852874755859e-02 1.437465846538543701e-01 6.060063093900680542e-02 -4.587994813919067383e-01 1.011871248483657837e-01 9.849940985441207886e-02 8.814139664173126221e-02 -1.810447573661804199e-01 -6.255754083395004272e-02 1.119385100901126862e-02 6.691301614046096802e-02 4.467023015022277832e-01 2.553290128707885742e-01 -4.209749028086662292e-02 1.378370523452758789e-01 -1.217601075768470764e-01 -3.069586157798767090e-01 1.352759003639221191e-01 1.893001049757003784e-01 -1.313303858041763306e-01 -1.595448255538940430e-01 -4.826716333627700806e-02 5.957577750086784363e-02 2.034817785024642944e-01 -3.258325904607772827e-02 -6.433947384357452393e-02 -1.127120256423950195e-01 -1.124963909387588501e-01 -4.192751646041870117e-02 1.855382323265075684e-01 -3.689608350396156311e-02 7.663940638303756714e-02 -6.978537142276763916e-02 6.468693166971206665e-02 4.203701019287109375e-02 1.658706068992614746e-01 -1.154376566410064697e-01 2.419825196266174316e-01 3.968930337578058243e-03 3.322134613990783691e-01 9.160622023046016693e-03 -2.275314778089523315e-01 2.539118528366088867e-01 -1.231077499687671661e-02 -1.717715561389923096e-01 -5.775923281908035278e-02 4.499235004186630249e-02 -7.629203796386718750e-02 -3.677218556404113770e-01 4.904386401176452637e-02 -3.463112115859985352e-01 -5.677383020520210266e-02 -4.139113426208496094e-02 9.388788789510726929e-02 9.975072741508483887e-02 7.166358828544616699e-02 -1.544050499796867371e-02 -6.923527270555496216e-02
1.988104432821273804e-01 1.187469884753227234e-01 -3.847087547183036804e-02 -1.188150942325592041e-01 -2.959927320480346680e-01 8.027933239936828613e-01 -1.140241846442222595e-01 3.432305753231048584e-01 -7.166861742734909058e-02 -1.476556807756423950e-01 -7.457275390625000000e-01 -1.017516776919364929e-01 1.697877794504165649e-01 4.345177114009857178e-02 1.693251729011535645e-01 1.339492946863174438e-01 -3.654225468635559082e-01 5.931971463724039495e-05 -8.456394821405410767e-02 -1.726567298173904419e-01 1.999478638172149658e-01 1.173987984657287598e-01 -2.263031750917434692e-01 -1.147904992103576660e-01 9.618024528026580811e-02 1.221508905291557312e-01 -3.036038205027580261e-02 -5.225839614868164062e-01 4.424634948372840881e-02 7.957638800144195557e-02 -8.775789290666580200e-02 -5.082807689905166626e-02 -4.956239368766546249e-03 -5.739668756723403931e-02 6.107456237077713013e-02 5.170910805463790894e-02 1.008308306336402893e-01 -6.405061110854148865e-03 1.660600900650024414e-01 8.331708377227187157e-04 -1.377218067646026611e-01 1.383496224880218506e-01 8.181709796190261841e-02 -5.396769642829895020e-01 -4.467793107032775879e-01 -9.711546450853347778e-02 -5.859508365392684937e-02 1.785133928060531616e-01 7.812982797622680664e-02 4.557820968329906464e-03 6.837754510343074799e-03 -5.024359822273254395e-01 1.117129996418952942e-02 -1.310900896787643433e-01 2.521638572216033936e-01 -8.037228882312774658e-02 2.460047453641891479e-01 8.408760279417037964e-02 -1.304509788751602173e-01 -1.016852334141731262e-01 -3.704832866787910461e-02 -1.164882630109786987e-02 9.157960861921310425e-02 1.216274127364158630e-02 3.426325321197509766e-01 6.064790859818458557e-02 3.241751715540885925e-02 -9.456860274076461792e-02 -1.241409331560134888e-01 1.166488602757453918e-01 -1.586606055498123169e-01 1.166378408670425415e-01 -8.303780853748321533e-02 1.253670454025268555e-01 4.257030412554740906e-02 -4.972951114177703857e-02 2.848094403743743896e-01 -7.724885642528533936e-02 6.139255687594413757e-02 6.592042744159698486e-02 -1.029314622282981873e-01 5.628188326954841614e-02 6.990309059619903564e-02 1.321231424808502197e-01 1.032478362321853638e-01 -1.468387804925441742e-02 -1.616969555616378784e-01 -7.810229808092117310e-02 -1.646857857704162598e-01 -1.920435577630996704e-02 -2.491098269820213318e-02 -2.803095877170562744e-01 -4.236700832843780518e-01 -4.966835491359233856e-03 -1.216116249561309814e-01 4.158195480704307556e-02 1.504312455654144287e-01 -5.973251536488533020e-02 -7.369947433471679688e-02 -2.715008333325386047e-02
1.129719167947769165e-01 3.242159634828567505e-02 -5.254796892404556274e-02 -7.940278947353363037e-02 -3.788030147552490234e-02 7.772425562143325806e-02 2.864156365394592285e-01 -9.889138489961624146e-02 -4.881418496370315552e-02 -1.556518077850341797e-01 -8.499830961227416992e-02 -2.518485188484191895e-01 7.802629470825195312e-02 6.782560795545578003e-02 -3.152153640985488892e-02 -7.105833292007446289e-02 2.668271958827972412e-01 -9.101740270853042603e-02 -9.409456700086593628e-02 -2.264379709959030151e-01 -1.203323304653167725e-01 2.764322161674499512e-01 7.989504933357238770e-02 6.186550855636596680e-02 -5.865662172436714172e-02 -1.983232945203781128e-01 6.397718936204910278e-02 3.469516336917877197e-02 6.321679800748825073e-02 -2.255106419324874878e-01 -8.965665847063064575e-02 1.509281545877456665e-01 -7.043949444778263569e-04 2.980575338006019592e-02 -3.426088765263557434e-02 1.813678592443466187e-01 -2.813054015859961510e-03 2.438969723880290985e-02 -1.929232925176620483e-01 6.881186855025589466e-04 -5.060128569602966309e-01 9.874171577394008636e-03 1.045523304492235184e-02 -1.187783926725387573e-01 -2.042931877076625824e-02 -4.827931895852088928e-02 2.328935861587524414e-01 1.561280936002731323e-01 -1.008512526750564575e-01 1.153296008706092834e-01 1.289430167526006699e-02 -7.470305263996124268e-02 -9.042887389659881592e-02 4.631033912301063538e-02 -1.519043650478124619e-02 2.563427202403545380e-02 6.635211408138275146e-02 -3.537314478307962418e-04 -1.882899366319179535e-02 1.274256855249404907e-01 2.001214399933815002e-02 -5.709026008844375610e-02 2.500762939453125000e-01 2.720096148550510406e-02 -1.231199279427528381e-01 -1.393187791109085083e-01 -1.881619915366172791e-02 1.693874411284923553e-02 1.060931570827960968e-02 -1.906403750181198120e-01 -4.346053674817085266e-02 8.341706544160842896e-02 5.791350081562995911e-02 5.399311333894729614e-02 -1.463551372289657593e-01 -1.405031085014343262e-01 5.590879172086715698e-02 -1.141470298171043396e-01 -6.205764040350914001e-02 2.592890560626983643e-01 2.990837693214416504e-01 -1.115432232618331909e-01 3.485990315675735474e-02 2.539704367518424988e-02 1.463776528835296631e-01 7.236265391111373901e-02 -9.675492346286773682e-02 -2.852942943572998047e-01 1.701143532991409302e-01 4.309059586375951767e-04 3.006338179111480713e-01 1.349532008171081543e-01 8.693650364875793457e-01 -7.609129697084426880e-02 -1.484468579292297363e-01 4.349778220057487488e-02 2.700355835258960724e-03 -6.267039477825164795e-02 -2.296293526887893677e-02 -8.763815276324748993e-03
1.316333413124084473e-01 2.428421378135681152e-01 2.687501013278961182e-01 -4.829809069633483887e-02 2.637778222560882568e-01 1.242560055106878281e-02 -1.720008999109268188e-01 -1.294774413108825684e-01 3.246105462312698364e-02 -2.426257170736789703e-02 6.032086536288261414e-02 -2.321232557296752930e-01 5.464630201458930969e-02 -1.092121750116348267e-02 -1.357441097497940063e-01 -9.963905066251754761e-02 -7.320901006460189819e-02 1.431526243686676025e-01 4.344249367713928223e-01 2.492252141237258911e-01 -2.836994454264640808e-02 9.149600565433502197e-02 -2.098087221384048462e-01 -3.066736087203025818e-02 6.007356569170951843e-02 9.581971913576126099e-02 5.394168943166732788e-02 1.720397621393203735e-01 -5.055856704711914062e-02 -2.127163810655474663e-03 -5.716459080576896667e-02 1.941061764955520630e-02 -1.955279847607016563e-03 -7.865384221076965332e-03 -2.593285441398620605e-01 2.054038643836975098e-01 4.221588745713233948e-02 -1.599079072475433350e-01 1.372275203466415405e-01 5.489022005349397659e-04 -8.386081457138061523e-02 6.241604313254356384e-02 -2.898089587688446045e-02 4.551019147038459778e-02 2.623514831066131592e-01 -2.393054366111755371e-01 2.301270700991153717e-02 -6.301818042993545532e-02 -8.816339820623397827e-02 1.521726995706558228e-01 1.259492337703704834e-01 -7.155365496873855591e-02 -2.342505007982254028e-02 -1.206091344356536865e-01 1.165886372327804565e-01 -7.348320633172988892e-02 1.656274497509002686e-02 -2.187926508486270905e-02 1.386040896177291870e-01 1.432253122329711914e-01 1.282160580158233643e-01 -1.696979552507400513e-01 1.220839247107505798e-01 4.382428526878356934e-02 -9.605249017477035522e-02 -2.393125444650650024e-01 4.773483052849769592e-02 1.149141862988471985e-01 1.022566631436347961e-01 9.940122254192829132e-03 -8.587430231273174286e-03 -1.399122774600982666e-01 4.523812234401702881e-02 5.277109891176223755e-02 -1.779054477810859680e-02 4.826616961508989334e-03 -9.721285849809646606e-02 -9.992934018373489380e-02 -2.415028028190135956e-02 -2.485865205526351929e-01 -3.864714503288269043e-02 2.872620709240436554e-02 -1.304958909749984741e-01 -3.017281927168369293e-02 2.652120031416416168e-02 8.594012260437011719e-02 -3.563313186168670654e-01 -1.935820579528808594e-01 -4.548992514610290527e-01 -3.043264746665954590e-01 1.114687845110893250e-01 -5.316956713795661926e-02 -1.807000935077667236e-01 -5.402651615440845490e-03 -2.055962570011615753e-02 -3.861566632986068726e-02 1.935593038797378540e-02 -1.246056109666824341e-01 9.693671017885208130e-03 4.009335115551948547e-02
2.899971008300781250e-01 -2.498525977134704590e-01 2.542299404740333557e-02 2.719727903604507446e-02 -1.151896864175796509e-01 -4.477962851524353027e-01 1.806369572877883911e-01 -8.972872048616409302e-02 1.452789306640625000e-01 -9.134279191493988037e-02 8.847178518772125244e-02 -3.926487565040588379e-01 4.348615556955337524e-02 6.237868219614028931e-02 -2.261747047305107117e-02 -1.383621692657470703e-01 2.747514843940734863e-01 -8.022546023130416870e-02 -2.860699295997619629e-01 3.163829147815704346e-01 1.826029717922210693e-01 2.550341486930847168e-01 -1.939684748649597168e-01 -3.903423547744750977e-01 2.020784616470336914e-01 3.019879944622516632e-02 1.837845742702484131e-01 -1.013822760432958603e-02 2.998134493827819824e-01 3.942380249500274658e-01 2.631912007927894592e-02 -8.380069397389888763e-03 1.983967376872897148e-03 7.071906328201293945e-02 3.554089367389678955e-01 -2.515946701169013977e-02 1.416151691228151321e-02 -3.430687487125396729e-01 1.458461210131645203e-02 1.551265828311443329e-03 -8.156909793615341187e-02 -6.447878479957580566e-02 5.759201012551784515e-03 3.914793953299522400e-02 4.100283980369567871e-02 2.309973537921905518e-01 2.243950068950653076e-01 1.703004091978073120e-01 2.993457019329071045e-01 2.312582172453403473e-02 -2.323974967002868652e-01 2.902339100837707520e-01 1.101230680942535400e-01 -1.384445428848266602e-01 -2.029815167188644409e-01 -9.857608377933502197e-02 -6.942845880985260010e-02 1.739407181739807129e-01 -1.728120744228363037e-01 1.017584577202796936e-01 -1.811426430940628052e-01 3.092611432075500488e-01 -1.961549520492553711e-01 -5.939454305917024612e-03 1.093047037720680237e-01 4.446336030960083008e-01 -3.904286324977874756e-01 3.829439729452133179e-02 -1.506242901086807251e-01 -3.060363233089447021e-01 -3.445990383625030518e-02 2.933791279792785645e-01 -2.149255424737930298e-01 -2.391985207796096802e-01 1.258656615391373634e-03 1.741540431976318359e-02 3.355600684881210327e-02 3.347845375537872314e-01 -3.917339444160461426e-01 1.263336092233657837e-01 -2.952871918678283691e-01 -1.157933250069618225e-01 -3.160956548526883125e-03 -1.871727406978607178e-02 3.084255754947662354e-01 -5.273328348994255066e-02 -3.038389384746551514e-01 -1.339634656906127930e-01 -3.838844895362854004e-01 -1.034831255674362183e-01 4.599124193191528320e-01 -3.232908546924591064e-01 3.534602820873260498e-01 -6.955605000257492065e-02 -2.669513523578643799e-01 6.475883722305297852e-02 -2.429918199777603149e-01 1.816441267728805542e-01 9.187010675668716431e-02 -2.257722802460193634e-02
-1.949056982994079590e-01 -2.146431654691696167e-01 -1.078462153673171997e-01 6.731510907411575317e-02 -5.702756643295288086e-01 3.274270296096801758e-01 1.952990889549255371e-01 -5.432068929076194763e-02 -2.868055365979671478e-02 -4.006034508347511292e-02 -2.677374184131622314e-01 2.285448908805847168e-01 -7.014316320419311523e-02 1.994759440422058105e-01 1.347570121288299561e-01 -2.915702462196350098e-01 -6.788961123675107956e-03 1.461678445339202881e-01 -7.537579536437988281e-01 4.726940393447875977e-02 2.268563583493232727e-02 -7.967599481344223022e-02 9.016716480255126953e-02 2.713193297386169434e-01 7.033390458673238754e-03 1.270833462476730347e-01 7.179351896047592163e-02 -5.636063218116760254e-02 1.648226380348205566e-01 1.512017399072647095e-01 -1.236782371997833252e-01 -1.999712362885475159e-02 3.373289480805397034e-03 -4.529279097914695740e-02 1.915657147765159607e-02 -7.441792637109756470e-02 1.366810202598571777e-01 1.375562697649002075e-01 2.995917387306690216e-02 5.200661835260689259e-04 -7.637166976928710938e-02 2.268906682729721069e-01 -7.241666316986083984e-02 6.712383776903152466e-02 -7.686416618525981903e-03 -1.455266922712326050e-01 -2.431987822055816650e-01 7.617499679327011108e-02 1.587556600570678711e-01 8.856149390339851379e-03 6.366166472434997559e-02 2.281449884176254272e-01 -5.741183459758758545e-02 -5.122141838073730469e-01 -2.211405187845230103e-01 -8.134736865758895874e-02 -2.506633698940277100e-01 -1.430036872625350952e-01 4.029893316328525543e-03 -4.079439043998718262e-01 2.319405414164066315e-02 1.653433889150619507e-01 1.528303623199462891e-01 6.258600205183029175e-02 1.940238922834396362e-01 8.062113076448440552e-02 -9.400891512632369995e-02 -1.093084812164306641e-01 -1.182495206594467163e-01 -1.817817091941833496e-01 1.979552358388900757e-01 -1.982161998748779297e-01 -2.749218642711639404e-01 -5.006109178066253662e-02 1.212372444570064545e-02 -3.071634173393249512e-01 2.480460889637470245e-02 2.359751462936401367e-01 -3.134147077798843384e-02 2.430826872587203979e-01 1.411458998918533325e-01 -9.870813786983489990e-02 -2.254807017743587494e-02 -5.602682754397392273e-02 4.594692885875701904e-01 -3.401083946228027344e-01 2.541252970695495605e-02 3.702049329876899719e-02 -1.461086720228195190e-01 2.095122337341308594e-01 4.175650477409362793e-01 5.415841192007064819e-02 1.745259612798690796e-01 -6.087074056267738342e-03 -1.420530229806900024e-01 -1.669311821460723877e-01 -1.092715412378311157e-01 7.635929435491561890e-02 -1.349947694689035416e-02 1.448533087968826294e-01
-2.448969483375549316e-01 -2.749212980270385742e-01 4.174650833010673523e-02 1.865324005484580994e-02 -4.484435915946960449e-02 1.243752520531415939e-02 1.745330989360809326e-01 -7.989637553691864014e-02 2.191029302775859833e-02 -3.582395985722541809e-02 -1.050091385841369629e-01 -6.141313165426254272e-02 -9.480457752943038940e-02 7.281436771154403687e-02 -1.740110456012189388e-03 -1.219826638698577881e-01 -4.116195254027843475e-03 -7.774356007575988770e-02 -1.228827610611915588e-01 -2.568157613277435303e-01 8.540048450231552124e-02 6.061114370822906494e-02 1.467724889516830444e-01 1.603771150112152100e-01 9.637349098920822144e-02 1.117534786462783813e-01 -5.026928707957267761e-02 -1.698760688304901123e-01 -5.673879384994506836e-02 4.179932177066802979e-02 -9.167367219924926758e-02 -6.413076817989349365e-02 -7.923753582872450352e-04 -5.576416105031967163e-02 -1.276258751749992371e-02 6.694065034389495850e-02 3.471551835536956787e-02 1.254899501800537109e-01 2.983545362949371338e-01 6.670702248811721802e-03 -1.664363294839859009e-01 1.325027495622634888e-01 -2.376919426023960114e-02 -8.744296431541442871e-02 3.442394733428955078e-02 -2.028077542781829834e-01 2.138375937938690186e-01 1.351895183324813843e-01 1.929914653301239014e-01 1.677954196929931641e-01 -4.300619289278984070e-02 -5.436750650405883789e-01 5.658864229917526245e-02 -2.280365377664566040e-01 -4.397462904453277588e-01 1.597353816032409668e-01 1.275196224451065063e-01 -1.574272513389587402e-01 -1.991314888000488281e-01 -1.111803054809570312e-01 1.625911332666873932e-02 1.103331297636032104e-01 -3.091869652271270752e-01 -1.537831276655197144e-01 1.417564749717712402e-01 6.795244663953781128e-02 -5.150076374411582947e-02 -2.638879418373107910e-01 8.390527218580245972e-02 2.591698467731475830e-01 -4.955938085913658142e-02 -2.129422277212142944e-01 -1.120178699493408203e-01 -4.406396299600601196e-02 8.954018354415893555e-02 -1.177395284175872803e-01 -2.221348434686660767e-01 1.553989648818969727e-01 5.245525389909744263e-02 1.600478887557983398e-01 1.133221909403800964e-01 -8.732561767101287842e-02 7.240994274616241455e-02 7.316007465124130249e-02 4.166682958602905273e-01 9.085947275161743164e-02 1.335323452949523926e-01 -1.539371609687805176e-01 -3.904390931129455566e-01 -1.386727113276720047e-02 -3.581592142581939697e-01 -8.876929990947246552e-03 -1.400665938854217529e-01 4.397957772016525269e-02 3.767411783337593079e-02 2.753203809261322021e-01 2.810800373554229736e-01 -1.480173766613006592e-01 -2.201351821422576904e-01 -2.330161780118942261e-01
2.082184702157974243e-01 1.433500647544860840e-01 -3.359010517597198486e-01 -7.537347823381423950e-02 -1.000324729830026627e-02 6.071800366044044495e-02 2.279534637928009033e-01 -1.922797113656997681e-01 4.090542495250701904e-01 2.490525543689727783e-01 1.559878420084714890e-02 -7.837218232452869415e-03 1.099497452378273010e-01 -9.062125533819198608e-02 -2.282379865646362305e-01 7.076887786388397217e-02 -1.146996859461069107e-02 2.819754183292388916e-01 1.463185846805572510e-01 -2.363531440496444702e-01 -1.944225579500198364e-01 -1.619476228952407837e-01 3.202958777546882629e-02 -1.920200139284133911e-01 1.511494517326354980e-01 6.273159291595220566e-03 -9.639138728380203247e-02 3.625930845737457275e-01 -1.042216923087835312e-02 -8.211358785629272461e-01 1.597377955913543701e-01 -1.755097648128867149e-03 5.360539071261882782e-03 1.952865868806838989e-01 -7.342822551727294922e-01 -3.264288976788520813e-02 -3.086602091789245605e-01 -2.595605552196502686e-01 -4.808323830366134644e-02 1.226142398081719875e-03 -1.391113847494125366e-01 2.081233710050582886e-01 6.643742322921752930e-01 -2.105555869638919830e-02 3.103096485137939453e-01 3.258622288703918457e-01 -1.026123296469449997e-02 4.190615192055702209e-02 5.806434527039527893e-02 5.710638165473937988e-01 1.351269632577896118e-01 -3.517064750194549561e-01 2.369991540908813477e-01 -2.096670269966125488e-01 5.080371350049972534e-02 3.467689156532287598e-01 -2.583107948303222656e-01 -1.437345892190933228e-01 -2.060325890779495239e-01 1.613814383745193481e-02 5.956961512565612793e-01 -6.448176503181457520e-02 -2.170821577310562134e-01 2.264190837740898132e-02 3.898648917675018311e-02 -5.692625045776367188e-01 2.645053863525390625e-01 -5.796680226922035217e-02 5.005179047584533691e-01 -1.687816381454467773e-01 -1.622085422277450562e-01 1.419784128665924072e-01 2.400312572717666626e-01 -1.089981850236654282e-02 7.520712446421384811e-03 -1.183647140860557556e-01 -1.779191046953201294e-01 7.815241813659667969e-02 2.609012722969055176e-01 6.453875452280044556e-02 7.457648403942584991e-03 -3.622026145458221436e-01 -9.371664375066757202e-03 2.974764630198478699e-02 -4.001489877700805664e-01 4.815813899040222168e-01 -1.100838407874107361e-01 8.421315252780914307e-02 -2.726518549025058746e-02 -8.046939224004745483e-02 3.609749972820281982e-01 6.395460665225982666e-02 2.341209352016448975e-02 -3.088726401329040527e-01 -2.877654321491718292e-02 -1.624632477760314941e-01 4.501869902014732361e-02 -9.516628086566925049e-02 -7.670591585338115692e-03 -8.169665001332759857e-03
9.892378002405166626e-03 -2.622239105403423309e-02 1.708261519670486450e-01 8.895617723464965820e-02 -3.013689070940017700e-02 5.014776811003684998e-02 1.380009502172470093e-01 1.724361330270767212e-01 -1.207323446869850159e-01 2.350085997022688389e-04 -2.751895785331726074e-01 3.743017837405204773e-02 -4.383164271712303162e-02 -1.757100522518157959e-01 -1.723481118679046631e-01 1.056547556072473526e-02 4.742959141731262207e-01 -2.514562755823135376e-02 2.233925834298133850e-02 -1.744895614683628082e-02 6.640388071537017822e-02 -4.182841628789901733e-02 8.648024499416351318e-02 -2.396705001592636108e-02 7.647823542356491089e-02 1.397244036197662354e-01 -1.460303962230682373e-01 -3.868271708488464355e-01 -3.484855219721794128e-02 1.009979322552680969e-01 2.699957787990570068e-01 6.987457722425460815e-02 7.618026342242956161e-03 1.350320279598236084e-01 -2.026879340410232544e-01 2.662319839000701904e-01 -2.851430512964725494e-02 2.835879288613796234e-02 3.780918568372726440e-02 3.551579779013991356e-03 3.039301633834838867e-01 2.094892039895057678e-02 -1.518655717372894287e-01 -3.767967820167541504e-01 -9.107412397861480713e-02 -2.951720543205738068e-02 -5.502161011099815369e-02 1.394081115722656250e-01 3.781801760196685791e-01 -8.037035912275314331e-02 -2.548111975193023682e-01 -6.232146620750427246e-01 -1.316298842430114746e-01 9.626349061727523804e-02 -7.316271662712097168e-01 -6.684447824954986572e-02 -1.275753378868103027e-01 2.693408429622650146e-01 -2.571306526660919189e-01 3.862882964313030243e-03 -1.867958307266235352e-01 -3.502029553055763245e-02 8.578448742628097534e-02 -3.012317791581153870e-02 1.043837293982505798e-01 8.707096427679061890e-02 7.888884097337722778e-02 1.062361747026443481e-01 -3.720800625160336494e-03 2.578304409980773926e-01 -7.588385045528411865e-02 -2.766492366790771484e-01 -7.717727869749069214e-02 1.077611297369003296e-01 -9.223424643278121948e-02 9.408872574567794800e-03 -1.362207680940628052e-01 4.455983266234397888e-02 1.991537213325500488e-01 3.015969395637512207e-01 4.962473362684249878e-02 1.207673996686935425e-01 8.993739262223243713e-03 1.001026406884193420e-01 4.849025979638099670e-02 -1.003202944993972778e-01 5.018379539251327515e-02 -2.373790293931961060e-01 -3.967295214533805847e-02 -2.690103370696306229e-03 -3.573759496212005615e-01 -8.501909673213958740e-02 -3.621288239955902100e-01 -7.500118017196655273e-02 2.172621786594390869e-01 7.435823231935501099e-02 -8.698024787008762360e-03 8.422868698835372925e-02 4.559027254581451416e-01 -7.613465934991836548e-02
4.009470343589782715e-01 8.887327313423156738e-01 -2.803410887718200684e-01 7.057201862335205078e-02 3.679350614547729492e-01 -2.643519937992095947e-01 -1.527474075555801392e-02 1.380443274974822998e-01 9.264860302209854126e-03 1.050134655088186264e-02 -1.700492382049560547e+00 1.221277117729187012e-01 -9.578865021467208862e-02 -3.387125730514526367e-01 2.877388708293437958e-02 -9.826126508414745331e-03 -5.731185078620910645e-01 -2.904540896415710449e-01 3.443721234798431396e-01 1.229672227054834366e-02 3.374026417732238770e-01 5.404510349035263062e-02 5.054379627108573914e-02 -2.422410696744918823e-01 3.657304644584655762e-01 -5.213781818747520447e-02 1.183722987771034241e-01 5.682641863822937012e-01 1.230465397238731384e-01 -1.566118746995925903e-01 -4.391730725765228271e-01 -5.083093419671058655e-02 3.480843966826796532e-03 -1.825874671339988708e-02 -2.543391585350036621e-01 -1.699083112180233002e-02 -9.293631315231323242e-01 5.878690257668495178e-02 1.125493496656417847e-01 -4.966387990862131119e-03 -2.451355755329132080e-01 3.375467285513877869e-02 2.576861977577209473e-01 1.567375957965850830e-01 1.697235405445098877e-01 7.324840128421783447e-02 -1.407676637172698975e-01 -1.627848148345947266e-01 8.332069031894207001e-03 6.157097592949867249e-02 -9.478213638067245483e-02 1.156890317797660828e-01 -2.426094934344291687e-02 1.064689680933952332e-01 -1.042136922478675842e-01 -1.876804828643798828e-01 1.501720026135444641e-02 7.244588434696197510e-02 2.013236656785011292e-02 3.140099644660949707e-01 -2.215030640363693237e-01 -1.259072571992874146e-01 7.777808606624603271e-02 -1.702614012174308300e-03 -1.156723201274871826e-01 -8.367305248975753784e-02 4.500062391161918640e-02 7.988810539245605469e-02 -8.347514271736145020e-02 -2.292471885681152344e+00 1.504783779382705688e-01 -2.065121009945869446e-02 6.333237886428833008e-02 1.544937770813703537e-02 6.786338984966278076e-02 3.104320168495178223e-01 3.961557447910308838e-01 -5.255288444459438324e-03 2.071688920259475708e-01 -3.128993511199951172e-01 7.888149470090866089e-02 3.252249062061309814e-01 -1.982207894325256348e-01 9.508507698774337769e-02 -2.429843395948410034e-01 1.486862450838088989e-01 -1.234058663249015808e-01 1.365868747234344482e-01 -7.456776499748229980e-01 3.280272781848907471e-01 7.473050616681575775e-03 -1.175537556409835815e-01 -1.863832771778106689e-01 4.197569936513900757e-02 -1.013786941766738892e-01 4.361408948898315430e-02 -7.184593379497528076e-02 -4.215509817004203796e-02 -3.607911169528961182e-01 -1.319944206625223160e-02
-5.500664189457893372e-02 -3.270953595638275146e-01 1.697475649416446686e-02 1.698395162820816040e-01 2.807196676731109619e-01 -1.470059305429458618e-01 2.950378954410552979e-01 1.235860660672187805e-01 1.400581449270248413e-01 3.287944570183753967e-02 -1.139728799462318420e-01 5.439881235361099243e-03 -1.646732836961746216e-01 2.353604435920715332e-01 2.482566982507705688e-02 2.409038692712783813e-02 -2.040827572345733643e-01 -9.967122972011566162e-02 3.589794039726257324e-02 -9.556573629379272461e-02 -1.903286725282669067e-01 7.257899641990661621e-02 2.444300949573516846e-01 7.336018234491348267e-02 2.698334157466888428e-01 -1.227134093642234802e-02 8.208028040826320648e-03 -2.505361437797546387e-01 -6.845649331808090210e-02 2.454181313514709473e-01 -5.059845447540283203e-01 7.281412836164236069e-03 -6.153442518552765250e-05 7.074397802352905273e-02 9.441842883825302124e-02 -9.859736263751983643e-02 -1.667738333344459534e-02 -3.781635165214538574e-01 -1.074579134583473206e-01 1.907766680233180523e-03 -3.188933432102203369e-01 8.763725310564041138e-02 9.104390442371368408e-02 1.297707110643386841e-01 -4.724702239036560059e-02 -4.759592190384864807e-02 -2.043505758047103882e-01 7.962452620267868042e-02 1.078766025602817535e-02 3.469153344631195068e-01 -4.885731637477874756e-02 -5.419391393661499023e-02 -4.503137990832328796e-02 3.186173364520072937e-02 -1.561676114797592163e-01 4.378067702054977417e-02 1.047035399824380875e-02 9.610544890165328979e-02 -3.529705852270126343e-02 1.759131252765655518e-01 4.860174655914306641e-02 1.174976155161857605e-01 1.241269521415233612e-02 -4.014023020863533020e-02 3.296821145340800285e-03 8.241257071495056152e-02 1.568953096866607666e-01 9.300442785024642944e-02 -1.179257556796073914e-01 -2.669003605842590332e-01 9.629882127046585083e-02 1.511284559965133667e-01 -3.133534491062164307e-01 -6.720611453056335449e-02 -1.614569872617721558e-02 -1.537969219498336315e-03 2.124088071286678314e-02 -8.972458541393280029e-02 2.291326411068439484e-02 7.696089148521423340e-02 6.158884614706039429e-02 -2.182212173938751221e-01 9.859806299209594727e-02 -1.423192918300628662e-01 1.862250268459320068e-01 -1.181553751230239868e-01 -1.647132076323032379e-02 -7.894863188266754150e-02 4.292422831058502197e-01 1.813147515058517456e-01 -2.460801601409912109e-01 -1.728918105363845825e-01 7.105778157711029053e-02 6.391620635986328125e-02 2.516351938247680664e-01 -5.201726034283638000e-02 -1.360773593187332153e-01 -1.668356508016586304e-01 1.460778992623090744e-02 8.375172317028045654e-02
1.236941292881965637e-01 -8.110038936138153076e-02 -1.766120195388793945e-01 1.822498068213462830e-02 -2.680303454399108887e-01 1.024310067296028137e-01 3.138912469148635864e-02 1.411720179021358490e-02 3.709753602743148804e-02 -8.787979930639266968e-02 -1.058952733874320984e-01 -1.492321044206619263e-01 -2.874232828617095947e-02 -3.178421035408973694e-02 2.238358855247497559e-01 -1.569982431828975677e-02 1.367879211902618408e-01 1.869696676731109619e-01 -2.522788047790527344e-01 -1.523863524198532104e-01 -1.146148890256881714e-01 -4.469342529773712158e-02 2.093374878168106079e-01 1.232784613966941833e-02 -1.707359850406646729e-01 1.432133615016937256e-01 4.277879372239112854e-02 2.888830900192260742e-01 9.170738048851490021e-03 2.997408807277679443e-02 -1.724635362625122070e-01 -1.286248955875635147e-02 -2.507492201402783394e-03 4.569423198699951172e-02 5.185580626130104065e-02 2.148449122905731201e-01 4.250053167343139648e-01 2.655684351921081543e-01 2.583508789539337158e-01 -2.065344597212970257e-04 -9.360831975936889648e-02 2.469346970319747925e-01 -1.022304594516754150e-02 -9.083946049213409424e-02 -1.373888850212097168e-01 2.643705308437347412e-01 -6.313165277242660522e-02 1.167268399149179459e-02 4.629159346222877502e-02 9.922938421368598938e-03 1.112001612782478333e-01 -2.346608936786651611e-01 -1.146844401955604553e-01 -1.015374362468719482e-01 -1.645642668008804321e-01 -5.968877673149108887e-02 5.414932966232299805e-02 3.415005281567573547e-02 -5.134345591068267822e-02 7.455789297819137573e-02 -1.429338380694389343e-02 4.636952280998229980e-02 -2.085009366273880005e-01 -2.563836798071861267e-02 1.232487112283706665e-01 -3.815829381346702576e-02 -1.462514102458953857e-01 -1.478415429592132568e-01 -6.316889077425003052e-02 1.571778208017349243e-02 7.641728967428207397e-02 4.335410147905349731e-02 -1.452945172786712646e-01 3.132054209709167480e-02 2.345275692641735077e-02 -1.306208074092864990e-01 -1.900397986173629761e-01 -1.215108111500740051e-01 -9.744876623153686523e-02 2.632015570998191833e-02 7.675391435623168945e-02 -2.220198363065719604e-01 1.134331524372100830e-01 8.446370065212249756e-02 1.056356802582740784e-01 -1.289758086204528809e-01 8.186618983745574951e-02 -1.335763782262802124e-01 4.430430009961128235e-02 -1.238817498087882996e-01 2.898016385734081268e-02 8.591620624065399170e-02 -1.226195320487022400e-01 9.181386232376098633e-02 1.217201575636863708e-01 -1.319827884435653687e-01 -3.994339331984519958e-02 9.448388963937759399e-02 7.483209669589996338e-02 8.424790948629379272e-02
2.116311900317668915e-02 -7.325083762407302856e-02 -4.108289778232574463e-01 8.087438531219959259e-03 2.515478432178497314e-01 -5.217788368463516235e-02 7.509660720825195312e-02 -1.360468566417694092e-01 2.123286873102188110e-01 3.473792672157287598e-01 -6.815710663795471191e-02 -5.998194217681884766e-02 -1.231060456484556198e-02 -8.477046154439449310e-03 2.322915941476821899e-01 3.460359200835227966e-02 1.630946546792984009e-01 -3.255743980407714844e-01 -3.622851967811584473e-01 -7.334601134061813354e-02 -1.533199101686477661e-01 1.577965021133422852e-01 1.657427102327346802e-01 -9.935399889945983887e-02 -4.889297857880592346e-02 -2.511632163077592850e-03 -5.665869917720556259e-03 8.975586891174316406e-01 1.503948494791984558e-02 2.501909434795379639e-02 1.483940184116363525e-01 1.101110205054283142e-01 -4.980222322046756744e-03 1.569679826498031616e-01 7.289858907461166382e-02 2.914938926696777344e-01 8.671497553586959839e-02 -1.551091372966766357e-01 -7.010664045810699463e-02 -8.817335590720176697e-03 -4.769957810640335083e-02 -5.655037164688110352e-01 7.206882536411285400e-02 1.360523402690887451e-01 -2.337638288736343384e-01 -2.399686127901077271e-01 -5.571985617280006409e-02 -2.376600867137312889e-03 -1.190535840578377247e-03 -3.122427761554718018e-01 1.455118060111999512e-01 2.365264594554901123e-01 -4.202129840850830078e-01 -6.774435285478830338e-03 -1.465155556797981262e-02 1.078483238816261292e-01 4.950454235076904297e-01 -8.078212141990661621e-01 1.193201541900634766e-01 1.690945960581302643e-02 5.323490477167069912e-04 -3.112311661243438721e-01 -2.769641019403934479e-02 -1.614891439676284790e-01 1.732646301388740540e-02 1.277178060263395309e-02 2.391933500766754150e-01 2.585995495319366455e-01 -9.807609021663665771e-02 8.320820331573486328e-02 1.595407025888562202e-03 -3.608549013733863831e-02 1.457725614309310913e-01 -3.883152082562446594e-02 -1.362924128770828247e-01 -2.092120349407196045e-01 3.957873582839965820e-02 -2.574028261005878448e-02 -1.538127567619085312e-02 1.170844286680221558e-01 -2.568361163139343262e-02 -3.223378956317901611e-02 2.893443405628204346e-02 1.200731396675109863e-01 -1.513011306524276733e-01 1.971732825040817261e-01 1.618006266653537750e-02 8.248586207628250122e-02 2.290335893630981445e-01 -8.658403903245925903e-02 6.563189625740051270e-02 2.783509716391563416e-02 5.561196431517601013e-02 -1.539635807275772095e-01 5.070905089378356934e-01 -6.796065568923950195e-01 -1.720462180674076080e-02 6.477935314178466797e-01 1.681250892579555511e-02 4.397515952587127686e-01
-7.033969461917877197e-02 6.469486653804779053e-02 -1.670560538768768311e-01 8.276601880788803101e-02 6.867053508758544922e-01 -2.041601985692977905e-01 -1.403970420360565186e-01 1.445602774620056152e-01 1.050954937934875488e+00 -4.574035108089447021e-01 -6.862957030534744263e-02 -1.535980105400085449e-01 -1.839260309934616089e-01 -4.044910520315170288e-02 -1.380313467234373093e-02 7.896749675273895264e-02 3.360174223780632019e-02 -5.512222051620483398e-01 -2.234592139720916748e-01 -1.392196267843246460e-01 2.479415945708751678e-02 5.426798462867736816e-01 1.893620938062667847e-01 -1.765465021133422852e+00 -4.408167004585266113e-01 9.296200424432754517e-02 4.663953781127929688e-01 -3.184569478034973145e-01 1.383548825979232788e-01 -6.859459877014160156e-01 4.629780724644660950e-02 -1.938721723854541779e-02 -2.618079818785190582e-02 -7.614831328392028809e-01 -1.850503832101821899e-01 3.054715394973754883e-01 -1.126407146453857422e+00 -1.965842992067337036e-01 1.503181606531143188e-01 -2.307814359664916992e-02 -1.175825251266360283e-03 1.595771312713623047e+00 -3.273545205593109131e-02 4.736811388283967972e-03 -1.826489903032779694e-02 6.905221939086914062e-01 6.601059436798095703e-02 -1.320951059460639954e-02 -7.700133719481527805e-04 1.000781506299972534e-01 5.018199086189270020e-01 -1.014360114932060242e-01 6.199587583541870117e-01 -2.317364960908889771e-01 -2.072130702435970306e-02 -1.402581036090850830e-01 4.098486527800559998e-02 -1.468903303146362305e+00 -2.184598743915557861e-01 -5.463518202304840088e-02 4.972575977444648743e-02 -1.944046765565872192e-01 -3.539508581161499023e-02 1.258723258972167969e+00 5.792247503995895386e-02 -5.296843647956848145e-01 -1.676630228757858276e-01 2.395566105842590332e-01 -7.637805491685867310e-02 -4.718314111232757568e-02 -8.093596249818801880e-02 -8.627527952194213867e-02 -8.505876660346984863e-01 -4.791749119758605957e-01 -1.092522069811820984e-01 -1.023899912834167480e+00 -1.168342903256416321e-01 -1.846203394234180450e-02 -4.164554476737976074e-01 1.868540346622467041e-01 5.964922159910202026e-02 1.728555262088775635e-01 -5.100807547569274902e-02 2.906277775764465332e-01 2.848278880119323730e-01 2.305687218904495239e-02 -4.082792904227972031e-03 -4.752939939498901367e-02 2.000517994165420532e-01 9.216796606779098511e-02 8.475723117589950562e-02 -9.134747087955474854e-03 -1.382193248718976974e-02 -1.295786738395690918e+00 -1.343877166509628296e-01 -1.759820282459259033e-01 9.683862328529357910e-02 -7.441620528697967529e-02 1.201786845922470093e-01 -5.614334717392921448e-02
8.669502288103103638e-02 -3.029070794582366943e-01 2.117584086954593658e-02 3.518766164779663086e-02 3.737987875938415527e-01 -1.654870063066482544e-01 5.133588910102844238e-01 1.295482926070690155e-02 8.932637865655124187e-04 -1.756963580846786499e-01 1.123028174042701721e-01 -1.314283721148967743e-02 -6.443428248167037964e-02 -4.140553623437881470e-02 -1.035638675093650818e-01 -4.435769915580749512e-01 3.187305331230163574e-01 -1.580530554056167603e-01 -1.677227914333343506e-01 3.232018053531646729e-01 1.494186222553253174e-01 -4.306362867355346680e-01 2.634199336171150208e-02 1.954735070466995239e-02 2.163842469453811646e-01 -6.061658263206481934e-01 -5.404090881347656250e-02 -1.318052262067794800e-01 6.521803885698318481e-02 7.302966713905334473e-02 -3.285239040851593018e-01 -1.021915599703788757e-01 1.843552570790052414e-03 2.847184427082538605e-03 2.227590233087539673e-01 3.232115507125854492e-02 -5.252147912979125977e-01 -1.694798916578292847e-01 3.070440888404846191e-01 1.274775364436209202e-03 6.413171440362930298e-02 -2.739023230969905853e-02 4.534787535667419434e-01 2.995490329340100288e-03 -7.628119736909866333e-02 3.632700443267822266e-02 -1.303086028201505542e-04 -5.368238091468811035e-01 3.304668366909027100e-01 2.129451930522918701e-01 -2.113979458808898926e-01 -9.746891260147094727e-02 -9.072154015302658081e-02 -1.325164884328842163e-01 4.079382866621017456e-02 2.154776901006698608e-01 -1.250427812337875366e-01 -1.010655984282493591e-02 1.696444116532802582e-02 1.093629673123359680e-01 1.672000288963317871e-01 -3.415498882532119751e-02 -1.358022987842559814e-01 -1.755139790475368500e-02 1.846442967653274536e-01 -9.451335668563842773e-02 6.313281506299972534e-02 2.970202267169952393e-01 -1.724615693092346191e-02 3.939216434955596924e-01 4.227035492658615112e-02 4.057988226413726807e-01 -1.128348242491483688e-02 7.244792580604553223e-02 9.894593805074691772e-02 -2.013790458440780640e-01 -1.885883212089538574e-01 -3.233494004234671593e-03 -1.668117344379425049e-01 3.779484331607818604e-02 -1.585614085197448730e-01 6.326325982809066772e-02 2.848070859909057617e-01 -1.113609373569488525e-01 3.515828028321266174e-02 -4.239541292190551758e-02 6.617196202278137207e-01 1.395565271377563477e-02 7.723538577556610107e-02 -2.338765114545822144e-01 1.703271120786666870e-01 -1.761212825775146484e+00 -2.258316278457641602e-01 1.312283147126436234e-02 8.492628484964370728e-02 3.255049139261245728e-02 -4.003773629665374756e-01 1.645089872181415558e-02 -1.861214190721511841e-01 -3.393639624118804932e-02
2.935295104980468750e-01 2.748538255691528320e-01 -1.289880722761154175e-01 -7.407736778259277344e-02 6.557531356811523438e-01 3.725040704011917114e-02 -2.061973325908184052e-02 2.509793937206268311e-01 8.768830448389053345e-02 1.393514573574066162e-01 -2.031199634075164795e-01 -3.858919143676757812e-01 9.924501180648803711e-02 -3.377077281475067139e-01 9.636031091213226318e-02 -1.012235358357429504e-01 6.340337395668029785e-01 4.600080102682113647e-02 -4.837866127490997314e-02 -3.831322863698005676e-02 3.069919943809509277e-01 1.124090775847434998e-01 -1.025524809956550598e-01 -1.787363179028034210e-02 2.350711971521377563e-01 -5.445563234388828278e-03 2.526703476905822754e-01 -9.040457010269165039e-02 -2.303747646510601044e-02 1.165211424231529236e-01 -2.620052695274353027e-01 -5.550992861390113831e-02 1.271679881028831005e-03 1.875283755362033844e-02 -2.140960544347763062e-01 -4.782152827829122543e-03 -4.931950569152832031e-01 2.041914016008377075e-01 1.086863204836845398e-01 -1.747554983012378216e-03 1.394640803337097168e-01 1.147536933422088623e-01 -5.337522923946380615e-02 1.600277572870254517e-01 -7.020604610443115234e-02 3.699029386043548584e-01 1.115533784031867981e-01 -2.422868646681308746e-02 -1.011488214135169983e-01 3.260274976491928101e-02 -5.063765123486518860e-02 -1.277173310518264771e-01 1.612848788499832153e-02 -3.327291905879974365e-01 -1.292969435453414917e-01 -2.055815607309341431e-01 8.183084428310394287e-02 7.650444656610488892e-02 1.213831305503845215e-01 -1.838924884796142578e-01 -1.524962335824966431e-01 -1.157316118478775024e-01 -1.298097521066665649e-02 3.212764486670494080e-02 6.545620411634445190e-02 6.489051133394241333e-02 -2.774189459159970284e-03 6.923108547925949097e-02 -7.670137286186218262e-02 -1.195260435342788696e-01 -9.237363189458847046e-02 -1.811626702547073364e-01 -2.186524495482444763e-02 2.318168245255947113e-02 4.690936580300331116e-02 1.529980301856994629e-01 -8.039483428001403809e-02 -7.884722203016281128e-02 -1.235492303967475891e-01 -1.319008022546768188e-01 2.301405072212219238e-01 8.520644903182983398e-02 5.200288072228431702e-02 1.502278596162796021e-01 -7.669591158628463745e-02 1.194523572921752930e-01 2.723852358758449554e-02 6.620154529809951782e-02 9.669803082942962646e-02 -1.862455159425735474e-02 -8.006983250379562378e-02 -8.551903069019317627e-02 6.063094362616539001e-02 -9.066057391464710236e-04 -4.141629114747047424e-02 1.122220233082771301e-01 -3.170944750308990479e-02 -1.062051355838775635e-01 1.371563673019409180e-01 -1.107187420129776001e-01
