2.300445288419723511e-01 7.104767113924026489e-02 3.365028500556945801e-01 1.292175203561782837e-01 5.367968231439590454e-02 5.750520620495080948e-03 6.860843300819396973e-02 -8.249449729919433594e-02 -2.136722952127456665e-02 1.402851426973938942e-03 -5.527523532509803772e-02 -1.967085301876068115e-01 1.016051769256591797e-01 3.130727855022996664e-04 1.978783011436462402e-01 4.884132370352745056e-02 -7.159887254238128662e-02 -1.267125457525253296e-01 -2.160308659076690674e-01 -2.336687147617340088e-01 8.019451797008514404e-02 4.048963601235300303e-04 -1.212113723158836365e-02 5.790018290281295776e-02 -1.888711154460906982e-01 -2.890798076987266541e-02 1.653522700071334839e-01 -5.427220370620489120e-03 -2.504411935806274414e-01 -1.485577821731567383e-01 -4.662668704986572266e-02 2.091706246137619019e-01 1.908495835959911346e-02 1.116190478205680847e-01 -7.710480690002441406e-02 -2.729151584208011627e-02 9.038041532039642334e-02 -7.671301718801259995e-03 1.712294109165668488e-02 1.114681959152221680e-01 2.051174081861972809e-02 4.273991659283638000e-02 1.412358600646257401e-03 -1.202797964215278625e-01 8.500051498413085938e-02 6.669292226433753967e-03 1.143124140799045563e-02 -1.266339968424290419e-04 -5.041245743632316589e-02 -6.471893936395645142e-02 2.100891470909118652e-01 -2.719239592552185059e-01 -2.221432700753211975e-02 6.168236956000328064e-03 1.242418289184570312e-01 6.012949347496032715e-02 4.296778235584497452e-03 -1.800168901681900024e-01 -1.890023946762084961e-01 -5.788423866033554077e-02 -1.348220743238925934e-03 -7.626237720251083374e-02 -1.442033201456069946e-01 -1.183735206723213196e-01 1.265863925218582153e-01 -3.911839798092842102e-02 8.752728253602981567e-02 1.856171339750289917e-01 -2.549632079899311066e-02 1.384544074535369873e-01 -6.513947248458862305e-02 2.735531888902187347e-02 -4.991876706480979919e-02 2.363545894622802734e-01 -2.247058302164077759e-01 5.830669030547142029e-02 8.156390488147735596e-02 5.212212726473808289e-02 -2.446379885077476501e-02 2.178920656442642212e-01 2.285938560962677002e-01 -1.353086829185485840e-01 1.834517158567905426e-02 6.561982631683349609e-02 9.700591862201690674e-02 -4.734397307038307190e-02 1.043215841054916382e-01 5.688419938087463379e-02 -5.879498273134231567e-02 5.758056044578552246e-02 -8.161547034978866577e-02 -2.319067530333995819e-02 -1.116402298212051392e-01 1.438357494771480560e-02 -1.288908123970031738e-01 -5.888296663761138916e-02 1.120252311229705811e-01 3.510589525103569031e-02 -2.151191420853137970e-02 -2.217533141374588013e-01
-5.993313714861869812e-02 -3.661330789327621460e-02 3.124847449362277985e-02 -9.709927439689636230e-02 3.422512114048004150e-02 -8.032651385292410851e-04 -3.681727498769760132e-02 4.317690432071685791e-02 -2.580277808010578156e-02 -5.376207455992698669e-02 2.089174464344978333e-02 -1.665242388844490051e-02 3.965653479099273682e-02 9.396191453561186790e-04 -4.356567934155464172e-02 -1.696897856891155243e-02 -5.617764592170715332e-02 1.425210479646921158e-02 1.028375979512929916e-02 -2.728401683270931244e-02 3.830017149448394775e-02 3.894246742129325867e-02 6.019341945648193359e-02 -3.786947950720787048e-02 -5.523708090186119080e-02 2.329211868345737457e-02 -7.242988212965428829e-04 7.088071852922439575e-02 1.529610157012939453e-02 1.171936839818954468e-02 -1.555564929731190205e-03 -1.455917675048112869e-02 -1.874441839754581451e-02 9.070876985788345337e-03 -1.947593316435813904e-02 -4.884789139032363892e-02 5.149595439434051514e-02 -3.023666329681873322e-03 -5.819058790802955627e-02 7.104456424713134766e-02 4.884538799524307251e-02 -6.574998050928115845e-02 -3.057101741433143616e-02 5.749454349279403687e-02 -1.049099373631179333e-03 -3.431111946702003479e-02 -1.788708753883838654e-02 -8.504465222358703613e-02 -1.042782608419656754e-02 -2.833080664277076721e-02 -8.825650438666343689e-03 -2.484635449945926666e-02 2.666917443275451660e-02 -2.664736006408929825e-03 -5.317356809973716736e-02 -2.178422547876834869e-02 2.821900695562362671e-02 -3.867656458169221878e-03 4.605829343199729919e-02 3.520042449235916138e-02 4.383448511362075806e-02 -3.300999477505683899e-02 -3.680159524083137512e-02 2.008695341646671295e-02 3.292035311460494995e-02 -1.068735048174858093e-01 2.581831999123096466e-02 2.441043406724929810e-02 4.944729153066873550e-03 4.282374680042266846e-02 3.209337219595909119e-02 -1.205215929076075554e-03 6.125069037079811096e-02 7.293960661627352238e-04 -5.593378841876983643e-02 -5.555217340588569641e-02 1.062047522282227874e-04 6.344266980886459351e-02 3.547920379787683487e-03 -3.557250835001468658e-03 -2.375813759863376617e-02 5.349830165505409241e-02 -9.687365964055061340e-03 2.232287824153900146e-02 9.174711070954799652e-03 -5.243209376931190491e-02 -1.527469605207443237e-03 1.323490776121616364e-02 3.018947318196296692e-02 3.600614890456199646e-02 5.738696455955505371e-02 5.392025411128997803e-02 -1.990424469113349915e-02 4.628068208694458008e-02 1.552613358944654465e-02 6.684566289186477661e-02 1.395064685493707657e-02 -1.302077807486057281e-02 1.441146526485681534e-02 3.819561749696731567e-02
2.552618738263845444e-03 1.111654862761497498e-01 9.497395902872085571e-02 4.434314742684364319e-02 2.162001095712184906e-02 2.071002312004566193e-02 -1.088999211788177490e-01 -4.264016449451446533e-02 -5.714344605803489685e-02 -7.146786432713270187e-03 -1.047810241580009460e-01 -3.466473519802093506e-02 -1.420175842940807343e-02 9.343444835394620895e-04 -1.949118077754974365e-02 2.468987368047237396e-02 -9.009133279323577881e-02 3.174704313278198242e-02 -5.560707300901412964e-03 3.041820973157882690e-02 -5.159946903586387634e-02 -1.283214390277862549e-01 -2.605803310871124268e-02 3.201360255479812622e-02 1.236819569021463394e-02 -1.004120483994483948e-01 -1.362950354814529419e-01 1.174139417707920074e-02 5.778476595878601074e-03 -4.195231571793556213e-02 1.855397224426269531e-02 2.985185943543910980e-02 6.126612424850463867e-02 5.251093208789825439e-02 7.021317631006240845e-02 9.026545286178588867e-02 5.767691135406494141e-02 8.296071609947830439e-05 -1.190644726157188416e-01 -3.521911427378654480e-02 -2.329759486019611359e-02 -5.923095718026161194e-02 -5.002777278423309326e-02 3.974755108356475830e-02 -6.977827847003936768e-02 1.070232540369033813e-01 1.052005332894623280e-03 1.056546196341514587e-01 1.767987618222832680e-03 -9.608461707830429077e-02 -3.669770807027816772e-02 -9.838669002056121826e-02 -5.583440512418746948e-02 1.908237673342227936e-02 3.100891970098018646e-02 2.429529791697859764e-03 3.459693118929862976e-02 7.426415383815765381e-02 -5.885927006602287292e-02 -9.332272410392761230e-02 6.178896501660346985e-02 7.669867575168609619e-02 -9.389834478497505188e-03 -1.033856049180030823e-01 -1.034435536712408066e-02 8.816839754581451416e-02 5.101946368813514709e-02 6.198998540639877319e-02 7.430069893598556519e-02 6.689763069152832031e-02 -7.287664711475372314e-02 6.124739721417427063e-02 1.076913475990295410e-01 4.578531533479690552e-02 -9.508984163403511047e-03 -1.897020824253559113e-02 1.084154099225997925e-01 1.405492518097162247e-02 -7.317189127206802368e-02 5.090708285570144653e-02 2.121928520500659943e-02 -2.317153289914131165e-02 -2.020893804728984833e-02 1.159398257732391357e-01 1.116961613297462463e-01 -5.722249671816825867e-02 -1.935866102576255798e-02 3.694976493716239929e-02 5.220423266291618347e-02 1.017155274748802185e-01 -5.160346627235412598e-02 -3.768727183341979980e-02 3.349383547902107239e-02 3.802745416760444641e-02 4.039966687560081482e-02 -1.468759775161743164e-02 6.855601444840431213e-03 -3.870993154123425484e-03 1.080424059182405472e-03 -7.319696992635726929e-02
7.232756167650222778e-02 1.386669576168060303e-01 -1.587318442761898041e-02 8.081559091806411743e-02 -6.632325053215026855e-02 -1.235241815447807312e-02 3.764059022068977356e-02 -6.487861275672912598e-02 3.155418112874031067e-02 5.119129270315170288e-02 8.668085932731628418e-02 2.782819606363773346e-02 -8.999498933553695679e-02 3.886845952365547419e-04 -2.266705036163330078e-02 -9.067053347826004028e-02 4.281430318951606750e-02 4.212114587426185608e-02 3.832259774208068848e-02 -1.956255175173282623e-02 5.946837365627288818e-02 6.190787255764007568e-02 -1.095367595553398132e-02 -1.032286137342453003e-01 1.185091678053140640e-02 -4.110796004533767700e-02 1.850788891315460205e-01 -1.094050407409667969e-01 1.569432951509952545e-02 8.728401362895965576e-02 5.461631715297698975e-02 3.283602371811866760e-02 2.007945068180561066e-02 9.936176240444183350e-03 6.909610331058502197e-02 -1.405940055847167969e-01 -8.894822001457214355e-02 3.132888814434409142e-03 -1.323311179876327515e-01 -5.302637815475463867e-02 -1.376738399267196655e-01 -2.653359062969684601e-02 -1.156223416328430176e-01 -3.493684343993663788e-03 5.906974151730537415e-02 -7.018464058637619019e-02 3.255893243476748466e-03 -3.385628014802932739e-02 -3.519919887185096741e-02 -5.994726717472076416e-02 2.070185355842113495e-02 1.963505148887634277e-02 -9.196204692125320435e-02 4.990364983677864075e-02 -3.343078866600990295e-02 -3.829214349389076233e-02 1.294781714677810669e-01 1.287247538566589355e-01 -5.923336744308471680e-02 1.044492423534393311e-01 1.356690526008605957e-01 -7.345867156982421875e-02 3.665818274021148682e-02 -2.644573897123336792e-02 -1.203294768929481506e-01 -5.415595695376396179e-02 9.197850525379180908e-02 -7.326608896255493164e-02 8.831716328859329224e-02 -4.957720637321472168e-02 -4.690728336572647095e-02 -4.951332136988639832e-02 -2.067171782255172729e-01 6.324878334999084473e-02 7.154642604291439056e-03 -7.601507008075714111e-02 -2.580700255930423737e-02 9.572134166955947876e-02 -1.286159548908472061e-02 -2.018632367253303528e-03 4.655944183468818665e-02 -5.592336878180503845e-02 7.545286323875188828e-03 3.651698678731918335e-02 4.727415367960929871e-02 1.106521561741828918e-01 -1.210595145821571350e-01 -1.830193959176540375e-02 -7.519797980785369873e-02 -7.498838007450103760e-02 -1.391843557357788086e-01 -6.081547588109970093e-02 -7.659418880939483643e-02 -4.295943677425384521e-02 9.536630660295486450e-02 -9.171317517757415771e-02 -1.226384751498699188e-02 2.872236305847764015e-03 5.569955334067344666e-03 -1.481134444475173950e-02
6.006549671292304993e-02 1.192054897546768188e-01 5.720219761133193970e-02 -2.400730736553668976e-02 7.745432108640670776e-02 -7.036746144294738770e-01 -1.611466258764266968e-01 2.449196949601173401e-02 -4.694405496120452881e-01 -8.263161778450012207e-02 4.435486346483230591e-02 -1.315182168036699295e-02 -5.277309417724609375e-01 2.047303691506385803e-02 -2.620163746178150177e-02 1.642795503139495850e-01 -5.301650613546371460e-02 5.468539595603942871e-01 6.618804335594177246e-01 -8.319352753460407257e-03 1.000370606780052185e-01 -1.775174960494041443e-02 -8.298778533935546875e-02 2.156453877687454224e-01 -2.071901559829711914e-01 -6.814691424369812012e-02 -3.479652479290962219e-02 1.640204489231109619e-01 1.892843097448348999e-02 -3.499256074428558350e-01 -2.116248458623886108e-01 9.292393177747726440e-02 4.487790465354919434e-01 4.525139331817626953e-01 2.187322974205017090e-01 1.001350507140159607e-01 -3.267120942473411560e-02 -2.364502754062414169e-03 -5.775784142315387726e-03 2.796322107315063477e-01 -7.333340123295783997e-03 -1.158390715718269348e-01 1.607920229434967041e-01 -7.008181512355804443e-02 1.846618205308914185e-01 6.660712510347366333e-02 -4.683915376663208008e-01 -1.084393337368965149e-01 -5.217216014862060547e-01 5.061858519911766052e-02 2.977545857429504395e-01 -4.288970679044723511e-02 -5.323204398155212402e-02 -1.950537115335464478e-01 8.307779580354690552e-02 -4.935136437416076660e-01 2.348956465721130371e-01 -1.300997138023376465e-01 1.208379585295915604e-02 1.971196942031383514e-02 -9.254752099514007568e-02 1.283903419971466064e-01 -3.366905823349952698e-02 9.609197080135345459e-02 -4.715786874294281006e-02 1.686281859874725342e-01 -3.431504964828491211e-01 -7.975006103515625000e-02 4.014552012085914612e-02 -4.136601462960243225e-02 1.861422061920166016e-01 1.523312032222747803e-01 1.301380395889282227e-01 -2.066340669989585876e-02 -1.079965829849243164e-01 -3.166894614696502686e-02 2.081179618835449219e-02 -1.402515470981597900e-01 7.188638206571340561e-03 -2.016541063785552979e-01 2.085850387811660767e-01 -1.211152002215385437e-01 4.911853373050689697e-01 -5.213015247136354446e-03 1.116164773702621460e-01 2.748384140431880951e-02 -1.471683103591203690e-02 4.582341611385345459e-01 -1.474417746067047119e-01 -1.235227137804031372e-01 1.064191758632659912e-01 -1.087805256247520447e-01 -6.627147644758224487e-02 -1.274452661164104939e-03 -3.200071677565574646e-02 1.851973868906497955e-02 4.267571866512298584e-01 4.525764584541320801e-01 -1.108371242880821228e-01 -7.417114078998565674e-02
9.432528167963027954e-02 -1.521933078765869141e-01 1.641562208533287048e-02 -6.044641509652137756e-02 1.059032157063484192e-01 6.848374009132385254e-02 -5.008262023329734802e-02 6.124809384346008301e-02 -9.001552313566207886e-02 1.618197187781333923e-02 -3.980733454227447510e-02 1.903264969587326050e-02 -2.581558525562286377e-01 6.982489023357629776e-03 -1.789668574929237366e-02 2.859974503517150879e-01 2.219420522451400757e-01 8.051095902919769287e-02 -1.303508132696151733e-01 -3.476168215274810791e-02 -4.108831286430358887e-02 4.216870665550231934e-02 -1.816586107015609741e-01 5.050186440348625183e-02 7.326988037675619125e-03 3.651656443253159523e-04 2.774650454521179199e-01 2.958763837814331055e-01 -2.029007533565163612e-03 9.846195578575134277e-02 -5.967688560485839844e-01 -1.021576821804046631e-01 4.284704327583312988e-01 1.261352449655532837e-01 -1.259874701499938965e-01 8.120683580636978149e-02 1.709295809268951416e-01 7.134152650833129883e-01 4.904523026198148727e-03 1.661729216575622559e-01 -9.729747474193572998e-02 -7.867528498172760010e-02 1.053902506828308105e-01 8.324318379163742065e-02 -7.772815227508544922e-02 -6.272631883621215820e-02 -3.743870556354522705e-01 7.457499951124191284e-02 1.483061015605926514e-01 -8.469961583614349365e-02 -1.083901897072792053e-01 1.938293687999248505e-02 1.074319034814834595e-01 2.931041121482849121e-01 3.693915531039237976e-02 5.509132146835327148e-01 3.136198520660400391e-01 -8.012944459915161133e-02 7.209245115518569946e-03 -1.639259159564971924e-01 -2.925092913210391998e-02 1.283532083034515381e-01 -7.517292350530624390e-02 9.908325970172882080e-02 -7.427847385406494141e-02 8.001168817281723022e-02 1.418749690055847168e-01 -5.347216129302978516e-02 -4.863461107015609741e-02 -1.556244790554046631e-01 1.132114976644515991e-01 -3.788253366947174072e-01 1.210676804184913635e-01 9.440383315086364746e-02 -1.764326728880405426e-02 -5.155984684824943542e-02 1.445195674896240234e-01 -2.389802932739257812e-01 -3.183679580688476562e-01 -1.066731065511703491e-01 -2.899304032325744629e-01 -8.692604303359985352e-02 -6.846344470977783203e-01 5.459128320217132568e-02 9.550698846578598022e-02 -1.323702838271856308e-02 -1.088330429047346115e-02 1.078741326928138733e-01 -2.083119750022888184e-01 -5.062031559646129608e-03 -1.363843083381652832e-01 2.509405016899108887e-01 6.149959564208984375e-02 -1.842789500951766968e-01 -8.078251779079437256e-02 1.277396380901336670e-01 1.769355535507202148e-01 5.462219715118408203e-01 -6.200962066650390625e-01 -3.074832260608673096e-02
-9.335713833570480347e-02 -4.335035383701324463e-02 -6.501150317490100861e-03 6.798367830924689770e-04 -6.196204572916030884e-03 2.810041187331080437e-03 1.009286493062973022e-01 -6.361187994480133057e-02 -5.466933920979499817e-02 -4.708318039774894714e-02 6.731944531202316284e-02 4.544002935290336609e-02 4.608569294214248657e-02 3.518492937088012695e+00 7.232936564832925797e-03 4.420191794633865356e-02 3.326168283820152283e-02 1.681172987446188927e-03 1.437844932079315186e-01 -1.332142017781734467e-02 1.866090111434459686e-02 5.364031065255403519e-03 5.808941647410392761e-02 9.692566841840744019e-02 5.961343646049499512e-02 -1.386273466050624847e-02 -5.607697740197181702e-02 5.135516077280044556e-02 1.986685208976268768e-02 3.458973392844200134e-02 -9.295614063739776611e-02 -1.017639562487602234e-01 1.805093139410018921e-02 8.538693189620971680e-02 -5.572384223341941833e-02 -5.141436681151390076e-02 3.512304276227951050e-02 5.581139121204614639e-03 4.209018126130104065e-02 1.070178076624870300e-01 1.799644785933196545e-03 -3.593748062849044800e-02 -1.212598308920860291e-01 -4.491915181279182434e-02 -7.734513282775878906e-02 2.511731907725334167e-02 1.778641948476433754e-03 -7.784688472747802734e-02 -8.442466706037521362e-02 2.925516746472567320e-04 1.375956833362579346e-01 5.530174821615219116e-02 -4.686237871646881104e-02 -3.293386101722717285e-02 1.738141290843486786e-02 8.648703247308731079e-02 -9.756296128034591675e-02 1.153738349676132202e-01 2.086650393903255463e-02 -3.380722552537918091e-02 1.030434481799602509e-02 -4.068182036280632019e-02 1.105471178889274597e-01 2.462135395035147667e-03 6.430311128497123718e-03 1.762855425477027893e-02 8.168354630470275879e-02 -7.807682268321514130e-03 3.517932817339897156e-02 2.656793594360351562e-02 -9.935415349900722504e-03 -1.796321012079715729e-02 -9.671469777822494507e-02 4.786663874983787537e-02 -7.599407806992530823e-03 8.894223719835281372e-02 2.164563722908496857e-02 5.534688383340835571e-02 9.633690933696925640e-04 1.656685490161180496e-03 -2.560095787048339844e-01 2.674560248851776123e-02 -9.437097609043121338e-02 1.142848562449216843e-02 2.181320078670978546e-02 -1.202048286795616150e-01 2.887994982302188873e-02 -6.987860053777694702e-02 8.784920908510684967e-03 2.378760837018489838e-02 5.333881825208663940e-02 -2.770223841071128845e-02 1.798731833696365356e-02 -4.963843896985054016e-02 -8.903078734874725342e-03 -4.695151001214981079e-03 -1.278934907168149948e-02 -5.976015329360961914e-02 2.812758646905422211e-02 3.817695379257202148e-02
