-9.345212578773498535e-02 1.353497803211212158e-02 -4.662248119711875916e-02 1.423220783472061157e-01 1.038224995136260986e-01 -3.245618939399719238e-02 -1.029946841299533844e-02 1.224569380283355713e-01 1.382551640272140503e-01 -1.963554173707962036e-01 -2.237797081470489502e-01 -6.519667804241180420e-02 5.466004833579063416e-03 2.289213687181472778e-01 2.293172180652618408e-01 -1.635067313909530640e-01 1.955307461321353912e-02 -1.443253010511398315e-01 1.956230551004409790e-01 1.451776083558797836e-02 7.372498512268066406e-02 -8.331536501646041870e-02 6.363610737025737762e-03 2.447810620069503784e-01 1.277498602867126465e-01 -5.411706566810607910e-01 2.252069711685180664e-01 2.089792490005493164e-01 -1.311975717544555664e-02 -8.688471466302871704e-02 -3.625124320387840271e-02 -1.696083843708038330e-01 -3.051501512527465820e-01 2.236764729022979736e-01 5.079645663499832153e-02 1.604942530393600464e-01 9.465521434321999550e-04 -4.074180871248245239e-02 -1.038419753313064575e-01 3.056724742054939270e-02 1.045755445957183838e-01 -2.435919013805687428e-04 4.217489063739776611e-02 5.826201289892196655e-03 1.732470542192459106e-01 8.235803246498107910e-02 5.667347833514213562e-02 8.363551646471023560e-02 -3.075349330902099609e-01 2.596619166433811188e-02 -4.601537585258483887e-01 9.650453925132751465e-02 2.068657986819744110e-02 5.826825276017189026e-02 -6.212745234370231628e-02 -6.144797801971435547e-01 1.207042783498764038e-01 1.686890237033367157e-02 -1.147617027163505554e-01 -3.140744566917419434e-02 -1.032678559422492981e-01 -6.344178318977355957e-02 -2.222072631120681763e-01 -2.916015125811100006e-02 -2.652773633599281311e-02 8.120991289615631104e-02 1.961459405720233917e-02 -5.628373101353645325e-02 -3.611617162823677063e-02 -1.095277518033981323e-01 3.675957769155502319e-02 2.015087753534317017e-02 8.461736887693405151e-02 -2.114708721637725830e-01 -2.970593869686126709e-01 -1.569054722785949707e-01 1.201316267251968384e-01 -2.221603542566299438e-01 -1.958489567041397095e-01 -6.805711239576339722e-02 -8.811521530151367188e-02 -1.459983587265014648e-01 2.854363992810249329e-02 1.171213090419769287e-01 -5.496987327933311462e-02 2.966986298561096191e-01 -6.601508706808090210e-02 1.322020292282104492e-01 -1.683693230152130127e-01 3.258348107337951660e-01 -4.300130065530538559e-03 6.797607988119125366e-02 2.072864174842834473e-01 -4.264305159449577332e-02 1.656598970293998718e-02 -1.012801676988601685e-01 -5.915534123778343201e-02 1.580691039562225342e-01 6.770047545433044434e-02 -2.859080433845520020e-01
-1.997867971658706665e-01 1.080241128802299500e-01 1.611984074115753174e-01 4.981315881013870239e-02 -4.096468538045883179e-02 -1.407676935195922852e-01 -3.244749009609222412e-01 -1.579960435628890991e-01 -1.652248017489910126e-02 4.720060899853706360e-02 -7.446779310703277588e-02 1.593692153692245483e-01 -2.001934051513671875e-01 -1.428007036447525024e-01 1.154192239046096802e-01 4.122876003384590149e-02 2.188458144664764404e-01 -4.059958457946777344e-02 -1.010577902197837830e-01 4.108217954635620117e-01 1.606536209583282471e-01 -1.222302094101905823e-01 -7.410083431750535965e-03 7.235684990882873535e-02 -3.920158445835113525e-01 1.377384066581726074e-01 6.459280103445053101e-02 2.765438705682754517e-02 -9.976807236671447754e-02 2.334910333156585693e-01 -2.267987430095672607e-01 7.448996603488922119e-02 -2.379419095814228058e-02 4.023952037096023560e-02 1.178321093320846558e-01 7.817650586366653442e-02 -1.304693613201379776e-02 -1.213296949863433838e-01 2.901299390941858292e-03 2.461798787117004395e-01 -4.350771754980087280e-02 1.384822726249694824e-01 -3.374738246202468872e-02 -3.089674711227416992e-01 6.707884371280670166e-02 -1.348510235548019409e-01 -2.246849536895751953e-01 6.989879161119461060e-02 -1.639378517866134644e-01 -1.814515739679336548e-01 1.166838333010673523e-01 -1.938255280256271362e-01 -1.056394129991531372e-01 1.286998242139816284e-01 -1.989073008298873901e-01 -1.815734356641769409e-01 -7.071068137884140015e-02 1.409515365958213806e-02 4.455303028225898743e-02 -2.750001288950443268e-02 -3.579971194267272949e-01 2.797720730304718018e-01 -1.243710219860076904e-01 1.716567724943161011e-01 4.093065857887268066e-02 -1.722169071435928345e-01 8.225286751985549927e-02 5.703628808259963989e-02 2.131489366292953491e-01 -3.114646300673484802e-02 -2.352114766836166382e-02 2.219090797007083893e-02 -2.138374447822570801e-01 8.824055641889572144e-02 2.675729691982269287e-01 -1.450393348932266235e-01 -7.799962162971496582e-02 -1.430238038301467896e-01 1.440522912889719009e-02 -1.296822726726531982e-01 -2.423686534166336060e-01 3.329061269760131836e-01 -4.401999339461326599e-02 1.543994545936584473e-01 -1.265245527029037476e-01 1.909330189228057861e-01 -4.025927186012268066e-02 -1.714675426483154297e-01 1.128960996866226196e-01 1.319114118814468384e-01 1.770346462726593018e-01 -4.741167649626731873e-02 2.292011976242065430e-01 4.768052697181701660e-02 -1.618380844593048096e-01 -7.229257840663194656e-03 4.385838285088539124e-02 1.770917326211929321e-01 1.506388187408447266e-02 -2.163686901330947876e-01
-1.963519752025604248e-01 1.520062386989593506e-01 9.602146595716476440e-02 -2.156751453876495361e-01 8.494381606578826904e-02 -8.251470327377319336e-02 5.771624296903610229e-02 1.621508598327636719e-01 -8.464823663234710693e-02 -3.423489332199096680e-01 -1.340717971324920654e-01 4.929676279425621033e-02 1.568233966827392578e-01 1.649982333183288574e-01 -2.624062299728393555e-01 -9.669168293476104736e-02 -6.904585659503936768e-02 -1.532278060913085938e-01 9.963630139827728271e-02 6.665284186601638794e-02 -3.582410514354705811e-02 6.968330591917037964e-02 6.125022191554307938e-03 -3.449306786060333252e-01 8.435983210802078247e-02 -1.009896025061607361e-01 1.119231898337602615e-02 -2.329416014254093170e-02 4.868248105049133301e-02 2.121260315179824829e-01 -2.850187383592128754e-02 -1.140307411551475525e-01 3.450321853160858154e-01 -4.141302779316902161e-03 -3.448117375373840332e-01 -1.800011545419692993e-01 3.692197799682617188e-02 -2.826236560940742493e-02 1.855333521962165833e-02 -2.369462549686431885e-01 4.568172991275787354e-02 9.440440684556961060e-02 -1.125543117523193359e-01 -2.964853942394256592e-01 1.291339844465255737e-01 -1.603190004825592041e-01 9.191064536571502686e-02 4.379633069038391113e-01 6.106189265847206116e-02 -5.803957954049110413e-02 3.268621563911437988e-01 1.489087343215942383e-01 -2.675437554717063904e-02 6.575455516576766968e-02 -1.681415438652038574e-01 2.605526447296142578e-01 6.399765610694885254e-02 -3.068761527538299561e-01 -2.900010533630847931e-02 -1.143202558159828186e-01 -6.659793853759765625e-02 1.602401137351989746e-01 -2.410479187965393066e-01 -8.357470482587814331e-02 -9.517133235931396484e-02 -5.459439009428024292e-02 4.563038051128387451e-02 7.578101009130477905e-02 3.297862038016319275e-02 -1.497147083282470703e-01 -7.503621280193328857e-02 -1.327831447124481201e-01 1.174121052026748657e-01 6.176498904824256897e-02 -1.486698444932699203e-02 4.734842777252197266e-01 1.199491843581199646e-01 -2.941085398197174072e-01 1.411380525678396225e-02 2.208036556839942932e-02 -3.361496329307556152e-01 -3.573815571144223213e-03 -1.599824279546737671e-01 -2.547272294759750366e-02 -5.228796601295471191e-02 -1.004591118544340134e-02 4.054087400436401367e-01 -2.630158662796020508e-01 2.033645473420619965e-02 2.085149288177490234e-01 -1.834680587053298950e-01 -2.272665500640869141e-01 6.578578799962997437e-02 1.806396394968032837e-01 1.886025071144104004e-02 -3.112634085118770599e-02 7.591388374567031860e-02 2.611554972827434540e-02 -1.285629570484161377e-01 6.358721852302551270e-02
1.751309633255004883e-01 -1.430861745029687881e-02 -1.298238933086395264e-01 3.337163329124450684e-01 1.322806328535079956e-01 5.719241499900817871e-02 6.727565079927444458e-02 -1.558399200439453125e-01 -5.200232863426208496e-01 -1.831438243389129639e-01 -7.776490598917007446e-02 5.039220303297042847e-02 -1.003620550036430359e-01 -2.718023061752319336e-01 1.290485858917236328e-01 1.391256321221590042e-02 5.817244052886962891e-01 -1.638916134834289551e-01 1.023259293287992477e-02 -7.952189445495605469e-02 1.282293498516082764e-01 -1.388583797961473465e-03 -8.474236819893121719e-04 3.080526590347290039e-01 3.378238677978515625e-01 -9.575815498828887939e-02 3.031015396118164062e-01 1.213243007659912109e-01 1.204462628811597824e-02 3.763973340392112732e-02 2.502046823501586914e-01 1.453129947185516357e-01 2.305953949689865112e-01 -2.368927896022796631e-01 1.083640977740287781e-01 1.933695822954177856e-01 -4.841247946023941040e-02 1.969447731971740723e-01 -2.918094396591186523e-01 1.262141913175582886e-01 -3.263674080371856689e-01 2.713192105293273926e-01 6.224586963653564453e-01 8.762212097644805908e-02 -2.177229821681976318e-01 6.843972951173782349e-02 -1.883920580148696899e-01 -3.349554836750030518e-01 -7.896876335144042969e-01 2.733155190944671631e-01 -2.271903902292251587e-01 -2.794371172785758972e-02 3.854961320757865906e-02 1.195878162980079651e-01 -6.754556298255920410e-02 -1.864592134952545166e-01 1.206557452678680420e-01 9.954510629177093506e-02 -1.591265015304088593e-02 9.361012279987335205e-02 -1.243956610560417175e-01 2.981693856418132782e-02 -2.068147808313369751e-02 1.164103448390960693e-01 -5.685557723045349121e-01 3.090627864003181458e-02 -3.194834291934967041e-02 -2.063920944929122925e-01 1.644082665443420410e-01 7.281823456287384033e-02 -1.317726634442806244e-02 -1.551955342292785645e-01 1.540987938642501831e-01 1.617524772882461548e-01 6.830141693353652954e-02 3.012082576751708984e-01 2.936657704412937164e-02 2.560749351978302002e-01 -1.465141773223876953e-01 -1.686518788337707520e-01 8.617185801267623901e-02 4.431797936558723450e-02 4.508967697620391846e-01 1.925747692584991455e-01 -2.910990826785564423e-02 1.298931092023849487e-01 -3.763082921504974365e-01 -2.700487524271011353e-02 6.225261837244033813e-02 -1.396434605121612549e-01 9.646456688642501831e-02 -2.788233757019042969e-01 2.777345851063728333e-02 2.269432991743087769e-01 1.588781625032424927e-01 1.511993557214736938e-01 -1.086764708161354065e-01 -3.905188664793968201e-02 -1.250153183937072754e-01 -4.082216024398803711e-01
-2.253548614680767059e-02 -4.632549583911895752e-01 2.053346931934356689e-01 3.142138943076133728e-02 -1.752730756998062134e-01 -1.161778271198272705e-01 1.915165483951568604e-01 2.794066071510314941e-01 -1.022437959909439087e-01 9.947860240936279297e-02 1.266997456550598145e-01 1.572058349847793579e-01 -7.908272743225097656e-02 2.256454080343246460e-01 -1.994047015905380249e-01 -2.485157996416091919e-01 -3.224506378173828125e-01 2.087840586900711060e-01 -3.463477641344070435e-02 1.160348355770111084e-01 -5.606853961944580078e-02 1.301665753126144409e-01 1.158831361681222916e-02 -3.544833883643150330e-02 -1.039684414863586426e-01 6.441227160394191742e-03 8.637652546167373657e-02 9.384609758853912354e-02 1.932390183210372925e-01 2.483556121587753296e-01 1.887429356575012207e-01 1.797682642936706543e-01 3.907673656940460205e-01 -4.170570969581604004e-01 5.865991115570068359e-02 2.268126159906387329e-01 7.769870758056640625e-02 -3.300563618540763855e-02 1.278346031904220581e-01 7.921095937490463257e-03 -1.294115036725997925e-01 -2.701962888240814209e-01 2.943148612976074219e-01 5.787029117345809937e-02 -1.180895864963531494e-01 -2.146644592285156250e-01 3.043130785226821899e-02 -9.212002903223037720e-02 1.585620492696762085e-01 -2.502310574054718018e-01 3.793049603700637817e-02 1.297093480825424194e-01 -4.252091646194458008e-01 1.163204312324523926e-01 -4.742098599672317505e-02 -3.861375153064727783e-02 -1.900243163108825684e-01 -2.115889452397823334e-02 -1.842837035655975342e-01 -7.601314038038253784e-02 -1.549170315265655518e-01 -1.748720854520797729e-01 -2.220924049615859985e-01 4.280114918947219849e-02 -1.259502172470092773e-01 7.815548777580261230e-02 -1.290639191865921021e-01 5.200594197958707809e-03 6.594148278236389160e-02 -8.650344610214233398e-02 3.670363426208496094e-01 -1.248227655887603760e-01 1.071587949991226196e-01 4.379342123866081238e-02 -4.367386400699615479e-01 -3.844789862632751465e-01 8.533976972103118896e-02 7.215346395969390869e-02 -1.079674437642097473e-01 8.179468661546707153e-02 1.638108305633068085e-02 -2.717728018760681152e-01 -1.252923607826232910e-01 2.087503522634506226e-01 1.070409789681434631e-01 -1.237557455897331238e-01 6.414263695478439331e-02 1.517214179039001465e-01 6.092651188373565674e-02 9.234803915023803711e-02 8.299829065799713135e-02 6.483250111341476440e-02 -4.364042729139328003e-02 2.000437527894973755e-01 -1.299516018480062485e-02 2.103125751018524170e-01 -1.286099106073379517e-01 4.760085046291351318e-02 -1.941124349832534790e-01 5.981849506497383118e-02
2.155640423297882080e-01 -1.270241588354110718e-01 -5.502017214894294739e-02 2.069151848554611206e-01 2.192697823047637939e-01 9.471598267555236816e-02 -9.099219739437103271e-02 4.935478419065475464e-02 6.578177213668823242e-01 -3.306282311677932739e-02 -8.357311040163040161e-02 -7.587388902902603149e-02 -2.173027247190475464e-01 -2.791615426540374756e-01 3.976143002510070801e-01 1.021492406725883484e-01 -6.548540592193603516e-01 -1.928772181272506714e-01 -8.897993713617324829e-02 3.686934709548950195e-02 2.073004096746444702e-02 -2.722805440425872803e-01 5.288869142532348633e-03 4.939332306385040283e-01 -3.675030171871185303e-01 2.409044802188873291e-01 -2.405604813247919083e-03 1.763245016336441040e-01 2.839368768036365509e-03 3.947049751877784729e-02 1.329112425446510315e-02 -3.143591284751892090e-01 -1.095257252454757690e-01 1.280699223279953003e-01 1.539487689733505249e-01 1.840537488460540771e-01 -1.596125215291976929e-01 2.582443132996559143e-02 3.377323448657989502e-01 -2.875770032405853271e-01 2.664134502410888672e-01 2.363307178020477295e-01 -5.373181030154228210e-02 -5.867834761738777161e-02 -1.866247802972793579e-01 -2.857281640172004700e-02 -1.129768788814544678e-01 7.883583009243011475e-02 6.443486213684082031e-01 1.630462110042572021e-01 7.948653399944305420e-02 2.955101132392883301e-01 -2.360640764236450195e-01 3.691269084811210632e-02 1.528001278638839722e-01 -1.578217297792434692e-01 -1.262939870357513428e-01 -2.030854523181915283e-01 -1.085406094789505005e-01 2.006630003452301025e-01 1.732048839330673218e-01 4.909363985061645508e-01 1.075673699378967285e-01 -1.471525281667709351e-01 -1.413326710462570190e-01 1.853008717298507690e-01 -4.153642803430557251e-02 -1.892214566469192505e-01 1.215049624443054199e-01 -3.150174021720886230e-02 -7.503737509250640869e-02 1.970581710338592529e-02 -1.213640570640563965e-01 -9.575583040714263916e-02 4.472044855356216431e-02 1.022284030914306641e-01 7.011537253856658936e-02 2.184334211051464081e-02 1.733319759368896484e-01 -5.671554710716009140e-03 -3.330256789922714233e-02 -7.054091244935989380e-02 -1.539492160081863403e-01 2.822378091514110565e-02 -2.937993779778480530e-02 3.787722066044807434e-02 -4.644260108470916748e-01 -2.170278690755367279e-02 -1.766230463981628418e-01 -2.068830430507659912e-01 1.868402808904647827e-01 -1.452929247170686722e-02 -1.390852928161621094e-01 -3.732766509056091309e-01 4.352215677499771118e-02 -1.151628270745277405e-01 -2.328791916370391846e-01 4.707995429635047913e-02 1.420823931694030762e-01 1.167507097125053406e-01
-5.306260287761688232e-02 3.299671784043312073e-02 1.508240699768066406e-01 8.384057283401489258e-01 3.381745889782905579e-02 -4.450939595699310303e-02 -1.089035999029874802e-02 -8.190292865037918091e-03 -2.076546102762222290e-01 2.495415061712265015e-01 4.499818198382854462e-03 3.204050287604331970e-02 2.167428880929946899e-01 1.580729186534881592e-01 -6.164771318435668945e-02 -1.485793590545654297e-01 4.109467379748821259e-03 -8.207862824201583862e-02 1.202351897954940796e-01 6.187784485518932343e-03 5.078760161995887756e-02 -1.131158247590065002e-01 -2.013373747467994690e-02 1.276966766454279423e-03 -8.541333675384521484e-02 -1.445527672767639160e-01 1.672310009598731995e-02 1.673804670572280884e-01 2.693515084683895111e-02 -6.464507430791854858e-02 2.936026826500892639e-02 1.595315188169479370e-01 -9.596199542284011841e-02 7.092927396297454834e-02 1.248531639575958252e-01 1.134174168109893799e-01 -1.082074642181396484e-01 -7.198793441057205200e-02 6.297465413808822632e-02 -3.158206492662429810e-02 -5.435036122798919678e-02 4.917085170745849609e-03 6.869683414697647095e-02 4.344140291213989258e-01 6.255688518285751343e-02 -1.010073255747556686e-02 -1.900401115417480469e-01 -3.006003051996231079e-02 -1.006554439663887024e-02 1.469361875206232071e-02 -9.990336000919342041e-02 5.201039090752601624e-02 -2.653729356825351715e-02 1.363844573497772217e-01 -4.239706322550773621e-02 -2.669472098350524902e-01 6.336490809917449951e-02 2.374126613140106201e-01 1.053057238459587097e-01 -5.560450255870819092e-02 3.616340830922126770e-02 -2.820235304534435272e-02 -1.673783957958221436e-01 -2.835956215858459473e-02 5.849376320838928223e-02 -2.090692520141601562e-01 -1.602326184511184692e-01 1.410196125507354736e-01 -4.634692799299955368e-03 4.800190404057502747e-02 -3.538246750831604004e-01 -1.126495599746704102e-01 1.759380251169204712e-01 -2.598270773887634277e-01 -2.057318240404129028e-01 -4.160883277654647827e-02 1.688671112060546875e-01 -1.563263833522796631e-01 -1.956456899642944336e-01 -7.560449838638305664e-02 3.092023544013500214e-02 2.715249173343181610e-02 2.640079259872436523e-01 3.968301713466644287e-01 -1.458365917205810547e-01 2.264213114976882935e-01 -2.237613499164581299e-01 -1.070714890956878662e-01 -1.989034861326217651e-01 -6.067113950848579407e-02 -2.036588042974472046e-01 -7.792630791664123535e-02 2.520098686218261719e-01 1.975616514682769775e-01 -5.988547578454017639e-02 -6.420665234327316284e-02 7.287721335887908936e-02 5.818187445402145386e-02 1.353495717048645020e-01 1.418041586875915527e-01
-8.064036071300506592e-02 -5.261103063821792603e-02 1.801658123731613159e-01 -2.315288186073303223e-01 -5.862642428837716579e-04 -3.558655977249145508e-01 -1.551571637392044067e-01 -2.166802138090133667e-01 -3.603674098849296570e-02 9.287259727716445923e-02 5.612670630216598511e-02 -1.437255740165710449e-01 -2.740741521120071411e-02 2.162826657295227051e-01 1.153027787804603577e-01 1.499622613191604614e-01 3.522837162017822266e-01 4.632924869656562805e-02 4.571429267525672913e-02 -3.942281007766723633e-02 -4.267896991223096848e-03 1.172979995608329773e-01 -3.936751279979944229e-03 -2.666923403739929199e-01 -7.881043106317520142e-02 -1.441867789253592491e-03 -1.013472899794578552e-01 4.941744729876518250e-02 1.344379484653472900e-01 -6.886064261198043823e-02 1.901309639215469360e-01 -8.122285604476928711e-01 -1.403702050447463989e-01 2.799185812473297119e-01 -2.282669581472873688e-02 -1.852532774209976196e-01 -8.654390275478363037e-02 4.833314567804336548e-02 7.063392549753189087e-02 2.280261740088462830e-02 -4.228848963975906372e-03 3.130379691720008850e-02 4.169624447822570801e-01 -1.120809540152549744e-01 -2.248271554708480835e-01 1.520884037017822266e-01 8.044175803661346436e-02 -1.529523730278015137e-01 -3.244407474994659424e-01 -7.727596163749694824e-02 1.573591977357864380e-01 -5.467838048934936523e-02 1.317405700683593750e-01 6.740237027406692505e-02 3.130179643630981445e-01 -8.050706982612609863e-02 1.262983530759811401e-01 2.340986430644989014e-01 -8.028359711170196533e-02 -1.265536844730377197e-01 -5.401813238859176636e-02 6.183475628495216370e-02 9.612963348627090454e-02 -1.019783467054367065e-01 1.130668595433235168e-01 1.195814609527587891e-01 6.618567556142807007e-02 3.487017005681991577e-02 1.176762878894805908e-01 1.429160684347152710e-01 -6.278369575738906860e-02 1.009897738695144653e-01 -4.566917661577463150e-03 -4.683907628059387207e-01 -1.001777499914169312e-01 -6.319091469049453735e-02 -4.539814591407775879e-01 -1.107213050127029419e-01 -2.714809179306030273e-01 -1.761221938068047166e-04 -1.448266301304101944e-02 2.158280648291110992e-02 5.308864638209342957e-02 -1.815734617412090302e-02 1.315924376249313354e-01 2.024878710508346558e-01 1.407115906476974487e-01 2.466087937355041504e-01 3.422854095697402954e-02 7.114150375127792358e-02 3.318798914551734924e-02 -3.342676535248756409e-02 6.405990570783615112e-02 -3.343022763729095459e-01 -2.855881452560424805e-01 -7.851013541221618652e-02 6.367580592632293701e-02 1.656289249658584595e-01 -8.872503042221069336e-02 -3.240959644317626953e-01
3.662302345037460327e-02 1.178927812725305557e-02 -1.041711419820785522e-01 1.943732798099517822e-02 4.743923246860504150e-02 5.103179812431335449e-02 -3.290877342224121094e-01 4.998777434229850769e-02 1.668199710547924042e-02 -1.084813550114631653e-01 9.433064609766006470e-02 2.316539734601974487e-02 -3.110330104827880859e-01 2.426755875349044800e-01 -1.235364079475402832e-01 -5.654791742563247681e-02 -2.206687629222869873e-01 -2.810751833021640778e-02 1.283910423517227173e-01 1.528358738869428635e-02 -4.679449647665023804e-02 6.312417238950729370e-02 1.028564409352838993e-03 9.567218273878097534e-02 -1.044583395123481750e-01 -6.198825314640998840e-02 7.061917334794998169e-02 1.372947990894317627e-01 1.790950000286102295e-01 1.822279766201972961e-02 2.169269621372222900e-01 5.434480495750904083e-03 7.710766047239303589e-02 2.134277718141674995e-03 -5.743098258972167969e-02 1.828514784574508667e-01 1.189772039651870728e-01 -1.003464013338088989e-01 1.223226785659790039e-01 -1.682623475790023804e-01 -5.042706057429313660e-02 8.553250879049301147e-02 -4.004206135869026184e-02 -2.491900175809860229e-01 -2.414285689592361450e-01 -1.250487635843455791e-03 -8.601458370685577393e-02 -1.874439269304275513e-01 -3.034245073795318604e-01 -1.671073585748672485e-01 1.153715774416923523e-01 2.809000015258789062e-01 -1.260389108210802078e-02 2.105486951768398285e-02 -5.892794579267501831e-02 2.375533580780029297e-01 1.446843296289443970e-01 1.340249925851821899e-01 -5.335615575313568115e-02 2.247043401002883911e-01 1.558499038219451904e-01 -3.295654952526092529e-01 -1.561959534883499146e-01 -2.243833243846893311e-01 6.042357906699180603e-02 -2.985078692436218262e-01 -1.441158801317214966e-01 1.398404389619827271e-01 4.891775175929069519e-02 -4.853587225079536438e-02 -1.105316169559955597e-02 1.006722375750541687e-01 4.898064769804477692e-03 -3.220128118991851807e-01 -9.946500509977340698e-02 8.114480227231979370e-02 3.032838702201843262e-01 -1.088935136795043945e-01 -5.717808753252029419e-02 6.659150868654251099e-02 -3.566579148173332214e-02 -1.536535918712615967e-01 1.851613521575927734e-01 8.660943806171417236e-02 -9.543030709028244019e-02 5.063038319349288940e-02 8.485092967748641968e-02 -4.635202586650848389e-01 9.008029103279113770e-02 -3.906013816595077515e-02 3.166421353816986084e-01 5.815305188298225403e-02 1.550565380603075027e-02 9.183268249034881592e-02 -1.830266602337360382e-02 -7.298605144023895264e-02 2.228071913123130798e-02 -3.249805048108100891e-02 -9.344769269227981567e-02 -2.294785715639591217e-02
-7.618599385023117065e-02 -8.732579648494720459e-02 2.917182631790637970e-02 -4.916208237409591675e-02 -5.133986845612525940e-02 -1.201029494404792786e-01 -5.031415447592735291e-02 1.585961319506168365e-02 -5.141308903694152832e-02 -2.629028260707855225e-02 2.628108859062194824e-02 -1.400612294673919678e-01 -2.840667404234409332e-02 -1.209099441766738892e-01 2.182823792099952698e-02 -6.482957303524017334e-02 -9.294254332780838013e-02 -1.068135872483253479e-01 3.197161853313446045e-02 -1.530589908361434937e-02 2.450377866625785828e-02 -5.836763978004455566e-02 -8.993422985076904297e-02 -4.035776853561401367e-02 -6.845909636467695236e-03 -9.865279495716094971e-02 2.910115383565425873e-02 -7.430153898894786835e-03 -7.380820065736770630e-02 -8.804562687873840332e-02 5.248936638236045837e-02 8.438458293676376343e-02 -2.356561273336410522e-02 -1.001167073845863342e-01 7.179076969623565674e-02 -6.600251793861389160e-02 -1.082112938165664673e-01 3.671418875455856323e-02 2.742974646389484406e-02 -8.822370320558547974e-02 -2.831528894603252411e-03 5.563690885901451111e-02 1.991698332130908966e-02 -9.677828103303909302e-02 -8.481985889375209808e-03 -1.253858394920825958e-02 6.953734904527664185e-03 -6.492192298173904419e-02 6.558668613433837891e-02 -1.078104376792907715e-01 -7.551312446594238281e-02 2.829175442457199097e-02 -9.741801023483276367e-02 -4.935976117849349976e-02 1.301995851099491119e-02 -4.325940832495689392e-02 -4.791389778256416321e-02 -1.112874150276184082e-01 -4.967818967998027802e-03 -1.163190305233001709e-01 -1.072576045989990234e-01 -1.123871505260467529e-01 -3.536651842296123505e-03 -1.354587227106094360e-01 -6.784468144178390503e-02 3.477505221962928772e-02 -1.249204650521278381e-01 -1.109456270933151245e-01 2.210586145520210266e-02 -1.345425397157669067e-01 -1.671619154512882233e-02 -8.309461921453475952e-02 -3.727227821946144104e-02 6.259422749280929565e-02 -1.044929921627044678e-01 5.621045082807540894e-02 -9.256158769130706787e-02 -2.447933331131935120e-02 5.353633314371109009e-02 -9.075556695461273193e-02 -6.913084536790847778e-02 3.544691577553749084e-02 4.110175743699073792e-02 -8.792231790721416473e-03 -1.336597800254821777e-01 -8.598607033491134644e-02 3.852540254592895508e-02 -1.350064128637313843e-01 8.592460304498672485e-02 -3.869846090674400330e-02 -4.324918240308761597e-02 4.964338615536689758e-02 6.372807919979095459e-02 -1.996115036308765411e-02 -1.249929517507553101e-01 -4.549792408943176270e-02 -1.521998178213834763e-02 -5.751475226134061813e-03 -4.837789013981819153e-02 -5.904084071516990662e-02
1.098511219024658203e-01 2.184679657220840454e-01 2.906500697135925293e-01 3.288032412528991699e-01 -3.021240830421447754e-01 -1.217957511544227600e-01 -4.006429389119148254e-02 2.197221815586090088e-01 1.714795827865600586e-01 1.263017673045396805e-02 7.105220854282379150e-02 -4.692221805453300476e-02 -1.859614849090576172e-01 -1.637957543134689331e-01 -1.911865621805191040e-01 -2.165340185165405273e-01 -1.386321634054183960e-01 2.127359062433242798e-01 -8.831801265478134155e-02 7.891270518302917480e-02 1.396364271640777588e-01 1.770855784416198730e-01 2.074016816914081573e-02 3.467973694205284119e-02 -1.533199101686477661e-01 -2.424937784671783447e-01 -9.273731149733066559e-03 -1.077862158417701721e-01 6.679604202508926392e-02 3.944946452975273132e-02 -6.347905099391937256e-02 -2.589154243469238281e-01 -1.808429509401321411e-01 -3.345247358083724976e-02 -2.383385598659515381e-02 1.367169916629791260e-01 -8.988762646913528442e-02 -5.847750976681709290e-02 1.942942440509796143e-01 -1.744828075170516968e-01 1.577897556126117706e-02 -3.488307818770408630e-02 1.416124552488327026e-01 -1.498042494058609009e-01 3.220173716545104980e-01 -1.949870735406875610e-01 1.027845498174428940e-02 -2.911273539066314697e-01 -9.806040674448013306e-02 -2.721158266067504883e-01 -4.937361478805541992e-01 2.068486809730529785e-01 1.575644016265869141e-01 -6.877763569355010986e-02 8.057571947574615479e-02 -3.299423679709434509e-02 -6.937033962458372116e-03 1.815221905708312988e-01 1.205704882740974426e-01 7.234486937522888184e-02 -5.754233598709106445e-01 -3.159296214580535889e-01 -1.368711143732070923e-01 -1.647641956806182861e-01 -7.183788716793060303e-02 -1.900008469820022583e-01 9.356880560517311096e-03 6.947077065706253052e-02 9.852419793605804443e-02 -9.528968483209609985e-03 -2.721592485904693604e-01 5.487028881907463074e-02 -6.752010900527238846e-03 4.428400192409753799e-03 1.351882964372634888e-01 1.374958902597427368e-01 2.406289055943489075e-02 -8.428732305765151978e-02 -2.218002676963806152e-01 -1.306939423084259033e-01 1.464182883501052856e-02 1.018494591116905212e-01 2.216610759496688843e-01 -9.437465667724609375e-02 -1.400229483842849731e-01 4.075587540864944458e-02 2.683452069759368896e-01 3.719752654433250427e-02 -1.368834227323532104e-01 2.075503915548324585e-01 2.029682844877243042e-01 -4.191066622734069824e-01 3.839578479528427124e-02 1.937858015298843384e-01 -2.649632515385746956e-03 7.863900065422058105e-02 -1.237400993704795837e-01 4.412041977047920227e-02 -1.568203866481781006e-01 -2.727689743041992188e-01
-4.187871217727661133e-01 2.885373681783676147e-02 -7.995325326919555664e-02 -1.679506301879882812e-01 -1.205895189195871353e-02 2.616302296519279480e-02 1.777961105108261108e-01 1.380363553762435913e-01 -7.833763957023620605e-02 -1.513181030750274658e-01 1.710007712244987488e-02 -8.252030238509178162e-04 1.314704027026891708e-02 2.371672242879867554e-01 -3.445270061492919922e-01 1.888014189898967743e-02 -1.992928385734558105e-01 3.282141685485839844e-01 -2.147248834371566772e-01 -3.875565230846405029e-01 -2.414805889129638672e-01 -2.311454117298126221e-01 -5.600510630756616592e-03 2.221066802740097046e-01 1.238530725240707397e-01 1.788100451231002808e-01 3.354561328887939453e-02 3.377350047230720520e-02 2.572771608829498291e-01 1.388307064771652222e-01 -7.100158184766769409e-02 2.728169858455657959e-01 -2.097778320312500000e-01 4.486025273799896240e-01 4.277477972209453583e-03 -3.810720890760421753e-02 -5.005941390991210938e-01 -1.284595429897308350e-01 2.943309396505355835e-02 -6.136018633842468262e-01 3.257724940776824951e-01 2.480127662420272827e-01 5.110049247741699219e-02 1.212804019451141357e-01 7.209128141403198242e-02 -3.197082132101058960e-02 -4.657497256994247437e-02 -1.087823361158370972e-01 -4.564381837844848633e-01 -3.044644892215728760e-01 7.390467450022697449e-03 1.330122798681259155e-01 -8.178934454917907715e-02 4.161913692951202393e-02 2.825092077255249023e-01 -5.081151723861694336e-01 2.023416906595230103e-01 -5.289202183485031128e-02 2.236140519380569458e-01 -1.242566704750061035e-01 3.333567976951599121e-01 1.842978061176836491e-03 -9.428013861179351807e-02 -3.599749132990837097e-02 1.005995273590087891e-02 -4.121650755405426025e-02 2.669219374656677246e-01 3.886052668094635010e-01 7.814001291990280151e-02 -4.123571515083312988e-02 2.884884774684906006e-01 -1.982550919055938721e-01 2.299628704786300659e-01 1.544883102178573608e-01 5.438376218080520630e-02 -1.010245382785797119e-01 1.700564473867416382e-01 -6.506381928920745850e-02 1.791636049747467041e-01 2.335043251514434814e-01 1.315910667181015015e-01 -8.351949602365493774e-02 -1.236643940210342407e-01 5.026659369468688965e-02 -1.826260983943939209e-01 -2.292573265731334686e-02 -1.787574887275695801e-01 -1.277729421854019165e-01 -2.632116079330444336e-01 7.113388925790786743e-02 -3.266360238194465637e-02 2.760525941848754883e-01 -2.949831783771514893e-01 1.955988407135009766e-01 -2.554918229579925537e-01 -4.189780354499816895e-01 1.102358940988779068e-02 4.057487100362777710e-02 6.081426739692687988e-01 1.149005442857742310e-01
-1.558310389518737793e-01 -1.452505439519882202e-01 7.736187428236007690e-02 -7.928124815225601196e-02 2.827293574810028076e-01 2.294040173292160034e-01 4.671082645654678345e-02 6.001582741737365723e-02 -1.342360228300094604e-01 -8.233616128563880920e-03 -1.738835275173187256e-01 -1.342959105968475342e-01 2.342607229948043823e-01 2.939855456352233887e-01 -2.912692427635192871e-01 5.732813733629882336e-04 8.663040399551391602e-02 2.511405050754547119e-01 -3.524189069867134094e-02 -1.645799875259399414e-01 -1.915799379348754883e-01 -1.545432507991790771e-01 -1.574367471039295197e-02 4.129035398364067078e-02 -1.441865712404251099e-01 -1.959274262189865112e-01 -1.166813075542449951e-02 2.557998895645141602e-01 1.314663589000701904e-01 1.198700368404388428e-01 2.533429563045501709e-01 1.887552142143249512e-01 1.142069771885871887e-01 3.458545506000518799e-01 -3.412913978099822998e-01 5.695610120892524719e-02 8.858848363161087036e-02 4.161614179611206055e-02 4.586394503712654114e-02 -1.979771405458450317e-01 1.518674641847610474e-01 1.026598215103149414e-01 -6.943685561418533325e-02 -2.445051819086074829e-01 -1.570460945367813110e-01 -1.544524431228637695e-01 2.316461205482482910e-01 -9.927027672529220581e-02 -3.272729367017745972e-02 -1.584725826978683472e-01 2.454834580421447754e-01 3.417248651385307312e-02 3.132925927639007568e-02 8.611435443162918091e-02 1.917243599891662598e-01 -4.453519284725189209e-01 1.772489747963845730e-03 8.745218068361282349e-02 6.894970685243606567e-02 2.016248404979705811e-01 6.089444085955619812e-02 1.029747501015663147e-01 -4.052180424332618713e-02 6.773656606674194336e-02 -1.899936422705650330e-02 2.035808376967906952e-02 1.172139197587966919e-01 -2.393697053194046021e-01 2.446359097957611084e-01 1.073563247919082642e-01 -1.862888932228088379e-01 -4.949488490819931030e-02 -7.884249836206436157e-02 2.661146223545074463e-01 -8.360084146261215210e-02 1.286176890134811401e-01 -1.429807245731353760e-01 2.131137996912002563e-02 -8.336038142442703247e-02 2.679021358489990234e-01 2.925053983926773071e-02 -2.768723107874393463e-02 -3.313617408275604248e-01 1.442887037992477417e-01 7.096730172634124756e-02 2.909573614597320557e-01 1.110464930534362793e-01 -5.430853739380836487e-02 1.409597694873809814e-01 -1.202746015042066574e-02 -1.967136114835739136e-01 -2.844191193580627441e-01 -3.228265345096588135e-01 -1.465056389570236206e-01 6.144016236066818237e-02 -1.333644837141036987e-01 -1.714825481176376343e-01 6.195944547653198242e-01 3.481601178646087646e-01 1.541702542454004288e-02
4.682976603507995605e-01 -2.020848989486694336e-01 -2.142939269542694092e-01 -1.461553871631622314e-01 1.054749488830566406e-01 -1.176497489213943481e-01 -8.642895519733428955e-02 1.646268069744110107e-01 8.004122227430343628e-02 -5.647864937782287598e-02 1.016022339463233948e-01 2.059173136949539185e-01 -2.597520314157009125e-02 -1.136678457260131836e-01 8.502101898193359375e-02 2.505981624126434326e-01 1.569451093673706055e-01 -1.149812191724777222e-01 4.274604842066764832e-02 9.304876625537872314e-02 6.222959607839584351e-02 -1.175140589475631714e-02 -6.762446835637092590e-03 -1.294644922018051147e-01 -1.429189592599868774e-01 -4.248055443167686462e-02 -1.323019117116928101e-01 -1.355308592319488525e-01 8.427794277667999268e-02 2.372304052114486694e-01 4.777176678180694580e-02 1.988798975944519043e-01 -8.668134361505508423e-02 1.049914211034774780e-01 2.744959108531475067e-02 9.280826896429061890e-02 -1.627029478549957275e-01 2.021162807941436768e-01 -2.427380979061126709e-01 2.329590469598770142e-01 2.411116957664489746e-01 -3.416921198368072510e-02 -8.488198369741439819e-02 -3.148253560066223145e-01 -5.752809718251228333e-02 -1.933368444442749023e-01 1.089933887124061584e-01 -1.325965523719787598e-01 -1.405663788318634033e-01 -2.442722395062446594e-02 1.274037957191467285e-01 3.624882996082305908e-01 -2.934469468891620636e-02 -4.644708335399627686e-02 1.412618607282638550e-01 -5.773067474365234375e-01 6.490781903266906738e-02 1.341944187879562378e-01 3.175199925899505615e-01 1.300759613513946533e-01 -2.912196516990661621e-01 2.264397740364074707e-01 1.291238814592361450e-01 5.018958821892738342e-02 -1.691623628139495850e-01 6.810437142848968506e-02 -1.997098475694656372e-01 -3.737440407276153564e-01 -3.069265745580196381e-02 -9.304878115653991699e-02 -8.900301158428192139e-02 1.468650437891483307e-02 -1.932674199342727661e-01 5.478174984455108643e-02 -7.224162667989730835e-02 1.813887208700180054e-01 -6.920871138572692871e-02 -9.825717657804489136e-02 1.393328458070755005e-01 -4.500846192240715027e-02 2.220734208822250366e-02 -2.306700795888900757e-01 -1.845782548189163208e-01 1.960853934288024902e-01 -2.463836781680583954e-02 -1.766260266304016113e-01 -2.921907007694244385e-01 -2.354946359992027283e-02 -2.435641437768936157e-01 -1.152860522270202637e-01 1.018871460109949112e-02 -1.381482779979705811e-01 8.396056294441223145e-02 -1.139326691627502441e-01 6.993212550878524780e-02 1.088996604084968567e-01 -4.235385358333587646e-02 2.181269600987434387e-02 -2.890159785747528076e-01 3.640753030776977539e-02
8.026064932346343994e-02 6.684257090091705322e-02 -1.587279886007308960e-02 -1.619756668806076050e-01 6.340774893760681152e-02 -7.352085411548614502e-02 -1.473884284496307373e-01 4.245873913168907166e-02 5.309021472930908203e-02 1.686767935752868652e-01 -7.569435238838195801e-02 -1.370786875486373901e-01 6.450136750936508179e-02 4.406626522541046143e-01 -8.689968287944793701e-02 -1.086744442582130432e-01 -7.758712768554687500e-02 -1.000573486089706421e-01 2.013383619487285614e-02 -2.984636696055531502e-03 -1.167205497622489929e-01 -1.191198676824569702e-01 1.190620381385087967e-02 -2.382556945085525513e-01 -3.353965580463409424e-01 5.800662562251091003e-02 -1.105136889964342117e-02 -1.850550770759582520e-01 -9.470558911561965942e-02 -1.370928734540939331e-01 6.277471780776977539e-02 1.294923871755599976e-01 -7.519401144236326218e-03 -1.419313997030258179e-01 8.063939958810806274e-02 -2.095567733049392700e-01 2.635603770613670349e-02 6.236938759684562683e-02 6.031518429517745972e-02 1.800205856561660767e-01 1.205623224377632141e-01 3.128593042492866516e-02 2.781731821596622467e-02 -1.121811419725418091e-01 -1.289845108985900879e-01 4.166195541620254517e-02 -7.274384796619415283e-02 3.803969547152519226e-02 -1.192189007997512817e-01 -3.715826198458671570e-02 1.222951337695121765e-01 2.253743410110473633e-01 1.934823393821716309e-02 3.884653327986598015e-03 3.223299980163574219e-02 1.324974745512008667e-01 -3.352393805980682373e-01 -2.159826308488845825e-01 -1.859821528196334839e-01 6.370483338832855225e-02 1.151852756738662720e-01 2.030425518751144409e-01 3.872102824971079826e-03 -2.149136736989021301e-02 1.643010675907135010e-01 6.978430598974227905e-02 -9.460819512605667114e-02 6.977778673171997070e-02 1.764135211706161499e-01 1.122801378369331360e-02 -8.376561105251312256e-02 2.024688720703125000e-01 -7.057932019233703613e-02 -1.145702973008155823e-01 -8.547983318567276001e-02 -1.281114071607589722e-01 3.498404845595359802e-02 2.125017195940017700e-01 -1.458881050348281860e-01 1.193543896079063416e-01 2.254508584737777710e-01 3.940129280090332031e-02 -3.617863357067108154e-01 -2.861644029617309570e-01 -3.196865022182464600e-01 3.564808890223503113e-02 7.674843072891235352e-02 -1.579762250185012817e-01 -1.546609848737716675e-01 2.336502522230148315e-01 -5.897136777639389038e-02 9.442267008125782013e-03 1.148217469453811646e-01 -1.693026274442672729e-01 9.918683022260665894e-02 -2.275657467544078827e-02 1.104331314563751221e-01 -1.101400628685951233e-01 5.669935792684555054e-02 -2.389729917049407959e-01
-1.663538813591003418e-01 -1.365653425455093384e-01 -2.853889465332031250e-01 -2.926733195781707764e-01 -2.529007792472839355e-01 2.060849666595458984e-01 1.381306409835815430e+00 4.608589112758636475e-01 7.044574022293090820e-01 -3.993517160415649414e+00 4.652741178870201111e-02 5.842696875333786011e-02 1.153633520007133484e-01 5.773202329874038696e-02 -1.489092409610748291e-02 1.341753304004669189e-01 4.934734478592872620e-02 2.934778034687042236e-01 1.059729456901550293e-01 -7.542598526924848557e-03 2.032636664807796478e-02 -1.773503124713897705e-01 2.343100681900978088e-02 1.724331676959991455e-01 2.394292950630187988e-01 -8.048093318939208984e-02 1.700905710458755493e-01 2.783861160278320312e-01 -6.256816536188125610e-02 -2.837512083351612091e-02 -1.936475187540054321e-01 3.954472839832305908e-01 9.849657118320465088e-02 2.082929015159606934e-01 2.211424894630908966e-02 -1.102833524346351624e-01 1.350121945142745972e-01 1.197613961994647980e-02 -5.502724051475524902e-01 -1.395574659109115601e-01 -1.493253163062036037e-03 2.106534689664840698e-01 -2.524515986442565918e-01 -8.030960083007812500e+00 3.075453042984008789e-01 4.921067506074905396e-02 4.358543753623962402e-01 -1.464539766311645508e-01 1.260026693344116211e-01 -5.530669167637825012e-02 -1.443572342395782471e-01 -6.100850552320480347e-02 2.969018532894551754e-04 -7.883039116859436035e-02 1.562294960021972656e-01 -4.075334072113037109e+00 -6.337567567825317383e-01 -2.726202309131622314e-01 -6.797806918621063232e-02 4.137205779552459717e-01 2.726866602897644043e-01 -2.329954385757446289e+00 3.178442269563674927e-02 4.008687660098075867e-02 -1.974217593669891357e-01 8.306144177913665771e-02 1.586465388536453247e-01 5.626340582966804504e-02 -4.961022436618804932e-01 -6.697897315025329590e-01 -1.580463163554668427e-02 1.963378190994262695e-01 3.310221061110496521e-02 6.258083134889602661e-02 -5.192165851593017578e+00 1.272814422845840454e-01 -1.272338777780532837e-01 -7.005823403596878052e-02 1.554076522588729858e-01 -9.193975478410720825e-02 -3.599335998296737671e-02 -4.148123562335968018e-01 -2.282959461212158203e+00 5.702229142189025879e-01 1.414136439561843872e-01 1.902643740177154541e-01 -8.045504800975322723e-03 -5.063359439373016357e-02 9.854099154472351074e-02 3.771261274814605713e-01 -1.079326346516609192e-01 1.749696955084800720e-02 9.807884693145751953e-02 3.616334125399589539e-02 -7.407981902360916138e-02 -1.750995069742202759e-01 3.599195778369903564e-01 -6.087847426533699036e-02 -1.187436096370220184e-02 1.434840559959411621e-01
6.894547492265701294e-02 -8.275680989027023315e-02 4.867939352989196777e-01 2.447442114353179932e-01 2.340160682797431946e-02 -9.204006940126419067e-02 4.276765584945678711e-01 4.135252237319946289e-01 5.669009089469909668e-01 2.250969260931015015e-01 -1.755735129117965698e-01 -6.571830511093139648e-01 2.811419963836669922e-01 -1.603541336953639984e-02 -1.261099427938461304e-01 -3.607335314154624939e-02 1.231241673231124878e-01 2.202954292297363281e-01 -2.110547572374343872e-01 1.546263992786407471e-01 -8.480536937713623047e-02 8.231817930936813354e-02 1.638071052730083466e-02 -8.477438688278198242e-01 -7.268208079040050507e-03 -5.178980231285095215e-01 4.102907478809356689e-01 1.852032691240310669e-01 -6.675961613655090332e-02 -8.561337366700172424e-03 1.038851976394653320e+00 -1.831023693084716797e-01 2.238471657037734985e-01 -4.773950278759002686e-01 6.701640039682388306e-02 -2.114034891128540039e-01 -1.646793484687805176e-01 -1.346005033701658249e-02 -4.459913820028305054e-02 3.453490138053894043e-01 -5.788503289222717285e-01 7.349736243486404419e-02 -1.861720578745007515e-03 8.968903124332427979e-02 -1.131607964634895325e-01 2.547615952789783478e-02 -1.354753226041793823e-01 3.694988787174224854e-01 1.860482394695281982e-01 -3.332262039184570312e-01 3.061357736587524414e-01 4.996635392308235168e-02 -5.117394775152206421e-02 -1.909869350492954254e-02 -2.237037867307662964e-01 9.820126928389072418e-03 3.818722963333129883e-01 -6.784880161285400391e-02 3.412104249000549316e-01 -6.389244645833969116e-02 -6.907438859343528748e-03 -7.957621663808822632e-02 1.102323383092880249e-01 -2.703314721584320068e-01 6.662951409816741943e-02 6.364545226097106934e-01 -7.653356343507766724e-02 5.883369222283363342e-02 -3.121379613876342773e-01 -2.462783753871917725e-01 -4.286908805370330811e-01 3.390722274780273438e-01 -1.748560667037963867e-01 2.437834739685058594e-01 -2.014901190996170044e-01 1.325962990522384644e-01 2.509614229202270508e-01 1.530736982822418213e-01 9.393552690744400024e-02 1.122539192438125610e-01 2.934711873531341553e-01 -4.552817642688751221e-01 5.304766446352005005e-02 -7.305831313133239746e-01 9.458781778812408447e-02 -2.253989279270172119e-01 -1.081400439143180847e-01 -1.015142127871513367e-01 6.520580500364303589e-02 5.716782808303833008e-02 -3.313263058662414551e-01 4.655170068144798279e-02 -3.158853948116302490e-01 -1.750435084104537964e-01 -1.394579708576202393e-01 2.662370800971984863e-01 -3.531143665313720703e-01 1.734469980001449585e-01 -1.408383548259735107e-01 2.271628975868225098e-01
-1.093465536832809448e-01 5.145076662302017212e-02 -2.675749920308589935e-02 -3.688199073076248169e-02 -5.609511584043502808e-02 2.181338146328926086e-02 -3.421191126108169556e-02 -1.026156321167945862e-01 -9.839259088039398193e-02 -2.668039686977863312e-02 -7.106075435876846313e-02 -3.507947921752929688e-02 -4.609727486968040466e-02 4.158157680649310350e-04 -5.331386998295783997e-02 -4.295910242944955826e-03 -3.025351092219352722e-02 -1.046785488724708557e-01 -3.471476957201957703e-02 -3.451355546712875366e-02 4.169340245425701141e-03 -1.013889461755752563e-01 -2.956278994679450989e-02 5.896800383925437927e-02 -1.175240520387887955e-02 1.108324527740478516e-02 -8.974308520555496216e-02 1.259120181202888489e-02 5.409878864884376526e-02 -3.480978310108184814e-02 -8.081481605768203735e-02 6.653204560279846191e-02 -1.071204319596290588e-01 2.156100608408451080e-02 5.392624810338020325e-02 -6.726170331239700317e-02 8.239209651947021484e-02 -1.092492118477821350e-01 -2.429792284965515137e-02 -4.920841753482818604e-02 5.023531243205070496e-02 -9.482964128255844116e-02 -3.640240756794810295e-03 -1.032903492450714111e-01 -4.874779284000396729e-02 -2.748514339327812195e-02 3.452484682202339172e-02 3.796579316258430481e-02 -6.019670516252517700e-02 -4.238981753587722778e-02 -4.504847154021263123e-02 -4.428146407008171082e-02 7.617070805281400681e-03 -1.075174659490585327e-02 -7.202847301959991455e-02 -8.204460144042968750e-03 -4.174707923084497452e-03 -1.003368347883224487e-01 -1.050630211830139160e-01 6.892047822475433350e-02 -7.074605673551559448e-02 -7.184813171625137329e-02 -8.911956846714019775e-02 -8.938200771808624268e-02 2.560952678322792053e-02 -7.396723330020904541e-02 -4.810259211808443069e-03 1.173428539186716080e-02 -5.963286384940147400e-02 3.019898943603038788e-02 -7.776378095149993896e-02 -1.103627160191535950e-01 -1.088141798973083496e-01 3.968863189220428467e-02 6.582375615835189819e-02 -2.209900878369808197e-02 -3.265335410833358765e-02 -3.141369298100471497e-02 2.326947450637817383e-02 -9.485273063182830811e-02 3.641296178102493286e-02 -9.957508742809295654e-02 4.000188782811164856e-02 -7.997791469097137451e-02 5.945463106036186218e-02 4.043566435575485229e-02 -2.106867916882038116e-02 4.546231776475906372e-02 -1.020270735025405884e-01 -7.213989156298339367e-04 -4.229626432061195374e-02 -1.094998326152563095e-02 -4.966180026531219482e-02 -4.296923428773880005e-02 -4.157787188887596130e-02 -3.100221790373325348e-02 2.280602045357227325e-02 8.391642570495605469e-02 -1.675394922494888306e-02 -7.851053029298782349e-03
1.111756563186645508e-01 -7.918711006641387939e-02 6.316081434488296509e-02 7.605539560317993164e-01 -1.053020507097244263e-01 -9.994324296712875366e-02 -9.860440343618392944e-02 -4.362362623214721680e-02 1.238936930894851685e-01 2.968810498714447021e-01 -1.546456068754196167e-01 9.974656254053115845e-02 -3.329162001609802246e-01 -2.478416562080383301e-01 2.942970097064971924e-01 6.950543075799942017e-02 1.360171008855104446e-02 6.674886494874954224e-02 4.555856063961982727e-02 4.997607320547103882e-02 2.513581514358520508e-01 -4.059325158596038818e-02 8.677595360495615751e-06 4.299749135971069336e-01 -2.336290329694747925e-01 -2.076790630817413330e-01 4.468925669789314270e-02 1.533172428607940674e-01 -8.844438195228576660e-02 -2.231053635478019714e-02 6.223809719085693359e-02 1.771804094314575195e-01 1.078020632266998291e-01 -2.589107118546962738e-02 2.315999120473861694e-01 1.249210610985755920e-01 1.183848381042480469e-01 -2.468723244965076447e-02 1.290763616561889648e-01 2.665280997753143311e-01 4.259293153882026672e-02 -2.670350670814514160e-02 -7.822946459054946899e-02 7.937823235988616943e-02 1.323718875646591187e-01 8.041445910930633545e-02 -5.387797486037015915e-03 -4.701678454875946045e-01 1.782643981277942657e-02 2.881219238042831421e-02 -3.596485592424869537e-03 -2.588770352303981781e-02 -1.192429140210151672e-01 -9.784930944442749023e-02 2.524849213659763336e-02 -1.041298434138298035e-01 7.756159454584121704e-02 9.547563269734382629e-03 1.078599914908409119e-01 5.764144659042358398e-02 -3.818515315651893616e-02 7.459331303834915161e-02 -2.248736470937728882e-02 -1.297635026276111603e-02 1.097541451454162598e-01 8.694839477539062500e-02 1.038760840892791748e-01 1.875956542789936066e-02 -2.136360555887222290e-01 -1.179732009768486023e-02 1.340811103582382202e-01 1.270855814218521118e-01 -1.290973126888275146e-01 -4.665360227227210999e-02 -8.204754441976547241e-02 3.531544469296932220e-03 -4.200980067253112793e-02 -4.697984829545021057e-02 -1.620704308152198792e-02 -2.488986998796463013e-01 -2.164224348962306976e-02 7.717102766036987305e-02 1.617255508899688721e-01 -2.175459712743759155e-01 -1.061221510171890259e-01 4.826480988413095474e-03 3.363650739192962646e-01 1.314759999513626099e-01 1.116683408617973328e-01 -7.588979601860046387e-02 3.106754720211029053e-01 3.830339014530181885e-01 3.334093689918518066e-01 -1.883424818515777588e-01 1.373084485530853271e-01 -6.076758727431297302e-02 3.738748654723167419e-02 -7.157715409994125366e-02 -1.949046254158020020e-01 1.629524379968643188e-01
-1.875273324549198151e-02 -1.225638017058372498e-01 6.513190269470214844e-02 1.017523929476737976e-01 -2.546288967132568359e-01 1.415724754333496094e-01 5.724416580051183701e-03 9.635510295629501343e-02 -1.775128245353698730e-01 7.260108739137649536e-02 -2.136356681585311890e-01 -1.355471760034561157e-01 6.131612882018089294e-02 1.581180281937122345e-02 1.970866769552230835e-01 -5.130439624190330505e-02 3.344262763857841492e-02 -1.112032458186149597e-01 4.024496674537658691e-02 -4.501519352197647095e-02 5.533914640545845032e-02 5.208812281489372253e-02 -7.986439391970634460e-03 5.734022706747055054e-02 -2.428101897239685059e-01 1.263380497694015503e-01 3.628155961632728577e-02 -7.268941402435302734e-02 1.206145733594894409e-01 -6.751374900341033936e-02 -2.361471056938171387e-01 8.131976425647735596e-02 1.481036394834518433e-01 -4.910230636596679688e-03 1.553424447774887085e-01 7.629412226378917694e-03 3.056601993739604950e-02 1.085669919848442078e-01 -1.579025685787200928e-01 -5.788778141140937805e-02 3.490222990512847900e-01 3.314301744103431702e-02 -2.933891415596008301e-01 1.803892999887466431e-01 -2.381032109260559082e-01 -1.707576960325241089e-01 4.134177044034004211e-02 -7.939831912517547607e-02 1.734753251075744629e-01 -2.025967091321945190e-01 -3.566363751888275146e-01 4.107672572135925293e-01 -6.568148732185363770e-02 3.169002383947372437e-02 -1.150397583842277527e-01 9.857586026191711426e-02 8.363001793622970581e-02 -1.691318899393081665e-01 3.147679567337036133e-02 -1.172800064086914062e-01 -1.297656074166297913e-02 -3.136939555406570435e-02 -2.180675417184829712e-02 -1.023485790938138962e-02 2.932260632514953613e-01 6.901072710752487183e-02 -3.792162239551544189e-02 7.442616391927003860e-03 -3.105019032955169678e-02 1.500305384397506714e-01 1.670679450035095215e-01 -8.169284462928771973e-02 -5.243302136659622192e-02 -2.986500561237335205e-01 2.865892052650451660e-01 -1.579557731747627258e-02 2.547246515750885010e-01 -8.479062467813491821e-02 1.535505205392837524e-01 -7.366965711116790771e-02 4.992545768618583679e-02 -1.445229649543762207e-01 -2.690309882164001465e-01 2.509169280529022217e-01 -6.944581866264343262e-02 -1.004229336977005005e-01 1.313739269971847534e-01 2.686158940196037292e-02 1.879896223545074463e-02 1.771886497735977173e-01 -6.668855249881744385e-02 1.953798532485961914e-01 2.260964959859848022e-01 8.785379678010940552e-02 1.156650707125663757e-01 9.452703595161437988e-02 -2.057688869535923004e-02 5.483024939894676208e-02 6.545135378837585449e-02 2.095682770013809204e-01
-1.437809169292449951e-01 -2.231635749340057373e-01 -1.236604340374469757e-02 1.427146643400192261e-01 -5.758401937782764435e-03 -4.467091336846351624e-02 -1.640645116567611694e-01 -2.669351734220981598e-02 -3.844108432531356812e-02 -7.600917015224695206e-03 1.187722459435462952e-01 1.886543035507202148e-01 -6.050226837396621704e-02 -5.042475834488868713e-02 1.026144251227378845e-02 1.533305048942565918e-01 6.035607308149337769e-02 1.469891965389251709e-01 -2.973362803459167480e-01 2.850825190544128418e-01 -1.241785213351249695e-01 4.853053390979766846e-02 -1.357420161366462708e-02 6.698230654001235962e-02 3.282928094267845154e-02 -2.555294036865234375e-01 -5.658695101737976074e-02 -1.025045514106750488e-01 -2.108622714877128601e-02 1.793502122163772583e-01 1.379225850105285645e-01 2.051036804914474487e-01 -8.973190188407897949e-02 -1.740999519824981689e-01 1.505650281906127930e-01 -1.202050000429153442e-01 9.310242719948291779e-03 1.807055324316024780e-01 1.962008327245712280e-01 2.141680382192134857e-02 5.592845007777214050e-02 4.293825477361679077e-02 1.106467917561531067e-01 -7.065250072628259659e-03 -4.633839800953865051e-02 -1.565952599048614502e-01 -1.772544980049133301e-01 5.404384806752204895e-02 -1.151970773935317993e-02 -6.213931366801261902e-02 3.821379840373992920e-01 -3.818935155868530273e-01 -6.730597466230392456e-02 6.935811787843704224e-02 -1.981153786182403564e-01 2.871818840503692627e-01 1.023658365011215210e-01 -2.493463754653930664e-01 8.417017757892608643e-02 -1.006114780902862549e-01 5.621014535427093506e-02 7.400757819414138794e-02 1.231494918465614319e-01 -1.434228196740150452e-02 9.680084884166717529e-02 -2.897605486214160919e-02 -3.355494514107704163e-02 3.431786596775054932e-02 1.033507660031318665e-01 -2.912022173404693604e-01 2.309747487306594849e-01 -7.392159104347229004e-02 1.316171698272228241e-02 4.120347276329994202e-02 -4.727940633893013000e-02 1.567715704441070557e-01 1.884650588035583496e-01 -5.029869452118873596e-02 3.106772303581237793e-01 1.230077296495437622e-01 -1.742760241031646729e-01 2.760367393493652344e-01 -2.594548165798187256e-01 -9.299439936876296997e-02 1.115443557500839233e-01 -1.144777014851570129e-01 -1.294164359569549561e-01 -3.836221992969512939e-03 1.786893606185913086e-01 1.073250770568847656e-01 5.523901805281639099e-02 -1.514023095369338989e-01 -1.785969734191894531e-01 1.597538031637668610e-02 1.482359170913696289e-01 1.113161593675613403e-01 7.079093903303146362e-02 -3.616128489375114441e-02 -6.600904464721679688e-02 4.107411578297615051e-02
-3.652383014559745789e-02 -6.216702051460742950e-03 1.605281084775924683e-01 -3.452441990375518799e-01 -1.757732331752777100e-01 2.335500158369541168e-02 -1.354781985282897949e-01 -4.991247504949569702e-02 2.748908400535583496e-01 2.426568269729614258e-01 1.397586986422538757e-02 9.258617460727691650e-02 2.207558602094650269e-01 -1.207109317183494568e-01 1.095493659377098083e-01 -6.743136793375015259e-02 -2.702158391475677490e-01 -1.030693799257278442e-01 1.284457147121429443e-01 -1.281504482030868530e-01 1.031228080391883850e-01 3.345916420221328735e-02 4.809516947716474533e-03 -2.776250056922435760e-02 -2.877852618694305420e-01 -2.947607338428497314e-01 -6.467053294181823730e-02 7.066439837217330933e-02 5.822291970252990723e-02 1.791388988494873047e-01 1.625849753618240356e-01 6.322827190160751343e-02 -9.528594464063644409e-02 -4.210086190141737461e-04 -3.705881536006927490e-02 -5.765879154205322266e-02 -4.744026064872741699e-02 -3.026897087693214417e-02 2.172417491674423218e-01 4.496056959033012390e-02 -9.719649702310562134e-02 6.706797331571578979e-02 -3.822159022092819214e-02 9.202789515256881714e-02 3.832603618502616882e-02 -2.841760776937007904e-02 -1.130992695689201355e-01 -4.712932556867599487e-02 1.338447928428649902e-01 -5.425285920500755310e-02 -1.503361612558364868e-01 -4.346824437379837036e-02 3.086417317390441895e-01 6.633193045854568481e-02 -8.942697942256927490e-02 -1.293982118368148804e-01 8.767747133970260620e-02 -5.345673114061355591e-02 6.144309416413307190e-02 1.485071778297424316e-01 8.087813109159469604e-02 1.203510444611310959e-02 -1.598130613565444946e-01 -1.990502029657363892e-01 1.277330815792083740e-01 4.278014898300170898e-01 -4.476630315184593201e-02 -1.447043847292661667e-02 1.388356089591979980e-01 1.524312049150466919e-01 -1.209143921732902527e-01 1.981423497200012207e-01 6.091136857867240906e-02 -3.875670433044433594e-01 -4.433886706829071045e-02 1.714014261960983276e-01 -1.508314609527587891e-01 -3.822347223758697510e-01 -1.714054346084594727e-01 -6.789888441562652588e-02 -2.016863673925399780e-01 6.034219637513160706e-02 1.094835400581359863e-01 -5.227287858724594116e-02 2.501201927661895752e-01 1.261994615197181702e-02 1.050431877374649048e-01 1.026934236288070679e-01 6.672329455614089966e-02 2.727870643138885498e-02 -2.305632382631301880e-01 -1.638032793998718262e-01 -6.701599806547164917e-02 4.864155873656272888e-02 7.700927089899778366e-04 -7.362277060747146606e-02 -2.377618700265884399e-01 -1.285625696182250977e-01 -5.474852770566940308e-02 -1.685408316552639008e-02
-1.294241696596145630e-01 2.522903084754943848e-01 2.925698757171630859e-01 -1.360470615327358246e-02 -3.980847597122192383e-01 2.919776737689971924e-01 -1.673226356506347656e-01 4.705452173948287964e-02 2.172047942876815796e-01 1.143734008073806763e-01 3.699590638279914856e-02 -4.897399619221687317e-02 8.261586725711822510e-02 -1.591801494359970093e-01 8.713709563016891479e-02 4.555692523717880249e-02 4.012424945831298828e-01 -4.858039692044258118e-02 -3.901957347989082336e-02 -1.431416571140289307e-01 8.946084976196289062e-02 -2.208557128906250000e-01 1.780049526132643223e-03 -3.661366403102874756e-01 -1.598475575447082520e-01 -5.854792892932891846e-02 -2.497190088033676147e-01 -2.223035693168640137e-01 -2.245349138975143433e-01 -4.197606444358825684e-02 -4.907152801752090454e-02 7.936288602650165558e-03 2.393106669187545776e-01 1.703835427761077881e-01 2.287540435791015625e-01 6.939487997442483902e-03 4.418961331248283386e-02 -2.681954801082611084e-01 -2.841255664825439453e-01 -1.410979125648736954e-02 1.610989272594451904e-01 -1.925536803901195526e-02 -3.778681159019470215e-01 -1.463684439659118652e-01 5.109481886029243469e-02 -3.725096210837364197e-02 3.897127136588096619e-02 -1.343229860067367554e-01 -1.691895276308059692e-01 8.450742065906524658e-02 1.412339508533477783e-01 1.104222610592842102e-01 -3.459009900689125061e-02 -8.454712480306625366e-02 -2.907734550535678864e-02 -1.415295153856277466e-01 4.311375319957733154e-01 -2.102649211883544922e-02 2.242139279842376709e-01 3.330270573496818542e-02 5.041905120015144348e-02 -8.624650537967681885e-02 2.363685285672545433e-03 -7.554858177900314331e-02 -2.945654280483722687e-02 1.188126206398010254e-01 5.275243427604436874e-03 -5.030573531985282898e-02 3.122293949127197266e-01 2.060132622718811035e-01 -1.480749575421214104e-03 6.031899452209472656e-01 -3.699458017945289612e-02 1.200539693236351013e-01 1.915606707334518433e-01 -1.262393742799758911e-01 -2.513564229011535645e-01 -1.730624735355377197e-01 1.119380146265029907e-01 -6.222514435648918152e-03 -2.183077633380889893e-01 2.187508195638656616e-01 4.159874841570854187e-02 -2.559202313423156738e-01 2.302813231945037842e-01 -3.326208591461181641e-01 9.420602321624755859e-01 -1.226808503270149231e-01 -8.393958210945129395e-02 -3.873689845204353333e-02 -7.554072141647338867e-02 6.416743248701095581e-02 -4.611116275191307068e-02 -1.470687538385391235e-01 1.275742799043655396e-01 1.296916455030441284e-01 1.777266561985015869e-01 -2.169379293918609619e-01 3.359333612024784088e-03 -3.468523621559143066e-01
-3.735907375812530518e-02 2.917728945612907410e-02 -7.929434627294540405e-02 -9.943733364343643188e-02 7.677926123142242432e-02 -7.294902205467224121e-02 -1.691523194313049316e-01 -4.441076889634132385e-02 -6.180560216307640076e-02 -7.193987816572189331e-02 3.182705491781234741e-02 1.305226385593414307e-01 -7.851149141788482666e-02 9.168793261051177979e-02 8.197266608476638794e-02 -2.210544943809509277e-01 -1.525662094354629517e-01 2.225007563829421997e-01 -1.179690062999725342e-01 -8.464110642671585083e-02 -6.883262842893600464e-02 2.734811604022979736e-01 -1.107207406312227249e-02 -3.571337759494781494e-01 3.461844027042388916e-01 -4.370862618088722229e-03 1.162444055080413818e-01 -4.042217135429382324e-02 1.714143157005310059e-02 -4.187206923961639404e-02 -2.028968371450901031e-02 -1.316541284322738647e-01 1.715490408241748810e-02 -1.732881069183349609e-01 -2.103172391653060913e-01 -1.223837211728096008e-01 7.893685251474380493e-03 2.004800736904144287e-01 -1.361540555953979492e-01 -1.046213135123252869e-01 -1.993826776742935181e-01 -1.404084861278533936e-01 3.159865140914916992e-01 -3.261910080909729004e-01 5.847683921456336975e-02 -6.112662702798843384e-02 1.856732666492462158e-01 -2.699263691902160645e-01 -2.053021825850009918e-02 -6.064869090914726257e-02 9.628000110387802124e-02 1.605911105871200562e-01 5.919803678989410400e-02 -1.669036000967025757e-01 4.527836665511131287e-02 -1.593862473964691162e-01 -1.643383055925369263e-01 -3.722932934761047363e-02 4.939619917422533035e-03 -6.200815364718437195e-02 5.879431217908859253e-02 1.162126362323760986e-01 2.916188538074493408e-02 4.809257015585899353e-02 3.001746535301208496e-01 -3.080717660486698151e-02 -6.565954536199569702e-02 -1.914633065462112427e-02 3.433519043028354645e-03 -4.768035374581813812e-03 -1.025440171360969543e-01 2.146241813898086548e-02 -1.365664750337600708e-01 -2.044484019279479980e-01 -1.433400511741638184e-01 1.535657048225402832e-01 -1.119297594414092600e-04 -1.743288636207580566e-01 5.130310729146003723e-02 1.231897398829460144e-01 1.476965546607971191e-01 -1.825654692947864532e-02 1.523524224758148193e-01 4.648007825016975403e-02 3.430903851985931396e-01 1.424231678247451782e-01 2.439732104539871216e-01 -6.979782879352569580e-02 1.247714459896087646e-01 -5.649740342050790787e-03 1.164366900920867920e-01 4.371133074164390564e-02 -2.748845703899860382e-02 -7.870408892631530762e-02 1.350003480911254883e-01 8.865661919116973877e-02 -2.825894057750701904e-01 1.347182095050811768e-01 -1.907405704259872437e-01 -8.024410158395767212e-02
1.494152396917343140e-01 1.192507743835449219e-01 1.152800843119621277e-01 2.730087339878082275e-01 4.541586339473724365e-02 6.112037599086761475e-02 3.148675337433815002e-02 -1.670081466436386108e-01 4.083703160285949707e-01 1.458619385957717896e-01 -1.436689645051956177e-01 -1.072850897908210754e-01 1.720639690756797791e-02 1.497336477041244507e-01 9.827198833227157593e-02 1.118707433342933655e-01 1.639668196439743042e-01 -7.072554528713226318e-02 -1.783501356840133667e-01 -4.818723350763320923e-02 -2.544081769883632660e-02 -1.517717093229293823e-01 -9.376145899295806885e-03 -1.594981551170349121e-01 -3.328152298927307129e-01 -4.421162009239196777e-01 -1.406660079956054688e-01 -1.840380132198333740e-01 4.080940410494804382e-02 -1.852933466434478760e-01 2.174375951290130615e-01 -7.361733168363571167e-02 -6.690883636474609375e-02 -2.466068416833877563e-01 3.628555536270141602e-01 1.850305497646331787e-01 2.948823198676109314e-02 1.093639712780714035e-02 -4.846938848495483398e-01 3.517459332942962646e-01 -3.213918507099151611e-01 6.620778888463973999e-02 2.855311892926692963e-02 -1.082894057035446167e-01 -3.112950623035430908e-01 1.174668148159980774e-01 -1.380878835916519165e-01 -1.589279174804687500e-01 -1.457129716873168945e-01 2.212705276906490326e-02 1.427084505558013916e-01 4.591095075011253357e-02 2.667398452758789062e-01 1.614441275596618652e-01 3.242829144001007080e-01 4.803791940212249756e-01 -1.790344715118408203e-01 6.815101951360702515e-02 -4.018500447273254395e-02 3.377091884613037109e-02 -1.677034050226211548e-01 -4.366736859083175659e-02 5.659430101513862610e-02 1.782263219356536865e-01 -1.434654891490936279e-01 3.302874565124511719e-01 3.055825643241405487e-02 2.118700593709945679e-01 9.234743565320968628e-02 -6.795962899923324585e-02 -1.828640401363372803e-01 -1.524502933025360107e-01 -1.162857711315155029e-01 -3.157601952552795410e-01 -1.426133960485458374e-01 -3.596049547195434570e-01 -8.124531805515289307e-02 -2.401718050241470337e-01 1.085528731346130371e-01 7.143149524927139282e-02 1.497906297445297241e-01 -2.082597650587558746e-02 1.505478620529174805e-01 1.498111337423324585e-01 -1.239841356873512268e-01 5.595054849982261658e-02 2.291529774665832520e-01 3.729309439659118652e-01 -3.979982435703277588e-02 2.774130702018737793e-01 -1.422160677611827850e-02 -1.197368204593658447e-01 4.647640138864517212e-02 -4.810614138841629028e-02 1.723884493112564087e-01 -8.501117676496505737e-02 1.619754433631896973e-01 -1.453639566898345947e-02 -4.620303865522146225e-03 3.906666636466979980e-01
-5.267324671149253845e-02 -8.347801864147186279e-02 -9.044871479272842407e-02 9.587352722883224487e-02 -1.407819055020809174e-02 -1.730282045900821686e-02 -1.527815498411655426e-02 -1.425487697124481201e-01 -2.872945927083492279e-02 3.284573182463645935e-02 -6.108803674578666687e-03 -1.847742125391960144e-02 -1.790886819362640381e-01 1.916698217391967773e-01 -5.537134781479835510e-02 -3.173968568444252014e-02 1.042668968439102173e-01 5.573670938611030579e-02 1.607474684715270996e-01 -8.936292678117752075e-02 -1.323955357074737549e-01 4.875905811786651611e-02 -1.662828636169433594e+01 -7.524102181196212769e-02 -5.848185345530509949e-02 -5.916816368699073792e-02 4.992743209004402161e-02 -2.651488594710826874e-02 1.367695033550262451e-01 3.068259358406066895e-02 3.105637431144714355e-02 7.797077298164367676e-02 -6.529553979635238647e-02 -7.778730243444442749e-03 -6.012844666838645935e-02 -6.612261384725570679e-02 9.682452678680419922e-02 -4.523129016160964966e-02 -3.196591511368751526e-02 -9.837339818477630615e-02 4.786311462521553040e-02 -6.494767963886260986e-02 -2.121630124747753143e-02 -3.401194699108600616e-03 8.131056278944015503e-02 5.583596602082252502e-02 5.185074638575315475e-03 2.602983731776475906e-04 -5.014771595597267151e-02 4.994959756731987000e-02 -4.936130717396736145e-02 1.435782462358474731e-01 -1.007015332579612732e-01 -6.926530599594116211e-02 -4.080671072006225586e-02 1.663523609749972820e-03 3.410583734512329102e-02 -1.282071811147034168e-03 -6.069126352667808533e-02 -7.434772793203592300e-03 -5.141353607177734375e-02 -3.721993416547775269e-02 -6.331600248813629150e-02 1.544016599655151367e-01 1.911091208457946777e-01 2.058839984238147736e-02 -1.597295328974723816e-02 -3.885240107774734497e-02 -2.704248763620853424e-02 -1.559381093829870224e-02 1.043332889676094055e-01 1.560472697019577026e-02 2.575151994824409485e-02 -1.091212704777717590e-01 8.676073700189590454e-02 -1.607223041355609894e-02 -1.852211728692054749e-02 -6.269886624068021774e-03 1.099735945463180542e-01 1.326499134302139282e-01 -1.963882334530353546e-02 6.940544396638870239e-02 1.093954499810934067e-02 -6.130711361765861511e-02 -3.209974616765975952e-02 1.217104494571685791e-01 9.972914308309555054e-02 1.071660881279967725e-05 1.186783462762832642e-01 -2.881261147558689117e-02 1.982446014881134033e-01 -1.016324758529663086e-01 -1.345171779394149780e-01 -7.905506342649459839e-02 -7.619591802358627319e-02 8.372226357460021973e-02 -1.717247441411018372e-02 -2.167074754834175110e-02 -3.687620162963867188e-02 -6.246568262577056885e-02
1.435664892196655273e-01 -2.495881021022796631e-01 -3.807731717824935913e-02 1.653954833745956421e-01 1.829426139593124390e-01 -1.003032550215721130e-01 2.416207492351531982e-01 -5.349423885345458984e-01 -1.206351220607757568e-01 -3.892043232917785645e-02 1.575929112732410431e-02 2.471348196268081665e-01 -1.003773324191570282e-02 1.912499219179153442e-01 -2.342684864997863770e-01 6.506950408220291138e-02 -2.324153333902359009e-01 2.809355258941650391e-01 -5.831696093082427979e-02 -1.266118437051773071e-01 -1.301867961883544922e-01 5.041236290708184242e-04 -1.481941901147365570e-03 -1.440435945987701416e-01 2.120319306850433350e-01 1.031971424818038940e-01 2.685918211936950684e-01 9.573299437761306763e-02 2.922926843166351318e-02 1.478362381458282471e-01 -7.708851248025894165e-02 1.028957590460777283e-01 -4.965192824602127075e-02 4.931934643536806107e-03 -3.775174915790557861e-01 -2.012744247913360596e-01 -9.175004810094833374e-02 -8.843835443258285522e-02 1.939941197633743286e-01 -9.775928407907485962e-02 -4.523337259888648987e-02 2.015255987644195557e-01 2.674696743488311768e-01 6.443588137626647949e-01 -3.281956315040588379e-01 -3.361048921942710876e-02 3.509348928928375244e-01 -6.535914540290832520e-02 2.743998169898986816e-02 -2.048800736665725708e-01 -5.970677137374877930e-01 -3.167243897914886475e-01 -1.203903555870056152e-01 -1.642954647541046143e-01 1.428294330835342407e-01 -1.337105184793472290e-01 -7.850543409585952759e-02 1.658034473657608032e-01 2.949700132012367249e-02 5.763635411858558655e-02 -3.294255137443542480e-01 -2.828013896942138672e-01 7.975859940052032471e-02 1.254252716898918152e-02 -1.750280112028121948e-01 -1.486075818538665771e-01 5.546100065112113953e-02 4.903029650449752808e-03 3.871812671422958374e-02 -2.990415096282958984e-01 -1.646877452731132507e-02 -1.087335348129272461e-01 1.112335175275802612e-01 -6.268307566642761230e-03 -3.613542765378952026e-02 -2.078194357454776764e-02 -6.740979105234146118e-02 -1.241780668497085571e-01 1.227062866091728210e-01 1.659515202045440674e-01 -1.953259557485580444e-01 1.368904560804367065e-01 1.744387447834014893e-01 3.904407322406768799e-01 -3.374002501368522644e-02 2.188537716865539551e-01 1.528978534042835236e-02 2.656987309455871582e-02 1.039357408881187439e-01 2.223023325204849243e-01 3.365567419677972794e-03 2.416899055242538452e-01 -4.910244047641754150e-02 1.086105965077877045e-02 1.668120026588439941e-01 9.697534888982772827e-02 2.642729282379150391e-01 1.447483599185943604e-01 -2.175688743591308594e-01 -8.007599972188472748e-03
2.297233641147613525e-01 5.843438208103179932e-02 -1.031435653567314148e-01 1.954462677240371704e-01 -2.427551895380020142e-01 -1.341212987899780273e-01 1.492644995450973511e-01 4.589425399899482727e-03 -1.295601129531860352e-01 -2.101127989590167999e-02 1.847898066043853760e-01 -9.907161444425582886e-02 -9.127467870712280273e-02 5.789033174514770508e-01 -2.844631075859069824e-01 1.009222492575645447e-01 -1.738279759883880615e-01 2.299039214849472046e-01 1.329344362020492554e-01 -2.045459896326065063e-01 -4.256180524826049805e-01 1.078688651323318481e-01 1.693263091146945953e-02 7.794415950775146484e-02 -1.387191414833068848e-01 3.898278623819351196e-02 5.883490294218063354e-02 -1.240039542317390442e-01 4.035261273384094238e-02 2.189356274902820587e-02 3.484845533967018127e-02 2.578723430633544922e-01 4.030198156833648682e-01 4.379161596298217773e-01 -9.434107691049575806e-02 5.311650782823562622e-02 3.420874103903770447e-02 1.374412178993225098e-01 -9.291309118270874023e-02 1.447893828153610229e-01 6.548404693603515625e-03 -9.408489614725112915e-02 2.015492469072341919e-01 -3.445788025856018066e-01 2.268407046794891357e-01 1.048853844404220581e-01 -1.471206918358802795e-02 -6.508605182170867920e-02 -3.145011141896247864e-02 -9.941833466291427612e-02 5.049036443233489990e-02 2.009418308734893799e-01 -5.919466167688369751e-02 2.195492200553417206e-02 1.017739251255989075e-01 -2.641133666038513184e-01 6.521571427583694458e-02 1.594069302082061768e-01 -4.718012362718582153e-02 -1.067094728350639343e-01 1.531429309397935867e-02 -4.882948845624923706e-02 -1.336944997310638428e-01 -2.050677984952926636e-01 -2.095070779323577881e-01 -1.194758713245391846e-01 -8.194149471819400787e-03 5.591886863112449646e-02 -3.997565433382987976e-02 -1.844142973423004150e-01 -1.259576976299285889e-01 1.506114900112152100e-01 2.383022755384445190e-01 1.233822405338287354e-01 1.691458821296691895e-01 1.778752915561199188e-02 -1.470017582178115845e-01 8.953540772199630737e-02 -7.208459079265594482e-02 4.561459720134735107e-01 -1.151630729436874390e-01 -5.852602422237396240e-02 1.826538890600204468e-01 1.953692585229873657e-01 1.985733769834041595e-02 1.576209440827369690e-02 1.291365772485733032e-01 1.333107054233551025e-01 2.699036337435245514e-02 3.151610195636749268e-01 7.709809392690658569e-02 3.659280240535736084e-01 -5.536344051361083984e-01 1.981630921363830566e-01 -1.808840781450271606e-01 2.458777651190757751e-02 -1.048101298511028290e-02 -3.861096128821372986e-02 2.157697379589080811e-01 9.126313030719757080e-02
-1.300648227334022522e-02 6.947632879018783569e-02 -8.642809092998504639e-02 -8.025300502777099609e-02 7.742948830127716064e-02 -7.255604118108749390e-02 -5.056748166680335999e-02 6.558650173246860504e-03 2.088460698723793030e-02 -2.040754072368144989e-02 4.634476453065872192e-02 -1.036775857210159302e-01 6.866493076086044312e-02 -4.109783098101615906e-02 1.203875755891203880e-03 -2.515061944723129272e-02 2.338457480072975159e-02 -8.472758531570434570e-02 -8.243836462497711182e-02 -8.104506134986877441e-02 -5.998803302645683289e-02 -5.758324638009071350e-02 -3.384835552424192429e-03 -7.009760290384292603e-02 -9.177991747856140137e-02 3.852563910186290741e-03 -3.572863712906837463e-02 5.241463705897331238e-02 1.568577717989683151e-03 1.104970183223485947e-02 2.192702703177928925e-02 6.827335059642791748e-02 4.943987354636192322e-02 -6.145855411887168884e-03 -2.130509167909622192e-02 -6.854607909917831421e-02 6.495770066976547241e-02 -1.788431219756603241e-02 -2.261776290833950043e-02 7.633122801780700684e-02 1.303913816809654236e-02 -7.047525607049465179e-03 -1.475602155551314354e-03 6.226398423314094543e-02 8.027873001992702484e-03 -7.318366318941116333e-02 -3.777475655078887939e-02 -7.995977997779846191e-02 -7.500458508729934692e-02 4.173460230231285095e-02 8.373802900314331055e-02 -7.866878062486648560e-03 -5.054979771375656128e-02 -8.123037964105606079e-02 -5.923950672149658203e-02 -1.954539120197296143e-02 4.516943823546171188e-03 2.795683965086936951e-02 -5.164349824190139771e-02 -9.468635916709899902e-02 -4.796880856156349182e-02 -1.614880189299583435e-02 2.510527335107326508e-02 -6.372361630201339722e-02 -6.453280895948410034e-02 -5.843710899353027344e-02 5.522781610488891602e-02 -7.672758772969245911e-03 8.236563950777053833e-02 -5.405439436435699463e-02 4.633358865976333618e-02 -8.008366823196411133e-02 -5.094817653298377991e-02 1.360143069177865982e-03 3.964739665389060974e-02 -8.477789908647537231e-02 3.111081663519144058e-03 -9.942629188299179077e-02 -5.391164124011993408e-02 -8.351796865463256836e-02 4.602085798978805542e-02 -6.211147084832191467e-02 -1.910810545086860657e-02 -8.461179584264755249e-02 -1.029020771384239197e-01 -1.070830971002578735e-01 -6.338241696357727051e-02 3.201110521331429482e-03 1.252478826791048050e-02 -9.143182635307312012e-02 -6.579589098691940308e-02 -6.752591580152511597e-02 -6.521906703710556030e-02 -7.736229151487350464e-02 3.093246184289455414e-02 -7.659626007080078125e-02 5.935008078813552856e-02 -7.495886180549860001e-03 3.433582186698913574e-02 -9.065897203981876373e-03
-1.444694250822067261e-01 6.734900176525115967e-02 -7.485041022300720215e-02 -3.092874288558959961e-01 -2.280230969190597534e-01 3.440877795219421387e-02 -2.354157865047454834e-01 3.258073031902313232e-01 -6.760168075561523438e-02 1.446265578269958496e-01 5.008157342672348022e-02 2.540490776300430298e-02 5.407980456948280334e-02 2.427311092615127563e-01 1.497624963521957397e-01 1.050149723887443542e-01 3.572569042444229126e-02 1.333357840776443481e-01 2.321084439754486084e-01 -1.675713211297988892e-01 -5.355056375265121460e-02 -9.187607467174530029e-02 -1.202662754803895950e-02 1.583163887262344360e-01 -8.595954626798629761e-02 -5.578465461730957031e-01 -2.360235452651977539e-01 2.842106521129608154e-01 -1.467213314026594162e-02 -7.026533037424087524e-02 5.658346414566040039e-02 -1.270061582326889038e-01 1.906924396753311157e-01 1.256002038717269897e-01 -2.844018638134002686e-01 1.100893393158912659e-01 1.437281444668769836e-02 3.421866297721862793e-01 6.372687872499227524e-03 -1.064369380474090576e-01 9.713175706565380096e-03 1.577539741992950439e-01 1.689774729311466217e-02 4.586890339851379395e-02 -3.755977004766464233e-02 6.599931418895721436e-02 8.793808519840240479e-02 2.238292805850505829e-02 -2.938028872013092041e-01 -3.417968750000000000e-02 -3.409873843193054199e-01 1.768202185630798340e-01 9.073393791913986206e-02 7.200562208890914917e-02 -3.391406238079071045e-01 -4.034713208675384521e-01 -1.524240076541900635e-01 -2.937108278274536133e-01 1.326111028902232647e-03 5.107580870389938354e-02 8.335637301206588745e-02 2.235193401575088501e-01 5.988598242402076721e-02 -1.031581535935401917e-01 1.314856708049774170e-01 -1.941773481667041779e-02 4.004017915576696396e-03 -8.616822957992553711e-02 -5.032441392540931702e-02 -1.916377991437911987e-01 -2.188442200422286987e-01 -1.165505219250917435e-02 8.418075740337371826e-02 -3.865988254547119141e-01 -1.374633461236953735e-01 1.514248400926589966e-01 6.895350664854049683e-02 7.742699980735778809e-02 -2.895076274871826172e-01 6.688555330038070679e-02 -3.470887616276741028e-02 4.509478434920310974e-02 -9.775227867066860199e-03 -1.181703284382820129e-01 -2.145787775516510010e-01 1.404477097094058990e-02 -1.904740631580352783e-01 3.958478197455406189e-02 3.248896822333335876e-02 2.036554217338562012e-01 -5.554533004760742188e-02 -1.008654478937387466e-02 7.316336035728454590e-02 1.763422638177871704e-01 8.145996369421482086e-03 -6.465882062911987305e-02 -1.534749120473861694e-01 -5.683930590748786926e-02 1.306091398000717163e-01 -1.301759332418441772e-01
-1.879469007253646851e-01 -2.263320796191692352e-02 -1.820960640907287598e-01 -1.592108905315399170e-01 4.646975174546241760e-02 -1.127161458134651184e-01 -9.046432375907897949e-02 1.190994530916213989e-01 1.004395261406898499e-01 2.863018810749053955e-01 1.288578510284423828e-01 1.375589221715927124e-01 7.657843083143234253e-02 1.420119851827621460e-01 -3.130872249603271484e-01 -2.111290842294692993e-01 -1.533420979976654053e-01 -1.115320716053247452e-02 4.293853417038917542e-02 -1.261371821165084839e-01 6.372857838869094849e-02 2.225992977619171143e-01 -1.627327688038349152e-02 -2.829336561262607574e-03 -1.469383388757705688e-01 9.353201836347579956e-02 -1.210967004299163818e-01 1.544233709573745728e-01 7.208056282252073288e-03 -2.517844364047050476e-02 5.281190201640129089e-02 -4.283547867089509964e-03 -9.315033257007598877e-02 -2.136838808655738831e-02 -2.207304239273071289e-01 -9.358684718608856201e-02 1.123288348317146301e-01 6.544248014688491821e-02 3.887486830353736877e-02 -3.121678158640861511e-02 -5.694263055920600891e-02 3.417567163705825806e-02 2.233763225376605988e-03 -5.527843236923217773e-01 1.652546077966690063e-01 -3.341145813465118408e-02 2.791629135608673096e-01 -1.945119798183441162e-01 -1.674689203500747681e-01 -1.119844019412994385e-01 1.413605958223342896e-01 -6.685429811477661133e-02 -1.469961106777191162e-01 -6.719943485222756863e-04 -3.076754212379455566e-01 -3.021399378776550293e-01 -1.157495602965354919e-01 1.449941843748092651e-01 -2.041771411895751953e-01 -6.838465481996536255e-02 9.036394208669662476e-02 1.585246250033378601e-02 -1.580308377742767334e-01 1.213939394801855087e-02 -7.296780496835708618e-02 -1.040789335966110229e-01 -1.221103593707084656e-01 1.560584604740142822e-01 -5.380213842727243900e-04 9.942667931318283081e-02 -1.868025027215480804e-02 -1.013053953647613525e-01 1.558240354061126709e-01 -6.714418530464172363e-02 9.175293147563934326e-02 2.425752393901348114e-02 -4.334374517202377319e-02 -2.250787019729614258e-01 -3.243623673915863037e-02 -4.992640390992164612e-02 2.037752605974674225e-02 7.400770485401153564e-02 -3.237499892711639404e-01 6.930420547723770142e-02 2.313958667218685150e-02 -2.275957539677619934e-02 1.756098866462707520e-01 3.149085044860839844e-01 2.396343648433685303e-02 4.520346596837043762e-02 -6.273263692855834961e-02 2.114987373352050781e-01 1.737073659896850586e-01 -3.687096387147903442e-02 1.052912771701812744e-01 3.103157579898834229e-01 2.534490451216697693e-02 -8.876015245914459229e-02 -1.402630209922790527e-01 -1.013764739036560059e-01
7.085275650024414062e-02 1.546018477529287338e-02 2.299973554909229279e-02 -6.618884950876235962e-02 -7.826181501150131226e-02 -2.721472829580307007e-02 -1.974268117919564247e-03 -9.069865196943283081e-02 -3.400664776563644409e-02 7.322682440280914307e-02 6.766879558563232422e-02 6.827928125858306885e-02 -6.188125163316726685e-02 1.038094237446784973e-02 2.939842641353607178e-02 1.255682669579982758e-02 -1.066357791423797607e-01 4.939625784754753113e-02 -9.454367309808731079e-02 7.790261879563331604e-03 3.522087261080741882e-02 -1.407075114548206329e-02 -2.202340401709079742e-02 -7.127594202756881714e-02 3.734660893678665161e-02 -8.301602676510810852e-03 -5.898098647594451904e-02 3.232720866799354553e-02 1.490366552025079727e-02 -2.323841117322444916e-02 -9.036744385957717896e-02 -2.639511413872241974e-02 6.171678379178047180e-02 2.479954063892364502e-02 -5.019901320338249207e-03 -3.411781415343284607e-02 5.875400453805923462e-02 -1.077287793159484863e-01 -1.183598116040229797e-02 -2.532233856618404388e-02 5.773183703422546387e-02 -2.973657846450805664e-02 -6.997021287679672241e-02 -5.824647098779678345e-02 -1.186738163232803345e-01 8.215172565542161465e-04 3.630735725164413452e-02 2.593238092958927155e-02 -6.014901399612426758e-02 -2.437574602663516998e-02 -7.006501406431198120e-02 -7.438681274652481079e-02 -3.499279543757438660e-02 -1.616321504116058350e-02 -2.728798240423202515e-02 -1.037886738777160645e-02 -1.063008457422256470e-01 -5.782466381788253784e-02 4.555439576506614685e-03 -7.532107084989547729e-02 -7.007170468568801880e-02 -8.035452663898468018e-02 4.980221018195152283e-02 -8.123677968978881836e-02 -3.770051291212439537e-03 1.828552037477493286e-02 3.684351593255996704e-02 7.642678916454315186e-02 7.139120995998382568e-02 -9.097398817539215088e-02 -1.230815332382917404e-02 9.738870896399021149e-03 4.665692523121833801e-02 -6.784091144800186157e-02 5.720762908458709717e-02 -3.954045847058296204e-02 -5.890551954507827759e-03 -3.120368719100952148e-02 -1.068686097860336304e-01 -8.947736769914627075e-02 -1.903125084936618805e-02 -6.839408725500106812e-02 1.981260441243648529e-02 5.834018439054489136e-02 -8.608700335025787354e-02 -6.449847668409347534e-02 7.244697958230972290e-02 2.383349696174263954e-03 -6.558842957019805908e-02 -7.279568910598754883e-02 1.165572740137577057e-02 5.442582443356513977e-02 -7.421925663948059082e-02 -3.713880479335784912e-02 4.362785071134567261e-02 4.939459636807441711e-02 -1.336134076118469238e-01 -1.189832612872123718e-01 5.341478437185287476e-02 -7.840300351381301880e-02
1.974459737539291382e-01 1.928857713937759399e-01 2.025609016418457031e-01 -1.534642279148101807e-01 8.270648866891860962e-02 4.932095110416412354e-02 1.754622906446456909e-01 1.134750470519065857e-01 9.698681533336639404e-02 6.282819807529449463e-02 -2.554162442684173584e-01 -1.807844191789627075e-01 -3.369820713996887207e-01 -9.525217860937118530e-02 -2.464539855718612671e-01 -7.994137704372406006e-02 -1.494871079921722412e-01 -1.594962030649185181e-01 -5.033627897500991821e-02 3.134989365935325623e-02 2.435370087623596191e-01 1.142188236117362976e-01 -1.186249963939189911e-02 1.250508725643157959e-01 -7.635074108839035034e-02 2.296233326196670532e-01 -1.355973780155181885e-01 -1.450347751379013062e-01 -1.436977237462997437e-01 8.619936555624008179e-02 5.206337664276361465e-03 2.137068808078765869e-01 -1.025993004441261292e-01 -2.934734709560871124e-02 2.238558232784271240e-01 -2.465972006320953369e-01 -2.210661023855209351e-01 4.725657403469085693e-02 1.232759561389684677e-02 1.403032988309860229e-01 -2.007513679563999176e-02 -2.695086002349853516e-01 -2.621434926986694336e-01 7.115957885980606079e-02 -8.115433901548385620e-02 -1.581851691007614136e-01 -4.408129751682281494e-01 -1.456326395273208618e-01 -1.440881192684173584e-01 -3.322698175907135010e-02 -5.297723785042762756e-02 -2.994589805603027344e-01 8.103804290294647217e-02 1.429572403430938721e-01 -4.454679191112518311e-01 -2.954459488391876221e-01 -6.180494651198387146e-02 -1.772912740707397461e-01 -1.259361356496810913e-01 6.693886965513229370e-02 3.340222835540771484e-01 -8.271977305412292480e-02 -1.816722452640533447e-01 1.909325420856475830e-01 -2.925809621810913086e-01 -4.430780559778213501e-02 -4.645260572433471680e-01 1.380712985992431641e-01 -2.003596574068069458e-01 -1.482154428958892822e-01 -1.323828995227813721e-01 2.435649037361145020e-01 -2.546355724334716797e-01 3.479252755641937256e-02 1.230781078338623047e-01 -1.249892339110374451e-01 -2.808726578950881958e-02 6.650901585817337036e-02 1.801023185253143311e-01 -2.006931006908416748e-01 -1.687368452548980713e-01 -8.413493633270263672e-02 8.517615497112274170e-02 2.004782259464263916e-01 3.746494650840759277e-02 1.854986250400543213e-01 -1.248007416725158691e-01 -1.558515429496765137e-01 9.241135790944099426e-03 3.005900681018829346e-01 3.417787849903106689e-01 7.301370054483413696e-02 3.603928387165069580e-01 -3.095523416996002197e-01 2.338926047086715698e-01 1.347842067480087280e-01 3.823812305927276611e-01 -1.102369353175163269e-01 -7.039425522089004517e-02 2.086548209190368652e-01
4.949171468615531921e-02 1.460815127938985825e-02 5.492309480905532837e-02 3.076748736202716827e-02 -7.314331084489822388e-02 4.764502122998237610e-02 -3.985093161463737488e-02 5.693694204092025757e-02 2.332711964845657349e-02 -5.162049084901809692e-02 -4.343709722161293030e-02 -5.512946099042892456e-02 1.902787201106548309e-02 3.378303349018096924e-02 -4.020359367132186890e-02 -1.251364052295684814e-01 -1.872215536423027515e-03 -3.803022205829620361e-02 -8.165350556373596191e-02 1.226703636348247528e-02 -4.521885886788368225e-02 -6.248551607131958008e-02 -7.295557111501693726e-02 -7.568233460187911987e-02 -8.008546382188796997e-02 -2.005377970635890961e-02 -4.086966812610626221e-02 -9.592547267675399780e-02 -5.485612899065017700e-02 -2.507299184799194336e-02 -7.442548125982284546e-02 5.128669366240501404e-02 3.828424215316772461e-02 -5.087181553244590759e-02 -8.519648015499114990e-02 2.643363084644079208e-03 -1.031700298190116882e-01 -7.926426827907562256e-02 4.615820571780204773e-02 -1.740417815744876862e-02 -3.035043925046920776e-02 1.859346963465213776e-02 -6.494975090026855469e-02 -1.726348511874675751e-02 8.738990128040313721e-02 -1.045349985361099243e-01 -1.089487224817276001e-01 -6.998235359787940979e-03 -7.174495607614517212e-02 -7.870708592236042023e-03 1.150304824113845825e-02 2.036191336810588837e-02 2.646672911942005157e-02 -8.604869246482849121e-03 -5.950263142585754395e-02 2.444687299430370331e-02 -7.035114336758852005e-03 -4.787984117865562439e-02 -2.912492305040359497e-02 -9.248196333646774292e-02 -7.608664035797119141e-02 2.115476503968238831e-02 -7.627613842487335205e-02 4.975973069667816162e-02 -7.097288966178894043e-02 3.589392453432083130e-02 -1.010020002722740173e-01 -7.231073081493377686e-02 -6.648657470941543579e-02 8.125947788357734680e-03 -1.289462000131607056e-01 -1.153853386640548706e-01 -8.106090128421783447e-02 -9.504999965429306030e-02 6.517492979764938354e-02 -5.111823230981826782e-02 6.795861572027206421e-02 -2.406119368970394135e-02 6.555850617587566376e-03 -1.030630394816398621e-01 6.332937628030776978e-02 -1.156040951609611511e-01 -7.514026015996932983e-02 6.224406510591506958e-02 -7.554637640714645386e-02 4.551408439874649048e-02 5.206090211868286133e-02 -2.656481601297855377e-02 -3.297077491879463196e-02 -2.131617628037929535e-02 -2.942906133830547333e-02 -1.045613735914230347e-01 -1.175905838608741760e-01 -1.033089831471443176e-01 -9.666619449853897095e-02 -9.805987775325775146e-02 5.067464336752891541e-02 -4.654175788164138794e-02 4.326101019978523254e-02 6.067962199449539185e-02
2.854765020310878754e-02 -1.419554371386766434e-02 -6.401497870683670044e-02 3.235674649477005005e-02 1.969173550605773926e-01 -2.200338840484619141e-01 6.416438613086938858e-03 -1.307796686887741089e-01 -6.051740492694079876e-04 2.030901461839675903e-01 -4.170595109462738037e-02 1.955150514841079712e-01 9.171561151742935181e-02 8.482288569211959839e-02 -6.134959682822227478e-02 3.625777363777160645e-02 1.479042619466781616e-01 1.924505531787872314e-01 2.432167232036590576e-01 -3.554215133190155029e-01 -8.243774622678756714e-02 4.283400475978851318e-01 5.728977732360363007e-03 -8.058536797761917114e-02 -1.305563151836395264e-01 1.300031989812850952e-01 -5.130631383508443832e-03 -8.825960755348205566e-02 -2.060451209545135498e-01 -4.097323119640350342e-02 -1.010784506797790527e-01 3.991343975067138672e-01 -2.473684549331665039e-01 -4.545065164566040039e-01 -2.065220624208450317e-01 -5.095097422599792480e-02 -7.108572125434875488e-02 -3.515517711639404297e-01 -1.214426830410957336e-01 1.386653482913970947e-01 1.693080663681030273e-01 1.006507053971290588e-01 -2.474481165409088135e-01 2.911716513335704803e-02 1.214029192924499512e-01 8.192732185125350952e-02 -3.074479103088378906e-02 2.431140393018722534e-01 -5.696573853492736816e-02 1.827024072408676147e-01 1.744453907012939453e-01 -7.438407838344573975e-02 4.702952876687049866e-02 -2.285230010747909546e-01 -1.467914879322052002e-02 4.024858474731445312e-01 -1.595314443111419678e-01 2.043844759464263916e-01 2.922855084761977196e-03 6.253396719694137573e-02 -2.368727233260869980e-03 -7.341289520263671875e-02 1.686830818653106689e-01 1.369009912014007568e-01 -2.108529657125473022e-01 3.465365990996360779e-02 2.279325276613235474e-01 6.336210668087005615e-02 -2.597389817237854004e-01 -1.133861467242240906e-01 2.078067064285278320e-01 -3.231191933155059814e-01 9.797938168048858643e-02 -3.298013508319854736e-01 -1.694532334804534912e-01 3.217801153659820557e-01 -1.226022690534591675e-01 5.613747239112854004e-02 1.871976442635059357e-02 5.355517566204071045e-02 -5.931720882654190063e-02 1.820302903652191162e-01 9.117740392684936523e-02 -2.167419493198394775e-01 1.046627983450889587e-01 3.803567960858345032e-02 -4.847747087478637695e-01 1.614522039890289307e-01 4.662596583366394043e-01 1.105867996811866760e-01 -7.637659460306167603e-02 8.950372040271759033e-02 -7.792335003614425659e-02 -1.036046221852302551e-01 5.050624608993530273e-01 -3.103845380246639252e-02 3.090884722769260406e-02 -2.450322508811950684e-01 -3.806912899017333984e-01 -2.922578454017639160e-01
4.701794683933258057e-02 -8.630288392305374146e-02 -3.144496306777000427e-02 1.543920207768678665e-02 5.158276483416557312e-02 3.807682171463966370e-02 -6.652752310037612915e-02 7.013133913278579712e-02 -1.765502616763114929e-02 4.513559862971305847e-02 1.007009204477071762e-02 -1.037690192461013794e-01 -1.070689707994461060e-01 5.176984705030918121e-03 6.231400370597839355e-02 -8.793543279170989990e-02 -7.387070357799530029e-02 -7.697510719299316406e-02 -4.627965763211250305e-02 5.878650769591331482e-02 -8.493311703205108643e-02 -9.972459822893142700e-02 -3.082337602972984314e-02 -8.413079380989074707e-02 7.993742078542709351e-02 -8.754458278417587280e-02 -1.054789274930953979e-01 -1.124438866972923279e-01 -6.876046955585479736e-02 -9.259093552827835083e-02 -2.710008621215820312e-02 7.040250301361083984e-02 -9.002815932035446167e-02 -6.963920593261718750e-02 -6.561819463968276978e-02 3.222320519853383303e-04 -3.284944593906402588e-02 -3.363017365336418152e-02 5.816234648227691650e-02 5.412285402417182922e-02 2.003911510109901428e-02 -9.632096625864505768e-03 3.435785695910453796e-02 2.562379930168390274e-03 -9.587474167346954346e-02 -5.273858457803726196e-02 3.679774701595306396e-02 1.327104493975639343e-02 -8.596667647361755371e-02 5.218044668436050415e-02 3.566016256809234619e-02 5.421283468604087830e-02 -9.921046346426010132e-02 -7.415364682674407959e-02 -4.604319855570793152e-02 7.174877077341079712e-02 -3.189348429441452026e-02 2.060505189001560211e-02 -9.337823837995529175e-02 -9.597471356391906738e-02 -9.512622654438018799e-02 -1.133166551589965820e-01 1.313298474997282028e-03 -2.620567195117473602e-02 4.838738963007926941e-02 -9.211085736751556396e-02 -9.595368802547454834e-02 -8.633489906787872314e-02 -4.764465242624282837e-02 4.818502441048622131e-02 5.501493439078330994e-02 -7.831914722919464111e-02 1.339842658489942551e-02 4.047553613781929016e-02 6.098908931016921997e-02 6.804011017084121704e-02 -6.619271636009216309e-02 1.565930619835853577e-02 5.715082958340644836e-02 3.207257017493247986e-02 -9.302751719951629639e-02 -8.287193626165390015e-02 -1.530802249908447266e-02 2.879403345286846161e-02 2.094973810017108917e-02 -6.052857264876365662e-02 -4.245467483997344971e-02 -3.079015295952558517e-04 5.345588549971580505e-02 -1.076312363147735596e-01 7.617151737213134766e-02 -1.728035695850849152e-02 -6.271684169769287109e-02 -7.001811265945434570e-02 -4.246039688587188721e-02 -3.999115154147148132e-02 -8.456611633300781250e-02 -1.054242551326751709e-01 -8.493735641241073608e-02 -4.754577577114105225e-02
-5.245379358530044556e-02 -1.934233456850051880e-01 3.407101035118103027e-01 4.897116124629974365e-02 2.375387959182262421e-02 -8.709342777729034424e-02 -2.947661578655242920e-01 1.256253272294998169e-01 -1.027400270104408264e-01 -1.829530596733093262e-01 1.036342605948448181e-01 1.240901127457618713e-01 -5.192634463310241699e-01 2.339827120304107666e-01 -2.425027452409267426e-02 -1.616562600247561932e-03 8.820439130067825317e-02 -6.722083687782287598e-02 -1.237855106592178345e-02 8.475902490317821503e-03 -1.197583451867103577e-01 8.106828480958938599e-02 -2.658092416822910309e-03 -3.200257942080497742e-02 -1.591800898313522339e-01 7.593949139118194580e-02 -1.093032211065292358e-01 1.176642030477523804e-01 2.492454834282398224e-02 1.282393336296081543e-01 2.027952522039413452e-01 -9.430699050426483154e-03 -4.987523425370454788e-03 1.083214301615953445e-03 -2.743466198444366455e-01 -1.013895496726036072e-01 -9.632658213376998901e-03 1.324123293161392212e-01 -2.096369564533233643e-01 4.353645443916320801e-02 2.230922132730484009e-01 -9.871149063110351562e-02 1.546746492385864258e-01 -2.460480779409408569e-01 -4.881326481699943542e-02 4.087103158235549927e-02 8.702636510133743286e-02 -8.356871455907821655e-02 5.897399410605430603e-02 7.360439002513885498e-02 4.034727215766906738e-01 1.019995212554931641e-01 -4.825250431895256042e-02 1.894710063934326172e-01 7.829707860946655273e-02 -5.035116672515869141e-01 -6.751099228858947754e-02 -9.297348558902740479e-02 -2.666265703737735748e-02 -8.152940869331359863e-02 9.916802495718002319e-02 -2.966971099376678467e-01 6.346675008535385132e-02 6.778112798929214478e-02 -8.906298875808715820e-02 2.736791670322418213e-01 -4.235916212201118469e-02 1.288914084434509277e-01 -7.747393101453781128e-02 -6.802174448966979980e-02 -4.131702706217765808e-02 -8.834853768348693848e-02 -1.811012066900730133e-02 -6.166720762848854065e-02 -9.412967413663864136e-02 5.406903102993965149e-02 -1.168077364563941956e-01 -3.723951876163482666e-01 -1.459027826786041260e-01 1.192031130194664001e-01 5.480248853564262390e-02 -6.234829872846603394e-02 4.331846535205841064e-02 -2.188744954764842987e-03 -5.357515066862106323e-02 -2.365082735195755959e-03 2.360188663005828857e-01 -2.211736291646957397e-01 4.795708507299423218e-02 -3.295420408248901367e-01 5.396235585212707520e-01 -1.235689818859100342e-01 -1.036730706691741943e-01 8.728455752134323120e-02 6.833736784756183624e-03 4.553263541311025620e-03 -1.240774150937795639e-02 -6.559782475233078003e-02 -1.379022896289825439e-01 1.794147491455078125e-01
1.090019047260284424e-01 -1.129240468144416809e-01 -2.825728654861450195e-01 -9.634559974074363708e-03 5.248957276344299316e-01 8.532134443521499634e-02 4.345809817314147949e-01 1.386761665344238281e-01 -2.143341451883316040e-01 -2.303344160318374634e-01 -1.188356131315231323e-01 1.809398680925369263e-01 -1.274707466363906860e-01 -1.872674822807312012e-01 -2.017424553632736206e-01 -5.896113067865371704e-02 1.613054126501083374e-01 7.211314886808395386e-02 -3.599065244197845459e-01 2.720091342926025391e-01 2.215379849076271057e-03 9.946518391370773315e-02 6.421719444915652275e-04 -2.828897908329963684e-03 1.774094849824905396e-01 -1.008222922682762146e-01 8.728156238794326782e-02 8.160176873207092285e-02 2.441931217908859253e-01 -1.092468798160552979e-01 -7.007265090942382812e-02 -1.932641118764877319e-01 1.907553225755691528e-01 1.376634240150451660e-01 -3.518811762332916260e-01 4.213804900646209717e-01 2.155417017638683319e-02 6.674957275390625000e-02 -5.212860926985740662e-02 1.169513631612062454e-02 -2.458497583866119385e-01 -5.985671654343605042e-02 2.168607413768768311e-01 -3.347446322441101074e-01 -9.169219993054866791e-03 1.049053668975830078e-01 -5.506501719355583191e-02 -1.214527860283851624e-01 4.315244778990745544e-02 1.791483312845230103e-01 3.256289064884185791e-01 -1.502297222614288330e-01 3.793313205242156982e-01 1.603266596794128418e-01 -1.449601650238037109e-01 -1.314935207366943359e+00 -8.570297062397003174e-02 -2.596835792064666748e-01 -6.525778025388717651e-02 -1.458122432231903076e-01 -1.923541575670242310e-01 -1.543823629617691040e-01 3.023233450949192047e-02 -1.863416582345962524e-01 -2.241634428501129150e-01 8.440047502517700195e-02 1.361272949725389481e-02 1.045482084155082703e-01 -3.121060132980346680e-01 -1.904454454779624939e-02 3.687271177768707275e-01 5.988574028015136719e-01 -6.943697482347488403e-02 1.581712812185287476e-01 2.495130747556686401e-01 1.708578616380691528e-01 -4.490046948194503784e-02 -2.498100511729717255e-02 -1.391405463218688965e-01 1.985540427267551422e-02 -4.961916208267211914e-01 -1.684773862361907959e-01 1.222806423902511597e-01 1.853721290826797485e-01 -2.488095313310623169e-02 4.147358834743499756e-01 -3.431638777256011963e-01 1.323294490575790405e-01 -8.055131882429122925e-03 8.014895021915435791e-02 1.185556799173355103e-01 1.164066791534423828e-02 -1.288314163684844971e-01 -2.475768327713012695e-02 -7.825907319784164429e-02 1.359598636627197266e-01 -2.001603096723556519e-01 -1.453272998332977295e-01 1.684643924236297607e-01 1.809673151001334190e-03
2.656571380794048309e-02 -5.133494734764099121e-02 1.600844413042068481e-01 -5.145188793540000916e-02 -2.898672521114349365e-01 -6.356774270534515381e-02 1.937613189220428467e-01 -3.035773150622844696e-02 -4.528677165508270264e-01 -1.165879964828491211e-01 1.271175593137741089e-01 1.080255582928657532e-01 1.698376834392547607e-01 1.853214055299758911e-01 3.152894601225852966e-02 1.106920242309570312e-01 -5.514676868915557861e-02 4.352715611457824707e-02 -3.007482364773750305e-02 2.846794724464416504e-01 -3.080832213163375854e-02 -7.357712090015411377e-02 1.023279223591089249e-02 -9.320233017206192017e-02 -1.380662918090820312e-01 -1.245462372899055481e-01 1.246329173445701599e-01 -9.023625403642654419e-02 1.699100583791732788e-01 8.477301150560379028e-02 5.211476609110832214e-02 -1.939271390438079834e-02 8.684257417917251587e-02 5.598660558462142944e-02 -1.672314107418060303e-01 -5.995713174343109131e-02 8.861149102449417114e-02 -6.208112463355064392e-02 2.358343005180358887e-01 -4.840037599205970764e-02 -1.347817387431859970e-02 -4.295544698834419250e-02 3.727884963154792786e-02 -8.055406063795089722e-02 1.873625218868255615e-01 -1.286478042602539062e-01 6.776350736618041992e-02 -2.551315128803253174e-01 1.258118152618408203e-01 -6.503836810588836670e-02 3.603688776493072510e-01 8.875077217817306519e-02 7.770913839340209961e-02 -1.035815104842185974e-01 -2.885895371437072754e-01 -3.266543745994567871e-01 2.039896510541439056e-02 -2.213554084300994873e-01 -1.075803264975547791e-01 5.342227872461080551e-03 7.262993603944778442e-02 -1.828046143054962158e-01 3.120690211653709412e-02 -2.733218073844909668e-01 -1.116201579570770264e-01 8.323583751916885376e-02 -7.478321343660354614e-02 6.200039014220237732e-02 1.137262023985385895e-02 8.961673825979232788e-03 3.152277171611785889e-01 -1.388002485036849976e-01 3.807509690523147583e-02 2.265027910470962524e-01 1.018325686454772949e-01 -5.459982156753540039e-02 -3.165833353996276855e-01 6.670949608087539673e-02 -9.877855330705642700e-02 4.388917982578277588e-02 -1.726187318563461304e-01 -2.551532723009586334e-02 2.809397503733634949e-02 -1.763679385185241699e-01 -1.310578137636184692e-01 -5.715959519147872925e-02 -2.091916650533676147e-02 -1.490098237991333008e-01 3.093835338950157166e-02 -1.699101477861404419e-01 -2.055665254592895508e-01 6.920213997364044189e-02 7.325647771358489990e-02 -3.000840544700622559e-01 -2.496303059160709381e-02 1.048837527632713318e-01 4.570470377802848816e-02 -1.395745202898979187e-02 3.053613938391208649e-02 2.000122219324111938e-01
