-4.078837856650352478e-02 1.003021653741598129e-02 -4.316569119691848755e-02 -3.317320719361305237e-02 2.456467449665069580e-01 1.294863224029541016e-01 -2.749148942530155182e-02 9.897066280245780945e-03 -2.074429094791412354e-01 1.728588342666625977e-01 -3.701815009117126465e-02 7.384867966175079346e-02 2.534484863281250000e-01 -3.747959434986114502e-02 6.661983579397201538e-02 1.689501702785491943e-01 -1.393137276172637939e-01 6.961996108293533325e-02 4.260627925395965576e-02 -4.527846723794937134e-02 1.193408891558647156e-01 2.616808004677295685e-02 3.266720771789550781e-01 -1.631632447242736816e-03 -1.405339781194925308e-02 -5.101111531257629395e-02 2.199891954660415649e-01 1.342467963695526123e-01 1.710013020783662796e-03 -1.647434830665588379e-01 3.035529144108295441e-02 1.392692513763904572e-02 1.307920459657907486e-02 -4.213975742459297180e-02 1.047518178820610046e-01 -1.313356608152389526e-01 2.074138373136520386e-01 8.779442310333251953e-02 -4.175120033323764801e-03 -1.503593381494283676e-02 -1.097465530037879944e-01 -3.677202621474862099e-04 -3.018761053681373596e-04 -1.851349920034408569e-01 -8.006366342306137085e-02 6.494937837123870850e-02 3.308377414941787720e-02 7.321347296237945557e-02 1.613272912800312042e-02 -1.302870269864797592e-02 1.789285838603973389e-01 -1.245578303933143616e-01 -5.809785053133964539e-02 7.878129184246063232e-02 -1.061903163790702820e-01 4.771848395466804504e-02 2.835172116756439209e-01 3.024300932884216309e-02 -9.199856966733932495e-02 -2.056994289159774780e-02 -1.849500536918640137e-01 -1.006859838962554932e-01 -1.724491268396377563e-01 1.780896931886672974e-01 -1.460763663053512573e-01 1.187368184328079224e-01 -7.344850152730941772e-02 -6.292258203029632568e-02 6.468107923865318298e-03 9.579563513398170471e-03 -7.197281718254089355e-02 -1.011946983635425568e-02 6.726989522576332092e-03 -8.434109389781951904e-02 -2.927881199866533279e-03 3.153036907315254211e-02 2.014264315366744995e-01 -2.075565159320831299e-01 -2.028389601036906242e-03 -4.087366759777069092e-01 -1.394442468881607056e-01 -6.939975917339324951e-02 -1.572431027889251709e-01 2.186774164438247681e-01 1.343575492501258850e-02 -3.767492622137069702e-02 -1.300648450851440430e-01 -2.775507867336273193e-01 5.223130434751510620e-02 1.917282044887542725e-01 2.034042328596115112e-01 1.093683689832687378e-01 -9.351705014705657959e-02 -1.709007658064365387e-02 2.819741964340209961e-01 2.439388632774353027e-01 4.510300979018211365e-02 5.679528787732124329e-02 1.530819088220596313e-01 -1.175914853811264038e-01
2.359726130962371826e-01 -1.771246194839477539e+00 -6.500397622585296631e-02 -1.056974679231643677e-01 2.502359747886657715e-01 -6.100598722696304321e-02 -4.078483581542968750e-01 -4.853788316249847412e-01 -2.262437194585800171e-01 -1.971443649381399155e-03 -2.452798001468181610e-02 1.772722899913787842e-01 -5.879300832748413086e-01 1.900453120470046997e-01 -6.311020255088806152e-02 2.145322859287261963e-01 1.216137707233428955e-01 -2.461642771959304810e-02 8.504316806793212891e-01 -1.338216662406921387e-01 -2.954695373773574829e-02 5.042946934700012207e-01 2.958675026893615723e-01 5.628420040011405945e-02 2.470575571060180664e-01 5.993505567312240601e-02 3.039918243885040283e-01 2.620728611946105957e-01 -5.271939933300018311e-02 3.095489740371704102e-01 -4.480090737342834473e-02 -1.514660939574241638e-02 -1.314638555049896240e-01 -4.973104894161224365e-01 -2.134078145027160645e-01 -2.004809677600860596e-01 5.798385664820671082e-02 -4.729561507701873779e-01 -5.039984583854675293e-01 1.760651469230651855e-01 1.354793310165405273e-01 -3.317379355430603027e-01 -5.052881781011819839e-03 -1.213971614837646484e+00 1.947772264480590820e+00 -7.357335090637207031e-01 4.381373524665832520e-01 -1.607240885496139526e-01 -2.440925687551498413e-02 3.983964622020721436e-01 -1.825116872787475586e-01 -7.528964042663574219e+00 2.074385285377502441e-01 2.022947221994400024e-01 4.018156230449676514e-02 -8.099563717842102051e-01 4.390611127018928528e-02 -4.020480632781982422e+00 -3.996183723211288452e-02 -8.256689645349979401e-03 -5.494263768196105957e-02 -7.365944236516952515e-02 -6.436270475387573242e-02 -9.185283631086349487e-02 2.012561112642288208e-01 9.657074511051177979e-02 7.586874365806579590e-01 2.345241904258728027e-01 -6.071310490369796753e-03 -5.099547281861305237e-02 -3.458204567432403564e-01 3.579466044902801514e-01 2.841785084456205368e-03 3.496346473693847656e-01 1.825643777847290039e-01 -1.232725232839584351e-01 1.531579792499542236e-01 1.180225133895874023e+00 2.946090698242187500e-01 -6.453425884246826172e-01 -6.156420707702636719e-01 -2.382765710353851318e-01 4.253219440579414368e-02 -6.402352359145879745e-03 1.483442634344100952e-01 -2.460421174764633179e-01 1.387324810028076172e+00 9.361997991800308228e-02 -6.493173241615295410e-01 -7.339945062994956970e-03 2.316801071166992188e+00 -2.778195440769195557e-01 -7.658626418560743332e-03 -1.296669989824295044e-01 1.475764811038970947e-01 3.449192270636558533e-02 -1.081056073307991028e-01 -2.747426182031631470e-02 3.636596202850341797e-01 -8.248486518859863281e-01
-8.952022530138492584e-03 1.327502578496932983e-01 7.200098037719726562e-02 -1.150248423218727112e-01 6.138185858726501465e-01 1.572993248701095581e-01 1.032414659857749939e-02 5.771737173199653625e-02 -6.645866483449935913e-02 -6.205072999000549316e-02 -9.876640141010284424e-02 -1.953864097595214844e-01 -1.096817851066589355e-01 -7.924462854862213135e-02 4.088464379310607910e-02 -9.038892388343811035e-02 5.942316353321075439e-02 -1.554414629936218262e-01 9.486527740955352783e-02 2.138836234807968140e-01 -2.288876920938491821e-01 -5.587488040328025818e-02 6.708873510360717773e-01 -1.063021048903465271e-01 3.239798545837402344e-02 2.355715334415435791e-01 -1.878282576799392700e-01 1.296593427658081055e+00 3.627453371882438660e-02 5.497584119439125061e-02 -3.240137174725532532e-02 -3.404200449585914612e-02 1.027635186910629272e-01 1.705451011657714844e-01 9.777403622865676880e-02 1.286595612764358521e-01 -7.630568742752075195e-01 -2.478563636541366577e-01 1.476366072893142700e-01 2.098423801362514496e-02 -3.618341311812400818e-02 -1.561954021453857422e-01 -8.889999240636825562e-02 5.524491891264915466e-02 7.730868458747863770e-02 1.401089429855346680e-01 -2.989194691181182861e-01 2.024408429861068726e-01 -1.153403073549270630e-01 6.070960685610771179e-02 7.684838958084583282e-03 -1.096668243408203125e-01 9.963655471801757812e-02 -1.194202825427055359e-01 6.924059242010116577e-02 2.470298111438751221e-02 3.234325349330902100e-02 2.437108308076858521e-01 -1.174823045730590820e-01 1.478355843573808670e-02 -1.351522207260131836e-01 3.256860077381134033e-01 -1.916270554065704346e-01 -9.500332176685333252e-02 9.897946566343307495e-02 -9.510813951492309570e-01 -1.016478687524795532e-01 1.564054749906063080e-02 -3.231385722756385803e-02 -2.427931874990463257e-01 -9.228190034627914429e-02 -1.209399849176406860e-01 2.078423835337162018e-02 3.257708251476287842e-02 4.203312844038009644e-02 2.423551976680755615e-01 1.841782480478286743e-01 -1.569967418909072876e-01 -3.051847591996192932e-02 8.146937191486358643e-02 1.592124402523040771e-01 -1.057443991303443909e-01 4.090316593647003174e-02 -3.712775185704231262e-02 1.112382560968399048e-01 -1.626763939857482910e-01 -4.020299017429351807e-01 -1.724085360765457153e-01 -7.882089912891387939e-02 2.964055836200714111e-01 -6.389530897140502930e-01 8.425155282020568848e-02 -7.289899885654449463e-02 8.765626698732376099e-02 3.119638003408908844e-02 -4.683678746223449707e-01 -8.537830412387847900e-02 -3.380847275257110596e-01 6.703643500804901123e-02 -4.541229307651519775e-01
-4.817011579871177673e-02 -8.252003043889999390e-02 -4.142842814326286316e-02 6.701913475990295410e-02 -2.292585559189319611e-02 -5.726076290011405945e-02 -3.493336215615272522e-02 1.091751642525196075e-02 4.484527185559272766e-02 4.497432336211204529e-02 -4.138862714171409607e-02 -1.124831587076187134e-01 1.570365205407142639e-02 1.155896931886672974e-01 -4.742027819156646729e-02 -9.947063773870468140e-02 -3.322255983948707581e-02 -1.597563177347183228e-01 -1.185176819562911987e-01 -2.883055806159973145e-02 -1.398617625236511230e-01 1.206249743700027466e-01 -2.730358839035034180e-01 4.205110669136047363e-02 1.172530464828014374e-02 7.059377431869506836e-01 -5.413238704204559326e-02 3.887546360492706299e-01 1.279198564589023590e-02 2.762546390295028687e-02 -3.999790549278259277e-02 -1.030325423926115036e-02 -1.422657519578933716e-01 -1.184995695948600769e-01 -1.536015570163726807e-01 9.452372789382934570e-02 -4.763997793197631836e-01 1.149131953716278076e-01 6.199192628264427185e-02 -7.958631962537765503e-02 -1.777070946991443634e-02 5.879542976617813110e-02 -8.930049836635589600e-02 -1.637979596853256226e-01 2.143365517258644104e-02 -7.421313226222991943e-02 -1.034441143274307251e-01 -3.248553276062011719e-01 -9.352385066449642181e-03 1.759056467562913895e-03 -4.464470967650413513e-02 -6.627534329891204834e-02 -3.869491629302501678e-03 -1.571779400110244751e-01 9.757682681083679199e-02 -1.202408298850059509e-01 4.512304440140724182e-02 7.154012471437454224e-02 8.040039241313934326e-02 -1.675696521997451782e-01 -8.274686336517333984e-02 3.580375015735626221e-02 1.161258146166801453e-01 7.281018793582916260e-02 -6.174719706177711487e-02 -1.862638741731643677e-01 3.384504234418272972e-03 9.543287567794322968e-03 -3.501566825434565544e-03 -9.330761432647705078e-02 6.485331337898969650e-03 4.643696546554565430e-02 -2.541862726211547852e-01 -5.335097759962081909e-02 5.628168582916259766e-02 -3.102359920740127563e-02 4.825627803802490234e-01 2.727375365793704987e-02 1.170690730214118958e-01 -1.125997304916381836e-02 3.068840689957141876e-02 -2.046176977455615997e-02 -1.485377550125122070e-02 -4.398207366466522217e-01 7.736322586424648762e-04 2.400092408061027527e-02 1.044296100735664368e-01 -1.149724647402763367e-01 2.069001197814941406e-01 -1.114316433668136597e-01 3.666163384914398193e-01 7.655517756938934326e-02 5.000116303563117981e-02 5.580641701817512512e-02 9.571415930986404419e-02 -2.202116698026657104e-01 2.611771412193775177e-02 -3.116275649517774582e-03 -6.783356890082359314e-03 6.601948291063308716e-03
1.782595925033092499e-02 -7.884088903665542603e-02 8.824102580547332764e-03 1.537268329411745071e-02 -8.514414727687835693e-02 -6.246608868241310120e-02 -3.024406358599662781e-02 -9.327329695224761963e-02 -1.115271672606468201e-01 -9.161405265331268311e-02 -1.039094179868698120e-01 5.368158221244812012e-02 -2.928232215344905853e-02 -7.507653534412384033e-02 -5.020485818386077881e-02 7.715808693319559097e-03 6.894703255966305733e-04 -4.470337182283401489e-02 -3.978117182850837708e-02 -1.030494049191474915e-01 -7.425751537084579468e-02 7.999525964260101318e-02 -9.216269105672836304e-02 -3.666646033525466919e-02 4.974747076630592346e-02 -2.985669113695621490e-02 4.427384957671165466e-02 -2.689739048946648836e-04 -2.896602079272270203e-02 -6.261272728443145752e-02 2.303227316588163376e-03 -5.739446356892585754e-02 3.196592628955841064e-02 -6.643584370613098145e-02 -4.953373968601226807e-02 -4.379152506589889526e-02 7.439430803060531616e-02 -3.039310686290264130e-02 -7.839356362819671631e-02 -2.454672567546367645e-02 -4.261415079236030579e-02 6.055870279669761658e-02 4.218173772096633911e-02 8.512448519468307495e-02 -6.286720931529998779e-02 -2.562653273344039917e-02 -8.809583634138107300e-02 1.907848194241523743e-02 -1.034336313605308533e-01 -8.118026889860630035e-03 -2.698372490704059601e-02 -2.432868815958499908e-03 8.161380141973495483e-02 5.481858551502227783e-02 -3.726166114211082458e-02 2.322663180530071259e-02 1.762486994266510010e-02 -7.610135525465011597e-02 5.294109508395195007e-02 -5.052440986037254333e-02 -2.433272451162338257e-02 -5.128443241119384766e-02 -4.408037662506103516e-02 -4.359154496341943741e-03 -9.080272912979125977e-02 2.669484913349151611e-02 6.216850876808166504e-02 -9.154983609914779663e-02 -2.561604138463735580e-03 -8.235935121774673462e-02 -5.366183072328567505e-02 5.405234917998313904e-02 -8.696019649505615234e-02 -7.285931706428527832e-02 4.419206827878952026e-02 6.440074741840362549e-02 -1.039857193827629089e-01 6.586528569459915161e-02 -3.313934057950973511e-02 4.947264678776264191e-03 -9.949513524770736694e-02 7.793833501636981964e-03 -7.980450242757797241e-02 -7.096400856971740723e-02 -1.089624166488647461e-01 -1.764254830777645111e-02 -3.745737019926309586e-03 -1.696075499057769775e-02 6.874566525220870972e-02 7.785510271787643433e-02 -4.966669948771595955e-04 -1.554595306515693665e-02 1.493848208338022232e-02 3.022361733019351959e-02 4.302731156349182129e-02 4.103315249085426331e-02 5.000804364681243896e-02 -8.438432961702346802e-02 -5.135222896933555603e-02 -5.313263833522796631e-02
-6.481443066149950027e-03 7.005722820758819580e-02 2.221885919570922852e-01 1.489015389233827591e-02 -9.477804601192474365e-02 -2.256764620542526245e-01 2.240973711013793945e-01 -1.741749495267868042e-01 9.925053454935550690e-03 -1.732376068830490112e-01 4.234982654452323914e-02 9.716306813061237335e-03 -8.360804617404937744e-02 -7.466012984514236450e-02 4.221149981021881104e-01 2.834800444543361664e-02 8.145912736654281616e-02 1.116372719407081604e-01 -2.020410150289535522e-01 1.204271763563156128e-01 -2.608790397644042969e-01 1.344048976898193359e-02 -1.091138720512390137e-01 3.514876961708068848e-01 -8.450683206319808960e-02 1.744831949472427368e-01 -2.242840128019452095e-03 1.279289126396179199e-01 1.752812564373016357e-01 1.199555173516273499e-01 2.858864963054656982e-01 -9.491375531069934368e-04 -6.531687825918197632e-02 -1.734107732772827148e-01 -4.426463320851325989e-02 1.634068670682609081e-03 -1.478229090571403503e-02 -5.377835780382156372e-02 -4.963458701968193054e-02 -1.597628146409988403e-01 1.663423702120780945e-02 -3.174113035202026367e-01 -3.118095695972442627e-01 -1.557128280401229858e-01 -9.563732147216796875e-02 8.537232130765914917e-02 7.286857813596725464e-02 4.227581992745399475e-02 7.989752292633056641e-02 -4.155121445655822754e-01 2.372038811445236206e-01 3.104558587074279785e-01 -8.782662451267242432e-02 1.061168387532234192e-01 -5.663770437240600586e-02 -7.398961111903190613e-03 4.006038606166839600e-02 7.629536837339401245e-02 -1.607268750667572021e-01 5.632182583212852478e-03 -5.797176063060760498e-02 -3.101451508700847626e-02 1.423719674348831177e-01 -7.389097660779953003e-02 -1.185794845223426819e-01 6.514102220535278320e-02 -1.341419517993927002e-01 -1.131651028990745544e-01 8.550056256353855133e-03 1.496031135320663452e-01 -8.063325285911560059e-02 -3.026403188705444336e-01 -2.550579980015754700e-02 -2.061394155025482178e-01 -1.808615773916244507e-01 -1.405715048313140869e-01 2.502864599227905273e-02 2.198550403118133545e-01 5.864893901161849499e-04 -1.000524684786796570e-01 7.237514108419418335e-02 -1.169858202338218689e-01 1.840310692787170410e-01 -2.319018542766571045e-02 1.218231045641005039e-03 -6.391773372888565063e-02 -1.873175203800201416e-01 2.403440922498703003e-01 1.151748746633529663e-01 4.110236093401908875e-02 6.021614186465740204e-03 -1.491447836160659790e-01 -4.547322541475296021e-02 1.549746003001928329e-02 1.011784598231315613e-01 5.026913061738014221e-02 -1.734251677989959717e-01 7.834810763597488403e-02 9.161289036273956299e-02 -3.640814125537872314e-02
-1.054033860564231873e-01 1.239313781261444092e-01 6.158791854977607727e-02 -4.649379849433898926e-02 -1.103162169456481934e-01 -4.654241502285003662e-01 -1.264609098434448242e-01 2.636006847023963928e-02 -2.796087786555290222e-02 -2.406172007322311401e-01 -7.266593724489212036e-02 -3.233332931995391846e-02 -4.789296537637710571e-03 -3.323557227849960327e-02 1.234747469425201416e-01 -2.005542516708374023e-01 3.264064490795135498e-01 -1.828377395868301392e-01 1.545981764793395996e-01 -1.026050746440887451e-01 2.531502023339271545e-02 2.103083729743957520e-01 1.021406501531600952e-01 7.500335574150085449e-02 -3.033286519348621368e-02 -1.321703344583511353e-01 2.072972431778907776e-02 1.170168146491050720e-01 8.978641033172607422e-02 -1.772487312555313110e-01 8.828441798686981201e-02 5.046665202826261520e-03 1.162771955132484436e-01 -1.030119359493255615e-01 6.012224406003952026e-02 2.080219797790050507e-02 -7.117331027984619141e-02 6.126264110207557678e-02 6.271178275346755981e-02 -1.377885695546865463e-02 -2.137265056371688843e-01 -2.147508263587951660e-01 -5.051080510020256042e-02 -1.912338584661483765e-01 -2.339985072612762451e-01 -3.874646872282028198e-02 6.037038564682006836e-02 1.222676485776901245e-01 -5.456774681806564331e-02 2.402820810675621033e-02 -1.706863045692443848e-01 1.151236444711685181e-01 5.852773040533065796e-02 1.072669252753257751e-01 8.169104158878326416e-02 9.552856534719467163e-02 2.718704044818878174e-01 1.785494200885295868e-02 -5.162617191672325134e-02 9.481443464756011963e-02 -8.952933549880981445e-02 6.579812616109848022e-02 -1.635627746582031250e-01 1.982762217521667480e-01 6.300269626080989838e-03 1.615239493548870087e-02 -9.127571433782577515e-02 -7.909002155065536499e-02 -1.331515889614820480e-02 -8.026005327701568604e-02 -2.359774149954319000e-02 6.262204051017761230e-02 -1.340873353183269501e-02 4.578611627221107483e-02 1.380844693630933762e-02 3.524498781189322472e-03 4.407610278576612473e-03 8.503337949514389038e-02 -7.779457420110702515e-02 1.172799542546272278e-01 -1.121494248509407043e-01 -1.407759636640548706e-02 -1.878850460052490234e-01 5.368972197175025940e-02 -1.165108159184455872e-01 -3.471598029136657715e-02 -1.386410277336835861e-02 3.826991468667984009e-02 2.703166194260120392e-02 1.362579613924026489e-01 -3.050753772258758545e-01 1.088490486145019531e-01 1.616048999130725861e-02 -2.259593009948730469e-01 -4.067117720842361450e-02 2.015831694006919861e-02 -5.089601501822471619e-02 -5.494548752903938293e-02 -7.639496773481369019e-02 3.155627846717834473e-02
-2.163342665880918503e-03 -3.428531810641288757e-02 -8.472748450003564358e-04 -2.390864863991737366e-02 5.569908022880554199e-02 -3.640510886907577515e-02 -1.002719160169363022e-02 6.070921570062637329e-02 -1.117012351751327515e-01 7.580056786537170410e-02 -8.518903702497482300e-02 7.217632234096527100e-02 -1.262005884200334549e-02 3.741033747792243958e-02 -1.100812777876853943e-01 -3.713138401508331299e-02 2.607053890824317932e-02 -3.030220791697502136e-02 3.712183237075805664e-02 3.244207054376602173e-02 -1.095270887017250061e-01 -1.014614924788475037e-01 -7.953133434057235718e-02 -1.378304441459476948e-03 1.082698907703161240e-02 -9.158021211624145508e-02 -9.034568071365356445e-02 1.317721209488809109e-03 -3.897290676832199097e-02 1.621213508769869804e-03 -4.321838542819023132e-02 -1.404293254017829895e-02 -6.427182257175445557e-02 -9.265369921922683716e-02 4.361204057931900024e-02 2.612070366740226746e-02 -1.080438420176506042e-01 -8.053003251552581787e-02 1.563448831439018250e-02 -2.089527435600757599e-02 5.054021254181861877e-02 4.386503249406814575e-02 -8.200181275606155396e-02 3.259280323982238770e-02 -5.628279969096183777e-02 3.184476122260093689e-02 -1.514029596000909805e-02 4.269848391413688660e-02 1.544627128168940544e-03 -3.402950242161750793e-02 1.534008048474788666e-02 -6.374124437570571899e-02 -7.562626153230667114e-02 -2.673017233610153198e-02 -3.352242708206176758e-02 8.142580091953277588e-02 -6.360030174255371094e-02 6.431345641613006592e-02 4.872061684727668762e-02 -1.577053032815456390e-02 -6.537627428770065308e-02 -1.133250480052083731e-04 4.920674487948417664e-02 -4.892178624868392944e-02 -8.893954753875732422e-02 5.091345403343439102e-03 9.116649627685546875e-02 -5.987110733985900879e-02 -1.081167608499526978e-01 -1.757088117301464081e-02 -2.768624387681484222e-02 2.441851049661636353e-02 -1.168643757700920105e-01 -6.588769704103469849e-02 -7.610426843166351318e-02 -5.280845239758491516e-02 -6.354000419378280640e-02 7.480950094759464264e-03 -2.979151532053947449e-02 3.856676444411277771e-02 7.171209156513214111e-02 3.472531214356422424e-02 6.496639922261238098e-03 -2.928004413843154907e-02 5.160593893378973007e-03 1.243161410093307495e-02 4.023184068500995636e-03 3.491161391139030457e-02 -5.727044120430946350e-02 -1.101448312401771545e-01 -8.172600716352462769e-02 -4.463263601064682007e-02 -1.859341189265251160e-02 -8.168908208608627319e-02 2.867363952100276947e-02 -6.664888560771942139e-02 -3.984226658940315247e-02 5.713764694519340992e-04 -4.624667391180992126e-02 -9.488364309072494507e-02
-2.757751941680908203e-02 8.340670913457870483e-02 1.193571984767913818e-01 -2.385382540524005890e-02 1.935350447893142700e-01 -9.986079484224319458e-02 -2.090538665652275085e-02 -4.303413257002830505e-02 5.295827984809875488e-03 -9.934689849615097046e-02 -2.836580872535705566e-01 -1.839610636234283447e-01 2.072563618421554565e-01 -1.951400786638259888e-01 2.207111567258834839e-01 1.163623780012130737e-01 3.498799353837966919e-02 1.047688722610473633e-01 -1.029197275638580322e-01 -7.451365143060684204e-02 -1.289386004209518433e-01 8.469288237392902374e-03 1.332503259181976318e-01 -7.819356024265289307e-02 6.646061781793832779e-03 -1.589381136000156403e-02 9.682683646678924561e-02 -1.136706471443176270e-01 1.647314131259918213e-01 -2.423912584781646729e-01 1.495238542556762695e-01 -2.784067997708916664e-03 -2.612354978919029236e-02 1.071277912706136703e-02 1.355724334716796875e-01 2.568897604942321777e-02 2.289650440216064453e-01 -2.234663441777229309e-02 -1.019518524408340454e-01 -1.340271234512329102e-01 -4.944829642772674561e-02 -1.117420122027397156e-01 -1.228830069303512573e-01 -7.753829658031463623e-02 1.023943722248077393e-01 -1.334212571382522583e-01 -6.177553161978721619e-02 1.593786329030990601e-01 6.965394597500562668e-03 2.036314010620117188e-01 -1.034398525953292847e-01 -9.237015992403030396e-02 1.895593255758285522e-01 1.342210024595260620e-01 2.470389157533645630e-01 4.843624308705329895e-02 -8.352806419134140015e-02 -1.626854985952377319e-01 -1.851211190223693848e-01 -1.702756285667419434e-01 7.793152332305908203e-02 8.263110369443893433e-02 4.502002894878387451e-01 1.430952101945877075e-01 1.707820296287536621e-01 9.727011620998382568e-02 -4.430454596877098083e-02 -8.607503026723861694e-02 1.065686158835887909e-02 -1.738612204790115356e-01 1.006532576866447926e-03 1.947873979806900024e-01 6.595211476087570190e-02 2.124360203742980957e-01 -6.300517171621322632e-02 -3.674180060625076294e-02 3.976158052682876587e-02 -1.129758879542350769e-01 3.495245799422264099e-02 -2.495852112770080566e-01 1.340023279190063477e-01 -6.882382184267044067e-02 1.723564043641090393e-02 -2.851460129022598267e-02 1.942153871059417725e-01 -5.691547691822052002e-02 4.410377144813537598e-02 9.732784330844879150e-02 4.292460903525352478e-02 3.511280938982963562e-02 3.054123139008879662e-03 2.164600193500518799e-01 1.230285465717315674e-01 4.539847001433372498e-02 -3.955683857202529907e-02 2.898948267102241516e-02 1.069721132516860962e-01 -1.387667492963373661e-03 -9.809912741184234619e-02 1.646657884120941162e-01
-4.700722274719737470e-05 -1.150654777884483337e-01 1.503522545099258423e-01 -8.762607723474502563e-02 -2.146078497171401978e-01 2.217149175703525543e-02 9.600318223237991333e-02 4.263007268309593201e-02 9.921871125698089600e-02 2.773956023156642914e-02 3.485668301582336426e-01 -6.623289734125137329e-02 1.129999384284019470e-01 -7.264391984790563583e-03 1.140223667025566101e-01 7.879752665758132935e-02 1.759516298770904541e-01 -2.897437214851379395e-01 -3.568132873624563217e-03 -7.797922939062118530e-02 3.550646081566810608e-02 8.080877363681793213e-02 -4.379075765609741211e-01 3.670261055231094360e-02 -5.886917468160390854e-03 2.936604917049407959e-01 -1.178600192070007324e-01 -5.249596759676933289e-02 -3.148918622173368931e-04 -2.258271574974060059e-01 1.894387789070606232e-02 -7.078295573592185974e-03 1.010422408580780029e-01 2.751661837100982666e-02 1.065362542867660522e-01 5.192397162318229675e-02 -3.634958565235137939e-01 -8.940690755844116211e-02 3.298821300268173218e-02 1.357105560600757599e-02 -2.729061543941497803e-01 1.048503145575523376e-01 -1.043292284011840820e-01 -9.341247379779815674e-03 -6.499234586954116821e-02 2.516273781657218933e-02 -1.302702724933624268e-01 -1.081826165318489075e-02 -1.009658649563789368e-01 -1.435822844505310059e-01 -5.515474453568458557e-02 4.933403059840202332e-02 1.017748564481735229e-01 5.354093760251998901e-02 -7.226812839508056641e-02 8.238887786865234375e-02 2.045201836153864861e-03 -1.875460892915725708e-01 2.144208848476409912e-01 -6.741099059581756592e-02 -5.460575222969055176e-02 1.106995642185211182e-01 1.998579949140548706e-01 -1.807934492826461792e-01 -1.084000617265701294e-01 1.604297161102294922e-01 9.272872470319271088e-03 -1.278255581855773926e-01 -3.573594614863395691e-02 8.231510221958160400e-02 1.378406435251235962e-01 -5.880307406187057495e-02 -1.388409286737442017e-01 -5.846937745809555054e-02 -1.172314882278442383e-01 6.616221275180578232e-03 1.138211190700531006e-01 1.781524270772933960e-01 1.132993400096893311e-01 -1.650869995355606079e-01 2.898181676864624023e-01 6.584531068801879883e-02 1.165201887488365173e-02 -9.754331409931182861e-02 5.287214368581771851e-02 1.469261199235916138e-01 -3.725036084651947021e-01 -7.256391644477844238e-02 -3.705311799421906471e-03 -6.878288090229034424e-02 2.540778815746307373e-01 4.830937832593917847e-02 6.468885391950607300e-02 1.893538385629653931e-01 -1.043601706624031067e-01 -3.557608127593994141e-01 -1.762780249118804932e-01 -4.180141538381576538e-02 2.909647114574909210e-02 -2.808184921741485596e-02
1.081162597984075546e-02 -1.145718023180961609e-01 2.103213667869567871e-01 -4.306738823652267456e-02 -5.130300298333168030e-02 1.013003066182136536e-01 -1.376694440841674805e-01 1.112628355622291565e-01 3.367589041590690613e-02 9.316340833902359009e-02 1.962347477674484253e-01 -6.246025860309600830e-02 8.524940162897109985e-02 1.346648484468460083e-02 -9.442554414272308350e-02 -4.370775073766708374e-02 1.962536387145519257e-02 1.431248709559440613e-02 1.440086811780929565e-01 -6.240246444940567017e-02 -2.590512670576572418e-02 -5.823839455842971802e-02 -2.625094056129455566e-01 -1.509860306978225708e-01 -2.188252210617065430e-01 -4.614510387182235718e-02 1.898145377635955811e-01 -2.864427864551544189e-03 2.562266401946544647e-02 -1.567244380712509155e-01 -4.165879637002944946e-02 -3.680761903524398804e-03 2.882990799844264984e-02 -6.803909689188003540e-02 3.825324773788452148e-02 -4.515915177762508392e-03 7.380276918411254883e-02 1.349004507064819336e-01 1.183426380157470703e-01 -1.361060738563537598e-01 -5.860300734639167786e-02 1.401857752352952957e-02 4.789802432060241699e-02 1.280539929866790771e-01 -2.497373521327972412e-01 -3.986401483416557312e-03 -1.157108787447214127e-02 5.923734977841377258e-02 9.300804883241653442e-02 -9.351272881031036377e-02 5.651740357279777527e-02 -2.254179492592811584e-02 -1.344610601663589478e-01 5.768712982535362244e-02 -4.046111553907394409e-02 1.163150817155838013e-01 -6.766501814126968384e-02 -3.688593506813049316e-01 1.324441879987716675e-01 1.113529037684202194e-02 -9.438715130090713501e-02 4.055950343608856201e-01 3.174971342086791992e-01 1.690915040671825409e-02 -4.390369057655334473e-01 -1.872175484895706177e-01 5.380683019757270813e-02 -2.424646168947219849e-01 -2.223531901836395264e-02 1.545098274946212769e-01 5.459459498524665833e-02 -1.620279550552368164e-01 -3.530874475836753845e-02 -3.300851956009864807e-02 1.332873292267322540e-02 -2.874707877635955811e-01 1.086997017264366150e-01 -2.818364836275577545e-02 3.387260437011718750e-02 4.236160591244697571e-02 -1.225129235535860062e-02 -2.758263424038887024e-02 -5.987875536084175110e-02 1.046227887272834778e-01 -1.496233493089675903e-01 8.059025555849075317e-02 1.705061085522174835e-02 2.405515760183334351e-01 -7.605449110269546509e-02 2.202646136283874512e-01 4.382092356681823730e-01 2.508320100605487823e-02 2.136526443064212799e-02 -6.895229965448379517e-02 -1.652488857507705688e-01 2.947291731834411621e-02 4.247488081455230713e-02 2.513929009437561035e-01 2.078619599342346191e-01 -1.023152936249971390e-02
2.077469974756240845e-01 -5.501139536499977112e-02 8.050302974879741669e-03 -1.434742361307144165e-01 1.649153605103492737e-02 1.374539434909820557e-01 -1.207441240549087524e-01 -2.077139727771282196e-02 -1.754353940486907959e-01 3.367276862263679504e-02 8.099186420440673828e-02 4.448096454143524170e-02 -1.566187590360641479e-01 3.020472824573516846e-02 1.357326656579971313e-01 6.788686662912368774e-02 -1.471816450357437134e-01 3.348916769027709961e-02 -1.442926973104476929e-01 -6.386402994394302368e-02 9.325316548347473145e-02 -1.353397518396377563e-01 6.972195953130722046e-02 -1.440185755491256714e-01 -1.430857926607131958e-01 1.743740290403366089e-01 -1.068540439009666443e-01 -6.730792522430419922e-01 7.179175317287445068e-02 -9.813045710325241089e-02 2.875539101660251617e-02 -2.028032205998897552e-02 2.045066058635711670e-01 2.548767924308776855e-01 -1.994154453277587891e-01 1.897625327110290527e-01 1.604910194873809814e-01 1.145161017775535583e-01 3.114289604127407074e-02 -6.449835747480392456e-02 -1.021002158522605896e-01 -1.571211367845535278e-01 -6.802469491958618164e-02 1.941448636353015900e-02 -5.971464328467845917e-03 1.237589716911315918e-01 -1.109923422336578369e-01 -2.750468552112579346e-01 -4.393143951892852783e-01 3.372619301080703735e-02 -7.352568209171295166e-02 1.976424455642700195e-01 -5.698506161570549011e-02 -1.049442868679761887e-02 -1.948871184140443802e-03 1.009569093585014343e-01 -6.041357293725013733e-02 2.747836112976074219e-01 1.565429270267486572e-01 -1.170715838670730591e-01 2.136781960725784302e-01 3.787196055054664612e-02 -1.190173625946044922e-01 -7.591861486434936523e-02 -2.212657593190670013e-02 -3.486388325691223145e-01 -2.112905830144882202e-01 9.585382789373397827e-02 -1.291972002945840359e-03 -1.926858723163604736e-01 -3.296650946140289307e-02 5.720040574669837952e-02 1.568201184272766113e-02 8.078083395957946777e-02 -3.242024034261703491e-02 1.699666865170001984e-02 8.313686586916446686e-03 -1.973225362598896027e-02 -7.219383120536804199e-02 4.728063941001892090e-01 -8.489196002483367920e-02 -2.936246693134307861e-01 -3.518288955092430115e-02 -4.427255392074584961e-01 4.914376884698867798e-02 1.462144553661346436e-01 3.556123971939086914e-01 2.229177057743072510e-01 1.266364902257919312e-01 1.365333609282970428e-02 -2.925621569156646729e-01 -2.486367337405681610e-02 -1.838094294071197510e-01 5.988660454750061035e-02 1.721812635660171509e-01 1.669986993074417114e-01 2.871133089065551758e-01 6.019276101142168045e-03 -1.789252609014511108e-01 -6.845930218696594238e-02
-2.439360022544860840e-01 -9.799153357744216919e-02 2.535058856010437012e-01 -5.544214695692062378e-02 -8.510889485478401184e-03 -9.541880339384078979e-02 -1.441326830536127090e-02 2.144102901220321655e-01 3.404891863465309143e-02 -9.260727465152740479e-02 1.973146796226501465e-01 -5.778477713465690613e-02 -5.102979391813278198e-02 8.616487681865692139e-02 2.339015305042266846e-01 1.493653506040573120e-01 1.145417839288711548e-01 -3.489201962947845459e-01 5.015302076935768127e-02 5.124569684267044067e-02 -3.596125915646553040e-02 -4.471871256828308105e-02 2.016711421310901642e-02 2.214508205652236938e-01 4.852072522044181824e-02 1.845262944698333740e-01 8.782707154750823975e-02 3.143635988235473633e-01 8.270598948001861572e-02 -2.313119322061538696e-01 1.315475106239318848e-01 1.911672879941761494e-03 7.410775125026702881e-02 -6.105962395668029785e-02 -6.240327656269073486e-02 -4.654638841748237610e-02 -5.732915177941322327e-02 -6.243716552853584290e-02 -1.629542000591754913e-02 -5.220686644315719604e-02 1.124128401279449463e-01 -1.329720765352249146e-01 -1.444565951824188232e-01 2.065015733242034912e-01 -7.401984930038452148e-02 -5.092328786849975586e-02 1.445102393627166748e-01 -1.733682900667190552e-01 1.592518240213394165e-01 -5.748430266976356506e-02 2.691215276718139648e-01 -1.071167364716529846e-01 -1.756946556270122528e-02 1.164518818259239197e-01 2.260669916868209839e-01 5.747268721461296082e-02 3.902488201856613159e-02 3.169609978795051575e-02 -3.365355730056762695e-01 -7.197982072830200195e-02 5.072464793920516968e-02 3.820132091641426086e-02 8.651342988014221191e-02 1.840588003396987915e-01 -1.243376508355140686e-01 1.592018902301788330e-01 7.241704314947128296e-02 -9.138894081115722656e-02 -1.269171107560396194e-02 1.696996092796325684e-01 3.951003029942512512e-02 -1.721538901329040527e-01 1.182801350951194763e-01 -4.891558364033699036e-02 7.031602412462234497e-02 -2.097840420901775360e-02 -1.456187665462493896e-01 -1.032602265477180481e-01 2.137445285916328430e-02 1.174470484256744385e-01 3.041232228279113770e-01 -1.100144088268280029e-01 1.537305954843759537e-02 1.182854324579238892e-01 -1.284999400377273560e-02 -8.825956284999847412e-02 -1.221235692501068115e-01 -1.176626011729240417e-01 7.929105311632156372e-02 -2.162999510765075684e-01 -2.101103216409683228e-02 -4.931123554706573486e-02 -8.891222625970840454e-02 9.903471171855926514e-02 -7.145893573760986328e-02 -1.054016351699829102e-01 -1.238654106855392456e-01 -7.435832917690277100e-02 -1.742868125438690186e-01 -1.183015406131744385e-01
-6.767482496798038483e-03 8.818412199616432190e-03 -1.152803841978311539e-02 -9.616441093385219574e-03 -3.747377172112464905e-02 1.312022842466831207e-02 2.092921733856201172e-02 -1.231793686747550964e-02 -3.671848215162754059e-03 -5.444370210170745850e-03 -4.878769814968109131e-02 1.727919466793537140e-02 -3.638128191232681274e-02 -2.228129655122756958e-02 -4.087345674633979797e-02 2.927821874618530273e-02 -1.342778652906417847e-02 1.580200716853141785e-02 -4.258445405866950750e-04 -1.196452416479587555e-02 2.505575306713581085e-02 4.919167608022689819e-03 -3.981307893991470337e-02 2.558348700404167175e-02 1.828787662088871002e-02 8.224696852266788483e-03 -1.097212452441453934e-02 -1.980715245008468628e-02 -7.524312473833560944e-03 1.199875259771943092e-04 -3.177129849791526794e-02 -1.561867427825927734e+01 1.205262728035449982e-03 7.002697326242923737e-03 -3.456424921751022339e-03 2.786433510482311249e-02 7.682136259973049164e-03 -3.652380406856536865e-02 -1.431855652481317520e-02 9.261848405003547668e-03 -1.502454932779073715e-02 -1.487414352595806122e-02 3.315995261073112488e-02 9.236740879714488983e-03 -5.713542457669973373e-03 2.567337080836296082e-02 1.859596930444240570e-02 6.032680161297321320e-03 -4.187203478068113327e-03 -4.042658023536205292e-03 1.235854160040616989e-02 1.799960620701313019e-02 1.205654349178075790e-02 2.230185642838478088e-02 -7.130672223865985870e-03 -7.950398139655590057e-03 1.274472160730510950e-04 5.704977549612522125e-03 -2.493889443576335907e-02 2.809878671541810036e-03 -5.737596191465854645e-03 -1.208536606281995773e-02 -2.024319954216480255e-02 -2.614705590531229973e-03 -5.467334762215614319e-03 1.646169833838939667e-02 -1.731431297957897186e-02 5.958155728876590729e-03 1.220337697304785252e-03 -6.205081008374691010e-03 1.854338124394416809e-02 -4.813381470739841461e-03 -1.228646282106637955e-02 -1.864979276433587074e-03 -3.062000032514333725e-03 2.089039608836174011e-02 -5.763672757893800735e-03 -4.247238859534263611e-03 -4.398190416395664215e-03 -1.098681800067424774e-02 7.252802141010761261e-03 -1.705337688326835632e-02 8.927229791879653931e-03 1.029344461858272552e-02 6.072786170989274979e-03 -3.230188274756073952e-03 5.946126300841569901e-03 2.372806426137685776e-03 5.030440166592597961e-03 -7.590381428599357605e-03 -2.224024198949337006e-02 -1.711070910096168518e-02 1.032840926200151443e-03 -1.878380402922630310e-02 -1.259383372962474823e-02 9.628145955502986908e-03 2.934212563559412956e-03 7.200586609542369843e-03 -6.642622873187065125e-03 1.743170619010925293e-02
-4.171054959297180176e-01 -1.777121722698211670e-01 -5.277804732322692871e-01 5.392962694168090820e-02 1.313335299491882324e-01 1.673239320516586304e-01 6.548501551151275635e-02 2.305597625672817230e-02 -9.453136473894119263e-02 -3.557156026363372803e-02 -8.035104721784591675e-03 1.351500451564788818e-01 -1.933913379907608032e-01 -2.645095437765121460e-02 5.308647081255912781e-02 -1.407985389232635498e-01 7.817234843969345093e-02 1.705362051725387573e-01 -2.776433480903506279e-03 2.350680530071258545e-01 2.836385183036327362e-02 3.135975915938615799e-03 -5.589622259140014648e-01 1.041587367653846741e-01 8.158624917268753052e-02 4.352979734539985657e-02 1.783606596291065216e-02 2.649155259132385254e-01 1.844977401196956635e-02 -1.099297180771827698e-01 5.838699638843536377e-02 -8.231418207287788391e-03 2.896022498607635498e-01 -5.188970360904932022e-03 -4.291668906807899475e-02 6.441768258810043335e-02 -1.586301624774932861e-01 8.306922018527984619e-02 2.542880736291408539e-02 1.735499799251556396e-01 -1.542118564248085022e-02 1.758037954568862915e-01 -8.670962601900100708e-02 1.246898025274276733e-01 1.792356818914413452e-01 5.577839910984039307e-02 -4.678996652364730835e-02 -6.593126654624938965e-01 8.077484369277954102e-02 -5.316501483321189880e-02 2.262689620256423950e-01 8.404335379600524902e-02 1.760811358690261841e-01 -1.579049676656723022e-01 -4.062463715672492981e-02 -1.242065057158470154e-01 -3.928658366203308105e-02 -3.077124953269958496e-01 -1.050079166889190674e-01 2.377567291259765625e-01 -3.353222608566284180e-01 -8.287684619426727295e-02 6.481852382421493530e-02 -9.435766935348510742e-02 1.751660555601119995e-01 -9.854006022214889526e-02 8.708900213241577148e-02 -4.363361746072769165e-02 9.141355752944946289e-03 3.628322482109069824e-01 -3.123361244797706604e-02 -4.002937674522399902e-01 1.208745539188385010e-01 -3.807949647307395935e-02 1.111971959471702576e-01 -2.003931403160095215e-01 -2.259732186794281006e-01 2.612020075321197510e-01 -7.303516566753387451e-02 1.378436237573623657e-01 7.442264258861541748e-02 -2.250436879694461823e-02 6.977026909589767456e-02 -1.352748572826385498e-01 2.264740690588951111e-02 1.223414614796638489e-01 -1.227453425526618958e-01 1.411944478750228882e-01 -6.984280794858932495e-02 -2.990978769958019257e-02 2.861137688159942627e-01 6.622109562158584595e-02 -5.120918154716491699e-02 5.176614224910736084e-02 3.257782012224197388e-02 6.690377742052078247e-02 9.592215530574321747e-03 -9.035291522741317749e-02 -2.379789799451828003e-01 1.366113573312759399e-01
8.683780580759048462e-02 -1.163186728954315186e-01 2.471547573804855347e-01 -6.273753941059112549e-02 -7.891199737787246704e-02 6.537021398544311523e-01 6.706578284502029419e-02 9.460353106260299683e-02 -5.034723132848739624e-02 4.892406985163688660e-02 -1.269885599613189697e-01 -1.052649095654487610e-01 -5.849608778953552246e-02 2.036498636007308960e-01 6.443814933300018311e-02 -1.850571334362030029e-01 -2.149852663278579712e-01 -6.642723083496093750e-02 -1.213760860264301300e-02 3.583732247352600098e-02 -4.289797320961952209e-02 -5.324488505721092224e-02 2.001738399267196655e-01 1.484594345092773438e-01 2.125620543956756592e-01 1.220725327730178833e-01 -5.749469250440597534e-02 1.375141143798828125e-01 2.917951941490173340e-01 4.534042775630950928e-01 -1.362185087054967880e-02 1.410340773873031139e-03 -6.856523454189300537e-02 -1.786651462316513062e-01 -1.572003006003797054e-03 5.238492041826248169e-02 4.843426868319511414e-02 -2.638930976390838623e-01 9.249008446931838989e-02 2.606999315321445465e-02 4.714160785079002380e-02 -3.890765011310577393e-01 -5.029547959566116333e-02 -4.090951979160308838e-01 -1.599986702203750610e-01 3.393724560737609863e-02 -5.955100432038307190e-02 5.892790108919143677e-02 9.230015426874160767e-02 -2.541246116161346436e-01 -4.684121310710906982e-01 -1.855938285589218140e-01 -8.349131047725677490e-02 -2.325546592473983765e-01 -8.878593891859054565e-02 1.430537551641464233e-01 1.032043024897575378e-01 5.194445699453353882e-02 -5.831553786993026733e-02 -9.966843575239181519e-02 9.652619808912277222e-02 2.266950905323028564e-02 -3.314514458179473877e-02 -2.207922786474227905e-01 8.234457671642303467e-02 8.277744054794311523e-03 1.025400757789611816e-01 -1.879997700452804565e-01 -6.474630441516637802e-03 1.327208131551742554e-01 7.798891514539718628e-02 1.038595139980316162e-01 -7.676336914300918579e-02 2.535541914403438568e-02 -1.926972158253192902e-02 -4.917079582810401917e-02 -5.482107773423194885e-02 1.535359025001525879e-01 4.458933323621749878e-02 -1.828062832355499268e-01 -3.127703443169593811e-02 -8.891999721527099609e-02 5.559141281992197037e-03 1.250493228435516357e-01 -1.131635308265686035e-01 2.191181629896163940e-01 2.396250367164611816e-01 -2.387335756793618202e-03 9.731977432966232300e-02 1.831907778978347778e-01 -1.638663113117218018e-01 1.845026202499866486e-02 1.484222561120986938e-01 -2.426621131598949432e-02 -1.051712967455387115e-02 -1.730214953422546387e-01 5.638054758310317993e-02 -7.211044430732727051e-02 1.067336052656173706e-01 1.470180600881576538e-01
-1.583056300878524780e-01 1.144562661647796631e-01 6.239286810159683228e-02 8.959551155567169189e-02 -8.994109183549880981e-02 -8.425929397344589233e-02 -2.593262866139411926e-02 -1.908748410642147064e-02 -4.485832527279853821e-02 7.087736576795578003e-02 8.685141056776046753e-02 7.055725157260894775e-02 -4.947496205568313599e-02 2.050230205059051514e-01 -5.943427328020334244e-03 -5.833384022116661072e-02 -2.315737307071685791e-02 -1.160528510808944702e-02 4.089892655611038208e-02 -1.145025342702865601e-01 -5.628129467368125916e-02 4.735834524035453796e-02 1.161886304616928101e-01 9.562042355537414551e-02 2.001171261072158813e-01 4.682180285453796387e-02 -8.987876772880554199e-02 1.771360337734222412e-01 -1.094416365958750248e-03 9.035414457321166992e-02 1.146382652223110199e-02 5.977018270641565323e-03 1.047777831554412842e-01 -2.075608670711517334e-01 -7.159437239170074463e-02 -1.485969312489032745e-02 2.684854865074157715e-01 8.901143819093704224e-02 6.296745687723159790e-02 7.622880488634109497e-02 2.077562958002090454e-01 1.152628064155578613e-01 1.218135934323072433e-02 6.056166067719459534e-02 9.325055032968521118e-02 4.952279478311538696e-02 -1.527379453182220459e-01 5.979823321104049683e-02 1.330960094928741455e-01 -8.816458284854888916e-03 1.346701681613922119e-01 -6.853551603853702545e-04 1.346799638122320175e-02 5.783362314105033875e-02 -9.553810954093933105e-02 4.135860875248908997e-02 3.544809296727180481e-02 -3.738877922296524048e-02 -2.065938711166381836e-01 -1.871057748794555664e-01 -3.249205946922302246e-01 -3.176025748252868652e-01 -5.323474407196044922e-01 -2.074307352304458618e-01 -3.157124519348144531e-01 -6.533883512020111084e-02 -1.005407497286796570e-01 6.280259788036346436e-02 3.058331320062279701e-03 7.261894643306732178e-03 -2.400990948081016541e-02 -1.275100708007812500e-01 -1.015659421682357788e-01 -3.149346262216567993e-02 5.516240745782852173e-02 -1.670752316713333130e-01 5.409658700227737427e-02 2.451463192701339722e-01 -5.200466513633728027e-02 -3.673040866851806641e-01 -1.013146936893463135e-01 -6.175921857357025146e-02 -8.673190139234066010e-03 1.233357787132263184e-01 -1.583079546689987183e-01 -7.411411404609680176e-02 9.993726015090942383e-02 -1.991733461618423462e-01 -1.951600797474384308e-02 1.227385252714157104e-01 5.715768039226531982e-02 2.324641495943069458e-01 2.735083103179931641e-01 1.454758550971746445e-02 1.515816301107406616e-01 -7.552126049995422363e-02 6.855141837149858475e-03 -7.562199607491493225e-03 -2.719449996948242188e-02 2.879206836223602295e-01
-1.290042549371719360e-01 -4.680804908275604248e-02 1.449653208255767822e-01 -7.304307073354721069e-02 1.320494115352630615e-01 1.397134214639663696e-01 -7.934465073049068451e-03 -5.873560532927513123e-02 -8.937378227710723877e-02 7.362566143274307251e-02 -6.470804661512374878e-02 -5.006837472319602966e-02 -3.845449537038803101e-02 -1.227230280637741089e-01 -3.087354004383087158e-01 -8.663876913487911224e-03 -8.704201132059097290e-02 -2.613968253135681152e-01 1.473719179630279541e-01 -6.682924181222915649e-02 1.284820139408111572e-01 1.586558669805526733e-01 3.354371190071105957e-01 1.067685782909393311e-01 1.221718043088912964e-01 1.424603164196014404e-01 1.384296268224716187e-02 9.402449429035186768e-02 1.080128401517868042e-01 -5.218838900327682495e-02 -2.614158987998962402e-01 -7.989726960659027100e-03 -8.168732374906539917e-02 9.930407255887985229e-02 6.051843613386154175e-02 -1.428836584091186523e-01 -3.318205848336219788e-02 1.468089669942855835e-01 1.618851274251937866e-01 -2.536502853035926819e-02 -1.027204394340515137e-01 -3.277583420276641846e-01 2.088365703821182251e-01 1.396063417196273804e-01 -1.028354093432426453e-01 -3.840779513120651245e-02 6.249425187706947327e-02 1.353558152914047241e-01 -4.716855287551879883e-02 1.682988367974758148e-02 3.491718173027038574e-01 -2.400064170360565186e-01 2.773739024996757507e-02 -8.888507634401321411e-02 3.019592761993408203e-01 8.985637128353118896e-02 3.711973503232002258e-02 -6.742329895496368408e-02 -2.110283635556697845e-02 -1.073750853538513184e-01 -2.853905260562896729e-01 -1.970329582691192627e-01 5.192270129919052124e-02 2.679599523544311523e-01 5.591422319412231445e-02 5.154954269528388977e-02 -1.191488802433013916e-01 -5.873078480362892151e-02 9.143844246864318848e-03 -5.128979682922363281e-03 1.110428124666213989e-01 -1.396734118461608887e-01 3.057880699634552002e-02 1.686970442533493042e-01 6.110269576311111450e-02 2.222849577665328979e-01 -1.078999862074851990e-01 9.759725630283355713e-02 2.351426631212234497e-01 -7.467119395732879639e-02 -7.209490239620208740e-02 -1.185044348239898682e-01 2.570220828056335449e-01 1.179842092096805573e-02 -6.484076380729675293e-02 -2.833286114037036896e-02 -3.168068230152130127e-01 1.232417821884155273e-01 1.313003897666931152e-01 -8.305981755256652832e-02 -9.351309388875961304e-02 -4.927907511591911316e-02 6.177067756652832031e-03 1.662206947803497314e-01 1.334760934114456177e-01 2.053159056231379509e-03 4.316104575991630554e-02 1.084888502955436707e-01 -6.023130193352699280e-02 -1.996248215436935425e-01
-2.439533919095993042e-01 5.386412143707275391e-02 1.172276437282562256e-01 -1.451920270919799805e-01 1.752580106258392334e-01 -1.063023284077644348e-01 -1.104408800601959229e-01 1.987168788909912109e-01 -6.074677687138319016e-03 -1.858058124780654907e-01 -1.854721158742904663e-01 9.925415739417076111e-03 -3.998081758618354797e-02 8.535807020962238312e-03 -3.376904129981994629e-01 3.562426194548606873e-02 1.428600493818521500e-02 9.506455808877944946e-02 6.536848843097686768e-02 8.020650595426559448e-02 3.222311139106750488e-01 -2.780874632298946381e-02 -1.432903707027435303e-01 1.471447944641113281e-01 -5.277876928448677063e-02 8.707024902105331421e-02 -2.036515921354293823e-01 -4.248629510402679443e-02 1.173794195055961609e-01 -1.538283526897430420e-01 -3.599100708961486816e-01 -8.283017668873071671e-04 -1.794596165418624878e-01 1.095245033502578735e-01 -1.182895153760910034e-01 2.030272781848907471e-01 2.164011001586914062e-01 -2.396274171769618988e-02 6.785047054290771484e-02 -1.249075606465339661e-01 8.835911750793457031e-02 -6.690889596939086914e-02 2.775110006332397461e-01 8.910522796213626862e-03 -1.693995743989944458e-01 -2.806627750396728516e-02 -4.146832600235939026e-02 8.788070827722549438e-02 1.203807666897773743e-01 8.535744994878768921e-02 1.998280547559261322e-02 1.803128421306610107e-01 3.634691983461380005e-02 1.830679327249526978e-01 4.727888386696577072e-03 3.255082527175545692e-03 -6.266797333955764771e-02 -2.138611674308776855e-02 -2.172505110502243042e-01 -7.502438127994537354e-02 6.131524592638015747e-02 -5.394262447953224182e-02 6.802417337894439697e-02 -1.944535374641418457e-01 6.825923174619674683e-02 6.614961475133895874e-02 1.762777417898178101e-01 -8.445792645215988159e-02 8.725913241505622864e-03 2.013865262269973755e-01 -2.090032845735549927e-01 -2.078748941421508789e-01 1.451190859079360962e-01 -2.571596018970012665e-02 -1.417541354894638062e-01 -1.628542095422744751e-01 -6.296122912317514420e-03 -3.272803872823715210e-02 -2.557434439659118652e-01 -3.193969428539276123e-01 8.936099708080291748e-02 -1.198366135358810425e-01 6.203866098076105118e-03 9.375371783971786499e-02 -1.367010027170181274e-01 -9.237669408321380615e-02 -8.921582251787185669e-02 1.163058355450630188e-01 -1.726616919040679932e-02 1.601514369249343872e-01 6.623592227697372437e-02 1.630524843931198120e-01 -4.390922933816909790e-02 2.726693451404571533e-02 -1.081217154860496521e-01 -2.075919508934020996e-01 -3.692266717553138733e-02 2.267636060714721680e-01 5.918849632143974304e-02 1.389783769845962524e-01
-1.601608693599700928e-01 -1.935155540704727173e-01 -1.024976447224617004e-01 7.032766193151473999e-02 -1.918357983231544495e-02 -2.591524273157119751e-02 1.717607975006103516e-01 -1.777796745300292969e-01 7.322497665882110596e-02 -3.911583498120307922e-02 -6.635469943284988403e-02 1.550462096929550171e-01 1.061262339353561401e-01 1.732963025569915771e-01 7.016022503376007080e-02 -2.255203425884246826e-01 1.013443842530250549e-01 -2.389194816350936890e-01 2.103975741192698479e-03 -7.948033511638641357e-02 -5.978778004646301270e-02 3.309031575918197632e-02 -2.330615520477294922e-01 -1.544945985078811646e-01 -1.158118918538093567e-01 -1.992568522691726685e-01 3.491735160350799561e-01 5.155245587229728699e-02 8.778235316276550293e-02 1.379702091217041016e-01 1.131387427449226379e-02 6.314942147582769394e-03 1.611150205135345459e-01 -3.104791045188903809e-02 1.244750320911407471e-01 -3.205032786354422569e-03 -1.004467010498046875e-01 -1.242765709757804871e-01 9.878290444612503052e-02 1.025100722908973694e-01 -3.305229591205716133e-03 1.245606765151023865e-01 -2.020929008722305298e-02 1.317947357892990112e-01 -8.818153291940689087e-02 9.062857180833816528e-02 1.730456650257110596e-01 1.756200492382049561e-01 -1.448157802224159241e-02 3.945251181721687317e-02 -4.754083231091499329e-02 -9.573964029550552368e-02 1.560305207967758179e-01 -8.399405516684055328e-03 -4.044099524617195129e-02 -1.542969420552253723e-02 1.610547453165054321e-01 -3.278751969337463379e-01 -3.587588965892791748e-01 9.434337913990020752e-02 1.249125748872756958e-01 -4.243449866771697998e-02 -2.071477323770523071e-01 1.519583165645599365e-01 9.703592397272586823e-03 -2.000929564237594604e-01 -2.264578454196453094e-02 -7.426561415195465088e-02 -3.566079959273338318e-02 -5.896768998354673386e-03 1.485758367925882339e-02 7.550040632486343384e-02 -9.034073352813720703e-02 1.840393804013729095e-02 -2.028503566980361938e-01 -5.642827227711677551e-02 2.278209775686264038e-01 3.263061493635177612e-02 1.035791337490081787e-01 2.701702713966369629e-01 8.261816203594207764e-02 1.755605489015579224e-01 -3.401204943656921387e-02 1.430220603942871094e-01 -6.563249975442886353e-02 -2.528883516788482666e-01 -3.888724744319915771e-01 9.071015566587448120e-02 9.672389924526214600e-02 -5.087658017873764038e-02 1.071475893259048462e-01 -8.382667601108551025e-02 -1.462688297033309937e-01 -1.029323488473892212e-01 4.486016929149627686e-02 5.977776274085044861e-02 3.815888194367289543e-04 -3.007357381284236908e-02 6.489992141723632812e-02 -9.130679070949554443e-02
-1.063001826405525208e-01 -1.967073976993560791e-01 8.210878819227218628e-02 1.884326636791229248e-01 -6.895073503255844116e-02 1.251247525215148926e-02 2.997720241546630859e-01 -1.029283553361892700e-02 -1.026640534400939941e-01 -1.416715681552886963e-01 5.974900722503662109e-02 3.386270999908447266e-02 -2.920225858688354492e-01 9.750892966985702515e-02 4.176237061619758606e-02 1.306839734315872192e-01 1.663458347320556641e-01 2.208547592163085938e-01 -1.991145871579647064e-02 2.509415522217750549e-02 -6.800680607557296753e-02 1.931202262639999390e-01 -4.167130887508392334e-01 1.618952117860317230e-02 -3.042994141578674316e-01 -1.963417679071426392e-01 2.170353382825851440e-01 3.230061382055282593e-02 5.009717121720314026e-02 -3.572183474898338318e-02 4.527478665113449097e-02 -7.124564726836979389e-04 1.416548937559127808e-01 -5.761858820915222168e-02 -9.012601524591445923e-02 9.586365520954132080e-02 -1.323639750480651855e-01 -7.560438662767410278e-02 6.951412558555603027e-02 5.060415342450141907e-02 -1.464109569787979126e-01 -4.226470887660980225e-01 -1.486077997833490372e-02 -5.720979720354080200e-02 -3.364655375480651855e-02 2.591764181852340698e-02 1.110517978668212891e-02 -1.376118659973144531e-01 1.399738900363445282e-02 -1.508831828832626343e-01 -9.898505173623561859e-03 1.119549572467803955e-01 6.266786158084869385e-02 -1.260674893856048584e-01 -6.417885422706604004e-02 -2.316759973764419556e-01 5.858374759554862976e-02 -1.914626955986022949e-01 1.026627868413925171e-01 7.465136796236038208e-02 6.106715649366378784e-02 -8.682292699813842773e-02 -1.215377897024154663e-01 -3.054006099700927734e-01 1.735829561948776245e-01 -4.096851050853729248e-01 1.617895066738128662e-01 1.070890873670578003e-01 -2.222147770226001740e-03 -5.061601400375366211e-01 5.971765145659446716e-02 -2.294643223285675049e-01 5.232823640108108521e-02 1.617591232061386108e-01 -3.152641654014587402e-02 -2.906263470649719238e-01 -1.339466422796249390e-01 -2.955587804317474365e-01 -6.105529889464378357e-02 -7.353599071502685547e-01 3.670343011617660522e-02 9.210348874330520630e-02 -6.935637444257736206e-02 2.061011493206024170e-01 9.592682868242263794e-02 -4.360002279281616211e-01 1.272423714399337769e-01 -1.577223986387252808e-01 8.252371102571487427e-02 1.960890442132949829e-01 5.826089978218078613e-01 2.262593656778335571e-01 -7.528637349605560303e-02 4.716204106807708740e-02 6.957074999809265137e-02 -6.439116597175598145e-02 -1.828367859125137329e-01 1.222737282514572144e-01 6.820627301931381226e-02 -5.588415660895407200e-04
-1.916479319334030151e-01 -6.611228734254837036e-02 8.548292517662048340e-02 -7.429964840412139893e-02 1.491818577051162720e-01 -3.165523707866668701e-02 -6.594636943191289902e-03 -1.219524592161178589e-01 -4.601074755191802979e-02 -1.399765014648437500e-01 -1.372107863426208496e-01 1.455064117908477783e-01 -4.340471327304840088e-02 4.120202362537384033e-02 6.012727692723274231e-02 2.422474697232246399e-02 9.322314709424972534e-02 2.596295773983001709e-01 -2.425196617841720581e-01 2.124443799257278442e-01 2.481079846620559692e-01 7.857150584459304810e-02 8.272790163755416870e-02 1.172750294208526611e-01 4.945866763591766357e-02 -9.617821127176284790e-02 -3.672350198030471802e-02 -3.777042776346206665e-02 3.613668680191040039e-02 -4.889864102005958557e-02 -2.750667184591293335e-02 -7.957291789352893829e-03 -5.605887994170188904e-02 -1.615907996892929077e-02 -2.434054156765341759e-03 -1.822940539568662643e-03 -7.068812847137451172e-02 1.210382133722305298e-01 5.231409892439842224e-02 -3.467237111181020737e-04 3.096444904804229736e-02 -4.915572330355644226e-02 -7.051234599202871323e-03 -1.378081738948822021e-01 5.013374239206314087e-02 -2.627310156822204590e-01 -5.415477231144905090e-02 -3.742889314889907837e-02 -4.347214102745056152e-02 4.079774394631385803e-02 -1.257341504096984863e+00 -1.496531069278717041e-01 -6.505604088306427002e-02 -1.294547971338033676e-02 -1.965728253126144409e-01 -2.669038772583007812e-01 1.060038506984710693e-01 -2.113131880760192871e-01 -7.204660773277282715e-02 1.972303837537765503e-01 2.768993377685546875e-02 -9.527409076690673828e-02 -5.980138853192329407e-02 -1.190534699708223343e-02 8.277469128370285034e-02 -3.617295622825622559e-02 -8.926915377378463745e-02 -6.151010747998952866e-03 1.480659190565347672e-02 -4.471854269504547119e-01 7.017412036657333374e-02 -2.162856608629226685e-01 1.242502257227897644e-01 -3.844333067536354065e-02 9.852650761604309082e-02 5.143899470567703247e-02 -1.353366523981094360e-01 2.931469678878784180e-02 6.881807744503021240e-02 -4.652809724211692810e-02 2.055033594369888306e-01 1.827044636011123657e-01 -1.909089460968971252e-02 -2.959711477160453796e-02 -1.059841886162757874e-01 2.040123343467712402e-01 5.495872348546981812e-02 -1.259823143482208252e-01 6.377707421779632568e-02 1.301137506961822510e-01 -8.293528854846954346e-02 -6.591266486793756485e-03 8.509321510791778564e-02 -1.039425432682037354e-01 2.632897533476352692e-02 4.674696177244186401e-02 -1.399085670709609985e-01 4.593597352504730225e-02 -5.979346483945846558e-02 -2.291093207895755768e-02
-6.721377372741699219e-02 -2.620770633220672607e-01 -6.418737173080444336e-01 1.328032463788986206e-01 -2.497538775205612183e-01 2.828162536025047302e-02 2.286650240421295166e-01 -1.035937517881393433e-01 -3.483334481716156006e-01 1.768472939729690552e-01 2.344934195280075073e-01 -1.006895676255226135e-01 4.629661142826080322e-01 2.442405931651592255e-02 1.625990308821201324e-02 2.591846287250518799e-01 2.559209242463111877e-02 8.944790065288543701e-02 1.463478803634643555e-01 -1.288846582174301147e-01 7.257006317377090454e-02 -5.110140889883041382e-02 8.744414895772933960e-02 2.071335315704345703e-01 -4.578816890716552734e-02 -3.248023241758346558e-02 -1.458624452352523804e-01 1.558615416288375854e-01 -1.604747176170349121e-01 -2.667502313852310181e-02 1.552773080766201019e-02 1.000689156353473663e-02 -8.327367156744003296e-02 1.857858300209045410e-01 2.072217911481857300e-01 3.036940693855285645e-01 3.238993510603904724e-02 -1.093708258122205734e-02 -2.782627940177917480e-02 1.756662428379058838e-01 4.114709198474884033e-01 7.844268083572387695e-01 -4.156132414937019348e-02 9.958540797233581543e-01 -1.103650927543640137e-01 -9.798150509595870972e-02 -7.835321873426437378e-02 -9.015418589115142822e-02 2.073419094085693359e-01 -4.186165332794189453e-01 -2.238862365484237671e-01 -2.266296893358230591e-01 -1.645481586456298828e-01 -1.098114699125289917e-01 -3.672298789024353027e-01 2.399284690618515015e-01 -2.894488871097564697e-01 -9.469834715127944946e-02 -2.044566348195075989e-02 -6.044453475624322891e-03 2.815817296504974365e-01 6.527432054281234741e-02 -6.709251403808593750e-01 1.616936773061752319e-01 -4.372387006878852844e-02 5.269784107804298401e-02 -1.769630908966064453e-01 1.802745312452316284e-01 5.969886668026447296e-03 -3.614940345287322998e-01 -1.611932665109634399e-01 -3.011073768138885498e-01 -3.538108170032501221e-01 -1.769490987062454224e-01 4.091173410415649414e-02 1.784733496606349945e-02 1.787114739418029785e-01 -2.056016623973846436e-01 -2.401598393917083740e-01 3.181191533803939819e-02 1.039595827460289001e-01 1.348624676465988159e-01 -2.052618861198425293e-01 1.049784421920776367e-01 -2.119695246219635010e-01 -5.290995240211486816e-01 2.094369083642959595e-01 4.057862982153892517e-02 -1.284118294715881348e-01 1.653695553541183472e-01 -2.567142844200134277e-01 1.332901716232299805e-01 1.541739255189895630e-01 -3.110035657882690430e-01 1.284868270158767700e-01 -2.360827848315238953e-02 -2.388572879135608673e-02 -4.911310598254203796e-02 3.158444166183471680e-01 6.932878401130437851e-03
8.738037943840026855e-02 4.095354117453098297e-03 1.382772326469421387e-01 6.218748912215232849e-02 -5.135060846805572510e-02 -1.343619376420974731e-01 -1.259283423423767090e-01 1.561904046684503555e-02 -2.261247113347053528e-02 1.351486742496490479e-01 -1.379095017910003662e-01 -6.537113338708877563e-02 1.001709550619125366e-01 -3.649726510047912598e-02 -2.249913215637207031e-01 -7.673201709985733032e-02 9.234052151441574097e-02 2.130593173205852509e-02 1.055402830243110657e-01 -3.568390011787414551e-02 -7.253613322973251343e-02 -2.846040762960910797e-02 2.401844412088394165e-01 -1.207848787307739258e-01 9.480734169483184814e-02 7.804724574089050293e-02 6.345224380493164062e-02 -1.686114817857742310e-02 9.919156134128570557e-02 -2.974721416831016541e-02 -9.661439061164855957e-02 -2.480412600561976433e-03 7.901965826749801636e-02 -2.702401392161846161e-02 -3.770206868648529053e-02 -1.115293726325035095e-01 -2.762760818004608154e-01 7.275123894214630127e-02 1.029248461127281189e-01 -2.500377036631107330e-02 -9.773959964513778687e-02 3.204800486564636230e-01 1.282908767461776733e-01 3.389381989836692810e-02 8.615292608737945557e-02 -2.208721935749053955e-01 -3.648895770311355591e-02 3.488640859723091125e-02 -2.224037982523441315e-02 6.315269321203231812e-02 1.282090842723846436e-01 3.156567215919494629e-01 -2.946176566183567047e-02 1.236581504344940186e-01 -1.208095066249370575e-02 3.735233470797538757e-02 -6.395886093378067017e-02 -1.712105982005596161e-02 -1.278480738401412964e-01 -6.570345163345336914e-02 -1.871187612414360046e-02 1.127634495496749878e-01 2.159015387296676636e-01 -7.643456012010574341e-02 -1.624162942171096802e-01 -5.063344165682792664e-02 -1.414383798837661743e-01 1.052201986312866211e-01 -1.757491752505302429e-02 8.155139535665512085e-02 -2.836540713906288147e-02 1.063467352651059628e-03 3.321940079331398010e-02 2.112536504864692688e-02 1.629854589700698853e-01 1.189700700342655182e-02 1.055557951331138611e-01 4.371596127748489380e-02 -9.802530705928802490e-02 1.096736639738082886e-01 2.394922077655792236e-02 -2.427943982183933258e-02 -5.266063660383224487e-02 -8.018294721841812134e-02 -1.155912727117538452e-01 -9.671286493539810181e-02 3.560426533222198486e-01 3.561139702796936035e-01 1.515323966741561890e-01 4.047030955553054810e-02 7.492190599441528320e-02 1.634446084499359131e-01 -2.279884926974773407e-02 4.891256988048553467e-02 1.414422318339347839e-02 -2.919729799032211304e-02 -1.373934596776962280e-01 7.489472627639770508e-02 1.091343760490417480e-01 -7.363036274909973145e-04
-3.375570476055145264e-01 4.427399113774299622e-02 -7.629234809428453445e-03 5.487277358770370483e-02 -4.454179108142852783e-02 3.730294108390808105e-02 1.376887559890747070e-01 1.567985713481903076e-01 -7.184524834156036377e-02 5.007116496562957764e-02 -1.127629652619361877e-01 -3.391048684716224670e-02 -4.650820791721343994e-02 8.401963859796524048e-02 1.875665336847305298e-01 2.371688140556216240e-03 -6.790117919445037842e-02 2.836977243423461914e-01 8.409015834331512451e-02 -8.121125400066375732e-03 -3.074774146080017090e-02 -6.576333940029144287e-02 3.792280703783035278e-02 -2.793374285101890564e-02 -3.164210170507431030e-02 -7.392334938049316406e-02 -1.655260026454925537e-01 1.794443577527999878e-01 3.075050888583064079e-03 6.011045724153518677e-02 1.064523160457611084e-01 -1.050340663641691208e-02 -3.802879527211189270e-02 -4.358621314167976379e-02 -6.553296744823455811e-02 1.389452368021011353e-01 7.941507548093795776e-02 2.193671092391014099e-02 5.637629702687263489e-02 -7.943426072597503662e-02 6.153863668441772461e-02 -6.248294562101364136e-02 -1.347125470638275146e-01 -6.650561839342117310e-02 5.667284503579139709e-02 -9.855858981609344482e-02 8.699479699134826660e-02 -5.919504165649414062e-02 1.128536090254783630e-02 -1.169448532164096832e-02 2.816659808158874512e-01 -2.770785689353942871e-01 -3.346606856212019920e-03 1.303197592496871948e-01 9.699587523937225342e-02 -5.160987004637718201e-02 -2.687515690922737122e-03 -3.070099055767059326e-01 -2.795653045177459717e-02 2.126424200832843781e-02 -3.994851186871528625e-02 1.003391668200492859e-01 -3.019672334194183350e-01 1.455994397401809692e-01 -1.338918209075927734e-01 -6.701905280351638794e-02 1.479536108672618866e-02 3.528600558638572693e-02 1.096798386424779892e-02 -2.146864235401153564e-01 -2.899527549743652344e-01 -1.003735698759555817e-02 3.682520240545272827e-02 -5.663780868053436279e-02 3.625080883502960205e-01 2.849064171314239502e-01 9.265395253896713257e-02 -1.479626744985580444e-01 2.426203489303588867e-01 6.554193678312003613e-04 9.268055111169815063e-02 -3.522630035877227783e-02 -2.169141313061118126e-03 1.952157318592071533e-01 -2.600701749324798584e-01 -2.767078280448913574e-01 -3.223878517746925354e-02 -3.054559230804443359e-01 7.805401831865310669e-02 2.316449433565139771e-01 -1.048315763473510742e-01 2.236647754907608032e-01 8.702026307582855225e-02 1.294508129358291626e-01 -3.158311545848846436e-02 -6.956405937671661377e-02 7.485458254814147949e-02 -4.264118522405624390e-02 -2.390631008893251419e-03 -1.773525774478912354e-01
2.256822884082794189e-01 2.169214785099029541e-01 1.336218565702438354e-01 -7.287108898162841797e-02 1.416797637939453125e-01 -3.168893158435821533e-01 -2.769621610641479492e-01 2.016969919204711914e-01 -1.948762238025665283e-01 7.828418910503387451e-02 -3.885934501886367798e-02 -1.265464574098587036e-01 -1.533226519823074341e-01 -7.265221327543258667e-03 -7.514987885951995850e-02 -1.429815441370010376e-01 -1.932689100503921509e-01 4.049033299088478088e-02 1.270763725042343140e-01 1.287781447172164917e-01 2.419374510645866394e-02 1.505474839359521866e-02 1.401396989822387695e-01 1.830698102712631226e-01 -1.995440339669585228e-03 1.608752459287643433e-02 7.513872534036636353e-02 -5.681413412094116211e-02 8.974431455135345459e-02 8.384758234024047852e-02 -5.138761922717094421e-02 -4.722751677036285400e-03 4.393653199076652527e-02 3.126921355724334717e-01 -3.518423438072204590e-02 -6.977391429245471954e-03 1.029409840703010559e-01 -1.509568188339471817e-02 3.128519281744956970e-02 3.848956152796745300e-02 -1.178777441382408142e-01 2.469425648450851440e-02 3.758189082145690918e-02 -8.406911045312881470e-02 1.298833340406417847e-01 -3.211693465709686279e-02 -1.975742634385824203e-03 -1.787561178207397461e-01 1.167076677083969116e-01 -1.836673319339752197e-01 4.809542372822761536e-02 1.276321858167648315e-01 6.670959293842315674e-02 -1.447629183530807495e-01 6.721345335245132446e-02 9.334146231412887573e-02 -4.078295081853866577e-02 5.228384584188461304e-02 9.784606099128723145e-02 2.123704850673675537e-01 -9.395904093980789185e-02 -2.655424773693084717e-01 1.446874719113111496e-02 -6.079081445932388306e-02 1.700820773839950562e-01 1.755217462778091431e-01 1.759632229804992676e-01 3.064613640308380127e-01 5.618195980787277222e-03 -1.402981430292129517e-01 1.260994840413331985e-02 5.369402095675468445e-02 7.913658767938613892e-02 5.090844258666038513e-02 1.307621151208877563e-01 -2.031792514026165009e-02 2.013885043561458588e-02 5.617301911115646362e-02 -1.050036251544952393e-01 -6.909094005823135376e-02 4.297195002436637878e-02 -1.125511340796947479e-02 6.943041086196899414e-02 -7.675600051879882812e-02 -3.416550904512405396e-02 3.630225658416748047e-01 -3.962529078125953674e-02 5.666273832321166992e-02 -4.056516289710998535e-02 -5.852694809436798096e-02 2.017788775265216827e-02 -1.903968900442123413e-01 6.071988027542829514e-03 1.249322369694709778e-01 1.979512870311737061e-01 9.743357077240943909e-03 -1.405373681336641312e-03 -1.460163593292236328e-01 7.713814079761505127e-02 -2.583005130290985107e-01
-1.361470371484756470e-01 1.193064749240875244e-01 -1.937331072986125946e-02 -3.300283104181289673e-02 9.059783071279525757e-02 4.642239212989807129e-02 -4.140371456742286682e-02 6.431756913661956787e-02 -1.195590477436780930e-02 6.268033385276794434e-02 -8.277154713869094849e-02 -1.234367713332176208e-01 -1.939484104514122009e-02 1.531016454100608826e-02 -7.253015646710991859e-04 -1.958700269460678101e-01 -1.175447478890419006e-01 -2.754697799682617188e-01 4.637419804930686951e-02 1.140447035431861877e-01 9.662907570600509644e-02 8.108828961849212646e-02 2.571471035480499268e-02 6.564705818891525269e-02 -5.700622219592332840e-03 -8.166302926838397980e-03 -2.647899985313415527e-01 3.000953197479248047e-01 8.159463107585906982e-02 7.384275645017623901e-02 -3.610248118638992310e-02 -7.580672856420278549e-03 -1.084057837724685669e-01 7.007350772619247437e-02 2.704049274325370789e-02 1.420979946851730347e-01 -8.287764340639114380e-02 -4.971160739660263062e-02 1.030806675553321838e-01 -3.879107534885406494e-01 1.380206346511840820e-01 1.806644648313522339e-01 5.384686402976512909e-03 2.583781480789184570e-01 2.853814959526062012e-01 -2.078732103109359741e-01 4.846432060003280640e-02 8.482839167118072510e-02 -1.623316407203674316e-01 1.276214867830276489e-01 3.200750425457954407e-02 8.545017242431640625e-02 -1.963918507099151611e-01 8.190242946147918701e-02 -1.432399004697799683e-01 1.462333351373672485e-01 -3.972928971052169800e-02 7.093194406479597092e-03 -2.694530487060546875e-01 4.004807770252227783e-02 5.798862501978874207e-02 1.864670515060424805e-01 3.173191100358963013e-02 -1.051850393414497375e-01 -6.140314787626266479e-02 1.560607999563217163e-01 -5.946839600801467896e-02 -2.161796949803829193e-02 1.152762910351157188e-03 2.875669300556182861e-01 -1.119756326079368591e-01 -2.214848846197128296e-01 5.794572830200195312e-02 -3.906129300594329834e-02 1.169363036751747131e-02 8.115782588720321655e-02 -1.522751003503799438e-01 1.741792447865009308e-02 -7.122762617655098438e-04 3.359968960285186768e-02 -6.331861764192581177e-02 -5.726185813546180725e-02 9.797830134630203247e-02 7.302074134349822998e-02 -3.423779904842376709e-01 -7.024411112070083618e-02 2.378674149513244629e-01 1.627788096666336060e-01 1.258138567209243774e-01 -1.509235054254531860e-01 -2.330690175294876099e-01 1.118020638823509216e-01 7.702147122472524643e-03 -3.100289590656757355e-02 -6.629000604152679443e-02 1.748643815517425537e-02 -3.081263788044452667e-02 1.987718790769577026e-01 6.904192268848419189e-02 -9.228128194808959961e-02
7.066278904676437378e-02 -6.147515773773193359e-02 5.879701301455497742e-02 -1.633853465318679810e-01 -5.878459289669990540e-02 8.566804975271224976e-02 -3.180880248546600342e-01 2.415776252746582031e-03 2.420866489410400391e-02 -4.735473543405532837e-02 -6.764154136180877686e-02 -2.417076751589775085e-02 2.502802312374114990e-01 9.787146002054214478e-02 -4.807705432176589966e-02 -5.640717595815658569e-02 1.420255005359649658e-01 -1.038361638784408569e-01 -8.366596698760986328e-02 6.741465069353580475e-03 9.660076349973678589e-02 3.878176212310791016e-02 -2.632831931114196777e-01 -4.292913246899843216e-03 -1.420100592076778412e-02 -1.263232529163360596e-01 9.331071376800537109e-02 4.298001900315284729e-02 1.310057491064071655e-01 -7.753214240074157715e-02 -6.410216540098190308e-02 -7.426536642014980316e-03 7.581016421318054199e-02 1.026175245642662048e-01 -4.610997810959815979e-02 -8.471232652664184570e-02 1.730999499559402466e-01 2.073399573564529419e-01 -2.263933420181274414e-02 -2.007108181715011597e-01 -3.822266310453414917e-02 9.271520376205444336e-02 6.772845238447189331e-02 9.634124115109443665e-03 1.632940322160720825e-01 2.154945582151412964e-01 -5.561615899205207825e-02 1.180044114589691162e-01 -8.121012710034847260e-03 1.249372437596321106e-01 -1.505794674158096313e-01 -9.521926939487457275e-02 -1.555506587028503418e-01 1.004488915205001831e-01 -9.829079359769821167e-02 -1.184459123760461807e-02 -3.826596215367317200e-02 -5.420839041471481323e-02 -6.325929611921310425e-02 4.983872175216674805e-02 5.802971776574850082e-03 7.799095660448074341e-02 -6.922848522663116455e-02 -5.445041134953498840e-02 -1.510922759771347046e-01 -3.664493560791015625e-02 2.891908288002014160e-01 3.709869459271430969e-02 -5.530197173357009888e-03 3.984990715980529785e-02 2.008559182286262512e-02 -9.582553803920745850e-02 1.007002741098403931e-01 -1.368200182914733887e-01 -5.129360035061836243e-02 -4.987973347306251526e-02 -1.291444897651672363e-01 8.648828603327274323e-03 -1.351686567068099976e-01 -1.202941685914993286e-01 -7.032912224531173706e-02 -1.671408563852310181e-01 6.762369070202112198e-03 1.772058308124542236e-01 1.097762957215309143e-01 -2.725515961647033691e-01 -7.217522710561752319e-02 1.246312335133552551e-01 1.707764901220798492e-02 6.966158747673034668e-02 3.299467638134956360e-02 -3.258780390024185181e-02 -3.077894151210784912e-01 1.865118145942687988e-01 -2.406427264213562012e-02 4.421060904860496521e-02 -4.466248303651809692e-02 2.252056151628494263e-01 1.763968318700790405e-01 -8.551207184791564941e-02
2.700150758028030396e-02 6.454709172248840332e-02 -6.308238208293914795e-02 2.816303670406341553e-01 -1.536820232868194580e-01 2.300623506307601929e-01 -9.061502665281295776e-02 5.046823993325233459e-02 -8.797503262758255005e-02 -1.351618468761444092e-01 1.049145385622978210e-01 1.720861345529556274e-01 1.207989826798439026e-01 -1.186393946409225464e-01 1.082893013954162598e-01 4.936860501766204834e-02 -2.086378186941146851e-01 -7.104693651199340820e-01 2.175211310386657715e-01 -3.672733902931213379e-02 1.897404044866561890e-01 -9.951096028089523315e-02 3.819826990365982056e-02 1.073579937219619751e-01 1.822443008422851562e-01 -9.190892428159713745e-02 -8.398026227951049805e-03 5.213624238967895508e-01 2.223340421915054321e-01 4.915162175893783569e-02 3.932773321866989136e-02 1.656526140868663788e-02 -1.067240759730339050e-01 -1.539589613676071167e-01 8.927705138921737671e-02 1.567559987306594849e-01 8.311551064252853394e-03 2.069846354424953461e-02 3.726805001497268677e-02 -1.455701515078544617e-02 -2.464976534247398376e-02 -1.442280262708663940e-01 -2.364584058523178101e-02 2.846072316169738770e-01 -5.295179039239883423e-02 -9.850645065307617188e-02 -2.155797481536865234e-01 -1.127614304423332214e-01 -1.374446507543325424e-02 2.934802509844303131e-02 -1.003940477967262268e-01 -1.850563101470470428e-02 -3.657732009887695312e-01 9.995880536735057831e-04 -1.195644959807395935e-02 3.601267701014876366e-03 1.553856432437896729e-01 3.430064320564270020e-01 -8.315109461545944214e-02 7.512321323156356812e-02 5.100790411233901978e-02 1.016153320670127869e-01 -3.057485222816467285e-01 4.218767210841178894e-02 6.092593446373939514e-02 9.122043848037719727e-01 4.122311621904373169e-02 -6.638666242361068726e-02 -1.201358623802661896e-02 -1.073818057775497437e-01 1.367993354797363281e-01 1.270071715116500854e-01 -4.711381718516349792e-02 -8.257720619440078735e-02 2.006615102291107178e-01 3.129669278860092163e-02 4.700257908552885056e-03 1.466895043849945068e-01 -3.437356650829315186e-02 1.598110795021057129e-01 -5.756906419992446899e-02 -1.041165813803672791e-01 1.250215470790863037e-01 -2.226072698831558228e-01 -6.362767517566680908e-02 2.546682208776473999e-02 -2.984626889228820801e-01 2.292624674737453461e-02 -1.357937604188919067e-01 1.206497251987457275e-01 -3.827651143074035645e-01 5.547754466533660889e-02 3.143277764320373535e-02 5.041504744440317154e-03 -1.121621355414390564e-01 -1.718515008687973022e-01 7.021019235253334045e-03 -1.156777888536453247e-02 -2.838400006294250488e-01 2.278594523668289185e-01
-2.495434880256652832e-01 2.022426389157772064e-02 1.487271189689636230e-01 -2.691009938716888428e-01 -2.657224796712398529e-02 1.056667491793632507e-01 -7.724648714065551758e-02 -1.129018291831016541e-01 5.953095108270645142e-02 2.523487508296966553e-01 -1.136903986334800720e-01 -1.250670105218887329e-01 1.151985749602317810e-01 4.216017946600914001e-02 1.928404569625854492e-01 -3.953810408711433411e-02 -3.588579893112182617e-01 5.907617509365081787e-02 7.483484596014022827e-02 -5.464122816920280457e-02 -2.955377660691738129e-02 -7.563716918230056763e-02 -3.467788398265838623e-01 2.251607179641723633e-01 -8.141287602484226227e-03 5.533875524997711182e-02 1.122340792790055275e-03 1.868711858987808228e-01 -1.681720465421676636e-01 -1.041749790310859680e-01 8.824263513088226318e-02 2.155510708689689636e-02 -1.867875754833221436e-01 2.239028923213481903e-02 -3.217500448226928711e-02 -1.940249800682067871e-01 4.356807470321655273e-02 2.731566131114959717e-02 -3.349022194743156433e-02 -1.066302582621574402e-01 9.798359125852584839e-02 1.530860513448715210e-01 -1.312566548585891724e-01 -3.036845922470092773e-01 -3.978075832128524780e-02 3.266341239213943481e-02 5.288235843181610107e-03 3.130200132727622986e-02 6.200037524104118347e-02 -9.777850471436977386e-03 -2.601336538791656494e-01 9.385927766561508179e-02 1.448258664458990097e-02 -3.593650832772254944e-02 1.095587089657783508e-01 3.402791917324066162e-02 2.561907470226287842e-01 1.308947503566741943e-01 -2.500873617827892303e-02 8.584280312061309814e-02 4.613881930708885193e-02 -1.166000515222549438e-01 -8.889829367399215698e-02 -1.497114598751068115e-01 1.436948962509632111e-02 -2.094752341508865356e-02 7.308755069971084595e-03 -1.064311936497688293e-01 -1.805041544139385223e-02 8.131659030914306641e-02 -4.203319177031517029e-02 -1.383293978869915009e-02 -3.419094905257225037e-02 -1.184777170419692993e-01 -1.502916067838668823e-01 2.527803480625152588e-01 -1.714031249284744263e-01 -6.975908577442169189e-02 -3.259158134460449219e-01 -5.958946421742439270e-02 -3.124696388840675354e-02 -1.512411385774612427e-01 -2.324388921260833740e-01 7.369297742843627930e-02 -3.135493993759155273e-01 7.056206464767456055e-02 3.327103853225708008e-01 1.641080528497695923e-01 9.199745953083038330e-02 2.671092748641967773e-01 2.325753271579742432e-01 2.912290990352630615e-01 6.324832141399383545e-02 -1.340040713548660278e-01 2.345659285783767700e-01 -1.076789498329162598e-01 -2.910703048110008240e-02 1.051084548234939575e-01 -1.215499415993690491e-01 3.530947864055633545e-01
-7.624489068984985352e-02 4.674039036035537720e-02 -2.080259285867214203e-02 -7.762929797172546387e-02 6.218656897544860840e-02 8.619897812604904175e-02 -3.561263158917427063e-02 5.351550877094268799e-02 -7.416767627000808716e-02 1.448763161897659302e-01 -1.741241104900836945e-02 -1.282325387001037598e-01 1.381210684776306152e-01 1.400704979896545410e-01 1.360279023647308350e-01 -2.182883024215698242e-01 1.612920761108398438e-01 -1.598374843597412109e-01 4.221069440245628357e-02 1.615910530090332031e-01 -5.749772302806377411e-03 3.949168324470520020e-02 1.969646364450454712e-01 9.364362061023712158e-02 1.015553399920463562e-01 1.182737126946449280e-01 -1.113599818199872971e-02 1.355799138545989990e-01 -1.042698621749877930e-01 7.654879987239837646e-02 1.008126586675643921e-01 -3.462514607235789299e-03 7.829755544662475586e-02 2.830274701118469238e-01 -2.589172869920730591e-02 -1.406143307685852051e-01 -2.159513086080551147e-01 8.176646381616592407e-02 1.757275499403476715e-02 1.887706369161605835e-01 2.375130504369735718e-01 -1.690155565738677979e-01 -8.643492311239242554e-02 2.817612886428833008e-01 -5.397141724824905396e-02 1.472455412149429321e-01 1.094503141939640045e-02 3.450812399387359619e-02 8.011914789676666260e-02 -7.260344922542572021e-02 -1.579164564609527588e-01 1.428452879190444946e-01 -8.629474043846130371e-02 5.804679915308952332e-02 -2.352720350027084351e-01 -2.256731502711772919e-02 -2.283789217472076416e-02 -9.095737338066101074e-02 1.716319173574447632e-01 -2.085802108049392700e-01 -3.267652913928031921e-02 -6.078281626105308533e-02 2.316265739500522614e-02 -1.747127324342727661e-01 7.471873611211776733e-02 1.215872392058372498e-01 -4.377450793981552124e-02 1.458037644624710083e-02 -1.213128119707107544e-02 9.704012423753738403e-02 -1.260133981704711914e-01 1.891765594482421875e-01 4.189781844615936279e-02 -7.403989136219024658e-02 -9.447600692510604858e-02 -2.008237130939960480e-02 -6.109717488288879395e-02 2.140467613935470581e-01 -1.616901755332946777e-01 5.242076143622398376e-02 1.616254001855850220e-01 6.773741543292999268e-02 2.806270420551300049e-01 1.496240198612213135e-01 -2.438122183084487915e-01 1.643816977739334106e-01 -5.373056977987289429e-02 -8.683466911315917969e-02 -6.125537212938070297e-03 -1.051327586174011230e-01 8.482820354402065277e-03 1.196508063003420830e-03 -7.857461273670196533e-02 -6.892203539609909058e-02 -8.466152101755142212e-02 -6.361683830618858337e-03 -1.646518707275390625e-01 3.695429116487503052e-02 -1.157677099108695984e-01 -9.220112115144729614e-02
-1.327779740095138550e-01 -3.278340399265289307e-02 2.237634062767028809e-01 -5.577523261308670044e-02 -8.291963487863540649e-03 -3.911270201206207275e-01 2.123298309743404388e-02 1.477133929729461670e-01 8.391976356506347656e-02 5.517730861902236938e-02 -4.388047158718109131e-01 -1.481564640998840332e-01 2.125930637121200562e-01 -4.808584600687026978e-02 -1.970505267381668091e-01 -7.081173360347747803e-02 -1.321542449295520782e-02 1.059611979871988297e-02 -1.407515555620193481e-01 3.433340415358543396e-02 -8.294761180877685547e-02 -7.150134444236755371e-02 5.371172428131103516e-01 7.648432254791259766e-02 1.714188978075981140e-02 1.376387774944305420e-01 -2.197350263595581055e-01 2.140709459781646729e-01 -8.257304131984710693e-02 1.499132663011550903e-01 -1.432665884494781494e-01 1.076601631939411163e-02 -2.558620870113372803e-01 -5.696965008974075317e-02 3.731993585824966431e-02 9.902541339397430420e-02 -4.694167152047157288e-02 8.070401847362518311e-02 4.004755988717079163e-02 -1.929393708705902100e-01 3.543658182024955750e-02 4.813050106167793274e-02 1.123613417148590088e-01 1.546593457460403442e-01 -1.061358302831649780e-01 -2.336685918271541595e-02 -1.944869607686996460e-01 1.316365152597427368e-01 2.206661924719810486e-02 1.128887571394443512e-02 -3.358518937602639198e-03 1.201746389269828796e-01 4.278455302119255066e-02 6.155302003026008606e-02 4.120006039738655090e-02 1.442510932683944702e-01 -6.022486463189125061e-02 -2.194897681474685669e-01 -1.366580575704574585e-01 1.197949200868606567e-01 -6.357423216104507446e-02 8.916795253753662109e-02 -1.081681102514266968e-01 -1.322546154260635376e-01 2.156825922429561615e-02 -6.608548760414123535e-02 5.328419865691103041e-05 9.463903307914733887e-02 5.081600975245237350e-03 -1.864601075649261475e-01 1.912857964634895325e-02 1.136435642838478088e-01 4.013297706842422485e-02 -4.349099472165107727e-02 1.673129498958587646e-01 2.177188396453857422e-01 -1.342019736766815186e-01 -7.542812824249267578e-02 1.050751283764839172e-01 -5.533451586961746216e-02 -7.369286846369504929e-03 5.769762024283409119e-02 -1.469619199633598328e-02 -1.136468574404716492e-01 -2.004250884056091309e-02 5.181542783975601196e-02 1.999243050813674927e-01 1.000734642148017883e-01 1.525450050830841064e-01 -1.781332343816757202e-01 1.667721867561340332e-01 -1.749233305454254150e-01 6.804555654525756836e-02 1.385652720928192139e-01 9.619760327041149139e-03 -2.451620697975158691e-01 9.299130737781524658e-02 4.475344344973564148e-02 -1.519519984722137451e-01 3.620695769786834717e-01
-1.949610471725463867e+00 1.782301813364028931e-01 -2.088678181171417236e-01 -6.007107719779014587e-02 -7.076083123683929443e-02 5.590945482254028320e-03 7.325195521116256714e-02 -9.028567671775817871e-01 5.054875016212463379e-01 4.558858573436737061e-01 -8.254639506340026855e-01 5.364739298820495605e-01 3.054269850254058838e-01 1.314122378826141357e-01 2.265736646950244904e-02 -6.379842162132263184e-01 -2.545390129089355469e+00 -4.151989221572875977e-01 -1.207783222198486328e-01 2.807902544736862183e-02 5.248970817774534225e-03 8.367209136486053467e-02 -8.989921957254409790e-02 1.519772708415985107e-01 2.126208320260047913e-02 -1.301019545644521713e-02 -1.466239392757415771e-01 1.820743083953857422e-01 -1.356411278247833252e-01 -2.365978360176086426e-01 2.463443018496036530e-02 -7.312291301786899567e-03 -4.891456067562103271e-01 8.749110251665115356e-02 -1.532606035470962524e-01 1.848197132349014282e-01 -2.325942069292068481e-01 -3.895940184593200684e-01 -1.035158112645149231e-01 -2.274477630853652954e-01 -2.625957727432250977e-01 1.324153877794742584e-02 6.081805098801851273e-03 4.253408014774322510e-01 -2.065618634223937988e-01 -6.015262380242347717e-02 -3.843235969543457031e-01 8.278606459498405457e-03 -1.362639758735895157e-02 -7.861306667327880859e-01 4.183652997016906738e-01 8.048187196254730225e-02 1.792987436056137085e-01 -5.021912232041358948e-02 -1.055602431297302246e-01 -5.301584303379058838e-02 -7.966847419738769531e-01 3.118255138397216797e-01 -4.474131464958190918e-01 1.026156172156333923e-01 2.978839278221130371e-01 -3.084035515785217285e-01 5.989904999732971191e-01 1.289536505937576294e-01 -5.485683679580688477e-01 2.380416244268417358e-01 -2.600380480289459229e-01 1.383340209722518921e-01 -9.897300973534584045e-03 -4.138566851615905762e-01 2.639757990837097168e-01 2.162943035364151001e-01 4.471778124570846558e-02 -2.476414591073989868e-01 2.065038979053497314e-01 5.629999190568923950e-02 -1.320355236530303955e-01 4.544914662837982178e-01 5.043296813964843750e-01 -1.162997409701347351e-01 2.541055083274841309e-01 3.600230813026428223e-01 -1.613490730524063110e-01 9.997991472482681274e-02 1.290995776653289795e-01 -6.896906346082687378e-02 -8.014066517353057861e-02 3.056634664535522461e-01 -1.220242977142333984e-01 -1.014780104160308838e-01 1.858870089054107666e-01 5.251314640045166016e-01 -6.421815752983093262e-01 4.977897554636001587e-02 -5.374130606651306152e-01 -1.973939239978790283e-01 -1.653139144182205200e-01 5.719536542892456055e-01 -2.340451925992965698e-01 -3.999253213405609131e-01
1.829708181321620941e-02 -5.377978086471557617e-01 1.085386984050273895e-02 -1.461796760559082031e-01 -1.180341392755508423e-01 6.948718428611755371e-02 1.067514061927795410e+00 -2.110809534788131714e-01 3.635345026850700378e-02 -1.189576741307973862e-02 5.433517321944236755e-02 2.574618756771087646e-01 1.339373439550399780e-01 1.117997914552688599e-01 -1.892915815114974976e-01 9.702738374471664429e-02 9.356905519962310791e-02 2.314587980508804321e-01 -3.538232743740081787e-01 -2.293244190514087677e-02 -3.823053538799285889e-01 -1.555008590221405029e-01 -4.514625072479248047e-01 1.838797777891159058e-01 2.448011934757232666e-01 -3.292351067066192627e-01 -4.269443452358245850e-01 1.397053897380828857e-01 -4.085896164178848267e-02 -2.022888660430908203e-01 7.721073180437088013e-02 -6.543632596731185913e-03 2.108897715806961060e-01 -2.547790408134460449e-01 -9.230320155620574951e-02 -3.371013700962066650e-01 -2.917744219303131104e-01 7.496754825115203857e-02 -1.042962074279785156e-01 3.730972707271575928e-01 -1.000540629029273987e-01 -4.702084362506866455e-01 -2.935825847089290619e-02 -6.347475945949554443e-02 4.683924913406372070e-01 -6.705622375011444092e-02 1.082039847970008850e-01 1.480665951967239380e-01 -7.564883679151535034e-02 -5.957873910665512085e-02 -1.010995388031005859e+00 2.630932927131652832e-01 -5.464544892311096191e-01 -5.225915908813476562e-01 -3.385044336318969727e-01 1.117682084441184998e-01 -1.530541479587554932e-01 -1.350367665290832520e-01 5.895619392395019531e-01 -1.286599338054656982e-01 3.420829027891159058e-02 -2.156744480133056641e+00 -2.183697931468486786e-02 4.070981405675411224e-03 1.964161545038223267e-01 -1.523441970348358154e-01 -6.066223978996276855e-01 2.707286477088928223e-01 2.860334236174821854e-03 1.757752746343612671e-01 1.166481971740722656e-01 -1.261125206947326660e+00 4.474154114723205566e-01 -3.083928525447845459e-01 2.832521200180053711e-01 3.127323985099792480e-01 -2.820814400911331177e-02 -4.405488073825836182e-02 -4.164065420627593994e-01 4.000719487667083740e-01 -3.834160566329956055e-01 3.049609363079071045e-01 -1.410348247736692429e-02 2.539637684822082520e-01 -1.209269389510154724e-01 6.357491016387939453e-02 -1.217318475246429443e-01 -2.282164692878723145e-01 5.194848403334617615e-02 1.727034896612167358e-01 2.330511510372161865e-01 -3.349625468254089355e-01 5.094167590141296387e-01 -4.717713594436645508e-01 1.535339951515197754e-01 7.640805840492248535e-02 3.459199331700801849e-03 -1.267290711402893066e-01 -2.838694304227828979e-02 4.013383686542510986e-01
-3.186353296041488647e-02 -7.350473105907440186e-02 1.091482788324356079e-01 -1.226116567850112915e-01 -3.132480382919311523e-01 5.967724323272705078e-02 2.398771047592163086e-02 -1.003262549638748169e-01 1.501621007919311523e-01 -2.144788652658462524e-01 2.051876671612262726e-02 -1.680757403373718262e-01 -2.241515964269638062e-01 1.151923672296106815e-03 -2.876616083085536957e-02 2.033997625112533569e-01 -1.737323701381683350e-01 -1.717432588338851929e-01 -2.369948662817478180e-02 8.531042933464050293e-02 6.576509773731231689e-02 5.403082817792892456e-02 3.214719593524932861e-01 -2.881319522857666016e-01 1.661334484815597534e-01 -1.069752965122461319e-02 8.832111954689025879e-02 1.620687916874885559e-02 -9.363775700330734253e-02 -1.872698962688446045e-01 -9.992117434740066528e-02 1.484115258790552616e-03 -7.771244645118713379e-02 -1.575094908475875854e-01 -1.008252352476119995e-01 1.034148633480072021e-01 1.086708623915910721e-02 1.173861324787139893e-01 4.213721677660942078e-02 4.194539785385131836e-02 6.388910114765167236e-02 6.927266716957092285e-02 7.814836502075195312e-02 -2.812080979347229004e-01 4.449029564857482910e-01 4.602085426449775696e-02 1.193194389343261719e-01 9.500105679035186768e-02 1.426580995321273804e-01 1.864075660705566406e-01 -1.748646944761276245e-01 1.514631207101047039e-03 -7.603222876787185669e-02 -3.850349411368370056e-02 4.119379818439483643e-02 -1.572978198528289795e-01 2.350968867540359497e-01 -1.506718844175338745e-01 -1.740889847278594971e-01 -1.001804098486900330e-01 -1.504696090705692768e-03 1.653435826301574707e-01 8.882288634777069092e-02 1.300233900547027588e-01 2.077388949692249298e-02 3.944515809416770935e-02 4.953369870781898499e-02 -8.944784291088581085e-03 -3.659304231405258179e-03 5.879708379507064819e-02 1.037850603461265564e-02 2.958283200860023499e-02 -1.039980724453926086e-01 1.441362202167510986e-01 -2.220717491582036018e-03 7.310550659894943237e-02 -1.315850317478179932e-01 1.121501475572586060e-01 2.674347907304763794e-02 -1.222712844610214233e-01 7.267845422029495239e-02 -1.144631803035736084e-01 -2.187460362911224365e-01 1.713988184928894043e-01 -1.111432351171970367e-02 -3.612974882125854492e-01 1.580453366041183472e-01 -2.461261004209518433e-01 4.698330163955688477e-02 -7.559541612863540649e-02 -1.437510456889867783e-02 -1.885168105363845825e-01 6.751064211130142212e-02 -1.790107637643814087e-01 -9.110899991355836391e-04 -1.432192977517843246e-02 -1.991687022382393479e-04 1.653341762721538544e-02 5.665707588195800781e-02 3.204045295715332031e-01
-1.760703176259994507e-01 3.735532984137535095e-02 -1.253423839807510376e-01 9.853246062994003296e-02 2.667469717562198639e-02 1.460134685039520264e-01 -7.018063217401504517e-02 1.251048296689987183e-01 -1.015637814998626709e-01 -4.438763856887817383e-02 1.793148964643478394e-01 4.848768934607505798e-02 -1.288574188947677612e-02 1.586812436580657959e-01 3.265653550624847412e-02 1.247251033782958984e-01 -9.018495678901672363e-02 4.371539503335952759e-02 2.471764981746673584e-01 -1.734625101089477539e-01 3.351889550685882568e-02 -2.373334020376205444e-01 -3.017464280128479004e-01 -1.718816459178924561e-01 -6.593661010265350342e-02 -1.120363622903823853e-01 -3.401731606572866440e-03 -2.040980756282806396e-01 -4.564399644732475281e-02 -1.580524444580078125e-01 5.731352139264345169e-03 6.673168390989303589e-03 -1.521030515432357788e-01 4.141601175069808960e-02 3.380412235856056213e-02 -3.084407187998294830e-02 -1.100572273135185242e-01 -2.518506050109863281e-01 -1.171518191695213318e-01 -2.961839921772480011e-02 -9.175866842269897461e-02 4.727703034877777100e-01 -6.920017767697572708e-03 6.347160786390304565e-02 -4.294047504663467407e-02 3.037035167217254639e-01 -2.260186150670051575e-02 6.487407535314559937e-02 -1.947797089815139771e-02 -2.054283022880554199e-02 1.080767903476953506e-02 9.541378915309906006e-02 -6.298590451478958130e-02 -3.016526438295841217e-02 -5.397050455212593079e-02 -1.084855124354362488e-01 -3.116308897733688354e-02 -1.325531024485826492e-02 1.574214100837707520e-01 -4.973743855953216553e-02 -2.346335723996162415e-02 -5.744555965065956116e-03 5.165354013442993164e-01 1.938993632793426514e-01 5.008945465087890625e-01 -5.457124486565589905e-02 -7.946983724832534790e-02 -1.020108610391616821e-01 4.708607448264956474e-04 7.899953126907348633e-01 5.747552216053009033e-02 7.482799887657165527e-02 -8.799011819064617157e-03 7.693045586347579956e-02 -1.236488893628120422e-01 -1.968127489089965820e-01 3.094476647675037384e-02 2.486160770058631897e-02 2.570722624659538269e-02 -1.856179386377334595e-01 1.763986796140670776e-02 4.129643738269805908e-02 -1.503448486328125000e-01 -5.075595900416374207e-02 1.853886246681213379e-01 2.622800767421722412e-01 2.343132719397544861e-02 -1.519943624734878540e-01 -1.254516094923019409e-01 -7.505992054939270020e-02 1.201401725411415100e-01 -9.595326334238052368e-02 1.030578315258026123e-01 -2.497981861233711243e-02 -4.852782189846038818e-02 1.151263806968927383e-02 -1.096982136368751526e-01 4.974540323019027710e-02 3.343157097697257996e-02 -2.742185294628143311e-01
-1.245086342096328735e-01 1.962386257946491241e-02 4.756776907015591860e-04 -1.287581920623779297e-01 -4.928122088313102722e-02 2.111797481775283813e-01 -2.687283754348754883e-01 2.210210822522640228e-02 -2.765408530831336975e-02 1.324228644371032715e-01 3.764574602246284485e-02 -4.786235094070434570e-02 8.952089399099349976e-02 -2.813578248023986816e-01 -1.316387057304382324e-01 -2.452244758605957031e-01 5.404396355152130127e-02 1.725569516420364380e-01 -6.994090229272842407e-02 9.159164130687713623e-02 1.544747129082679749e-02 5.454991385340690613e-02 2.308574505150318146e-02 1.543804705142974854e-01 2.762899361550807953e-02 -1.053614914417266846e-01 5.185755901038646698e-03 7.398667186498641968e-02 1.864690892398357391e-02 -2.210963219404220581e-01 -7.459361106157302856e-02 9.435262181796133518e-04 2.027056924998760223e-02 1.014968603849411011e-01 1.750031113624572754e-01 -2.195174805819988251e-02 7.054349780082702637e-02 1.772585362195968628e-01 -2.350372523069381714e-01 2.399372607469558716e-01 -3.965438902378082275e-02 2.563520967960357666e-01 6.599961221218109131e-02 -1.566709950566291809e-02 -5.403056740760803223e-02 1.375576108694076538e-02 1.614769734442234039e-02 3.266427218914031982e-01 -2.374618500471115112e-01 3.408666467294096947e-03 -1.559513807296752930e-01 4.457282274961471558e-02 1.339735370129346848e-02 -3.260545199736952782e-03 5.074295913800597191e-04 1.761859059333801270e-01 -1.277834922075271606e-01 -2.845051698386669159e-02 1.106828004121780396e-01 -4.138617962598800659e-02 9.068290702998638153e-03 1.818670332431793213e-01 6.852670013904571533e-02 -1.460080444812774658e-01 -9.318907745182514191e-03 3.894399153068661690e-03 2.401323169469833374e-01 6.057375296950340271e-02 -1.832487806677818298e-02 -1.668055802583694458e-01 -6.010549888014793396e-02 -1.516256183385848999e-01 -1.064513325691223145e-01 2.217654287815093994e-01 -1.654911339282989502e-01 1.510189324617385864e-01 1.452396810054779053e-01 5.133762210607528687e-02 7.515507191419601440e-02 4.645916447043418884e-02 -1.002778857946395874e-01 -2.080138772726058960e-01 3.812391310930252075e-03 7.719952613115310669e-02 -1.127336993813514709e-01 -1.319828629493713379e-01 1.348460465669631958e-01 8.977442234754562378e-02 -3.177861273288726807e-01 2.778103351593017578e-01 -5.471706762909889221e-02 -9.689290821552276611e-02 1.310556828975677490e-01 -4.775414243340492249e-03 -1.372725367546081543e-01 -3.291312977671623230e-02 1.918595167808234692e-03 -2.435662224888801575e-02 -1.251247245818376541e-02 2.791166305541992188e-01
3.010288579389452934e-03 1.400391757488250732e-02 -3.335059061646461487e-02 3.215049207210540771e-02 2.063734643161296844e-02 -2.751379273831844330e-03 6.534224003553390503e-02 -4.518971964716911316e-02 2.820328809320926666e-02 4.710593819618225098e-02 2.800353989005088806e-02 -2.954852767288684845e-02 -8.719287067651748657e-02 1.230124533176422119e-01 -6.035527214407920837e-02 -3.801721334457397461e-02 2.667377516627311707e-02 5.306662246584892273e-02 -1.976184174418449402e-02 -2.054608426988124847e-02 2.775674313306808472e-02 5.074481479823589325e-03 -3.775082761421799660e-03 -2.822191640734672546e-02 -7.850117981433868408e-02 -1.984558627009391785e-02 -2.192266099154949188e-02 -5.129191651940345764e-02 4.498987272381782532e-02 4.947708919644355774e-02 -2.825797908008098602e-02 -8.356774196727201343e-05 -8.172563463449478149e-02 -5.319213494658470154e-02 -1.905485689640045166e-01 -1.596591621637344360e-02 7.966020144522190094e-03 1.015682592988014221e-01 -5.025372654199600220e-02 3.197439759969711304e-02 3.744236007332801819e-02 -1.419096887111663818e-01 4.455088451504707336e-02 -5.080958455801010132e-02 5.179407075047492981e-02 -3.313197195529937744e-02 5.200200155377388000e-02 8.002122491598129272e-02 -2.717730402946472168e-02 -1.581596210598945618e-02 -8.215424418449401855e-02 6.044164672493934631e-02 -8.174312300980091095e-03 -6.309097260236740112e-02 1.156546473503112793e-01 -8.852205239236354828e-03 1.669776998460292816e-02 1.258780658245086670e-01 5.843382701277732849e-02 -5.638460069894790649e-02 -9.527649730443954468e-03 -1.958219148218631744e-02 4.778279736638069153e-02 -1.599117554724216461e-02 -5.952451378107070923e-02 -7.957940921187400818e-03 -5.779922474175691605e-03 -6.512559950351715088e-02 -1.260217380523681641e+01 -2.064635232090950012e-02 -4.422358423471450806e-02 -7.512847334146499634e-02 3.793299198150634766e-02 1.876371540129184723e-02 -4.381685517728328705e-03 -1.748355664312839508e-02 5.224116519093513489e-02 -6.619531661272048950e-02 -1.299367286264896393e-02 -2.372121671214699745e-03 3.946459665894508362e-02 1.084384322166442871e-02 -3.826325992122292519e-04 2.993487939238548279e-02 -6.684082001447677612e-02 7.154434174299240112e-02 1.332150865346193314e-02 -5.602859705686569214e-02 6.678432226181030273e-02 4.956324119120836258e-03 -2.390006184577941895e-02 5.681552365422248840e-02 -1.067811027169227600e-01 2.555907331407070160e-02 1.067264154553413391e-01 -1.926853321492671967e-02 -6.384531408548355103e-02 9.473828971385955811e-02 -5.685373209416866302e-03 5.239919945597648621e-02
4.789700806140899658e-01 -7.064918279647827148e-01 5.484389886260032654e-02 9.378207474946975708e-02 -7.044699043035507202e-03 1.760547757148742676e-01 1.493295282125473022e-01 1.114466972649097443e-02 -1.658754199743270874e-01 -2.076127380132675171e-01 -5.241682007908821106e-02 3.422742486000061035e-01 5.246515944600105286e-02 2.044255733489990234e-01 -1.539745368063449860e-03 3.452193364500999451e-02 2.194795906543731689e-01 -2.426750510931015015e-01 6.525993347167968750e-02 -1.200816780328750610e-01 1.546042859554290771e-01 -6.807652860879898071e-02 -6.633542478084564209e-02 -1.153572052717208862e-01 5.972680822014808655e-02 -1.472173780202865601e-01 6.898327916860580444e-02 -1.879071816802024841e-02 3.201225101947784424e-01 4.886798858642578125e-01 3.800769103690981865e-03 2.083655679598450661e-03 5.297242477536201477e-02 6.096598505973815918e-01 -2.286006137728691101e-02 -6.101865693926811218e-02 -5.501124262809753418e-02 -1.106432229280471802e-01 -4.844103008508682251e-02 -8.489374071359634399e-02 -1.024577096104621887e-01 -5.445778369903564453e-01 2.452679723501205444e-02 1.123637054115533829e-02 2.626439332962036133e-01 -4.102222621440887451e-01 4.238070547580718994e-02 -1.440549194812774658e-01 -1.506024301052093506e-01 -1.045458689332008362e-01 -1.245472356677055359e-01 -2.535037994384765625e-01 2.820132672786712646e-01 -2.189859449863433838e-01 6.528706848621368408e-02 -3.177483975887298584e-01 1.186523810029029846e-01 2.681718468666076660e-01 -3.685071468353271484e-01 -1.087817847728729248e-01 -9.365844726562500000e-02 1.233534961938858032e-01 4.432522878050804138e-02 -8.528843522071838379e-02 -1.090990155935287476e-01 4.564134776592254639e-02 1.750434041023254395e-01 1.291930377483367920e-01 2.429662737995386124e-03 1.258776187896728516e-01 2.288220524787902832e-01 1.058785766363143921e-01 1.741837710142135620e-03 3.336108475923538208e-02 1.863189041614532471e-01 2.122701890766620636e-02 1.916331946849822998e-01 -1.447102725505828857e-01 1.253867149353027344e-01 1.410803794860839844e-01 -8.745121210813522339e-02 8.886212110519409180e-02 2.248549610376358032e-01 -1.793575435876846313e-01 -1.018003374338150024e-01 5.291011333465576172e-01 -1.549151390790939331e-01 5.291300266981124878e-02 2.877376601099967957e-02 2.034128308296203613e-01 -7.476394623517990112e-02 1.660479791462421417e-02 3.177534416317939758e-02 -8.005865663290023804e-02 1.508879568427801132e-02 -3.300004824995994568e-02 3.379791676998138428e-01 -3.847114443778991699e-01 -3.535706549882888794e-02 1.944483965635299683e-01
