2.668211698532104492e+00
3.901593619957566261e-03
-5.288556590676307678e-02
5.741192698478698730e-01
2.879340648651123047e+00
-6.986246109008789062e-01
7.434053719043731689e-02
3.054952016100287437e-03
1.443196237087249756e-01
3.347481489181518555e+00
1.701466560363769531e+00
-1.041907310485839844e+00
3.287281990051269531e+00
1.034429892897605896e-01
1.658282577991485596e-01
-8.815916180610656738e-01
-3.494754552841186523e+00
4.238505363464355469e-01
-3.248406946659088135e-01
-9.518868476152420044e-02
-1.919955015182495117e+00
2.301681280136108398e+00
7.792612910270690918e-02
-4.291310012340545654e-01
7.401072978973388672e-01
5.229009389877319336e-01
2.420926541090011597e-01
-7.496662139892578125e-01
6.380847692489624023e-01
-1.069895550608634949e-01
-1.253204107284545898e+00
6.580446362495422363e-01
-2.143623977899551392e-01
-1.485647320747375488e+00
5.879160761833190918e-01
-1.246754646301269531e+00
1.158365249633789062e+00
-3.507559299468994141e-01
2.604535579681396484e+00
1.908506512641906738e+00
2.937334179878234863e-01
2.376116663217544556e-01
7.264197468757629395e-01
8.468404412269592285e-02
-1.947322130203247070e+00
5.077387019991874695e-02
4.783476144075393677e-02
2.223573178052902222e-01
-1.767146885395050049e-01
1.304675191640853882e-01
1.013383865356445312e+00
2.498623609542846680e+00
-1.182574748992919922e+00
2.218549139797687531e-03
6.396107077598571777e-01
-3.032518029212951660e-01
1.243086934089660645e+00
-1.051914617419242859e-01
-1.911725521087646484e+00
5.268385261297225952e-02
2.443178892135620117e-01
1.484442710876464844e+00
6.392222046852111816e-01
1.719331383705139160e+00
5.032477974891662598e-01
6.789339780807495117e-01
-1.308340281248092651e-01
-5.491557121276855469e-01
-8.601611852645874023e-01
-4.042011499404907227e-01
-3.863277137279510498e-01
1.005706191062927246e+00
2.120315074920654297e+00
4.035399258136749268e-01
-8.063940703868865967e-02
-7.669184207916259766e-01
1.259470820426940918e+00
1.568116545677185059e-01
4.956870079040527344e-01
7.185183465480804443e-02
1.523732244968414307e-01
1.694991290569305420e-01
1.461160540580749512e+00
-1.177046418190002441e+00
-1.478906393051147461e+00
-2.558938860893249512e-01
-7.837626338005065918e-01
-2.376826286315917969e+00
9.150904417037963867e-02
1.603081077337265015e-01
-1.098394274711608887e+00
1.392164707183837891e+00
-2.404146343469619751e-01
6.445922255516052246e-01
-1.485887646675109863e+00
1.804903268814086914e+00
-1.905700936913490295e-02
6.604235172271728516e-01
1.189349412918090820e+00
2.656015634536743164e+00
