-1.342897489666938782e-02 -6.881029158830642700e-02 -3.877969086170196533e-02 -1.121160225011408329e-03 1.600100472569465637e-02 1.645798212848603725e-03 -4.173548426479101181e-03 8.396374178119003773e-04 -1.944993971846997738e-03 3.177817538380622864e-02 5.064981523901224136e-04 -6.274127960205078125e-02 2.814730256795883179e-02 1.001968747004866600e-03 -1.223089098930358887e-01 7.361176609992980957e-02 6.040556728839874268e-02 3.106389660388231277e-03 8.769634878262877464e-04 -1.023841276764869690e-01 -3.250405564904212952e-02 -3.471886366605758667e-02 5.505118519067764282e-02 9.573368588462471962e-04 -1.007514297962188721e-01 7.405603304505348206e-03 6.167835742235183716e-02 -2.006755769252777100e-02 1.803277060389518738e-02 -1.509751775301992893e-03 4.980527237057685852e-02 9.597402997314929962e-03 1.190700605511665344e-01 2.581472322344779968e-02 -4.747221246361732483e-03 -1.875106804072856903e-02 1.606312952935695648e-02 1.902981544844806194e-03 1.390942931175231934e-02 -3.857273550238460302e-04 1.191712263971567154e-02 -1.941903843544423580e-03 -5.959689617156982422e-02 -1.086125895380973816e-02 -2.826793491840362549e-02 9.530169889330863953e-03 -1.123131439089775085e-02 -2.146474830806255341e-02 6.050222553312778473e-03 7.301234640181064606e-03 -6.601286586374044418e-03 -3.479889035224914551e-02 1.604463323019444942e-03 -2.248538099229335785e-02 -3.815694525837898254e-02 4.009854048490524292e-02 1.841892721131443977e-03 3.804812207818031311e-03 9.849321097135543823e-03 -8.240487426519393921e-02 -2.684571966528892517e-02 3.294165059924125671e-02 -9.915266185998916626e-02 -4.187032580375671387e-02 8.272752910852432251e-02 9.091559052467346191e-02 -7.121977210044860840e-02 1.212036423385143280e-02 -3.458430618047714233e-02 2.338673686608672142e-03 -1.416465034708380699e-03 4.702015314251184464e-03 9.235405363142490387e-03 -1.323145441710948944e-02 -4.298736900091171265e-02 -4.416222125291824341e-02 -2.514427900314331055e-02 6.088667083531618118e-03 -4.851660504937171936e-02 4.469202831387519836e-02 -2.849649451673030853e-02 -7.154419273138046265e-02 4.316193982958793640e-03 -1.886717602610588074e-02 5.204493179917335510e-03 -7.110398262739181519e-02 8.680561929941177368e-02 1.973963342607021332e-02 -6.478868424892425537e-02 4.968858323991298676e-03 -5.125241004861891270e-04 1.945707760751247406e-02 1.703751645982265472e-02 -1.466898433864116669e-02 1.750088855624198914e-02 -1.055292785167694092e-02 -4.099492356181144714e-02 -6.509478669613599777e-03 8.482696115970611572e-02 -2.226977236568927765e-02
-5.142554175108671188e-03 -1.019222103059291840e-02 -2.345081791281700134e-02 -1.276029390282928944e-03 3.053152188658714294e-02 2.762135490775108337e-02 3.090718574821949005e-02 -1.901559904217720032e-02 7.040486671030521393e-03 -1.610668748617172241e-02 -1.762705855071544647e-02 -9.787388145923614502e-03 -2.433253638446331024e-02 2.394416183233261108e-02 2.409104257822036743e-03 6.219248287379741669e-03 -2.791105303913354874e-03 2.242328785359859467e-02 8.710614201845601201e-05 -2.058490877971053123e-03 -3.927041217684745789e-02 1.895973645150661469e-02 -4.975053016096353531e-03 2.277392894029617310e-03 3.690718673169612885e-03 -2.549543976783752441e-02 1.146179065108299255e-02 1.180565916001796722e-02 5.580271827057003975e-04 -3.014796599745750427e-02 2.236231957795098424e-04 1.936779171228408813e-02 -1.520864461781457067e-04 -5.725061520934104919e-02 -2.542600221931934357e-02 -1.699371449649333954e-02 9.400486014783382416e-03 -2.938273735344409943e-02 -6.371445488184690475e-03 7.071251980960369110e-03 -1.012400537729263306e-02 -3.346830781083554029e-04 -2.983523346483707428e-02 -9.215387515723705292e-03 1.625542342662811279e-02 2.818412519991397858e-02 6.001597270369529724e-03 1.616833545267581940e-02 -2.350599691271781921e-02 -1.086590811610221863e-03 -3.142192959785461426e-03 -2.947342209517955780e-02 -4.471040156204253435e-04 -1.944282837212085724e-02 2.144547179341316223e-02 2.682294137775897980e-02 -1.141262473538517952e-03 4.938972741365432739e-02 2.078673988580703735e-02 1.234907936304807663e-02 2.031261660158634186e-02 -3.384251520037651062e-02 -1.441223453730344772e-02 -2.010798640549182892e-02 -7.644331455230712891e-02 -7.903256337158381939e-04 9.887347696349024773e-04 8.358523249626159668e-03 2.823889954015612602e-03 2.714123344048857689e-03 2.819093130528926849e-02 -7.201781030744314194e-03 -4.274696484208106995e-02 -1.881571486592292786e-02 -3.161699697375297546e-02 1.299618836492300034e-02 -1.507297065109014511e-02 -1.550216600298881531e-02 -1.264724973589181900e-02 1.019419869408011436e-03 2.274782583117485046e-02 1.212428230792284012e-02 -7.974059553816914558e-04 5.552774295210838318e-03 1.915739476680755615e-02 6.537271663546562195e-03 -3.510998794808983803e-03 -1.325784996151924133e-02 -5.170754157006740570e-03 -2.207842917414382100e-04 1.040291273966431618e-03 1.331035513430833817e-02 -7.938041562738362700e-06 -2.093243412673473358e-02 -2.580106258392333984e-02 5.497482488863170147e-04 1.567366719245910645e-02 -5.199612583965063095e-03 3.238407662138342857e-03 -2.113744994858279824e-04
-3.503024810925126076e-03 5.490843672305345535e-03 4.798217490315437317e-02 -4.345393739640712738e-03 2.508049830794334412e-02 -1.088317483663558960e-03 -2.518326416611671448e-02 -3.250149264931678772e-02 -1.097250077873468399e-02 7.965366356074810028e-03 -3.661311045289039612e-02 2.045675739645957947e-02 -9.165537543594837189e-03 -1.819451898336410522e-02 -3.307079896330833435e-03 1.037180423736572266e-02 1.674510538578033447e-02 -5.214145872741937637e-03 -3.685524279717355967e-04 -4.631280433386564255e-03 3.023725561797618866e-02 -1.778325531631708145e-03 2.517917938530445099e-02 1.366315688937902451e-02 -2.821661718189716339e-02 3.593905363231897354e-03 2.140980772674083710e-02 -4.841805249452590942e-02 4.405464045703411102e-03 7.936081849038600922e-03 -5.056920647621154785e-02 -2.412496507167816162e-02 3.126914799213409424e-02 -2.421644516289234161e-02 3.115686401724815369e-02 2.577276900410652161e-02 1.341061759740114212e-02 8.465532958507537842e-02 2.114946767687797546e-02 2.163029741495847702e-03 2.935718744993209839e-02 -3.164451045449823141e-04 -4.534959048032760620e-02 -3.541792556643486023e-02 -2.706171758472919464e-02 4.581194370985031128e-02 -2.648742124438285828e-02 5.035322904586791992e-02 -9.136936627328395844e-03 -3.374031186103820801e-02 4.490315541625022888e-02 -4.831764847040176392e-02 4.185488913208246231e-03 2.277461066842079163e-02 -3.943977877497673035e-02 -2.760172821581363678e-02 9.006763808429241180e-03 2.988325618207454681e-02 3.193442523479461670e-02 2.215877361595630646e-02 3.977670520544052124e-02 1.384129095822572708e-02 5.426424904726445675e-04 -7.139270659536123276e-03 -5.575091764330863953e-02 5.465515423566102982e-03 -1.712762005627155304e-02 5.997527390718460083e-03 -2.597903273999691010e-02 8.321807719767093658e-03 2.269183518365025520e-03 -9.315054863691329956e-03 1.028149854391813278e-02 4.864364117383956909e-02 -7.907524704933166504e-02 5.979070439934730530e-02 8.064491674304008484e-03 2.508344501256942749e-02 -5.177493020892143250e-02 1.043467037379741669e-02 -9.893868118524551392e-04 2.423606999218463898e-02 -1.195246726274490356e-02 -4.201369732618331909e-02 -2.948807179927825928e-02 2.358547411859035492e-02 -1.374765299260616302e-02 -3.769503161311149597e-02 -1.189009752124547958e-02 -2.900196239352226257e-03 5.115053802728652954e-02 3.111364319920539856e-02 -6.871421635150909424e-02 -1.665964163839817047e-02 -6.285985559225082397e-02 2.632458880543708801e-02 5.803189799189567566e-02 -4.284733906388282776e-02 -1.366802607662975788e-04 -6.516934931278228760e-02
-1.304992847144603729e-02 -6.184436008334159851e-02 4.019182547926902771e-02 2.615908626466989517e-03 -3.683250024914741516e-02 -2.070373669266700745e-02 -6.955237686634063721e-02 -5.196778103709220886e-02 -5.202308297157287598e-03 9.648337215185165405e-02 -3.005488216876983643e-02 -6.441400200128555298e-02 1.290084514766931534e-02 -4.353188723325729370e-02 -7.474636193364858627e-03 -1.612080261111259460e-02 5.670554819516837597e-04 -2.616595849394798279e-02 -4.895980819128453732e-04 6.965615786612033844e-03 -1.127064600586891174e-02 -3.210356459021568298e-02 -2.208715071901679039e-03 -1.050321478396654129e-02 5.240336759015917778e-04 2.180463634431362152e-02 -3.610147396102547646e-03 3.059501294046640396e-03 7.233024109154939651e-03 -6.502243131399154663e-02 -2.963840402662754059e-02 3.693744540214538574e-02 8.709346875548362732e-03 -3.885620832443237305e-02 -6.204270943999290466e-02 -5.172839015722274780e-02 3.994486760348081589e-03 8.277839981019496918e-03 6.087071821093559265e-02 -3.849179251119494438e-03 -3.784094005823135376e-02 -6.225872493814677000e-05 3.417437151074409485e-02 -2.451045997440814972e-02 -5.512306839227676392e-02 -4.712833464145660400e-02 -5.128698796033859253e-02 1.587360166013240814e-02 3.517169505357742310e-02 3.523293882608413696e-02 4.411924630403518677e-02 -7.362381368875503540e-02 8.619856671430170536e-04 -2.255303598940372467e-02 8.354188501834869385e-02 -3.412351384758949280e-02 6.225391291081905365e-03 2.689528651535511017e-02 -5.785405263304710388e-02 -4.843485355377197266e-02 4.126304015517234802e-02 -3.256290033459663391e-02 -1.828894019126892090e-02 -4.207785055041313171e-02 -4.316462948918342590e-02 4.589186515659093857e-03 1.620272523723542690e-03 -3.847350180149078369e-02 -5.593473091721534729e-02 -3.769323695451021194e-03 -6.340246647596359253e-02 -1.434440631419420242e-02 -1.887111552059650421e-02 4.344898462295532227e-02 -8.739284425973892212e-02 5.519282817840576172e-02 -6.065404042601585388e-03 3.595116361975669861e-02 8.938352577388286591e-03 2.569146640598773956e-02 -3.957718983292579651e-02 -1.357199624180793762e-02 -2.009718678891658783e-02 4.069263488054275513e-02 1.660174131393432617e-02 -8.423570543527603149e-02 -3.358029201626777649e-02 2.580377459526062012e-02 9.714669547975063324e-03 2.919136080890893936e-03 1.550454832613468170e-02 -3.745931759476661682e-02 -4.774086922407150269e-02 -3.506912291049957275e-02 5.630559846758842468e-02 -5.302701517939567566e-02 -4.027403146028518677e-02 4.815857112407684326e-02 -9.538318030536174774e-03 -3.615904971957206726e-02
-2.733319103717803955e-01 6.053075194358825684e-03 -2.354867197573184967e-02 3.971362709999084473e-01 -2.690047025680541992e-02 -8.993429364636540413e-04 -4.392174538224935532e-03 2.547086030244827271e-02 -1.987528204917907715e-01 9.482125751674175262e-03 -1.467279344797134399e-02 -2.842733450233936310e-02 2.502237912267446518e-03 -1.260064076632261276e-02 4.644238855689764023e-03 1.474570855498313904e-02 1.976064965128898621e-02 -3.353699110448360443e-03 1.094299834221601486e-03 7.780597545206546783e-03 4.843952879309654236e-02 1.419508550316095352e-02 3.925897181034088135e-03 -2.257522940635681152e-02 -9.078606963157653809e-03 3.895394620485603809e-04 9.571712464094161987e-03 -5.958463952993042767e-05 2.629819810390472412e-01 -9.685539640486240387e-03 -5.174375139176845551e-03 1.103545539081096649e-02 8.316151797771453857e-03 -2.730689384043216705e-02 -5.610039923340082169e-03 8.896770887076854706e-03 -2.442552447319030762e-01 1.064183097332715988e-02 1.670864075422286987e-01 2.579394578933715820e-01 -1.277583371847867966e-02 1.958058448508381844e-03 1.630738936364650726e-02 8.027797192335128784e-02 -1.622004620730876923e-02 -1.077193208038806915e-02 -3.139991080388426781e-03 1.222755573689937592e-02 -8.912881836295127869e-03 -1.491867601871490479e-01 3.538182005286216736e-02 1.812365464866161346e-02 -4.104858338832855225e-01 1.074427366256713867e-01 2.759492211043834686e-02 1.632152241654694080e-03 -2.548848986625671387e-01 -1.574220508337020874e-02 -8.456095121800899506e-03 -6.491188704967498779e-02 -2.182585187256336212e-03 3.074723528698086739e-03 -1.187448156997561455e-03 -2.116188779473304749e-02 2.093770354986190796e-02 -4.968802444636821747e-03 -6.600693799555301666e-03 1.524798665195703506e-02 6.469859182834625244e-02 4.055695235729217529e-02 9.306061081588268280e-03 -1.704390048980712891e-01 -6.793547421693801880e-02 -4.403068497776985168e-02 4.475096240639686584e-02 -1.675161160528659821e-02 2.963512018322944641e-02 1.706344820559024811e-02 -4.049555584788322449e-02 8.498739451169967651e-03 9.521085768938064575e-03 5.660267197526991367e-04 1.296203017234802246e+00 -5.876234732568264008e-03 9.462290443480014801e-03 3.766828682273626328e-03 1.764342561364173889e-02 -2.779998071491718292e-02 -3.912649117410182953e-03 2.823137342929840088e-01 2.207497507333755493e-02 2.090488793328404427e-03 -1.113013550639152527e-02 1.303413882851600647e-03 5.021055042743682861e-02 1.620180718600749969e-02 3.543858602643013000e-02 8.215542882680892944e-03 -1.880488591268658638e-03 2.826995588839054108e-02
-6.258275359869003296e-02 -4.468816891312599182e-02 9.665048867464065552e-02 2.418363988399505615e-01 -7.951041683554649353e-03 5.331172142177820206e-03 3.958537802100181580e-02 3.109588054940104485e-03 9.821435064077377319e-02 6.750587373971939087e-02 1.811462454497814178e-02 -4.147411882877349854e-02 7.378431502729654312e-03 -1.343720871955156326e-02 -1.306771393865346909e-02 3.908347710967063904e-02 -3.342265030369162560e-03 5.338645540177822113e-03 3.164505120366811752e-03 -1.701023429632186890e-02 2.253123000264167786e-02 -5.956570804119110107e-02 -2.353618852794170380e-03 3.020810782909393311e-01 1.820601173676550388e-03 2.656059572473168373e-03 -1.874184980988502502e-02 1.737799122929573059e-02 -1.012374460697174072e-01 -2.031265571713447571e-02 -3.171837702393531799e-02 -1.734596118330955505e-02 2.913420787081122398e-03 -3.875875473022460938e-02 7.278981618583202362e-03 1.465285290032625198e-02 -2.572301626205444336e-01 2.585542947053909302e-02 -3.121652305126190186e-01 2.117301672697067261e-01 -4.816124960780143738e-02 -3.044408559799194336e-01 -6.789182871580123901e-02 -2.379506081342697144e-01 2.683005109429359436e-02 2.084989845752716064e-02 -1.559592504054307938e-02 4.528226703405380249e-02 1.012999564409255981e-01 3.131757974624633789e-01 -4.269272834062576294e-02 -4.352582246065139771e-02 3.224684596061706543e-01 -2.096332376822829247e-03 -3.336963802576065063e-02 -3.220000490546226501e-02 -2.209237962961196899e-01 4.583110660314559937e-02 -1.478784717619419098e-02 -6.078674644231796265e-02 2.518607117235660553e-02 -4.401787649840116501e-03 2.385818213224411011e-02 2.629360184073448181e-02 4.048288613557815552e-02 1.898459158837795258e-04 -7.797032594680786133e-03 -1.538537442684173584e-02 9.668738394975662231e-02 2.302243262529373169e-01 4.228675737977027893e-02 -2.476937919855117798e-01 -1.044780761003494263e-01 -5.681626498699188232e-02 1.000757738947868347e-01 -1.742499694228172302e-02 -1.248458772897720337e-01 3.096334636211395264e-02 -2.279213257133960724e-02 1.811962225474417210e-03 -1.349634490907192230e-02 -1.252458896487951279e-03 3.925523459911346436e-01 -3.326913714408874512e-02 -1.399729028344154358e-02 9.693157672882080078e-02 3.091573342680931091e-02 -1.238650679588317871e-01 -2.769094717223197222e-04 -3.235390484333038330e-01 -5.201392923481762409e-05 -3.304666280746459961e-02 -4.998153820633888245e-02 1.108314469456672668e-01 5.086163058876991272e-02 3.897609654814004898e-03 6.324175000190734863e-02 -6.355214864015579224e-02 6.203983910381793976e-03 8.160942792892456055e-02
7.342000305652618408e-02 4.554003011435270309e-03 3.226790577173233032e-02 -3.823396191000938416e-02 1.069126091897487640e-02 2.449160907417535782e-03 -1.732919365167617798e-03 -2.280384302139282227e-02 -9.534182026982307434e-03 -9.013799577951431274e-02 9.864693274721503258e-04 6.253940612077713013e-02 6.999650970101356506e-03 2.483864314854145050e-03 -6.570011842995882034e-03 -8.001839742064476013e-03 4.103485960513353348e-03 -1.846471428871154785e-02 1.283344149589538574e+00 -2.605777420103549957e-02 -2.468156628310680389e-03 1.157428883016109467e-02 -3.998028114438056946e-03 6.620923429727554321e-02 4.534730687737464905e-03 1.149821677245199680e-03 3.022780176252126694e-03 1.071655098348855972e-02 7.826243527233600616e-03 1.104033645242452621e-02 -1.196916773915290833e-02 1.052776258438825607e-02 -8.001480018720030785e-04 -2.116966806352138519e-02 -2.030626870691776276e-02 -5.612757522612810135e-03 6.881430745124816895e-03 -5.506562069058418274e-02 2.721783220767974854e-01 -2.502352371811866760e-02 -1.445143204182386398e-02 -5.191876552999019623e-03 4.051944985985755920e-02 -3.492789342999458313e-02 8.790135383605957031e-03 1.245137955993413925e-02 -4.954450298100709915e-03 -3.874796256422996521e-02 5.698975641280412674e-03 1.354997903108596802e-01 -2.061639167368412018e-02 -5.902373418211936951e-02 2.241580374538898468e-02 -6.032301485538482666e-02 -3.393095359206199646e-02 2.537520974874496460e-02 1.105890609323978424e-02 -1.082963589578866959e-02 1.735697686672210693e-02 -6.073381751775741577e-02 1.325178518891334534e-02 -3.419912979006767273e-02 1.576752215623855591e-02 1.522594131529331207e-02 -1.679763570427894592e-02 -7.612084969878196716e-03 1.128235086798667908e-02 -3.520012833178043365e-04 4.358853399753570557e-02 -6.934874225407838821e-03 -5.977602559141814709e-04 -1.030208822339773178e-02 2.779986336827278137e-02 -2.048782538622617722e-03 9.504240751266479492e-02 1.327266171574592590e-02 -6.341028958559036255e-02 -2.634771354496479034e-02 -2.032303949818015099e-03 -2.325065992772579193e-02 1.524410676211118698e-02 3.642287850379943848e-02 -1.302437391132116318e-02 -4.045804031193256378e-03 4.659362093661911786e-05 -8.664522320032119751e-02 9.919003397226333618e-02 1.310765556991100311e-02 -3.866193583235144615e-03 -1.505478378385305405e-02 -5.525250919163227081e-03 3.802714496850967407e-02 3.119141981005668640e-02 -6.972888857126235962e-02 2.774343639612197876e-02 -4.651361610740423203e-03 4.964381828904151917e-02 -2.794611267745494843e-03 -7.076611276715993881e-03 -5.957672372460365295e-03
