3.283144533634185791e-01
-3.735346794128417969e-01
-9.100089222192764282e-02
2.212053388357162476e-01
3.013905324041843414e-02
6.647956371307373047e-02
3.025883436203002930e-01
-1.030081883072853088e-01
1.657104939222335815e-01
1.910345256328582764e-01
1.453929841518402100e-01
2.476025968790054321e-01
-2.366681694984436035e-01
4.022052586078643799e-01
-2.846848964691162109e-01
-2.673490345478057861e-02
3.288510143756866455e-01
1.409119069576263428e-01
1.556890904903411865e-01
1.937445253133773804e-01
-4.848829284310340881e-02
2.578833103179931641e-01
-4.993582516908645630e-02
1.939984709024429321e-01
2.363569885492324829e-01
-3.653997480869293213e-01
3.333942294120788574e-01
2.508855760097503662e-01
4.432353749871253967e-02
2.542167305946350098e-01
-7.444351166486740112e-02
9.151184558868408203e-02
-4.794344902038574219e-01
-1.544812321662902832e-01
2.806057035923004150e-01
-8.817961812019348145e-02
2.966556549072265625e-01
2.779995203018188477e-01
-3.690387010574340820e-01
-6.180477738380432129e-01
3.148964941501617432e-01
2.390763163566589355e-01
-9.222450852394104004e-02
-1.083713844418525696e-01
2.110433280467987061e-01
2.524914741516113281e-01
-6.860353052616119385e-03
4.493546187877655029e-01
6.956147402524948120e-02
1.570503264665603638e-01
1.923449933528900146e-01
2.929919064044952393e-01
3.892099261283874512e-01
3.047712147235870361e-01
1.850381493568420410e-01
-7.624316215515136719e-01
1.722304224967956543e-01
3.358667194843292236e-01
-2.023237198591232300e-01
-5.065822005271911621e-01
-3.643375635147094727e-01
5.458962917327880859e-02
1.979446262121200562e-01
3.111719787120819092e-01
-2.304081246256828308e-02
4.953324198722839355e-01
1.143199950456619263e-01
-4.272161126136779785e-01
2.221152745187282562e-02
-1.085974276065826416e-01
-1.526208817958831787e-01
1.364134252071380615e-01
-8.454710245132446289e-01
2.595070004463195801e-01
4.240411818027496338e-01
-8.805228024721145630e-02
1.686883121728897095e-01
9.593494981527328491e-02
-6.540590524673461914e-02
4.443852594704367220e-05
2.327771782875061035e-01
-1.364169716835021973e-01
6.597920060157775879e-01
1.055063158273696899e-01
9.400564432144165039e-02
2.999944686889648438e-01
-2.949140667915344238e-01
-4.235626161098480225e-01
4.624819383025169373e-02
2.667229473590850830e-01
-5.863735675811767578e-01
2.548930048942565918e-01
-2.572059631347656250e-03
-3.878284245729446411e-02
2.261856049299240112e-01
3.426152765750885010e-01
2.265064418315887451e-01
3.604548573493957520e-01
1.968474835157394409e-01
-2.823328077793121338e-01
