3.706294298171997070e-01
-1.512634158134460449e-01
2.189649194478988647e-01
-4.706012904644012451e-01
1.969482153654098511e-01
-2.184626162052154541e-01
1.806656718254089355e-01
2.685023546218872070e-01
2.770558893680572510e-01
-8.189721405506134033e-02
1.954449564218521118e-01
-8.232223987579345703e-02
4.050476104021072388e-02
3.058212697505950928e-01
3.030649721622467041e-01
-6.094396710395812988e-01
-3.881550729274749756e-01
3.865553066134452820e-02
-1.107139140367507935e-01
2.703619301319122314e-01
-7.763377428054809570e-01
-5.659939646720886230e-01
-1.943917423486709595e-01
4.042887687683105469e-01
-5.234456807374954224e-02
2.452745139598846436e-01
2.218008041381835938e-01
2.828519940376281738e-01
2.565893530845642090e-02
4.793038368225097656e-01
2.283958792686462402e-01
-8.524337410926818848e-02
9.313485026359558105e-02
-7.514081895351409912e-02
1.101946830749511719e-01
4.162763431668281555e-02
4.672978222370147705e-01
1.927589476108551025e-01
3.674996197223663330e-01
2.539709508419036865e-01
4.645944237709045410e-01
-1.007462590932846069e-01
2.229695320129394531e-01
2.568760514259338379e-02
-2.703298814594745636e-02
4.679207503795623779e-01
3.429557979106903076e-01
-9.593645334243774414e-01
-1.934443786740303040e-02
-7.534600794315338135e-02
4.964419007301330566e-01
1.573836207389831543e-01
-3.668474256992340088e-01
-5.209413170814514160e-02
1.595256328582763672e-01
4.846129417419433594e-01
1.368542853742837906e-02
1.133226752281188965e-01
-1.109845489263534546e-01
2.484323643147945404e-02
7.319763302803039551e-02
2.341858446598052979e-01
3.217914104461669922e-01
-9.023706614971160889e-02
-9.992440044879913330e-02
9.634502977132797241e-02
2.372108250856399536e-01
1.888442933559417725e-01
4.346789121627807617e-01
-1.140049248933792114e-01
1.250466853380203247e-01
-9.864675253629684448e-02
2.671361267566680908e-01
1.354841738939285278e-01
2.859540879726409912e-01
2.669660747051239014e-02
-4.302982687950134277e-01
4.424768686294555664e-01
3.370101749897003174e-01
9.292580932378768921e-02
-1.942643225193023682e-01
3.133915364742279053e-01
-1.201795190572738647e-01
6.385295838117599487e-02
4.067583680152893066e-01
1.606309860944747925e-01
6.830809265375137329e-02
2.476542629301548004e-02
-3.340601623058319092e-01
2.617942392826080322e-01
-3.076595962047576904e-01
1.863718926906585693e-01
-1.261346228420734406e-02
-5.519509315490722656e-02
2.795053124427795410e-01
3.141038417816162109e-01
1.374703198671340942e-01
4.564393311738967896e-02
-1.138334155082702637e+00
3.060736954212188721e-01
