-2.272698134183883667e-01
5.650514364242553711e-01
7.192041277885437012e-01
-6.918509304523468018e-02
1.489759802818298340e+00
-4.183838665485382080e-01
-1.516194581985473633e+00
9.365831017494201660e-01
-1.149662017822265625e+00
-1.841479182243347168e+00
5.710631608963012695e-01
6.214901804924011230e-01
8.437495678663253784e-02
2.304438591003417969e+00
1.849673837423324585e-01
2.634480297565460205e-01
-9.133151173591613770e-02
-6.692729592323303223e-01
7.560046911239624023e-01
2.867352962493896484e-01
1.671046204864978790e-02
-2.533535659313201904e-01
3.182552382349967957e-02
-1.189020037651062012e+00
-3.090166747570037842e-01
-8.081864714622497559e-01
3.559366166591644287e-01
6.643452644348144531e-01
9.126798510551452637e-01
-1.880291104316711426e-01
-3.204582631587982178e-01
-1.014528274536132812e+00
-1.434998035430908203e+00
-2.218056470155715942e-01
-4.717597663402557373e-01
7.878860235214233398e-01
2.097802609205245972e-01
5.795876383781433105e-01
5.511203408241271973e-01
1.073049381375312805e-01
-4.138940274715423584e-01
8.552718907594680786e-02
-9.339144825935363770e-02
2.111702710390090942e-01
-5.907142162322998047e-01
2.575832009315490723e-01
5.471971035003662109e-01
1.134478211402893066e+00
-1.313317716121673584e-01
-1.879802048206329346e-01
-1.441905975341796875e+00
1.935193538665771484e+00
-1.652081683278083801e-02
5.229125022888183594e-01
1.327312231063842773e+00
-5.476535558700561523e-01
8.325526714324951172e-01
3.759772479534149170e-01
-9.977051019668579102e-01
3.275290429592132568e-01
1.399581670761108398e+00
1.913883686065673828e-01
-5.170046091079711914e-01
8.395448923110961914e-01
-1.166344899684190750e-02
1.291443943977355957e+00
1.900786459445953369e-01
1.054504752159118652e+00
-1.036877632141113281e-01
2.540275752544403076e-01
1.334527492523193359e+00
9.851312637329101562e-01
-5.356585383415222168e-01
-1.426020264625549316e+00
-1.056309103965759277e+00
-7.691541314125061035e-01
-6.075071692466735840e-01
-1.020145565271377563e-01
-5.119322538375854492e-01
1.179668903350830078e-01
-3.496590256690979004e-01
-1.171758323907852173e-01
-7.191960215568542480e-01
-8.515028953552246094e-01
-8.349500298500061035e-01
1.272681355476379395e+00
-1.359907746315002441e+00
6.314513683319091797e-01
6.515771895647048950e-02
4.803519546985626221e-01
-6.557139754295349121e-02
8.718676567077636719e-01
2.425945281982421875e+00
2.916411124169826508e-02
3.723703324794769287e-01
1.302967220544815063e-01
2.742748856544494629e-01
-2.524812519550323486e-01
-4.899055510759353638e-02
7.886323332786560059e-01
