-2.579975686967372894e-02 8.549968153238296509e-02 -3.073588907718658447e-01 -4.029993116855621338e-01 -5.057585239410400391e-01 -1.154998913407325745e-01 -1.934462785720825195e-01 1.936561465263366699e-01 -6.621903181076049805e-02 3.182337433099746704e-02 -8.092947304248809814e-02 4.235896747559309006e-03 -2.138492185622453690e-03 2.472766116261482239e-02 5.724991485476493835e-02 3.459139727056026459e-03 -2.490627318620681763e-01 1.813207753002643585e-02 -4.694759845733642578e-01 1.219258010387420654e-01 -2.048635035753250122e-01 -1.193834841251373291e-01 -5.055170878767967224e-02 -1.023926660418510437e-01 -3.436773642897605896e-02 3.835483267903327942e-02 -4.981218650937080383e-02 4.300962015986442566e-02 -4.534480720758438110e-02 -1.080777347087860107e-01 -2.697416245937347412e-01 -2.541821599006652832e-01 -4.456206858158111572e-01 -1.162363216280937195e-01 -1.772109717130661011e-01 -1.109383180737495422e-01 -9.838911145925521851e-02 8.388625830411911011e-02 -9.203679114580154419e-02 -3.194646164774894714e-02 2.286824863404035568e-03 -3.041922673583030701e-02 5.904374644160270691e-02 -1.769839376211166382e-01 -2.044596523046493530e-01 3.560774326324462891e-01 -4.377632737159729004e-01 -1.022844836115837097e-01 -2.203634083271026611e-01 -2.376967966556549072e-01 -8.333492092788219452e-03 -3.138693049550056458e-02 1.226967293769121170e-02 -8.547988533973693848e-02 -7.920285314321517944e-02 -2.130304276943206787e-02 -1.444109156727790833e-02 7.982689887285232544e-02 -2.769169509410858154e-01 2.852438390254974365e-01 -4.640526473522186279e-01 1.023195683956146240e-01 -2.336777299642562866e-01 -2.736602425575256348e-01 2.619304927065968513e-03 1.018213629722595215e-01 -4.555004090070724487e-02 2.182272076606750488e-01 3.368223458528518677e-02 -4.089059308171272278e-02 4.687980562448501587e-02 -1.574946790933609009e-01 -2.710781097412109375e-01 3.397880494594573975e-01 -5.210839509963989258e-01 -1.703656017780303955e-01 -2.812291681766510010e-01 1.918966136872768402e-02 -1.581935584545135498e-02 -2.913511544466018677e-02 -6.900155544281005859e-02 -1.607155352830886841e-01 3.138740733265876770e-02 6.388953886926174164e-03 2.663639374077320099e-02 -2.325851619243621826e-01 -2.015396356582641602e-01 3.850073814392089844e-01 -5.556458234786987305e-01 2.241185307502746582e-01 -2.761147618293762207e-01 5.635811015963554382e-02 -2.360677160322666168e-02 -4.988843202590942383e-02 -7.412888854742050171e-02 -1.826230138540267944e-01 7.748639676719903946e-03 -2.702781558036804199e-02 -5.367665365338325500e-02 7.724026441574096680e-01 -3.053828775882720947e-01 -3.257634639739990234e-01 -5.110348463058471680e-01 3.129425942897796631e-01 -1.304585337638854980e-01 2.934977710247039795e-01 9.640542790293693542e-03 2.157615274190902710e-01 -1.057854741811752319e-01 4.721337854862213135e-01 -7.872707396745681763e-02 5.106625333428382874e-02 -7.544956356287002563e-02 -6.000181436538696289e-01 -2.661009132862091064e-01 8.978426456451416016e-01 -5.470371246337890625e-01 -2.765668928623199463e-01 -2.342060655355453491e-01 5.169669985771179199e-01 -2.006587758660316467e-02 -1.931208819150924683e-01 -6.398753821849822998e-02 -3.113685846328735352e-01 6.210793182253837585e-02 7.654717564582824707e-02 4.972332715988159180e-02 3.356767892837524414e-01 -1.409547775983810425e-01 -1.314565658569335938e+00 -3.949249982833862305e-01 -1.219912152737379074e-02 -2.729590535163879395e-01 -2.967971563339233398e-01 -1.055517513304948807e-02 -2.267025783658027649e-02 -3.097095526754856110e-02 6.671929359436035156e-02 -3.136733919382095337e-02 -7.115687429904937744e-02
9.321215003728866577e-02 -8.098183274269104004e-01 3.999749124050140381e-01 -1.524060368537902832e-01 -9.141700714826583862e-02 4.562064111232757568e-01 3.414205312728881836e-01 2.408862113952636719e-01 -4.082901868969202042e-03 1.278248280286788940e-01 1.115994825959205627e-01 -1.270026061683893204e-02 8.685713633894920349e-03 3.796734288334846497e-02 -4.533271864056587219e-02 -8.211726695299148560e-02 4.100210070610046387e-01 8.668954670429229736e-02 5.785939283668994904e-03 -4.127810597419738770e-01 2.503218054771423340e-01 -1.481481939554214478e-01 -4.917575418949127197e-02 -1.449076533317565918e-01 -3.556440025568008423e-02 -6.784788519144058228e-02 5.951649695634841919e-02 -4.531266912817955017e-02 -3.424448147416114807e-02 3.042598366737365723e-01 4.824537932872772217e-01 1.543965339660644531e-01 -1.171935573220252991e-01 -4.844037350267171860e-03 3.393459022045135498e-01 1.910950392484664917e-01 -1.868938282132148743e-02 -6.882136315107345581e-02 3.181017935276031494e-02 2.380999922752380371e-01 -5.159817263484001160e-02 -3.102837130427360535e-02 -6.262955069541931152e-02 4.797881841659545898e-01 4.416229128837585449e-01 3.275285065174102783e-01 -1.088522002100944519e-01 6.675260514020919800e-02 3.762081563472747803e-01 -3.765297830104827881e-01 -7.203937321901321411e-02 2.511641681194305420e-01 1.086187548935413361e-02 -2.848960757255554199e-01 2.560446597635746002e-02 8.753372728824615479e-02 -6.831676512956619263e-02 8.762283325195312500e-01 4.394913911819458008e-01 -5.741416011005640030e-03 -9.781128726899623871e-03 -8.928181529045104980e-01 3.284791409969329834e-01 -1.739646792411804199e-01 -6.098980829119682312e-02 -3.085377216339111328e-01 1.685387105681002140e-03 1.768663078546524048e-01 2.087054587900638580e-02 -9.985713660717010498e-02 -1.754893176257610321e-02 8.887562751770019531e-01 3.986382186412811279e-01 7.458528876304626465e-01 -7.249727100133895874e-02 3.416424393653869629e-01 3.444725275039672852e-01 -1.248557493090629578e-01 5.945956707000732422e-02 8.685673028230667114e-02 9.547041356563568115e-02 1.418105661869049072e-01 4.240167140960693359e-02 4.873020946979522705e-02 -3.682589530944824219e-02 8.007881641387939453e-01 4.907193481922149658e-01 -8.026769161224365234e-01 1.863645948469638824e-02 -9.887945652008056641e-02 3.301890790462493896e-01 -1.484520286321640015e-01 1.721149682998657227e-02 1.938930600881576538e-01 1.423597149550914764e-02 -2.894469201564788818e-01 2.370720915496349335e-02 2.810984151437878609e-03 1.172819137573242188e-01 -3.570492565631866455e-01 5.262866020202636719e-01 1.771756261587142944e-01 -5.026037339121103287e-03 -4.343416392803192139e-01 3.840618133544921875e-01 1.021053344011306763e-01 -3.400167450308799744e-02 -4.800535142421722412e-01 -6.735329516232013702e-03 5.988621711730957031e-02 -6.567625701427459717e-02 -3.283773362636566162e-02 1.388808190822601318e-01 -4.099690020084381104e-01 5.164403319358825684e-01 4.966822564601898193e-01 1.907003670930862427e-02 8.703958392143249512e-01 3.436995446681976318e-01 -3.166550993919372559e-01 1.007806658744812012e-01 3.405928909778594971e-01 2.921233139932155609e-02 2.054364830255508423e-01 -4.781513661146163940e-02 1.326174940913915634e-02 1.506846677511930466e-02 -1.689806818962097168e+00 5.996822118759155273e-01 -1.002506613731384277e+00 -4.440845921635627747e-02 8.694896847009658813e-02 3.998958766460418701e-01 8.085411190986633301e-01 3.856894746422767639e-02 4.993111826479434967e-03 -1.252076122909784317e-02 -1.581393331289291382e-01 -1.064066216349601746e-02 2.477060770615935326e-03
-3.431396558880805969e-02 -1.918414384126663208e-01 9.060452133417129517e-02 1.700729131698608398e-01 2.059350013732910156e-01 1.193567514419555664e-01 -2.546677887439727783e-01 7.587920129299163818e-02 1.231621857732534409e-02 -2.638855949044227600e-02 2.320365607738494873e-01 8.305307477712631226e-02 -3.035141387954354286e-03 -5.456978455185890198e-02 -1.100857481360435486e-01 -5.936187878251075745e-02 1.042888835072517395e-01 7.537429779767990112e-02 2.156212478876113892e-01 -1.810296475887298584e-01 -1.467222422361373901e-01 -3.746398957446217537e-03 -2.028370648622512817e-02 2.032505348324775696e-02 1.972918063402175903e-01 4.312910884618759155e-02 -5.451887100934982300e-02 6.724857538938522339e-02 -3.151433169841766357e-02 -1.463813930749893188e-01 1.944563686847686768e-01 -1.664496511220932007e-01 1.801280528306961060e-01 -1.698094904422760010e-01 -2.079810053110122681e-01 1.646696776151657104e-01 -6.650444120168685913e-02 -5.215596407651901245e-03 1.203618049621582031e-01 -1.906790435314178467e-01 4.361675307154655457e-02 -5.980642884969711304e-02 -7.229723036289215088e-02 -1.366883218288421631e-01 1.427416354417800903e-01 2.240305393934249878e-02 1.727463603019714355e-01 -1.370191872119903564e-01 -1.733182221651077271e-01 -2.497006952762603760e-02 1.002936158329248428e-02 3.759159147739410400e-02 1.194089874625205994e-01 1.797368377447128296e-01 8.505849540233612061e-02 5.717450007796287537e-02 1.271968521177768707e-02 1.261565238237380981e-01 9.719160199165344238e-02 -6.255124211311340332e-01 2.022857666015625000e-01 -1.339244991540908813e-01 -1.254713833332061768e-01 -7.247576117515563965e-02 1.934232190251350403e-02 -3.290022164583206177e-02 1.117579415440559387e-01 -7.431942969560623169e-02 7.702516764402389526e-02 -4.460127651691436768e-02 -1.334999687969684601e-03 -4.538439214229583740e-02 2.327491939067840576e-01 -5.366795659065246582e-01 2.026158720254898071e-01 -9.736076742410659790e-02 -2.596912086009979248e-01 3.192555392161011696e-03 -2.571294084191322327e-02 -4.686959087848663330e-02 1.749653965234756470e-01 -1.030020564794540405e-01 -7.474604249000549316e-02 6.204570457339286804e-02 1.153602823615074158e-02 2.632593512535095215e-01 1.161212548613548279e-01 2.254178076982498169e-01 3.078742027282714844e-01 2.714435569941997528e-02 -2.055976837873458862e-01 -1.074921265244483948e-01 -3.492009639739990234e-02 1.037916615605354309e-01 1.087051406502723694e-01 3.919545710086822510e-01 -3.844812512397766113e-02 -1.168898213654756546e-02 -7.545926608145236969e-03 7.397555112838745117e-01 1.665649265050888062e-01 -1.325490832328796387e+00 3.036581277847290039e-01 5.312597155570983887e-01 -1.612258106470108032e-01 4.336835443973541260e-01 8.843533694744110107e-02 -1.363970488309860229e-01 2.360356450080871582e-01 -6.244627237319946289e-01 -6.182657927274703979e-02 -6.339394301176071167e-02 9.313958883285522461e-02 -9.022127389907836914e-01 2.509916126728057861e-01 8.290948271751403809e-01 2.193517833948135376e-01 -4.457228183746337891e-01 -2.626911401748657227e-01 -2.621829509735107422e-01 3.391485288739204407e-02 6.763477623462677002e-02 1.970238983631134033e-01 3.912648856639862061e-01 -2.221862412989139557e-02 1.318430714309215546e-02 1.874234974384307861e-01 3.824626505374908447e-01 3.364969789981842041e-01 1.313435792922973633e+00 3.663587868213653564e-01 5.265988707542419434e-01 -2.988502681255340576e-01 -2.289016991853713989e-01 6.045946106314659119e-02 2.003934234380722046e-02 2.135203480720520020e-01 -8.088620007038116455e-02 1.649682596325874329e-02 1.464361324906349182e-02
-9.088242053985595703e-02 1.953390240669250488e-01 -1.069200970232486725e-02 1.627668440341949463e-01 4.541593138128519058e-03 9.244798868894577026e-02 9.995018690824508667e-02 3.910070955753326416e-01 -9.906877577304840088e-02 -2.663471177220344543e-02 -5.258214473724365234e-02 1.519026234745979309e-02 1.513827964663505554e-02 2.761782892048358917e-02 -1.476895157247781754e-02 9.235249459743499756e-02 -4.113226383924484253e-02 -1.625702232122421265e-01 -2.241303026676177979e-02 -6.492806226015090942e-02 8.199058473110198975e-02 4.436113238334655762e-01 5.113982409238815308e-02 -1.406340021640062332e-02 -6.025862321257591248e-02 -9.968796372413635254e-02 -5.633753165602684021e-02 -7.255862466990947723e-03 5.787483975291252136e-02 -7.099818438291549683e-02 -8.806363493204116821e-02 5.263819545507431030e-02 -1.962101086974143982e-02 2.467971853911876678e-02 1.569042797200381756e-03 4.070253670215606689e-01 -2.987796068191528320e-02 -2.139964513480663300e-02 -2.712114341557025909e-02 2.613002657890319824e-01 1.639563357457518578e-03 -1.347276475280523300e-02 9.000616520643234253e-02 -7.225957512855529785e-02 -4.942166432738304138e-02 -2.287143915891647339e-01 1.165616065263748169e-01 -2.131474167108535767e-01 2.437262795865535736e-02 1.191741786897182465e-02 6.261626631021499634e-02 1.074807438999414444e-02 9.107587486505508423e-02 -3.069478273391723633e-01 -8.662169799208641052e-03 1.464232988655567169e-02 1.166660040616989136e-01 -3.626488521695137024e-02 -1.138615831732749939e-01 -1.091739386320114136e-01 -3.953530918806791306e-03 2.476212531328201294e-01 -3.014462627470493317e-02 2.178127765655517578e-01 4.890855774283409119e-02 3.950880840420722961e-02 -4.990810155868530273e-02 1.046589761972427368e-02 -1.549736782908439636e-02 -1.914247521199285984e-03 -8.046295261010527611e-04 -1.909511834383010864e-01 -1.343919709324836731e-02 6.227829307317733765e-02 8.971040695905685425e-02 4.603218659758567810e-02 6.323962658643722534e-02 -6.798389554023742676e-01 1.926817186176776886e-02 6.707741320133209229e-02 1.127269584685564041e-02 4.630592465400695801e-01 -2.471457049250602722e-02 -3.326952829957008362e-02 6.594640761613845825e-02 5.579277127981185913e-02 8.003567159175872803e-02 -2.661127746105194092e-01 -4.091557860374450684e-02 -1.017274856567382812e-01 6.610161066055297852e-02 -6.006828546524047852e-01 1.915112137794494629e-02 -4.936297237873077393e-02 1.634607836604118347e-02 -6.746678948402404785e-01 -1.358700636774301529e-02 -4.244464263319969177e-02 -1.156500577926635742e-01 -3.239106237888336182e-01 1.087477877736091614e-01 5.973886251449584961e-01 -7.183838635683059692e-02 4.808808863162994385e-02 -3.262975439429283142e-02 2.710064649581909180e-01 3.082500398159027100e-02 2.054280787706375122e-02 -2.104343380779027939e-03 8.218845725059509277e-01 4.679053649306297302e-02 5.422727018594741821e-02 2.028553187847137451e-02 2.347070164978504181e-02 5.053718760609626770e-02 1.604660153388977051e-01 -2.446214295923709869e-02 7.950877770781517029e-03 1.550426799803972244e-02 2.401746362447738647e-01 -1.006896048784255981e-01 -1.011746972799301147e-01 7.185821980237960815e-02 -8.482789993286132812e-01 5.190142616629600525e-02 -3.068277239799499512e-02 -1.214487254619598389e-01 3.057207465171813965e-01 1.543162465095520020e-01 -2.701515555381774902e-01 2.975925244390964508e-02 -9.216903150081634521e-02 2.895309822633862495e-03 2.288334608078002930e+00 -5.749428644776344299e-03 6.798377633094787598e-02 2.625202201306819916e-02 3.640783429145812988e-01 9.275414980947971344e-03 1.743083260953426361e-02
-4.421972483396530151e-02 4.911802709102630615e-01 2.048454135656356812e-01 -5.344634652137756348e-01 2.998786568641662598e-01 -5.805626884102821350e-02 -1.659963726997375488e-01 -1.873022168874740601e-01 -3.438839688897132874e-02 -8.355504833161830902e-03 1.523536145687103271e-01 9.225585311651229858e-02 5.241899192333221436e-02 3.293054178357124329e-02 7.050506770610809326e-02 7.935010641813278198e-02 1.391949206590652466e-01 -2.381459623575210571e-01 3.408331871032714844e-01 1.092044413089752197e-01 -1.805902570486068726e-01 -6.407429277896881104e-02 5.313916131854057312e-03 2.598226256668567657e-02 2.515395916998386383e-02 -2.859869599342346191e-02 5.210765823721885681e-02 -1.160567160695791245e-03 3.415360674262046814e-02 1.900635808706283569e-01 2.016862928867340088e-01 5.139576643705368042e-02 3.749057948589324951e-01 -1.268050982616841793e-04 -1.793849170207977295e-01 -3.139775991439819336e-02 -7.852253038436174393e-04 1.997420331463217735e-03 7.959114387631416321e-03 -8.262344636023044586e-03 -4.239438846707344055e-02 8.636991493403911591e-03 8.469562232494354248e-02 -4.601609706878662109e-01 1.589748859405517578e-01 3.909372687339782715e-01 2.624639868736267090e-01 1.857891678810119629e-01 -1.731234937906265259e-01 9.312950074672698975e-02 6.261640787124633789e-02 -9.718653559684753418e-02 6.024221703410148621e-02 -3.712543845176696777e-02 3.721904242411255836e-03 -4.199019074440002441e-02 1.363212466239929199e-01 -2.415020912885665894e-01 2.009863853454589844e-01 1.673586815595626831e-01 3.420550823211669922e-01 -1.538548469543457031e-01 -1.281373798847198486e-01 3.290032148361206055e-01 -4.827746655791997910e-03 1.014408767223358154e-01 7.974080741405487061e-02 4.450383409857749939e-02 1.937908679246902466e-02 3.909880295395851135e-02 1.474909335374832153e-01 -4.542627632617950439e-01 2.606150805950164795e-01 1.444487571716308594e+00 3.856650292873382568e-01 -1.582197844982147217e-01 -1.077444702386856079e-01 2.636000216007232666e-01 -4.522858932614326477e-02 -4.650700837373733521e-02 6.350956857204437256e-02 -5.353969056159257889e-03 -6.070185825228691101e-02 -3.912186622619628906e-02 3.033411130309104919e-02 -1.151627540588378906e+00 2.241936177015304565e-01 -3.554575443267822266e-01 2.392816543579101562e-01 2.055566571652889252e-02 -4.207345843315124512e-02 5.667815804481506348e-01 -8.114775270223617554e-02 -2.863365225493907928e-02 1.565974950790405273e-01 -8.725775033235549927e-02 -5.123594775795936584e-02 -1.303447503596544266e-02 -5.896985530853271484e-02 -1.190004870295524597e-01 2.906987369060516357e-01 7.927808165550231934e-01 2.664012610912322998e-01 -6.918243169784545898e-01 -7.045695930719375610e-02 -6.218776479363441467e-02 -8.425679989159107208e-04 1.331368088722229004e-01 4.540232941508293152e-03 5.706792697310447693e-02 6.278759986162185669e-02 3.422960871830582619e-03 -1.896885484457015991e-01 -3.634796142578125000e-01 2.551401257514953613e-01 8.918135166168212891e-01 3.242532610893249512e-01 2.938310205936431885e-01 -1.187319085001945496e-01 -2.706629931926727295e-01 3.195169195532798767e-02 -8.195734024047851562e-02 4.460612684488296509e-02 -4.553118720650672913e-02 2.078636921942234039e-02 1.673145405948162079e-02 -1.939834505319595337e-01 2.031426906585693359e+00 3.482050299644470215e-01 -2.565847635269165039e+00 2.069696187973022461e-01 4.821451604366302490e-01 -1.250266283750534058e-01 -6.575358510017395020e-01 2.733233943581581116e-02 -8.257026784121990204e-03 1.449278742074966431e-02 5.638116970658302307e-02 -4.773756954818964005e-03 -5.869721993803977966e-03
-1.811375282704830170e-02 -2.818157374858856201e-01 3.585402071475982666e-01 -5.293781757354736328e-01 -5.210795998573303223e-01 -6.540458649396896362e-02 5.879769325256347656e-01 -5.624402165412902832e-01 -2.182285860180854797e-02 -7.081433385610580444e-02 4.925834760069847107e-02 -2.728092484176158905e-02 -7.790558040142059326e-02 -4.804712254554033279e-03 3.774769604206085205e-02 8.247320353984832764e-02 3.807671964168548584e-01 -2.809965796768665314e-02 -5.780432224273681641e-01 -3.907238319516181946e-02 5.884811282157897949e-01 2.207794785499572754e-01 2.453080192208290100e-02 9.359106421470642090e-02 2.272902522236108780e-03 -4.816368222236633301e-02 2.211665920913219452e-02 4.218583181500434875e-02 -9.016124159097671509e-02 -1.458038389682769775e-01 5.050080418586730957e-01 1.496467273682355881e-02 -5.613028407096862793e-01 4.227266460657119751e-02 5.573895573616027832e-01 -3.187277913093566895e-02 -1.791539788246154785e-02 -1.007600799202919006e-01 2.011394500732421875e-02 -2.814580872654914856e-02 5.141260474920272827e-02 -5.487021431326866150e-02 2.552296733483672142e-03 2.057861834764480591e-01 3.643817901611328125e-01 6.109424829483032227e-01 -4.775083959102630615e-01 1.706780642271041870e-01 5.410069227218627930e-01 3.989121615886688232e-01 -3.233755473047494888e-03 1.161031797528266907e-01 1.733197644352912903e-02 1.008607894182205200e-01 3.148483857512474060e-02 3.028723411262035370e-02 -2.817892096936702728e-02 3.037187755107879639e-01 3.696357905864715576e-01 4.025765359401702881e-01 -5.159066915512084961e-01 -1.006472930312156677e-01 5.302548408508300781e-01 2.833445668220520020e-01 1.899943128228187561e-02 -2.125123515725135803e-02 1.001784950494766235e-01 9.460130333900451660e-02 -3.552032634615898132e-02 4.604538157582283020e-02 2.195847686380147934e-03 3.321393430233001709e-01 4.786041676998138428e-01 7.815616130828857422e-01 -4.665056467056274414e-01 1.711000949144363403e-01 5.702560544013977051e-01 4.309278130531311035e-01 9.567527472972869873e-02 -5.258798226714134216e-02 4.688078165054321289e-02 -8.823429048061370850e-02 5.924634169787168503e-03 4.556499887257814407e-03 1.811655238270759583e-02 5.422230362892150879e-01 5.596747994422912598e-01 6.521267294883728027e-01 -5.796625018119812012e-01 -8.322399109601974487e-02 5.602629184722900391e-01 4.798287749290466309e-01 -1.839786581695079803e-02 5.535581707954406738e-02 -1.814399845898151398e-02 -3.186774253845214844e-02 1.970980130136013031e-02 -7.930207997560501099e-02 3.207502141594886780e-02 2.995324432849884033e-01 6.192736029624938965e-01 -1.304232627153396606e-01 -5.701166987419128418e-01 -1.810400038957595825e-01 6.077206134796142578e-01 -4.721388593316078186e-02 8.236605674028396606e-02 -1.926947198808193207e-02 2.001413144171237946e-02 7.893130928277969360e-02 6.309631466865539551e-02 -1.830157008953392506e-03 -1.554986741393804550e-02 -7.027825713157653809e-02 5.838913321495056152e-01 3.700262308120727539e-01 -4.649363756179809570e-01 1.052950173616409302e-01 5.845686197280883789e-01 -1.629775613546371460e-01 3.620030730962753296e-02 2.000615559518337250e-02 3.196489065885543823e-02 -1.103348284959793091e-01 -8.607573062181472778e-02 -6.717286258935928345e-02 8.260957151651382446e-02 -1.251278877258300781e+00 6.825014352798461914e-01 -2.131430149078369141e+00 -5.221151709556579590e-01 -6.309615820646286011e-02 5.620358586311340332e-01 -9.836339950561523438e-01 2.909768559038639069e-02 -2.029941044747829437e-02 1.150897070765495300e-01 7.822834700345993042e-02 9.854843840003013611e-03 8.563200384378433228e-02
-7.615813612937927246e-02 4.284645244479179382e-02 -1.867925077676773071e-01 -9.613653272390365601e-02 -2.902477383613586426e-01 -5.033594369888305664e-02 9.681011736392974854e-02 -5.451654549688100815e-03 4.236109182238578796e-02 -1.120083872228860855e-02 8.654061704874038696e-02 -4.034969583153724670e-02 -4.637341946363449097e-02 2.153374440968036652e-02 -2.867399016395211220e-03 -1.548777073621749878e-01 -1.567969471216201782e-01 -1.374501138925552368e-01 -2.475823909044265747e-01 -2.776700630784034729e-02 6.503835320472717285e-02 -1.735778339207172394e-02 4.200114682316780090e-02 -1.757238991558551788e-02 4.790090769529342651e-02 3.096099384129047394e-02 1.025689113885164261e-02 -4.098888114094734192e-02 4.904244840145111084e-02 1.570707708597183228e-01 -1.256494522094726562e-01 -6.456341594457626343e-02 -2.260252237319946289e-01 -3.785167587921023369e-03 8.545405417680740356e-02 -5.745934695005416870e-02 9.746219962835311890e-02 -2.697886154055595398e-02 9.767372161149978638e-02 -4.783582687377929688e-02 5.121073871850967407e-02 -1.452763751149177551e-02 8.296221494674682617e-03 1.006579846143722534e-01 -1.118523627519607544e-01 -1.758227795362472534e-01 -1.663561016321182251e-01 8.075409382581710815e-02 9.705542773008346558e-02 -1.153617259114980698e-02 -1.038898341357707977e-02 9.324976801872253418e-02 -3.210547193884849548e-02 5.419281125068664551e-02 -4.545286297798156738e-02 -2.892289496958255768e-02 -2.361174486577510834e-02 -1.402614116668701172e-01 -1.642914563417434692e-01 -3.137549012899398804e-02 -1.060153096914291382e-01 1.602608337998390198e-02 5.009765550494194031e-02 -1.646535992622375488e-01 2.789707295596599579e-02 -8.580298721790313721e-02 8.614621311426162720e-02 -2.575572580099105835e-02 4.335139319300651550e-02 2.569404244422912598e-02 6.626717001199722290e-02 3.728825747966766357e-01 -2.360259294509887695e-01 -1.616225242614746094e-01 -2.056232094764709473e-01 1.187705248594284058e-01 2.089262008666992188e-02 1.560085117816925049e-01 2.664306201040744781e-02 -1.696883141994476318e-02 -3.864438831806182861e-02 -8.867469429969787598e-02 -2.690796926617622375e-02 5.476134829223155975e-03 3.455695882439613342e-02 -5.160659551620483398e-03 -3.623292744159698486e-01 2.188355624675750732e-01 -1.560045927762985229e-01 -4.637648910284042358e-02 3.245775774121284485e-02 6.790680438280105591e-02 8.443836867809295654e-02 5.622203275561332703e-02 3.152800723910331726e-02 1.284625977277755737e-01 4.638216271996498108e-02 1.755918189883232117e-02 -3.119289316236972809e-02 -2.317339330911636353e-01 -4.480499923229217529e-01 4.783721268177032471e-01 -3.248707950115203857e-01 -8.301088213920593262e-02 1.206621229648590088e-01 4.222273826599121094e-02 7.427131384611129761e-02 -6.842844933271408081e-02 -6.002258509397506714e-02 -1.484861075878143311e-01 -1.015406772494316101e-01 1.375994551926851273e-02 -3.521481156349182129e-02 6.285641789436340332e-01 -5.065124630928039551e-01 -4.150687754154205322e-01 -3.456418216228485107e-01 2.209514379501342773e-01 7.123307883739471436e-02 2.904765605926513672e-01 9.926582872867584229e-02 9.258030354976654053e-02 9.355516731739044189e-02 3.109241649508476257e-02 -7.500578183680772781e-03 4.392896965146064758e-02 1.881831139326095581e-02 -7.766994237899780273e-01 -5.359633564949035645e-01 3.332047164440155029e-01 -2.337266504764556885e-01 -2.084517329931259155e-01 1.470775753259658813e-01 -2.845566272735595703e-01 2.719531208276748657e-02 -1.569488085806369781e-02 9.091194719076156616e-02 9.914314001798629761e-02 -3.822010755538940430e-02 -5.227572843432426453e-02
-2.554613398388028145e-03 2.229208946228027344e-01 -1.164621859788894653e-02 4.796812236309051514e-01 -3.432144224643707275e-01 1.352677196264266968e-01 -4.257107675075531006e-01 -4.678577184677124023e-02 -3.783838823437690735e-02 7.643708586692810059e-02 2.383825369179248810e-02 -4.531233385205268860e-02 -1.448293402791023254e-02 4.245197866111993790e-03 1.331720966845750809e-02 -1.939846426248550415e-01 1.318955123424530029e-01 1.835988014936447144e-01 -2.035664319992065430e-01 -7.038550078868865967e-02 -4.287211000919342041e-01 -1.036464571952819824e-01 7.096276432275772095e-02 -7.161270827054977417e-03 5.503380298614501953e-02 5.856504663825035095e-02 3.970962762832641602e-02 4.407220706343650818e-02 -5.330280587077140808e-02 9.784136712551116943e-02 9.052696824073791504e-02 -1.629422903060913086e-01 -2.116819173097610474e-01 -1.431864798069000244e-01 -3.519367277622222900e-01 1.465075910091400146e-01 1.954403705894947052e-02 -9.867023676633834839e-02 3.565198928117752075e-02 -1.114429999142885208e-02 1.481909677386283875e-02 -4.170286655426025391e-02 1.241593211889266968e-01 -8.834496885538101196e-02 1.888390481472015381e-01 -4.200751185417175293e-01 -2.544308602809906006e-01 2.241619229316711426e-01 -4.703923165798187256e-01 -1.123177632689476013e-01 -1.257196813821792603e-02 6.383690237998962402e-02 8.314723521471023560e-02 1.369023025035858154e-01 -6.200300157070159912e-02 -3.296968294307589531e-03 9.787022322416305542e-02 1.786643266677856445e-01 5.248706042766571045e-02 -5.191447734832763672e-01 -2.639116644859313965e-01 -2.304952144622802734e-01 -3.553362190723419189e-01 -3.964334353804588318e-02 2.386743435636162758e-03 -3.218710049986839294e-02 2.466028369963169098e-02 -1.549544185400009155e-01 5.942058563232421875e-02 9.869737550616264343e-03 6.712087243795394897e-02 -2.597057446837425232e-02 1.734972745180130005e-02 -3.488718271255493164e-01 -2.156696170568466187e-01 1.234980151057243347e-01 -4.785403609275817871e-01 -8.177237212657928467e-02 9.750857204198837280e-02 1.323892455548048019e-02 5.340386927127838135e-02 2.092486433684825897e-02 -7.201472297310829163e-03 2.059715241193771362e-02 8.662071079015731812e-02 -2.692779302597045898e-01 -3.772541508078575134e-02 -7.126557230949401855e-01 -3.618871271610260010e-01 9.716915898025035858e-03 -4.429228305816650391e-01 1.356813162565231323e-01 -2.381972223520278931e-02 -1.314147002995014191e-02 4.155479837208986282e-03 1.172822117805480957e-01 -5.186784546822309494e-04 -2.007017657160758972e-02 -1.341311447322368622e-02 4.342586994171142578e-01 -3.802771121263504028e-02 5.407629013061523438e-01 -3.898864686489105225e-01 -3.411103188991546631e-01 -4.396688342094421387e-01 -7.530467957258224487e-02 9.103162214159965515e-03 -1.739117130637168884e-02 6.244605407118797302e-02 -1.286019384860992432e-01 1.385346055030822754e-03 1.098574721254408360e-03 -2.842313144356012344e-03 -4.552605450153350830e-01 -4.716629162430763245e-02 -5.007411241531372070e-01 -3.685125410556793213e-01 6.054903268814086914e-01 -5.005462765693664551e-01 -3.105312958359718323e-02 -6.388682126998901367e-02 2.855383604764938354e-02 1.194334924221038818e-01 8.983601629734039307e-02 9.811400435864925385e-03 -1.403445028699934483e-03 -2.028043121099472046e-01 1.129404976963996887e-01 -9.487230330705642700e-03 1.431003332138061523e+00 -3.612466454505920410e-01 -3.328449428081512451e-01 -4.965513944625854492e-01 1.025342047214508057e-01 -7.013883441686630249e-03 -2.714472264051437378e-02 6.588839739561080933e-02 -1.097296364605426788e-02 -4.436587914824485779e-02 -3.989122435450553894e-02
-1.486782729625701904e-01 4.799548089504241943e-01 -9.666884690523147583e-02 -9.961957335472106934e-01 7.658658176660537720e-02 3.489871323108673096e-01 -2.321250736713409424e-02 -1.829528957605361938e-01 -1.473376303911209106e-01 -2.134431302547454834e-01 5.351622402667999268e-02 1.141572892665863037e-01 1.504217181354761124e-02 9.473599493503570557e-02 -5.073150619864463806e-02 1.936478316783905029e-01 -2.385215461254119873e-01 -4.036583378911018372e-02 1.705301254987716675e-01 -2.500075697898864746e-01 1.141894981265068054e-01 -6.988917291164398193e-02 -1.422057952731847763e-02 1.582451611757278442e-01 -8.519061654806137085e-02 -1.476505994796752930e-01 6.946570426225662231e-02 -1.327438503503799438e-01 1.229454353451728821e-01 3.640057146549224854e-02 -9.774087369441986084e-02 3.872974216938018799e-01 2.169914096593856812e-01 2.422670722007751465e-01 -5.875962600111961365e-02 9.817886352539062500e-02 -4.782279487699270248e-03 1.684067249298095703e-01 -7.555047422647476196e-02 -6.711575388908386230e-02 -3.228602185845375061e-02 8.822862803936004639e-02 1.261105537414550781e-01 -2.252403646707534790e-01 -1.068822443485260010e-01 5.297755002975463867e-01 1.486660987138748169e-01 -5.059850215911865234e-01 -5.416293442249298096e-02 -2.496579438447952271e-01 -8.626399934291839600e-02 -2.409679256379604340e-02 5.740796402096748352e-02 5.113380029797554016e-02 8.164717257022857666e-02 -2.313891798257827759e-02 2.023576498031616211e-01 -2.786706984043121338e-01 -7.484698295593261719e-02 7.887583374977111816e-01 2.424757629632949829e-01 -5.337589886039495468e-03 -5.896242335438728333e-02 -4.780817329883575439e-01 6.137605011463165283e-02 -2.205302938818931580e-02 -1.001020334661006927e-02 -1.953235641121864319e-02 -4.035673290491104126e-02 -1.238323673605918884e-01 1.603984236717224121e-01 -4.554006159305572510e-01 -5.517067387700080872e-02 5.316151976585388184e-01 1.270927637815475464e-01 3.488875925540924072e-02 -5.498267337679862976e-02 -2.685754001140594482e-01 -6.040292978286743164e-02 -7.117253541946411133e-02 1.758904568850994110e-02 -9.071677178144454956e-02 -3.348063677549362183e-02 1.130960062146186829e-01 3.123328648507595062e-02 -3.626421093940734863e-01 -9.687497280538082123e-03 5.327811837196350098e-01 6.393870711326599121e-02 -3.770369887351989746e-01 -8.294826000928878784e-02 2.463229447603225708e-01 9.192058444023132324e-02 1.461109668016433716e-01 1.212981622666120529e-02 1.507578343152999878e-01 3.927086945623159409e-03 -1.826319843530654907e-02 -9.579230844974517822e-02 -1.039857976138591766e-02 3.072953782975673676e-02 6.737961769104003906e-01 1.481529674492776394e-03 9.723337739706039429e-02 5.549148470163345337e-02 9.481437206268310547e-01 1.052276194095611572e-01 -1.175056323409080505e-01 3.218327090144157410e-02 -7.727636396884918213e-02 3.933179378509521484e-02 -3.442107513546943665e-02 -1.435828357934951782e-01 -7.437972426414489746e-01 1.654699891805648804e-01 -1.075584173202514648e+00 6.454262882471084595e-02 -4.512091577053070068e-01 -9.111472964286804199e-02 -1.896803379058837891e-01 7.378561794757843018e-02 -3.659263625741004944e-02 -1.017161384224891663e-01 -1.008177176117897034e-01 -4.621120169758796692e-02 8.398909866809844971e-02 -2.706690132617950439e-01 8.575021624565124512e-01 1.358787566423416138e-01 -9.119145274162292480e-01 -3.434808179736137390e-02 4.698768556118011475e-01 4.038286581635475159e-02 -1.727305054664611816e-01 -1.198514550924301147e-02 -2.361388318240642548e-02 -3.600956872105598450e-03 2.201019078493118286e-01 -1.921002566814422607e-02 -6.786172278225421906e-03
7.364735007286071777e-02 -3.622229993343353271e-01 8.787969499826431274e-02 2.069982886314392090e-01 -2.038842812180519104e-02 -3.191600739955902100e-01 -3.362246975302696228e-02 3.887211158871650696e-02 5.917933955788612366e-02 1.973881945013999939e-02 5.899157747626304626e-02 -1.364970393478870392e-02 -5.949945375323295593e-02 1.804140396416187286e-02 3.086060285568237305e-02 -1.466263979673385620e-01 -7.347706705331802368e-02 -1.094577908515930176e-01 -1.420933306217193604e-01 -3.174909949302673340e-02 3.068583458662033081e-02 -1.752489060163497925e-02 7.495804689824581146e-03 4.450884833931922913e-02 6.501293927431106567e-02 -4.189309664070606232e-03 5.635147541761398315e-02 -2.150067128241062164e-02 -5.458191409707069397e-02 1.428469717502593994e-01 -7.124999538064002991e-03 -2.493442296981811523e-01 -7.667557895183563232e-02 -3.326463326811790466e-02 9.917726740241050720e-03 1.658843606710433960e-01 2.222816273570060730e-02 -5.541868880391120911e-02 -6.131878122687339783e-02 1.201432794332504272e-01 1.716218143701553345e-02 -7.971125096082687378e-02 -1.254040598869323730e-01 3.407770395278930664e-01 7.331055589020252228e-03 1.266262829303741455e-01 -1.345127075910568237e-01 3.723232448101043701e-01 1.011446043848991394e-01 -1.848067343235015869e-01 3.491507098078727722e-02 -1.837742514908313751e-02 -5.556640028953552246e-02 -7.069181650876998901e-02 -1.031857170164585114e-02 5.419418588280677795e-02 -2.000315301120281219e-02 4.385042786598205566e-01 -8.699978142976760864e-02 -2.034482657909393311e-01 -9.539132565259933472e-02 2.754642367362976074e-01 1.055128052830696106e-01 2.095605731010437012e-01 7.510351482778787613e-03 2.477257512509822845e-02 5.443449318408966064e-02 -1.400821506977081299e-01 7.681488245725631714e-02 3.078934922814369202e-02 -7.198947481811046600e-03 7.976035475730895996e-01 1.145776063203811646e-01 4.625869691371917725e-01 -2.258033305406570435e-01 2.787073552608489990e-01 8.645965158939361572e-02 -1.445890367031097412e-01 4.013301059603691101e-02 -3.256509825587272644e-02 6.626962870359420776e-02 1.324737668037414551e-01 -2.238549105823040009e-02 1.734691113233566284e-02 -8.664754219353199005e-03 3.564153313636779785e-01 1.620998233556747437e-01 -5.606707185506820679e-03 -1.936420202255249023e-01 3.368270099163055420e-01 3.197550773620605469e-02 -4.831539690494537354e-01 -9.345050156116485596e-02 -1.341424137353897095e-02 -3.515182062983512878e-02 6.426987797021865845e-02 -1.780567131936550140e-02 1.937796361744403839e-02 5.251328647136688232e-02 1.647223830223083496e-01 2.958444356918334961e-01 -3.835563659667968750e-01 -1.639481633901596069e-01 -5.250802263617515564e-02 6.451727449893951416e-02 1.363691985607147217e-01 -5.806995183229446411e-02 -2.886718884110450745e-02 -5.633562803268432617e-02 1.981183141469955444e-02 -7.872357033193111420e-03 -1.057283356785774231e-01 6.203148886561393738e-02 -8.842429518699645996e-02 3.989974856376647949e-01 7.660505771636962891e-01 -1.025000736117362976e-01 -2.720920145511627197e-01 -2.040117233991622925e-02 2.328445762395858765e-01 -4.920364171266555786e-02 7.025729864835739136e-02 -8.490794152021408081e-02 -1.376387774944305420e-01 3.288722410798072815e-02 1.180926710367202759e-01 -2.816791459918022156e-02 -1.923885345458984375e+00 3.932957947254180908e-01 -3.612528145313262939e-01 -2.501225173473358154e-01 -9.658656716346740723e-01 -4.407834634184837341e-02 7.034431397914886475e-02 -2.911637537181377411e-02 -1.508008129894733429e-02 -6.624132394790649414e-02 -3.501986851915717125e-03 -2.249170467257499695e-02 -3.827451914548873901e-02
3.331892937421798706e-02 -5.055886507034301758e-01 4.734635949134826660e-01 -3.450323045253753662e-01 -4.310004711151123047e-01 -5.897839367389678955e-02 5.632734894752502441e-01 7.992230355739593506e-02 8.643629401922225952e-02 -6.595461815595626831e-02 -7.877032272517681122e-03 1.970616355538368225e-02 -2.653959579765796661e-02 -6.148484721779823303e-02 -4.270918294787406921e-02 2.589418739080429077e-02 3.682749271392822266e-01 -6.451655924320220947e-02 -4.797787964344024658e-01 1.449366807937622070e-01 5.493230223655700684e-01 -2.213976681232452393e-01 1.156303659081459045e-01 5.218583345413208008e-02 8.123645186424255371e-02 4.628226533532142639e-02 4.521237313747406006e-02 -6.394092738628387451e-02 -5.443902313709259033e-02 -1.761524528264999390e-01 4.227842390537261963e-01 -7.638573646545410156e-02 -4.488466680049896240e-01 -3.343810141086578369e-01 5.593638420104980469e-01 9.575445204973220825e-02 -4.754457250237464905e-02 1.084995567798614502e-01 6.349913030862808228e-02 -1.465557962656021118e-01 -4.508240148425102234e-02 1.007786169648170471e-01 -7.057681679725646973e-02 5.459073781967163086e-01 4.166273474693298340e-01 3.829955160617828369e-01 -5.411494970321655273e-01 2.702994346618652344e-01 6.125411987304687500e-01 1.632646769285202026e-01 6.946210563182830811e-02 -1.428479850292205811e-01 -2.021031081676483154e-02 1.474218815565109253e-01 -8.793567121028900146e-02 6.217273417860269547e-03 9.838446043431758881e-03 2.650307118892669678e-01 4.481353461742401123e-01 8.051709830760955811e-02 -4.739071428775787354e-01 -3.366006538271903992e-02 5.400109887123107910e-01 -4.319649934768676758e-02 -4.362551495432853699e-02 7.599467784166336060e-02 6.935789436101913452e-02 -8.954982459545135498e-02 -8.903237432241439819e-02 -2.879220433533191681e-02 -6.235779449343681335e-02 2.048923671245574951e-01 5.408301949501037598e-01 -1.433996297419071198e-02 -4.653381407260894775e-01 2.009555324912071228e-02 6.200765371322631836e-01 4.631036818027496338e-01 -1.084031653590500355e-03 4.302826896309852600e-02 4.223684221506118774e-02 -1.028487533330917358e-01 -1.312205102294683456e-02 -6.074007600545883179e-02 -7.126931846141815186e-02 1.012336015701293945e+00 5.869407653808593750e-01 8.345168232917785645e-01 -5.105443000793457031e-01 5.863848701119422913e-02 6.048833727836608887e-01 -1.424789130687713623e-01 6.485760957002639771e-02 -1.447179466485977173e-01 2.022515423595905304e-02 4.510528743267059326e-01 5.714548751711845398e-02 1.076480224728584290e-01 1.077670454978942871e-01 1.374191343784332275e-01 4.677351713180541992e-01 -6.535581350326538086e-01 -4.760409295558929443e-01 -3.182318061590194702e-02 6.072686910629272461e-01 1.747854650020599365e-01 -1.594448089599609375e-02 2.888849973678588867e-01 -6.785363424569368362e-03 -4.465241730213165283e-01 2.977942302823066711e-02 -4.563395678997039795e-02 9.164349734783172607e-02 -4.283595383167266846e-01 5.982992649078369141e-01 2.661428451538085938e-01 -5.573682785034179688e-01 1.097295880317687988e-01 6.534690856933593750e-01 -2.899128496646881104e-01 -5.629891157150268555e-02 -4.990321397781372070e-02 -4.629306495189666748e-02 2.565674185752868652e-01 6.036099418997764587e-02 3.780725970864295959e-02 8.809736929833889008e-03 -1.086391448974609375e+00 6.469196081161499023e-01 -4.035045206546783447e-01 -4.992431104183197021e-01 -1.820283681154251099e-01 5.750703215599060059e-01 -1.926553398370742798e-01 2.604603581130504608e-02 -1.595981568098068237e-01 -5.765793472528457642e-02 -1.137709617614746094e-01 -5.792044103145599365e-02 -5.597821436822414398e-03
-7.479701191186904907e-02 2.034539356827735901e-02 4.811380207538604736e-01 -1.725643500685691833e-02 8.492603152990341187e-02 -4.079678282141685486e-02 1.233030706644058228e-01 3.817234188318252563e-02 -2.418531291186809540e-02 -7.287058397196233273e-04 -6.301753968000411987e-02 4.738998785614967346e-02 -5.658871680498123169e-02 -1.322778873145580292e-02 -7.379204034805297852e-02 -1.025676727294921875e-01 4.015241861343383789e-01 2.957464158535003662e-01 6.271388381719589233e-02 -1.204354106448590755e-03 5.226816982030868530e-02 -2.883188985288143158e-02 -8.042587339878082275e-02 -4.076001700013875961e-03 6.471861153841018677e-02 -3.942644968628883362e-02 -1.991101354360580444e-02 2.469342900440096855e-03 -2.529133670032024384e-02 -6.646805442869663239e-03 3.963479101657867432e-01 4.144861921668052673e-02 -8.869749493896961212e-03 -3.546620532870292664e-02 2.274519018828868866e-02 -2.218485996127128601e-02 -8.747433125972747803e-02 -2.932579722255468369e-03 -6.457548006437718868e-04 6.258223205804824829e-02 3.544492274522781372e-02 2.525165677070617676e-02 7.165596634149551392e-02 -2.966529130935668945e-02 3.364747166633605957e-01 5.565555393695831299e-02 5.279722809791564941e-02 1.003085356205701828e-02 -3.186738118529319763e-02 -9.954757988452911377e-02 -4.956354945898056030e-02 9.676628746092319489e-03 -1.989296264946460724e-02 -8.767469972372055054e-02 -4.698720201849937439e-02 -9.401408024132251740e-03 7.100511807948350906e-03 3.255792334675788879e-02 3.093659877777099609e-01 -1.422639191150665283e-01 6.640698295086622238e-03 -3.995788842439651489e-02 1.893307641148567200e-02 8.541782200336456299e-02 8.309165388345718384e-02 -1.859894581139087677e-02 -6.780295073986053467e-02 -1.169640012085437775e-02 -5.397452414035797119e-02 -3.820903971791267395e-02 8.644825220108032227e-02 6.660977751016616821e-02 4.919313490390777588e-01 1.121285408735275269e-01 1.731238886713981628e-02 -8.567433804273605347e-03 7.407656311988830566e-02 -1.560668051242828369e-01 1.965714618563652039e-02 2.319176867604255676e-02 5.996616184711456299e-02 9.721220284700393677e-02 7.408115267753601074e-02 6.360509246587753296e-02 3.472413402050733566e-03 2.931460924446582794e-02 7.284137010574340820e-01 -2.980000674724578857e-01 9.305282682180404663e-02 9.389314055442810059e-02 8.467587083578109741e-02 2.587249577045440674e-01 -1.791816391050815582e-02 -7.728276401758193970e-02 2.621276304125785828e-02 -1.513556689023971558e-01 4.328694567084312439e-02 -1.447790022939443588e-02 4.004940763115882874e-02 1.893324255943298340e-01 7.644246816635131836e-01 6.819010525941848755e-02 6.571024656295776367e-02 -2.786227874457836151e-02 1.079216450452804565e-01 2.600760571658611298e-02 8.690310269594192505e-02 6.443657726049423218e-02 5.254503712058067322e-02 1.388066709041595459e-01 -6.534042954444885254e-02 -2.699880674481391907e-02 2.844617515802383423e-02 -1.443334221839904785e-01 9.249976873397827148e-01 -1.848956942558288574e-01 -4.014829639345407486e-03 8.751353621482849121e-02 2.020902186632156372e-02 -1.722132563591003418e-01 6.394537538290023804e-02 -4.543599113821983337e-02 1.998667605221271515e-02 -8.549624681472778320e-02 7.769655436277389526e-02 5.638882983475923538e-03 -7.905831187963485718e-02 -5.230407044291496277e-02 9.450293183326721191e-01 1.019086763262748718e-01 1.479634363204240799e-02 -3.692450001835823059e-02 4.801507573574781418e-03 7.072714716196060181e-02 1.406267751008272171e-02 4.636728763580322266e-02 -6.836135685443878174e-02 1.570289209485054016e-02 5.283572245389223099e-04 -3.731724806129932404e-03
-2.257487038150429726e-03 1.341707557439804077e-01 8.062490820884704590e-02 9.008374065160751343e-02 2.890934934839606285e-03 2.971655130386352539e-02 4.871974885463714600e-02 2.326860427856445312e-01 7.940200716257095337e-02 -6.468880921602249146e-02 2.366092288866639137e-03 -8.401440083980560303e-02 -4.561236500740051270e-02 -3.173404932022094727e-02 5.681205540895462036e-02 1.397267356514930725e-02 1.092147547751665115e-02 -8.148586377501487732e-03 -9.027083218097686768e-02 -1.952127180993556976e-02 4.249586910009384155e-02 5.005539059638977051e-01 5.041320994496345520e-02 5.774608254432678223e-02 3.233446925878524780e-02 1.390682458877563477e-01 9.406543523073196411e-02 3.826255723834037781e-02 -6.952012330293655396e-02 -8.180676400661468506e-02 6.440079957246780396e-02 9.981579333543777466e-02 -5.989903956651687622e-02 6.627018004655838013e-02 -4.479933157563209534e-02 1.976394504308700562e-01 -5.536878108978271484e-02 1.725024916231632233e-02 1.296394877135753632e-02 -3.707762062549591064e-02 7.702279835939407349e-02 2.384748682379722595e-02 -4.452480748295783997e-02 5.714068934321403503e-02 1.703853160142898560e-01 -6.766675412654876709e-02 5.158237740397453308e-02 -2.497595995664596558e-01 -6.273367255926132202e-02 3.250939026474952698e-02 9.462965535931289196e-04 -1.044513434171676636e-01 1.470344047993421555e-02 -6.560178846120834351e-02 1.337281893938779831e-02 -1.746419072151184082e-02 -3.698548302054405212e-02 -5.898422375321388245e-02 1.732573658227920532e-01 -2.536945044994354248e-01 4.567286372184753418e-02 1.533446013927459717e-01 -1.266391947865486145e-02 9.904815256595611572e-02 -3.706347569823265076e-02 1.101621314883232117e-01 -5.937128886580467224e-02 3.310679644346237183e-02 1.330242399126291275e-02 3.685153275728225708e-02 -1.033171489834785461e-01 -1.686613112688064575e-01 9.371305257081985474e-02 9.961723536252975464e-02 -2.149047702550888062e-02 4.551357403397560120e-02 4.553219303488731384e-02 -2.630879580974578857e-01 -2.984865382313728333e-02 2.692811004817485809e-02 -9.203036874532699585e-02 2.227969318628311157e-01 -8.921300619840621948e-02 -3.649307414889335632e-02 -8.070517331361770630e-02 6.828093901276588440e-03 -6.776043027639389038e-02 -4.548123478889465332e-01 3.205245733261108398e-02 -1.349168419837951660e-01 3.357004374265670776e-02 -7.946530580520629883e-01 -6.102376431226730347e-02 -5.446818470954895020e-02 -2.226413786411285400e-02 -3.953128755092620850e-01 5.082917213439941406e-02 -7.733008265495300293e-02 6.220409646630287170e-02 -1.147668883204460144e-01 -1.249587610363960266e-01 4.526135325431823730e-01 6.554516497999429703e-03 2.200579047203063965e-01 3.383090719580650330e-02 4.398926794528961182e-01 -4.255584999918937683e-02 7.250626385211944580e-02 4.716131836175918579e-02 6.177268624305725098e-01 -8.058656752109527588e-02 1.374515444040298462e-01 1.081635057926177979e-01 5.840229336172342300e-03 -2.179709225893020630e-01 1.389174312353134155e-01 1.693667843937873840e-02 -5.831173062324523926e-02 1.225427538156509399e-01 7.708562016487121582e-01 1.060881540179252625e-01 -1.940078586339950562e-01 4.331316053867340088e-02 -6.168499588966369629e-01 -9.718821384012699127e-03 -7.236190140247344971e-02 1.048630252480506897e-01 1.850454807281494141e-01 -2.011470198631286621e-01 -6.416089832782745361e-02 3.667191788554191589e-02 -7.001302391290664673e-02 4.101397097110748291e-02 1.147581934928894043e+00 -1.730383187532424927e-02 1.309169381856918335e-01 3.440952673554420471e-02 1.766647696495056152e-01 -2.601670846343040466e-02 -9.596258401870727539e-03
-7.507889717817306519e-02 1.751427650451660156e-01 2.674514651298522949e-01 2.273687720298767090e-01 3.297135233879089355e-01 -2.350552380084991455e-02 2.918497323989868164e-01 5.019389465451240540e-02 -5.277946591377258301e-03 7.326993346214294434e-02 6.926821917295455933e-02 2.256186679005622864e-02 7.539107650518417358e-02 3.215755894780158997e-02 -1.050658058375120163e-02 -2.498416006565093994e-01 2.317579835653305054e-01 5.021800845861434937e-02 3.450249731540679932e-01 -6.349790096282958984e-02 4.022156894207000732e-01 -4.624697938561439514e-02 5.167844146490097046e-02 2.237531542778015137e-02 -5.353158712387084961e-02 -4.054966568946838379e-02 8.667310327291488647e-02 -8.626047521829605103e-03 -2.687167003750801086e-02 -1.444922983646392822e-01 3.109650611877441406e-01 2.582647092640399933e-02 4.587317407131195068e-01 -1.482135802507400513e-01 3.680314421653747559e-01 1.759375929832458496e-01 -2.704263897612690926e-03 -1.947864294052124023e-01 -1.845655217766761780e-02 1.078174337744712830e-01 -2.938338741660118103e-02 1.688257604837417603e-02 4.591709747910499573e-02 1.352297663688659668e-01 2.484153062105178833e-01 -5.609883740544319153e-02 4.713041484355926514e-01 3.975693285465240479e-01 2.421499788761138916e-01 -3.638147190213203430e-02 -3.683055983856320381e-03 9.661967307329177856e-02 2.199302660301327705e-03 -9.765780717134475708e-02 -5.624841153621673584e-02 -7.117570191621780396e-02 2.145764045417308807e-02 -1.741030812263488770e-01 2.234764248132705688e-01 2.132989764213562012e-01 4.170675277709960938e-01 2.759517356753349304e-02 3.295471370220184326e-01 -6.489145010709762573e-02 -7.587859034538269043e-02 3.511511534452438354e-02 -2.368674799799919128e-02 4.438802227377891541e-02 -3.682798519730567932e-02 4.556409642100334167e-02 3.790317801758646965e-03 2.019499093294143677e-01 3.426403999328613281e-01 -2.365214377641677856e-01 3.638609945774078369e-01 2.694807350635528564e-01 3.431105911731719971e-01 2.862495481967926025e-01 4.324859008193016052e-02 -7.332629710435867310e-02 5.504594370722770691e-02 2.885918365791440010e-03 -7.853125780820846558e-02 -4.869185388088226318e-03 -9.520908817648887634e-03 -5.098127573728561401e-02 3.374674320220947266e-01 2.166509181261062622e-01 4.116817414760589600e-01 1.330817043781280518e-01 3.423051536083221436e-01 -7.284087687730789185e-02 -4.097143560647964478e-02 8.994075655937194824e-02 8.825002610683441162e-02 -5.960569903254508972e-02 -1.171909971162676811e-03 1.659205742180347443e-02 -2.022464573383331299e-02 2.096263319253921509e-02 3.189988732337951660e-01 -1.019224882125854492e+00 3.269841074943542480e-01 -4.801673591136932373e-01 2.666127979755401611e-01 -8.226100355386734009e-02 2.704999782145023346e-02 -2.184564024209976196e-01 -6.346603482961654663e-02 7.007374614477157593e-02 -4.611989483237266541e-02 -2.478842064738273621e-02 2.174639888107776642e-02 2.021397501230239868e-01 3.740216791629791260e-01 9.377846121788024902e-01 4.745665192604064941e-01 7.240377366542816162e-02 2.383526116609573364e-01 -1.330435043200850487e-03 7.359497994184494019e-02 1.080272942781448364e-01 4.122643545269966125e-02 -3.053652122616767883e-02 2.303337119519710541e-02 1.350857596844434738e-02 3.196651488542556763e-02 -1.329032927751541138e-01 5.116510987281799316e-01 -3.321144580841064453e-01 3.792888820171356201e-01 -1.496385782957077026e-01 2.235875725746154785e-01 -1.890048533678054810e-01 3.874320164322853088e-02 5.420405045151710510e-02 6.782736629247665405e-02 -2.106311963871121407e-03 -3.139729797840118408e-02 2.087613102048635483e-03
-9.999179095029830933e-02 2.167194634675979614e-01 4.266713857650756836e-01 3.424881100654602051e-01 -1.025791838765144348e-01 -5.332618951797485352e-01 1.131421551108360291e-01 2.897801399230957031e-01 8.481490612030029297e-02 7.619984913617372513e-03 8.399187773466110229e-02 3.606661036610603333e-02 1.463412190787494183e-03 -2.715506032109260559e-02 -3.561820834875106812e-02 -8.641456067562103271e-02 5.018517374992370605e-01 2.088191919028759003e-02 -7.591244578361511230e-02 8.569712191820144653e-02 1.534842699766159058e-01 -2.383714318275451660e-01 3.496669977903366089e-02 -1.857389807701110840e-01 -1.809339225292205811e-02 -1.702920882962644100e-03 5.860950425267219543e-02 1.009965240955352783e-01 1.033485308289527893e-01 -1.630283296108245850e-01 5.315538048744201660e-01 -3.081203401088714600e-01 -3.127226233482360840e-02 -1.942150108516216278e-02 4.680968448519706726e-02 -9.371961653232574463e-02 7.858896255493164062e-02 2.592265903949737549e-01 8.261217176914215088e-02 -2.969499677419662476e-03 -1.432059798389673233e-03 -9.611770510673522949e-02 1.167878210544586182e-01 7.211720105260610580e-03 5.359199047088623047e-01 -1.626839935779571533e-01 -9.060149639844894409e-02 1.347615569829940796e-01 1.529732197523117065e-01 -9.497399628162384033e-02 1.612513884902000427e-02 -2.944083809852600098e-01 2.526248618960380554e-02 1.924393773078918457e-01 -1.773419789969921112e-02 4.832173138856887817e-02 1.054966002702713013e-01 -4.219126403331756592e-01 4.972020387649536133e-01 -5.704770088195800781e-01 -1.111101061105728149e-01 9.675008654594421387e-01 5.357122793793678284e-02 -1.772991269826889038e-01 3.999419044703245163e-03 2.458925992250442505e-01 -5.468719825148582458e-02 -1.314444541931152344e-01 6.997317820787429810e-02 1.826047198846936226e-03 4.522913321852684021e-02 -7.428141236305236816e-01 4.375914335250854492e-01 -1.160762310028076172e+00 -4.169124737381935120e-02 -3.253132402896881104e-01 5.498659238219261169e-02 -2.955816686153411865e-01 -5.322394892573356628e-03 9.262248128652572632e-02 1.441220007836818695e-02 -1.815861649811267853e-02 -5.332314223051071167e-02 5.549317225813865662e-02 5.972160398960113525e-02 -2.669883072376251221e-01 4.242538809776306152e-01 -6.324049085378646851e-02 -9.606323204934597015e-03 6.381964087486267090e-01 1.797626614570617676e-01 -3.873645663261413574e-01 7.330317050218582153e-02 -2.713281512260437012e-01 5.390638485550880432e-02 2.019231617450714111e-01 -1.422297954559326172e-02 -3.600094467401504517e-02 -8.881275355815887451e-02 -4.054691493511199951e-01 4.620239138603210449e-01 -1.262722760438919067e-01 -8.055412769317626953e-02 6.834909319877624512e-01 1.260902285575866699e-01 -1.334056705236434937e-01 -8.025897294282913208e-02 4.817197322845458984e-01 2.444217354059219360e-02 -4.009516537189483643e-01 -4.036113992333412170e-02 2.912677265703678131e-02 -8.134361356496810913e-02 5.846108794212341309e-01 4.940489530563354492e-01 -1.207590103149414062e+00 -1.484336256980895996e-01 -1.413151741027832031e+00 1.884374022483825684e-01 3.708507120609283447e-01 2.364398352801799774e-02 -2.319290041923522949e-01 -4.410410672426223755e-02 1.074085384607315063e-01 7.541651371866464615e-03 -1.060498058795928955e-01 -5.881815031170845032e-02 1.281981348991394043e+00 5.002890825271606445e-01 3.311068296432495117e+00 -4.102938249707221985e-02 -2.593386471271514893e-01 3.702995553612709045e-02 8.206568956375122070e-01 -4.747718945145606995e-02 -8.979837596416473389e-02 -2.009831368923187256e-02 -4.458358045667409897e-03 5.412339791655540466e-02 2.270610444247722626e-02
-8.610780537128448486e-02 9.539355337619781494e-02 -1.099845841526985168e-01 3.831295669078826904e-01 -1.620016992092132568e-01 2.736203186213970184e-02 1.520256102085113525e-01 -3.003497123718261719e-01 -3.245827257633209229e-01 5.436503887176513672e-02 -3.080440759658813477e-01 5.017388984560966492e-02 -9.570953994989395142e-02 6.743178516626358032e-02 -8.365438878536224365e-02 -1.912605911493301392e-01 -9.522649645805358887e-02 -1.448026951402425766e-02 -7.158828526735305786e-02 1.882752031087875366e-02 1.815066337585449219e-01 -3.860877826809883118e-03 -3.926960229873657227e-01 8.911570534110069275e-03 -3.283922076225280762e-01 -1.139571964740753174e-01 6.713179498910903931e-02 5.588283017277717590e-02 -2.227689512073993683e-02 2.262576669454574585e-01 3.509094566106796265e-02 -2.349482327699661255e-01 -1.031561866402626038e-01 -1.222568526864051819e-01 1.231969669461250305e-01 -3.292088210582733154e-02 -4.286321103572845459e-01 9.582819789648056030e-02 -2.111903429031372070e-01 -6.188493221998214722e-03 5.390241742134094238e-02 -1.292465627193450928e-01 1.309662964195013046e-02 -1.202395632863044739e-01 6.185492500662803650e-02 -1.674199551343917847e-01 -1.026354953646659851e-01 -4.238196834921836853e-02 1.451403349637985229e-01 -7.913085818290710449e-02 -3.795585632324218750e-01 -1.305360794067382812e-01 -2.499052584171295166e-01 9.975559264421463013e-02 -7.732977159321308136e-03 3.791700303554534912e-02 7.074274867773056030e-02 -1.305635124444961548e-01 5.428508296608924866e-02 -3.372196108102798462e-02 -2.100825607776641846e-01 6.557407230138778687e-02 1.206519752740859985e-01 3.192702233791351318e-01 -3.548299372196197510e-01 -1.479570418596267700e-01 -2.521210014820098877e-01 -7.191595435142517090e-02 -5.146930366754531860e-02 5.367597565054893494e-02 1.822575926780700684e-02 -1.346766389906406403e-02 6.034265458583831787e-02 -1.380849778652191162e-01 -9.699559211730957031e-02 -2.003710865974426270e-01 1.675474941730499268e-01 1.402314305305480957e-01 -3.847149610519409180e-01 -2.013407275080680847e-02 -3.012696802616119385e-01 -1.960901618003845215e-01 8.496706187725067139e-02 5.162008851766586304e-02 7.510209083557128906e-02 5.254090204834938049e-02 -3.107619844377040863e-02 -3.529100716114044189e-01 -2.306825369596481323e-01 -2.880067937076091766e-02 1.257464736700057983e-01 3.232984542846679688e-01 -3.977426588535308838e-01 -3.213826417922973633e-01 -1.851766258478164673e-01 7.666363567113876343e-02 1.721878349781036377e-02 -1.779225319623947144e-01 -2.126987837255001068e-02 -2.618915773928165436e-02 8.025801181793212891e-02 9.535732865333557129e-02 -2.077487409114837646e-01 1.056562364101409912e-01 6.363923102617263794e-02 3.411238193511962891e-01 -3.580259382724761963e-01 9.663309901952743530e-03 -3.210709095001220703e-01 -1.915646046400070190e-01 -9.762642905116081238e-03 6.845970451831817627e-02 -2.921396680176258087e-02 1.425643563270568848e-01 -8.885659277439117432e-02 -1.532014310359954834e-01 -1.078541353344917297e-01 -2.017804235219955444e-01 2.402771264314651489e-01 -1.699727326631546021e-01 -2.732514441013336182e-01 4.539628326892852783e-02 -3.362414836883544922e-01 3.759612143039703369e-01 6.873941421508789062e-02 -6.250597536563873291e-02 -1.221693120896816254e-02 -1.536817289888858795e-02 3.407092019915580750e-02 5.890212059020996094e-01 -2.456078678369522095e-01 3.435918986797332764e-01 2.249114960432052612e-01 -5.187222361564636230e-01 -4.222535789012908936e-01 3.961634933948516846e-01 -2.465705275535583496e-01 -1.084709018468856812e-01 3.066321276128292084e-02 3.740049153566360474e-02
-9.979406371712684631e-03 9.639672935009002686e-02 6.378307342529296875e-01 -2.198286950588226318e-01 2.937057018280029297e-01 3.181981742382049561e-01 7.814817130565643311e-02 6.857241690158843994e-02 -3.269639611244201660e-02 7.098213583230972290e-02 -1.995633356273174286e-02 1.003590300679206848e-01 -4.962692782282829285e-02 2.919641509652137756e-02 1.195594668388366699e-02 3.244375064969062805e-02 6.085723042488098145e-01 -1.984629034996032715e-02 3.470802605152130127e-01 -2.604985833168029785e-01 -2.741232980042695999e-03 -2.881329357624053955e-01 -2.586417272686958313e-02 -1.113995630294084549e-02 2.046786434948444366e-02 -1.136324927210807800e-01 -5.940782837569713593e-03 -6.081286445260047913e-02 1.661691963672637939e-01 5.429083108901977539e-01 4.925207793712615967e-01 -1.115831956267356873e-01 2.726942002773284912e-01 1.126694008708000183e-01 9.263251721858978271e-02 4.303972721099853516e-01 2.145607396960258484e-02 -1.550309807062149048e-01 5.126490443944931030e-02 2.128582913428544998e-03 6.339889764785766602e-02 -1.506114751100540161e-02 1.136751100420951843e-01 -7.479922175407409668e-01 5.504609942436218262e-01 3.884044289588928223e-01 3.153681159019470215e-01 -1.843823492527008057e-02 -1.347814034670591354e-02 2.281525358557701111e-02 5.831758957356214523e-03 2.383860647678375244e-01 -6.377556920051574707e-02 -1.033903434872627258e-01 1.513740699738264084e-02 1.348634809255599976e-02 1.222832724452018738e-01 7.558140903711318970e-02 5.385919809341430664e-01 -3.741220384836196899e-02 3.667198717594146729e-01 -5.020891427993774414e-01 6.071214005351066589e-02 -2.294617742300033569e-01 -3.004459477961063385e-02 -1.597093641757965088e-01 -1.887238398194313049e-02 1.685639023780822754e-01 -2.701899595558643341e-02 -4.828042164444923401e-02 6.067131087183952332e-02 -3.091561496257781982e-01 6.206519007682800293e-01 4.800564348697662354e-01 2.014948129653930664e-01 3.130908906459808350e-01 1.048794686794281006e-01 2.460521608591079712e-01 1.213380135595798492e-02 -3.868556022644042969e-02 -6.923604011535644531e-02 -1.717142574489116669e-02 1.239617168903350830e-02 -3.631896898150444031e-02 1.936938054859638214e-02 -1.025594711303710938e+00 6.171884536743164062e-01 -3.886813223361968994e-01 2.155496776103973389e-01 1.050985604524612427e-02 9.503549337387084961e-02 -1.150593757629394531e-01 -8.243444375693798065e-03 2.512783408164978027e-01 -8.869593963027000427e-03 -1.800818443298339844e-01 -2.140826359391212463e-02 1.237004473805427551e-01 -7.244403660297393799e-02 1.449089169502258301e+00 6.963896751403808594e-01 1.282675266265869141e-01 3.382086157798767090e-01 -4.523828029632568359e-01 1.447560545057058334e-02 -1.045343160629272461e+00 9.050451219081878662e-02 -3.282410800457000732e-01 3.754637017846107483e-02 4.283616840839385986e-01 2.837434783577919006e-02 -5.520970374345779419e-02 -2.151657938957214355e-01 -9.220393896102905273e-01 7.338308691978454590e-01 3.871407359838485718e-02 1.756919324398040771e-01 7.380342483520507812e-01 3.305099904537200928e-02 1.155948519706726074e+00 2.821168303489685059e-02 1.575421094894409180e-01 1.941189914941787720e-02 -1.728988587856292725e-01 5.479888059198856354e-03 -3.301140666007995605e-02 -2.195017933845520020e-01 8.242404460906982422e-01 7.903040647506713867e-01 -1.956676989793777466e-01 2.033283412456512451e-01 -2.352905422449111938e-01 5.457248911261558533e-02 -2.396610081195831299e-01 1.115021854639053345e-01 -2.142559736967086792e-02 2.133696526288986206e-02 -1.275033056735992432e-01 -7.113623619079589844e-02 6.625116616487503052e-02
8.923136629164218903e-03 -1.060812920331954956e-01 1.213596910238265991e-01 -4.906259775161743164e-01 -1.343297660350799561e-01 -2.840642929077148438e-01 -6.693518906831741333e-02 1.023082900792360306e-02 3.944782912731170654e-02 -1.622068509459495544e-02 -7.370829116553068161e-03 8.359384536743164062e-02 -5.505286902189254761e-02 -7.039459049701690674e-02 -2.584482310339808464e-03 -1.995982378721237183e-01 1.235598027706146240e-01 -3.296726942062377930e-01 -8.176208287477493286e-02 -1.792745143175125122e-01 -7.044185698032379150e-02 -2.453673183917999268e-01 4.712077975273132324e-02 6.244339421391487122e-02 2.978851832449436188e-02 -2.328361272811889648e-01 -7.521586120128631592e-02 2.500396221876144409e-02 -7.329031825065612793e-02 -2.429314553737640381e-01 -1.236072089523077011e-02 -1.107239499688148499e-01 -2.221921086311340332e-01 -4.643487930297851562e-02 -1.693210154771804810e-01 4.860740303993225098e-01 2.697958424687385559e-02 -9.569799154996871948e-02 -4.975335672497749329e-02 1.319953054189682007e-01 -3.803963214159011841e-02 6.723545491695404053e-02 -1.023076772689819336e-01 4.857612848281860352e-01 1.017811894416809082e-01 -6.949961930513381958e-02 -1.719138771295547485e-01 5.926538631319999695e-02 -1.562694609165191650e-01 1.748800463974475861e-02 -6.246612966060638428e-02 8.044799417257308960e-02 9.446292370557785034e-02 -4.521840810775756836e-02 5.274152010679244995e-02 -4.169775545597076416e-02 -1.281029582023620605e-01 -8.809508383274078369e-02 1.074297726154327393e-01 3.759226799011230469e-01 -2.851899266242980957e-01 7.090955972671508789e-01 -1.169688999652862549e-01 4.663772284984588623e-01 -7.172967493534088135e-02 5.242111906409263611e-02 -2.474893629550933838e-02 4.403241910040378571e-03 3.486755862832069397e-02 -1.245939452201128006e-02 -1.244510989636182785e-02 4.834296703338623047e-01 1.840781606733798981e-02 4.586010575294494629e-01 -2.417788952589035034e-01 1.724555194377899170e-01 -1.274517029523849487e-01 3.547715842723846436e-01 -3.758031502366065979e-02 -8.251808583736419678e-03 1.058771982789039612e-01 1.634878367185592651e-01 1.753290556371212006e-02 -2.308208867907524109e-02 7.408148795366287231e-02 9.390778541564941406e-01 1.161418557167053223e-01 1.184741109609603882e-01 -1.399196386337280273e-01 4.030769765377044678e-01 -1.505171656608581543e-01 -9.937439113855361938e-02 -5.426290445029735565e-03 -4.247222840785980225e-02 9.659591317176818848e-02 -1.336716115474700928e-01 -4.568832367658615112e-02 1.278508640825748444e-02 -1.428648550063371658e-02 -1.208378911018371582e+00 1.791606545448303223e-01 1.335381150245666504e+00 -2.121068537235260010e-01 5.539959073066711426e-01 -1.191303580999374390e-01 -3.126907050609588623e-01 6.858474761247634888e-02 2.975511737167835236e-02 -1.050959993153810501e-02 1.048235967755317688e-01 7.984688133001327515e-02 1.697143726050853729e-02 1.694103032350540161e-01 1.684864640235900879e+00 1.542474925518035889e-01 -7.452381253242492676e-01 -2.111164927482604980e-01 -1.186071395874023438e+00 -1.795763373374938965e-01 -1.816139817237854004e-01 -9.312778711318969727e-02 -5.958120897412300110e-02 -2.799704484641551971e-02 -1.108907237648963928e-01 7.438036799430847168e-02 -8.597180247306823730e-02 6.540123373270034790e-02 -1.751157522201538086e+00 1.222772747278213501e-01 -5.068132877349853516e-01 -2.552548050880432129e-01 -2.154351621866226196e-01 -1.802921742200851440e-01 -5.114969015121459961e-01 -6.437844596803188324e-03 -1.299953926354646683e-02 -5.106352642178535461e-02 4.056043550372123718e-02 -3.404655680060386658e-02 9.662222117185592651e-02
7.158044725656509399e-02 -5.315912142395973206e-02 -2.693694531917572021e-01 8.962361514568328857e-02 3.727211952209472656e-01 -1.978360116481781006e-01 -3.219988048076629639e-01 2.504993677139282227e-01 8.648043125867843628e-02 -8.613421581685543060e-03 -8.658366650342941284e-02 -4.238297790288925171e-02 -4.451417177915573120e-02 -3.330474428366869688e-04 -3.402268141508102417e-02 9.202730655670166016e-02 -2.549076974391937256e-01 -8.654648065567016602e-02 3.598746657371520996e-01 -1.124080494046211243e-01 -2.606958150863647461e-01 -2.296400368213653564e-01 6.599979847669601440e-02 2.120289206504821777e-02 -6.568024307489395142e-02 7.805648446083068848e-02 -6.730786710977554321e-02 2.049482241272926331e-02 -6.379084289073944092e-02 -2.189722210168838501e-01 -2.253533005714416504e-01 -1.645854413509368896e-01 4.006847739219665527e-01 2.300413250923156738e-01 -2.315339893102645874e-01 2.564917691051959991e-02 7.991537451744079590e-02 3.721564635634422302e-02 4.015469178557395935e-02 -1.006355211138725281e-01 5.612198635935783386e-02 -5.042163655161857605e-02 -8.916981518268585205e-02 -1.298602223396301270e-01 -2.966986894607543945e-01 1.911103427410125732e-01 2.882755100727081299e-01 -2.762086093425750732e-01 -2.305463254451751709e-01 -2.231004089117050171e-01 8.449324523098766804e-04 -1.106428653001785278e-01 -3.370144590735435486e-02 7.053256034851074219e-02 4.549876973032951355e-02 6.494542956352233887e-02 1.298088952898979187e-02 -2.169038169085979462e-02 -2.264053076505661011e-01 -2.589727938175201416e-01 3.211137652397155762e-01 4.104064106941223145e-01 -2.639745175838470459e-01 -2.713263332843780518e-01 -5.760763585567474365e-02 2.851445972919464111e-02 2.109636552631855011e-02 -1.120504178106784821e-02 -1.903318800032138824e-02 -4.367514699697494507e-02 -1.221330463886260986e-01 -1.642724871635437012e-01 -4.105187654495239258e-01 -3.912890702486038208e-02 4.065307676792144775e-01 -3.170277550816535950e-02 -2.301795631647109985e-01 -2.658334001898765564e-02 -6.343798339366912842e-02 -4.757423326373100281e-02 -6.805177778005599976e-02 -1.285329163074493408e-01 7.187265157699584961e-02 3.023369237780570984e-02 -3.776153177022933960e-02 1.407440006732940674e-01 -4.796470999717712402e-01 -3.336992114782333374e-02 4.402976632118225098e-01 3.055000491440296173e-02 -2.293660342693328857e-01 -9.769856929779052734e-02 -8.627109229564666748e-02 -4.819462075829505920e-02 1.374954730272293091e-02 1.295771449804306030e-01 5.888475850224494934e-02 7.861841470003128052e-03 -2.080377750098705292e-02 -1.022668182849884033e-01 -5.903839468955993652e-01 -2.134748175740242004e-02 5.514364242553710938e-01 1.019670367240905762e+00 -3.444859087467193604e-01 -1.759358942508697510e-01 8.479183539748191833e-03 1.401199549436569214e-01 -6.413251906633377075e-02 -5.240973830223083496e-02 6.882293522357940674e-02 -2.060772106051445007e-02 1.535915285348892212e-01 5.888600349426269531e-01 -6.469148397445678711e-01 1.592328697443008423e-01 4.407462775707244873e-01 -1.039576292037963867e+00 -3.436822593212127686e-01 6.036584377288818359e-01 -9.921959787607192993e-02 -7.473205775022506714e-02 7.580078393220901489e-02 -1.555473078042268753e-02 -2.990115620195865631e-02 3.464736044406890869e-02 1.321153789758682251e-01 -1.384430229663848877e-01 -5.472933053970336914e-01 1.470079869031906128e-01 5.915726423263549805e-01 -1.182758808135986328e-02 -3.420805633068084717e-01 1.540022194385528564e-01 -7.111248560249805450e-03 6.948229670524597168e-02 7.568834722042083740e-02 6.812378764152526855e-02 -6.798207014799118042e-02 -2.841652743518352509e-02
-4.738041013479232788e-02 7.425284385681152344e-02 -2.025167793035507202e-01 -1.215070206671953201e-02 2.608186304569244385e-01 7.010594010353088379e-02 -1.532026678323745728e-01 1.315022557973861694e-01 2.484386861324310303e-01 4.701607860624790192e-03 1.187427490949630737e-01 5.682125315070152283e-02 1.809250563383102417e-02 -2.099721878767013550e-02 1.995818875730037689e-02 5.809787660837173462e-02 -1.386400461196899414e-01 1.461905539035797119e-01 1.109730377793312073e-01 -7.152943313121795654e-02 -6.816871464252471924e-02 -6.573047488927841187e-02 2.007762044668197632e-01 1.189547777175903320e-02 1.585639566183090210e-01 -3.183281049132347107e-02 3.384126350283622742e-02 2.048929221928119659e-02 5.338564887642860413e-02 2.014947682619094849e-02 -8.961129933595657349e-02 -1.515129208564758301e-01 1.186139956116676331e-01 4.290340468287467957e-02 -1.125025004148483276e-01 -5.330563709139823914e-02 1.689257770776748657e-01 -8.387770503759384155e-02 1.555035263299942017e-01 -6.181568279862403870e-02 -1.143380347639322281e-02 -5.642611999064683914e-03 -4.668354243040084839e-02 -2.122568488121032715e-01 -7.512208819389343262e-02 -2.954847738146781921e-02 1.559183150529861450e-01 -3.757612034678459167e-02 -1.238345056772232056e-01 1.459317561239004135e-02 2.184106260538101196e-01 1.002777069807052612e-01 7.759818434715270996e-02 -1.378133520483970642e-02 -3.554673865437507629e-02 -2.812991105020046234e-02 -5.078849196434020996e-02 -2.040616124868392944e-01 -1.360933035612106323e-01 8.990810252726078033e-03 2.322238534688949585e-01 -3.145024478435516357e-01 -1.725265085697174072e-01 -1.102075502276420593e-01 1.707169264554977417e-01 7.596310693770647049e-03 4.164491966366767883e-02 -3.186550363898277283e-02 4.848711192607879639e-02 7.040528208017349243e-02 1.018910761922597885e-02 -5.427330732345581055e-02 -1.074549257755279541e-01 -2.196307480335235596e-01 2.717213928699493408e-01 1.914387047290802002e-01 -1.967987865209579468e-01 -2.195482514798641205e-02 2.087687551975250244e-01 -5.124349147081375122e-02 1.384895741939544678e-01 -1.407434325665235519e-02 -7.269585132598876953e-02 -3.962428122758865356e-02 2.954981289803981781e-02 -3.665532171726226807e-01 -3.292116522789001465e-01 2.089069485664367676e-01 2.109525650739669800e-01 -1.041362211108207703e-01 -2.106745094060897827e-01 -1.684862077236175537e-01 2.581576406955718994e-01 8.278208225965499878e-02 4.078356176614761353e-02 1.398599743843078613e-01 5.308517441153526306e-02 4.221199452877044678e-02 -7.549205422401428223e-02 3.702651262283325195e-01 -3.667692840099334717e-01 -6.557393074035644531e-02 2.935090065002441406e-01 1.053514257073402405e-01 -1.971077322959899902e-01 1.176003515720367432e-01 1.709656268358230591e-01 -1.205632835626602173e-01 1.222264915704727173e-01 -1.612727195024490356e-01 3.843894228339195251e-02 -2.165890857577323914e-02 8.036622405052185059e-02 -2.319532781839370728e-01 -4.134631752967834473e-01 -4.060697853565216064e-01 3.614597022533416748e-01 4.281895980238914490e-02 -1.297190487384796143e-01 1.722041815519332886e-01 2.877090275287628174e-01 2.894436242058873177e-03 1.668491065502166748e-01 8.949407935142517090e-02 -4.242729023098945618e-02 1.494310423731803894e-02 -2.782394411042332649e-03 5.456007719039916992e-01 -3.485470116138458252e-01 5.205739140510559082e-01 2.923103570938110352e-01 9.410975128412246704e-02 -1.209058687090873718e-01 -1.654038764536380768e-02 1.651540100574493408e-01 6.189282238483428955e-02 1.562317181378602982e-02 2.555938437581062317e-02 -1.000907551497220993e-02 -1.531752198934555054e-02
-1.083105951547622681e-01 8.198670297861099243e-02 6.093389391899108887e-01 1.602246910333633423e-01 3.529399633407592773e-02 -1.143196150660514832e-01 -1.368697918951511383e-02 -8.706951886415481567e-02 -1.058499440550804138e-01 3.368903417140245438e-03 8.526693098247051239e-03 4.206472262740135193e-02 -1.677940040826797485e-02 5.244615674018859863e-02 7.910023629665374756e-02 1.235118601471185684e-02 7.187371850013732910e-01 1.953021995723247528e-02 -1.332863350398838520e-03 8.659462630748748779e-02 6.619048863649368286e-02 -1.912365667521953583e-02 3.411805629730224609e-02 4.871262237429618835e-03 1.587443053722381592e-02 -1.546134054660797119e-01 3.388782218098640442e-02 -1.075869798660278320e-02 -9.480374283157289028e-04 -9.535428136587142944e-02 6.199464797973632812e-01 -3.424009680747985840e-02 1.002016738057136536e-01 8.363156020641326904e-02 1.402898281812667847e-01 7.587375584989786148e-03 -3.155421838164329529e-02 6.852363049983978271e-02 2.252468839287757874e-02 9.905318915843963623e-02 4.426871985197067261e-02 -4.257835820317268372e-02 1.158726960420608521e-01 6.769115477800369263e-02 5.925148725509643555e-01 -5.094395577907562256e-02 7.975824177265167236e-02 -5.931258574128150940e-02 3.625421971082687378e-02 1.473949253559112549e-01 -2.196408621966838837e-02 -1.135412305593490601e-01 9.511233121156692505e-02 5.071203410625457764e-02 -3.437098488211631775e-02 -2.372006140649318695e-02 7.585879415273666382e-02 -1.720859408378601074e-01 6.582657694816589355e-01 -1.675550267100334167e-02 5.935640074312686920e-03 1.548065990209579468e-01 -2.142155356705188751e-02 6.940989941358566284e-02 4.955361038446426392e-02 5.781002715229988098e-02 -3.026775829493999481e-02 -2.902561612427234650e-02 5.217433720827102661e-02 1.046454459428787231e-01 -2.015581913292407990e-02 -2.055650353431701660e-01 6.325975060462951660e-01 2.521438300609588623e-01 1.058647409081459045e-01 -6.574217975139617920e-02 4.677733033895492554e-02 -3.958166763186454773e-02 3.130551660433411598e-03 2.218954265117645264e-02 -3.553329780697822571e-02 5.496338382363319397e-02 5.289036408066749573e-02 -7.965119928121566772e-02 -1.490866858512163162e-02 3.453249484300613403e-02 7.978755831718444824e-01 -4.538334012031555176e-01 6.897607445716857910e-02 -1.802265457808971405e-02 1.016459614038467407e-01 -6.182010471820831299e-02 2.494150400161743164e-02 -4.928334802389144897e-02 1.050753295421600342e-01 -9.287525713443756104e-02 6.546679139137268066e-02 -4.789701197296380997e-04 -4.713727906346321106e-02 -1.864665001630783081e-01 8.079150915145874023e-01 7.301285266876220703e-01 -1.693955995142459869e-02 1.684262454509735107e-01 1.479732245206832886e-01 5.132602155208587646e-02 -4.429957270622253418e-02 8.994368463754653931e-02 3.653658181428909302e-02 1.585046052932739258e-01 -3.692565858364105225e-02 3.259875625371932983e-02 -4.326725006103515625e-02 2.974794209003448486e-01 8.862830400466918945e-01 -3.747019469738006592e-01 5.084782838821411133e-02 -2.629955708980560303e-01 1.535755246877670288e-01 4.271579086780548096e-01 8.845111727714538574e-02 -1.000420823693275452e-01 -1.609532348811626434e-02 -1.322860419750213623e-01 -1.874561235308647156e-02 -8.755717426538467407e-03 -4.407747834920883179e-02 1.679414212703704834e-01 9.400433301925659180e-01 -1.720107048749923706e-01 -6.653296947479248047e-02 2.667958103120326996e-02 1.349381357431411743e-01 -4.899407625198364258e-01 -4.670434445142745972e-02 1.762317679822444916e-02 -5.364145711064338684e-02 5.418853368610143661e-03 -6.124471127986907959e-02 -3.563858941197395325e-02
-7.530691474676132202e-02 1.489259675145149231e-02 2.741686999797821045e-01 1.030445545911788940e-01 -2.205494046211242676e-01 -7.370028644800186157e-02 -2.552752792835235596e-01 -1.062089428305625916e-01 1.464843750000000000e-02 -1.649331115186214447e-02 6.615897268056869507e-02 1.817898452281951904e-02 6.543443351984024048e-02 -3.821203485131263733e-02 -5.769677832722663879e-02 -1.367047876119613647e-01 1.773918718099594116e-01 1.344404071569442749e-01 -2.077329456806182861e-01 -1.940800808370113373e-02 -3.765343427658081055e-01 -1.007327437400817871e-01 2.121588028967380524e-02 -4.105889424681663513e-02 3.031501919031143188e-02 5.064185336232185364e-02 5.364263057708740234e-02 -3.859568387269973755e-02 5.610435083508491516e-02 1.828632801771163940e-01 2.635320127010345459e-01 -1.989703252911567688e-02 -2.443872690200805664e-01 -1.465002167969942093e-02 -2.936893105506896973e-01 -1.773981726728379726e-03 6.066672131419181824e-02 1.615834794938564301e-02 6.851668935269117355e-03 -5.358929559588432312e-02 -8.142346888780593872e-02 2.927499264478683472e-02 -2.985502942465245724e-04 -1.332062184810638428e-01 1.278550326824188232e-01 1.527882367372512817e-01 -1.829986721277236938e-01 1.293765604496002197e-01 -3.746356368064880371e-01 9.508630260825157166e-03 6.621784996241331100e-04 1.162356324493885040e-02 6.117592006921768188e-02 3.985367715358734131e-02 -7.639767229557037354e-02 2.901295665651559830e-03 3.946828842163085938e-02 -6.661454588174819946e-02 2.519780695438385010e-01 7.855638116598129272e-02 -1.398163735866546631e-01 7.807686179876327515e-02 -4.184136390686035156e-01 -1.081323027610778809e-01 -4.115213081240653992e-02 -3.135461732745170593e-02 3.482554107904434204e-02 -3.884193301200866699e-02 -1.665064133703708649e-02 1.921726390719413757e-02 -5.609437078237533569e-02 7.999466359615325928e-02 2.838248908519744873e-01 -2.970379590988159180e-02 -2.359959036111831665e-01 -9.289862215518951416e-02 -2.970175445079803467e-01 1.008979603648185730e-01 3.398017957806587219e-02 1.383556425571441650e-02 -5.772566050291061401e-02 -6.209312751889228821e-02 6.372193247079849243e-02 -2.154066227376461029e-02 8.935761451721191406e-02 2.179305255413055420e-02 4.038801491260528564e-01 8.200095593929290771e-02 -2.253373563289642334e-01 2.365197390317916870e-01 -3.452016711235046387e-01 -7.866981625556945801e-02 4.095640406012535095e-02 3.991147503256797791e-02 -4.731940850615501404e-02 1.602676659822463989e-01 -6.741420924663543701e-02 -2.253716439008712769e-02 -2.329067327082157135e-02 4.382751882076263428e-02 4.394419789314270020e-01 -3.945555090904235840e-01 -3.420926332473754883e-01 -2.665302157402038574e-01 -3.363651037216186523e-01 1.730629801750183105e-01 -7.937747985124588013e-02 2.356656454503536224e-02 -7.130789011716842651e-02 -3.468539416790008545e-01 7.995061576366424561e-03 1.001978963613510132e-01 8.020221255719661713e-03 -1.266293693333864212e-04 5.055354833602905273e-01 -7.214834541082382202e-02 -3.757295608520507812e-01 1.267426908016204834e-01 -4.734320044517517090e-01 1.807752847671508789e-01 -4.196111112833023071e-02 5.632147565484046936e-02 -5.330784991383552551e-02 2.941854596138000488e-01 5.175737291574478149e-02 1.281657721847295761e-02 -3.915241453796625137e-03 -7.930966466665267944e-02 3.773890435695648193e-01 -2.908634766936302185e-02 -3.115582168102264404e-01 -6.788884848356246948e-02 -4.882718324661254883e-01 -9.233730286359786987e-02 -3.726873546838760376e-02 -7.960084825754165649e-02 6.601248681545257568e-02 -6.240709125995635986e-02 4.478465020656585693e-02 -3.487658128142356873e-02
-7.525170221924781799e-03 3.082302808761596680e-01 -9.318776428699493408e-02 3.861953914165496826e-01 5.479241013526916504e-01 1.274063140153884888e-01 -1.823729872703552246e-01 2.066175341606140137e-01 8.490853011608123779e-02 1.462015509605407715e-01 6.791866570711135864e-02 -2.595761977136135101e-02 7.454810291528701782e-02 6.581746507436037064e-03 -6.147105619311332703e-02 -6.238601729273796082e-02 -9.219907969236373901e-02 2.462467551231384277e-01 4.610265791416168213e-01 -1.281300485134124756e-01 -1.308972537517547607e-01 2.545626647770404816e-02 1.374451518058776855e-01 -5.874647200107574463e-02 -8.637221157550811768e-02 1.031025722622871399e-01 4.207234457135200500e-02 5.638901144266128540e-02 6.338107050396502018e-04 2.726350165903568268e-02 -1.349633932113647461e-01 -8.044695854187011719e-02 4.063312113285064697e-01 1.621040552854537964e-01 -1.374345272779464722e-01 -1.066101193428039551e-01 6.814181059598922729e-02 -2.981240488588809967e-02 -3.175143897533416748e-02 -1.059843823313713074e-01 2.097726427018642426e-02 -2.187150716781616211e-02 -1.978751085698604584e-02 -7.843542695045471191e-01 -1.264991760253906250e-01 -4.013594388961791992e-01 5.251833200454711914e-01 -2.301691472530364990e-01 -1.694057434797286987e-01 -2.726872861385345459e-01 -4.411025345325469971e-02 -5.991705507040023804e-02 1.090204250067472458e-02 3.371227160096168518e-02 -2.593671716749668121e-02 -5.527317896485328674e-02 9.393646568059921265e-02 -1.738631427288055420e-01 -1.446465104818344116e-01 -8.675809502601623535e-01 4.910765886306762695e-01 -1.287788301706314087e-01 -1.476163566112518311e-01 -4.896319210529327393e-01 -1.473109889775514603e-02 3.180979937314987183e-02 -2.259253151714801788e-02 1.466380655765533447e-01 -3.721630200743675232e-02 -1.346679782727733254e-04 -4.322425276041030884e-02 -5.418447256088256836e-01 -8.885233104228973389e-02 -4.841570854187011719e-01 4.811680018901824951e-01 -5.398336648941040039e-01 -8.595754951238632202e-02 -5.621401071548461914e-01 2.063744468614459038e-03 -1.588218957185745239e-01 -6.183363497257232666e-02 -4.093225300312042236e-01 -2.152434922754764557e-02 2.188781462609767914e-02 1.303060911595821381e-02 -5.238730907440185547e-01 -8.560419082641601562e-02 -1.404124975204467773e+00 4.981616735458374023e-01 -5.803006235510110855e-03 -5.680239945650100708e-02 -1.441600024700164795e-01 1.492346730083227158e-02 1.134141832590103149e-01 6.429383903741836548e-02 1.648664474487304688e-01 5.973388254642486572e-02 2.606878615915775299e-02 -2.207982586696743965e-03 9.131025671958923340e-01 -9.319289028644561768e-02 5.893391966819763184e-01 4.766526222229003906e-01 4.884757846593856812e-02 -6.621760129928588867e-02 1.668055504560470581e-01 2.027679793536663055e-02 -1.298363357782363892e-01 -5.608854442834854126e-02 -9.036671835929155350e-04 -4.618144035339355469e-02 -5.482854321599006653e-02 7.419578731060028076e-02 -4.225513935089111328e-01 4.064113274216651917e-02 4.767515361309051514e-01 5.218889117240905762e-01 2.113574296236038208e-01 -5.891348421573638916e-02 4.178629815578460693e-01 1.799705065786838531e-02 8.468076586723327637e-02 -7.610420137643814087e-02 1.130024120211601257e-01 -7.751721888780593872e-02 2.339932881295681000e-02 -8.421355485916137695e-02 1.232054114341735840e+00 -2.720125205814838409e-02 1.486400723457336426e+00 3.957450389862060547e-01 4.956616163253784180e-01 -1.569069623947143555e-01 7.208989858627319336e-01 -6.053592637181282043e-02 6.561245024204254150e-02 -3.008461184799671173e-02 -4.215118661522865295e-02 -6.185290403664112091e-03 2.074365504086017609e-02
4.148196056485176086e-02 -6.059576272964477539e-01 1.646240949630737305e-01 -4.155468642711639404e-01 -1.004120185971260071e-01 -7.648833990097045898e-01 2.284192107617855072e-02 7.799635827541351318e-02 -7.356931269168853760e-02 -5.596726760268211365e-02 7.366525381803512573e-02 -1.342900469899177551e-02 4.288579523563385010e-02 -2.136958204209804535e-02 8.171997964382171631e-02 -1.417688429355621338e-01 -1.498699560761451721e-02 -2.996230721473693848e-01 -1.404820084571838379e-01 1.666534692049026489e-01 2.659359946846961975e-02 1.083540618419647217e-01 1.424151379615068436e-02 7.027238607406616211e-03 7.439605146646499634e-02 3.178762644529342651e-02 -5.817073397338390350e-03 5.887753143906593323e-02 -7.758570462465286255e-02 6.378170102834701538e-02 -5.404776334762573242e-02 -8.364502340555191040e-02 -1.082065701484680176e-01 -4.007467627525329590e-01 -1.139703094959259033e-01 -1.482472196221351624e-02 3.611129522323608398e-02 3.541841357946395874e-02 1.048043556511402130e-02 -5.622890219092369080e-02 -2.559953741729259491e-02 -8.733751624822616577e-02 -1.086653470993041992e-01 1.041876673698425293e-01 -3.994197025895118713e-02 2.611918747425079346e-01 -1.717431992292404175e-01 4.679830372333526611e-01 3.903346881270408630e-02 7.923474162817001343e-02 -2.492329291999340057e-02 4.557313397526741028e-02 -3.958068788051605225e-03 2.087394334375858307e-02 -6.237982213497161865e-02 -1.782074570655822754e-02 -2.230526804924011230e-01 3.693182170391082764e-01 -1.260434836149215698e-01 2.308338135480880737e-01 -1.183499023318290710e-01 3.646468520164489746e-01 -5.384175479412078857e-02 -1.471373140811920166e-01 1.209601876325905323e-03 -3.807183727622032166e-02 8.145274966955184937e-02 1.343622207641601562e-01 -4.241407662630081177e-02 -1.559632457792758942e-02 -2.078653872013092041e-01 3.057396709918975830e-01 3.577673435211181641e-02 8.266633749008178711e-01 -4.675905033946037292e-02 6.108009815216064453e-01 6.113419309258460999e-03 -3.438843041658401489e-02 5.917689763009548187e-03 -8.059523999691009521e-02 -5.568186193704605103e-02 -6.628216058015823364e-02 -7.647566497325897217e-02 1.964156515896320343e-02 -1.592755550518631935e-03 6.838630437850952148e-01 5.633430555462837219e-02 2.519379742443561554e-02 -6.689886748790740967e-02 1.355225443840026855e+00 3.242945764213800430e-03 -3.050460815429687500e-01 6.748745799995958805e-04 1.932880580425262451e-01 6.532561033964157104e-02 -1.303295344114303589e-01 7.871693372726440430e-02 9.748797118663787842e-02 8.347494900226593018e-02 7.930929064750671387e-01 7.456225901842117310e-02 1.083752870559692383e+00 -2.788673527538776398e-02 -2.657478153705596924e-01 -8.449245244264602661e-02 -2.140093594789505005e-01 -3.686765953898429871e-02 8.921158313751220703e-02 -4.378277063369750977e-02 1.071514189243316650e-01 6.000779941678047180e-02 -2.324607409536838531e-02 1.608115732669830322e-01 5.194712877273559570e-01 5.986069142818450928e-02 2.929248809814453125e-01 6.044889986515045166e-02 2.534398436546325684e-01 -3.359999507665634155e-03 7.213677167892456055e-01 6.497581303119659424e-02 -1.446337550878524780e-01 -5.054197832942008972e-02 1.104098781943321228e-01 1.322465855628252029e-02 2.317133732140064240e-02 2.402067035436630249e-01 -1.960741519927978516e+00 7.973765581846237183e-02 -2.358608007431030273e+00 3.058946877717971802e-02 -1.610336422920227051e+00 5.027794465422630310e-02 8.009415119886398315e-02 -1.743540354073047638e-02 -5.552885681390762329e-02 -3.705792501568794250e-02 -1.021786928176879883e-01 9.594143368303775787e-03 -4.928899556398391724e-02
1.275289207696914673e-01 -5.884800553321838379e-01 2.816757261753082275e-01 5.563793778419494629e-01 3.840303421020507812e-01 -1.319120675325393677e-01 1.020080521702766418e-01 5.421459674835205078e-01 -1.745052984915673733e-03 8.784267120063304901e-03 -4.302903078496456146e-03 2.436697669327259064e-02 -6.893292814493179321e-02 -6.157706305384635925e-02 2.390293218195438385e-02 -4.920543730258941650e-02 3.486818969249725342e-01 -1.164318025112152100e-01 3.809705674648284912e-01 3.645513355731964111e-01 1.170802637934684753e-01 -1.346553117036819458e-01 8.981154114007949829e-02 -1.559397322125732899e-03 1.023025019094347954e-03 -1.871739476919174194e-01 4.182855039834976196e-02 2.052467130124568939e-02 -1.293164044618606567e-01 -5.042567849159240723e-02 4.273838400840759277e-01 -9.214320220053195953e-03 3.360213935375213623e-01 -1.521280854940414429e-01 5.756593495607376099e-02 -4.335134848952293396e-02 -4.979418963193893433e-02 1.924232952296733856e-02 6.929006893187761307e-03 1.639630794525146484e-01 -3.612447902560234070e-02 1.558735966682434082e-02 -1.472510695457458496e-01 5.283281207084655762e-01 4.229381382465362549e-01 3.256092965602874756e-02 3.211033344268798828e-01 5.904065445065498352e-02 5.640205740928649902e-02 -3.680646419525146484e-01 -4.756833985447883606e-02 -2.389625459909439087e-02 3.568069951143115759e-04 2.214993163943290710e-02 1.907695457339286804e-02 3.728981316089630127e-02 -2.044954001903533936e-01 1.077328398823738098e-01 3.416711688041687012e-01 -6.774206161499023438e-01 4.183364510536193848e-01 1.957509852945804596e-02 8.759380131959915161e-02 -4.771479666233062744e-01 -3.954890742897987366e-02 1.845388114452362061e-02 4.638956114649772644e-02 -4.894775897264480591e-02 4.003462381660938263e-03 1.156757026910781860e-02 -1.353346183896064758e-02 5.033103823661804199e-01 2.799631655216217041e-01 -6.530264019966125488e-02 4.337338805198669434e-01 -3.577033057808876038e-03 5.019183084368705750e-02 -8.872723579406738281e-01 2.828809665516018867e-03 -3.968278691172599792e-02 4.584838077425956726e-02 -9.640965610742568970e-03 -1.778844371438026428e-02 3.091532969847321510e-03 -2.759583061560988426e-03 6.813960671424865723e-01 3.344656527042388916e-01 -8.705867528915405273e-01 4.314756989479064941e-01 -7.498551905155181885e-02 8.849082887172698975e-02 -4.792965948581695557e-01 1.339665427803993225e-02 -2.682760125026106834e-03 1.115446537733078003e-01 5.118337925523519516e-03 1.191019825637340546e-02 -7.929348945617675781e-02 3.595094382762908936e-02 1.200614348053932190e-01 2.769672572612762451e-01 6.196051239967346191e-01 4.200236499309539795e-01 -3.682570457458496094e-01 4.957953467965126038e-02 -3.998382687568664551e-01 -3.604222089052200317e-02 5.158852040767669678e-02 3.781676292419433594e-02 1.648067533969879150e-01 7.635740190744400024e-02 1.285210102796554565e-01 1.478950381278991699e-01 1.214835122227668762e-01 2.373728752136230469e-01 -9.479107707738876343e-02 4.951833486557006836e-01 8.927947282791137695e-01 1.178819239139556885e-01 5.359032154083251953e-01 5.389630794525146484e-02 -1.265348345041275024e-01 1.497789621353149414e-01 6.628339737653732300e-02 -5.602249130606651306e-02 -6.620081514120101929e-02 1.798659116029739380e-01 -1.409605026245117188e+00 1.442724764347076416e-01 6.462267041206359863e-01 4.362470507621765137e-01 -5.763906836509704590e-01 5.543554574251174927e-02 1.680444002151489258e+00 7.242207229137420654e-02 8.465989679098129272e-02 1.401764005422592163e-01 -1.938445419073104858e-01 7.085457444190979004e-02 -6.185194477438926697e-03
2.730542607605457306e-02 4.643191024661064148e-02 2.292641997337341309e-01 -1.554592885076999664e-02 1.824664324522018433e-01 -1.263467818498611450e-01 2.215795405209064484e-02 1.549536734819412231e-02 2.650831043720245361e-01 -1.037402749061584473e-01 1.706882417201995850e-01 5.419580265879631042e-02 6.257841736078262329e-02 3.763414174318313599e-02 6.310467422008514404e-02 5.389462411403656006e-02 2.304084897041320801e-01 -1.095834895968437195e-01 2.064748704433441162e-01 7.367072999477386475e-02 -8.426480740308761597e-02 1.636229641735553741e-02 2.703406512737274170e-01 2.046444825828075409e-02 3.068992868065834045e-02 -1.977408491075038910e-02 -5.605804920196533203e-02 -3.982063382863998413e-03 -7.808507233858108521e-02 -5.513154435902833939e-03 1.607648879289627075e-01 -2.614026702940464020e-02 1.466754823923110962e-01 4.925481602549552917e-02 -1.696552895009517670e-02 -6.644526869058609009e-02 2.505002915859222412e-01 2.712438814342021942e-02 1.415519565343856812e-01 7.538933306932449341e-02 4.903811216354370117e-02 -3.983615711331367493e-02 -9.146219491958618164e-02 1.151511073112487793e-01 1.709591448307037354e-01 1.325831413269042969e-01 4.798619076609611511e-02 8.847117424011230469e-02 4.325749725103378296e-02 1.985098235309123993e-02 2.179772853851318359e-01 6.525860726833343506e-02 7.284288108348846436e-02 -9.892564266920089722e-02 6.480443477630615234e-02 -3.764975350350141525e-03 -7.179225981235504150e-02 -1.579764336347579956e-01 2.091412246227264404e-01 9.856004267930984497e-02 1.749325245618820190e-01 4.303402453660964966e-02 4.271162673830986023e-02 -2.142176590859889984e-02 2.458033114671707153e-01 1.404236704111099243e-01 7.588208653032779694e-03 2.346932739019393921e-01 9.553369134664535522e-02 1.008044835180044174e-02 4.370478540658950806e-02 -3.564642043784260750e-03 5.355834588408470154e-02 4.480689764022827148e-01 2.108073979616165161e-01 2.408608943223953247e-01 4.224559664726257324e-02 -1.462632324546575546e-02 1.884099990129470825e-01 7.772608101367950439e-02 7.494844496250152588e-02 -1.718959361314773560e-01 -3.947501629590988159e-02 3.458445519208908081e-02 -4.200354218482971191e-02 -2.052469402551651001e-01 4.448753595352172852e-02 -1.175920888781547546e-01 9.920534491539001465e-02 2.650854550302028656e-02 -1.107377279549837112e-02 -1.025078669190406799e-01 1.181705817580223083e-01 6.903686374425888062e-02 3.581763803958892822e-02 4.940712079405784607e-02 -4.803065210580825806e-02 -5.669301375746726990e-02 -9.393131360411643982e-03 -2.937971353530883789e-01 6.091559678316116333e-02 -1.252758800983428955e-01 1.763035953044891357e-01 -2.580443024635314941e-01 -1.096052378416061401e-01 8.969840407371520996e-02 2.205527424812316895e-01 1.755012571811676025e-02 1.552500128746032715e-01 2.658241391181945801e-01 -2.779113873839378357e-02 2.763575315475463867e-02 5.850045382976531982e-02 2.217720896005630493e-01 -5.862930789589881897e-02 2.288990914821624756e-01 1.976372450590133667e-01 2.039426118135452271e-01 5.062996596097946167e-02 -4.891814291477203369e-02 2.248563766479492188e-01 -7.156683504581451416e-02 9.336186200380325317e-02 -5.527522563934326172e-01 -6.569762527942657471e-02 -1.801495440304279327e-02 5.320198461413383484e-02 2.287666797637939453e-01 -5.200353637337684631e-02 -4.800821840763092041e-01 1.216983124613761902e-01 -3.197534084320068359e-01 -3.834050893783569336e-02 1.194223165512084961e-01 1.675263494253158569e-01 -2.249441593885421753e-01 1.555663347244262695e-01 1.900090426206588745e-01 -2.757593058049678802e-02 6.923113018274307251e-03
2.820259146392345428e-02 9.676249697804450989e-03 -2.571377754211425781e-01 4.675544202327728271e-01 -4.015286862850189209e-01 2.337544411420822144e-01 -1.252893507480621338e-01 2.177500277757644653e-01 -5.436469987034797668e-02 -4.696138203144073486e-03 -2.283186838030815125e-02 6.934408098459243774e-02 9.539812803268432617e-03 -3.338491916656494141e-02 -6.825962662696838379e-02 1.539184898138046265e-01 -2.962976992130279541e-01 -5.680336058139801025e-02 -4.116678535938262939e-01 1.462478488683700562e-01 -1.761215478181838989e-01 -2.399395555257797241e-01 -1.048258040100336075e-02 9.974570013582706451e-03 3.982816636562347412e-02 -5.208553373813629150e-02 1.416635420173406601e-02 1.409489475190639496e-02 5.849941447377204895e-02 1.758684404194355011e-02 -2.916834950447082520e-01 1.722729392349720001e-02 -3.729796409606933594e-01 -1.158729474991559982e-02 -6.991299986839294434e-02 -7.378477603197097778e-02 -1.115083135664463043e-02 2.474255301058292389e-02 2.337703481316566467e-02 -1.063763201236724854e-01 1.230729278177022934e-02 -1.337394490838050842e-02 1.048243325203657150e-02 -1.328197121620178223e-01 -2.562727332115173340e-01 2.711850404739379883e-01 -4.301640689373016357e-01 -1.153340190649032593e-01 -9.192992746829986572e-02 3.383092582225799561e-02 -3.152959421277046204e-02 -9.044337272644042969e-02 -4.868174344301223755e-02 2.033765465021133423e-01 -2.590413205325603485e-02 2.478614635765552521e-02 6.038789078593254089e-02 2.727805376052856445e-01 -2.185751050710678101e-01 -5.897982716560363770e-01 -3.733512461185455322e-01 -1.329216361045837402e-01 -1.841047406196594238e-01 -2.357404120266437531e-02 7.137455046176910400e-02 7.886004447937011719e-02 2.782504819333553314e-02 -1.552760899066925049e-01 -9.052141010761260986e-02 -1.593300141394138336e-02 1.000240519642829895e-01 -3.974658846855163574e-01 -3.814506530761718750e-01 2.811250388622283936e-01 -4.435036480426788330e-01 -2.554534971714019775e-01 -3.173433244228363037e-02 5.380225181579589844e-02 4.208184033632278442e-02 -8.030281402170658112e-03 -8.226308226585388184e-02 -4.024798050522804260e-02 -3.161354735493659973e-02 -8.990832604467868805e-03 5.726225301623344421e-02 -2.199352160096168518e-02 -4.353873431682586670e-01 -3.025559484958648682e-01 -4.842998683452606201e-01 -2.558583617210388184e-01 -1.840896755456924438e-01 -1.923017203807830811e-01 4.614800959825515747e-02 -6.274418532848358154e-02 4.900062829256057739e-02 1.416758000850677490e-01 4.146953299641609192e-02 1.914561539888381958e-02 -7.459279149770736694e-02 5.845948457717895508e-01 -4.965971410274505615e-01 -1.157921075820922852e+00 -4.650631248950958252e-01 -1.839613318443298340e-01 -1.930334568023681641e-01 -1.964588463306427002e-01 7.645547855645418167e-03 1.018262058496475220e-01 -1.108398512005805969e-01 -2.406656891107559204e-01 -1.609555631875991821e-02 -3.940428793430328369e-02 -9.402895718812942505e-02 -9.962996244430541992e-01 -5.651305913925170898e-01 1.416805386543273926e+00 -4.288614094257354736e-01 3.542834818363189697e-01 -9.215462952852249146e-02 2.571156919002532959e-01 -1.435599476099014282e-01 -7.380532566457986832e-03 5.383999645709991455e-02 3.330150246620178223e-01 3.279860690236091614e-02 6.557960808277130127e-02 -1.740670353174209595e-01 4.732079505920410156e-01 -6.827642917633056641e-01 -3.544720411300659180e-01 -5.572575926780700684e-01 1.992496848106384277e-01 -8.876366168260574341e-02 1.154835373163223267e-01 -1.138069033622741699e-01 -5.051671341061592102e-02 -4.492328315973281860e-02 -1.415498852729797363e-01 -4.744257405400276184e-02 -3.058551996946334839e-02
1.546166986227035522e-01 -5.187736749649047852e-01 -8.345957612618803978e-04 1.321533679962158203e+00 5.432195588946342468e-02 -5.452488064765930176e-01 2.270495705306529999e-02 -4.855498373508453369e-01 -3.401158004999160767e-02 -5.274169892072677612e-02 -2.063406445086002350e-02 -1.215585879981517792e-02 -1.954334229230880737e-02 -1.338189002126455307e-02 6.315092742443084717e-02 -2.743022441864013672e-01 9.308168292045593262e-02 6.000804901123046875e-01 -3.466990217566490173e-02 -1.653959006071090698e-01 -4.097556322813034058e-02 -1.644838005304336548e-01 -8.120654523372650146e-02 -1.583705842494964600e-02 6.911979615688323975e-02 -5.834635347127914429e-03 1.462626177817583084e-02 5.717387422919273376e-02 -4.037559404969215393e-02 -5.670654773712158203e-02 2.848542928695678711e-01 -3.423374146223068237e-02 3.111616009846329689e-03 -1.003171652555465698e-01 1.776439882814884186e-02 -2.964410372078418732e-02 5.631037056446075439e-02 -1.054529473185539246e-02 4.923260957002639771e-02 1.254753023386001587e-02 -5.094729736447334290e-02 -7.836100459098815918e-02 -3.745096921920776367e-02 3.327230513095855713e-01 2.346002608537673950e-01 -8.023191094398498535e-01 -7.919470965862274170e-02 3.795436620712280273e-01 -1.185157373547554016e-01 4.000872075557708740e-01 3.268464654684066772e-02 2.977469190955162048e-02 1.885320618748664856e-02 -5.573963373899459839e-02 6.122843921184539795e-02 1.506110746413469315e-02 -1.873920708894729614e-01 4.345226287841796875e-01 2.074971199035644531e-01 -1.161150217056274414e+00 -1.370024234056472778e-01 5.700393915176391602e-01 3.070390783250331879e-02 5.073778033256530762e-01 -1.533403992652893066e-03 8.044725656509399414e-02 -1.021871622651815414e-02 5.959439650177955627e-02 2.477901056408882141e-03 -1.501794625073671341e-02 -1.678912490606307983e-01 7.255652546882629395e-01 1.277742981910705566e-01 -1.757323145866394043e+00 -6.184662878513336182e-02 7.377136945724487305e-01 4.585835710167884827e-02 5.806390047073364258e-01 -2.886006981134414673e-02 2.353858388960361481e-02 -2.249494008719921112e-02 3.546554967761039734e-02 8.167312294244766235e-02 5.343860015273094177e-02 -1.302885543555021286e-02 8.516321778297424316e-01 -6.101835891604423523e-02 -1.686169624328613281e+00 -9.573933482170104980e-02 5.438486933708190918e-01 2.104768902063369751e-02 5.515968203544616699e-01 -7.985373586416244507e-02 3.701952472329139709e-02 3.629301115870475769e-02 -1.648441888391971588e-02 -3.106489591300487518e-02 -3.539231419563293457e-02 3.282347321510314941e-02 3.302302956581115723e-01 -1.850343346595764160e-01 -5.362975001335144043e-01 5.971959978342056274e-02 3.139429539442062378e-02 -2.655447833240032196e-02 2.332444069907069206e-03 3.822105377912521362e-02 6.371628493070602417e-02 -8.437737822532653809e-03 2.540198713541030884e-02 2.850289642810821533e-02 -2.770134061574935913e-02 5.694017186760902405e-02 -4.158403575420379639e-01 -2.127483040094375610e-01 1.172030925750732422e+00 9.127257019281387329e-02 -4.781020879745483398e-01 5.690318718552589417e-02 -3.950239121913909912e-01 5.563486367464065552e-03 -6.083971634507179260e-02 -4.108611866831779480e-02 -4.904982168227434158e-03 -6.663084775209426880e-02 4.278466850519180298e-02 1.809260994195938110e-01 -1.413060784339904785e+00 -5.488284826278686523e-01 2.866890430450439453e+00 2.504789829254150391e-01 -9.708400964736938477e-01 3.483364358544349670e-02 -9.550341367721557617e-01 8.761982619762420654e-02 -9.071701020002365112e-02 4.927200730890035629e-03 -3.759957849979400635e-02 -4.768162034451961517e-03 1.238651922903954983e-03
