-3.063393831253051758e-01 -1.326961070299148560e-01 6.809438765048980713e-02 2.719046771526336670e-01 -3.546269834041595459e-01 -6.393826752901077271e-02 -6.283736974000930786e-02 4.892614670097827911e-04 -6.365977227687835693e-02 2.258817851543426514e-01 4.708676338195800781e-01 3.807081282138824463e-01 -7.417336851358413696e-02 -6.602198630571365356e-02 -2.511049248278141022e-02 2.282073646783828735e-01 -5.780202895402908325e-02 -6.005147844552993774e-02 -1.400381326675415039e-01 8.488251268863677979e-02 1.331866439431905746e-02 1.464268565177917480e-01 1.053751558065414429e-01 -1.552070826292037964e-01 -9.209055453538894653e-02 7.953510619699954987e-03 -1.481689661741256714e-01 -4.310998320579528809e-02 6.538431160151958466e-03 3.810977563261985779e-02 -6.391427516937255859e-01 -8.799643069505691528e-02 -1.105086952447891235e-01 5.528207402676343918e-03 -7.423240225762128830e-03 1.276623010635375977e-01 -4.284868538379669189e-01 2.858909666538238525e-01 2.676634788513183594e-01 -1.893708407878875732e-01 -1.452022604644298553e-02 3.687908500432968140e-02 7.352498173713684082e-02 2.501526474952697754e-01 2.670772075653076172e-01 3.194687664508819580e-01 -1.486692428588867188e-01 -5.042355135083198547e-02 -6.160984560847282410e-02 -4.494413733482360840e-02 3.048463761806488037e-01 -3.002317547798156738e-01 -2.786189131438732147e-02 2.589481184259057045e-03 -6.026142463088035583e-02 5.557377263903617859e-02 -8.043161779642105103e-02 -7.546590268611907959e-02 -1.819497942924499512e-01 1.158872991800308228e-02 4.075649660080671310e-03 -7.228304166346788406e-03 -3.592397570610046387e-01 5.094547271728515625e-01 -1.193800792098045349e-01 2.285120310261845589e-03 2.709154738113284111e-03 1.146367490291595459e-01 1.483055353164672852e-01 -4.245503246784210205e-02 1.205907911062240601e-01 -6.014726310968399048e-02 9.381014108657836914e-02 -5.027406662702560425e-02 -5.366086587309837341e-02 -1.286050304770469666e-02 -2.285193465650081635e-02 2.514839172363281250e-01 1.253283172845840454e-01 5.001876503229141235e-03 3.492234051227569580e-01 6.813690811395645142e-02 3.194910660386085510e-02 3.155080080032348633e-01 1.021689772605895996e-01 -1.463530808687210083e-01 -2.438847161829471588e-02 -2.179807573556900024e-01 -2.340978384017944336e-01 1.477683037519454956e-01 8.210925757884979248e-02 -2.382266521453857422e-01 9.917983412742614746e-02 7.654713839292526245e-02 2.059044092893600464e-01 4.427992403507232666e-01 -3.514442145824432373e-01 -7.567468285560607910e-02 1.256741732358932495e-01 -6.561863236129283905e-03
1.754541881382465363e-02 -1.190357282757759094e-01 -9.889850765466690063e-02 4.132707789540290833e-02 -1.636052578687667847e-01 -5.858264397829771042e-03 6.393677555024623871e-03 3.592413663864135742e-02 -5.897845141589641571e-03 4.020957648754119873e-02 -1.176869422197341919e-01 4.057982936501502991e-02 -1.367274075746536255e-01 -8.446016162633895874e-02 -1.304782181978225708e-01 -7.020345330238342285e-02 -7.425309717655181885e-02 2.767439000308513641e-02 6.114874407649040222e-02 6.934878975152969360e-02 -1.116910949349403381e-01 2.606174163520336151e-02 2.547081967350095510e-04 -6.008675321936607361e-02 -4.651530459523200989e-02 -1.338342577219009399e-01 5.029077082872390747e-02 -3.248436003923416138e-02 -8.723813295364379883e-02 -1.028574928641319275e-01 -2.162478631362318993e-03 -1.275741159915924072e-01 -7.890460640192031860e-02 7.547388970851898193e-02 1.677586883306503296e-02 4.146681353449821472e-02 -8.851872384548187256e-02 -8.594550192356109619e-02 -7.638878375291824341e-02 -9.216509014368057251e-02 -8.269324898719787598e-03 -1.137653738260269165e-01 -1.135354340076446533e-01 -1.122790351510047913e-01 -7.435059547424316406e-02 -1.193669885396957397e-01 -9.572377800941467285e-02 8.924797177314758301e-03 -1.137669906020164490e-01 2.388523519039154053e-02 5.786442011594772339e-02 1.631787605583667755e-02 -1.117166429758071899e-01 2.693520672619342804e-02 -8.139549940824508667e-02 -8.195963501930236816e-02 2.993273176252841949e-02 -1.549986898899078369e-01 1.316679921001195908e-02 -1.634229868650436401e-01 -5.825257301330566406e-02 -8.095479011535644531e-02 -7.244367152452468872e-02 -7.492697238922119141e-02 -6.229086592793464661e-02 -5.852534621953964233e-02 -7.573418319225311279e-02 -7.214882969856262207e-02 -8.453701622784137726e-03 8.960496634244918823e-02 -9.019969403743743896e-02 -2.663137391209602356e-03 -1.162736341357231140e-01 2.401709742844104767e-02 -1.533125936985015869e-01 -6.078312173485755920e-02 -5.004154145717620850e-02 -1.090611591935157776e-01 3.594918921589851379e-02 6.007235497236251831e-02 -1.418376117944717407e-01 3.578655421733856201e-02 -4.911849275231361389e-02 -1.270678490400314331e-01 7.623235881328582764e-02 3.596565872430801392e-02 8.689383044838905334e-03 -1.286377310752868652e-01 2.978475019335746765e-02 4.583965241909027100e-02 -9.568799287080764771e-02 9.197467006742954254e-03 -9.493073076009750366e-02 -2.305861003696918488e-02 -1.291487514972686768e-01 1.780014671385288239e-02 -4.949010163545608521e-02 2.256807498633861542e-02 -4.565708711743354797e-02 -1.028258949518203735e-01
-1.013807654380798340e-01 -1.986625492572784424e-01 -3.321653306484222412e-01 2.191498875617980957e-01 5.837485194206237793e-02 -2.405669987201690674e-01 1.014129072427749634e-01 4.217174835503101349e-03 -8.261726051568984985e-02 4.256707727909088135e-01 -1.798834800720214844e-01 -2.595801055431365967e-01 9.522879868745803833e-02 6.331964582204818726e-02 1.502015590667724609e-01 5.435132607817649841e-02 2.174049057066440582e-02 1.195676997303962708e-01 1.120378896594047546e-01 -1.467108428478240967e-01 -2.643156051635742188e-01 1.940816491842269897e-01 -2.945600543171167374e-03 3.781343623995780945e-02 -9.537128731608390808e-03 -3.091579973697662354e-01 -2.352101802825927734e-01 -3.847078979015350342e-01 -3.544265031814575195e-02 3.886390924453735352e-01 1.557738929986953735e-01 -6.539745628833770752e-02 -5.150223970413208008e-01 1.851832121610641479e-02 -6.898739933967590332e-02 -1.063555199652910233e-02 3.545993864536285400e-01 -2.740568518638610840e-01 2.866408228874206543e-02 7.924776524305343628e-03 -8.019781857728958130e-02 -5.896054580807685852e-02 -1.029119342565536499e-01 -3.009459562599658966e-02 4.338807165622711182e-01 -2.105124145746231079e-01 1.197262257337570190e-01 3.285145387053489685e-02 -2.494279853999614716e-02 -6.451504677534103394e-02 -2.996816635131835938e-01 -6.589835882186889648e-01 -6.853962689638137817e-02 4.997234325855970383e-03 -1.635472178459167480e-01 -1.534528583288192749e-01 2.959185279905796051e-02 -5.428631901741027832e-01 -8.968412131071090698e-02 1.096709631383419037e-02 -6.845265161246061325e-03 5.238616839051246643e-02 8.723078668117523193e-02 -1.934471726417541504e-01 6.632363796234130859e-02 -1.682554036378860474e-01 -1.157869175076484680e-01 2.966773509979248047e-01 2.825072221457958221e-02 1.098514646291732788e-01 -1.701437868177890778e-02 -1.368713527917861938e-01 2.601636387407779694e-02 -6.405569612979888916e-02 2.118941396474838257e-01 -1.104777529835700989e-01 1.849282830953598022e-01 5.288658291101455688e-02 -1.215478703379631042e-01 -2.790782749652862549e-01 -1.639053970575332642e-01 8.694915473461151123e-02 -1.443228572607040405e-01 1.213406249880790710e-01 1.126025393605232239e-01 4.681386519223451614e-03 4.232554435729980469e-01 -3.182238340377807617e-01 1.912877522408962250e-02 -1.235847771167755127e-01 -1.428595781326293945e-01 1.852426230907440186e-01 -1.808248162269592285e-01 8.536639809608459473e-02 3.223119080066680908e-01 1.192304268479347229e-01 7.401172816753387451e-02 -1.472596824169158936e-01 3.450433909893035889e-02 3.645350933074951172e-01
7.867717742919921875e-02 -4.583347123116254807e-03 5.752047151327133179e-02 -4.621532931923866272e-02 6.079459786415100098e-01 1.540154814720153809e-01 -2.409044057130813599e-01 -4.223131109029054642e-03 2.519515343010425568e-03 -6.563196331262588501e-02 -4.304142296314239502e-01 2.691835761070251465e-01 3.403792679309844971e-01 -3.189922496676445007e-02 -5.091719701886177063e-02 3.187463060021400452e-02 1.310808509588241577e-01 -1.300384663045406342e-02 4.460002109408378601e-02 4.349175468087196350e-02 -2.952335588634014130e-02 -1.543667763471603394e-01 -2.725126408040523529e-02 -4.053134024143218994e-01 -1.934661850100383162e-04 3.983706533908843994e-01 1.775135658681392670e-02 5.805156659334897995e-03 -3.517057374119758606e-02 6.562270224094390869e-02 -3.139427900314331055e-01 2.813712693750858307e-02 4.838502034544944763e-02 -2.395266443490982056e-01 -1.680287532508373260e-02 -2.807829380035400391e-01 -1.271341741085052490e-01 5.668001994490623474e-02 -2.017946690320968628e-01 -2.050494998693466187e-01 7.029502093791961670e-02 3.204996883869171143e-02 -4.566470161080360413e-02 -3.033609092235565186e-01 -4.993372261524200439e-01 1.069016009569168091e-02 -9.905866533517837524e-02 -1.827335916459560394e-02 3.984924778342247009e-02 8.144686371088027954e-02 -1.583727821707725525e-02 -4.279845207929611206e-02 2.316482961177825928e-01 3.186620539054274559e-03 3.673529252409934998e-02 -2.237053122371435165e-03 -8.142176270484924316e-02 -5.146057903766632080e-02 -1.613947004079818726e-01 -6.294733285903930664e-02 2.423033304512500763e-02 1.061344519257545471e-01 3.646343350410461426e-01 1.442205607891082764e-01 -2.815628647804260254e-01 1.367011219263076782e-01 -7.412830591201782227e-01 -8.906688541173934937e-02 4.603984579443931580e-02 1.499541476368904114e-02 -1.259095519781112671e-01 4.631626009941101074e-01 -1.480045318603515625e-01 -1.166295632719993591e-02 -6.653047166764736176e-03 5.499719455838203430e-02 3.723954781889915466e-02 -5.167034268379211426e-02 1.395525503903627396e-02 -4.987822100520133972e-02 2.129228413105010986e-02 2.100523188710212708e-02 1.553098410367965698e-01 1.794993281364440918e-01 -1.731745526194572449e-02 1.023971736431121826e-01 -6.047117710113525391e-01 2.770288288593292236e-01 3.129625320434570312e-01 -1.833338141441345215e-01 -1.883020997047424316e-01 3.685291409492492676e-01 -5.507366731762886047e-02 -3.667339310050010681e-02 -2.315043238922953606e-03 -2.812589108943939209e-01 -8.673964068293571472e-03 1.074190065264701843e-02 -2.648584544658660889e-01 6.917669624090194702e-02
-2.678294181823730469e-01 6.324245780706405640e-02 7.279283553361892700e-02 1.172355609014630318e-03 8.462010324001312256e-02 -1.268758028745651245e-01 4.649475216865539551e-01 -1.583132689120247960e-04 1.123428717255592346e-02 4.009546041488647461e-01 6.225101277232170105e-02 -7.288631051778793335e-02 2.250231802463531494e-01 -1.621832996606826782e-01 5.143901333212852478e-03 -1.536752842366695404e-02 8.868122845888137817e-02 -5.274148657917976379e-02 -3.635928928852081299e-01 1.512640118598937988e-01 1.902570277452468872e-01 -1.986884474754333496e-01 -5.510609596967697144e-02 -1.669835597276687622e-01 1.241105273365974426e-01 -5.121552944183349609e-01 -2.500623464584350586e-01 7.756590098142623901e-02 1.579672396183013916e-01 -8.270365744829177856e-02 -2.823592424392700195e-01 -1.886186599731445312e-01 -3.468338772654533386e-02 2.450419031083583832e-02 -1.142655164003372192e-01 1.809746176004409790e-01 -1.768940091133117676e-01 9.693185240030288696e-02 -5.024979636073112488e-02 3.185315430164337158e-01 -2.346286624670028687e-01 2.937836199998855591e-02 -3.423088416457176208e-02 -5.943867936730384827e-02 1.022048201411962509e-02 3.068407811224460602e-02 -1.923417150974273682e-01 7.800287008285522461e-02 2.160230427980422974e-01 1.029118523001670837e-01 1.501639038324356079e-01 5.137678235769271851e-02 -7.963223010301589966e-02 3.689053934067487717e-03 5.078510940074920654e-02 1.220210790634155273e-01 2.095272690057754517e-01 2.866598963737487793e-01 -1.869079023599624634e-01 -1.005948409438133240e-01 5.431713163852691650e-02 -2.694312930107116699e-01 9.873778373003005981e-02 -2.680316567420959473e-02 -1.142985075712203979e-01 -1.153783593326807022e-02 -1.575888395309448242e-01 -1.507034450769424438e-01 -1.998543590307235718e-01 -1.473448276519775391e-01 2.068067789077758789e-01 2.111732214689254761e-01 -5.388945341110229492e-02 1.510836929082870483e-01 3.162003681063652039e-02 -1.401876360177993774e-01 1.851118169724941254e-02 -2.133789360523223877e-01 -3.705194890499114990e-01 9.751955419778823853e-02 1.563119888305664062e-01 -2.430608123540878296e-02 1.598840653896331787e-01 6.715823709964752197e-02 3.114660084247589111e-01 -1.528787612915039062e-02 -4.558637738227844238e-03 2.227914929389953613e-01 6.819257885217666626e-02 -2.757626399397850037e-02 -2.839609086513519287e-01 2.563694715499877930e-01 1.388829946517944336e-01 -2.003041505813598633e-01 -7.237248122692108154e-02 1.631845384836196899e-01 -8.248925954103469849e-02 -4.567780718207359314e-02 -2.407592386007308960e-01 8.941648900508880615e-02
-4.518700838088989258e-01 3.023741245269775391e-01 -1.863381639122962952e-02 -1.042791828513145447e-02 2.540251016616821289e-01 -9.383606910705566406e-02 3.106080591678619385e-01 -2.641263417899608612e-02 -4.613790195435285568e-03 -1.008907914161682129e+00 -6.804647296667098999e-02 -8.848536759614944458e-02 1.056397914886474609e+00 3.653855323791503906e-01 -6.110885739326477051e-01 1.542218327522277832e-01 -1.154052391648292542e-01 -1.125337600708007812e+00 3.021522164344787598e-01 -9.957481920719146729e-02 2.264161109924316406e-01 -1.148322746157646179e-01 -1.601928174495697021e-01 -2.785940282046794891e-02 4.466946423053741455e-01 -8.288751542568206787e-02 -1.167777553200721741e-01 9.443005919456481934e-02 -3.502749502658843994e-01 -1.927973628044128418e-01 -1.287002768367528915e-02 -3.183969855308532715e-01 2.885693013668060303e-01 3.018999397754669189e-01 -4.934780001640319824e-01 4.946832358837127686e-02 -1.733788400888442993e-01 1.429313123226165771e-01 2.744319438934326172e-01 -2.980818450450897217e-01 3.278130769729614258e+00 -2.461868524551391602e-01 -8.932586908340454102e-01 -5.015084147453308105e-02 -3.445993363857269287e-02 4.975843057036399841e-02 2.905008494853973389e-01 -4.893740266561508179e-02 -3.835453093051910400e-01 -5.231837630271911621e-01 5.921121686697006226e-02 -2.179971486330032349e-01 -1.364000141620635986e-01 -2.914213575422763824e-02 1.636757850646972656e+00 1.142245437949895859e-02 1.127504035830497742e-01 -2.975415624678134918e-02 2.745998278260231018e-02 2.486705482006072998e-01 -5.208956599235534668e-01 1.506992727518081665e-01 -1.342322956770658493e-02 3.194614648818969727e-01 -1.002452336251735687e-02 3.916607797145843506e-02 -1.309599261730909348e-02 6.809727288782596588e-03 -1.057399138808250427e-01 -2.338254302740097046e-01 -9.051935374736785889e-02 2.072373777627944946e-01 1.171650364995002747e-01 -5.219804644584655762e-01 -4.869976341724395752e-01 -1.094708740711212158e-01 -3.663297370076179504e-02 2.517616190016269684e-02 -1.605560481548309326e-01 8.010558485984802246e-01 1.388677805662155151e-01 -4.732087627053260803e-02 -3.442472517490386963e-01 1.953919790685176849e-02 1.788608729839324951e-01 7.903694175183773041e-03 -2.177401483058929443e-01 -1.842919923365116119e-02 -1.041366532444953918e-01 1.561665832996368408e-01 -4.378757476806640625e-01 -9.625841048546135426e-04 -3.066760063171386719e+00 -4.459324777126312256e-01 -8.391958475112915039e-02 -1.158915087580680847e-01 -1.416838765144348145e-01 -1.376255750656127930e-01 -2.531648576259613037e-01 2.435271590948104858e-01
1.810263097286224365e-01 -5.361260473728179932e-02 2.908763475716114044e-02 4.782589673995971680e-01 4.111769497394561768e-01 8.131473511457443237e-02 2.366241067647933960e-01 6.213338347151875496e-04 -4.711234569549560547e-02 2.910109460353851318e-01 3.742554783821105957e-02 1.636680215597152710e-01 2.789109051227569580e-01 -8.120443671941757202e-02 -1.233967370353639126e-03 -2.381092756986618042e-01 -1.643970981240272522e-02 -1.013278588652610779e-01 -4.548206180334091187e-02 -3.652434349060058594e-01 -2.216398529708385468e-02 6.026871129870414734e-02 2.180253565311431885e-01 9.949307143688201904e-02 3.227262198925018311e-02 -1.421338170766830444e-01 3.164964914321899414e-02 3.249967843294143677e-02 -6.410476565361022949e-02 4.439603537321090698e-02 1.332970242947340012e-02 -1.969187855720520020e-01 -2.696596384048461914e-01 -3.083513975143432617e-01 -1.014664098620414734e-01 -7.576576620340347290e-02 8.141274005174636841e-02 -2.130285203456878662e-01 8.845497667789459229e-02 1.815970055758953094e-02 -2.293373644351959229e-01 6.523869466036558151e-03 1.417388860136270523e-02 -1.209232583642005920e-01 -1.217177435755729675e-01 -3.660381305962800980e-03 3.732177242636680603e-02 -4.527155309915542603e-02 -4.080278053879737854e-02 1.228604316711425781e-01 1.063169687986373901e-01 -2.140634506940841675e-01 -5.541418865323066711e-02 1.514832023531198502e-03 5.521760135889053345e-02 -7.258340716361999512e-02 -7.484450936317443848e-02 -4.745384678244590759e-02 -7.599551230669021606e-03 1.194271817803382874e-02 -1.725618168711662292e-02 -8.597894012928009033e-02 -2.040432244539260864e-01 -9.245094656944274902e-02 -5.113884061574935913e-02 -1.043999865651130676e-01 1.799155026674270630e-02 1.173148900270462036e-01 1.158633240265771747e-04 1.313675343990325928e-01 -6.565859168767929077e-02 1.313235163688659668e-01 1.023514419794082642e-01 -5.139895249158143997e-03 -1.106887087225914001e-01 8.433567732572555542e-02 -3.678937852382659912e-01 -3.473696857690811157e-02 -9.750678390264511108e-02 3.050871193408966064e-02 -3.470979630947113037e-02 4.581167921423912048e-02 -3.873177617788314819e-02 -4.265955649316310883e-03 6.222698837518692017e-02 1.193728744983673096e-01 -3.165947198867797852e-01 4.144182801246643066e-02 1.255813241004943848e-01 1.547947525978088379e-01 -1.199743375182151794e-01 1.819414347410202026e-01 6.221619993448257446e-02 -8.809266239404678345e-02 2.644250392913818359e-01 -6.775822024792432785e-03 3.023135289549827576e-02 -9.868580102920532227e-02 1.415914744138717651e-01 2.430823147296905518e-01
2.000710517168045044e-01 -4.846561327576637268e-02 1.250782251358032227e+00 -3.273629844188690186e-01 5.251236259937286377e-02 4.393973350524902344e-01 2.960493564605712891e-01 -8.583867922425270081e-03 5.752318724989891052e-02 -4.283180832862854004e-01 1.936740577220916748e-01 4.375866353511810303e-01 -3.787575364112854004e-01 2.790226414799690247e-02 -5.425288155674934387e-02 -1.635518372058868408e-01 -5.369865298271179199e-01 1.404449194669723511e-01 2.498324215412139893e-01 -3.583780527114868164e+00 1.648915767669677734e+00 -7.366888523101806641e-01 4.295085370540618896e-01 -1.115238070487976074e-01 2.331198379397392273e-02 4.081895351409912109e-01 -2.310379594564437866e-01 -1.642837971448898315e-01 2.724090814590454102e+00 -2.061580717563629150e-01 1.253126740455627441e+00 3.465943932533264160e-01 -9.395999461412429810e-02 -6.467142701148986816e-02 2.498713284730911255e-01 -9.451611340045928955e-02 1.539185047149658203e+00 9.626908302307128906e-01 -6.258908510208129883e-01 7.913227379322052002e-02 -1.119768857955932617e+00 6.438890099525451660e-02 -5.553606152534484863e-02 -2.220742404460906982e-01 -1.185928191989660263e-02 -2.049530267715454102e+00 -5.218172073364257812e-02 1.797654032707214355e-01 -1.736429631710052490e-01 2.313417345285415649e-01 -4.247076988220214844e+00 1.047137528657913208e-01 -2.988511800765991211e+00 4.379420541226863861e-03 -5.685310959815979004e-01 -5.786997079849243164e-02 1.845613569021224976e-01 -8.599970817565917969e+00 -6.998522877693176270e-01 -1.923946291208267212e-01 -8.005837351083755493e-02 2.564969286322593689e-02 1.978672854602336884e-02 -1.649493724107742310e-02 -7.587083578109741211e-01 -5.379058122634887695e-01 -3.921043127775192261e-02 -1.740764230489730835e-01 3.121399283409118652e-01 -2.444213628768920898e-01 2.115662097930908203e-01 -2.911768555641174316e-01 -5.956717729568481445e-01 1.553122252225875854e-01 4.031730294227600098e-01 -1.853770762681961060e-02 -7.548323869705200195e-01 8.610914349555969238e-01 7.887947559356689453e-01 1.142401099205017090e-01 -5.534309893846511841e-02 -5.984092503786087036e-02 9.827864356338977814e-03 8.329519033432006836e-01 2.310988664627075195e+00 -5.186427384614944458e-02 2.356935441493988037e-01 9.238117337226867676e-01 2.585932612419128418e-01 -5.504423379898071289e-01 -5.050919651985168457e-01 -4.644345939159393311e-01 -3.626537919044494629e-01 -2.794325053691864014e-01 3.541831672191619873e-01 -1.253569275140762329e-01 -1.040862128138542175e-01 -5.373597145080566406e-01 2.290187925100326538e-01 -2.995780408382415771e-01
2.399318851530551910e-02 4.121605772525072098e-03 -2.306755483150482178e-01 -6.705322116613388062e-02 -2.011438757181167603e-01 4.022165015339851379e-02 9.275427460670471191e-02 2.912534633651375771e-03 -6.037651095539331436e-03 -2.567632794380187988e-01 -2.640125453472137451e-01 -4.000946283340454102e-01 1.921051144599914551e-01 -1.341498345136642456e-01 1.266571413725614548e-02 -2.470240592956542969e-01 -3.599693179130554199e-01 7.734627462923526764e-03 -6.594584882259368896e-02 -1.843908578157424927e-01 -3.210313618183135986e-01 1.785403043031692505e-01 1.277274638414382935e-01 -2.148996353149414062e+00 -4.625804349780082703e-02 -1.646057963371276855e-01 -1.470859944820404053e-01 -1.174971461296081543e-01 2.740008831024169922e-01 1.281724274158477783e-01 3.192274272441864014e-01 1.208415701985359192e-01 1.280867587774991989e-02 -2.381398677825927734e-01 -9.936875104904174805e-02 2.408706694841384888e-01 1.603988707065582275e-01 9.731300175189971924e-02 -6.618104875087738037e-02 8.286363631486892700e-02 4.669776931405067444e-02 -2.321054972708225250e-02 -5.175290256738662720e-02 6.997390091419219971e-02 -9.083827584981918335e-02 -8.011536300182342529e-02 -2.867718786001205444e-02 6.679245736449956894e-03 -1.024830266833305359e-01 -6.003102287650108337e-02 -9.288678318262100220e-02 1.965309977531433105e-01 -1.921021640300750732e-01 -6.176053080707788467e-03 -3.048617392778396606e-02 -5.517366155982017517e-02 -1.468321681022644043e-01 1.334018260240554810e-01 -9.616254828870296478e-03 -4.906722344458103180e-03 9.444688260555267334e-02 6.370118260383605957e-02 3.591693341732025146e-01 1.128004565834999084e-01 1.029090136289596558e-01 -1.265555024147033691e-01 5.077334046363830566e-01 -2.497011423110961914e-01 6.043377146124839783e-02 -1.125130150467157364e-02 -1.996076479554176331e-02 1.288113296031951904e-01 -2.698114514350891113e-01 -9.771186858415603638e-03 9.559076279401779175e-03 3.060057945549488068e-02 -2.187572717666625977e-01 -2.128871917724609375e+00 2.452795952558517456e-01 -6.248839572072029114e-02 -5.859351754188537598e-01 -1.881098747253417969e-02 -1.714646071195602417e-01 1.908907443284988403e-01 -6.832779943943023682e-02 9.250402450561523438e-02 -3.476961329579353333e-02 -4.467491805553436279e-01 -6.650571525096893311e-02 -2.010886669158935547e-01 -2.758770287036895752e-01 -5.881761386990547180e-02 1.218781694769859314e-01 -7.448768615722656250e-02 7.289132475852966309e-02 1.072201058268547058e-01 1.206940338015556335e-01 -6.692005693912506104e-02 -9.952368587255477905e-02 4.070779979228973389e-01
1.809787005186080933e-01 4.195458895992487669e-04 1.861948966979980469e-01 -1.001446545124053955e-01 3.968430459499359131e-01 -5.687467381358146667e-02 -5.077698826789855957e-02 -4.080648533999919891e-03 3.991325199604034424e-02 3.970052599906921387e-01 1.800016164779663086e-01 -7.041569054126739502e-02 -1.293988674879074097e-01 -8.931139856576919556e-02 7.976006716489791870e-02 -6.957349181175231934e-01 -4.654526114463806152e-01 -2.894736230373382568e-01 -1.497667282819747925e-01 -1.819924265146255493e-01 3.087215423583984375e-01 -1.107452213764190674e-01 6.940695643424987793e-02 -6.184199079871177673e-02 4.026280716061592102e-02 -1.503734439611434937e-01 -1.939278990030288696e-01 1.736744940280914307e-01 1.013525351881980896e-01 -4.729637876152992249e-02 4.072877019643783569e-02 7.044889032840728760e-03 -4.527252018451690674e-01 1.071692034602165222e-01 -1.518959850072860718e-01 -3.114921972155570984e-02 -3.137166500091552734e-01 -2.281724363565444946e-01 4.250427782535552979e-01 8.353050053119659424e-02 -1.472128778696060181e-01 1.672605052590370178e-02 1.028413027524948120e-01 -1.059522293508052826e-02 1.945373713970184326e-01 -2.195907682180404663e-01 -2.248133718967437744e-01 -1.328650675714015961e-02 1.740028113126754761e-01 2.621145546436309814e-02 2.689095139503479004e-01 -3.939123451709747314e-01 3.319529071450233459e-02 6.627324502915143967e-03 2.476384490728378296e-02 1.089287623763084412e-01 7.070543617010116577e-02 -1.664622277021408081e-01 1.565280109643936157e-01 -4.023171216249465942e-02 -2.424868755042552948e-02 2.458271831274032593e-01 -2.717451453208923340e-01 1.135111600160598755e-01 -1.716834008693695068e-01 -8.316756039857864380e-02 -1.390673071146011353e-01 8.080544322729110718e-02 -1.651464700698852539e-01 -1.284268796443939209e-01 -2.059705555438995361e-01 -1.314679831266403198e-01 -1.214823275804519653e-01 1.750875860452651978e-01 -1.479853242635726929e-01 -5.766528099775314331e-02 -1.615971326828002930e-01 1.085979957133531570e-02 -2.187662273645401001e-01 5.607550963759422302e-02 -1.504268944263458252e-01 -2.891764603555202484e-02 2.976308166980743408e-01 -2.770252525806427002e-02 1.929512992501258850e-02 -2.721621654927730560e-03 -2.271365970373153687e-01 -6.272256374359130859e-02 -6.902068271301686764e-04 -9.113331884145736694e-02 9.746722131967544556e-02 -1.378514319658279419e-01 6.155449524521827698e-02 -1.035927832126617432e-01 2.706886455416679382e-02 4.028392136096954346e-01 -2.632137238979339600e-01 -1.158845722675323486e-01 -1.164868324995040894e-01 1.192001476883888245e-01
2.300754636526107788e-01 1.486082468181848526e-02 -1.819612681865692139e-01 -1.192860975861549377e-01 -3.207050561904907227e-01 -1.401958614587783813e-01 5.520521104335784912e-02 3.774215001612901688e-03 1.359856277704238892e-01 -1.565229415893554688e+00 1.781932413578033447e-01 -3.795617818832397461e-02 1.787619739770889282e-01 7.613306492567062378e-02 -7.594834268093109131e-02 -3.905994817614555359e-02 -2.397475391626358032e-01 -5.775133520364761353e-02 3.196305781602859497e-02 -9.578286111354827881e-02 5.765960216522216797e-01 2.958507835865020752e-01 -1.737541407346725464e-01 -3.384521305561065674e-01 2.059996873140335083e-02 -4.921083450317382812e-01 2.629267573356628418e-01 2.164910286664962769e-01 4.495984613895416260e-01 5.574045330286026001e-02 -1.218622922897338867e-01 8.335655927658081055e-02 5.036892890930175781e-01 1.123435974121093750e+00 1.022653952240943909e-01 6.189785003662109375e-01 -7.847328484058380127e-02 -2.834749817848205566e-01 -4.557683765888214111e-01 3.019397705793380737e-02 -4.642383381724357605e-02 2.364050596952438354e-02 -1.220706403255462646e-01 -1.837279275059700012e-02 -2.021110355854034424e-01 -1.320368051528930664e-01 -2.035109698772430420e-01 1.011584252119064331e-01 -2.449768334627151489e-01 1.284194588661193848e-01 4.509977102279663086e-01 -2.829860523343086243e-02 -3.585673570632934570e-01 5.344989709556102753e-03 9.527741372585296631e-02 1.004286482930183411e-01 2.014636248350143433e-01 4.790929704904556274e-02 2.896454185247421265e-03 8.108174055814743042e-02 1.809945702552795410e-01 2.931471765041351318e-01 -2.487784326076507568e-01 -6.445887684822082520e-01 1.439881920814514160e-01 3.054358065128326416e-01 6.837185621261596680e-01 3.729690909385681152e-01 2.095989882946014404e-01 4.337613880634307861e-01 2.365594953298568726e-01 -4.353480041027069092e-02 6.858219504356384277e-01 1.347198486328125000e-01 -5.000686272978782654e-02 2.049130499362945557e-01 -4.518133401870727539e-01 3.811775743961334229e-01 8.734314888715744019e-02 -9.091950953006744385e-03 1.893519051373004913e-02 -1.474861502647399902e-01 -1.810123175382614136e-01 -6.017434000968933105e-01 4.074697494506835938e-01 -2.062255591154098511e-01 1.571020036935806274e-01 2.381012141704559326e-01 1.549170538783073425e-02 -9.345249272882938385e-03 1.077761292457580566e+00 -3.147667348384857178e-01 -3.596938550472259521e-01 -1.636226326227188110e-01 -5.507352948188781738e-01 4.043584689497947693e-02 -5.893535912036895752e-02 1.487853191792964935e-02 1.439731419086456299e-01 9.925249963998794556e-02
-1.332555804401636124e-02 -7.755804806947708130e-02 -4.022956266999244690e-02 -3.161755949258804321e-02 -4.379794467240571976e-03 3.870779648423194885e-02 -7.335145026445388794e-02 6.071730051189661026e-03 1.363805588334798813e-02 -8.008155971765518188e-02 -1.735393330454826355e-02 -7.959443330764770508e-02 3.632083069533109665e-03 -6.849712878465652466e-02 -1.194885224103927612e-01 -7.381952553987503052e-02 -3.996058553457260132e-02 -1.990616507828235626e-02 4.548767954111099243e-02 -9.698008745908737183e-02 -7.165511697530746460e-02 -4.805768653750419617e-02 -1.059963554143905640e-01 2.670958265662193298e-02 -3.895439952611923218e-02 -8.970281481742858887e-02 3.401878476142883301e-02 7.063735276460647583e-03 -2.661567181348800659e-02 3.274706751108169556e-02 -3.335854411125183105e-02 6.011889781802892685e-03 9.621370583772659302e-03 4.953314736485481262e-02 -9.712094068527221680e-02 -1.000662818551063538e-01 -5.197532847523689270e-02 -8.929128199815750122e-02 -6.804781407117843628e-02 5.309601500630378723e-02 -9.094931930303573608e-02 -7.734964787960052490e-02 -8.691429346799850464e-02 2.782674692571163177e-02 -4.793253913521766663e-02 9.811427444219589233e-03 2.262480929493904114e-02 -6.553561240434646606e-02 -5.500857532024383545e-02 -4.818141460418701172e-02 -5.692102387547492981e-02 -9.585541486740112305e-02 -1.198709607124328613e-01 2.723572542890906334e-03 -1.279665715992450714e-02 -8.652203530073165894e-02 6.310588866472244263e-02 6.472091656178236008e-03 -2.598413079977035522e-02 2.842377312481403351e-02 1.899959705770015717e-02 4.786327853798866272e-02 3.138221800327301025e-02 -1.339723616838455200e-01 -1.182398796081542969e-01 1.854404993355274200e-02 -1.984312431886792183e-03 -7.702455855906009674e-03 -6.002070382237434387e-02 -3.003170527517795563e-02 -1.332473307847976685e-01 6.850799918174743652e-02 -8.391528576612472534e-02 -1.300767436623573303e-02 5.571124330163002014e-02 -2.423248440027236938e-02 -1.354577541351318359e-01 -5.985799431800842285e-02 -5.645333975553512573e-02 -1.079965606331825256e-01 -4.904745891690254211e-02 4.820854589343070984e-02 -1.143413409590721130e-01 -8.966205641627311707e-03 -1.159089058637619019e-01 -8.438083529472351074e-02 3.675357997417449951e-02 1.088706124573945999e-02 -1.180147305130958557e-01 -5.363188683986663818e-02 -1.829383894801139832e-02 -5.903069302439689636e-02 -3.260720521211624146e-02 -2.123226039111614227e-02 -1.025014519691467285e-01 4.876266792416572571e-02 3.500107675790786743e-02 -6.436521559953689575e-02 -4.228310659527778625e-02 3.424530848860740662e-02
-3.111450076103210449e-01 -1.612652391195297241e-01 -5.786590743809938431e-03 -2.196101993322372437e-01 2.862560451030731201e-01 -2.910271100699901581e-02 7.053733617067337036e-02 1.396858831867575645e-03 1.783628948032855988e-02 -3.366914093494415283e-01 2.058915980160236359e-02 -6.713136285543441772e-02 1.673576086759567261e-01 -4.873164743185043335e-02 -6.538993120193481445e-02 2.540383636951446533e-01 -4.084943607449531555e-02 1.532938480377197266e-01 2.572677731513977051e-01 -4.378026127815246582e-01 2.763789892196655273e-01 2.510195970535278320e-01 3.157650679349899292e-02 -1.432027965784072876e-01 -3.169035017490386963e-01 -3.950021043419837952e-02 -1.103095412254333496e-01 8.192775398492813110e-02 5.134018659591674805e-01 -2.477124631404876709e-01 3.844745084643363953e-02 -1.848999410867691040e-01 8.896658197045326233e-03 -1.768363416194915771e-01 1.584453694522380829e-02 -9.921542555093765259e-02 -1.825196295976638794e-01 2.479071766138076782e-01 2.873492240905761719e-01 -8.720073848962783813e-02 5.286049246788024902e-01 4.804379120469093323e-02 3.793058916926383972e-02 -1.027386635541915894e-02 -1.221515759825706482e-01 3.356486186385154724e-02 -4.655255973339080811e-01 3.076053559780120850e-01 -5.794640779495239258e-01 -2.605114579200744629e-01 1.364429295063018799e-01 -1.364890486001968384e-01 2.266835123300552368e-01 -4.807141667697578669e-04 -3.569193929433822632e-02 3.447824120521545410e-01 -1.405690014362335205e-01 9.305655211210250854e-02 -1.724091731011867523e-02 7.513334043323993683e-03 1.197837665677070618e-01 3.748236596584320068e-02 -9.932732582092285156e-02 -3.400062620639801025e-01 -4.089660942554473877e-01 -1.686784904450178146e-03 2.782649695873260498e-01 5.942640081048011780e-02 1.282946616411209106e-01 -1.553412228822708130e-01 -5.403336137533187866e-02 3.030028939247131348e-02 -2.634985446929931641e-01 1.411362737417221069e-01 -2.572662532329559326e-01 1.920703426003456116e-02 9.787739068269729614e-02 -7.324742153286933899e-03 -9.893327206373214722e-02 -1.639396511018276215e-02 8.796595036983489990e-02 1.139813140034675598e-01 1.503559648990631104e-01 1.126783937215805054e-01 -4.757913053035736084e-01 9.573870338499546051e-03 -2.275151014328002930e-01 -2.084000855684280396e-01 -6.596963852643966675e-03 -4.682298004627227783e-02 -2.588838934898376465e-01 1.583054363727569580e-01 6.365580558776855469e-01 3.629576265811920166e-01 -4.608066007494926453e-02 1.089601218700408936e-01 -3.298417329788208008e-01 1.912315055960789323e-04 -5.721194297075271606e-02 2.392665743827819824e-01
1.179935038089752197e-01 -5.752674490213394165e-02 1.365282237529754639e-01 1.551115512847900391e-01 -2.301884740591049194e-01 4.860119521617889404e-02 1.814598962664604187e-02 -1.020516501739621162e-03 7.501264661550521851e-02 -3.823317885398864746e-01 1.425272673368453979e-01 1.582283824682235718e-01 -5.332814529538154602e-02 -1.438337564468383789e-01 2.111283540725708008e-01 -3.554907068610191345e-02 -3.322725534439086914e+00 -5.021862685680389404e-03 1.868949532508850098e-01 -1.139979213476181030e-01 -2.607397139072418213e-01 3.435682654380798340e-01 -9.891943633556365967e-02 -3.414343297481536865e-01 7.993684709072113037e-02 1.372004766017198563e-02 1.566228419542312622e-01 -1.964517533779144287e-01 2.656354904174804688e-01 1.576344221830368042e-01 1.609217971563339233e-01 6.016510725021362305e-01 6.944567430764436722e-03 -6.861919164657592773e-01 -1.033643037080764771e-01 3.664864301681518555e-01 -1.671963930130004883e-01 -1.955670863389968872e-01 -2.693948335945606232e-02 -3.192199021577835083e-02 5.571644008159637451e-02 1.323036849498748779e-01 -2.722980976104736328e-01 9.061747789382934570e-02 -2.073847800493240356e-01 -9.124417603015899658e-02 3.724570274353027344e-01 -3.207090497016906738e-02 -2.039750963449478149e-01 -1.316045373678207397e-01 -4.068561643362045288e-02 4.799832999706268311e-01 -3.504422307014465332e-01 -1.216115709394216537e-02 2.711231410503387451e-01 5.221526697278022766e-02 -4.376387596130371094e-01 -3.365803062915802002e-01 -2.414791844785213470e-02 2.337798923254013062e-01 -1.186397671699523926e-01 5.002332329750061035e-01 -1.940143704414367676e-01 1.956727951765060425e-01 -3.526533842086791992e-01 -1.379376202821731567e-01 1.035438701510429382e-01 1.097235083580017090e-01 -2.465555816888809204e-01 1.412444710731506348e-01 3.102558851242065430e-01 -1.966787874698638916e-02 2.469893172383308411e-02 -3.607179224491119385e-02 2.750946283340454102e-01 2.030206620693206787e-01 3.406478464603424072e-01 3.151946663856506348e-01 -1.939036101102828979e-01 -1.044554561376571655e-01 9.418562054634094238e-02 -9.583309292793273926e-02 -2.519142925739288330e-01 -5.083569139242172241e-02 2.058201730251312256e-01 -4.855781048536300659e-02 1.762334704399108887e-01 -5.916936993598937988e-01 -9.544887393712997437e-02 -1.280390024185180664e-01 1.056114435195922852e-01 6.386329233646392822e-02 -7.409841567277908325e-02 1.864842139184474945e-02 1.967999190092086792e-01 8.065027743577957153e-02 2.194216102361679077e-01 -2.396534383296966553e-02 4.781597480177879333e-02 1.146970242261886597e-01
1.533242613077163696e-01 -1.618525087833404541e-01 -5.885221958160400391e-01 -9.740423411130905151e-02 -1.407089382410049438e-01 5.608838796615600586e-02 6.672095060348510742e-01 -8.866598946042358875e-04 1.004269123077392578e-01 -6.291144341230392456e-02 -1.119466945528984070e-01 -1.027457267045974731e-01 -6.480093598365783691e-01 6.030737161636352539e-01 1.588411927223205566e-01 -4.296696186065673828e-01 -4.509920179843902588e-01 8.053781986236572266e-01 -7.231603264808654785e-01 -7.942727953195571899e-02 -2.100624442100524902e-01 -5.663944035768508911e-02 -2.491878867149353027e-01 4.638389684259891510e-03 -4.372156858444213867e-01 -4.281570911407470703e-01 1.142974197864532471e-01 1.415985673666000366e-01 7.394055277109146118e-02 -4.581215083599090576e-01 2.811974473297595978e-02 8.175171166658401489e-02 1.985087394714355469e-01 1.577243506908416748e-01 3.559048771858215332e-01 -4.036810398101806641e-01 -6.248191371560096741e-02 3.893674612045288086e-01 8.172778785228729248e-02 2.884970307350158691e-01 4.896652400493621826e-01 -6.349188834428787231e-02 1.669705063104629517e-01 7.405365258455276489e-02 1.202321499586105347e-01 1.297499835491180420e-01 8.499802947044372559e-01 9.569551050662994385e-02 -2.203905880451202393e-01 -3.686335682868957520e-02 6.507037878036499023e-01 1.681978441774845123e-02 1.132062077522277832e-01 -4.049671813845634460e-03 -4.162197411060333252e-01 -3.010814450681209564e-02 -2.394993305206298828e-01 -2.750836610794067383e-01 3.489649295806884766e-01 -4.266152903437614441e-02 2.479889392852783203e-01 1.674490422010421753e-01 6.203467026352882385e-02 5.000925064086914062e-01 -6.517410278320312500e-02 -2.291672974824905396e-01 -9.116110950708389282e-02 -5.816969648003578186e-02 -1.890038140118122101e-02 -7.831069827079772949e-01 -3.091749921441078186e-02 -1.653014868497848511e-02 4.062969703227281570e-03 2.298133820295333862e-01 -2.910809218883514404e-01 -6.454310417175292969e-01 -7.071897387504577637e-02 1.478095054626464844e-01 3.531777858734130859e-01 -8.676909655332565308e-02 -1.689767092466354370e-01 4.888399038463830948e-03 3.739505633711814880e-02 -3.723203018307685852e-02 -1.077198833227157593e-01 1.166154369711875916e-01 9.845028072595596313e-02 -2.556003332138061523e-01 -8.137445151805877686e-02 1.400649696588516235e-01 -1.306257843971252441e-01 4.211628437042236328e-02 2.367795854806900024e-01 6.201261878013610840e-01 8.050174266099929810e-02 -1.604380011558532715e-01 -7.781928032636642456e-02 9.047445654869079590e-02 -3.711128234863281250e-01 8.811954855918884277e-01
-9.356291592121124268e-02 -1.340063363313674927e-01 5.086765158921480179e-03 5.314446091651916504e-01 -1.628466397523880005e-01 5.237346515059471130e-02 3.200029730796813965e-01 1.118935470003634691e-04 -5.238970369100570679e-02 -2.109312564134597778e-01 -1.636293083429336548e-01 1.022385060787200928e-01 -2.638707160949707031e-01 -2.363459318876266479e-01 1.699352860450744629e-01 -2.492015361785888672e-01 -5.822770595550537109e-01 -8.738321065902709961e-02 -1.748008430004119873e-01 6.005786061286926270e-01 -2.585855126380920410e-01 -1.182378455996513367e-01 -7.448647171258926392e-02 -2.166470289230346680e-01 6.528820842504501343e-02 3.362800925970077515e-02 -3.844908624887466431e-02 1.464163046330213547e-02 -1.370488107204437256e-01 -7.505920529365539551e-02 -3.627433776855468750e-01 1.018891576677560806e-02 -3.827796578407287598e-01 2.496497184038162231e-01 2.182882279157638550e-01 6.690885871648788452e-02 -1.754312813282012939e-01 1.913670152425765991e-01 -4.075951129198074341e-02 4.974641799926757812e-01 2.708723545074462891e-01 -1.002069339156150818e-01 -2.878717482089996338e-01 5.582977458834648132e-02 2.366206198930740356e-01 -1.910619288682937622e-01 1.380503535270690918e+00 -3.145664632320404053e-01 1.959721185266971588e-02 2.124549597501754761e-01 4.849366471171379089e-02 8.418947458267211914e-02 1.613298803567886353e-01 8.699122816324234009e-03 2.289434522390365601e-01 -2.064300179481506348e-01 -8.162297308444976807e-02 -4.183337688446044922e-01 -4.008038938045501709e-01 2.893275618553161621e-01 3.070263266563415527e-01 2.125491499900817871e-01 -4.528671130537986755e-02 -2.054598033428192139e-01 1.801313459873199463e-01 3.814869225025177002e-01 -2.974677979946136475e-01 9.785350412130355835e-02 -2.258535921573638916e-01 6.882496178150177002e-02 -8.327097445726394653e-02 -4.035708680748939514e-02 -4.316130280494689941e-01 -2.207149714231491089e-01 3.949298560619354248e-01 -2.165371030569076538e-01 1.836517900228500366e-01 6.335650570690631866e-03 1.912152171134948730e-01 -3.397284448146820068e-01 1.629597507417201996e-02 -8.324137330055236816e-02 4.312624782323837280e-02 6.100007891654968262e-01 1.142671704292297363e-01 5.800446122884750366e-02 -3.763649612665176392e-02 -5.616976320743560791e-02 -3.809243440628051758e-02 3.195469453930854797e-02 -5.218614935874938965e-01 -4.925174266099929810e-02 -1.850723177194595337e-01 -4.571903049945831299e-01 5.659673735499382019e-02 -1.477964222431182861e-01 2.713899910449981689e-01 6.912463903427124023e-02 -6.007963418960571289e-01 2.883006334304809570e-01
3.395706713199615479e-01 -1.751192927360534668e+00 -1.908468753099441528e-01 -2.669753432273864746e-01 3.228847086429595947e-01 2.536081969738006592e-01 -6.233734488487243652e-01 4.715843591839075089e-03 5.631958842277526855e-01 -2.275325804948806763e-01 -1.266934424638748169e-01 -1.046642661094665527e-01 2.308701872825622559e-01 -1.264411568641662598e+00 1.710019446909427643e-02 -4.304661601781845093e-02 -6.627231091260910034e-02 3.472886979579925537e-02 8.069394826889038086e-01 1.267045438289642334e-01 5.397591367363929749e-02 -3.046343028545379639e-01 3.156627714633941650e-01 -3.452691808342933655e-02 3.616176918148994446e-02 -4.027389883995056152e-01 -2.521031722426414490e-02 -2.513403818011283875e-02 1.588692516088485718e-01 1.117239072918891907e-01 -9.319573873654007912e-04 -9.980103000998497009e-03 1.136970594525337219e-01 -2.642036974430084229e-01 1.530950218439102173e-01 5.276911258697509766e-01 1.706120520830154419e-01 -3.609777987003326416e-02 -1.690004169940948486e-01 8.703148365020751953e-02 -7.889078259468078613e-01 -9.156784415245056152e-02 1.711968034505844116e-01 -1.875527054071426392e-01 8.594915270805358887e-02 -9.922601282596588135e-02 -3.074070215225219727e-01 -3.714744001626968384e-03 -1.166374161839485168e-01 3.403228819370269775e-01 -1.520571559667587280e-01 -7.184394448995590210e-02 -1.382372379302978516e-01 -8.943104767240583897e-04 -1.830754876136779785e-01 -4.233908951282501221e-01 1.575051695108413696e-01 -1.867580413818359375e-01 -8.738040924072265625e-02 -1.850384175777435303e-01 4.214457795023918152e-02 -1.308825254440307617e+00 -4.373850226402282715e-01 -4.102608654648065567e-03 -1.233938410878181458e-01 -3.520220816135406494e-01 -4.540143907070159912e-02 1.518322676420211792e-01 6.450144946575164795e-02 3.920811414718627930e-01 -1.713803038001060486e-02 -8.762194216251373291e-02 4.107571244239807129e-01 -1.466301828622817993e-01 -1.583650708198547363e-01 1.862478107213973999e-01 1.906051337718963623e-01 3.034704364836215973e-03 3.400794863700866699e-01 8.775768280029296875e-01 -1.203032135963439941e-01 2.900097072124481201e-01 1.913055926561355591e-01 2.011082470417022705e-01 -3.122613728046417236e-01 -2.211278304457664490e-02 -5.109619721770286560e-02 1.920633018016815186e-01 2.011547833681106567e-01 -2.730372548103332520e-02 2.546676993370056152e-01 4.192569479346275330e-02 9.727237373590469360e-02 5.497545003890991211e-02 -4.282633960247039795e-01 -2.785556763410568237e-02 2.077570706605911255e-01 3.865615725517272949e-01 -3.122451305389404297e-01 -1.980747878551483154e-01
7.847797870635986328e-02 -5.075022950768470764e-02 -1.870538853108882904e-02 -2.220423817634582520e-01 -2.716039419174194336e-01 -4.192623794078826904e-01 -3.255062997341156006e-01 1.591124164406210184e-04 7.113966345787048340e-02 2.250998169183731079e-01 6.852152198553085327e-02 -1.298945993185043335e-01 -4.481314122676849365e-02 -4.072828292846679688e-01 -1.274545043706893921e-01 -1.805227100849151611e-01 -6.815852522850036621e-01 2.132627964019775391e-01 3.749363124370574951e-02 6.880344450473785400e-02 -3.132229745388031006e-01 -2.694241702556610107e-01 -2.213325798511505127e-01 -4.834891483187675476e-02 1.290802955627441406e-01 2.937297224998474121e-01 -2.804197669029235840e-01 1.567985862493515015e-02 1.604719758033752441e-01 -1.010195612907409668e-01 2.192414402961730957e-01 -4.242384135723114014e-01 -1.368067413568496704e-01 -7.324618101119995117e-02 1.511062681674957275e-01 -4.519041255116462708e-02 3.218556344509124756e-01 5.138339996337890625e-01 2.528490126132965088e-01 -5.511745810508728027e-01 -5.429045855998992920e-02 -1.676072329282760620e-01 -6.097471341490745544e-02 2.024286240339279175e-01 -1.120284348726272583e-01 -1.350314915180206299e-01 3.890861868858337402e-01 -1.717752516269683838e-01 3.599258065223693848e-01 -4.684648513793945312e-01 -1.805634945631027222e-01 2.942718006670475006e-02 3.305344283580780029e-01 -4.592362791299819946e-03 6.051888316869735718e-02 4.410013556480407715e-01 -7.631158083677291870e-02 -3.007962405681610107e-01 -1.645363122224807739e-01 9.439051151275634766e-02 -4.315318465232849121e-01 -9.682621806859970093e-02 6.340181082487106323e-02 -3.013862371444702148e-01 1.486233174800872803e-01 -1.106984838843345642e-01 1.116462647914886475e-01 2.947034537792205811e-01 -4.182509705424308777e-02 3.289632797241210938e-01 2.579783461987972260e-02 1.607051193714141846e-01 7.968677580356597900e-02 9.328234940767288208e-02 -2.689484059810638428e-01 3.246205747127532959e-01 -8.810107409954071045e-02 7.599224150180816650e-02 -3.173327147960662842e-01 1.616968512535095215e-01 1.062909439206123352e-01 -8.638074249029159546e-02 2.004667967557907104e-01 3.351634442806243896e-01 1.056847628206014633e-02 1.095210388302803040e-01 -4.061636328697204590e-02 -4.882734119892120361e-01 -1.917060017585754395e-01 -2.235297299921512604e-02 -2.606343626976013184e-01 2.743799611926078796e-02 -7.958082109689712524e-02 2.473957538604736328e-01 2.485955059528350830e-01 3.128453493118286133e-01 2.922184579074382782e-02 1.287981122732162476e-01 2.221527844667434692e-01 1.628185212612152100e-01
-1.823184639215469360e-02 1.613006740808486938e-02 5.451313219964504242e-03 5.931728985160589218e-03 -1.454366743564605713e-01 -9.033313021063804626e-03 2.708100900053977966e-02 -3.030393409729003906e+01 1.357393246144056320e-02 -1.584491729736328125e-01 -1.801176927983760834e-02 4.580872133374214172e-02 -2.074849791824817657e-02 -8.413272909820079803e-03 -7.399908732622861862e-03 2.083957754075527191e-02 -2.503237500786781311e-02 3.198978304862976074e-02 -1.999511383473873138e-02 3.818331751972436905e-03 1.486024260520935059e-02 1.228023320436477661e-02 -5.320953950285911560e-02 -5.256296601146459579e-03 -3.093251585960388184e-02 7.619908079504966736e-03 -3.425380587577819824e-02 -1.318926271051168442e-02 -1.053634844720363617e-02 9.807649068534374237e-03 2.429381757974624634e-02 -1.630078628659248352e-02 -1.147612556815147400e-02 6.798746995627880096e-03 -4.423278197646141052e-02 9.018651209771633148e-03 6.138422060757875443e-03 -1.642837189137935638e-02 -2.402263507246971130e-02 -2.285650698468089104e-03 4.981252830475568771e-03 2.450243942439556122e-02 -6.570307910442352295e-02 4.788371548056602478e-02 -4.321943968534469604e-03 -1.040092762559652328e-02 -1.697080954909324646e-02 -1.630597189068794250e-02 -7.825840264558792114e-03 -1.326223276555538177e-02 1.587500609457492828e-02 1.551733445376157761e-02 -1.393714081496000290e-02 -2.331774216145277023e-03 -3.114207461476325989e-02 3.079553879797458649e-02 3.856765339151024818e-03 1.952752657234668732e-02 1.197079196572303772e-02 -6.184324156492948532e-03 1.733789034187793732e-02 1.359654124826192856e-02 -2.931357920169830322e-02 1.021212991327047348e-02 -2.887382579501718283e-04 2.087639179080724716e-03 -2.138933725655078888e-02 2.868966758251190186e-02 -1.561664976179599762e-04 -2.415429055690765381e-02 -1.756241731345653534e-02 1.226355973631143570e-02 3.076187148690223694e-02 -3.915600478649139404e-02 6.238839589059352875e-03 1.027491036802530289e-02 -2.238732762634754181e-02 1.002070866525173187e-02 -1.941656111739575863e-03 1.026697270572185516e-02 4.008497577160596848e-03 -2.672428637742996216e-02 -6.753462366759777069e-03 -7.596603129059076309e-03 1.453484036028385162e-02 -5.981431459076702595e-04 -6.869288044981658459e-04 6.772757042199373245e-03 -5.284488946199417114e-02 -6.745043210685253143e-03 8.712092414498329163e-03 1.057251542806625366e-02 5.582391750067472458e-03 -4.652962554246187210e-03 2.888475544750690460e-03 1.088440697640180588e-02 -2.457732334733009338e-02 -1.395313767716288567e-03 8.404368534684181213e-03 1.495431642979383469e-02
2.397859841585159302e-01 -1.355564296245574951e-01 5.756179690361022949e-01 1.027127504348754883e-01 1.934573501348495483e-01 9.517163038253784180e-02 2.503315210342407227e-01 4.974542185664176941e-03 -1.196895018219947815e-01 -4.062649607658386230e-02 -6.820570677518844604e-02 -1.125102955847978592e-02 2.451533526182174683e-01 -7.226748466491699219e-01 1.963009089231491089e-01 -2.053875178098678589e-01 3.157197237014770508e-01 -5.526309609413146973e-01 -5.057802796363830566e-01 5.745285153388977051e-01 -1.546016484498977661e-01 1.353631764650344849e-01 1.810515224933624268e-01 -5.771057307720184326e-02 1.595396548509597778e-01 -1.809396147727966309e-01 -2.413972653448581696e-02 -9.554623067378997803e-02 -7.860447466373443604e-02 3.604863882064819336e-01 -7.378005422651767731e-03 -1.235544085502624512e-01 -3.249485418200492859e-02 -5.951020121574401855e-02 -3.141166567802429199e-01 -3.609432876110076904e-01 1.277530491352081299e-01 2.327663265168666840e-02 -2.840674715116620064e-03 -5.080657005310058594e-01 -1.654640585184097290e-01 -4.792132228612899780e-02 2.001007273793220520e-02 -8.449052274227142334e-02 -1.231957674026489258e-01 -4.653119668364524841e-02 1.040859799832105637e-02 -3.130070567131042480e-01 5.906882882118225098e-01 1.692255437374114990e-01 -7.510808110237121582e-01 -5.069534853100776672e-02 4.281570017337799072e-01 -5.334611050784587860e-03 5.599305033683776855e-01 4.841987043619155884e-02 -2.176981568336486816e-01 9.025011211633682251e-02 2.177657037973403931e-01 4.053235948085784912e-01 2.199132889509201050e-01 5.208973959088325500e-02 3.551604747772216797e-01 3.472208976745605469e-02 -1.474435925483703613e-01 1.650734841823577881e-01 -3.389289081096649170e-01 -6.603293865919113159e-02 1.459954231977462769e-01 2.776444554328918457e-01 1.978633701801300049e-01 1.821822226047515869e-01 2.793678939342498779e-01 1.206255033612251282e-01 -2.506671547889709473e-01 2.477055639028549194e-01 -1.405580341815948486e-01 1.872722208499908447e-01 2.515628039836883545e-01 -7.211017608642578125e-01 -3.043666183948516846e-01 1.453649252653121948e-01 -2.280126065015792847e-01 -3.148714452981948853e-02 -1.780436187982559204e-01 -3.399831950664520264e-01 1.308309584856033325e-01 2.898835577070713043e-02 6.861446052789688110e-02 1.050164625048637390e-01 -2.449182569980621338e-01 1.035013571381568909e-01 -4.041973352432250977e-01 -6.848675608634948730e-01 -5.481907725334167480e-01 5.717331916093826294e-02 -3.380951285362243652e-02 -7.882704734802246094e-01 1.456475555896759033e-01 -2.746780216693878174e-01
3.039562106132507324e-01 3.763752803206443787e-02 1.218503788113594055e-01 -1.277020871639251709e-01 4.922027513384819031e-02 -2.088007479906082153e-01 -1.765008866786956787e-01 -1.378018292598426342e-03 -9.883037768304347992e-03 2.648335695266723633e-01 3.017861843109130859e-01 -6.429210305213928223e-02 9.551644325256347656e-02 1.970945484936237335e-02 -6.389194726943969727e-02 6.569169461727142334e-02 -1.351669281721115112e-01 -9.036249481141567230e-03 -9.979017078876495361e-02 -4.189296960830688477e-01 -4.300340116024017334e-01 2.028469145298004150e-01 1.149171888828277588e-01 7.926724851131439209e-02 2.148899808526039124e-02 -1.122145056724548340e-01 -7.663109898567199707e-02 6.832679361104965210e-02 -5.592799931764602661e-02 3.257938623428344727e-01 5.334158614277839661e-02 1.264545619487762451e-01 6.708976626396179199e-02 -2.778826840221881866e-02 9.165647625923156738e-02 -4.312129318714141846e-01 -4.954642429947853088e-02 -1.666770577430725098e-01 -1.057843398302793503e-02 -4.625876992940902710e-02 1.827982813119888306e-02 -6.748528778553009033e-02 7.416584063321352005e-03 -1.687822304666042328e-02 1.420094165951013565e-02 1.449112445116043091e-01 -7.175628840923309326e-02 -1.555903349071741104e-02 5.976837128400802612e-02 3.331648185849189758e-02 6.023412346839904785e-01 -2.132817506790161133e-01 -9.593069553375244141e-02 1.324574579484760761e-03 6.796929985284805298e-02 -1.140030771493911743e-01 -4.006057083606719971e-01 1.152868196368217468e-02 -6.076437830924987793e-01 -4.182035103440284729e-02 -4.348371550440788269e-02 3.825383260846138000e-02 -3.634647130966186523e-01 2.708582952618598938e-02 1.920073628425598145e-01 1.077815070748329163e-01 3.710756897926330566e-01 -5.804012715816497803e-02 -6.028253957629203796e-02 1.942128874361515045e-02 -1.014624536037445068e-02 -4.679104895330965519e-04 8.255284279584884644e-02 -1.948351506143808365e-03 5.206029489636421204e-02 1.380047798156738281e-01 3.200441598892211914e-02 -1.970071345567703247e-01 7.686934620141983032e-02 -2.298142611980438232e-01 -2.833500877022743225e-02 3.740372508764266968e-02 -9.875130653381347656e-02 -2.127669304609298706e-01 -8.009189623408019543e-04 1.325740814208984375e-01 -1.651839464902877808e-01 -1.509084701538085938e-01 1.367013528943061829e-02 -4.079124704003334045e-02 -4.438677802681922913e-02 5.394486710429191589e-02 -5.717867612838745117e-02 7.689932733774185181e-02 1.022299751639366150e-01 -9.595270454883575439e-02 6.036190688610076904e-02 5.701857805252075195e-02 -1.331721578026190400e-04 -1.213763803243637085e-01
-1.631450951099395752e-01 -1.566850692033767700e-01 1.292317062616348267e-01 9.347466379404067993e-02 1.013623178005218506e-01 2.134025692939758301e-01 -3.324362635612487793e-01 -6.402094382792711258e-03 4.832539334893226624e-02 -5.797366797924041748e-02 1.737972162663936615e-02 3.722483515739440918e-01 1.147609204053878784e-01 -1.176209822297096252e-01 -3.354177344590425491e-03 3.920872509479522705e-01 1.033658385276794434e-01 3.235905617475509644e-02 -5.694811046123504639e-02 -2.540472745895385742e-01 2.229391597211360931e-02 1.742344200611114502e-01 3.077428638935089111e-01 7.812978327274322510e-02 2.455092221498489380e-02 -2.505538165569305420e-01 5.068688988685607910e-01 1.325644254684448242e-01 -2.265268238261342049e-03 -1.598060689866542816e-02 -3.938149809837341309e-01 -1.410713605582714081e-02 -1.232612580060958862e-01 3.303999900817871094e-01 1.520937085151672363e-01 3.633679123595356941e-03 -1.851553171873092651e-01 -1.131068915128707886e-01 2.269972488284111023e-02 1.553309261798858643e-01 9.392852336168289185e-02 -9.434375911951065063e-03 8.809764683246612549e-02 -2.319500036537647247e-02 1.376545522361993790e-02 -1.520998626947402954e-01 -7.138040661811828613e-01 -1.282012015581130981e-01 1.867474168539047241e-01 -6.397332996129989624e-02 4.157958924770355225e-02 3.268035054206848145e-01 1.174646317958831787e-01 1.928890123963356018e-03 -1.383403539657592773e-01 -2.629936635494232178e-01 7.360359281301498413e-02 2.503903210163116455e-01 -9.271572344005107880e-03 4.168725013732910156e-02 -2.942336499691009521e-01 -1.107719168066978455e-01 -3.229544162750244141e-01 -6.167793646454811096e-02 -4.806570243090391159e-03 -2.838523089885711670e-01 -4.997203871607780457e-02 -1.138647347688674927e-01 5.533223226666450500e-02 2.720676362514495850e-01 -1.879396736621856689e-01 -1.084451973438262939e-01 3.478188216686248779e-01 -1.166267767548561096e-01 8.428726345300674438e-03 2.665640711784362793e-01 -9.962826967239379883e-02 -4.370822757482528687e-02 7.552450150251388550e-02 -1.733821928501129150e-01 1.535554826259613037e-01 5.735753104090690613e-02 -8.536954224109649658e-02 7.820502854883670807e-03 -7.055649906396865845e-02 -1.307920068502426147e-01 -1.900659799575805664e-01 1.637706458568572998e-01 8.946765447035431862e-04 1.387834995985031128e-01 -3.464836254715919495e-02 -9.238921338692307472e-04 7.842546701431274414e-02 1.032282337546348572e-01 -4.057375788688659668e-01 2.112721651792526245e-02 -4.849933087825775146e-02 -1.596972048282623291e-01 2.153936326503753662e-01 6.359683722257614136e-02
-5.581176280975341797e-01 -3.028281331062316895e-01 2.896132469177246094e-01 4.125641658902168274e-02 -3.357416763901710510e-02 -3.735405392944812775e-03 2.700194418430328369e-01 2.729509724304080009e-03 -3.328202068805694580e-01 5.653740763664245605e-01 -7.357496768236160278e-02 -2.087893337011337280e-01 -2.868837714195251465e-01 4.057306349277496338e-01 -3.097173571586608887e-02 -1.059015035629272461e+00 6.576533913612365723e-01 -4.139329195022583008e-01 6.393345594406127930e-01 -2.321402281522750854e-01 -3.666870594024658203e-01 -6.607564538717269897e-02 -5.260779708623886108e-02 -3.101227879524230957e-01 -3.667024374008178711e-01 -6.866542100906372070e-01 -3.304449915885925293e-01 2.338791936635971069e-01 5.629405975341796875e-01 -7.400930672883987427e-02 6.805564742535352707e-03 -2.308077365159988403e-01 -8.886455744504928589e-02 1.202679518610239029e-02 3.923990130424499512e-01 -1.157985255122184753e-01 3.323916196823120117e-01 2.947613224387168884e-02 7.554380595684051514e-02 -3.194042742252349854e-01 2.139040678739547729e-01 -8.153373003005981445e-02 6.294944286346435547e-01 3.846751898527145386e-02 3.289426490664482117e-02 6.486092228442430496e-03 -1.480103582143783569e-01 2.912689447402954102e-01 -1.640418544411659241e-02 3.205105662345886230e-01 -4.703767001628875732e-01 -8.260592818260192871e-01 4.021409153938293457e-01 4.770214669406414032e-03 -1.507398784160614014e-01 -1.904995292425155640e-01 2.251902520656585693e-01 5.176747441291809082e-01 3.515837788581848145e-01 7.092818617820739746e-01 -1.694682091474533081e-01 3.118121922016143799e-01 5.198453664779663086e-01 -1.217130646109580994e-01 -1.545662879943847656e-01 -5.300652980804443359e-02 -1.941190063953399658e-01 -8.335888385772705078e-03 -1.000151559710502625e-01 -3.133736178278923035e-02 -3.970155119895935059e-02 -9.840697981417179108e-03 -7.725089043378829956e-02 -2.065552622079849243e-01 -3.414526581764221191e-01 2.958599030971527100e-01 -1.214237958192825317e-01 1.785801351070404053e-01 4.047237932682037354e-01 -8.338493108749389648e-01 -3.410479426383972168e-01 2.379808872938156128e-01 -3.694922029972076416e-01 -1.099090456962585449e+00 -2.749861180782318115e-01 1.365695595741271973e-01 7.622843235731124878e-02 -2.166839408874511719e+01 -5.392497405409812927e-02 7.118624635040760040e-03 2.538240551948547363e-01 2.811199128627777100e-01 5.992336869239807129e-01 -3.181677758693695068e-01 -7.208316028118133545e-02 3.045920431613922119e-01 -1.559559404850006104e-01 5.521048232913017273e-02 2.714968323707580566e-01 -2.309554666280746460e-01
2.476911842823028564e-01 -1.184427067637443542e-01 6.535244639962911606e-03 -3.898155093193054199e-01 -7.064898312091827393e-02 2.810255289077758789e-01 -1.144401058554649353e-01 2.089335350319743156e-03 -1.825228100642561913e-03 -7.830086350440979004e-02 -2.544082403182983398e-01 -1.977124214172363281e-01 -8.090058714151382446e-02 1.092684548348188400e-02 -3.229817003011703491e-02 -6.274648010730743408e-02 -1.783298999071121216e-01 -3.524497523903846741e-02 -4.696075618267059326e-02 6.734293699264526367e-02 -1.521304100751876831e-01 -2.619533240795135498e-01 1.393118202686309814e-01 -3.291868269443511963e-01 5.274491850286722183e-03 2.668740749359130859e-01 5.349664017558097839e-03 6.835851669311523438e-01 2.729052603244781494e-01 -3.427576646208763123e-02 5.004741623997688293e-02 3.986832499504089355e-02 2.594150602817535400e-01 -1.642739176750183105e-01 4.908031597733497620e-02 -1.346770524978637695e-01 -2.478426396846771240e-01 9.680597484111785889e-02 1.881101429462432861e-01 -7.216592878103256226e-02 -3.301540389657020569e-02 -7.984975352883338928e-03 -3.256943076848983765e-02 9.867124259471893311e-02 -1.379729062318801880e-01 2.610618770122528076e-01 7.648979872465133667e-02 5.274145305156707764e-02 -1.006109546869993210e-02 1.876043714582920074e-02 -4.723422974348068237e-02 2.048372030258178711e-01 3.395127505064010620e-02 -6.581164780072867870e-04 -9.004458039999008179e-02 -7.999172806739807129e-02 -3.448623791337013245e-02 3.056207485496997833e-02 7.979362457990646362e-02 -2.943073771893978119e-02 -9.311310946941375732e-03 -6.746618449687957764e-02 1.478459537029266357e-01 -2.786089107394218445e-02 1.252611130475997925e-01 2.855231761932373047e-01 1.473435163497924805e-01 -3.612329959869384766e-01 -7.282835990190505981e-02 -3.146269172430038452e-02 -2.526278197765350342e-01 5.599513053894042969e-01 2.756597474217414856e-02 5.271632224321365356e-02 -2.037278935313224792e-02 4.375433549284934998e-02 -4.049441963434219360e-02 6.426669657230377197e-02 -2.366892695426940918e-01 7.226123660802841187e-02 -1.651606410741806030e-01 5.245632305741310120e-02 -3.007276654243469238e-01 3.839562088251113892e-02 -1.009095981717109680e-01 3.130609169602394104e-02 2.189833372831344604e-01 1.274444013833999634e-01 -1.056264042854309082e-01 -1.725868433713912964e-01 9.226094931364059448e-03 5.042335391044616699e-02 1.294963248074054718e-02 -5.716894194483757019e-02 -2.049852162599563599e-02 -1.259516365826129913e-02 -1.327816396951675415e-01 1.867103762924671173e-02 1.955188214778900146e-01 1.977733969688415527e-01
-3.436957001686096191e-01 -4.329914599657058716e-02 -6.233887672424316406e-01 1.377303749322891235e-01 -3.831854462623596191e-01 -7.555128104286268353e-05 5.478823184967041016e-01 -1.599240675568580627e-02 6.975105032324790955e-03 1.993551254272460938e+00 5.055851489305496216e-02 1.768875271081924438e-01 -1.186023592948913574e+00 -3.037585318088531494e-01 -2.899097800254821777e-01 -5.008691549301147461e-01 -1.729873418807983398e-01 7.143222689628601074e-01 5.180090069770812988e-01 -2.413527518510818481e-01 3.842660784721374512e-02 -1.147198528051376343e-01 9.634656016714870930e-04 -2.075500488281250000e-01 -1.510151475667953491e-01 3.234007209539413452e-02 -1.752432733774185181e-01 1.055872738361358643e-01 -1.036989569664001465e+00 -2.894331514835357666e-01 -3.874743282794952393e-01 3.819278478622436523e-01 1.478495597839355469e-01 -3.100752085447311401e-02 -6.861583590507507324e-01 -3.389813005924224854e-01 7.189191877841949463e-02 4.149179458618164062e-01 -3.717032670974731445e-01 -4.031767547130584717e-01 1.688509702682495117e+00 -8.477824330329895020e-01 -3.146553039550781250e-01 -1.224047988653182983e-01 2.405821718275547028e-02 -3.220378607511520386e-02 5.491077899932861328e-01 -1.600771793164312840e-03 8.553230166435241699e-01 9.807537198066711426e-01 -5.679793655872344971e-02 -3.341282308101654053e-01 9.745542891323566437e-03 -1.646841317415237427e-02 -1.948963701725006104e-01 4.418990314006805420e-01 1.719336658716201782e-01 6.093974709510803223e-01 1.563881635665893555e-01 2.817059755325317383e-01 -4.578444957733154297e-01 -5.916650295257568359e-01 -1.611769348382949829e-01 -2.348840795457363129e-02 2.500231564044952393e-01 1.112593412399291992e-01 -9.467540681362152100e-02 9.896181523799896240e-02 -1.488159537315368652e+00 -4.653920531272888184e-01 7.089793682098388672e-02 1.014500111341476440e-01 -6.557143330574035645e-01 3.978493809700012207e-01 1.272747755050659180e+00 -7.385854721069335938e-01 1.710016578435897827e-01 -5.408200249075889587e-02 3.830760344862937927e-02 2.574697434902191162e-01 -2.338704653084278107e-02 -3.722734749317169189e-01 9.268262982368469238e-01 2.896333038806915283e-01 -8.423426747322082520e-02 2.963508367538452148e-01 -1.404568701982498169e-01 2.774326205253601074e-01 -3.021799959242343903e-03 -1.399464458227157593e-01 -5.890197679400444031e-02 -7.460182678187265992e-05 -9.441918134689331055e-01 1.265489459037780762e-01 -4.309631884098052979e-01 -4.460459202527999878e-02 1.042635813355445862e-01 -5.452638864517211914e-01 -8.016977310180664062e-01 3.738485872745513916e-01
-3.006235323846340179e-02 1.880933523178100586e+00 -6.543086469173431396e-02 -8.943711221218109131e-02 -5.041828155517578125e-01 5.919489264488220215e-02 7.951422035694122314e-02 -9.948873892426490784e-03 -2.321479022502899170e-01 8.319129943847656250e-01 6.300305947661399841e-03 2.371284961700439453e-01 4.439548254013061523e-01 3.158126771450042725e-01 -3.082240521907806396e-01 -4.361877590417861938e-02 -3.478976488113403320e-01 8.523787260055541992e-01 3.721639215946197510e-01 9.549722075462341309e-02 -1.806017756462097168e-01 6.190490350127220154e-02 -1.689710617065429688e-01 -1.060029938817024231e-01 -6.536769866943359375e-01 -2.529966831207275391e-02 -9.843739122152328491e-02 6.091852113604545593e-02 7.901745438575744629e-01 3.747910633683204651e-02 -6.992146372795104980e-02 2.860736250877380371e-01 -1.767186969518661499e-01 -2.054655402898788452e-01 2.903984487056732178e-02 1.665571779012680054e-01 9.772970527410507202e-02 -2.234682142734527588e-01 -3.444367945194244385e-01 -1.144812107086181641e-01 -1.105862379074096680e+00 -5.935246944427490234e-01 5.823251977562904358e-02 -3.212467953562736511e-02 1.403306797146797180e-02 -1.235407069325447083e-01 4.309435486793518066e-01 -5.680063366889953613e-01 -2.411253377795219421e-02 1.113850235939025879e+00 -1.438739597797393799e-01 1.035659462213516235e-01 9.324106574058532715e-02 -2.049179933965206146e-02 -1.690634369850158691e+00 -3.598870635032653809e-01 -1.186500042676925659e-01 1.785860061645507812e-01 8.472624421119689941e-02 -1.419406533241271973e-01 1.156942266970872879e-02 -1.501538157463073730e-01 -1.723468154668807983e-01 -8.431223034858703613e-02 -4.719456434249877930e-01 -3.383494019508361816e-01 -4.364899918437004089e-02 6.965787708759307861e-02 -1.903058290481567383e-01 5.784176662564277649e-02 -1.234840136021375656e-02 -8.945146948099136353e-02 -5.603660345077514648e-01 -2.338564489036798477e-03 1.234143853187561035e+00 -3.184367418289184570e-01 1.520659625530242920e-01 3.116570599377155304e-02 4.574689865112304688e-01 3.222187161445617676e-01 7.801638543605804443e-02 -1.543290317058563232e-01 3.492517769336700439e-01 3.588521480560302734e-02 -5.399829745292663574e-01 3.002623915672302246e-01 2.246648371219635010e-01 -4.626873731613159180e-01 -1.196137741208076477e-01 -1.242525205016136169e-01 2.582453191280364990e-01 -4.968989640474319458e-02 1.640067934989929199e+00 -1.223245561122894287e-01 5.765200778841972351e-02 1.572298556566238403e-01 1.006300896406173706e-01 1.391099579632282257e-02 -1.746004633605480194e-02 -3.562889099121093750e-01
-1.860308051109313965e-01 -8.131714910268783569e-02 -1.402009427547454834e-01 2.093439400196075439e-01 4.282463714480400085e-02 -2.673807367682456970e-02 -4.906239733099937439e-02 2.668080152943730354e-03 6.342304497957229614e-02 5.448490381240844727e-01 -1.099393442273139954e-01 -7.256169617176055908e-02 -3.349993824958801270e-01 -1.939325965940952301e-02 3.223828375339508057e-01 1.428361982107162476e-01 -6.454180926084518433e-02 3.435699641704559326e-01 -6.907145977020263672e-01 2.378644049167633057e-01 1.226068064570426941e-01 5.655547603964805603e-02 -1.080223768949508667e-01 6.163625419139862061e-02 -3.853442072868347168e-01 5.206952691078186035e-01 1.893878355622291565e-02 8.985594660043716431e-02 6.806668639183044434e-02 -1.391566842794418335e-01 -3.279807865619659424e-01 3.771504759788513184e-01 2.714085876941680908e-01 3.066205605864524841e-02 1.530634798109531403e-02 -2.328479140996932983e-01 -1.756525188684463501e-01 1.379875242710113525e-01 -1.371766179800033569e-01 -2.434199005365371704e-01 8.728890866041183472e-02 -1.072979494929313660e-01 2.548102736473083496e-01 -7.827084511518478394e-02 -5.544057488441467285e-02 1.261945515871047974e-01 7.450070977210998535e-02 -1.945362836122512817e-01 3.257467150688171387e-01 -1.191879659891128540e-01 -1.782812476158142090e-01 1.164362058043479919e-01 1.259247120469808578e-02 3.206525463610887527e-03 -2.012093812227249146e-01 1.835211180150508881e-02 -5.020606913603842258e-04 2.137677967548370361e-01 -1.956600323319435120e-02 2.525880932807922363e-01 3.168447613716125488e-01 -2.267378121614456177e-01 -5.047600865364074707e-01 6.009498983621597290e-02 -3.815708756446838379e-01 9.921263903379440308e-02 2.715568430721759796e-02 -1.325173825025558472e-01 -2.602355182170867920e-01 -5.554100275039672852e-01 7.749022543430328369e-02 -3.308929502964019775e-02 -1.494837701320648193e-01 3.498186916112899780e-02 -2.711204886436462402e-01 -6.887300610542297363e-01 2.205056995153427124e-01 1.020541116595268250e-01 3.723810017108917236e-01 1.681172102689743042e-02 -2.301800549030303955e-01 1.114587783813476562e-01 -1.487569045275449753e-02 8.740498870611190796e-02 -8.826755732297897339e-02 -1.821867227554321289e-01 4.811746627092361450e-02 1.411323547363281250e-01 8.871193975210189819e-02 -1.379189640283584595e-01 1.730711311101913452e-01 5.665438622236251831e-02 3.003400266170501709e-01 3.607154786586761475e-01 3.508255779743194580e-01 3.447276353836059570e-02 1.063016504049301147e-01 -4.920176044106483459e-02 -7.184565067291259766e-02 -8.509916812181472778e-02
-1.800961494445800781e-01 1.328387558460235596e-01 1.107919588685035706e-01 -2.932123541831970215e-01 1.833175718784332275e-01 1.724078953266143799e-01 8.001580089330673218e-02 -8.224205230362713337e-04 -4.417412728071212769e-02 2.663286626338958740e-01 -2.524905502796173096e-01 -1.392521560192108154e-01 -3.641860559582710266e-03 -1.333992928266525269e-02 1.469655781984329224e-01 -2.376301027834415436e-02 -4.934449195861816406e-01 1.326364725828170776e-01 -3.911142051219940186e-01 -2.087829709053039551e-01 3.929498791694641113e-01 4.935783520340919495e-02 6.866419222205877304e-03 1.604498922824859619e-01 1.774806976318359375e-01 -1.609344221651554108e-02 -2.315760552883148193e-01 2.201061882078647614e-02 -3.218989968299865723e-01 -1.619737744331359863e-01 3.763816133141517639e-02 2.560424506664276123e-01 8.231566846370697021e-02 -1.299606412649154663e-01 4.546022787690162659e-02 4.726918637752532959e-01 6.675000786781311035e-01 4.405178129673004150e-01 3.678358793258666992e-01 1.753518432378768921e-01 1.876785010099411011e-01 -7.824064046144485474e-02 -1.321447342634201050e-01 6.949912011623382568e-02 -3.136231005191802979e-01 2.713166475296020508e-01 -8.618670701980590820e-02 -1.204310059547424316e-01 3.169603347778320312e-01 -1.317637413740158081e-01 -3.239041566848754883e-01 -4.228324890136718750e-01 -1.280964165925979614e-01 3.330737818032503128e-03 1.850865036249160767e-01 -4.572273790836334229e-02 9.591696411371231079e-02 -1.329044103622436523e-01 -2.748274244368076324e-03 2.688080258667469025e-02 4.796240478754043579e-02 -6.874594837427139282e-02 -1.826810538768768311e-01 -1.020320773124694824e+00 2.000773102045059204e-01 5.124081298708915710e-02 -3.207989931106567383e-01 2.285060472786426544e-02 -4.889678210020065308e-02 -2.094162553548812866e-01 9.835856035351753235e-03 5.778272170573472977e-03 1.334417760372161865e-01 1.709854155778884888e-01 -1.496496647596359253e-01 -1.937613338232040405e-01 -6.073829531669616699e-01 2.555255219340324402e-02 2.770254909992218018e-01 1.181274726986885071e-01 -1.269313097000122070e-01 -9.636622853577136993e-04 -1.916984915733337402e-01 -1.500663906335830688e-01 2.132399380207061768e-01 -7.068540155887603760e-02 -1.392671465873718262e-01 -1.582464389503002167e-02 -7.262619584798812866e-02 -8.959802985191345215e-02 -2.032919079065322876e-01 3.966839984059333801e-02 -1.398013979196548462e-01 1.485324949026107788e-01 4.051690995693206787e-01 2.544557154178619385e-01 -4.012261927127838135e-01 -1.009359396994113922e-02 -1.923288702964782715e-01 3.187678158283233643e-01
2.055567502975463867e-02 1.476125698536634445e-02 -1.124684065580368042e-01 1.764002144336700439e-01 6.005415916442871094e-01 -2.572475560009479523e-02 -3.035308793187141418e-02 -2.240851055830717087e-03 -2.701181359589099884e-02 9.119448065757751465e-02 3.495457470417022705e-01 4.326211810111999512e-01 -2.755537927150726318e-01 -6.012580543756484985e-02 -1.405763160437345505e-02 -9.080793708562850952e-03 1.301091909408569336e-01 6.582854688167572021e-02 1.706252992153167725e-02 2.781487628817558289e-02 2.278859168291091919e-01 1.739091575145721436e-01 6.037826091051101685e-02 6.332093477249145508e-02 -2.599313296377658844e-02 -2.157258428633213043e-02 -4.813207089900970459e-01 2.899653315544128418e-01 -1.287203729152679443e-01 -1.536359190940856934e-01 -1.510327402502298355e-02 -1.601985245943069458e-01 2.303790301084518433e-02 -1.715491563081741333e-01 9.156996011734008789e-02 7.052178680896759033e-02 9.316026419401168823e-02 -1.515639871358871460e-01 -5.312226414680480957e-01 -1.952002942562103271e-02 4.156488925218582153e-02 2.644146047532558441e-02 4.797152802348136902e-02 -4.334442913532257080e-01 4.699486494064331055e-02 -2.250390499830245972e-02 -7.741653919219970703e-02 -4.709161445498466492e-02 -6.508453935384750366e-02 2.080195583403110504e-02 1.493416447192430496e-02 -3.437774479389190674e-01 2.027792185544967651e-01 3.723074449226260185e-03 -3.557856008410453796e-02 -6.489995867013931274e-02 -1.781791001558303833e-01 -4.847395792603492737e-02 7.903365790843963623e-02 -4.622732847929000854e-02 4.434251785278320312e-02 -1.785420179367065430e-01 -2.822235524654388428e-01 -1.263046860694885254e-01 2.725333906710147858e-02 3.588557243347167969e-01 2.747968137264251709e-01 1.074268668889999390e-01 9.467502124607563019e-03 -7.631123997271060944e-03 3.739221766591072083e-02 5.709670111536979675e-02 2.632221281528472900e-01 2.335460111498832703e-02 -5.903978273272514343e-02 4.616284742951393127e-02 -7.697062939405441284e-02 -1.658994355238974094e-03 2.143541425466537476e-01 -1.422752290964126587e-01 -1.705666184425354004e-01 4.904647544026374817e-02 -1.108296588063240051e-01 -3.892821073532104492e-02 1.635346189141273499e-02 1.559765785932540894e-01 6.217300891876220703e-02 1.665956228971481323e-01 4.354605972766876221e-01 3.671402633190155029e-01 2.628282271325588226e-02 -2.667371034622192383e-01 -1.928132623434066772e-01 1.007156297564506531e-01 1.410462111234664917e-01 8.154678344726562500e-01 -2.099367380142211914e-01 4.367322474718093872e-02 2.478755861520767212e-01 -3.945629298686981201e-01
-4.193884879350662231e-02 -3.619023784995079041e-02 -7.402123212814331055e-01 -1.917184591293334961e-01 2.434374988079071045e-01 9.971152991056442261e-02 -4.179565012454986572e-01 5.829372094012796879e-04 -3.787387534976005554e-02 1.427459567785263062e-01 -1.960990577936172485e-01 -8.737746626138687134e-02 5.254298821091651917e-02 2.072201818227767944e-01 6.415849924087524414e-02 -9.623423963785171509e-02 9.510035812854766846e-02 -1.378321833908557892e-02 1.809768564999103546e-02 4.119104146957397461e-01 -1.890248358249664307e-01 4.766478016972541809e-02 -1.039661765098571777e-01 -1.107461899518966675e-01 5.712589249014854431e-02 1.516208201646804810e-01 -3.291921317577362061e-02 -1.353104114532470703e-01 5.738416686654090881e-02 -9.865742921829223633e-02 -1.616354659199714661e-02 -4.036758244037628174e-01 -3.709528595209121704e-02 -2.447005063295364380e-01 8.727475255727767944e-02 3.490833044052124023e-01 2.331971824169158936e-01 7.730614393949508667e-02 3.086566030979156494e-01 -2.488540709018707275e-01 -1.234577689319849014e-02 -2.714708261191844940e-02 1.302849948406219482e-01 1.977340690791606903e-02 -5.410257354378700256e-02 -1.443726755678653717e-02 -9.138905256986618042e-02 -8.016396313905715942e-02 -8.363285660743713379e-02 9.447796642780303955e-02 -6.866697072982788086e-01 2.079117447137832642e-01 2.033456414937973022e-01 2.953018760308623314e-03 -3.593840450048446655e-02 -2.510015964508056641e-01 1.066870093345642090e-01 4.969089059159159660e-04 8.641481995582580566e-01 2.110817842185497284e-02 -7.518216967582702637e-02 1.945652216672897339e-01 1.587350219488143921e-01 1.116609051823616028e-01 -9.349701553583145142e-02 7.309909164905548096e-02 -3.111375868320465088e-01 5.161257460713386536e-02 1.384372636675834656e-02 -3.917815536260604858e-02 -2.574320510029792786e-02 1.836632341146469116e-01 8.620251715183258057e-02 4.929994419217109680e-02 7.243552803993225098e-02 -3.208860580343753099e-04 -9.639821201562881470e-02 3.014307022094726562e-01 -7.480105757713317871e-02 -5.220623686909675598e-02 1.779352128505706787e-01 -3.535163705237209797e-05 -9.470840543508529663e-02 3.665696457028388977e-02 3.482715785503387451e-02 -1.717099845409393311e-01 1.337058097124099731e-02 1.975504457950592041e-01 -1.693369261920452118e-02 -1.376791149377822876e-01 3.272488713264465332e-02 6.657125055789947510e-02 1.150589808821678162e-01 -7.091414928436279297e-02 -1.252269893884658813e-01 1.897549331188201904e-01 -2.445689290761947632e-01 8.539957553148269653e-02 -2.379376888275146484e-01 2.267954498529434204e-01
1.306107789278030396e-01 -2.388833612203598022e-01 -3.138183057308197021e-01 -5.287373661994934082e-01 -3.048805296421051025e-01 1.196388620883226395e-03 -3.410716056823730469e-01 1.060065347701311111e-03 2.568970918655395508e-01 -3.404343426227569580e-01 4.409779906272888184e-01 1.923252083361148834e-02 5.161039233207702637e-01 -5.436772480607032776e-02 3.222026675939559937e-02 -1.963533647358417511e-02 3.034000396728515625e-01 -4.681197106838226318e-01 1.575995236635208130e-01 -3.874970972537994385e-01 3.280661106109619141e-01 1.547785401344299316e-01 -8.326420933008193970e-02 3.029016591608524323e-02 6.362791359424591064e-02 -1.904264837503433228e-01 -6.767647806555032730e-03 -2.480654716491699219e-01 3.296057283878326416e-01 2.976831495761871338e-01 2.207120209932327271e-01 5.767197534441947937e-02 -2.214560210704803467e-01 -8.817448467016220093e-02 -1.432895287871360779e-02 -8.933225274085998535e-01 -7.791826035827398300e-03 -3.281183838844299316e-01 6.524211261421442032e-03 -3.180024921894073486e-01 -2.372423559427261353e-01 2.577951550483703613e-02 6.248560175299644470e-02 1.275422424077987671e-01 4.977444186806678772e-02 -3.453414738178253174e-01 -1.962632536888122559e-01 2.598449960350990295e-02 6.342163681983947754e-02 -1.497008558362722397e-02 4.852745831012725830e-01 -2.385051399469375610e-01 -8.432595431804656982e-02 -1.465745386667549610e-03 9.498916566371917725e-02 6.028470024466514587e-02 2.217290997505187988e-01 1.183002591133117676e-01 5.101329833269119263e-02 1.617275774478912354e-01 -5.589552968740463257e-02 1.769101247191429138e-03 4.552951753139495850e-01 -8.515331149101257324e-02 -1.277003735303878784e-01 2.184384465217590332e-01 -3.706349432468414307e-01 -5.373414978384971619e-02 5.662759393453598022e-02 1.426341831684112549e-01 2.003913223743438721e-01 2.745965495705604553e-02 -1.131172627210617065e-01 -7.330507040023803711e-02 -3.174302577972412109e-01 2.852430641651153564e-01 -1.282251030206680298e-01 3.733355179429054260e-02 -2.442762106657028198e-01 5.512975528836250305e-02 -3.267461359500885010e-01 -1.562094390392303467e-01 1.878151595592498779e-01 -1.255559474229812622e-01 -7.433647988364100456e-04 1.237094327807426453e-01 2.201296240091323853e-01 -6.466963887214660645e-02 -1.049481630325317383e-01 -1.444917023181915283e-01 1.721251159906387329e-01 -5.089111626148223877e-02 1.967567503452301025e-01 -1.339242160320281982e-01 -6.298732161521911621e-01 -3.960913419723510742e-02 3.278783857822418213e-01 1.414368394762277603e-02 2.829499840736389160e-01 2.259760797023773193e-01
-8.600336313247680664e-01 -9.297943115234375000e-02 -1.909078508615493774e-01 -4.705220460891723633e-02 8.756320923566818237e-02 -1.988067664206027985e-02 -2.474997639656066895e-01 1.042961142957210541e-03 4.044376313686370850e-02 -1.598894968628883362e-02 -1.954175084829330444e-01 4.541994631290435791e-02 -4.499900341033935547e-01 -1.402219235897064209e-01 -1.375756226480007172e-02 8.137521743774414062e-01 -1.147641614079475403e-02 -1.331397742033004761e-01 8.108878135681152344e-02 3.115143477916717529e-01 -3.346162438392639160e-01 -7.159398198127746582e-01 -2.618993222713470459e-01 2.090416699647903442e-01 1.062599197030067444e-02 1.083307340741157532e-01 -2.678343653678894043e-01 -3.196845576167106628e-02 1.192976608872413635e-01 -3.693909049034118652e-01 2.761508822441101074e-01 -1.969426870346069336e-01 3.626991808414459229e-01 -1.587069928646087646e-01 3.334150314331054688e-01 1.048334166407585144e-01 -7.685528695583343506e-02 -3.069116771221160889e-01 5.409881006926298141e-03 7.376255095005035400e-02 -1.444365680217742920e-01 1.092183217406272888e-01 1.424831710755825043e-02 -3.428357839584350586e-02 -7.209990918636322021e-02 7.040654867887496948e-02 6.005485355854034424e-02 9.576849639415740967e-02 6.549993753433227539e-01 -6.680992245674133301e-02 -2.201542109251022339e-01 2.222719639539718628e-01 3.444205224514007568e-01 -3.513042815029621124e-03 2.661641240119934082e-01 1.180650815367698669e-01 1.844078004360198975e-01 8.161444216966629028e-02 9.083174169063568115e-02 7.408232241868972778e-02 -8.938047289848327637e-02 2.934937775135040283e-01 2.064763009548187256e-01 -3.777236863970756531e-02 3.366391658782958984e-01 -6.364601664245128632e-03 -2.471663057804107666e-02 7.352794706821441650e-02 -1.502534747123718262e-01 -1.426218599081039429e-01 -1.160335019230842590e-01 1.838790029287338257e-01 -5.377393588423728943e-02 -3.034136816859245300e-02 5.044720321893692017e-02 -8.445420116186141968e-02 4.807092249393463135e-02 -1.741243153810501099e-01 -2.543427348136901855e-01 2.731217741966247559e-01 2.741632461547851562e-01 -2.181637100875377655e-02 1.098707243800163269e-01 3.057801425457000732e-01 2.792461812496185303e-01 1.778479479253292084e-02 -2.564520537853240967e-01 -3.407939076423645020e-01 3.340346366167068481e-02 -1.488075703382492065e-01 -2.245815284550189972e-02 2.952246963977813721e-01 9.171727299690246582e-02 -1.011214256286621094e-01 2.640339545905590057e-02 1.029381901025772095e-02 2.801086008548736572e-02 2.658571302890777588e-01 -1.615834087133407593e-01 2.046472430229187012e-01
-4.209128022193908691e-01 1.579273104667663574e+00 7.778261899948120117e-01 -1.557134836912155151e-01 9.623505920171737671e-02 3.822872415184974670e-02 -8.158706426620483398e-01 -1.150071527808904648e-02 -7.957001924514770508e-01 -4.738216698169708252e-01 1.149451434612274170e-01 -4.528440162539482117e-02 2.027220249176025391e+00 6.599731445312500000e-01 -1.048884391784667969e+00 5.887475609779357910e-02 3.972950205206871033e-02 -9.392957687377929688e-01 -5.896643921732902527e-02 2.954326272010803223e-01 4.225991368293762207e-01 -1.430032253265380859e-01 -9.159477800130844116e-02 -1.473682224750518799e-01 -2.631250917911529541e-01 3.172653913497924805e-01 -8.512934297323226929e-02 1.471678316593170166e-01 7.922787070274353027e-01 2.866671383380889893e-01 -1.157863959670066833e-01 -2.114148885011672974e-01 -4.607068598270416260e-01 1.173568069934844971e-01 -4.397817254066467285e-01 7.657046616077423096e-02 1.225321069359779358e-01 -2.438470721244812012e-01 3.992014825344085693e-01 -3.954672068357467651e-02 -7.394006848335266113e-01 3.034042119979858398e-01 -5.349326133728027344e-01 1.113415956497192383e-01 5.034174397587776184e-02 -2.900081574916839600e-01 1.953853219747543335e-01 2.072606533765792847e-01 -3.033615089952945709e-02 -2.703935801982879639e-01 -1.744815856218338013e-01 -5.636146068572998047e-01 8.241317421197891235e-02 -2.152116224169731140e-02 4.554398655891418457e-01 -6.819273233413696289e-01 2.934867739677429199e-01 -7.293682545423507690e-02 -4.082559347152709961e-01 8.642479777336120605e-02 -1.104770079255104065e-01 2.248633466660976410e-02 -2.624565064907073975e-01 -4.455203711986541748e-01 -1.112690567970275879e-01 5.146734118461608887e-01 4.862052202224731445e-02 7.207372039556503296e-02 3.012111485004425049e-01 -5.114725232124328613e-01 1.630532890558242798e-01 6.870343536138534546e-02 -3.027448356151580811e-01 -1.737188100814819336e+00 -8.914636373519897461e-01 -3.716535270214080811e-01 7.085356116294860840e-02 3.632050752639770508e-02 3.313395977020263672e-01 4.045880138874053955e-01 1.411418896168470383e-02 7.556021809577941895e-01 -1.126348853111267090e+00 -5.487596988677978516e-02 3.059075474739074707e-01 -7.105833292007446289e-02 -2.195951491594314575e-01 1.171249151229858398e-01 -2.107765078544616699e-01 -9.105840325355529785e-02 2.686752080917358398e-01 1.594782620668411255e-02 -1.187510490417480469e+00 -4.809980690479278564e-01 3.527899980545043945e-01 3.248045966029167175e-02 5.048241466283798218e-02 -2.451214790344238281e-01 1.773987710475921631e-01 -5.446595549583435059e-01
2.355103790760040283e-01 2.593790367245674133e-02 6.193931102752685547e-01 1.063241735100746155e-01 -7.790636271238327026e-02 -5.960674956440925598e-02 2.905703894793987274e-02 -8.053345372900366783e-04 5.302735604345798492e-03 -3.842088580131530762e-02 8.302296511828899384e-03 -6.898977607488632202e-02 -1.725149154663085938e-01 -1.594356633722782135e-02 1.190403848886489868e-02 5.282231606543064117e-03 4.416657090187072754e-01 8.717728406190872192e-02 1.252105534076690674e-01 2.284446060657501221e-01 -7.607196271419525146e-02 2.422404475510120392e-03 -1.148015726357698441e-02 -5.476338788866996765e-02 -2.904726006090641022e-02 -7.970292866230010986e-02 8.260232210159301758e-02 -1.565803438425064087e-01 1.429606527090072632e-01 -2.763026952743530273e-02 -1.879540830850601196e-01 -1.496343165636062622e-01 1.893078908324241638e-02 8.220637589693069458e-02 2.743175067007541656e-02 4.364182054996490479e-01 -2.648541033267974854e-01 2.576658129692077637e-01 -9.281619638204574585e-02 5.732055380940437317e-02 -4.040202125906944275e-02 6.493845582008361816e-02 -1.034714803099632263e-01 -1.211408153176307678e-02 1.818994805216789246e-02 -9.612810797989368439e-03 4.737975541502237320e-03 2.279321895912289619e-03 2.418445609509944916e-02 -4.429026693105697632e-02 -4.024960100650787354e-02 8.283179998397827148e-02 9.963708929717540741e-03 -1.801986247301101685e-03 -8.223702758550643921e-02 1.514205709099769592e-02 5.488572716712951660e-01 1.753975264728069305e-02 2.516529858112335205e-01 -7.094175368547439575e-02 2.522561885416507721e-02 -2.221951074898242950e-02 1.588125675916671753e-01 -2.506064251065254211e-02 -2.548301778733730316e-02 5.323950201272964478e-02 -2.660328894853591919e-02 8.784713596105575562e-02 6.119856983423233032e-02 8.014730364084243774e-02 -3.705289959907531738e-02 5.255740135908126831e-02 1.317680925130844116e-01 -1.546449959278106689e-01 6.293889880180358887e-02 -3.209267929196357727e-02 2.681459672749042511e-02 1.436205506324768066e-01 1.121079102158546448e-01 4.169334843754768372e-02 -4.978431761264801025e-02 -3.726790659129619598e-03 2.030877172946929932e-01 -1.360903680324554443e-01 4.927888885140419006e-02 2.824140153825283051e-02 1.343908458948135376e-01 -2.631229348480701447e-03 1.275282539427280426e-02 1.221757084131240845e-01 6.437304615974426270e-02 -5.409908480942249298e-03 9.886516630649566650e-02 -1.488574547693133354e-03 -1.837594509124755859e-01 -5.738263577222824097e-02 4.315298423171043396e-02 3.781857341527938843e-02 -3.074561953544616699e-01 1.666753292083740234e-01
1.347599744796752930e+00 2.325202971696853638e-01 -4.061529338359832764e-01 -5.252756476402282715e-01 1.650137156248092651e-01 6.614525616168975830e-02 -3.036684393882751465e-01 -7.906787097454071045e-03 -1.799730360507965088e-01 -1.127405285835266113e+00 -5.760636553168296814e-02 1.452604532241821289e-01 -7.459213137626647949e-01 -7.029018551111221313e-02 -1.353985629975795746e-03 9.205141663551330566e-01 -1.579244613647460938e+01 2.213828712701797485e-01 1.710122078657150269e-01 9.139976501464843750e-01 4.704244434833526611e-01 4.681456983089447021e-01 1.842020452022552490e-01 6.817387342453002930e-01 -1.566849946975708008e-01 1.147893220186233521e-01 -2.696702778339385986e-01 4.106512963771820068e-01 -4.112205505371093750e-01 -5.345007181167602539e-01 -1.333388686180114746e+00 7.544508576393127441e-01 3.097667992115020752e-01 -6.251683235168457031e-01 8.299030363559722900e-02 8.982385396957397461e-01 6.928869485855102539e-01 -3.791101276874542236e-02 -3.846950531005859375e-01 3.963417708873748779e-01 5.039141774177551270e-01 -3.108523413538932800e-02 -1.499134898185729980e-01 -1.826111525297164917e-01 -1.094758287072181702e-01 3.372581005096435547e-01 -7.859608530998229980e-01 -4.743501543998718262e-03 -7.421094179153442383e-01 -1.377937644720077515e-01 -1.630175352096557617e+00 7.865787297487258911e-02 3.482261598110198975e-01 -1.319343876093626022e-02 -5.225871205329895020e-01 6.716226041316986084e-02 3.958608806133270264e-01 1.775684505701065063e-01 -1.959266424179077148e+00 1.013746932148933411e-01 2.796535938978195190e-02 4.939170777797698975e-01 4.750721156597137451e-02 4.035518765449523926e-01 -5.471786260604858398e-01 5.694182515144348145e-01 9.637451171875000000e-01 6.545258313417434692e-02 4.655837118625640869e-01 8.383852988481521606e-02 -1.239564046263694763e-01 9.441354125738143921e-02 -4.974614083766937256e-02 8.035514503717422485e-02 1.290299445390701294e-01 5.750798061490058899e-02 5.719787254929542542e-02 -3.856325745582580566e-01 6.569510102272033691e-01 1.029241234064102173e-01 -5.473824143409729004e-01 2.587466239929199219e-01 -9.032676219940185547e-01 -2.354476302862167358e-01 3.535926640033721924e-01 1.601077020168304443e-01 -1.300048530101776123e-01 -2.608152031898498535e-01 1.778194606304168701e-01 4.962957650423049927e-02 -6.716944277286529541e-02 -2.732968330383300781e-02 5.121843218803405762e-01 2.228213697671890259e-01 -4.737282544374465942e-02 -1.600751876831054688e-01 3.124042749404907227e-01 8.484306186437606812e-02 3.018744885921478271e-01 -4.823118448257446289e-01
-1.238272339105606079e-01 2.837673760950565338e-02 -1.177496090531349182e-01 1.396762877702713013e-01 1.985057890415191650e-01 1.196228265762329102e-01 -2.296439260244369507e-01 3.689577570185065269e-03 1.367746591567993164e-01 -3.712651133537292480e-02 -5.426234006881713867e-02 -2.276030033826828003e-01 -1.775945276021957397e-01 -3.405058756470680237e-02 1.109084114432334900e-02 -4.570147693157196045e-01 -6.289301812648773193e-02 -3.538138046860694885e-02 1.524364650249481201e-01 -6.606489419937133789e-02 2.926651239395141602e-01 -5.639127269387245178e-02 2.400453686714172363e-01 -2.611150965094566345e-02 -7.065473496913909912e-02 1.790879368782043457e-01 -1.663544327020645142e-01 -5.415042862296104431e-02 1.057547032833099365e-01 -3.322855830192565918e-01 1.672049760818481445e-01 2.255554944276809692e-01 2.147154211997985840e-01 2.346456199884414673e-01 3.035260923206806183e-02 1.048326134681701660e+00 3.038861975073814392e-02 -5.465065836906433105e-01 1.211486309766769409e-01 -3.309528809040784836e-03 -1.313547492027282715e-01 -3.500822558999061584e-02 1.902753561735153198e-01 -4.630172625184059143e-02 -3.724565729498863220e-02 2.867639660835266113e-01 3.473924845457077026e-02 1.159313395619392395e-01 3.314860761165618896e-01 -1.180958300828933716e-01 3.994382172822952271e-02 -8.413448184728622437e-02 8.458834141492843628e-02 2.420903882011771202e-03 2.028380781412124634e-01 -2.160087525844573975e-01 2.438315749168395996e-01 -1.981187015771865845e-01 1.176806449890136719e+00 -1.403287202119827271e-01 7.044944167137145996e-02 1.687480807304382324e-01 1.245300620794296265e-01 -6.748172044754028320e-01 -3.245772793889045715e-02 -2.753356993198394775e-01 1.345702409744262695e-01 9.802643209695816040e-02 1.615568101406097412e-01 1.538043618202209473e-01 -2.655552886426448822e-02 -2.760134041309356689e-01 -1.355567872524261475e-01 -1.016274541616439819e-01 -1.275497674942016602e-01 3.102428019046783447e-01 -1.029655784368515015e-01 -1.737869903445243835e-02 1.576059497892856598e-02 3.059150874614715576e-01 -1.596601903438568115e-01 -8.930600434541702271e-02 2.910810708999633789e-01 1.189270988106727600e-01 -2.501983940601348877e-01 1.538112461566925049e-01 -1.154647767543792725e-02 -4.909117240458726883e-03 3.281096369028091431e-02 -1.464127153158187866e-01 8.383394032716751099e-02 1.105671077966690063e-01 -1.170085892081260681e-01 3.750135898590087891e-01 1.166891530156135559e-01 -2.448681555688381195e-02 -2.895060479640960693e-01 1.441839635372161865e-01 -3.621750473976135254e-01 -4.925369843840599060e-02
1.955321878194808960e-01 -6.021893396973609924e-02 -1.694120764732360840e-01 7.955835014581680298e-02 -3.061369247734546661e-02 -2.435194998979568481e-01 1.004636287689208984e-02 1.637652283534407616e-03 -3.117215633392333984e-02 1.998547017574310303e-01 -3.593598306179046631e-01 -1.835679635405540466e-02 3.604190647602081299e-01 -1.442268043756484985e-01 -6.149139255285263062e-02 -9.038474410772323608e-02 2.336119860410690308e-01 -3.666368126869201660e-02 6.868225336074829102e-02 3.262843936681747437e-02 1.328645646572113037e-01 1.078556776046752930e-01 -6.842176616191864014e-02 -1.900176107883453369e-01 7.217213511466979980e-02 -1.139328554272651672e-01 3.536807596683502197e-01 -3.012781217694282532e-02 2.450067698955535889e-01 6.205649971961975098e-01 -3.624838218092918396e-02 7.802186161279678345e-02 -2.893844842910766602e-01 -5.300725623965263367e-02 -1.106342151761054993e-01 -4.687345325946807861e-01 1.596703827381134033e-01 8.100675046443939209e-02 -3.194444477558135986e-01 -3.176295757293701172e-01 -1.221356987953186035e-01 7.157196849584579468e-02 -7.844904065132141113e-02 -1.123042702674865723e-01 1.887442171573638916e-02 -1.942722350358963013e-01 2.881283499300479889e-02 7.197513431310653687e-02 2.348331809043884277e-01 7.878217846155166626e-02 2.278709113597869873e-01 -2.365588396787643433e-01 -3.127599656581878662e-01 1.294988556765019894e-03 1.221618056297302246e-01 -3.383801504969596863e-02 -2.218854576349258423e-01 7.087077945470809937e-03 2.810080163180828094e-02 -1.142782159149646759e-02 8.345710486173629761e-02 -2.936535179615020752e-01 2.801542282104492188e-01 -8.560139685869216919e-02 -1.169737279415130615e-01 2.816802356392145157e-03 7.937198132276535034e-02 2.516324520111083984e-01 -1.638334617018699646e-02 4.961373284459114075e-02 5.867117643356323242e-01 -2.192533016204833984e-01 -3.524011671543121338e-01 -2.016023099422454834e-01 3.601082600653171539e-03 3.513390198349952698e-02 2.851015329360961914e-01 -1.443656980991363525e-01 -2.863879203796386719e-01 -4.893737379461526871e-03 -5.394316278398036957e-03 4.872547835111618042e-02 5.201599001884460449e-02 6.651936471462249756e-02 1.778590232133865356e-01 8.385585546493530273e-01 -1.835678368806838989e-01 4.692916572093963623e-02 1.154292821884155273e-01 -4.764139652252197266e-01 -1.756964772939682007e-01 1.200137615203857422e+00 -1.025201007723808289e-01 -1.305381953716278076e-01 -1.581094413995742798e-02 -3.517437875270843506e-01 -1.447035223245620728e-01 -1.074612885713577271e-01 -7.194259017705917358e-02 -1.259082257747650146e-01
-2.397373765707015991e-01 7.200015336275100708e-02 6.124574318528175354e-02 -1.804206967353820801e-01 -7.026242092251777649e-03 5.120179057121276855e-01 -2.962243370711803436e-02 -1.187161891721189022e-03 -2.550908364355564117e-02 2.540011405944824219e-01 -4.196461290121078491e-02 -6.598863005638122559e-02 -1.243537291884422302e-02 7.747834920883178711e-02 3.451091004535555840e-03 6.576906144618988037e-02 -5.863283276557922363e-01 -8.984403312206268311e-02 1.296991705894470215e-01 1.797142326831817627e-01 -2.456881999969482422e-01 -1.023544222116470337e-01 3.360604867339134216e-02 7.029293477535247803e-02 1.815107464790344238e-01 -9.575691074132919312e-02 2.887621335685253143e-02 4.685944691300392151e-02 8.464229851961135864e-02 2.780571207404136658e-02 -5.619768500328063965e-01 -1.490544527769088745e-01 -1.587777882814407349e-01 -2.310615777969360352e-02 9.920862317085266113e-02 -2.380125969648361206e-01 1.674432605504989624e-01 -8.583886921405792236e-02 2.748594582080841064e-01 -8.769769966602325439e-02 6.661307998001575470e-03 5.491058155894279480e-02 -3.606677800416946411e-02 1.002826169133186340e-01 -2.083847522735595703e-01 1.645684838294982910e-01 -1.185381114482879639e-01 -2.341717481613159180e-02 1.643274724483489990e-01 3.916778042912483215e-02 6.977627426385879517e-02 9.074754267930984497e-02 -2.378427833318710327e-01 -2.418789779767394066e-03 2.848491258919239044e-02 5.795751512050628662e-02 5.666308403015136719e-01 -6.326826661825180054e-02 2.433376945555210114e-02 -3.048830665647983551e-02 -9.087833762168884277e-02 -1.692750751972198486e-01 5.668049678206443787e-02 -5.029892325401306152e-01 2.985051274299621582e-01 2.726677358150482178e-01 1.017642989754676819e-01 -5.442174151539802551e-02 3.211061656475067139e-02 -1.998537778854370117e-02 1.983136534690856934e-01 9.942277520895004272e-02 3.124559856951236725e-02 -1.601378060877323151e-02 -5.221423506736755371e-02 -6.924754474312067032e-03 -6.812854856252670288e-02 -2.593050897121429443e-01 3.088720329105854034e-02 1.873072236776351929e-01 2.126697003841400146e-01 3.797437250614166260e-02 1.336151957511901855e-01 -8.797013014554977417e-02 -2.499099969863891602e-01 2.672492265701293945e-01 -1.596433222293853760e-01 2.351453714072704315e-02 -9.265121072530746460e-02 -2.633554041385650635e-01 5.361329764127731323e-02 6.332596391439437866e-02 1.509929746389389038e-01 -8.150214701890945435e-02 1.096801906824111938e-01 -8.242492377758026123e-02 -3.125573992729187012e-01 2.020106650888919830e-03 8.976867049932479858e-02 -2.813524566590785980e-02
8.980477601289749146e-02 3.184298798441886902e-02 8.171090483665466309e-02 -1.432812660932540894e-01 4.868506491184234619e-01 1.294157654047012329e-01 -7.478793710470199585e-02 3.639838192611932755e-03 -8.116782456636428833e-02 5.249260663986206055e-01 3.110743686556816101e-02 2.724950015544891357e-01 2.266102433204650879e-01 -1.718257181346416473e-02 -2.240720950067043304e-02 -2.232644110918045044e-01 -2.949098050594329834e-01 -1.370240896940231323e-01 3.552501276135444641e-02 1.283245533704757690e-01 -1.079897806048393250e-01 -1.801450997591018677e-01 4.153978228569030762e-01 4.759080708026885986e-02 1.270560324192047119e-01 2.871753275394439697e-02 8.230837434530258179e-02 -8.740568906068801880e-02 1.425727158784866333e-01 -8.449087291955947876e-02 1.051399037241935730e-01 1.082381010055541992e-01 -1.283372640609741211e-01 -3.846431151032447815e-02 -1.018829643726348877e-01 -1.457867324352264404e-01 1.021818593144416809e-01 1.605136841535568237e-01 -5.766147375106811523e-01 3.599666291847825050e-03 -1.842942461371421814e-02 -6.099484115839004517e-02 1.132132112979888916e-01 -4.087884724140167236e-01 -2.807215154170989990e-01 -1.415214687585830688e-01 -3.890235093422234058e-04 1.561877131462097168e-02 2.504104673862457275e-01 8.367881178855895996e-03 7.336222380399703979e-02 -1.635809242725372314e-01 1.086039617657661438e-01 2.982742618769407272e-03 1.661505550146102905e-01 3.440530970692634583e-02 -3.602588316425681114e-03 -8.413723111152648926e-02 3.102284967899322510e-01 2.864420041441917419e-02 -2.922955155372619629e-02 1.368626803159713745e-01 -3.524727746844291687e-02 -2.342864871025085449e-01 2.759892642498016357e-01 -3.203648030757904053e-01 -1.555075794458389282e-01 9.460252523422241211e-02 -8.556076325476169586e-03 4.253100231289863586e-02 1.068864539265632629e-01 -1.662033051252365112e-01 -1.833718866109848022e-01 8.889841288328170776e-02 -1.985979452729225159e-02 6.640067696571350098e-02 1.010499671101570129e-01 -1.658002883195877075e-01 -1.736710779368877411e-02 -1.134360209107398987e-02 -1.716179549694061279e-01 6.551979482173919678e-02 -1.796329468488693237e-01 -1.174727920442819595e-02 -1.984006762504577637e-01 -6.172640249133110046e-02 5.254737567156553268e-03 2.979378215968608856e-02 4.135176837444305420e-01 5.424029007554054260e-02 1.366927288472652435e-02 -2.749551832675933838e-02 -5.686436221003532410e-02 -7.457875646650791168e-03 2.627725526690483093e-02 -2.166139520704746246e-02 -7.723345886915922165e-03 -5.969781056046485901e-02 -2.922804653644561768e-01 -1.857440322637557983e-01
