3.363220021128654480e-02 6.696672644466161728e-03 3.132128417491912842e-01 7.010365277528762817e-02 8.022610098123550415e-02 1.210742071270942688e-02 3.232811987400054932e-01 -3.393450006842613220e-02 4.751989245414733887e-02 -2.179147675633430481e-02 -5.556296557188034058e-02 -1.306640100665390491e-03 1.513729058206081390e-02 -2.093925327062606812e-02 4.175731912255287170e-02 -7.410594820976257324e-02 4.309659004211425781e-01 -1.355524640530347824e-02 2.821979112923145294e-02 -1.238481253385543823e-01 3.978369832038879395e-01 1.375147253274917603e-01 -9.793398529291152954e-02 1.282311044633388519e-02 -7.228143513202667236e-02 2.888091653585433960e-02 -5.065006017684936523e-02 2.317852154374122620e-02 5.132240056991577148e-02 3.080604970455169678e-02 4.418470561504364014e-01 3.777134418487548828e-01 2.835619263350963593e-02 6.957224011421203613e-02 3.964222967624664307e-01 -1.788448728621006012e-02 4.305339604616165161e-02 1.151472236961126328e-02 -2.546163275837898254e-02 -2.971925958991050720e-02 1.402638107538223267e-02 -1.879293471574783325e-02 9.785964339971542358e-02 2.522546052932739258e-02 3.631192743778228760e-01 -1.047979667782783508e-01 1.881300471723079681e-02 9.343026578426361084e-02 3.444561660289764404e-01 -2.732048369944095612e-02 6.022339314222335815e-02 8.400678634643554688e-02 8.561966568231582642e-02 -1.321824546903371811e-02 1.473311521112918854e-02 5.674760416150093079e-02 -6.800724565982818604e-02 1.536808162927627563e-02 4.409098029136657715e-01 -1.620462387800216675e-01 -1.588094234466552734e-02 -1.779009401798248291e-02 3.230486512184143066e-01 1.786342114210128784e-01 -2.878743782639503479e-02 -8.299916982650756836e-02 -1.186643354594707489e-02 6.067010387778282166e-02 -1.859624125063419342e-02 -5.284014716744422913e-02 -3.504284843802452087e-02 1.588765382766723633e-01 3.800780177116394043e-01 1.324444562196731567e-01 -1.300095021724700928e-02 2.144414484500885010e-01 4.526493251323699951e-01 -2.989443838596343994e-01 7.412121444940567017e-02 6.939355283975601196e-02 -2.145537175238132477e-02 7.004318386316299438e-02 -7.518914341926574707e-02 2.265606075525283813e-02 1.796148531138896942e-02 -2.060220539569854736e-01 4.910603761672973633e-01 -5.323026180267333984e-01 -1.387749332934617996e-02 -2.578575313091278076e-01 3.940442204475402832e-01 1.335307061672210693e-01 -4.713340196758508682e-03 -5.293797329068183899e-02 -7.386452704668045044e-02 -2.340034246444702148e-01 4.010928422212600708e-02 2.738979412242770195e-03 -7.656722300453111529e-05 -1.192068159580230713e-01 4.237323701381683350e-01 -1.387478858232498169e-01 1.727139204740524292e-02 -1.203400343656539917e-01 4.549774825572967529e-01 -6.801585108041763306e-02 8.146231994032859802e-03 -4.693984228651970625e-04 -7.118639349937438965e-02 4.169599413871765137e-01 -3.328424319624900818e-02 -4.225203767418861389e-02 -7.889453321695327759e-02 1.967215985059738159e-01 3.767441809177398682e-01 3.479959964752197266e-01 -4.350248351693153381e-02 1.466996520757675171e-01 3.939456045627593994e-01 -1.132639348506927490e-01 -1.062906347215175629e-02 2.102864906191825867e-03 -2.760216966271400452e-02 -4.150272905826568604e-01 -4.654577374458312988e-02 3.236851887777447701e-03 -6.482422351837158203e-02 -3.259339556097984314e-02 3.650029897689819336e-01 4.040176421403884888e-02 6.830676645040512085e-02 -2.070455066859722137e-02 4.551327824592590332e-01 1.543502360582351685e-01 -2.325727418065071106e-02 -2.093780413269996643e-02 4.080833867192268372e-02 1.160014718770980835e-01 7.195585221052169800e-02 2.617566846311092377e-02
-9.645493328571319580e-02 9.501582980155944824e-01 2.580683678388595581e-02 -2.184365749359130859e+00 -7.102702558040618896e-02 9.630365967750549316e-01 -9.212540090084075928e-02 9.118190407752990723e-01 5.652911495417356491e-03 9.285368770360946655e-02 3.942386712878942490e-03 5.770044401288032532e-03 6.233331561088562012e-02 -6.642085965722799301e-03 -9.623978286981582642e-02 6.575855016708374023e-01 1.145932544022798538e-02 -1.145335316658020020e+00 1.325473748147487640e-02 2.089834660291671753e-01 -6.638673692941665649e-02 2.782227098941802979e-01 7.381047587841749191e-03 6.343956571072340012e-03 -3.111005201935768127e-02 9.519929438829421997e-02 -3.873364627361297607e-02 6.843175273388624191e-03 -7.282625138759613037e-02 6.259748339653015137e-01 7.872650027275085449e-02 1.846511214971542358e-01 4.216323047876358032e-02 3.169787824153900146e-01 -4.320086911320686340e-02 3.029789328575134277e-01 5.868437886238098145e-02 7.037623971700668335e-02 -4.188111796975135803e-02 -6.898300349712371826e-02 6.040363758802413940e-02 -1.817110367119312286e-02 7.104603946208953857e-02 -2.011806219816207886e-01 8.311215788125991821e-02 8.210976123809814453e-01 -3.411180153489112854e-02 -8.905416727066040039e-02 -9.944207035005092621e-03 -6.982471942901611328e-01 1.292948424816131592e-02 -3.309261426329612732e-02 3.380731120705604553e-02 9.050244092941284180e-02 -1.929736509919166565e-02 6.081390380859375000e-02 -1.961616799235343933e-02 -7.529902458190917969e-01 4.377349093556404114e-02 2.041601657867431641e+00 1.328452378511428833e-01 -8.572890758514404297e-01 -9.368305653333663940e-02 -6.113950014114379883e-01 -2.501337975263595581e-02 -5.952153354883193970e-02 -3.599002584815025330e-02 -6.410768628120422363e-02 6.479232758283615112e-02 -4.494867846369743347e-02 1.000903323292732239e-01 -5.242449641227722168e-01 1.418643742799758911e-01 1.755223035812377930e+00 2.794216200709342957e-02 -2.433592230081558228e-01 4.805447906255722046e-02 -1.017297148704528809e+00 -1.493738684803247452e-02 1.597868204116821289e-01 1.312524173408746719e-02 2.056598365306854248e-01 -4.601440392434597015e-03 1.980618201196193695e-02 2.070392668247222900e-02 -1.586659550666809082e+00 -1.471604872494935989e-02 1.136347532272338867e+00 7.027856260538101196e-02 -1.141864657402038574e+00 2.012527780607342720e-03 -7.913593649864196777e-01 -9.520648745819926262e-04 -2.569579780101776123e-01 3.473605215549468994e-02 -2.557685971260070801e-01 1.037128502503037453e-03 -9.654232114553451538e-02 6.078635528683662415e-02 -1.122583627700805664e+00 8.548424392938613892e-02 1.796977281570434570e+00 1.361676603555679321e-01 -7.674454450607299805e-01 7.291172631084918976e-03 -4.209420382976531982e-01 1.738985069096088409e-02 2.707357704639434814e-02 -1.408759504556655884e-02 2.052789628505706787e-01 -2.298669703304767609e-02 1.997322142124176025e-01 3.879528492689132690e-02 -1.250226378440856934e+00 6.306227296590805054e-02 -1.408827781677246094e+00 1.449484378099441528e-01 1.011351704597473145e+00 3.181933425366878510e-04 3.885926604270935059e-01 1.043715421110391617e-02 -1.346064656972885132e-01 1.410824712365865707e-02 -3.404037356376647949e-01 -7.899542897939682007e-02 -1.414947360754013062e-01 -6.526123732328414917e-02 3.194202423095703125e+00 2.321444451808929443e-02 -2.984949827194213867e+00 -8.893058449029922485e-02 6.052613258361816406e-01 -2.167312800884246826e-02 1.640356779098510742e+00 -5.330852046608924866e-02 1.294388025999069214e-01 6.172756105661392212e-02 1.627765744924545288e-01 1.818562857806682587e-02 1.353928167372941971e-02
4.641603212803602219e-03 1.595628261566162109e+00 5.602357387542724609e-01 2.166621237993240356e-01 1.037363801151514053e-02 -8.674218058586120605e-01 2.635392248630523682e-01 -2.883063256740570068e-01 1.224767323583364487e-02 -1.668621450662612915e-01 2.780158445239067078e-02 -1.005460768938064575e-01 2.723829448223114014e-02 -9.741275757551193237e-02 7.019427418708801270e-02 3.761619701981544495e-02 4.954425096511840820e-01 -2.304958105087280273e-01 -1.988683454692363739e-02 1.323637831956148148e-02 2.282960265874862671e-01 3.290024101734161377e-01 -4.255037009716033936e-02 1.076367944478988647e-01 -5.907644331455230713e-02 1.187546104192733765e-01 -1.758241094648838043e-02 3.053706698119640350e-02 1.085240542888641357e-01 3.017136752605438232e-01 5.462608933448791504e-01 -2.984087765216827393e-01 -5.792251601815223694e-02 3.641289770603179932e-01 2.704845964908599854e-01 -5.230889469385147095e-02 1.115604210644960403e-02 1.487693935632705688e-01 -3.757201135158538818e-02 1.259348727762699127e-02 -9.440114721655845642e-03 1.808642409741878510e-02 -3.843153268098831177e-02 -1.212872624397277832e+00 5.927345156669616699e-01 6.214216351509094238e-02 -1.247622445225715637e-02 2.373978644609451294e-01 3.201950788497924805e-01 -1.999281495809555054e-01 3.310417756438255310e-02 -2.120416462421417236e-01 -4.386413469910621643e-02 -1.987558901309967041e-01 5.934222042560577393e-02 9.648941457271575928e-03 4.014444351196289062e-02 -1.185536623001098633e+00 5.255759358406066895e-01 -2.717470526695251465e-01 1.085171941667795181e-02 2.011688232421875000e+00 2.906697094440460205e-01 1.085445508360862732e-01 1.055386438965797424e-01 3.441872000694274902e-01 -7.021593302488327026e-02 1.738749295473098755e-01 -2.035866305232048035e-02 7.208327203989028931e-02 -6.810966879129409790e-02 -2.016531467437744141e+00 4.738640785217285156e-01 -4.054495990276336670e-01 -6.623340398073196411e-02 5.597251057624816895e-01 2.267819792032241821e-01 -1.553357690572738647e-01 2.114694379270076752e-02 9.787523746490478516e-02 -1.089166291058063507e-02 -1.603312939405441284e-01 -1.022054627537727356e-02 -1.304860040545463562e-02 -6.475032866001129150e-02 -1.346373558044433594e+00 5.713599920272827148e-01 7.551028728485107422e-01 -2.678441815078258514e-02 1.271568387746810913e-01 1.858982592821121216e-01 -7.646008580923080444e-02 -3.879634290933609009e-02 -3.889286518096923828e-01 4.536836221814155579e-02 1.487676501274108887e-01 6.981597840785980225e-02 -7.272008806467056274e-02 -2.434061374515295029e-03 6.299755722284317017e-02 5.299919247627258301e-01 -4.222359061241149902e-01 -1.150353904813528061e-02 5.039544701576232910e-01 2.264351695775985718e-01 5.390895009040832520e-01 4.023732617497444153e-02 5.108108520507812500e-01 -6.846928596496582031e-02 9.076452255249023438e-02 -3.479744121432304382e-02 5.947822704911231995e-02 -9.303943812847137451e-02 -4.511745274066925049e-01 6.021278500556945801e-01 2.426346391439437866e-01 -7.004407048225402832e-02 -1.540656447410583496e+00 2.285609990358352661e-01 1.685612052679061890e-01 -2.726511470973491669e-02 -4.423665404319763184e-01 -6.652485113590955734e-03 -2.381066381931304932e-01 -3.749130060896277428e-03 -1.997430436313152313e-02 6.012175977230072021e-02 4.242427825927734375e+00 5.283392667770385742e-01 3.901281058788299561e-01 -1.382984966039657593e-01 -1.420561194419860840e+00 1.588767319917678833e-01 -3.399317264556884766e-01 -3.019927442073822021e-02 -4.529664758592844009e-03 -4.695110768079757690e-02 1.393758356571197510e-01 8.741722442209720612e-03 -6.960411556065082550e-03
-4.423926025629043579e-02 -3.932127654552459717e-01 -5.734606385231018066e-01 2.564719319343566895e-01 2.159664779901504517e-01 9.706231951713562012e-02 2.226682603359222412e-01 -8.077724277973175049e-02 6.491935998201370239e-02 7.379100471735000610e-02 -6.003544107079505920e-02 6.982957571744918823e-02 -4.897957667708396912e-02 -6.863927841186523438e-02 5.216351523995399475e-02 2.460271269083023071e-01 -5.604515671730041504e-01 4.511475935578346252e-02 2.314117550849914551e-01 1.491733342409133911e-01 2.552406787872314453e-01 -1.370400935411453247e-01 6.890129297971725464e-02 -9.549314528703689575e-02 6.141604110598564148e-02 -9.346049278974533081e-02 6.414500623941421509e-02 6.290215998888015747e-02 -2.200623601675033569e-02 6.184775233268737793e-01 -5.248796343803405762e-01 -3.543535768985748291e-01 2.320017665624618530e-01 -3.345534205436706543e-01 2.342158704996109009e-01 -6.913051009178161621e-02 -1.818951405584812164e-02 -8.612019941210746765e-03 -4.325970634818077087e-02 -3.159462288022041321e-02 1.967515423893928528e-02 -7.522328943014144897e-02 -4.834973439574241638e-02 -4.192649126052856445e-01 -6.075804233551025391e-01 -2.181932628154754639e-01 2.060330957174301147e-01 2.180079072713851929e-01 2.115221321582794189e-01 2.717889547348022461e-01 3.413751721382141113e-02 9.164638072252273560e-02 3.234418854117393494e-02 1.157917976379394531e-01 -4.559005610644817352e-03 9.401124715805053711e-02 7.780923694372177124e-02 6.242427229881286621e-01 -6.299482583999633789e-01 -4.106032848358154297e-02 2.773330807685852051e-01 -5.213393568992614746e-01 1.902403533458709717e-01 1.147470101714134216e-01 2.822780050337314606e-02 -1.918739527463912964e-01 2.044295147061347961e-02 -1.417571455240249634e-01 5.823076888918876648e-02 -1.187386177480220795e-02 9.984717704355716705e-03 1.078695729374885559e-01 -6.623921394348144531e-01 -5.138940811157226562e-01 2.830635607242584229e-01 -6.954337656497955322e-02 2.475424110889434814e-01 1.823746711015701294e-01 3.636506199836730957e-02 1.547792404890060425e-01 -6.567452102899551392e-03 4.298460483551025391e-02 -1.858795806765556335e-02 4.061526805162429810e-02 1.056366250850260258e-03 -9.083240628242492676e-01 -6.685869097709655762e-01 5.541173219680786133e-01 2.211206406354904175e-01 2.805470228195190430e-01 2.780451178550720215e-01 -2.296338677406311035e-01 -9.365294128656387329e-03 4.215589258819818497e-03 -7.064578682184219360e-02 2.822609990835189819e-02 -9.019247442483901978e-02 -4.794581979513168335e-02 2.426699968054890633e-03 7.611404657363891602e-01 -5.350235104560852051e-01 -9.439288824796676636e-02 2.169650793075561523e-01 -7.971811890602111816e-01 1.762173026800155640e-01 -3.164852559566497803e-01 -3.001507744193077087e-02 -1.673754006624221802e-01 4.566976055502891541e-02 -3.149656355381011963e-01 -1.849426887929439545e-02 -5.824000388383865356e-02 2.830489166080951691e-02 -1.939338922500610352e+00 -6.733660101890563965e-01 -2.892666123807430267e-02 2.782032489776611328e-01 1.167385220527648926e+00 3.207242786884307861e-01 5.759295821189880371e-01 9.570595622062683105e-02 1.652999669313430786e-01 -4.818550869822502136e-02 2.780581116676330566e-01 -4.155085235834121704e-02 1.298787444829940796e-01 -1.060941442847251892e-02 1.288855075836181641e+00 -5.797744989395141602e-01 2.893054783344268799e-01 2.924401760101318359e-01 -1.632238179445266724e-01 1.873434484004974365e-01 -3.392705619335174561e-01 1.187842921353876591e-03 -1.777147315442562103e-02 -5.711238458752632141e-02 4.706602916121482849e-02 2.133114822208881378e-02 -7.353250682353973389e-02
-6.995773315429687500e-02 6.987234205007553101e-02 7.710394263267517090e-02 1.555367112159729004e-01 -7.822714745998382568e-02 -1.089512035250663757e-01 -9.337993711233139038e-02 7.289119996130466461e-03 -1.422274671494960785e-02 -6.310024857521057129e-01 9.933015704154968262e-02 -2.762218238785862923e-03 -1.191326528787612915e-01 -3.263321891427040100e-02 4.001089930534362793e-02 -2.629132941365242004e-02 -1.386921759694814682e-02 1.609738469123840332e-01 6.356379389762878418e-02 5.411169305443763733e-02 -1.451653391122817993e-01 -1.315178275108337402e-01 1.407210249453783035e-02 -2.897534370422363281e-01 1.025488153100013733e-01 -4.134356230497360229e-02 -1.050854250788688660e-01 1.970212534070014954e-02 5.015426129102706909e-02 2.442803978919982910e-02 5.926011502742767334e-02 -6.026273965835571289e-02 -8.198155090212821960e-03 -7.342999801039695740e-03 -2.520676143467426300e-02 -6.240059807896614075e-02 -7.209482043981552124e-02 -1.092102006077766418e-01 1.940205991268157959e-01 2.416415326297283173e-02 -8.387152105569839478e-02 -4.061752557754516602e-02 1.294903457164764404e-02 -1.665010005235671997e-01 3.674779087305068970e-03 3.700605407357215881e-02 2.974864840507507324e-02 -1.236485466361045837e-01 -8.730827271938323975e-02 -2.105102390050888062e-01 -3.263135254383087158e-02 4.413433745503425598e-02 1.472270041704177856e-01 7.912728935480117798e-03 -1.685018837451934814e-02 2.826024033129215240e-02 -4.420115426182746887e-02 -2.017159014940261841e-01 1.884897984564304352e-02 5.356078222393989563e-02 2.493300475180149078e-02 -1.873190142214298248e-02 -1.289943140000104904e-02 -1.304408162832260132e-01 -2.352125383913516998e-02 2.120903693139553070e-03 2.406276017427444458e-01 -1.304359827190637589e-02 3.903871402144432068e-02 -5.390791594982147217e-02 -2.793628349900245667e-02 -8.398418873548507690e-02 1.517943199723958969e-02 -3.035088256001472473e-02 2.690363116562366486e-02 -9.577433019876480103e-02 -5.917489528656005859e-02 -6.799392402172088623e-02 -5.456681922078132629e-02 3.184895962476730347e-02 1.078422069549560547e-01 -1.459210086613893509e-02 -3.908767551183700562e-02 1.543185301125049591e-02 -3.843946009874343872e-02 -1.204268112778663635e-01 2.384219132363796234e-02 -1.091394126415252686e-01 2.671055682003498077e-02 -1.171692386269569397e-01 -5.067543685436248779e-02 -1.090441420674324036e-01 -5.881309881806373596e-02 8.755734562873840332e-02 1.418956518173217773e-01 8.222672343254089355e-02 2.865191176533699036e-02 -1.652310229837894440e-02 3.061295114457607269e-02 3.792783990502357483e-02 4.231023788452148438e-02 -7.578910887241363525e-02 -5.769488587975502014e-02 -6.423848867416381836e-02 -4.559792112559080124e-03 2.734282612800598145e-01 -6.005702540278434753e-02 -5.944661051034927368e-02 2.266936898231506348e-01 -1.813410669565200806e-01 -7.396138459444046021e-02 3.262267261743545532e-02 -3.681232407689094543e-02 3.090220391750335693e-01 2.746621333062648773e-02 5.578911677002906799e-02 -9.701620042324066162e-02 1.632863432168960571e-01 -1.015325263142585754e-01 1.401609927415847778e-01 -3.157221153378486633e-02 -1.531616598367691040e-01 2.327078580856323242e-01 1.042414158582687378e-01 4.382156475912779570e-04 6.041979417204856873e-02 -4.510023072361946106e-02 1.326449215412139893e-01 3.012975491583347321e-02 -2.167914807796478271e-01 4.304314788896590471e-04 1.332223117351531982e-01 -4.971969500184059143e-02 2.427568286657333374e-01 8.071747422218322754e-02 -4.088878929615020752e-01 9.892695397138595581e-02 -1.972073502838611603e-02 -6.499535590410232544e-02 4.552858322858810425e-02
1.509184297174215317e-02 -1.478008180856704712e-01 -3.231251239776611328e-01 4.599314555525779724e-02 3.051887750625610352e-01 1.299296598881483078e-02 -1.104809194803237915e-01 9.754789620637893677e-02 -1.846547871828079224e-01 1.217674314975738525e-01 -2.322583049535751343e-01 3.559288755059242249e-02 4.576131701469421387e-02 -1.657596416771411896e-02 2.750740014016628265e-02 -7.681355625391006470e-02 -2.670234739780426025e-01 4.904668033123016357e-02 2.230352759361267090e-01 -1.240944489836692810e-01 -5.599315464496612549e-02 -1.185613051056861877e-01 -2.860276103019714355e-01 -4.756008833646774292e-02 -2.111034095287322998e-01 -7.191520929336547852e-02 -1.968058757483959198e-02 5.278200656175613403e-02 -5.085635185241699219e-02 2.848111838102340698e-02 -1.707146614789962769e-01 -1.303431540727615356e-01 2.115778177976608276e-01 2.126827687025070190e-01 -1.075056567788124084e-01 1.014946121722459793e-02 -2.794292867183685303e-01 -1.435515582561492920e-01 -2.116147577762603760e-01 -2.046461999416351318e-01 -3.555263578891754150e-02 -2.779061673209071159e-03 6.659812480211257935e-02 3.114933669567108154e-01 -1.651079803705215454e-01 1.165666580200195312e-01 2.689547836780548096e-01 -1.167849972844123840e-01 -8.219652622938156128e-02 -1.177108474075794220e-02 -2.466280162334442139e-01 6.976621598005294800e-02 -1.755218803882598877e-01 3.020985126495361328e-01 6.613450497388839722e-02 -6.759798526763916016e-02 6.449712812900543213e-02 2.586045861244201660e-01 -3.213080167770385742e-01 -1.287274062633514404e-02 2.346577197313308716e-01 6.043021008372306824e-02 -4.397666454315185547e-02 7.421728223562240601e-02 -2.809634506702423096e-01 -1.356353163719177246e-01 -1.162524148821830750e-01 -3.792296051979064941e-01 7.709375768899917603e-02 3.154502063989639282e-02 -9.551555663347244263e-02 7.670162618160247803e-02 -2.042078524827957153e-01 -1.538745313882827759e-01 2.684190571308135986e-01 2.670571208000183105e-01 -5.214641243219375610e-02 -1.604903340339660645e-01 -2.432009577751159668e-01 -9.516117721796035767e-02 -7.191319018602371216e-02 -1.046977937221527100e-01 -2.549169212579727173e-02 6.605806946754455566e-02 4.400989785790443420e-02 5.487213283777236938e-02 -2.315494120121002197e-01 -8.572842180728912354e-02 1.217091307044029236e-01 -9.474750608205795288e-02 -7.848283275961875916e-03 1.610555499792098999e-02 -3.260245919227600098e-01 1.009645834565162659e-01 -1.958244740962982178e-01 6.963503360748291016e-01 5.087890848517417908e-02 -4.836894944310188293e-02 -3.254309669137001038e-02 -4.832769036293029785e-01 -1.817482560873031616e-01 -6.516696810722351074e-01 1.113482639193534851e-01 -2.550097405910491943e-01 -7.568542659282684326e-02 -1.633669734001159668e-01 -3.531286120414733887e-01 -2.753726541996002197e-01 -1.777140796184539795e-01 -1.355166792869567871e+00 -4.120389744639396667e-02 -2.844913676381111145e-02 -1.600553840398788452e-02 3.469464480876922607e-01 -2.607752084732055664e-01 7.227960824966430664e-01 2.521722316741943359e-01 3.740745186805725098e-01 1.906011370010674000e-03 -7.306785136461257935e-02 -3.304981887340545654e-01 1.746623218059539795e-01 -2.295709699392318726e-01 1.514182090759277344e+00 5.782962217926979065e-02 -3.964570909738540649e-02 1.797427609562873840e-02 -3.695817589759826660e-01 -1.790060997009277344e-01 9.083960205316543579e-02 1.688727289438247681e-01 -3.109050691127777100e-01 5.238621681928634644e-02 3.185208141803741455e-01 -3.627722263336181641e-01 2.232567071914672852e-01 -1.744483560323715210e-01 -4.583976268768310547e-01 -1.483085192739963531e-02 4.967586696147918701e-02
6.292171031236648560e-02 -2.697698771953582764e-01 -3.959968686103820801e-01 -5.070330500602722168e-01 -1.690432429313659668e-01 3.280507028102874756e-01 -4.292539879679679871e-02 -1.221714615821838379e-01 1.883735880255699158e-02 -1.765302009880542755e-02 -3.247277066111564636e-02 1.151085793972015381e-01 -4.420350119471549988e-02 2.227436564862728119e-02 -7.293195277452468872e-02 4.545238316059112549e-01 -3.752167820930480957e-01 -2.558816038072109222e-02 -1.274746209383010864e-01 4.212041199207305908e-02 -6.731814146041870117e-02 -4.265752062201499939e-02 -1.569597050547599792e-02 1.490997336804866791e-02 -9.031941741704940796e-02 4.031433165073394775e-02 -4.230084829032421112e-03 -1.329662650823593140e-01 -3.990248963236808777e-02 -3.153782188892364502e-01 -3.544647693634033203e-01 1.696850955486297607e-01 -2.086428403854370117e-01 -1.139700487256050110e-01 2.587738633155822754e-02 6.399279832839965820e-02 -1.732148788869380951e-02 1.312273442745208740e-01 -4.643261060118675232e-02 -2.020921409130096436e-01 3.516021370887756348e-02 1.124137192964553833e-01 2.127606607973575592e-02 -5.280458331108093262e-01 -3.828778266906738281e-01 3.582578301429748535e-01 -2.715234756469726562e-01 -5.482248663902282715e-01 6.372706592082977295e-02 5.014705657958984375e-02 -4.569507017731666565e-02 -1.880606263875961304e-01 2.216737158596515656e-02 5.947512388229370117e-02 -2.045609429478645325e-02 -1.843052171170711517e-02 -2.971744630485773087e-03 4.546762108802795410e-01 -3.441622555255889893e-01 6.042088270187377930e-01 -2.681513726711273193e-01 -7.506189346313476562e-01 2.005805075168609619e-02 -3.279319778084754944e-02 7.951718568801879883e-02 1.122336685657501221e-01 -8.264960348606109619e-02 1.142740547657012939e-01 6.139900535345077515e-02 2.551521547138690948e-02 5.737335607409477234e-02 -6.785999536514282227e-01 -4.126613438129425049e-01 8.833103775978088379e-01 -1.453448235988616943e-01 -4.915202856063842773e-01 4.755912721157073975e-02 -1.024346053600311279e-01 -3.923047706484794617e-02 -4.987637046724557877e-03 4.033213108777999878e-02 -4.376443102955818176e-02 6.551627814769744873e-02 -9.283617138862609863e-03 1.942067034542560577e-02 -1.858228445053100586e-01 -4.173868894577026367e-01 -3.705880641937255859e-01 -1.432405710220336914e-01 -5.340638160705566406e-01 4.881505668163299561e-02 4.082067012786865234e-01 -1.775002479553222656e-02 -2.658941447734832764e-01 -1.052630171179771423e-01 -1.156602129340171814e-01 -2.809482812881469727e-02 -5.857280921190977097e-03 -4.949129745364189148e-02 1.792354345321655273e+00 -3.668962419033050537e-01 -1.407839804887771606e-01 -2.576694786548614502e-01 6.158421635627746582e-01 -3.739393129944801331e-02 -1.793135851621627808e-01 8.323259651660919189e-02 2.723603844642639160e-01 -1.030504852533340454e-01 2.586373686790466309e-01 5.480024963617324829e-02 2.145682275295257568e-02 7.095562294125556946e-03 -3.017256975173950195e+00 -3.986277282238006592e-01 5.460150837898254395e-01 -2.410745620727539062e-01 4.490386545658111572e-01 -7.158304005861282349e-02 3.865255042910575867e-02 -4.693473875522613525e-02 -1.584333479404449463e-01 4.695038497447967529e-02 -1.930345892906188965e-01 -5.362174287438392639e-02 -2.554711140692234039e-02 -4.066273197531700134e-02 2.306246280670166016e+00 -2.608477473258972168e-01 -1.565191388130187988e+00 -1.861817538738250732e-01 9.973290562629699707e-01 -1.716775074601173401e-02 -4.691266641020774841e-02 -1.814517378807067871e-02 9.175110608339309692e-02 3.137984126806259155e-02 -1.301335822790861130e-02 -2.135822735726833344e-02 4.410623572766780853e-03
1.044906862080097198e-02 -1.532591762952506542e-03 -6.853739172220230103e-02 -6.265145260840654373e-03 -4.992939159274101257e-02 -4.138444550335407257e-03 -2.103533782064914703e-02 -9.762345813214778900e-03 8.237583935260772705e-02 2.059145364910364151e-03 2.369104325771331787e-02 4.277626983821392059e-03 6.889324635267257690e-02 -1.922114372253417969e+00 1.281933765858411789e-02 1.978871587198227644e-04 5.565967038273811340e-02 1.104712369851768017e-03 6.639701128005981445e-02 1.931073609739542007e-03 2.615226805210113525e-02 2.583706052973866463e-03 -7.083152979612350464e-02 -1.136621809564530849e-03 6.222496926784515381e-02 9.519050363451242447e-04 -2.907988242805004120e-02 -1.720622062683105469e+00 2.720133401453495026e-02 4.798254463821649551e-03 7.769455760717391968e-02 3.509415779262781143e-03 1.469828281551599503e-02 3.402316942811012268e-03 4.706761986017227173e-02 2.220201538875699043e-03 -2.167309261858463287e-02 -5.823901738040149212e-04 -7.088234648108482361e-03 -3.823273116722702980e-03 7.582397013902664185e-02 -1.643652200698852539e+00 -1.708811149001121521e-02 -1.313966466113924980e-03 1.783523894846439362e-02 3.918593749403953552e-03 6.201621517539024353e-02 -2.330093877390027046e-03 6.842257827520370483e-02 5.234923213720321655e-03 -8.079535514116287231e-02 -7.404407951980829239e-04 -2.711022645235061646e-02 -3.308391605969518423e-04 9.471286833286285400e-02 -1.566712379455566406e+00 -2.099543809890747070e-02 1.064507639966905117e-03 6.220354232937097549e-03 1.180750114144757390e-04 -7.652974128723144531e-02 2.047029789537191391e-03 -4.508883506059646606e-02 1.133828656747937202e-03 6.780187785625457764e-02 -7.593224872834980488e-04 -6.638220697641372681e-02 8.580187568441033363e-04 -7.069694250822067261e-02 -1.526093006134033203e+00 5.104812234640121460e-02 5.450178286992013454e-04 -5.686574801802635193e-02 -5.088487640023231506e-03 -7.684065960347652435e-03 2.001354703679680824e-03 -7.566922158002853394e-02 5.140689201653003693e-03 2.355365082621574402e-02 -1.035693450830876827e-03 -1.157632190734148026e-02 -5.259273573756217957e-03 -9.797306731343269348e-03 -1.491029739379882812e+00 -1.261030603200197220e-02 -1.328432932496070862e-03 -5.530031025409698486e-02 3.526905551552772522e-03 3.687100484967231750e-02 -1.292191911488771439e-03 -1.940216310322284698e-02 -4.568598233163356781e-03 -5.822789669036865234e-02 -7.592648616991937160e-04 1.646067574620246887e-02 4.276762716472148895e-03 -4.484365880489349365e-02 -1.454710364341735840e+00 3.617049427703022957e-03 8.570755016990005970e-04 1.782898791134357452e-02 -5.230054259300231934e-03 -3.349337726831436157e-02 -2.364080137340351939e-04 6.671957089565694332e-04 -5.824140738695859909e-03 5.271635949611663818e-02 -6.870592478662729263e-04 5.369941890239715576e-02 -4.010322969406843185e-03 -6.242430582642555237e-02 -1.423644900321960449e+00 -3.407735377550125122e-02 -4.083896055817604065e-03 1.155269099399447441e-03 -1.569297746755182743e-03 7.358209043741226196e-02 -4.603356588631868362e-03 6.738141179084777832e-02 -5.972885992377996445e-03 4.753628373146057129e-02 -1.122968897107057273e-04 8.732436224818229675e-03 1.240550540387630463e-03 2.885245345532894135e-02 -1.449403047561645508e+00 -1.853138394653797150e-02 2.910196082666516304e-03 4.330949392169713974e-03 8.805111050605773926e-03 -8.861922472715377808e-02 1.665973453782498837e-03 -4.559595510363578796e-02 8.304486051201820374e-03 -4.246063902974128723e-02 1.856696791946887970e-03 -5.171766132116317749e-02 2.817894797772169113e-03 -1.006098240613937378e-01 -6.794734597206115723e-01
-7.459517568349838257e-02 -1.932209134101867676e-01 -4.308753833174705505e-02 5.033345147967338562e-02 -1.727618463337421417e-02 -5.667822360992431641e-01 7.054317742586135864e-02 1.002939417958259583e-01 6.158853322267532349e-02 1.942963339388370514e-02 -6.061574071645736694e-02 -3.205759078264236450e-02 -5.808596033602952957e-04 4.057945311069488525e-02 4.931778647005558014e-03 -1.112688556313514709e-01 4.435173794627189636e-02 -4.453971609473228455e-02 -1.094064489006996155e-01 -1.934034377336502075e-01 -1.840235106647014618e-02 5.953077226877212524e-02 -2.934667654335498810e-02 4.933709278702735901e-02 3.933849930763244629e-02 1.979458704590797424e-02 -3.198224678635597229e-02 -4.823597520589828491e-02 -6.040830630809068680e-03 -2.443463355302810669e-01 7.000467181205749512e-02 1.826307177543640137e-01 -7.064862549304962158e-02 -3.785485327243804932e-01 -7.087133079767227173e-02 2.799767255783081055e-01 -2.169151976704597473e-02 -1.445933729410171509e-01 4.896733537316322327e-02 -7.349504530429840088e-02 -3.864768147468566895e-02 5.806732922792434692e-02 -5.897193774580955505e-02 -2.487676590681076050e-01 -7.412844896316528320e-02 -9.069723635911941528e-02 -1.000267937779426575e-01 2.405105233192443848e-01 -1.393577642738819122e-02 -1.710041053593158722e-02 -3.093256987631320953e-02 9.040353447198867798e-02 5.778711289167404175e-02 8.461047708988189697e-02 2.840455994009971619e-02 -4.365726187825202942e-02 1.451149117201566696e-02 3.119841217994689941e-01 4.370454326272010803e-02 -1.625306904315948486e-01 2.107192948460578918e-02 1.209994181990623474e-01 2.084222994744777679e-02 1.632723025977611542e-02 1.731982082128524780e-02 -4.695084691047668457e-02 9.015478193759918213e-03 -1.150439605116844177e-01 2.494364604353904724e-02 -1.438953098841011524e-03 -1.122243516147136688e-02 1.607685163617134094e-02 -2.760867588222026825e-02 2.629193961620330811e-01 -8.186756633222103119e-03 -8.296418190002441406e-02 7.343598455190658569e-02 -2.806110680103302002e-01 5.482657998800277710e-02 -6.180993095040321350e-02 -6.912680715322494507e-02 8.872479945421218872e-02 -5.171567201614379883e-02 -7.008327171206474304e-03 5.311029031872749329e-02 8.259911537170410156e-01 6.630622595548629761e-02 -2.694796621799468994e-01 7.104767858982086182e-02 1.099628210067749023e+00 -5.922733619809150696e-02 -1.643501669168472290e-01 -2.737819030880928040e-02 1.264453828334808350e-01 5.959136411547660828e-02 -1.073480993509292603e-01 4.379921779036521912e-02 6.557092536240816116e-03 1.278566941618919373e-02 5.051032900810241699e-01 -4.382546991109848022e-02 -2.825695872306823730e-01 1.029806286096572876e-01 3.778775632381439209e-01 -1.272023469209671021e-02 -1.436332911252975464e-01 -4.585876315832138062e-02 -1.023676320910453796e-01 -8.410165458917617798e-02 1.243759915232658386e-01 5.988578125834465027e-02 -3.550448268651962280e-02 7.724263519048690796e-02 6.723150610923767090e-01 3.606311231851577759e-02 2.646308243274688721e-01 6.814574450254440308e-02 -8.891463875770568848e-01 -5.101425573229789734e-02 -5.076748728752136230e-01 -4.140269011259078979e-02 2.367618083953857422e-01 -7.115142047405242920e-02 -1.146912872791290283e-01 -7.299493253231048584e-02 6.154786795377731323e-02 3.331119939684867859e-02 -1.528328061103820801e+00 -5.882959812879562378e-02 1.199423298239707947e-01 -1.175805106759071350e-01 -1.576329112052917480e+00 -4.287203401327133179e-02 6.744959950447082520e-01 4.206303879618644714e-02 -1.722045987844467163e-01 7.255282253026962280e-02 8.733031153678894043e-02 3.308076411485671997e-02 -6.599577609449625015e-03
1.066493988037109375e-01 -4.697704017162322998e-01 -6.131435185670852661e-02 -8.131729438900947571e-03 9.493079036474227905e-02 -2.027837485074996948e-01 2.657423019409179688e-01 4.015670716762542725e-01 2.992052398622035980e-02 -2.835425548255443573e-02 1.152322255074977875e-02 -5.628406628966331482e-02 8.651634305715560913e-02 5.211590602993965149e-02 4.137998446822166443e-02 -2.169379144906997681e-01 -6.711270660161972046e-02 -9.365513920783996582e-02 4.902054369449615479e-02 -9.250506758689880371e-02 3.507754206657409668e-01 -1.538658738136291504e-01 1.122957188636064529e-02 -4.030796885490417480e-02 -1.447032671421766281e-02 -1.109113101847469807e-03 6.908170133829116821e-02 -3.472421318292617798e-02 -5.938358604907989502e-02 2.477582842111587524e-01 -1.526780277490615845e-01 -2.665235660970211029e-02 3.525532782077789307e-02 -2.518187165260314941e-01 3.490741848945617676e-01 9.376785159111022949e-02 3.704867139458656311e-02 -7.490326184779405594e-03 -2.275110408663749695e-02 8.340621739625930786e-02 -5.425789952278137207e-02 -1.098750066012144089e-02 3.478693589568138123e-02 5.060117244720458984e-01 -1.019834876060485840e-01 7.928007841110229492e-02 1.141557097434997559e-01 4.513769149780273438e-01 3.652056455612182617e-01 5.514955520629882812e-02 -7.123205810785293579e-03 4.767260700464248657e-02 -1.246779412031173706e-02 -1.043989956378936768e-01 -2.103667147457599640e-02 4.742573946714401245e-02 -2.947194129228591919e-02 5.128188133239746094e-01 -2.090696617960929871e-02 -8.297726511955261230e-02 6.882888078689575195e-02 -1.861194819211959839e-01 2.769964039325714111e-01 -2.764776647090911865e-01 -5.413806438446044922e-02 1.251894049346446991e-02 -1.692637801170349121e-03 1.035294234752655029e-01 1.067081652581691742e-02 -8.260414004325866699e-03 -5.006754770874977112e-02 5.812425017356872559e-01 -9.650842845439910889e-02 3.406636416912078857e-02 7.190402597188949585e-02 2.946881353855133057e-01 2.488086670637130737e-01 1.412389893084764481e-02 6.995519995689392090e-02 2.428395114839076996e-02 2.186710201203823090e-02 -5.945162475109100342e-02 -3.389912843704223633e-02 2.692328533157706261e-03 9.426441043615341187e-02 3.292896151542663574e-01 -7.548750191926956177e-02 2.200938910245895386e-01 8.514471352100372314e-02 2.149557322263717651e-01 3.147745132446289062e-01 -4.047480225563049316e-01 -4.617053270339965820e-02 2.519217506051063538e-02 1.811997592449188232e-02 8.453279733657836914e-03 -1.974315382540225983e-02 -4.806074779480695724e-03 1.450905203819274902e-02 -2.346677184104919434e-01 -8.211577683687210083e-02 -4.729122221469879150e-01 -3.699746355414390564e-02 -6.772986054420471191e-01 3.259321153163909912e-01 -1.044687032699584961e-01 -7.537492364645004272e-02 -1.917674904689192772e-03 -3.728701546788215637e-02 6.522243469953536987e-02 -2.626483328640460968e-02 5.930801853537559509e-03 3.291378961876034737e-03 -4.292177557945251465e-01 -1.720847934484481812e-01 8.487410545349121094e-01 1.179459020495414734e-01 9.452338218688964844e-01 2.467250525951385498e-01 2.780512571334838867e-01 7.388563454151153564e-02 3.344149887561798096e-02 8.334998786449432373e-02 -5.842293798923492432e-02 4.559012502431869507e-02 -6.113190576434135437e-02 -4.118648171424865723e-02 -7.933910489082336426e-01 -9.041649103164672852e-02 -5.210452079772949219e-01 2.186761349439620972e-01 -7.784312963485717773e-01 2.416777014732360840e-01 2.219369262456893921e-01 3.182496875524520874e-02 -1.223859190940856934e-01 -6.256639212369918823e-02 -3.079880494624376297e-03 9.909626096487045288e-02 1.426166505552828312e-03
-5.554761365056037903e-02 -1.469440311193466187e-01 -1.741020083427429199e-01 9.796507656574249268e-02 -7.449486106634140015e-02 7.538797333836555481e-03 1.452223658561706543e-01 6.466428935527801514e-02 -2.237148582935333252e-01 2.484579943120479584e-02 -1.158991828560829163e-02 -9.890080988407135010e-02 -2.394402772188186646e-02 4.286582767963409424e-02 5.063346587121486664e-03 -2.329410240054130554e-02 -2.947798669338226318e-01 -6.355178356170654297e-02 -1.848114728927612305e-01 -9.585072286427021027e-03 2.279431670904159546e-01 1.852079927921295166e-01 -2.617683708667755127e-01 -2.451679669320583344e-02 -4.555769264698028564e-02 8.112218976020812988e-02 4.695364087820053101e-02 -7.435399293899536133e-02 2.633878029882907867e-03 8.785025030374526978e-02 -1.732014268636703491e-01 -1.026933938264846802e-01 -1.391991525888442993e-01 -3.108133561909198761e-02 1.973778456449508667e-01 -8.916492760181427002e-02 -1.682284325361251831e-01 5.566481500864028931e-02 -6.049425527453422546e-02 7.962421327829360962e-02 -8.776593022048473358e-03 4.514421522617340088e-02 -5.205972120165824890e-03 2.262015081942081451e-02 -2.589251399040222168e-01 5.394611880183219910e-02 -6.014049425721168518e-02 1.104205846786499023e-01 1.836649924516677856e-01 9.658762812614440918e-02 -1.624897122383117676e-01 -2.115253731608390808e-02 -6.677248328924179077e-02 -2.238864302635192871e-01 3.039356879889965057e-02 7.122752070426940918e-02 3.016496822237968445e-02 3.431189358234405518e-01 -3.159874081611633301e-01 -2.381620109081268311e-01 -1.105284541845321655e-01 1.011961027979850769e-01 2.316648513078689575e-01 -4.272213578224182129e-01 -2.362972050905227661e-01 6.538632512092590332e-02 -4.614302143454551697e-02 4.334337711334228516e-01 -7.330119609832763672e-02 -1.077407449483871460e-01 -1.223483937792479992e-03 7.908277958631515503e-02 -3.192082643508911133e-01 1.550829969346523285e-02 -3.574485704302787781e-02 4.660884663462638855e-02 1.465746909379959106e-01 1.713744923472404480e-02 -2.343130558729171753e-01 8.124120533466339111e-02 -9.844874963164329529e-03 -1.413981020450592041e-01 1.703241653740406036e-02 9.044016897678375244e-02 -1.350825279951095581e-02 7.120106369256973267e-02 -2.627253532409667969e-01 1.329710483551025391e-01 -1.502536833286285400e-01 -8.004681440070271492e-04 1.909594237804412842e-01 1.259782165288925171e-02 -2.524043917655944824e-01 -1.483152657747268677e-01 -9.925556182861328125e-02 -3.526127636432647705e-01 -2.461955323815345764e-02 -4.235481098294258118e-02 1.817503385245800018e-02 4.944599568843841553e-01 -2.499103546142578125e-01 -1.500031203031539917e-01 -6.759665161371231079e-02 -1.142903864383697510e-01 9.325809031724929810e-02 -4.912551343441009521e-01 -1.628949642181396484e-01 1.192408874630928040e-01 4.545475170016288757e-02 7.493209242820739746e-01 4.036810249090194702e-02 -1.937240548431873322e-02 4.106024280190467834e-02 -9.235030412673950195e-01 -2.726810872554779053e-01 4.603663682937622070e-01 -1.805290132761001587e-01 -1.150063648819923401e-01 1.421014815568923950e-01 4.902138710021972656e-01 -1.341425478458404541e-01 -1.496863216161727905e-01 5.058252811431884766e-02 -7.982819676399230957e-01 7.228327449411153793e-03 1.016016397625207901e-02 -4.206501320004463196e-02 -1.255482248961925507e-02 -2.015847563743591309e-01 -2.053506225347518921e-01 -1.338631808757781982e-01 -1.144808810204267502e-02 1.931897103786468506e-01 1.464686244726181030e-01 -2.676474153995513916e-01 -1.657421328127384186e-02 -1.001998633146286011e-01 2.477641999721527100e-01 -4.600897431373596191e-02 4.599161911755800247e-03
-4.930759780108928680e-03 3.972987458109855652e-02 6.018999591469764709e-02 1.281302571296691895e-01 2.593365684151649475e-02 -1.419463306665420532e-01 -8.409093320369720459e-02 1.497690081596374512e-01 -3.531413525342941284e-02 -1.920214854180812836e-02 4.684815406799316406e-01 6.436049938201904297e-02 5.592603608965873718e-02 3.849105909466743469e-02 -2.486156672239303589e-02 -1.622283160686492920e-01 -4.512684792280197144e-02 -9.297562390565872192e-02 -2.621114812791347504e-02 1.070617437362670898e-01 -1.131350249052047729e-01 -6.734560243785381317e-03 7.102172821760177612e-02 5.750540271401405334e-02 5.146645307540893555e-01 3.823517262935638428e-02 3.139910101890563965e-02 -5.371087696403264999e-03 7.061587274074554443e-02 5.684234574437141418e-02 2.138401567935943604e-02 -9.828609973192214966e-02 -3.535854816436767578e-02 7.818426191806793213e-02 -1.316821426153182983e-01 -1.446751505136489868e-01 -1.478252094238996506e-02 6.465438753366470337e-02 5.634759664535522461e-01 5.215029790997505188e-02 2.194079197943210602e-02 4.141164198517799377e-02 4.779198020696640015e-02 2.256900817155838013e-01 7.523476332426071167e-02 2.191304415464401245e-01 1.068758442997932434e-01 9.130319207906723022e-02 -1.386183798313140869e-01 -3.922868520021438599e-02 1.520846225321292877e-02 -8.023808896541595459e-02 5.559555888175964355e-01 -1.135655716061592102e-01 -4.140831530094146729e-02 -6.392724066972732544e-02 -2.361123636364936829e-02 -1.069174930453300476e-01 -6.625346094369888306e-02 -5.360847711563110352e-02 -1.901272870600223541e-02 3.686396181583404541e-01 -1.498217582702636719e-01 -1.612402796745300293e-01 4.089760780334472656e-02 1.495015919208526611e-01 5.121270418167114258e-01 7.277624309062957764e-02 -5.454514175653457642e-03 -2.883777208626270294e-02 6.980979442596435547e-02 3.363809287548065186e-01 -3.348300233483314514e-02 1.435853540897369385e-01 6.708434969186782837e-02 -1.736568808555603027e-01 -1.748773753643035889e-01 -1.598775684833526611e-01 -2.328691445291042328e-02 -6.844329088926315308e-02 5.113466382026672363e-01 -2.157527767121791840e-02 6.115625146776437759e-03 -1.550026051700115204e-02 -5.341441929340362549e-02 2.571602165699005127e-01 3.132900595664978027e-02 1.128504499793052673e-01 4.522929340600967407e-02 1.143281012773513794e-01 -1.921537667512893677e-01 2.865811809897422791e-02 1.038090810179710388e-01 -1.375574171543121338e-01 4.267663657665252686e-01 -2.463997714221477509e-02 8.382198959589004517e-02 5.764229223132133484e-02 -1.583888195455074310e-02 -4.164291322231292725e-01 8.240512758493423462e-02 -8.547413349151611328e-02 4.101195931434631348e-02 -3.052894771099090576e-01 -1.820373386144638062e-01 -2.819024324417114258e-01 6.563094258308410645e-02 3.242826163768768311e-01 5.042428374290466309e-01 1.753779798746109009e-01 5.416012927889823914e-02 -5.711593851447105408e-02 2.324802801012992859e-02 -1.073097586631774902e-01 9.117949008941650391e-02 4.845662117004394531e-01 1.277365833520889282e-01 -4.268693551421165466e-02 -1.379333287477493286e-01 2.352160662412643433e-01 3.369540721178054810e-02 -2.900255024433135986e-01 5.698105096817016602e-01 -4.452220499515533447e-01 -3.249279037117958069e-02 3.097607940435409546e-02 -4.533416777849197388e-02 -2.223061472177505493e-01 -4.794484749436378479e-02 -7.010116577148437500e-01 3.253501653671264648e-02 -1.280580610036849976e-01 -1.288106143474578857e-01 3.416676819324493408e-01 -2.773547312244772911e-03 2.413811348378658295e-02 3.972802162170410156e-01 1.640649288892745972e-01 -3.084942698478698730e-03 -7.223038375377655029e-02
4.635220393538475037e-02 8.854454755783081055e-02 -1.051407754421234131e-01 -1.105486676096916199e-01 -3.124737441539764404e-01 3.945559635758399963e-02 1.490824967622756958e-01 2.670122385025024414e-01 -5.300059542059898376e-02 -1.313039287924766541e-02 2.722859568893909454e-02 -2.196655794978141785e-02 -6.012361869215965271e-02 6.184794008731842041e-03 -3.885336220264434814e-02 1.044215485453605652e-01 -1.486163437366485596e-01 -1.891758874990046024e-03 -3.351840078830718994e-01 4.722163453698158264e-02 1.276215016841888428e-01 -1.309690177440643311e-01 7.756108790636062622e-02 2.578379772603511810e-02 5.824389401823282242e-03 1.048306189477443695e-02 -2.622942207381129265e-03 2.023654058575630188e-02 5.825843662023544312e-02 3.448087349534034729e-02 -1.388462185859680176e-01 9.203881770372390747e-02 -2.911470532417297363e-01 2.321465611457824707e-01 1.197090819478034973e-01 -1.630093157291412354e-01 -2.747428044676780701e-02 3.497772663831710815e-02 -4.722676239907741547e-03 7.122287154197692871e-02 -3.149709850549697876e-02 -1.750815287232398987e-02 -2.434117905795574188e-02 -1.906870678067207336e-02 -1.438267529010772705e-01 -1.512644141912460327e-01 -2.106752544641494751e-01 -3.673954308032989502e-01 2.220411449670791626e-01 9.589055925607681274e-02 -3.453518822789192200e-02 -4.634883254766464233e-02 4.154282808303833008e-02 -1.126069724559783936e-01 8.636868745088577271e-02 8.390422910451889038e-03 -4.174469783902168274e-02 -1.479595154523849487e-01 -1.074016541242599487e-01 1.577757000923156738e-01 -3.635040223598480225e-01 8.721722662448883057e-02 2.386328727006912231e-01 -3.391766250133514404e-01 -3.381052240729331970e-02 -3.404209855943918228e-03 -1.502291671931743622e-02 1.313424669206142426e-02 -3.477518260478973389e-02 -1.417112909257411957e-02 6.020704656839370728e-02 -2.950721681118011475e-01 -1.665943264961242676e-01 -1.873635947704315186e-01 -2.306713908910751343e-01 -3.094994723796844482e-01 1.671818047761917114e-01 9.986281394958496094e-02 -4.979909211397171021e-02 2.916504163295030594e-03 7.736186031252145767e-03 -1.057104021310806274e-01 3.638739930465817451e-03 4.793690983206033707e-03 -2.674917317926883698e-02 -1.990490406751632690e-01 -2.257706969976425171e-01 4.246721267700195312e-01 -2.190925925970077515e-01 -4.956416487693786621e-01 2.629337012767791748e-01 -2.113039940595626831e-01 3.582563623785972595e-02 -7.030485570430755615e-02 1.678750105202198029e-02 1.596399247646331787e-01 5.605198442935943604e-02 -8.727528620511293411e-04 -3.486438840627670288e-02 -1.920651048421859741e-01 -1.365026384592056274e-01 -1.251214593648910522e-01 -2.496936172246932983e-01 4.782054126262664795e-01 1.141841709613800049e-01 -6.552760303020477295e-02 6.852086633443832397e-02 3.806383535265922546e-02 6.311397254467010498e-02 -2.041728794574737549e-01 -1.937963068485260010e-02 2.706737630069255829e-02 1.910455338656902313e-02 -6.185534223914146423e-02 -2.267681360244750977e-01 -9.138843417167663574e-02 -2.368653118610382080e-01 -5.522341132164001465e-01 2.424133121967315674e-01 3.674977719783782959e-01 8.218150585889816284e-02 2.277881465852260590e-02 -2.531215315684676170e-03 1.972313225269317627e-01 1.005622968077659607e-01 -7.864930480718612671e-02 -2.845118194818496704e-02 6.693562865257263184e-01 -9.106239676475524902e-02 3.868319466710090637e-02 -4.503391385078430176e-01 8.486357927322387695e-01 1.040317639708518982e-01 8.947978913784027100e-02 -2.064506337046623230e-02 3.883394971489906311e-02 4.632507264614105225e-02 -3.437805548310279846e-02 -2.522049099206924438e-02 3.698033466935157776e-02
-1.258850935846567154e-02 1.997051239013671875e-01 -9.486602246761322021e-02 7.512931227684020996e-01 -1.361310780048370361e-01 -1.888279467821121216e-01 -3.604902327060699463e-02 2.007800042629241943e-01 -5.142303998582065105e-04 -7.984850555658340454e-02 -4.104324057698249817e-02 1.006522253155708313e-01 -1.470552384853363037e-02 5.584217235445976257e-02 4.851921275258064270e-02 6.811591237783432007e-02 -8.072416484355926514e-02 5.016513466835021973e-01 -2.220258861780166626e-01 -2.461338192224502563e-01 -1.465461552143096924e-01 -6.962855160236358643e-02 7.579099852591753006e-03 4.693474248051643372e-02 -1.055552437901496887e-01 -2.225808240473270416e-02 -1.174556184560060501e-02 4.251842573285102844e-02 3.423876315355300903e-02 4.201591312885284424e-01 -1.969053596258163452e-01 1.093748286366462708e-01 -1.181745678186416626e-01 8.337043523788452148e-01 -9.419170767068862915e-02 -1.311223357915878296e-01 -3.443591669201850891e-02 -3.668520599603652954e-02 -4.598736017942428589e-02 -1.119641214609146118e-01 2.602037228643894196e-02 -1.280543953180313110e-01 1.107605546712875366e-02 -8.415832519531250000e-01 -6.352076679468154907e-02 -1.617416590452194214e-01 -1.246866509318351746e-01 -1.360338032245635986e-01 -5.973553657531738281e-02 1.317396461963653564e-01 -3.203708305954933167e-02 -1.075753346085548401e-01 -1.039780974388122559e-01 1.209821105003356934e-01 -4.047730937600135803e-02 2.847006171941757202e-02 1.898647658526897430e-02 6.779279559850692749e-02 -1.200087070465087891e-01 -7.643836736679077148e-01 -1.607097126543521881e-02 4.538543820381164551e-01 -1.059383526444435120e-01 -3.432583808898925781e-01 -7.081534713506698608e-02 2.975023388862609863e-01 -1.690091565251350403e-02 -4.286827147006988525e-02 5.812444910407066345e-02 5.837675929069519043e-02 1.259009167551994324e-02 -8.623090982437133789e-01 -2.066039294004440308e-01 -6.573755145072937012e-01 -9.304871410131454468e-02 3.858122825622558594e-01 -1.762994825839996338e-01 -1.675398200750350952e-01 4.918530583381652832e-02 -1.362281590700149536e-01 -1.065256725996732712e-02 -1.658316105604171753e-01 4.541440308094024658e-02 -7.576509565114974976e-02 -4.125188663601875305e-02 -7.536990046501159668e-01 -1.939532458782196045e-01 -9.457697868347167969e-01 -1.022950559854507446e-01 -1.034177318215370178e-01 -6.125336885452270508e-02 -1.666000187397003174e-01 4.286583140492439270e-02 -2.087107598781585693e-01 2.179130166769027710e-02 1.484396904706954956e-01 -9.376627393066883087e-03 1.013169181533157825e-03 7.634829729795455933e-02 9.859458208084106445e-01 -2.143517136573791504e-01 -1.589533448219299316e+00 -1.535172164440155029e-01 7.879691720008850098e-01 -3.096263296902179718e-02 -4.914696216583251953e-01 -4.125235136598348618e-03 5.032642483711242676e-01 -9.042280167341232300e-02 -1.368714570999145508e-01 -4.429764300584793091e-02 -1.699293963611125946e-02 -1.075510904192924500e-01 -2.825834274291992188e+00 -1.515699923038482666e-01 1.129188060760498047e+00 -3.181564062833786011e-02 -1.465379714965820312e+00 -8.183415979146957397e-02 2.809275984764099121e-01 4.944462701678276062e-02 -4.088284671306610107e-01 -4.867981374263763428e-02 3.195729479193687439e-02 8.035828918218612671e-02 -3.895298019051551819e-02 -5.169020965695381165e-02 3.544898748397827148e+00 -2.156573683023452759e-01 1.602361559867858887e+00 -2.264541685581207275e-01 -3.150235414505004883e-01 -1.296688243746757507e-02 7.382807135581970215e-01 -3.540709242224693298e-02 1.353504061698913574e-01 -3.418227285146713257e-02 8.332414180040359497e-02 1.331882923841476440e-02 7.557272911071777344e-02
-9.525917470455169678e-02 -5.549895167350769043e-01 6.355143338441848755e-02 8.552563190460205078e-02 -3.035138826817274094e-03 1.824041157960891724e-01 -6.797040253877639771e-02 -2.885448634624481201e-01 -8.567994087934494019e-02 3.696773201227188110e-02 3.775233775377273560e-02 8.167238556779921055e-04 1.304712612181901932e-02 6.548312306404113770e-02 5.126994848251342773e-02 -1.208840236067771912e-01 3.992152959108352661e-02 -2.700654566287994385e-01 -8.806595951318740845e-02 -3.519454002380371094e-01 -7.136957347393035889e-02 3.977924883365631104e-01 6.120786070823669434e-02 -7.409745454788208008e-02 6.186346709728240967e-02 7.728037238121032715e-02 5.347489938139915466e-02 8.717893622815608978e-03 -2.362042479217052460e-02 3.959404826164245605e-01 -6.994814425706863403e-02 -1.569639444351196289e-01 -7.827479392290115356e-02 -1.463621407747268677e-01 1.113579608500003815e-02 -2.851051390171051025e-01 1.384555082768201828e-02 1.052806805819272995e-02 3.040503896772861481e-02 -3.619237244129180908e-02 2.108329907059669495e-02 7.297700271010398865e-03 -2.111076749861240387e-02 1.190581172704696655e-02 -2.506363019347190857e-02 4.909160733222961426e-02 2.646289207041263580e-02 2.292464673519134521e-01 -7.040729373693466187e-02 5.252035856246948242e-01 7.785328477621078491e-02 3.528743237257003784e-02 -2.801123633980751038e-02 -1.418117433786392212e-01 -5.424229800701141357e-02 -8.878914266824722290e-02 3.107724711298942566e-02 9.229924678802490234e-01 -3.934657946228981018e-02 -2.626798152923583984e-01 -3.019646555185317993e-02 4.831428527832031250e-01 -9.520681574940681458e-03 -7.126525640487670898e-01 -3.034586734429467469e-05 1.240102760493755341e-02 3.278452530503273010e-02 2.222965359687805176e-01 3.610696643590927124e-02 9.849400818347930908e-02 -4.988112673163414001e-02 4.467608034610748291e-01 1.547236461192369461e-02 -3.949341475963592529e-01 4.958708584308624268e-02 1.015693664550781250e+00 3.697483614087104797e-02 3.506488502025604248e-01 -6.494484841823577881e-02 -1.811466738581657410e-02 -7.927342317998409271e-03 2.011565258726477623e-03 -3.107842803001403809e-02 -5.288958176970481873e-02 5.255707725882530212e-02 7.550641894340515137e-01 -7.586625963449478149e-02 3.749679327011108398e-01 1.117322146892547607e-01 1.233370542526245117e+00 -3.737754747271537781e-02 -5.694648027420043945e-01 -5.580862611532211304e-02 9.342026710510253906e-02 -3.329633921384811401e-02 -8.331879228353500366e-02 -1.087312679737806320e-02 -1.176814883947372437e-01 -7.109677791595458984e-02 4.138582199811935425e-02 -3.853815048933029175e-02 -4.410579800605773926e-02 1.129286810755729675e-01 -8.302993178367614746e-01 6.509990245103836060e-02 -9.043901413679122925e-02 -2.188345231115818024e-02 -3.415435552597045898e-01 -6.854098290205001831e-03 8.815359324216842651e-02 2.777290716767311096e-02 -9.238497912883758545e-02 4.580897837877273560e-02 -3.847929537296295166e-01 -1.536644995212554932e-02 1.150878548622131348e+00 5.182950943708419800e-02 1.363729238510131836e-01 6.250189989805221558e-02 1.190935611724853516e+00 4.818020015954971313e-02 2.253590896725654602e-02 6.155757978558540344e-02 2.245492069050669670e-03 -3.429087111726403236e-03 1.226589828729629517e-01 -6.141700223088264465e-02 -2.235694408416748047e+00 1.287335716187953949e-02 -3.203439414501190186e-01 -6.951749324798583984e-02 -1.436079978942871094e+00 -8.776714652776718140e-02 -6.808816194534301758e-01 2.149617485702037811e-02 2.139621973037719727e-01 1.300433464348316193e-02 -1.143809333443641663e-01 -2.335063181817531586e-03 5.033080279827117920e-02
1.171465404331684113e-02 -1.137678977102041245e-02 1.440390348434448242e-01 1.009618639945983887e+00 -5.993258357048034668e-01 3.467113077640533447e-01 1.303031146526336670e-01 6.737643480300903320e-01 -7.498239167034626007e-03 2.883534878492355347e-02 6.247161328792572021e-02 2.789471112191677094e-02 1.055280193686485291e-01 1.864028535783290863e-02 3.328782320022583008e-02 2.507372498512268066e-01 1.018125340342521667e-01 -1.390591710805892944e-01 -7.273551225662231445e-01 -2.662369012832641602e-01 2.746621370315551758e-01 -2.725828588008880615e-01 4.839343577623367310e-02 5.599974095821380615e-02 2.828598208725452423e-02 1.079342663288116455e-01 9.551431052386760712e-03 -2.055307105183601379e-02 -3.136936575174331665e-02 6.054235994815826416e-02 3.757175803184509277e-02 -2.970018684864044189e-01 -6.943023204803466797e-01 2.650941312313079834e-01 2.500477731227874756e-01 -2.354013174772262573e-02 9.711689502000808716e-02 -1.202615275979042053e-01 1.008154675364494324e-01 -2.871153354644775391e-01 -2.763697318732738495e-02 -6.269264966249465942e-02 -4.361178353428840637e-02 -1.870370656251907349e-01 1.359788477420806885e-01 -3.795230388641357422e-02 -7.361448407173156738e-01 -1.206708475947380066e-01 2.237733900547027588e-01 -8.300945758819580078e-01 -4.245944321155548096e-02 1.564019471406936646e-01 1.031409576535224915e-01 1.156754046678543091e-01 -3.490322455763816833e-02 4.560906812548637390e-02 -7.551258802413940430e-02 1.521181017160415649e-01 1.259604543447494507e-01 -1.083595275878906250e+00 -7.529414296150207520e-01 -2.931281328201293945e-01 2.679495513439178467e-01 -5.441367626190185547e-01 -3.731890022754669189e-02 -1.775443404912948608e-01 -9.039802476763725281e-03 -7.435321807861328125e-02 7.483208924531936646e-02 -1.200409699231386185e-02 -3.982111066579818726e-02 -1.606320589780807495e-01 -2.729260362684726715e-03 -4.762264341115951538e-02 -6.813671588897705078e-01 4.309678077697753906e-01 2.298050522804260254e-01 -8.541693091392517090e-01 9.549413621425628662e-02 -7.509201020002365112e-02 5.280449613928794861e-02 1.402381211519241333e-01 1.454319618642330170e-02 4.254317656159400940e-02 -6.979537010192871094e-02 6.025649607181549072e-02 6.029952317476272583e-02 -8.958055973052978516e-01 -7.212809324264526367e-01 -5.139440894126892090e-01 2.594044506549835205e-01 -7.181552648544311523e-01 3.941004350781440735e-02 8.172433823347091675e-02 1.194707006216049194e-01 2.921940722444560379e-05 -1.859920285642147064e-02 -4.468003287911415100e-02 7.600440829992294312e-02 -3.744869828224182129e-01 -8.929910138249397278e-03 -1.252245903015136719e-02 -7.305128574371337891e-01 5.578813552856445312e-01 2.143586874008178711e-01 1.084189295768737793e+00 -2.610988356173038483e-02 -2.542814016342163086e-01 6.785596162080764771e-02 -1.973437517881393433e-01 -2.950058318674564362e-02 -4.359857644885778427e-03 2.275680750608444214e-02 -3.399167358875274658e-01 9.054545313119888306e-03 8.437398672103881836e-01 -7.379606962203979492e-01 -4.123315513134002686e-01 1.693652421236038208e-01 -8.147629499435424805e-01 -9.822079911828041077e-03 2.127790302038192749e-01 1.983971148729324341e-02 9.908672422170639038e-02 -3.884134069085121155e-02 6.711686402559280396e-02 6.022643297910690308e-02 5.381604433059692383e-01 1.607897877693176270e-02 5.873847603797912598e-01 -6.447485089302062988e-01 -4.060619324445724487e-02 1.163929700851440430e-01 2.335622787475585938e+00 7.473269850015640259e-02 1.105116307735443115e-01 -4.493899643421173096e-02 6.729788333177566528e-02 -6.248597800731658936e-02 -2.723525650799274445e-02
-3.866964951157569885e-02 -3.485757112503051758e-02 6.235296726226806641e-01 -1.777806282043457031e-01 -2.431208044290542603e-01 2.650789022445678711e-01 -3.294886052608489990e-01 8.029496669769287109e-02 2.753888256847858429e-02 1.835008338093757629e-02 1.325963735580444336e-01 -2.982576750218868256e-02 -3.562514483928680420e-02 3.765463829040527344e-02 -5.035422369837760925e-02 1.363749206066131592e-01 7.334380745887756348e-01 -2.461489588022232056e-01 -3.019161522388458252e-01 -3.039115965366363525e-01 -3.185813426971435547e-01 -7.878579199314117432e-02 2.945092879235744476e-02 -5.296951159834861755e-02 9.594329446554183960e-02 2.983300574123859406e-02 3.278028964996337891e-02 -6.652424484491348267e-02 -5.315565969794988632e-03 4.724640026688575745e-02 6.680149435997009277e-01 4.733119606971740723e-01 -2.062574326992034912e-01 1.366986185312271118e-01 -4.150148034095764160e-01 8.733768761157989502e-02 -3.735970705747604370e-02 4.910023510456085205e-02 1.507839560508728027e-01 5.660188198089599609e-02 3.318878263235092163e-02 -1.358194202184677124e-01 1.133360993117094040e-02 -4.863388836383819580e-01 7.361387610435485840e-01 -2.136931568384170532e-01 -2.456983625888824463e-01 -4.451110661029815674e-01 -3.042912483215332031e-01 6.310716271400451660e-02 -3.116087056696414948e-02 -1.470600347965955734e-02 4.666447266936302185e-02 -1.980551779270172119e-01 5.620561912655830383e-02 1.458715498447418213e-01 4.642260447144508362e-02 9.340091049671173096e-02 7.369021177291870117e-01 -6.416159868240356445e-02 -1.757488995790481567e-01 1.195705384016036987e-01 -2.793473601341247559e-01 -5.189338698983192444e-03 7.139633875340223312e-03 -9.052689373493194580e-02 7.984006404876708984e-02 2.226053327322006226e-01 -7.344442605972290039e-02 -1.480280235409736633e-02 6.986141204833984375e-02 -3.492681086063385010e-01 7.347073554992675781e-01 9.084010124206542969e-01 -2.940092980861663818e-01 2.423736900091171265e-01 -3.126533627510070801e-01 -1.200734004378318787e-01 7.635944988578557968e-03 4.695109277963638306e-02 3.660723194479942322e-02 -1.160020083189010620e-01 -7.621560990810394287e-02 -6.243572756648063660e-02 6.233479455113410950e-02 5.269554853439331055e-01 6.435331106185913086e-01 -1.167042851448059082e+00 -1.792272478342056274e-01 -3.414762616157531738e-01 -3.980708420276641846e-01 2.279610931873321533e-01 1.992384716868400574e-02 4.781735688447952271e-02 1.019843667745590210e-01 -4.960621520876884460e-02 -2.820999175310134888e-02 1.653286516666412354e-01 -2.511453069746494293e-02 -3.868441581726074219e-01 7.044299840927124023e-01 1.714549779891967773e+00 -1.653819829225540161e-01 6.002132296562194824e-01 -2.518899738788604736e-01 -8.750490546226501465e-01 3.369158133864402771e-03 -6.883294135332107544e-02 1.526418421417474747e-02 2.394783943891525269e-01 -7.013847678899765015e-02 -1.481464207172393799e-01 -9.742113761603832245e-03 1.508713066577911377e-01 6.479475498199462891e-01 -7.611231803894042969e-01 -2.758421301841735840e-01 -2.569896280765533447e-01 -3.950451910495758057e-01 1.668721437454223633e-01 -8.497347682714462280e-02 5.025497078895568848e-02 8.426663279533386230e-02 -1.888155341148376465e-01 -2.732423320412635803e-02 1.354175657033920288e-01 2.089237235486507416e-02 3.084850609302520752e-01 6.135036945343017578e-01 -4.480648040771484375e-01 -2.414882928133010864e-01 -4.090812057256698608e-02 -3.379057943820953369e-01 3.925063908100128174e-01 -1.168559771031141281e-02 2.236086688935756683e-02 1.106190085411071777e-01 5.287614092230796814e-02 4.689589887857437134e-02 -4.779497534036636353e-02
-1.121591627597808838e-01 -7.168648242950439453e-01 9.570588916540145874e-02 -1.429843544960021973e+00 -1.389762312173843384e-01 -7.537719011306762695e-01 1.172276660799980164e-01 5.981936678290367126e-02 3.007650934159755707e-02 -1.200625821948051453e-01 5.936679616570472717e-02 -5.469935759902000427e-02 3.341053426265716553e-02 1.015257649123668671e-02 7.089852821081876755e-03 -2.845263481140136719e-01 -4.719524644315242767e-03 -7.134233713150024414e-01 -1.853984296321868896e-01 -7.035476714372634888e-02 8.454122394323348999e-02 2.787129282951354980e-01 -1.186516974121332169e-02 1.576929539442062378e-01 7.121296226978302002e-02 -1.221387386322021484e-01 -8.104007691144943237e-03 -1.627676188945770264e-02 -1.061056391336023808e-03 -2.658020555973052979e-01 -2.274584956467151642e-02 5.610108375549316406e-01 -1.274341046810150146e-01 -3.154993951320648193e-01 2.049385197460651398e-02 -2.624035626649856567e-02 -6.826787441968917847e-02 -1.739072650671005249e-01 3.917019069194793701e-02 1.920108050107955933e-01 -5.450178682804107666e-02 8.445989340543746948e-02 -4.165749624371528625e-02 8.147175908088684082e-01 9.188713878393173218e-02 7.379367351531982422e-01 -2.434369623661041260e-01 5.947832465171813965e-01 -2.452399954199790955e-02 -5.229235887527465820e-01 -3.141136374324560165e-03 1.473179161548614502e-01 -1.604006811976432800e-02 -1.683408170938491821e-01 -3.961740061640739441e-02 -1.306132972240447998e-01 7.840533554553985596e-02 3.574259281158447266e-01 1.527898609638214111e-01 1.014376997947692871e+00 -1.144327223300933838e-01 7.471781373023986816e-01 6.664638221263885498e-02 1.399626731872558594e-01 -6.402442604303359985e-02 -1.183651462197303772e-01 -5.036942660808563232e-02 1.695665568113327026e-01 -8.551391959190368652e-02 -1.204997301101684570e-02 -1.786293275654315948e-02 8.623872995376586914e-01 1.484884917736053467e-01 1.198273181915283203e+00 -1.703780591487884521e-01 3.345548212528228760e-01 3.128077834844589233e-02 -5.158071517944335938e-01 4.860407114028930664e-02 7.179445773363113403e-02 6.426797807216644287e-02 -5.707069486379623413e-02 6.284957379102706909e-02 9.732642024755477905e-02 8.744635432958602905e-02 9.154140949249267578e-01 1.261657029390335083e-01 1.397611856460571289e+00 -7.498427480459213257e-02 8.162547945976257324e-01 8.288679271936416626e-02 1.358056515455245972e-01 3.751070052385330200e-02 1.142853870987892151e-01 6.697513163089752197e-02 9.638485312461853027e-02 -8.598920702934265137e-02 -4.096287116408348083e-02 -4.294010624289512634e-02 -1.233574450016021729e-01 1.868772506713867188e-01 -4.342162609100341797e-01 -8.438233286142349243e-02 2.392508089542388916e-01 1.080035567283630371e-01 3.274507820606231689e-01 1.133928168565034866e-02 -1.170041188597679138e-01 1.254851929843425751e-02 2.080104649066925049e-01 1.479087956249713898e-02 9.842293709516525269e-02 3.307428956031799316e-02 4.619334638118743896e-01 1.901585012674331665e-01 3.543656766414642334e-01 -6.949625164270401001e-02 -6.555212736129760742e-01 1.038932278752326965e-01 -1.927092373371124268e-01 -3.517800197005271912e-02 1.576670557260513306e-01 -2.504711784422397614e-02 -3.174436688423156738e-01 7.191351801156997681e-02 -4.540900513529777527e-02 -7.210675626993179321e-02 -2.340302705764770508e+00 4.377108439803123474e-02 -2.386287689208984375e+00 -2.232582867145538330e-01 -1.326892614364624023e+00 3.465797752141952515e-02 4.078544974327087402e-01 -2.572579309344291687e-02 -1.296878606081008911e-01 7.148291915655136108e-02 5.612437427043914795e-02 -1.855427213013172150e-02 -2.128440514206886292e-02
5.763481557369232178e-02 -7.925401926040649414e-01 -1.722696125507354736e-01 1.033535361289978027e+00 5.095161963254213333e-03 9.439476728439331055e-01 9.646175801753997803e-02 -1.672464460134506226e-01 6.987910717725753784e-02 2.132653146982192993e-01 6.002055853605270386e-02 -2.127021551132202148e-02 -6.994365900754928589e-02 4.048925265669822693e-02 -5.109044909477233887e-02 -4.243831336498260498e-01 -1.861227750778198242e-01 9.854423403739929199e-01 1.137640886008739471e-02 1.790494769811630249e-01 5.196577310562133789e-02 1.970231384038925171e-01 6.591525673866271973e-02 -1.695306599140167236e-01 -3.961475193500518799e-02 -1.094734743237495422e-01 2.761038765311241150e-02 -8.039709180593490601e-02 1.919082179665565491e-02 4.397381246089935303e-01 -1.771324574947357178e-01 1.384306401014328003e-01 -8.739583939313888550e-02 5.943732857704162598e-01 -3.152190940454602242e-03 2.404343783855438232e-01 -9.674652665853500366e-02 -2.899975329637527466e-02 -1.103613525629043579e-02 2.156651206314563751e-02 -2.487606368958950043e-02 1.463804990053176880e-01 1.587962731719017029e-02 9.597665667533874512e-01 -1.394090652465820312e-01 -1.237115621566772461e+00 5.272986367344856262e-03 -7.045345902442932129e-01 8.324711024761199951e-02 6.391280889511108398e-02 3.389986976981163025e-02 9.426686912775039673e-02 4.480939824134111404e-03 2.961576543748378754e-02 1.221471466124057770e-02 -1.458801180124282837e-01 -6.608293950557708740e-02 7.087171077728271484e-01 -1.112152338027954102e-01 -1.512550234794616699e+00 -3.897476568818092346e-02 -1.696555256843566895e+00 -5.026466213166713715e-03 -1.919645071029663086e-01 3.599168267101049423e-03 -3.996047750115394592e-02 3.867256268858909607e-02 2.496648281812667847e-01 2.375158108770847321e-02 2.629305049777030945e-02 -4.654828459024429321e-03 1.536042213439941406e+00 -1.013400256633758545e-01 -1.773127794265747070e+00 -1.677457988262176514e-02 -1.272170066833496094e+00 5.334971100091934204e-02 9.679926186800003052e-02 3.083216585218906403e-02 -1.597983539104461670e-01 3.147822571918368340e-03 2.249224344268441200e-03 -3.487611562013626099e-02 1.481744647026062012e-01 2.416275627911090851e-02 3.767703175544738770e-01 -1.160532608628273010e-01 -9.738147854804992676e-01 -6.376359611749649048e-02 -9.293246865272521973e-01 8.040723949670791626e-02 7.939606904983520508e-02 2.279262989759445190e-02 1.182105392217636108e-01 9.547720104455947876e-02 7.859006524085998535e-02 -4.300354421138763428e-02 -1.463017910718917847e-01 -2.538484288379549980e-03 -4.892921149730682373e-01 -2.807745039463043213e-01 -5.580136775970458984e-01 -2.000478096306324005e-02 4.276430606842041016e-01 1.168200746178627014e-01 1.203995198011398315e-01 -6.943087279796600342e-02 -7.069876790046691895e-02 -4.567942395806312561e-02 -1.593334674835205078e-01 9.313208982348442078e-03 -1.033583730459213257e-01 7.762591540813446045e-02 -2.683861851692199707e-01 -2.116307318210601807e-01 -8.589634299278259277e-01 -2.983042038977146149e-02 -2.902409760281443596e-03 3.485949337482452393e-02 -9.581344574689865112e-02 3.267253935337066650e-02 1.256959736347198486e-01 4.339671880006790161e-02 -3.357229530811309814e-01 4.459413513541221619e-02 3.099662624299526215e-02 -2.443219721317291260e-02 -1.897045969963073730e+00 -2.582125365734100342e-01 4.946103572845458984e+00 -4.884323850274085999e-02 2.595453500747680664e+00 1.160133481025695801e-01 -4.489600658416748047e-01 -1.307540386915206909e-02 -8.946330845355987549e-02 9.463353455066680908e-02 2.502718269824981689e-01 9.641199558973312378e-02 7.765403389930725098e-02
9.915397316217422485e-02 8.498570919036865234e-01 2.950629591941833496e-01 -1.159169077873229980e+00 5.879414677619934082e-01 1.049761474132537842e-01 5.334637761116027832e-01 -4.234859943389892578e-01 4.385866597294807434e-02 -1.303442846983671188e-02 -9.604216902516782284e-04 1.137923002243041992e-01 -5.840573832392692566e-02 3.016730397939682007e-02 -4.712431505322456360e-02 2.427808791399002075e-01 1.924484372138977051e-01 -1.228195205330848694e-01 5.129383802413940430e-01 1.729937344789505005e-01 4.484272003173828125e-01 -2.777588367462158203e-01 -4.919447004795074463e-02 -1.480149477720260620e-01 -8.742319419980049133e-03 -6.632246822118759155e-02 4.675964266061782837e-02 -5.750178545713424683e-02 6.870274245738983154e-02 -1.678971350193023682e-01 1.989497840404510498e-01 4.036084711551666260e-01 5.473158359527587891e-01 -2.290388196706771851e-01 4.688230156898498535e-01 3.551898002624511719e-01 -7.946583442389965057e-03 -1.877083070576190948e-02 6.590093672275543213e-02 -1.693946719169616699e-01 -4.261495172977447510e-02 -3.389912471175193787e-02 -6.291743367910385132e-02 -6.690437793731689453e-01 1.412983834743499756e-01 1.103867292404174805e+00 4.577874839305877686e-01 -2.371037900447845459e-01 5.740578770637512207e-01 6.499572396278381348e-01 4.937786236405372620e-02 9.403263218700885773e-03 5.954398587346076965e-02 -1.095727607607841492e-01 -7.696256786584854126e-02 -8.009271323680877686e-02 2.798854187130928040e-02 -9.649475812911987305e-01 2.578158080577850342e-01 7.030053138732910156e-01 5.674851536750793457e-01 3.963408470153808594e-01 5.581169128417968750e-01 4.146845936775207520e-01 4.758392274379730225e-02 1.605568230152130127e-01 2.689862856641411781e-03 6.708238273859024048e-02 -5.668770894408226013e-02 4.675837978720664978e-02 -1.876461692154407501e-02 -8.052704930305480957e-01 2.807434201240539551e-01 1.235437631607055664e+00 5.575410723686218262e-01 -4.758999049663543701e-01 4.586313366889953613e-01 8.856161832809448242e-01 -1.275338325649499893e-02 8.487643301486968994e-02 3.128582984209060669e-02 2.092813402414321899e-01 4.903164226561784744e-03 1.086385082453489304e-02 7.475673686712980270e-03 -8.486056923866271973e-01 2.020012587308883667e-01 3.409061431884765625e-01 4.871039688587188721e-01 5.162802338600158691e-01 5.978147983551025391e-01 4.789392054080963135e-01 7.196021080017089844e-02 4.944755136966705322e-02 -8.478685631416738033e-04 2.024493366479873657e-02 5.780469998717308044e-02 -4.905351251363754272e-02 -7.581765204668045044e-02 5.960901826620101929e-02 2.391596138477325439e-01 -4.611263871192932129e-01 4.398941695690155029e-01 -4.463556706905364990e-01 4.629832506179809570e-01 -8.336731791496276855e-01 -9.830972179770469666e-03 -2.174380719661712646e-01 1.300931163132190704e-02 -8.002563565969467163e-02 -6.884826719760894775e-02 2.127776481211185455e-02 -8.479760587215423584e-02 2.381541877985000610e-01 2.243601828813552856e-01 7.963077425956726074e-01 5.789223909378051758e-01 -3.033209741115570068e-01 4.812857806682586670e-01 6.796573400497436523e-01 -9.875307790935039520e-03 8.532965183258056641e-02 -2.938911505043506622e-02 1.145974826067686081e-02 5.950512364506721497e-02 1.233135685324668884e-01 7.090730965137481689e-02 2.009499788284301758e+00 2.232347875833511353e-01 -2.828275918960571289e+00 5.770583748817443848e-01 5.525610446929931641e-01 5.990877151489257812e-01 -1.858037710189819336e+00 3.690243512392044067e-02 -1.900793612003326416e-02 5.109023675322532654e-02 -1.473030727356672287e-02 -1.576357893645763397e-02 -5.754317343235015869e-02
-1.148592904210090637e-01 -3.911915719509124756e-01 -5.083274245262145996e-01 -7.952813804149627686e-02 5.344294309616088867e-01 -3.485438525676727295e-01 -4.292001947760581970e-02 -2.031270712614059448e-01 -4.277218505740165710e-02 -5.135186016559600830e-02 4.227591678500175476e-02 -7.307402789592742920e-02 -3.792699426412582397e-02 3.593229129910469055e-02 -7.008197903633117676e-02 3.332167491316795349e-02 -5.097853541374206543e-01 -1.055303364992141724e-01 5.761206746101379395e-01 -5.770437046885490417e-02 -1.516235172748565674e-01 4.599971324205398560e-02 -4.307894408702850342e-02 -4.332759417593479156e-03 -3.378184512257575989e-02 -6.949440389871597290e-02 -6.503133475780487061e-02 -1.192808970808982849e-01 -4.399815574288368225e-02 -3.399136960506439209e-01 -5.516185164451599121e-01 1.644528806209564209e-01 5.783073306083679199e-01 -9.188955277204513550e-02 -3.018596023321151733e-02 1.104148551821708679e-01 6.084836274385452271e-02 -3.643856942653656006e-02 -4.253599420189857483e-02 1.552491188049316406e-01 -8.595842868089675903e-03 9.371195733547210693e-02 -3.265552967786788940e-02 2.548467814922332764e-01 -5.192046165466308594e-01 -1.802812516689300537e-01 5.980452895164489746e-01 -6.632310897111892700e-02 -6.807887693867087364e-04 1.703432202339172363e-01 9.237321093678474426e-03 8.691383898258209229e-02 -1.638948358595371246e-02 -1.179899945855140686e-01 5.682253092527389526e-02 -6.672148406505584717e-02 1.153861433267593384e-01 2.423386424779891968e-01 -5.566434264183044434e-01 -2.427271008491516113e-01 6.610448956489562988e-01 5.038056373596191406e-01 -1.446394324302673340e-01 -5.586017295718193054e-02 5.028320848941802979e-02 1.177035272121429443e-02 -2.628551796078681946e-02 1.934513896703720093e-01 7.749875634908676147e-02 4.367618635296821594e-02 3.438458964228630066e-02 -1.123852953314781189e-01 -4.972160160541534424e-01 4.019832611083984375e-01 6.562690734863281250e-01 2.862508893013000488e-01 -2.658103965222835541e-02 -1.507543921470642090e-01 4.601751267910003662e-02 3.637549281120300293e-02 1.048710942268371582e-01 -9.437512606382369995e-02 -1.249422691762447357e-02 6.776522845029830933e-02 1.034181043505668640e-01 6.760694384574890137e-01 -6.171507239341735840e-01 -4.286846220493316650e-01 7.106688618659973145e-01 2.458564564585685730e-02 -9.414397925138473511e-02 -1.205988228321075439e-01 -7.617451250553131104e-02 2.104622684419155121e-02 -6.427136249840259552e-03 -1.767356134951114655e-02 3.392124921083450317e-02 -6.131046637892723083e-02 -1.254204288125038147e-02 6.352821364998817444e-03 -5.275453329086303711e-01 1.311532616615295410e+00 6.519982218742370605e-01 4.407179057598114014e-01 -3.920387476682662964e-02 2.723962664604187012e-01 2.227161079645156860e-02 -6.874187290668487549e-02 -1.577185839414596558e-02 3.807696700096130371e-01 3.471265733242034912e-02 -2.117534913122653961e-02 9.386493265628814697e-02 5.900704860687255859e-02 -5.980144143104553223e-01 -8.326270580291748047e-01 6.503624320030212402e-01 -8.637526035308837891e-01 -3.695046529173851013e-02 5.223748087882995605e-01 4.702560976147651672e-02 1.597540229558944702e-01 -3.375422209501266479e-02 -3.182162046432495117e-01 -6.750831007957458496e-02 -2.473034709692001343e-02 -6.070444732904434204e-02 -4.451855719089508057e-01 -5.825703144073486328e-01 -4.718903079628944397e-02 5.590221881866455078e-01 2.291403710842132568e-01 -1.216847673058509827e-01 -6.182726621627807617e-01 -6.543393433094024658e-02 -1.526215821504592896e-01 9.071643650531768799e-02 -4.530333355069160461e-02 -6.237158551812171936e-02 2.893610112369060516e-02
6.569423526525497437e-02 8.009325712919235229e-02 4.177456796169281006e-01 9.987791627645492554e-02 -2.870907075703144073e-02 -1.957411468029022217e-01 5.193232893943786621e-01 3.194089233875274658e-01 -3.663373738527297974e-02 -3.629104420542716980e-02 8.293317258358001709e-02 4.106504097580909729e-02 -1.753591373562812805e-02 -8.099814876914024353e-03 3.743948414921760559e-02 5.200912803411483765e-02 4.665243327617645264e-01 -4.199060052633285522e-02 -4.493930190801620483e-02 1.127116307616233826e-01 5.258323550224304199e-01 -3.221263289451599121e-01 7.666426897048950195e-02 5.766271054744720459e-02 -5.168990045785903931e-02 -1.500036660581827164e-02 8.542168140411376953e-02 2.122259698808193207e-02 -5.625528097152709961e-02 -1.063219979405403137e-01 4.879343509674072266e-01 -1.305164992809295654e-01 -5.115687847137451172e-02 -6.964830309152603149e-02 5.375784039497375488e-01 1.673302054405212402e-01 2.461966592818498611e-03 -4.278885945677757263e-02 1.676705852150917053e-02 -5.770469084382057190e-02 -6.141765415668487549e-02 2.397321164608001709e-03 2.149455994367599487e-02 3.585547674447298050e-03 5.147607326507568359e-01 4.456451535224914551e-01 6.893153488636016846e-02 -3.051175177097320557e-02 4.966797828674316406e-01 -2.469673752784729004e-01 -2.621981687843799591e-02 -7.050083577632904053e-02 7.661579549312591553e-02 -1.624318584799766541e-02 1.726686954498291016e-02 -2.732934989035129547e-02 5.078699067234992981e-02 -2.364353090524673462e-01 5.596804022789001465e-01 -2.788301110267639160e-01 8.225234225392341614e-03 2.319504320621490479e-01 4.481215775012969971e-01 -4.909491166472434998e-02 -6.590668577700853348e-03 6.499923020601272583e-02 3.681562095880508423e-02 2.491613849997520447e-03 -1.795450784265995026e-02 7.795779034495353699e-03 -3.797521442174911499e-02 -3.712392747402191162e-01 4.949241578578948975e-01 7.001513242721557617e-01 8.390613645315170288e-02 -2.095298320055007935e-01 5.422611236572265625e-01 -2.171947360038757324e-01 4.508420452475547791e-02 -2.921714214608073235e-03 9.191708266735076904e-02 -3.234354779124259949e-02 8.420778810977935791e-02 -2.674921043217182159e-02 4.263681918382644653e-02 2.177333682775497437e-01 5.419858694076538086e-01 -5.161032080650329590e-01 6.689434498548507690e-02 1.451552361249923706e-01 4.299409091472625732e-01 5.613753199577331543e-02 1.903078332543373108e-02 -6.717826426029205322e-02 -1.107818447053432465e-02 6.021693721413612366e-02 -8.129587769508361816e-02 7.055105268955230713e-02 3.508291393518447876e-02 3.104035370051860809e-02 4.589659571647644043e-01 -1.781634390354156494e-01 3.532911837100982666e-02 2.938242852687835693e-01 4.546100199222564697e-01 1.143035963177680969e-01 -1.059274096041917801e-02 8.796532452106475830e-02 -3.787086158990859985e-02 -1.634789109230041504e-01 2.730623632669448853e-02 -8.414373546838760376e-02 -8.370286971330642700e-02 -6.796479225158691406e-02 4.476581215858459473e-01 3.229615092277526855e-01 -1.020876225084066391e-02 -6.549305915832519531e-01 4.281348884105682373e-01 -1.953787058591842651e-01 1.866539008915424347e-02 -1.051328629255294800e-01 8.390562236309051514e-02 1.568971425294876099e-01 4.187419638037681580e-02 4.866576567292213440e-02 -5.160300806164741516e-02 3.876268863677978516e-01 3.965108394622802734e-01 -3.878991901874542236e-01 2.331609139218926430e-03 3.660492002964019775e-01 4.222167432308197021e-01 4.315574467182159424e-01 -2.361676190048456192e-03 1.071787327527999878e-01 -5.246572941541671753e-02 1.730555482208728790e-02 -5.436047911643981934e-02 -1.675251685082912445e-02
1.281479280441999435e-02 2.309979647397994995e-01 2.937766313552856445e-01 -4.718769788742065430e-01 -2.217142097651958466e-02 1.008680090308189392e-01 -2.116808891296386719e-01 -1.098484471440315247e-01 -6.175863370299339294e-02 1.036665663123130798e-01 -3.921728581190109253e-02 2.120228111743927002e-01 8.580157905817031860e-02 1.525123417377471924e-01 -3.926042467355728149e-02 1.579913794994354248e-01 2.319218516349792480e-01 -2.442852705717086792e-01 -6.354004144668579102e-02 -3.703137859702110291e-02 -2.389772087335586548e-01 -1.257159709930419922e-01 -5.833177268505096436e-02 -3.180905804038047791e-02 5.568923056125640869e-02 -9.336125850677490234e-02 1.006631851196289062e-01 -2.090350352227687836e-02 -5.786357074975967407e-02 -1.427611261606216431e-01 2.669335007667541504e-01 1.324136257171630859e-01 -1.615225970745086670e-01 2.045941166579723358e-02 -9.901078790426254272e-02 1.655374914407730103e-01 -6.006329506635665894e-02 -1.727761328220367432e-01 -8.991410583257675171e-02 -2.174633592367172241e-01 5.819914489984512329e-02 -1.095854640007019043e-01 2.175286598503589630e-02 -8.950672745704650879e-01 2.024249285459518433e-01 -1.821715235710144043e-01 -1.645678281784057617e-01 -5.138196796178817749e-02 -2.326411306858062744e-01 1.612309813499450684e-01 -1.610600273124873638e-03 1.028770580887794495e-01 5.055670812726020813e-02 -5.972496420145034790e-02 -1.154881156980991364e-02 1.077499091625213623e-01 -5.760500580072402954e-02 -3.861997723579406738e-01 3.257153928279876709e-01 2.272320687770843506e-01 -1.685441583395004272e-01 1.358237564563751221e-01 -8.551611006259918213e-02 -1.085124537348747253e-01 3.172598779201507568e-02 -6.120650470256805420e-02 -7.140812277793884277e-02 9.488498419523239136e-02 1.272291541099548340e-01 9.277156554162502289e-03 -8.089725673198699951e-02 -5.281811952590942383e-01 3.352570235729217529e-01 1.860419809818267822e-01 -1.602645814418792725e-01 2.375231236219406128e-01 -1.066701635718345642e-01 -7.610385119915008545e-02 -7.190562784671783447e-02 -2.005222439765930176e-01 -1.993846707046031952e-02 2.743453159928321838e-02 -2.033573016524314880e-02 -4.937484115362167358e-02 3.857809118926525116e-03 -1.423881649971008301e-01 2.238052338361740112e-01 -1.801630109548568726e-01 -1.971729844808578491e-01 4.067605137825012207e-01 -1.200454756617546082e-01 -2.745733559131622314e-01 8.962059020996093750e-02 8.225437253713607788e-02 3.740698844194412231e-02 1.255859881639480591e-01 1.166223436594009399e-01 -1.163736544549465179e-02 -1.258024722337722778e-01 5.351288914680480957e-01 2.139508873224258423e-01 9.002117514610290527e-01 -1.104853302240371704e-01 1.361777931451797485e-01 -1.402253806591033936e-01 -2.173510044813156128e-01 -5.044766515493392944e-02 -3.824715036898851395e-03 -2.469434216618537903e-02 -3.041732013225555420e-01 1.104102507233619690e-01 3.638007910922169685e-03 -3.985483272117562592e-05 6.019796133041381836e-01 3.291547298431396484e-01 -1.884011864662170410e+00 -9.367314726114273071e-02 -1.373949497938156128e-01 -1.573045700788497925e-01 1.227388739585876465e+00 -7.206568866968154907e-02 5.999211594462394714e-02 -7.834177464246749878e-03 3.684529364109039307e-01 -1.537480764091014862e-02 -2.490015625953674316e-01 1.184709444642066956e-01 5.615350604057312012e-01 3.554604947566986084e-01 1.483666062355041504e+00 -4.903280362486839294e-02 -7.966119050979614258e-01 -8.786223828792572021e-02 -6.408454775810241699e-01 9.356994926929473877e-02 1.012548208236694336e-01 2.741252817213535309e-02 -1.076632067561149597e-01 7.515616714954376221e-02 1.762800216674804688e-01
-7.569014281034469604e-02 -1.308459043502807617e-01 2.694209814071655273e-01 5.974089354276657104e-02 -2.311425358057022095e-01 -1.083768978714942932e-01 1.077473610639572144e-01 -1.402424126863479614e-01 -2.883244752883911133e-01 6.728805601596832275e-03 -8.722094446420669556e-02 -9.238142520189285278e-02 3.812875598669052124e-02 2.700724638998508453e-02 -5.310916528105735779e-02 9.908377379179000854e-02 3.526284694671630859e-01 -3.619100153446197510e-01 -1.937642693519592285e-01 1.373060420155525208e-02 4.535060003399848938e-02 2.407173067331314087e-02 -1.893192082643508911e-01 -1.494593769311904907e-01 -2.226855903863906860e-01 8.013232052326202393e-02 -4.076237604022026062e-02 -2.880227752029895782e-02 3.218055143952369690e-02 -3.068689405918121338e-01 3.578199744224548340e-01 -1.007908396422863007e-02 -2.223851382732391357e-01 2.918159663677215576e-01 3.261911869049072266e-02 3.680963069200515747e-02 -2.211242169141769409e-01 2.311747968196868896e-01 -2.099947780370712280e-01 8.909420669078826904e-02 -1.231988053768873215e-02 8.163014426827430725e-03 3.808415681123733521e-02 3.040194213390350342e-01 2.768134474754333496e-01 3.458300530910491943e-01 -2.599189579486846924e-01 -6.309428215026855469e-01 5.865096114575862885e-03 3.435412347316741943e-01 -1.701372414827346802e-01 -1.199629083275794983e-01 -2.058694511651992798e-01 -2.654015421867370605e-01 -2.761566266417503357e-02 1.072966232895851135e-01 -5.687235295772552490e-02 1.499062627553939819e-01 3.319711089134216309e-01 -1.989709287881851196e-01 -3.022598922252655029e-01 6.095647215843200684e-01 5.839148908853530884e-02 -1.833259165287017822e-01 -1.957053393125534058e-01 -8.411241322755813599e-02 -1.696589887142181396e-01 4.000295996665954590e-01 -5.100310221314430237e-02 -1.493480801582336426e-01 -1.520987786352634430e-02 8.311977237462997437e-02 2.041749358177185059e-01 1.129202097654342651e-01 -1.883955746889114380e-01 -3.198895454406738281e-01 2.936788834631443024e-03 1.647648811340332031e-01 -2.969346940517425537e-01 1.422023624181747437e-01 -2.042269706726074219e-01 -1.502915620803833008e-01 4.982123523950576782e-02 8.347987383604049683e-02 5.441983789205551147e-02 7.933266758918762207e-01 2.430617958307266235e-01 1.817911565303802490e-01 -2.574364244937896729e-01 7.132035493850708008e-02 -4.573164135217666626e-02 -6.722908467054367065e-02 -2.920477688312530518e-01 -1.113193780183792114e-01 -2.108416557312011719e-01 -3.709969818592071533e-01 3.079486079514026642e-02 -6.183383241295814514e-02 8.053255081176757812e-02 -9.309932589530944824e-01 3.154772520065307617e-01 -4.474658071994781494e-01 -3.097217679023742676e-01 9.701176881790161133e-01 5.656605586409568787e-02 -6.690786033868789673e-02 -2.467803210020065308e-01 1.908551305532455444e-01 -2.271536290645599365e-01 8.164551854133605957e-01 4.570078849792480469e-02 -7.449135184288024902e-02 -5.830777436494827271e-02 5.495761632919311523e-01 2.482318431138992310e-01 1.003196239471435547e+00 -3.285479545593261719e-01 -1.078703880310058594e+00 2.989294007420539856e-02 3.895913064479827881e-01 -2.318827360868453979e-01 -2.013673782348632812e-01 -1.103862524032592773e-01 -5.706728100776672363e-01 -3.732221573591232300e-02 1.510260105133056641e-01 6.103510409593582153e-02 -6.141169071197509766e-01 2.834752798080444336e-01 -6.338742971420288086e-01 -2.481667250394821167e-01 1.469816714525222778e-01 -6.037207692861557007e-02 -5.138941407203674316e-01 -3.288806378841400146e-01 8.838257938623428345e-02 -2.312874943017959595e-01 2.306304685771465302e-02 -6.166623532772064209e-02 -5.013807862997055054e-02
-6.604024767875671387e-02 -1.266285479068756104e-01 1.127843186259269714e-01 4.610860347747802734e-01 3.898235969245433807e-03 3.426109552383422852e-01 1.603812277317047119e-01 -1.517611294984817505e-01 -6.769602745771408081e-02 -9.384046308696269989e-03 4.290681332349777222e-02 -9.632936120033264160e-02 1.449878606945276260e-02 -1.714095324277877808e-01 -4.943969100713729858e-02 2.392154186964035034e-01 4.833235591650009155e-02 -4.774671494960784912e-01 2.509394474327564240e-02 8.724547177553176880e-02 1.272534951567649841e-02 -5.094079375267028809e-01 -4.085770249366760254e-02 5.767917260527610779e-02 -5.420722998678684235e-03 1.349879615008831024e-02 -2.169881388545036316e-02 1.471595913171768188e-01 -1.865454390645027161e-02 5.344372242689132690e-02 -2.748367749154567719e-02 -1.082927957177162170e-01 4.362516477704048157e-02 -3.214306235313415527e-01 2.208260633051395416e-02 1.591383293271064758e-02 4.051138181239366531e-03 2.766253426671028137e-02 -4.127410426735877991e-02 -4.561488050967454910e-03 3.886187076568603516e-02 7.775418926030397415e-03 2.871009148657321930e-02 -9.385111741721630096e-03 3.009578958153724670e-02 -1.548623293638229370e-01 -6.467788666486740112e-02 -1.685845255851745605e-01 6.049542129039764404e-02 1.778656393289566040e-01 6.112760677933692932e-02 1.886820979416370392e-02 1.268854737281799316e-02 -1.444585248827934265e-02 -2.121862210333347321e-02 -1.684880107641220093e-01 5.417264997959136963e-02 -3.352332860231399536e-02 3.413976728916168213e-02 -7.569932341575622559e-01 -3.727416694164276123e-02 -3.275729119777679443e-01 1.406383663415908813e-01 5.087169408798217773e-01 -6.407092511653900146e-02 -5.720907822251319885e-02 -6.490922719240188599e-02 9.917858988046646118e-02 6.095593050122261047e-02 2.249177694320678711e-01 -1.154587697237730026e-02 -4.147784784436225891e-02 6.130181252956390381e-02 -6.023573875427246094e-01 6.071761623024940491e-02 -1.547811776399612427e-01 1.305526345968246460e-01 6.640478372573852539e-01 -3.726240992546081543e-02 -1.005342677235603333e-01 6.884473562240600586e-02 -2.840045094490051270e-01 -3.838286176323890686e-02 4.643790796399116516e-02 1.131972000002861023e-01 9.356574714183807373e-02 -9.842495620250701904e-02 2.477174103260040283e-01 -6.320309638977050781e-02 1.970335468649864197e-02 9.467979520559310913e-02 1.140444636344909668e+00 5.190099775791168213e-02 -8.054996281862258911e-02 4.304891824722290039e-02 3.134092390537261963e-01 9.606188535690307617e-02 -1.035921499133110046e-01 -3.963556140661239624e-02 -1.981620937585830688e-01 -5.159618705511093140e-02 -6.252846717834472656e-01 1.052228361368179321e-02 2.301361411809921265e-01 1.314856112003326416e-01 1.187798976898193359e+00 -2.569915540516376495e-02 1.000072434544563293e-01 -6.762694101780653000e-05 -1.513102352619171143e-01 -4.195434600114822388e-02 7.292655110359191895e-02 5.659915879368782043e-02 6.966003775596618652e-02 -1.414923518896102905e-01 -9.544782638549804688e-01 5.170292221009731293e-03 5.029103755950927734e-01 2.294917404651641846e-02 -1.326959878206253052e-01 3.146652504801750183e-02 -1.714404076337814331e-01 -3.730765357613563538e-02 2.066012769937515259e-01 -4.460775479674339294e-02 3.311960771679878235e-02 -6.548163294792175293e-02 1.024786662310361862e-02 8.456300944089889526e-02 2.328782320022583008e+00 3.026266023516654968e-02 -1.454292386770248413e-01 1.474237591028213501e-01 -3.472500085830688477e+00 3.488502651453018188e-02 2.192925959825515747e-01 3.607420995831489563e-02 -1.799036413431167603e-01 -2.293271385133266449e-02 -8.144454658031463623e-02
-5.328868515789508820e-03 -3.892267346382141113e-01 -3.446997702121734619e-01 -8.242530375719070435e-02 -1.040169373154640198e-01 -4.022570252418518066e-01 5.690572261810302734e-01 -3.519996106624603271e-01 3.704874590039253235e-02 3.567085787653923035e-02 1.721224635839462280e-01 -8.078607171773910522e-02 -2.520930953323841095e-02 -7.315313816070556641e-02 5.572577938437461853e-02 -3.555765450000762939e-01 -2.906017601490020752e-01 4.466113150119781494e-01 -1.310487389564514160e-01 9.078077226877212524e-02 6.025991439819335938e-01 -4.639323428273200989e-02 1.278910040855407715e-01 -8.768939971923828125e-02 3.082823455333709717e-01 -1.914111711084842682e-02 4.763314500451087952e-02 8.687018603086471558e-02 -4.889502376317977905e-02 3.006137907505035400e-01 -2.663170993328094482e-01 -2.821565568447113037e-01 -6.671244651079177856e-02 3.471964299678802490e-01 5.724122524261474609e-01 -4.969553947448730469e-01 5.958253890275955200e-02 -3.900386020541191101e-02 2.836547195911407471e-01 3.403984904289245605e-01 -4.590535245370119810e-04 -8.980064839124679565e-02 3.165296465158462524e-02 3.737158477306365967e-01 -2.860169112682342529e-01 -7.071970105171203613e-01 -1.484121978282928467e-01 -9.291877597570419312e-02 5.461412668228149414e-01 1.238808751106262207e+00 1.037162020802497864e-01 1.772045344114303589e-02 2.149176299571990967e-01 1.211950555443763733e-02 7.768252398818731308e-03 -3.527514263987541199e-02 -8.754352480173110962e-02 5.014009475708007812e-01 -3.993124365806579590e-01 -1.834543496370315552e-01 -1.752441823482513428e-01 7.620612382888793945e-01 5.476273298263549805e-01 -3.012420535087585449e-01 1.157760247588157654e-01 2.079174667596817017e-02 3.003146648406982422e-01 -2.141810059547424316e-01 -5.580094177275896072e-03 2.388722151517868042e-01 2.209074795246124268e-02 4.931688308715820312e-01 -3.461551964282989502e-01 -3.614379763603210449e-01 -1.464826911687850952e-01 1.283430755138397217e-01 5.925047993659973145e-01 7.316980361938476562e-01 6.346389651298522949e-02 1.134200319647789001e-01 2.726233303546905518e-01 1.925142109394073486e-01 -1.660749688744544983e-02 5.205077677965164185e-02 4.090941324830055237e-02 3.481325507164001465e-01 -2.585727274417877197e-01 -2.686561644077301025e-01 -1.187512725591659546e-01 -1.517077237367630005e-01 5.771487355232238770e-01 4.224286973476409912e-01 8.760193735361099243e-02 -1.605519326403737068e-03 2.208164185285568237e-01 6.632513552904129028e-02 -1.071672979742288589e-02 -2.098384499549865723e-01 3.332582861185073853e-02 4.534633159637451172e-01 -3.989633619785308838e-01 6.159412860870361328e-01 -1.422509253025054932e-01 8.635694533586502075e-02 6.251366734504699707e-01 -7.583269476890563965e-01 7.685098331421613693e-03 1.978096514940261841e-01 1.586525291204452515e-01 3.408361077308654785e-01 9.921067953109741211e-02 1.936553418636322021e-01 5.759638175368309021e-02 -5.517948865890502930e-01 -2.903380095958709717e-01 -1.249643266201019287e-01 -8.059731125831604004e-02 -1.424843370914459229e-01 5.801894068717956543e-01 1.255248636007308960e-01 5.225268751382827759e-02 -8.904524892568588257e-02 3.148702085018157959e-01 -7.382530570030212402e-01 1.877313107252120972e-02 -6.984359771013259888e-02 8.582469820976257324e-02 -1.148898959159851074e+00 -3.369167745113372803e-01 8.727409839630126953e-01 -1.544393897056579590e-01 -6.752625703811645508e-01 5.190913677215576172e-01 -4.452424943447113037e-01 6.983174383640289307e-02 -1.763384789228439331e-01 3.024537861347198486e-01 1.265702396631240845e-01 -1.460634358227252960e-02 -1.044838652014732361e-01
-4.289302974939346313e-02 -4.214812070131301880e-02 7.181284576654434204e-02 2.065988332033157349e-01 -1.019268557429313660e-01 3.202162310481071472e-02 -3.173064589500427246e-01 4.480864107608795166e-02 1.813802868127822876e-01 4.396271333098411560e-02 -3.570386767387390137e-01 -1.194536220282316208e-02 5.497697368264198303e-02 1.212147343903779984e-02 -1.604517176747322083e-02 -2.954594558104872704e-03 1.255437880754470825e-01 -8.770179003477096558e-02 -9.612372517585754395e-02 6.957744807004928589e-02 -2.821871042251586914e-01 -3.840671107172966003e-02 2.463505119085311890e-01 -6.035991385579109192e-02 -3.298759460449218750e-01 -1.764515489339828491e-01 5.357456393539905548e-03 -6.829392514191567898e-04 7.786490488797426224e-03 9.368722885847091675e-02 7.127249240875244141e-02 -1.847742646932601929e-01 2.572165243327617645e-02 -4.562674462795257568e-02 -3.545958101749420166e-01 1.129503548145294189e-01 1.916448026895523071e-01 -5.000948533415794373e-02 -3.885976970195770264e-01 2.551892399787902832e-01 1.531351730227470398e-02 5.943237338215112686e-03 3.386795520782470703e-02 1.217402517795562744e-01 1.913315355777740479e-01 1.528360992670059204e-01 -8.973220735788345337e-02 -7.994543761014938354e-02 -3.611775040626525879e-01 -2.139739543199539185e-01 1.680721044540405273e-01 1.151651218533515930e-01 -3.042629063129425049e-01 -3.132333159446716309e-01 -2.007558383047580719e-02 1.149555761367082596e-02 -7.047278434038162231e-02 -1.525765359401702881e-01 7.824341952800750732e-02 1.204913109540939331e-01 -9.394033998250961304e-02 -1.797202080488204956e-01 -3.174187839031219482e-01 1.972262561321258545e-01 2.010935544967651367e-01 -3.303138539195060730e-02 -3.130621910095214844e-01 2.806040346622467041e-01 5.801951140165328979e-02 -5.602830648422241211e-02 -4.086305573582649231e-02 1.091052889823913574e-01 1.868488341569900513e-01 -5.741812661290168762e-02 -2.301179058849811554e-02 -3.371441364288330078e-02 -2.799391746520996094e-01 8.481676131486892700e-02 9.708349406719207764e-02 1.326700020581483841e-02 -3.339436352252960205e-01 1.534910127520561218e-02 5.928701162338256836e-02 3.070353902876377106e-02 8.049892634153366089e-02 -1.343351453542709351e-01 1.931489706039428711e-01 1.543385237455368042e-01 6.222778931260108948e-03 -2.670767903327941895e-01 -3.979721367359161377e-01 -4.609506726264953613e-01 8.840082585811614990e-02 9.051454812288284302e-02 -3.541894555091857910e-01 -5.249767899513244629e-01 -6.373673677444458008e-02 -3.484074026346206665e-02 3.069524839520454407e-02 -3.130470961332321167e-02 1.615866422653198242e-01 -5.592848062515258789e-01 -1.192204952239990234e-01 2.383509427309036255e-01 -3.338068127632141113e-01 3.065104782581329346e-01 2.533310949802398682e-01 -6.239435076713562012e-02 -3.829910159111022949e-01 9.919508695602416992e-01 -5.577164888381958008e-02 3.389398753643035889e-02 -3.415792062878608704e-02 -7.869937457144260406e-03 2.165765017271041870e-01 1.511979699134826660e-01 3.988422453403472900e-02 -2.086662314832210541e-02 -2.358771711587905884e-01 -1.070994213223457336e-01 2.114996761083602905e-01 5.117101594805717468e-03 -4.044421315193176270e-01 -6.834821105003356934e-01 -6.386414170265197754e-02 -4.586978629231452942e-02 3.264250978827476501e-02 3.442939370870590210e-02 1.055078282952308655e-01 1.189414784312248230e-01 4.726160317659378052e-02 2.789410650730133057e-01 -2.798245847225189209e-01 6.775600463151931763e-02 1.649323850870132446e-01 -5.209936574101448059e-02 -3.210664391517639160e-01 1.317400336265563965e-01 6.866402924060821533e-02 5.273951590061187744e-02
-7.874573767185211182e-02 -8.571202307939529419e-02 2.612751126289367676e-01 -3.839813470840454102e-01 -2.026944756507873535e-01 2.223462015390396118e-01 4.509798437356948853e-02 -2.365192621946334839e-01 -2.247798889875411987e-01 3.590584546327590942e-02 3.284640908241271973e-01 9.586028754711151123e-02 -5.066078156232833862e-02 -1.593910343945026398e-02 -2.959926053881645203e-02 -3.040676005184650421e-02 2.111940234899520874e-01 -4.354121983051300049e-01 -2.062878608703613281e-01 -3.523457096889615059e-03 9.973743557929992676e-02 1.340704411268234253e-01 -1.696303635835647583e-01 -1.072207614779472351e-01 4.007136821746826172e-01 -1.975623369216918945e-01 9.051836282014846802e-02 1.013616006821393967e-02 6.723275780677795410e-02 2.337917238473892212e-01 3.089141249656677246e-01 3.624426722526550293e-01 -1.697016805410385132e-01 -8.049535751342773438e-02 1.305222809314727783e-01 -1.111895963549613953e-01 -1.318366676568984985e-01 1.715820133686065674e-01 3.975356519222259521e-01 4.776117205619812012e-01 -5.065911635756492615e-02 -1.384576503187417984e-02 7.131449878215789795e-02 -2.481151223182678223e-01 1.532972455024719238e-01 -1.154254674911499023e-01 -1.935943067073822021e-01 -1.975613385438919067e-01 9.776633977890014648e-02 7.340048998594284058e-02 -1.944038122892379761e-01 -1.069989278912544250e-01 2.993729114532470703e-01 -5.039595365524291992e-01 -2.486388757824897766e-02 8.857144415378570557e-02 1.920580305159091949e-02 3.408147096633911133e-01 2.261067032814025879e-01 1.155197978019714355e+00 -1.278223693370819092e-01 -1.730919629335403442e-01 9.052277356386184692e-02 -8.893710374832153320e-02 -2.214519977569580078e-01 -8.131740242242813110e-02 3.363339304924011230e-01 3.118299841880798340e-01 8.958584815263748169e-02 -7.938048243522644043e-02 9.288189001381397247e-03 -8.377373218536376953e-03 1.707592159509658813e-01 6.661415100097656250e-02 -2.151182740926742554e-01 -3.895514905452728271e-01 8.601530641317367554e-02 -2.485036291182041168e-02 -2.124552875757217407e-01 7.135998457670211792e-02 3.489437699317932129e-01 -8.844776451587677002e-02 -5.275208875536918640e-02 1.583120971918106079e-02 3.417650237679481506e-02 -5.073393229395151138e-03 2.061091959476470947e-01 -2.277391552925109863e-01 -1.662310659885406494e-01 -1.907195448875427246e-01 1.047006994485855103e-02 -3.059366159141063690e-02 -1.790293604135513306e-01 -2.397142499685287476e-01 4.102261066436767578e-01 -4.792137742042541504e-01 4.337732866406440735e-02 5.449412018060684204e-02 -6.071789935231208801e-02 3.707101643085479736e-01 1.294292807579040527e-01 1.046637773513793945e+00 -1.784454733133316040e-01 3.255445957183837891e-01 5.699209496378898621e-02 4.332547634840011597e-02 -1.996920704841613770e-01 1.142854839563369751e-01 2.914641499519348145e-01 7.360065579414367676e-01 -1.986444741487503052e-02 -2.106422372162342072e-02 2.493633329868316650e-02 -7.571036219596862793e-01 1.368017196655273438e-01 5.223908424377441406e-01 -2.406042367219924927e-01 -1.717870682477951050e-01 2.569904027041047812e-04 4.387752115726470947e-01 -1.302461773157119751e-01 -1.984580904245376587e-01 4.371362030506134033e-01 -2.405081093311309814e-01 -1.783361658453941345e-02 -6.104145944118499756e-02 2.220554277300834656e-02 2.121633887290954590e-01 2.298959195613861084e-01 -2.004136800765991211e+00 -2.548619508743286133e-01 6.600492596626281738e-01 1.849613897502422333e-02 -1.370416581630706787e-01 -8.303028345108032227e-02 3.189234435558319092e-01 3.162524104118347168e-01 -8.465112745761871338e-02 -6.513981497846543789e-04 3.841845691204071045e-02
