1.842340230941772461e-01
1.833860427141189575e-01
6.711267232894897461e-01
3.354607820510864258e-01
-1.402317881584167480e-01
-2.648034691810607910e-01
-1.152745842933654785e+00
1.565148532390594482e-01
1.688203513622283936e-01
8.227295279502868652e-01
4.600725769996643066e-01
-8.341131806373596191e-01
4.123990237712860107e-01
1.865487545728683472e-01
6.937208175659179688e-01
-1.716353744268417358e-01
4.886936768889427185e-02
-1.383948922157287598e-01
-4.257882833480834961e-01
1.994675844907760620e-01
4.182732403278350830e-01
3.402721583843231201e-01
-2.436044439673423767e-02
5.223278403282165527e-01
-2.036205977201461792e-01
2.701653726398944855e-02
-1.742290332913398743e-02
8.175663948059082031e-01
6.347325444221496582e-01
-3.670162856578826904e-01
1.503517329692840576e-01
3.132022684440016747e-03
-8.712371438741683960e-02
-9.368360638618469238e-01
7.484176009893417358e-02
3.269682228565216064e-01
-1.646026670932769775e-01
1.211349844932556152e+00
3.798208832740783691e-01
-5.210437774658203125e-01
-1.465186774730682373e-01
1.222803592681884766e+00
8.751363307237625122e-02
-2.844508588314056396e-01
5.997206568717956543e-01
7.157536745071411133e-01
2.770290374755859375e-01
9.156444668769836426e-01
8.283563703298568726e-02
1.215433835983276367e+00
3.247930109500885010e-02
8.685156702995300293e-01
-1.747718304395675659e-01
7.731342911720275879e-01
-1.656279325485229492e+00
4.740515351295471191e-01
1.404998898506164551e-01
1.519083529710769653e-01
8.855024576187133789e-01
1.874370425939559937e-01
4.790799021720886230e-01
-2.485813498497009277e-01
-8.262197971343994141e-01
4.977927356958389282e-02
-8.306988477706909180e-01
-1.417988240718841553e-01
-4.435279369354248047e-01
2.850319445133209229e-01
2.576836384832859039e-02
1.212933301925659180e+00
-7.417787313461303711e-01
-1.023927569389343262e+00
1.187176033854484558e-01
-5.040220022201538086e-01
3.738125264644622803e-01
-1.323304325342178345e-01
-1.437909454107284546e-01
2.606584429740905762e-01
-8.072287440299987793e-01
1.839350461959838867e-01
4.960506558418273926e-01
-3.292693495750427246e-01
1.370579302310943604e-01
3.533669114112854004e-01
-3.471814990043640137e-01
-8.820030093193054199e-01
-1.814463641494512558e-03
9.894991517066955566e-01
5.654246211051940918e-01
4.128594323992729187e-02
-1.651035994291305542e-01
9.958431124687194824e-01
-2.176737189292907715e-01
2.272653281688690186e-01
-3.529382944107055664e-01
-2.543829381465911865e-01
9.020856618881225586e-01
1.167055010795593262e+00
3.833968937397003174e-01
-1.552345696836709976e-02
