2.157499082386493683e-02 -8.945214748382568359e-02 2.292581088840961456e-02 -6.158661097288131714e-02 -4.813179373741149902e-02 -5.016447231173515320e-02 -3.325542807579040527e-02 -2.915700897574424744e-03 -5.641270545311272144e-04 -5.196852609515190125e-02 3.084348514676094055e-02 1.330912858247756958e-01 1.506074070930480957e-01 -9.689696878194808960e-02 -7.137435954064130783e-03 5.380281433463096619e-02 5.087643861770629883e-02 -4.686044156551361084e-02 -1.585953831672668457e-01 -6.892782635986804962e-03 1.291083265095949173e-02 1.039841491729021072e-02 6.554693728685379028e-02 4.972401633858680725e-02 -3.289971128106117249e-02 1.790445996448397636e-03 -6.722474098205566406e-02 1.699575632810592651e-01 -2.518777921795845032e-02 -2.663556672632694244e-02 -7.950924336910247803e-02 2.917590178549289703e-02 1.291792392730712891e-01 7.547751069068908691e-02 2.069133520126342773e-01 -7.107377797365188599e-02 9.617920033633708954e-03 2.714137546718120575e-03 2.117282245308160782e-03 8.940311521291732788e-02 3.823921550065279007e-03 3.186509013175964355e-02 -2.517017535865306854e-03 -3.115847148001194000e-02 -1.290036458522081375e-02 -9.569878131151199341e-02 -6.535662710666656494e-02 3.610254824161529541e-02 6.166403740644454956e-02 2.388817071914672852e-02 2.233576215803623199e-02 -8.209687657654285431e-03 7.432756572961807251e-02 -6.599793676286935806e-03 -8.628618717193603516e-02 -8.718179538846015930e-03 -2.172378599643707275e-01 6.179245561361312866e-02 4.802208393812179565e-02 1.965287327766418457e-02 1.067867279052734375e-01 7.762978319078683853e-03 -4.615907743573188782e-02 6.804001331329345703e-02 -1.097857803106307983e-01 1.729390472173690796e-01 1.176897510886192322e-01 -1.073841704055666924e-03 -1.034798994660377502e-01 -1.714067161083221436e-02 4.333679750561714172e-02 -1.435486041009426117e-02 -1.806670874357223511e-01 2.622168697416782379e-02 -3.660575672984123230e-02 -1.357929967343807220e-02 1.595102250576019287e-01 9.482996165752410889e-02 -6.799224764108657837e-03 -1.326821744441986084e-01 4.938854649662971497e-02 5.510184913873672485e-02 1.246176846325397491e-02 -3.589650988578796387e-02 5.041022226214408875e-02 -4.362948983907699585e-02 -2.508318126201629639e-01 -8.651449531316757202e-02 -5.701946094632148743e-02 -4.634807631373405457e-02 -1.914374157786369324e-02 -1.356615424156188965e-01 -7.226506620645523071e-02 -1.948825828731060028e-02 7.389952987432479858e-02 1.579560935497283936e-01 -1.789668388664722443e-02 1.205902099609375000e-01 1.457649865187704563e-03 1.779113113880157471e-01
3.680740296840667725e-02 2.737059840001165867e-04 1.628215983510017395e-02 2.910632267594337463e-02 -5.249598994851112366e-03 3.958481922745704651e-02 5.141079053282737732e-02 1.198585517704486847e-02 -1.502277422696352005e-02 1.444853562861680984e-02 6.353003904223442078e-03 -6.673113908618688583e-03 -6.580451037734746933e-03 -7.192300632596015930e-03 5.447077378630638123e-02 3.580147027969360352e-02 -2.292526885867118835e-02 -4.458234831690788269e-02 4.759231582283973694e-02 4.862246662378311157e-02 4.748671874403953552e-02 4.019825253635644913e-03 1.984829455614089966e-02 -3.340829908847808838e-02 2.618229389190673828e-02 -6.677466444671154022e-05 -2.237103134393692017e-02 1.800166070461273193e-02 -3.223206475377082825e-02 -4.457426816225051880e-02 -3.508062660694122314e-02 -1.511856913566589355e-02 5.829710979014635086e-03 -4.809181019663810730e-02 -1.588073559105396271e-02 -8.157537132501602173e-02 -7.700381334871053696e-03 6.614989135414361954e-03 -1.213597785681486130e-02 -3.238646313548088074e-02 -6.502861529588699341e-02 9.514133445918560028e-03 -1.926588639616966248e-02 2.559703588485717773e-02 -4.163713194429874420e-03 -4.429553449153900146e-02 -2.643316239118576050e-02 -2.440793439745903015e-02 -5.602194368839263916e-02 3.892110288143157959e-02 -3.963885456323623657e-02 3.861856460571289062e-02 4.268678277730941772e-02 4.772473126649856567e-02 -1.738293841481208801e-02 -4.929352179169654846e-02 2.909204922616481781e-02 -4.949518013745546341e-03 -6.978665292263031006e-02 -5.941024050116539001e-02 9.741080924868583679e-03 -3.221080452203750610e-02 -2.767788060009479523e-02 3.024118393659591675e-02 3.524350747466087341e-02 9.403994190506637096e-04 -2.536405064165592194e-02 -1.358953397721052170e-02 -2.502129040658473969e-02 -4.309049993753433228e-02 5.568474531173706055e-02 -8.299280889332294464e-03 -6.673207972198724747e-03 -2.964691445231437683e-02 -4.181177169084548950e-02 1.665109209716320038e-02 2.316240221261978149e-03 -5.509422160685062408e-03 -4.523255303502082825e-02 -8.728230372071266174e-03 1.693727821111679077e-02 -9.451570920646190643e-03 4.725247249007225037e-02 3.074268251657485962e-02 -5.310905352234840393e-02 -1.000900287181138992e-02 9.480497799813747406e-03 3.923061862587928772e-02 -3.842423204332590103e-03 -1.881222240626811981e-02 -3.836819902062416077e-02 8.707839995622634888e-03 4.269718378782272339e-02 2.050695754587650299e-02 -3.607441857457160950e-02 -1.707794517278671265e-02 3.586082533001899719e-02 -2.467016130685806274e-02 -3.764923894777894020e-03 2.182034309953451157e-03
-1.302064862102270126e-02 -5.425219982862472534e-02 -3.804913908243179321e-02 1.365630049258470535e-02 -8.738617599010467529e-02 6.021077744662761688e-03 -5.355361476540565491e-02 -3.966927900910377502e-02 8.233187347650527954e-02 -5.784802883863449097e-02 -5.477569997310638428e-02 2.107282355427742004e-02 4.812987521290779114e-02 -7.084958255290985107e-02 -2.956572733819484711e-02 3.585465997457504272e-02 -2.817601710557937622e-02 -4.386375099420547485e-02 2.375814691185951233e-02 -2.383580803871154785e-02 4.171565175056457520e-02 -1.356981322169303894e-02 8.283083140850067139e-02 -6.444130092859268188e-02 3.430367633700370789e-02 -8.073576609604060650e-04 4.246628284454345703e-02 -3.946173936128616333e-02 -2.760699577629566193e-02 8.770453929901123047e-02 4.666499421000480652e-02 6.419461220502853394e-02 1.418064534664154053e-02 1.218486297875642776e-02 2.240971662104129791e-03 3.407458961009979248e-02 2.053967909887433052e-03 3.623961471021175385e-03 -2.710624365136027336e-03 -1.703493297100067139e-02 -7.582607120275497437e-02 6.823945790529251099e-02 2.957352623343467712e-02 8.500140160322189331e-02 7.702626753598451614e-03 -2.156564034521579742e-02 4.526553303003311157e-02 2.432321384549140930e-02 1.759764272719621658e-03 -3.811493143439292908e-02 2.195555903017520905e-02 -5.580234527587890625e-02 1.358411367982625961e-02 -1.664135977625846863e-02 5.862210690975189209e-02 -2.672967314720153809e-02 -6.777024269104003906e-02 7.005035877227783203e-02 2.847608551383018494e-02 8.166393265128135681e-03 9.019988775253295898e-02 8.986949920654296875e-03 1.174788642674684525e-02 -1.151180453598499298e-02 2.547801844775676727e-02 2.167232893407344818e-02 4.441755264997482300e-02 -4.709711298346519470e-02 -3.987863287329673767e-02 -4.050199873745441437e-03 2.796661667525768280e-02 -2.792958356440067291e-02 -3.391379863023757935e-02 2.021801285445690155e-02 -5.529409646987915039e-02 1.224904693663120270e-02 -2.568967826664447784e-02 -5.481321737170219421e-02 -4.379227757453918457e-02 3.630670532584190369e-02 -7.520571351051330566e-03 7.685731351375579834e-02 1.360254585742950439e-01 3.690926358103752136e-02 -1.277683824300765991e-01 -3.522531315684318542e-02 7.237820886075496674e-03 7.773173600435256958e-02 -7.515820115804672241e-02 -9.093021973967552185e-03 4.915502294898033142e-02 -4.076325520873069763e-02 2.686821483075618744e-02 -1.315157394856214523e-03 3.994041308760643005e-02 4.406254366040229797e-02 -8.228303492069244385e-02 -1.905534043908119202e-02 -7.613886892795562744e-02 5.332253500819206238e-02
-1.061884164810180664e-01 -5.493604764342308044e-02 1.108682602643966675e-01 4.216818884015083313e-02 4.433653503656387329e-02 -5.306393653154373169e-02 5.118933320045471191e-02 6.399483978748321533e-02 -1.195531617850065231e-02 -2.914824895560741425e-02 6.936915963888168335e-02 9.189133532345294952e-03 4.162190109491348267e-02 3.861117735505104065e-02 -7.004810124635696411e-02 8.054864406585693359e-02 -9.179421514272689819e-02 -6.727216392755508423e-02 8.280892670154571533e-02 -6.186629459261894226e-02 -1.008631587028503418e-01 -5.581872165203094482e-02 4.086497426033020020e-02 5.074245855212211609e-02 -5.135796219110488892e-02 4.753114772029221058e-04 -4.813741892576217651e-02 2.318411134183406830e-02 -3.810821101069450378e-02 4.625607281923294067e-02 -1.069043949246406555e-02 -7.699224352836608887e-02 -2.287092618644237518e-02 -3.364333882927894592e-02 -1.319856941699981689e-02 -6.996212154626846313e-02 -3.875884413719177246e-02 -1.774434000253677368e-02 1.692790351808071136e-02 -5.464135110378265381e-02 -4.971253871917724609e-02 4.938131198287010193e-02 -7.457819581031799316e-02 -3.737724199891090393e-02 7.738318294286727905e-03 3.327304497361183167e-02 4.607595130801200867e-02 -7.425156235694885254e-02 -5.675096809864044189e-02 -3.374003618955612183e-02 -6.053622439503669739e-02 -8.414073288440704346e-02 -4.180270805954933167e-02 -4.335539042949676514e-02 8.024024963378906250e-02 3.246384672820568085e-03 -1.092908903956413269e-02 -4.282413423061370850e-02 -4.022105410695075989e-02 -8.173204958438873291e-02 3.281644359230995178e-02 -4.085439816117286682e-02 -8.829344809055328369e-02 -5.394352599978446960e-03 3.625064715743064880e-02 4.229767993092536926e-02 1.646678894758224487e-02 -2.252949588000774384e-02 2.003940939903259277e-02 4.325460642576217651e-02 -4.360288381576538086e-02 -2.416534349322319031e-02 -6.210419815033674240e-03 1.419013645499944687e-02 -1.070725992321968079e-01 -4.761979449540376663e-03 -2.125781774520874023e-02 1.301810294389724731e-01 -1.027128938585519791e-02 6.473338603973388672e-02 -5.649408325552940369e-02 7.356692850589752197e-02 -3.906059265136718750e-02 -6.860036402940750122e-02 7.902870327234268188e-02 4.261727631092071533e-02 -9.221657179296016693e-03 -2.278882451355457306e-02 1.007814332842826843e-02 5.770141724497079849e-03 -1.025003939867019653e-01 -2.983288140967488289e-03 -3.203092887997627258e-02 -1.333872694522142410e-02 5.544142052531242371e-02 4.911998286843299866e-02 1.925207301974296570e-02 -7.816316932439804077e-02 -1.210525110363960266e-01 1.179681159555912018e-02
6.513570249080657959e-02 8.078484982252120972e-02 -1.479369550943374634e-01 -4.765500873327255249e-02 -6.866338104009628296e-02 5.160086229443550110e-02 -2.615157067775726318e-01 1.329487841576337814e-02 3.881628513336181641e-01 3.225744888186454773e-02 4.040931537747383118e-02 3.836932778358459473e-02 -1.419452577829360962e-01 -1.219467259943485260e-02 -6.894893199205398560e-02 -1.540181338787078857e-01 1.704134643077850342e-01 -8.163588494062423706e-02 3.610811233520507812e-01 9.864825755357742310e-02 -3.264899179339408875e-02 -1.522983312606811523e-01 -6.907565146684646606e-02 7.554198801517486572e-02 9.493146091699600220e-02 -8.352112956345081329e-03 1.245538797229528427e-02 1.506287604570388794e-01 6.562421470880508423e-02 9.146774560213088989e-02 -2.818921208381652832e-02 2.046011202037334442e-02 1.041127741336822510e-01 9.137153625488281250e-02 -1.347955781966447830e-02 5.316904187202453613e-02 4.369991719722747803e-01 -2.160071283578872681e-01 -4.931411743164062500e-01 -6.171797588467597961e-02 8.509577251970767975e-03 1.356919854879379272e-01 -1.580916903913021088e-02 -1.193856298923492432e-01 -5.180711746215820312e-01 1.251830719411373138e-02 -1.239550709724426270e-01 -2.979872934520244598e-02 2.298638224601745605e-02 2.739520184695720673e-02 -5.830038804560899734e-03 -2.661524526774883270e-02 2.831263281404972076e-02 -7.014772295951843262e-02 -1.350606698542833328e-02 -1.272650361061096191e-01 -4.347194731235504150e-02 1.049847900867462158e-01 -7.104100286960601807e-02 -6.193882226943969727e-02 3.366516903042793274e-02 2.433491684496402740e-02 6.889154016971588135e-02 -3.875059783458709717e-01 1.179256476461887360e-03 7.858441211283206940e-03 2.505538053810596466e-02 1.027652770280838013e-01 -1.268464978784322739e-02 1.207766216248273849e-02 2.172857969999313354e-01 -2.938735187053680420e-01 -3.276844322681427002e-02 -6.734732389450073242e-01 -3.418295457959175110e-02 2.930577695369720459e-01 -3.928825259208679199e-02 3.227163339033722878e-03 -1.673030704259872437e-01 -8.226631581783294678e-02 -4.540516138076782227e-01 -7.826809585094451904e-02 -7.159787695854902267e-03 -9.638159722089767456e-02 6.367430835962295532e-02 3.243965208530426025e-01 1.637286879122257233e-02 -1.946266740560531616e-02 -3.596049174666404724e-02 6.130155324935913086e-01 -4.378633573651313782e-02 -4.124336317181587219e-02 5.763413012027740479e-02 3.961386978626251221e-01 6.076815724372863770e-02 2.646675705909729004e-01 -6.744844466447830200e-02 -2.408216521143913269e-02 -4.792454093694686890e-02 -3.225386375561356544e-03
2.231244742870330811e-02 6.597555428743362427e-02 -9.842001646757125854e-02 -1.101253032684326172e-01 1.376840658485889435e-02 -4.728178679943084717e-02 2.638471424579620361e-01 -1.215987354516983032e-01 -7.919942587614059448e-02 4.148390889167785645e-02 -7.577510178089141846e-02 -1.388534530997276306e-02 -1.156260892748832703e-01 -6.895248661749064922e-04 1.352810561656951904e-01 6.754545494914054871e-03 7.553703337907791138e-02 1.016412973403930664e-01 -4.055184498429298401e-02 1.531367748975753784e-01 3.754728008061647415e-03 -2.611044049263000488e-01 3.478602319955825806e-02 2.389318794012069702e-01 -6.448152661323547363e-02 4.343496561050415039e-01 1.032493356615304947e-02 -2.067876607179641724e-01 1.020549908280372620e-01 2.040713876485824585e-01 -1.546901166439056396e-01 1.076506674289703369e-01 8.096260949969291687e-03 7.600970566272735596e-02 1.169464960694313049e-01 -2.872239053249359131e-02 3.461211323738098145e-01 2.862915992736816406e-01 3.951257467269897461e-01 -1.421069949865341187e-01 -2.216545492410659790e-02 -2.824836075305938721e-01 1.697690188884735107e-01 6.968571990728378296e-02 -3.819576501846313477e-01 -4.423893988132476807e-03 2.062025479972362518e-03 1.157471351325511932e-02 -3.972323238849639893e-02 -8.969400823116302490e-02 2.235665619373321533e-01 -8.308811113238334656e-03 2.797231264412403107e-02 -1.967641524970531464e-02 5.984775349497795105e-02 7.679073512554168701e-02 2.571621676906943321e-03 4.949719458818435669e-02 -6.867989897727966309e-02 -6.722682714462280273e-02 -3.193335980176925659e-02 -7.491853833198547363e-02 -7.238546758890151978e-02 -1.605508774518966675e-01 1.336321383714675903e-01 1.609136462211608887e-01 -3.398873377591371536e-03 -2.673551440238952637e-01 -1.124675758183002472e-02 2.142786281183362007e-03 1.039437949657440186e-01 -3.775387704372406006e-01 2.325016818940639496e-02 1.850584149360656738e-01 -1.017748378217220306e-02 -4.512751102447509766e-01 -1.574623025953769684e-02 -9.664129465818405151e-02 -1.452366709709167480e-01 1.616038084030151367e-01 -7.554848492145538330e-02 -1.925395429134368896e-01 -9.624911099672317505e-02 5.205816030502319336e-02 1.450909953564405441e-02 -6.299447733908891678e-03 2.597511745989322662e-02 -1.704572141170501709e-02 9.119459986686706543e-02 -4.440681338310241699e-01 3.347440809011459351e-02 -3.836312517523765564e-02 -1.234702114015817642e-02 3.661937415599822998e-01 5.537295714020729065e-02 6.760992854833602905e-02 1.035860925912857056e-02 6.267409771680831909e-02 -2.490709163248538971e-02 5.357959307730197906e-03
5.469816923141479492e-02 -6.362850964069366455e-02 -7.455520331859588623e-02 -1.529009547084569931e-02 1.907724700868129730e-02 -1.013499684631824493e-02 -1.010100841522216797e-01 1.531906425952911377e-02 -7.287117093801498413e-02 -3.054683841764926910e-02 2.966814115643501282e-02 -1.817682757973670959e-02 2.151414155960083008e-01 -3.051067329943180084e-02 -2.021316252648830414e-02 4.105714336037635803e-02 6.223547272384166718e-03 -7.917144149541854858e-02 -5.247751474380493164e-01 -3.872039914131164551e-02 3.503595665097236633e-02 6.761100888252258301e-02 -1.832901500165462494e-02 1.949023902416229248e-01 2.048243023455142975e-02 2.328770700842142105e-03 2.561915665864944458e-02 3.296091794967651367e+00 8.958338201045989990e-02 8.748447895050048828e-02 -3.673678636550903320e-02 1.347593367099761963e-01 -5.012453719973564148e-02 -3.474615141749382019e-02 4.703487083315849304e-02 -7.060618698596954346e-02 1.220003366470336914e-01 -1.329338084906339645e-02 8.719264715909957886e-02 8.363999426364898682e-03 -2.597252093255519867e-02 -3.896629437804222107e-02 -9.933896362781524658e-03 -1.489663869142532349e-02 3.421014919877052307e-02 -5.871891044080257416e-03 -4.525681957602500916e-03 -1.241353154182434082e-02 4.194099083542823792e-02 -1.275564078241586685e-02 6.551958620548248291e-02 2.525780722498893738e-02 -9.931288659572601318e-03 1.748227328062057495e-02 -1.052541807293891907e-01 -5.975051783025264740e-03 1.066692918539047241e-01 9.425946511328220367e-03 -6.476759165525436401e-02 3.768483176827430725e-02 2.695532166399061680e-04 -6.812034174799919128e-03 -1.729569584131240845e-02 3.408838436007499695e-02 -8.747863024473190308e-02 -3.321702033281326294e-02 7.855271105654537678e-04 -1.388242654502391815e-02 -1.532764267176389694e-02 1.535707898437976837e-02 -1.387533172965049744e-02 -7.892047613859176636e-02 8.278240449726581573e-03 -2.078699618577957153e-01 3.167152032256126404e-02 -1.330299228429794312e-01 -6.330109596252441406e+00 -1.861218065023422241e-01 5.526281148195266724e-02 6.013375520706176758e-02 9.827310591936111450e-02 9.504067152738571167e-02 -7.576603442430496216e-02 3.702306374907493591e-02 -1.062554940581321716e-01 9.796570986509323120e-02 4.134153202176094055e-02 -4.114779829978942871e-02 -2.412362257018685341e-03 1.817986220121383667e-01 -5.617241933941841125e-02 4.171170666813850403e-02 -3.304651007056236267e-02 9.678786247968673706e-02 -2.457519322633743286e-01 4.749587923288345337e-02 -3.008656017482280731e-02 6.170533131808042526e-03 -3.312925249338150024e-02 -3.419582918286323547e-02
