4.001197218894958496e-01
-2.538703382015228271e-02
6.557474732398986816e-01
-1.263985037803649902e-01
3.050813674926757812e-01
4.010685682296752930e-01
4.055721163749694824e-01
-1.015586018562316895e+00
6.417757272720336914e-01
6.149424314498901367e-01
-8.931431174278259277e-01
-1.137255504727363586e-01
4.050934910774230957e-01
-1.732349693775177002e-01
-2.743061780929565430e-01
3.450772464275360107e-01
2.250439375638961792e-01
2.881518006324768066e-01
2.010365247726440430e+00
5.478897690773010254e-01
7.897464632987976074e-01
-4.007426798343658447e-01
6.905340552330017090e-01
5.325174927711486816e-01
1.441539824008941650e-01
9.910514950752258301e-01
-2.700086832046508789e-01
2.533380687236785889e-01
-2.901158630847930908e-01
7.354862689971923828e-01
8.037479221820831299e-02
-5.422437191009521484e-01
2.355492562055587769e-01
6.071709394454956055e-01
-2.042763471603393555e+00
6.082105040550231934e-01
-4.196978807449340820e-01
4.815516471862792969e-01
3.906334936618804932e-01
6.208480596542358398e-01
-5.451848730444908142e-02
-1.820348352193832397e-01
-1.352796703577041626e-01
-9.121880680322647095e-02
-8.623549342155456543e-01
-9.626216888427734375e-01
3.657451272010803223e-02
1.846259534358978271e-01
4.708838462829589844e-01
5.914559364318847656e-01
1.377124190330505371e-01
-4.270965605974197388e-02
1.041320804506540298e-02
-1.621535979211330414e-02
-2.794573605060577393e-01
3.013511598110198975e-01
-4.984753429889678955e-01
-2.514575608074665070e-02
1.401662230491638184e-01
-6.250554323196411133e-02
-1.321101486682891846e-01
3.894964978098869324e-02
3.099400997161865234e-01
9.927126020193099976e-02
-1.075970474630594254e-02
-5.797587633132934570e-01
1.725094616413116455e-01
2.853937149047851562e-01
-9.829279780387878418e-02
-2.770583033561706543e-01
5.945118069648742676e-01
2.925880253314971924e-01
8.037891983985900879e-01
-8.943384885787963867e-02
-7.089859806001186371e-03
6.420388072729110718e-02
4.314873218536376953e-01
2.143226265907287598e-01
7.238865364342927933e-03
3.580738902091979980e-01
-5.772091150283813477e-01
-4.584082961082458496e-01
2.679191529750823975e-01
-3.769775629043579102e-01
3.570292592048645020e-01
-1.277076154947280884e-01
-1.258563995361328125e-01
3.037693500518798828e-01
-1.588700339198112488e-02
-1.053178403526544571e-02
-3.161713182926177979e-01
-2.811740040779113770e-01
-7.668242603540420532e-02
4.624716043472290039e-01
7.018877863883972168e-01
3.446299955248832703e-02
4.614237323403358459e-02
-7.221207022666931152e-01
3.328654170036315918e-01
3.689406216144561768e-01
