-2.660926342010498047e+00
8.216215968132019043e-01
-6.809783577919006348e-01
2.834197282791137695e-01
-1.312132120132446289e+00
-1.494478344917297363e+00
1.628264307975769043e+00
-5.895147323608398438e-01
5.698437988758087158e-02
5.109928250312805176e-01
-3.173069655895233154e-01
1.613126158714294434e+00
-1.548516470938920975e-02
1.278835415840148926e+00
-3.365708589553833008e-01
-2.072389721870422363e-01
-4.917312264442443848e-01
-1.394509524106979370e-01
-1.519291520118713379e+00
-1.102530732750892639e-01
1.189589262008666992e+00
9.321268200874328613e-01
-1.932853817939758301e+00
-1.286620199680328369e-01
-9.082969427108764648e-01
-6.357230246067047119e-02
-2.618890106678009033e-01
-1.626190841197967529e-01
-7.125659584999084473e-01
5.577138066291809082e-01
1.884248495101928711e+00
8.581022918224334717e-02
4.860927816480398178e-03
2.677205502986907959e-01
1.218851089477539062e+00
1.919678330421447754e+00
2.650235176086425781e+00
9.379550814628601074e-01
2.064444065093994141e+00
2.040726877748966217e-02
-1.730484724044799805e+00
1.361876249313354492e+00
1.020058989524841309e+00
-5.440648198127746582e-01
6.746279001235961914e-01
-6.887192130088806152e-01
2.746029198169708252e-01
6.017677783966064453e-01
-2.752473950386047363e-01
3.416041433811187744e-01
2.497150935232639313e-02
-1.767773389816284180e+00
-1.364730298519134521e-01
-4.958626031875610352e-01
1.658574119210243225e-02
9.853588342666625977e-01
9.476534724235534668e-01
3.011581599712371826e-01
-1.876826405525207520e+00
1.343695521354675293e+00
9.396868944168090820e-01
2.143913060426712036e-01
-4.034353196620941162e-01
2.173105487599968910e-03
1.151938199996948242e+00
8.133279532194137573e-02
1.346227824687957764e-01
-8.865016698837280273e-01
-2.991087734699249268e-01
1.656516075134277344e+00
-5.378785133361816406e-01
3.090445399284362793e-01
-4.864780902862548828e-01
3.591130971908569336e-01
8.471947163343429565e-02
5.222185254096984863e-01
5.817623138427734375e-01
-4.303573369979858398e-01
4.807032644748687744e-01
5.312105417251586914e-01
3.083048388361930847e-02
-1.216654926538467407e-01
-4.224972724914550781e-01
4.477840960025787354e-01
2.116214513778686523e+00
1.655140519142150879e-01
4.210529625415802002e-01
-2.100399494171142578e+00
1.214130759239196777e+00
2.786193788051605225e-01
-1.210923194885253906e+00
-4.429842531681060791e-01
-5.395426750183105469e-01
-3.781766295433044434e-01
-9.335523247718811035e-01
-1.177283897995948792e-01
1.550379276275634766e+00
1.933885551989078522e-02
1.060083270072937012e+00
1.433114856481552124e-01
